-1.411417245864868164e+00 2.606576919555664062e+00 1.209407329559326172e+00 2.869706153869628906e+00 1.910803914070129395e-01 -2.166414022445678711e+00 1.060398817062377930e+00 -1.930456757545471191e-01 1.574601650238037109e+00 2.332361698150634766e+00 1.888103008270263672e+00 4.067827165126800537e-01 -8.142516016960144043e-01 -1.162757873535156250e+00 5.659692287445068359e-01 1.167300939559936523e+00 1.624469161033630371e+00 -6.904270648956298828e-01 2.642411470413208008e+00 1.843499302864074707e+00 -7.027326822280883789e-01 -2.346736192703247070e+00 -2.476231098175048828e+00 -1.263541936874389648e+00 1.540773630142211914e+00 1.326989412307739258e+00 -7.337961792945861816e-01 2.417145729064941406e+00 1.666347861289978027e+00 1.632340312004089355e+00 -2.092411279678344727e+00 -2.074380159378051758e+00 1.656177163124084473e+00 9.567015767097473145e-01 2.170357465744018555e+00 2.641233444213867188e+00 -2.010405540466308594e+00 3.855687975883483887e-01 1.705706000328063965e+00 7.070421576499938965e-01 5.358930826187133789e-01 -1.455799460411071777e+00 -1.821504116058349609e+00 -1.568603992462158203e+00 -2.231242418289184570e+00 -2.772157907485961914e+00 -1.116879701614379883e+00 -1.753689646720886230e+00 7.778012007474899292e-02 -1.103570699691772461e+00 -1.239140510559082031e+00 1.648796916007995605e+00 -1.775660276412963867e+00 -4.392794370651245117e-01 -1.720947980880737305e+00 4.165798425674438477e-01 -1.609037160873413086e+00 3.113888204097747803e-01 -2.322730064392089844e+00 -1.841218829154968262e+00 -9.101761579513549805e-01 -1.046427845954895020e+00 -2.600038766860961914e+00 -5.999773740768432617e-01 -2.012109041213989258e+00 -1.714506626129150391e+00 -2.099459648132324219e+00 -1.941035747528076172e+00 -1.937711358070373535e+00 -1.988975882530212402e+00 -2.215581417083740234e+00 -2.375006675720214844e+00 1.912152469158172607e-01 -1.155955791473388672e+00 -2.873237609863281250e+00 3.144064247608184814e-01 -1.171833038330078125e+00 -2.210400342941284180e+00 -1.505613207817077637e+00 -2.157590627670288086e+00 1.419699549674987793e+00 2.061025619506835938e+00 1.645110964775085449e+00 2.725159645080566406e+00 1.528204083442687988e+00 1.057479739189147949e+00 -1.214424371719360352e+00 2.064065217971801758e+00 1.800166010856628418e+00 1.009208202362060547e+00 1.789905309677124023e+00 1.308647990226745605e+00 2.402239322662353516e+00 2.883594512939453125e+00 2.811782360076904297e+00 3.337470531463623047e+00 1.619484901428222656e+00 -1.001338839530944824e+00 2.019588708877563477e+00 1.641943812370300293e+00
9.082741141319274902e-01 7.603234648704528809e-01 -6.694123893976211548e-02 -1.555952906608581543e+00 2.700897753238677979e-01 -2.092642784118652344e+00 -1.923106193542480469e+00 -1.804104804992675781e+00 -2.097610235214233398e+00 -1.623121619224548340e+00 -2.894011259078979492e+00 -2.066671609878540039e+00 -2.114439487457275391e+00 -1.388802170753479004e+00 -2.061681509017944336e+00 2.751263856887817383e+00 7.091299295425415039e-01 1.035639762878417969e+00 1.072331070899963379e+00 -5.473775267601013184e-01 1.113156676292419434e+00 -2.798719406127929688e+00 2.588392734527587891e+00 1.740466117858886719e+00 -1.198738694190979004e+00 -1.606870651245117188e+00 2.319393157958984375e+00 -1.481118798255920410e+00 7.850264310836791992e-01 -1.111783146858215332e+00 1.034933030605316162e-01 -1.506196618080139160e+00 1.102737784385681152e+00 7.737593650817871094e-01 -1.690349340438842773e+00 1.626335978507995605e+00 2.107042789459228516e+00 1.015572190284729004e+00 3.755069673061370850e-01 2.640691518783569336e+00 2.203102111816406250e+00 5.517929196357727051e-01 -6.031556129455566406e-01 -1.007209300994873047e+00 3.020949602127075195e+00 8.637273907661437988e-01 -1.114193797111511230e-01 3.153305768966674805e+00 2.914785146713256836e+00 2.120783090591430664e+00 -7.083071470260620117e-01 1.324011236429214478e-01 2.788157224655151367e+00 -8.832955956459045410e-01 1.797271251678466797e+00 1.070296764373779297e+00 2.852571487426757812e+00 2.232221126556396484e+00 7.464128732681274414e-01 -1.360999584197998047e+00 -1.105148077011108398e+00 -1.518424868583679199e+00 2.854377031326293945e+00 -1.808978915214538574e+00 -2.648183584213256836e+00 -2.304669618606567383e+00 7.081434130668640137e-02 -1.450097084045410156e+00 1.176618039608001709e-01 -2.397401332855224609e+00 1.383507847785949707e+00 2.563098669052124023e+00 -2.229534983634948730e-01 3.466014266014099121e-01 1.812780737876892090e+00 -2.680320978164672852e+00 -1.244893550872802734e+00 -9.372098445892333984e-01 -2.153992652893066406e+00 8.905640989542007446e-02 -1.272122621536254883e+00 -2.311119318008422852e+00 1.682658791542053223e+00 -2.338253259658813477e+00 -7.345227599143981934e-01 -2.125666141510009766e+00 -1.033236265182495117e+00 -1.173471570014953613e+00 -2.505905330181121826e-01 1.952533721923828125e+00 1.357922196388244629e+00 2.390805959701538086e+00 1.258376121520996094e+00 -1.043892860412597656e+00 1.013453483581542969e+00 -7.079873681068420410e-01 -2.224536180496215820e+00 -1.087749361991882324e+00 9.567043781280517578e-01 2.532973766326904297e+00
-6.177418828010559082e-01 -1.286094427108764648e+00 -2.582911729812622070e+00 -7.262659072875976562e-01 -1.740503430366516113e+00 -8.366622924804687500e-01 2.649932801723480225e-01 -1.132962942123413086e+00 -2.476366281509399414e+00 -2.087130069732666016e+00 -9.888902306556701660e-01 -1.905782580375671387e+00 -2.150906324386596680e+00 -1.567955255508422852e+00 -8.285130262374877930e-01 -1.077424734830856323e-01 1.313375115394592285e+00 -2.514779329299926758e+00 -2.609027326107025146e-01 -1.323306560516357422e+00 -1.581988879479467869e-03 8.717729151248931885e-02 -7.421723008155822754e-01 -1.466703653335571289e+00 2.742764949798583984e-01 -1.273783802986145020e+00 7.197532057762145996e-01 1.041114449501037598e+00 -1.786284923553466797e+00 1.920070171356201172e+00 9.887778162956237793e-01 4.355469942092895508e-01 1.746271371841430664e+00 1.255477190017700195e+00 2.214761018753051758e+00 2.599234342575073242e+00 -2.074280261993408203e+00 -1.253624916076660156e+00 1.796779394149780273e+00 1.944190979003906250e+00 2.329458951950073242e+00 -8.354843854904174805e-01 2.949654340744018555e+00 2.098941802978515625e+00 -1.162669658660888672e+00 8.446295261383056641e-01 -1.200045824050903320e+00 1.261806130409240723e+00 4.376592636108398438e-01 -3.163284063339233398e-01 -4.297331273555755615e-01 8.368726372718811035e-01 -1.418552041053771973e+00 8.401966094970703125e-01 -2.778537034988403320e+00 2.835242033004760742e+00 9.258505105972290039e-01 -1.456803530454635620e-01 -3.128266930580139160e-01 -6.606375575065612793e-01 3.011448860168457031e+00 2.957606315612792969e+00 -1.639338731765747070e-01 -1.914569020271301270e+00 3.012162685394287109e+00 -2.192665785551071167e-01 2.173152685165405273e+00 1.655376315116882324e+00 2.296948671340942383e+00 6.560861468315124512e-01 2.428235292434692383e+00 -5.779426693916320801e-01 1.022116541862487793e+00 6.097177863121032715e-01 2.595801353454589844e+00 1.319465398788452148e+00 2.489002227783203125e+00 2.667301654815673828e+00 4.990563690662384033e-01 6.374101638793945312e-01 -2.538080930709838867e+00 -2.297358512878417969e+00 1.192158102989196777e+00 9.727371931076049805e-01 -2.727883815765380859e+00 -1.381512403488159180e+00 -1.832832098007202148e+00 1.285892963409423828e+00 -2.371034145355224609e+00 -1.760965943336486816e+00 4.369220882654190063e-02 3.964118659496307373e-01 -2.332880020141601562e+00 -5.240371227264404297e-01 5.689999461174011230e-01 8.503012061119079590e-01 -2.482676029205322266e+00 -2.390377044677734375e+00 6.249523162841796875e-01 -8.496763110160827637e-01
1.111156105995178223e+00 1.649482846260070801e+00 -1.736230254173278809e+00 -2.888386845588684082e-01 1.128247380256652832e+00 -1.293949723243713379e+00 1.166105389595031738e+00 2.580569028854370117e+00 -2.410603046417236328e+00 1.129396557807922363e+00 -1.091521739959716797e+00 2.618207931518554688e+00 -1.352460265159606934e+00 -2.750259041786193848e-01 -2.486489057540893555e+00 1.653075098991394043e+00 9.879269599914550781e-01 1.347981214523315430e+00 -2.731213331222534180e+00 3.422932326793670654e-01 -5.679430961608886719e-01 -1.838366746902465820e+00 -1.352111101150512695e+00 -2.050085544586181641e+00 1.967016339302062988e+00 -2.740663051605224609e+00 -2.004800796508789062e+00 5.917482972145080566e-01 -1.024577543139457703e-01 -1.961930274963378906e+00 -8.574665188789367676e-01 -2.340380668640136719e+00 -7.115201950073242188e-01 5.713360309600830078e-01 -5.323040485382080078e-01 -7.160796523094177246e-01 8.960992693901062012e-01 1.996494650840759277e+00 -9.570885300636291504e-01 -1.189240455627441406e+00 -1.966744363307952881e-01 -6.633434295654296875e-01 1.240100860595703125e+00 1.009594321250915527e+00 1.710240960121154785e+00 1.314590692520141602e+00 3.259764671325683594e+00 1.063949584960937500e+00 -4.235821962356567383e-01 1.618624210357666016e+00 -1.842208027839660645e+00 2.261105298995971680e+00 1.183497309684753418e+00 9.696047306060791016e-01 1.672055244445800781e+00 1.164875626564025879e+00 -8.489727377891540527e-01 -1.113121151924133301e+00 2.334626436233520508e+00 2.524776935577392578e+00 2.398613691329956055e+00 -2.627885580062866211e+00 -1.737836241722106934e+00 -2.556523084640502930e+00 -1.798861622810363770e-01 -1.153614878654479980e+00 1.035346627235412598e+00 -1.720642447471618652e+00 -2.110115051269531250e+00 1.697644233703613281e+00 -8.678648620843887329e-02 8.120874166488647461e-01 -1.829618588089942932e-02 -1.453839898109436035e+00 8.704840391874313354e-02 1.093211293220520020e+00 -2.396579027175903320e+00 4.712150692939758301e-01 2.320249527692794800e-01 -9.777731895446777344e-01 -1.571083903312683105e+00 1.895303130149841309e+00 -1.545524477958679199e+00 1.529256820678710938e+00 -2.419649124145507812e+00 -1.991921544075012207e+00 7.802483439445495605e-01 -2.051551342010498047e+00 7.813065648078918457e-01 1.136945724487304688e+00 2.037540912628173828e+00 -2.160748481750488281e+00 1.972479581832885742e+00 1.252287745475769043e+00 6.932613849639892578e-01 2.586886405944824219e+00 -1.276522278785705566e+00 2.298416376113891602e+00 1.131872296333312988e+00 -1.471424818038940430e+00
7.731486558914184570e-01 -3.314322471618652344e+00 3.458741188049316406e+00 1.227791666984558105e+00 9.164246916770935059e-01 -4.591725468635559082e-01 -1.152184247970581055e+00 -2.123651504516601562e+00 2.154935121536254883e+00 2.890983581542968750e+00 -1.249403834342956543e+00 9.941197037696838379e-01 -1.309318244457244873e-01 1.260247826576232910e+00 2.352498769760131836e+00 -3.138074398040771484e+00 7.967692613601684570e-01 -3.848965466022491455e-01 -1.964153796434402466e-01 -1.909772872924804688e+00 -5.541006922721862793e-01 1.468170046806335449e+00 -2.457894563674926758e+00 -7.119081020355224609e-01 1.754654765129089355e+00 -1.150823473930358887e+00 -7.635499835014343262e-01 3.878869116306304932e-01 1.441999316215515137e+00 1.335976243019104004e+00 -2.070154905319213867e+00 1.177955508232116699e+00 4.489369690418243408e-01 8.915162682533264160e-01 2.798204421997070312e+00 -2.133075475692749023e+00 2.683182477951049805e+00 3.215927839279174805e+00 4.381268024444580078e-01 -1.350908756256103516e+00 2.728597879409790039e+00 2.971658706665039062e+00 2.987946510314941406e+00 -2.720585584640502930e+00 1.885187864303588867e+00 2.849898576736450195e+00 2.090407848358154297e+00 1.296525597572326660e+00 9.456824660301208496e-01 2.937941789627075195e+00 2.865402936935424805e+00 3.153865337371826172e+00 3.717355728149414062e-01 5.409831404685974121e-01 -1.837126731872558594e+00 1.597557902336120605e+00 1.551095724105834961e+00 2.381193637847900391e+00 2.406045198440551758e+00 2.064662218093872070e+00 -2.593961477279663086e+00 1.479801058769226074e+00 -1.988125801086425781e+00 -1.740298986434936523e+00 -4.678836762905120850e-01 -3.484561443328857422e-01 -2.269024610519409180e+00 -2.323545932769775391e+00 -1.588255286216735840e+00 1.943452805280685425e-01 4.005768001079559326e-01 -3.029457569122314453e+00 -1.299778103828430176e+00 -1.521764278411865234e+00 -2.043665647506713867e+00 -1.336382985115051270e+00 -2.639819860458374023e+00 6.358551383018493652e-01 -3.177532851696014404e-01 -7.362884283065795898e-01 -1.500325441360473633e+00 1.360515713691711426e+00 -2.053388595581054688e+00 -1.043553590774536133e+00 7.163820266723632812e-01 -2.105394601821899414e+00 -2.549917459487915039e+00 1.632176399230957031e+00 2.991845309734344482e-01 -2.492781400680541992e+00 -2.944963693618774414e+00 8.721572160720825195e-01 1.840093374252319336e+00 -1.021834015846252441e+00 -2.499215364456176758e+00 -1.192632794380187988e+00 -1.378365874290466309e+00 -1.929769873619079590e+00 -1.114636301994323730e+00 -1.398963451385498047e+00
2.630367279052734375e+00 1.418952643871307373e-01 2.177525520324707031e+00 -1.410411596298217773e+00 -2.426726818084716797e+00 6.776455044746398926e-01 -6.171531677246093750e-01 2.815293550491333008e+00 -4.111894965171813965e-01 -1.148677945137023926e+00 1.902177810668945312e+00 -2.291679680347442627e-01 3.139737129211425781e+00 1.259103268384933472e-01 9.110219478607177734e-01 1.960602641105651855e+00 1.359321355819702148e+00 5.331399440765380859e-01 1.813535690307617188e-01 -2.434782236814498901e-01 2.687673091888427734e+00 -1.649915575981140137e+00 2.110573053359985352e+00 5.741565227508544922e-01 1.872109174728393555e+00 -1.185502648353576660e+00 2.862496376037597656e+00 8.559962511062622070e-01 -5.270310044288635254e-01 -2.098019599914550781e+00 6.165969371795654297e-01 2.193005084991455078e+00 1.522629141807556152e+00 -3.114446640014648438e+00 -8.132263422012329102e-01 -1.223052859306335449e+00 -6.734738349914550781e-01 -2.734660387039184570e+00 1.546487331390380859e+00 7.085350751876831055e-01 1.253036975860595703e+00 -1.708584547042846680e+00 -9.629628062248229980e-01 2.081283330917358398e+00 2.588908433914184570e+00 2.850749015808105469e+00 -1.758685708045959473e+00 -3.589751943945884705e-02 2.125273466110229492e+00 1.046811699867248535e+00 1.013158783316612244e-01 -9.702420234680175781e-01 1.719101667404174805e+00 -6.225728988647460938e-01 9.231979399919509888e-02 9.018776416778564453e-01 9.483224749565124512e-01 9.738091826438903809e-01 -5.566538572311401367e-01 3.203485488891601562e+00 -1.506924152374267578e+00 -2.524620532989501953e+00 -1.789387464523315430e+00 -1.242386102676391602e+00 -1.432454824447631836e+00 -2.078880548477172852e+00 -1.948331832885742188e+00 1.187703132629394531e+00 3.110277652740478516e-01 -1.506958842277526855e+00 -2.048140048980712891e+00 -2.977536916732788086e+00 -2.933928966522216797e+00 -2.583810567855834961e+00 -1.951808929443359375e+00 -2.061731815338134766e+00 1.247593402862548828e+00 -1.928472638130187988e+00 -2.016049385070800781e+00 -2.577342689037322998e-01 2.556054830551147461e+00 2.663605928421020508e+00 1.443179249763488770e+00 -1.959674596786499023e+00 -7.974629998207092285e-01 -4.780817627906799316e-01 -1.510260254144668579e-01 -1.081249594688415527e+00 -2.943202495574951172e+00 1.538187623023986816e+00 -2.311906337738037109e+00 -2.320815086364746094e+00 -1.812006831169128418e+00 6.911355853080749512e-01 7.977252006530761719e-01 -1.373144149780273438e+00 3.031945228576660156e+00 -1.839137434959411621e+00 3.291608810424804688e+00 2.220782041549682617e+00
-1.080948829650878906e+00 -2.656139373779296875e+00 7.733604311943054199e-01 3.738599121570587158e-01 -2.604437351226806641e+00 -1.629750728607177734e+00 4.055183231830596924e-01 1.800863981246948242e+00 -2.585202932357788086e+00 -9.559741020202636719e-01 6.547002196311950684e-01 -1.207209229469299316e+00 -3.420244455337524414e+00 -1.254464507102966309e+00 -1.641945600509643555e+00 -1.341342329978942871e+00 -1.462437272071838379e+00 -1.253022432327270508e+00 -3.194483757019042969e+00 -2.862283289432525635e-01 1.888938307762145996e+00 1.067168116569519043e+00 2.468383871018886566e-03 -2.012239456176757812e+00 -2.318666219711303711e+00 -1.536585688591003418e+00 3.975409269332885742e-01 -7.673174738883972168e-01 2.735277414321899414e+00 1.072489380836486816e+00 1.880305290222167969e+00 7.414953708648681641e-01 -2.430008724331855774e-02 -3.453738242387771606e-02 -2.953146398067474365e-01 -4.962198436260223389e-01 1.338217616081237793e+00 2.160498619079589844e+00 -1.006793618202209473e+00 1.009537816047668457e+00 -5.760559439659118652e-01 -1.092583417892456055e+00 2.170431375503540039e+00 -8.225111961364746094e-01 -1.921619057655334473e+00 -1.811569690704345703e+00 9.244275689125061035e-01 -2.156277418136596680e+00 1.604257822036743164e+00 -2.093662738800048828e+00 1.601107358932495117e+00 -2.086578845977783203e+00 1.549673676490783691e+00 3.000825881958007812e+00 5.338997021317481995e-02 -7.060071825981140137e-01 -1.226546049118041992e+00 -2.371470451354980469e+00 1.624853372573852539e+00 8.955678939819335938e-01 2.078985929489135742e+00 -2.123379468917846680e+00 3.841231167316436768e-01 1.567474246025085449e+00 -1.528097510337829590e+00 4.837301671504974365e-01 -3.328811526298522949e-01 -1.158117413520812988e+00 2.492174059152603149e-01 -2.002913713455200195e+00 5.595293045043945312e-01 5.953286886215209961e-01 -2.784594058990478516e+00 1.598165035247802734e-01 -1.406560242176055908e-01 -2.391098499298095703e+00 -9.337981939315795898e-01 2.071796953678131104e-01 -1.516907215118408203e+00 2.839849591255187988e-01 -2.515789270401000977e-01 3.886228799819946289e-01 2.535866260528564453e+00 2.489214897155761719e+00 7.175250053405761719e-01 2.958647727966308594e+00 1.562448501586914062e+00 2.774638652801513672e+00 2.421960353851318359e+00 -1.087266683578491211e+00 2.479915142059326172e+00 2.954855680465698242e+00 2.647756814956665039e+00 1.203012704849243164e+00 -1.619657516479492188e+00 2.779557943344116211e+00 1.919332265853881836e+00 1.019074320793151855e+00 1.226171851158142090e+00 -1.084587946534156799e-01
2.612809419631958008e+00 -9.245072007179260254e-01 3.627457618713378906e-01 -2.188635349273681641e+00 2.774257659912109375e-01 1.601233601570129395e+00 -1.467452883720397949e+00 -2.325047403573989868e-01 -1.705738067626953125e+00 -3.538552224636077881e-01 -6.531066894531250000e-01 -2.549614310264587402e-01 -2.583225727081298828e+00 1.765107154846191406e+00 -8.940758109092712402e-01 1.225520014762878418e+00 -3.304788351058959961e+00 3.585975989699363708e-02 -7.952144742012023926e-01 1.130198597908020020e+00 -2.674085855484008789e+00 2.307505369186401367e+00 -2.466366291046142578e+00 1.338602781295776367e+00 -1.676572799682617188e+00 2.497857362031936646e-01 -1.854291111230850220e-01 -1.218976259231567383e+00 -2.803182899951934814e-01 2.790075063705444336e+00 4.153027832508087158e-01 5.683658123016357422e-01 -7.390214800834655762e-01 6.907067298889160156e-01 -1.898462057113647461e+00 4.564404487609863281e-01 -1.264982342720031738e+00 -2.883534193038940430e+00 -1.870566487312316895e+00 1.148034811019897461e+00 -7.139746546745300293e-01 5.493280887603759766e-01 -1.300012111663818359e+00 7.528803944587707520e-01 -1.228478789329528809e+00 1.940768957138061523e+00 2.507591485977172852e+00 -8.957107365131378174e-02 -9.168394804000854492e-01 2.168730497360229492e+00 2.877061367034912109e+00 -3.147769570350646973e-01 5.891067981719970703e-01 -3.549944460391998291e-01 -7.350970506668090820e-01 -1.886812567710876465e+00 -2.702479362487792969e+00 1.996968984603881836e+00 -9.617069363594055176e-01 -2.699277639389038086e+00 -7.190481424331665039e-01 -6.604536175727844238e-01 -7.392813265323638916e-02 -2.285092353820800781e+00 -1.395750939846038818e-01 2.982929706573486328e+00 1.319606065750122070e+00 2.019849777221679688e+00 1.177344441413879395e+00 -2.463551998138427734e+00 -1.812623500823974609e+00 -1.913749933242797852e+00 -3.105310916900634766e+00 1.175047382712364197e-01 2.263758420944213867e+00 5.080270171165466309e-01 -2.769040465354919434e-01 -1.543180823326110840e+00 2.294862747192382812e+00 -2.174632787704467773e+00 1.422289848327636719e+00 -2.362891882658004761e-01 1.339204549789428711e+00 1.058816552162170410e+00 2.798799276351928711e+00 -1.318430185317993164e+00 -7.114942669868469238e-01 9.392678737640380859e-01 2.161301612854003906e+00 1.581602692604064941e+00 2.495127201080322266e+00 -1.997498512268066406e+00 -1.299898475408554077e-01 2.899250984191894531e+00 8.391311168670654297e-01 1.596459507942199707e+00 1.263133287429809570e+00 1.432754755020141602e+00 -1.731351017951965332e+00 2.466652393341064453e+00
1.648225188255310059e+00 7.739824056625366211e-01 1.897078156471252441e+00 7.957462668418884277e-01 9.841979742050170898e-01 7.018914222717285156e-01 -9.058628678321838379e-01 1.165713667869567871e+00 -1.379822254180908203e+00 2.252544641494750977e+00 1.765409588813781738e+00 2.494010448455810547e+00 3.829092383384704590e-01 1.704804301261901855e+00 -5.338629484176635742e-01 -5.774645879864692688e-02 1.327823996543884277e+00 -1.959214329719543457e+00 -1.382876038551330566e+00 1.528180956840515137e+00 -1.388909339904785156e+00 6.212139129638671875e-02 2.514923334121704102e+00 -1.003644704818725586e+00 5.336534380912780762e-01 1.248974680900573730e+00 -1.355904340744018555e+00 1.234670281410217285e+00 3.148031473159790039e+00 -1.018716692924499512e+00 -9.442178010940551758e-01 -1.608504414558410645e+00 -1.038771748542785645e+00 -1.259434819221496582e+00 -2.543971061706542969e+00 -2.026199102401733398e+00 -4.287164211273193359e-01 2.111453533172607422e+00 2.085148543119430542e-01 -1.991190910339355469e+00 7.868039608001708984e-01 3.569782078266143799e-01 2.075029760599136353e-01 -1.834558248519897461e+00 9.315063357353210449e-01 -1.047615408897399902e+00 1.036953091621398926e+00 -1.240724205970764160e+00 -1.443074226379394531e+00 -1.603264510631561279e-01 -1.472680568695068359e+00 1.622066855430603027e+00 2.022272109985351562e+00 -2.689110994338989258e+00 -1.262649655342102051e+00 -4.327546432614326477e-02 -2.764838695526123047e+00 -3.131566643714904785e-01 -1.506760239601135254e+00 -2.172911167144775391e+00 -6.930892467498779297e-01 1.066060513257980347e-01 2.141458511352539062e+00 2.356801509857177734e+00 1.510031938552856445e+00 1.105682730674743652e+00 -7.763751149177551270e-01 1.907393187284469604e-01 -2.383120059967041016e+00 7.421650886535644531e-01 3.216217041015625000e+00 -1.753955602645874023e+00 6.603674292564392090e-01 -1.021145462989807129e+00 -2.174775362014770508e+00 -4.366346895694732666e-01 -3.888194561004638672e-01 -1.760193943977355957e+00 1.486119115725159645e-03 2.516525506973266602e+00 1.008194327354431152e+00 -1.575964212417602539e+00 1.872473120689392090e+00 -1.215672612190246582e+00 -1.201356410980224609e+00 7.164301872253417969e-01 1.841531991958618164e+00 1.347208380699157715e+00 7.310122847557067871e-01 1.282173991203308105e+00 3.770245015621185303e-01 -1.396932959556579590e+00 -1.861865639686584473e+00 1.614411920309066772e-01 -1.293079614639282227e+00 -9.630562067031860352e-01 -7.008962631225585938e-01 -1.261251330375671387e+00 -1.223790884017944336e+00 2.780232429504394531e+00
-2.210090398788452148e+00 -1.415824055671691895e+00 2.787877082824707031e+00 2.781989574432373047e-01 -1.081890225410461426e+00 1.946165323257446289e+00 2.773688554763793945e+00 1.043343544006347656e+00 4.673441350460052490e-01 9.515599012374877930e-01 2.986722469329833984e+00 -2.127330780029296875e+00 5.725755095481872559e-01 -9.212332367897033691e-01 -2.641106128692626953e+00 2.003613710403442383e+00 3.200711905956268311e-01 2.459245920181274414e+00 1.690610885620117188e+00 -2.068440437316894531e+00 -4.763838052749633789e-01 4.290153384208679199e-01 6.409977078437805176e-01 1.808885298669338226e-02 2.230360746383666992e+00 -1.571881890296936035e+00 -4.291398525238037109e-01 -2.025835514068603516e+00 -1.204922437667846680e+00 1.034534931182861328e+00 -2.296427011489868164e+00 -1.098690986633300781e+00 -3.260803818702697754e-01 3.713174164295196533e-01 -1.322353839874267578e+00 7.179554700851440430e-01 -1.565029859542846680e+00 -1.550673991441726685e-01 -2.580968618392944336e+00 -1.588610410690307617e+00 1.290175676345825195e+00 -2.414999246597290039e+00 -1.170271635055541992e+00 2.832351624965667725e-01 2.723978042602539062e+00 -1.705988287925720215e+00 -1.362569570541381836e+00 -5.368206650018692017e-02 -1.852495431900024414e+00 2.908314704895019531e+00 -1.772526502609252930e-01 -3.125663995742797852e-01 -2.701607227325439453e+00 -2.441829741001129150e-01 -8.858198672533035278e-02 3.024810254573822021e-01 1.240416526794433594e+00 -9.636245369911193848e-01 -1.596576094627380371e+00 -7.828740030527114868e-02 -1.019689917564392090e+00 -7.319566607475280762e-02 2.461700290441513062e-01 -2.011886984109878540e-02 5.444115400314331055e-01 -1.885104537010192871e+00 -6.738347411155700684e-01 -1.746138930320739746e+00 -1.712407022714614868e-01 -4.065146446228027344e-01 2.502526521682739258e+00 1.961163520812988281e+00 2.062504529953002930e+00 -2.242354393005371094e+00 -1.866549611091613770e+00 8.008174300193786621e-01 9.531556963920593262e-01 2.591020345687866211e+00 2.242026805877685547e+00 -1.344855070114135742e+00 9.738422036170959473e-01 -1.701986551284790039e+00 9.395539164543151855e-01 2.359117746353149414e+00 2.889785289764404297e+00 -2.326158046722412109e+00 -3.093072414398193359e+00 -3.184788942337036133e+00 2.126123666763305664e+00 1.486026287078857422e+00 1.245359182357788086e+00 -1.895853579044342041e-01 1.095108509063720703e+00 3.407613039016723633e+00 2.267572164535522461e+00 -1.570363402366638184e+00 -1.330281794071197510e-01 1.264863729476928711e+00 -1.224376320838928223e+00 -3.673397600650787354e-01
-1.574725985527038574e+00 -5.575384497642517090e-01 -1.469267487525939941e+00 1.321745395660400391e+00 1.326313853263854980e+00 2.721992731094360352e-01 -1.262025833129882812e+00 3.196532130241394043e-01 1.222090959548950195e+00 -1.414940118789672852e+00 -8.359700441360473633e-01 1.654974818229675293e+00 6.901430487632751465e-01 2.473768949508666992e+00 1.652313590049743652e+00 8.731158971786499023e-01 3.109444618225097656e+00 -7.840566635131835938e-01 5.730699300765991211e-01 1.209649085998535156e+00 -3.755959868431091309e-02 -2.447644472122192383e+00 -1.113603115081787109e+00 -1.928010702133178711e+00 1.539853334426879883e+00 -7.384265214204788208e-02 -9.546171426773071289e-01 -9.419857859611511230e-01 7.101119756698608398e-01 -6.062720417976379395e-01 -4.800601303577423096e-01 -2.510974168777465820e+00 1.179535984992980957e+00 -2.088746070861816406e+00 -2.426832437515258789e+00 2.421825408935546875e+00 1.843308091163635254e+00 -1.598573625087738037e-01 -1.412521839141845703e+00 -2.303497314453125000e+00 -1.494445681571960449e+00 2.499534368515014648e+00 -2.234158992767333984e+00 -8.653156161308288574e-01 1.608429431915283203e+00 -1.735448360443115234e+00 6.834874153137207031e-01 2.307671308517456055e+00 6.454042196273803711e-01 1.846949577331542969e+00 4.147618412971496582e-01 -4.994517564773559570e-01 -4.842866957187652588e-01 2.364221334457397461e+00 -2.438323020935058594e+00 -1.578762769699096680e+00 1.953771114349365234e+00 -1.015893220901489258e+00 8.888601660728454590e-01 6.946401000022888184e-01 7.746609449386596680e-01 3.291924893856048584e-01 1.676156997680664062e+00 -1.457656264305114746e+00 -1.071375727653503418e+00 -6.791740655899047852e-01 6.340032815933227539e-01 -1.080601572990417480e+00 2.218380451202392578e+00 -1.952826499938964844e+00 -2.255409717559814453e+00 1.511612385511398315e-01 -2.227344989776611328e+00 2.526079177856445312e+00 -6.202929019927978516e-01 2.850983381271362305e+00 5.565167665481567383e-01 2.398291587829589844e+00 2.174199819564819336e+00 3.128897845745086670e-01 -1.208379864692687988e+00 -1.038164615631103516e+00 -1.420290946960449219e+00 1.880874752998352051e+00 1.620388984680175781e+00 1.453233957290649414e+00 5.989698767662048340e-01 -1.594312548637390137e+00 -1.712457537651062012e-01 5.956182479858398438e-01 -6.227237582206726074e-01 -1.512934684753417969e+00 -1.324062705039978027e+00 1.464268684387207031e+00 1.652528159320354462e-02 2.075189828872680664e+00 -2.019777774810791016e+00 -1.823476672172546387e+00 -1.104463696479797363e+00 -9.989521503448486328e-01
1.300460994243621826e-01 1.003199696540832520e+00 1.840085029602050781e+00 6.179880499839782715e-01 4.373062849044799805e-01 1.785588622093200684e+00 -1.350175619125366211e+00 2.153854131698608398e+00 -1.641432762145996094e+00 -7.284627556800842285e-01 2.138612985610961914e+00 6.765606403350830078e-01 3.424726724624633789e+00 7.462167739868164062e-01 1.233450055122375488e+00 2.860077381134033203e+00 -2.271750926971435547e+00 3.256657361984252930e+00 2.622184514999389648e+00 -7.776997089385986328e-01 -1.231711387634277344e+00 -8.482015728950500488e-01 -2.952716588973999023e+00 1.335438489913940430e+00 -1.957209229469299316e+00 -1.260996699333190918e+00 -2.462501049041748047e+00 1.562532663345336914e+00 9.848101437091827393e-02 1.642697215080261230e+00 -2.368389368057250977e+00 -3.629841506481170654e-01 2.325799465179443359e+00 -1.550201773643493652e+00 -8.149003982543945312e-01 -1.395715713500976562e+00 9.471700191497802734e-01 -1.593929529190063477e+00 -1.347673654556274414e+00 -1.521866917610168457e+00 -1.708653092384338379e+00 1.151245832443237305e+00 1.713734626770019531e+00 -5.374142527580261230e-01 -4.256505370140075684e-01 -2.651179790496826172e+00 -1.231949687004089355e+00 3.641308546066284180e+00 3.063838481903076172e+00 1.960667073726654053e-01 -2.335527896881103516e+00 1.276076119393110275e-02 -2.200521714985370636e-02 2.728824138641357422e+00 2.466518163681030273e+00 -9.520488381385803223e-01 -8.047463893890380859e-01 -2.069234132766723633e+00 -7.736356854438781738e-01 -2.071274042129516602e+00 -1.743208765983581543e+00 -1.413672924041748047e+00 1.881325244903564453e+00 -6.154788732528686523e-01 1.269250869750976562e+00 -2.637871265411376953e+00 -8.959766626358032227e-01 1.420050501823425293e+00 6.353553533554077148e-01 -1.901803731918334961e+00 1.140731573104858398e+00 -5.441018939018249512e-01 3.008989095687866211e+00 2.043030977249145508e+00 -1.772650480270385742e-01 -9.247238636016845703e-01 8.623547554016113281e-01 2.818386077880859375e+00 6.965005397796630859e-01 2.157848358154296875e+00 -2.162903070449829102e+00 5.928975343704223633e-01 9.975420832633972168e-01 -4.897240400314331055e-01 -1.607683062553405762e+00 -9.418581724166870117e-01 6.005219183862209320e-03 -9.683508872985839844e-01 5.950079560279846191e-01 -1.804272413253784180e+00 1.195585012435913086e+00 1.156237363815307617e+00 -8.954975605010986328e-01 -2.138684988021850586e+00 -2.840034246444702148e+00 -8.565269112586975098e-01 8.268880248069763184e-01 -1.830687969923019409e-01 -1.299224495887756348e+00 -1.537030339241027832e-01
-1.701267600059509277e+00 2.530788898468017578e+00 -1.756729245185852051e+00 1.631461501121520996e+00 2.600850820541381836e+00 -2.275896787643432617e+00 -1.319835662841796875e+00 -5.124883055686950684e-01 1.150943040847778320e+00 1.560701966285705566e+00 -1.139627456665039062e+00 -2.428867578506469727e+00 7.009580731391906738e-01 -3.077251195907592773e+00 -8.825082182884216309e-01 7.003179788589477539e-01 -2.651813268661499023e+00 -2.211264371871948242e+00 -1.648820281028747559e+00 2.127234697341918945e+00 1.182359695434570312e+00 2.226277112960815430e+00 5.260641574859619141e-01 -1.549236893653869629e+00 -2.318893432617187500e+00 -2.347647905349731445e+00 1.401892155408859253e-01 7.426765561103820801e-01 -6.888102293014526367e-01 -2.283531904220581055e+00 -1.006779193878173828e+00 9.791328310966491699e-01 -5.977727770805358887e-01 -9.364846944808959961e-01 -8.744552135467529297e-01 -1.808706045150756836e+00 7.080577611923217773e-01 -2.603524923324584961e+00 -1.764125347137451172e+00 -2.029218196868896484e+00 2.442961782217025757e-01 4.229869544506072998e-01 -1.293292760848999023e+00 2.919072389602661133e+00 -1.770341634750366211e+00 1.885081380605697632e-01 -3.143689870834350586e+00 -7.460496425628662109e-01 9.877715706825256348e-01 1.592503428459167480e+00 1.331968188285827637e+00 -2.007497549057006836e-01 -2.955934703350067139e-01 2.591506719589233398e+00 4.801575466990470886e-02 1.750676155090332031e+00 -1.843267440795898438e+00 -1.275502443313598633e+00 -1.726327419281005859e+00 -2.096355438232421875e+00 -8.449237346649169922e-01 -1.103494167327880859e+00 1.892260909080505371e-01 1.030262827873229980e+00 6.709858179092407227e-01 -1.640325598418712616e-02 9.733504056930541992e-01 -1.336953163146972656e+00 -8.561367988586425781e-01 2.183176994323730469e+00 8.016155362129211426e-01 7.234168648719787598e-01 1.070079922676086426e+00 -1.827481865882873535e+00 4.586544930934906006e-01 -1.122958898544311523e+00 2.099812030792236328e+00 -2.658774614334106445e+00 -1.049401164054870605e+00 -1.776511192321777344e+00 1.399246901273727417e-01 4.480930268764495850e-01 3.431212186813354492e+00 -5.627264082431793213e-02 1.653525590896606445e+00 -2.410323023796081543e-01 8.960388302803039551e-01 2.682228326797485352e+00 2.076162338256835938e+00 1.516473889350891113e+00 4.052452147006988525e-01 2.591130971908569336e+00 1.324540138244628906e+00 1.591827988624572754e+00 1.936323642730712891e+00 4.305542707443237305e-01 2.519760847091674805e+00 2.100744009017944336e+00 2.250200510025024414e+00 -5.432829260826110840e-02
2.304584980010986328e-01 -1.246606469154357910e+00 -2.827380418777465820e+00 1.269287586212158203e+00 1.302247047424316406e+00 6.737989187240600586e-02 2.156321525573730469e+00 4.242323935031890869e-01 8.375184535980224609e-01 -2.692882061004638672e+00 2.810420989990234375e-01 -1.398989558219909668e+00 -9.491459350101649761e-04 1.220098495483398438e+00 -1.808854222297668457e+00 1.089378952980041504e+00 8.832141160964965820e-01 -2.279002428054809570e+00 5.974203348159790039e-01 -2.658970654010772705e-02 -1.297736048698425293e+00 1.759525537490844727e+00 -2.498938739299774170e-01 -7.132245898246765137e-01 -1.421532273292541504e+00 1.210275053977966309e+00 2.208353996276855469e+00 2.861985445022583008e+00 -3.603557050228118896e-01 -1.407968997955322266e+00 -1.029332399368286133e+00 -1.391889095306396484e+00 -1.292180299758911133e+00 1.658544421195983887e+00 2.014172792434692383e+00 1.421021938323974609e+00 -1.151695847511291504e+00 -1.656179189682006836e+00 -6.334107518196105957e-01 1.406286120414733887e+00 2.495647907257080078e+00 2.189309358596801758e+00 8.591470718383789062e-01 8.547938466072082520e-01 -1.633216500282287598e+00 3.073104143142700195e+00 -4.513728916645050049e-01 3.550660014152526855e-01 -2.178406476974487305e+00 -2.303018793463706970e-02 -2.815110981464385986e-01 -1.519897103309631348e+00 1.297329306602478027e+00 2.516726970672607422e+00 -3.348109424114227295e-01 -2.367681741714477539e+00 -1.203551054000854492e+00 2.777781248092651367e+00 4.773812890052795410e-01 2.927536964416503906e+00 -1.754595160484313965e+00 7.483901083469390869e-02 2.442694157361984253e-01 3.035933732986450195e+00 9.704968333244323730e-01 1.542290329933166504e+00 -1.529285669326782227e+00 1.494622945785522461e+00 -2.097042798995971680e-01 -8.423994183540344238e-01 -9.409933686256408691e-01 -3.066872835159301758e+00 -3.098431348800659180e+00 1.906439065933227539e+00 -3.242007791996002197e-01 1.434842705726623535e+00 2.716269016265869141e+00 -1.555641770362854004e+00 -2.051222801208496094e+00 8.139459490776062012e-01 1.183686375617980957e+00 -3.059903085231781006e-01 2.449707508087158203e+00 1.117850899696350098e+00 -5.821223855018615723e-01 2.730730533599853516e+00 -2.197757005691528320e+00 1.199227929115295410e+00 -1.634521722793579102e+00 -7.660345435142517090e-01 -4.431441128253936768e-01 3.299192488193511963e-01 2.157114744186401367e+00 -2.558638095855712891e+00 -1.981063246726989746e+00 -1.998666524887084961e+00 -3.035869836807250977e+00 -2.605699777603149414e+00 -5.542338490486145020e-01 -1.185845851898193359e+00
1.897477746009826660e+00 1.935680985450744629e+00 -3.259074091911315918e-01 2.899596989154815674e-01 -8.940542936325073242e-01 3.268988609313964844e+00 4.741953015327453613e-01 1.270917296409606934e+00 2.688372850418090820e+00 2.615083694458007812e+00 3.287798166275024414e+00 2.916857481002807617e+00 1.675948202610015869e-01 2.095608949661254883e+00 6.448097229003906250e-01 8.878624439239501953e-01 2.288940906524658203e+00 1.371552586555480957e+00 -1.271565914154052734e+00 2.766732692718505859e+00 -1.214279294013977051e+00 -1.467248201370239258e+00 -2.942612886428833008e+00 -2.406044483184814453e+00 -2.907023191452026367e+00 -2.070093870162963867e+00 5.696787238121032715e-01 -2.629388570785522461e+00 -1.010304927825927734e+00 -2.401875495910644531e+00 8.704509139060974121e-01 -2.789518356323242188e+00 -9.787887930870056152e-01 -3.521610975265502930e+00 -3.211281299591064453e+00 -1.018571496009826660e+00 -2.629633426666259766e+00 -1.424556136131286621e+00 -1.347951531410217285e+00 -3.335947275161743164e+00 2.859258651733398438e+00 -1.699826121330261230e-01 6.438025236129760742e-01 -5.977782607078552246e-01 5.095952749252319336e-01 -1.380723237991333008e+00 6.402750015258789062e-01 -2.863068580627441406e+00 -3.035750865936279297e+00 -2.064317464828491211e+00 -6.488926410675048828e-01 -3.161225557327270508e+00 -2.170405626296997070e+00 -1.700580000877380371e+00 -2.530079364776611328e+00 -2.266103267669677734e+00 1.091060996055603027e+00 -1.214636087417602539e+00 -2.572886466979980469e+00 -8.986734151840209961e-01 2.422913551330566406e+00 1.786165833473205566e-01 -1.436293244361877441e+00 -5.600802898406982422e-01 -3.557154238224029541e-01 2.061007261276245117e+00 1.178862571716308594e+00 1.418568491935729980e+00 1.227273821830749512e+00 2.230807542800903320e+00 2.678155183792114258e+00 5.439823865890502930e-01 2.686864137649536133e+00 -7.665697932243347168e-01 -3.352184593677520752e-01 1.343322098255157471e-01 1.177986145019531250e+00 1.667526841163635254e+00 2.810083150863647461e+00 7.824861407279968262e-01 2.676171779632568359e+00 -1.012411620467901230e-02 -5.154417157173156738e-01 7.600407004356384277e-01 3.819701820611953735e-02 1.872487306594848633e+00 2.020413160324096680e+00 -1.716701269149780273e+00 -1.302830100059509277e+00 -1.434243917465209961e+00 -9.808537364006042480e-01 1.821456789970397949e+00 3.327958583831787109e+00 -2.138340234756469727e+00 2.560473442077636719e+00 1.884848475456237793e+00 -6.720103621482849121e-01 1.911680579185485840e+00 1.396497011184692383e+00 -1.873340308666229248e-01
-1.596042037010192871e+00 6.188641190528869629e-01 -2.286400556564331055e+00 -2.432990074157714844e+00 -2.432348728179931641e+00 -3.620906829833984375e+00 -3.142124414443969727e+00 -2.240548610687255859e+00 -9.880554080009460449e-01 -1.972003459930419922e+00 -1.864518284797668457e+00 -2.432126998901367188e+00 2.073546886444091797e+00 -1.717556357383728027e+00 -2.508814573287963867e+00 -2.116724491119384766e+00 -2.160419940948486328e+00 1.343573689460754395e+00 -3.294377088546752930e+00 -1.957773566246032715e+00 -1.288063526153564453e+00 2.206925630569458008e+00 2.897552013397216797e+00 1.036402940750122070e+00 1.478648066520690918e+00 2.633419752120971680e+00 4.038740992546081543e-01 2.607817351818084717e-01 2.095802545547485352e+00 1.979107260704040527e+00 -1.745125770568847656e+00 1.219958066940307617e+00 1.073574304580688477e+00 1.411436319351196289e+00 7.778671979904174805e-01 1.838918805122375488e+00 -1.375762224197387695e+00 2.036013364791870117e+00 1.829608559608459473e+00 2.277138233184814453e+00 -2.804122447967529297e+00 -4.619249999523162842e-01 -1.057175025343894958e-01 1.275334239006042480e+00 -3.495242595672607422e-01 9.671718478202819824e-01 -2.058020114898681641e+00 -1.131745338439941406e+00 6.896072030067443848e-01 -9.789907932281494141e-01 4.466899111866950989e-02 -3.390663146972656250e+00 -1.504488706588745117e+00 -9.633244872093200684e-01 -2.505169510841369629e-01 -4.820288419723510742e-01 -8.956748060882091522e-03 -2.623915970325469971e-01 1.082263231277465820e+00 -1.273028016090393066e+00 2.371006011962890625e+00 4.970521107316017151e-02 1.533190727233886719e+00 1.190371662378311157e-01 -2.767268180847167969e+00 2.085709095001220703e+00 2.810075759887695312e+00 -1.330254673957824707e+00 2.004679918289184570e+00 2.639981031417846680e+00 -2.235593497753143311e-01 -1.777414202690124512e+00 1.438814520835876465e+00 -1.418806195259094238e+00 -2.271243095397949219e+00 8.433223962783813477e-01 2.158630609512329102e+00 -6.411579847335815430e-01 7.417352795600891113e-01 2.623369455337524414e+00 8.097091317176818848e-01 1.730324387550354004e+00 -1.301324248313903809e+00 1.224614024162292480e+00 2.814881801605224609e+00 9.588221311569213867e-01 2.007319927215576172e+00 -2.018971681594848633e+00 6.708133816719055176e-01 -6.112312674522399902e-01 2.211672067642211914e+00 2.164125204086303711e+00 6.692161560058593750e-01 2.976239919662475586e-01 -1.868957519531250000e+00 1.036010384559631348e+00 -6.453807353973388672e-01 -9.278804063796997070e-01 1.844557881355285645e+00 1.384153723716735840e+00
-7.238327860832214355e-01 9.387519359588623047e-01 -1.614521026611328125e+00 5.418712496757507324e-01 -1.280658394098281860e-01 -2.007478237152099609e+00 2.504312515258789062e+00 -1.620617657899856567e-01 -2.354047775268554688e+00 1.179989501833915710e-01 2.500487089157104492e+00 1.553772807121276855e+00 1.596083045005798340e+00 2.561471462249755859e+00 -1.489110589027404785e+00 -2.285673618316650391e+00 -9.808285236358642578e-01 1.580049633979797363e+00 1.171707510948181152e+00 2.379306077957153320e+00 2.308872461318969727e+00 -2.284093499183654785e-01 -1.011215448379516602e+00 2.214285373687744141e+00 2.606198787689208984e+00 -4.449333548545837402e-01 -2.703104257583618164e+00 2.607432842254638672e+00 -2.858651399612426758e+00 -1.565210223197937012e+00 -1.685555100440979004e+00 1.276606798171997070e+00 1.266897797584533691e+00 1.201934337615966797e+00 2.871934890747070312e+00 -1.864739418029785156e+00 4.301042258739471436e-01 3.918192535638809204e-02 -1.842934489250183105e+00 -2.050319433212280273e+00 -2.577309608459472656e-01 -2.300249338150024414e+00 8.036339282989501953e-01 9.386610388755798340e-01 -6.701784133911132812e-01 1.004142522811889648e+00 1.423895806074142456e-01 -1.418365001678466797e+00 1.604630947113037109e+00 -8.600801229476928711e-01 -2.510101318359375000e+00 2.550449848175048828e+00 -1.985468387603759766e+00 1.427524209022521973e+00 -1.478343129158020020e+00 1.675740838050842285e+00 1.754149317741394043e+00 -1.094823837280273438e+00 1.850449919700622559e+00 5.295305848121643066e-01 -7.038360834121704102e-01 -5.092703104019165039e-01 4.435005486011505127e-01 1.410460710525512695e+00 -1.946936547756195068e-01 2.328570365905761719e+00 5.756119489669799805e-01 2.576570749282836914e+00 2.924258947372436523e+00 -1.927652001380920410e+00 -2.025593757629394531e+00 2.008379459381103516e+00 7.709947228431701660e-02 -9.836848974227905273e-01 7.815738320350646973e-01 1.048558115959167480e+00 -3.321550130844116211e+00 -1.617833614349365234e+00 -2.535835742950439453e+00 2.293409109115600586e+00 6.759439110755920410e-01 3.334035634994506836e+00 7.296466231346130371e-01 2.336850762367248535e-01 1.030693888664245605e+00 -6.927134394645690918e-01 -3.160434484481811523e+00 -1.319364786148071289e+00 -2.549684286117553711e+00 2.606403350830078125e+00 -3.211194276809692383e+00 1.402724742889404297e+00 -2.018392086029052734e+00 -1.423342347145080566e+00 -3.730019629001617432e-01 1.222509816288948059e-01 -1.646642982959747314e-01 -9.091430306434631348e-01 -1.882811188697814941e+00 -2.291622161865234375e+00
7.571539282798767090e-02 2.120402097702026367e+00 6.695512533187866211e-01 -1.523344993591308594e+00 9.559660553932189941e-01 1.120870947837829590e+00 2.622759819030761719e+00 5.695559978485107422e-01 2.821595191955566406e+00 -1.028575062751770020e+00 -2.247173786163330078e+00 1.044450163841247559e+00 1.055340766906738281e+00 2.523998260498046875e+00 2.891524791717529297e+00 1.162470459938049316e+00 2.615624427795410156e+00 2.683393478393554688e+00 1.216154217720031738e+00 2.672265529632568359e+00 -1.440805315971374512e+00 2.056418418884277344e+00 -1.339322328567504883e+00 -5.533707737922668457e-01 -2.058453798294067383e+00 3.241605162620544434e-01 3.238264024257659912e-01 -1.838279843330383301e+00 -1.420033216476440430e+00 -3.076619148254394531e+00 4.676790535449981689e-01 -3.809607326984405518e-01 2.306258678436279297e+00 2.557606697082519531e+00 1.212229013442993164e+00 2.014113903045654297e+00 -2.249346971511840820e+00 1.908144474029541016e+00 -1.144847035408020020e+00 1.471921801567077637e+00 -3.019468307495117188e+00 -1.894992828369140625e+00 2.393715143203735352e+00 -1.267685532569885254e+00 -2.105137109756469727e+00 5.419969558715820312e-01 2.076366096735000610e-01 4.538594186305999756e-01 -2.418666362762451172e+00 -1.923197746276855469e+00 -1.179508090019226074e+00 -5.756679773330688477e-01 2.268289089202880859e+00 -8.036459088325500488e-01 1.115682363510131836e+00 -2.110584259033203125e+00 -5.528383851051330566e-01 8.530948162078857422e-01 -9.687772393226623535e-01 -1.554948806762695312e+00 -1.633803844451904297e+00 3.146026730537414551e-01 -1.178518772125244141e+00 -7.308772802352905273e-01 -1.385412454605102539e+00 -1.573939681053161621e+00 1.252969145774841309e+00 1.114763140678405762e+00 4.607464671134948730e-01 1.492591142654418945e+00 -3.135013580322265625e+00 -1.638755440711975098e+00 -9.109606742858886719e-01 -1.914240717887878418e+00 -2.065636396408081055e+00 6.010457873344421387e-01 1.856122612953186035e+00 -1.524407267570495605e+00 -1.989440917968750000e+00 -1.166041493415832520e+00 -1.878709435462951660e+00 5.210943222045898438e-01 1.437843918800354004e+00 -2.468224048614501953e+00 2.002756595611572266e+00 1.969179391860961914e+00 1.854887366294860840e+00 1.123504519462585449e+00 -1.317576408386230469e+00 -1.428433418273925781e+00 -7.137051224708557129e-01 1.253027200698852539e+00 -1.551779985427856445e+00 -2.500583410263061523e+00 1.365017175674438477e+00 1.944572567939758301e+00 1.838755011558532715e+00 2.609117269515991211e+00 -1.049342870712280273e+00 -1.465397357940673828e+00
-2.038483142852783203e+00 2.280261993408203125e+00 -2.354312419891357422e+00 1.882135391235351562e+00 2.725120782852172852e+00 2.203939437866210938e+00 1.019464492797851562e+00 -7.691550254821777344e-01 1.227614879608154297e+00 6.161544322967529297e-01 1.483024358749389648e-01 -1.863739371299743652e+00 -1.207868456840515137e+00 -2.575443506240844727e+00 -7.710860371589660645e-01 -1.846300721168518066e+00 1.562278270721435547e+00 7.898035049438476562e-01 -1.362580657005310059e+00 -7.258286932483315468e-04 2.103260040283203125e+00 -2.020640373229980469e+00 -5.440717339515686035e-01 -2.568150758743286133e+00 -1.116779565811157227e+00 -9.397823810577392578e-01 -9.107881188392639160e-01 2.368376016616821289e+00 1.135821461677551270e+00 8.334829807281494141e-01 -5.319164991378784180e-01 8.040757179260253906e-01 -1.241646528244018555e+00 -1.546755731105804443e-01 -1.781815409660339355e+00 1.364538550376892090e+00 1.416941642761230469e+00 -2.544520378112792969e+00 1.923657298088073730e+00 2.376920938491821289e+00 1.828825354576110840e+00 2.264971017837524414e+00 2.807145833969116211e+00 1.743567466735839844e+00 1.977227926254272461e+00 1.998599529266357422e+00 2.448401451110839844e+00 2.711352586746215820e+00 -1.187374591827392578e-01 -1.547863483428955078e+00 2.159917831420898438e+00 -6.789994239807128906e-02 2.519592761993408203e+00 1.695411652326583862e-01 2.400766611099243164e+00 2.192781925201416016e+00 1.293123126029968262e+00 1.963132619857788086e+00 1.763402938842773438e+00 1.078960299491882324e+00 -2.953759431838989258e+00 2.210563868284225464e-01 -2.440032482147216797e+00 -2.002654820680618286e-01 -1.592304110527038574e+00 4.533893465995788574e-01 -2.279883623123168945e+00 -1.665154993534088135e-01 -4.939433336257934570e-01 1.248382925987243652e+00 1.095538258552551270e+00 -2.934176445007324219e+00 1.243749380111694336e+00 1.388237118721008301e+00 4.702802896499633789e-01 -5.192161202430725098e-01 -8.839986324310302734e-01 -1.721785306930541992e+00 6.051159501075744629e-01 1.059277057647705078e+00 -5.773276090621948242e-01 -3.007252931594848633e+00 -2.340699672698974609e+00 -8.571030497550964355e-01 2.374198883771896362e-01 -3.225846767425537109e+00 -1.643927335739135742e+00 -2.694771289825439453e+00 1.249735355377197266e+00 -9.397140145301818848e-01 -3.267671823501586914e+00 -6.162413954734802246e-01 -1.178080558776855469e+00 -8.659617900848388672e-01 -1.607845544815063477e+00 2.611520141363143921e-02 -1.758620142936706543e+00 7.951971143484115601e-02 4.231655001640319824e-01 4.504638910293579102e-01
-2.086456298828125000e+00 -8.096126317977905273e-01 -7.868171334266662598e-01 -9.126603603363037109e-01 3.636903762817382812e-01 8.445829153060913086e-01 -1.921313405036926270e+00 1.854130744934082031e+00 -2.554806947708129883e+00 -2.051284551620483398e+00 1.052323579788208008e+00 6.671026349067687988e-01 -2.648983001708984375e+00 -1.225521683692932129e+00 1.625018477439880371e+00 -2.916344702243804932e-01 -1.318829059600830078e+00 -1.143687963485717773e+00 9.286581873893737793e-01 -1.469551771879196167e-01 -8.644909262657165527e-01 -1.840066432952880859e+00 4.637259840965270996e-01 1.933250427246093750e-01 1.302418261766433716e-01 8.229500651359558105e-01 -6.343554854393005371e-01 -1.013640522956848145e+00 1.415786743164062500e+00 9.906441569328308105e-01 -1.540750145912170410e+00 1.894257426261901855e+00 -1.076422095298767090e+00 -6.293098330497741699e-01 -5.186901688575744629e-01 4.228502213954925537e-01 1.799304485321044922e+00 -2.368247747421264648e+00 -1.618888020515441895e+00 -4.922522306442260742e-01 1.101622730493545532e-01 2.820082902908325195e-01 7.333649396896362305e-01 1.342514038085937500e+00 1.167134523391723633e+00 -2.926009654998779297e+00 1.851306915283203125e+00 2.372113704681396484e+00 1.264605224132537842e-01 1.635264903306961060e-01 1.940576076507568359e+00 3.087571144104003906e+00 -9.246842861175537109e-01 3.226994276046752930e+00 2.365351438522338867e+00 -1.393022656440734863e+00 1.489302873611450195e+00 1.723211169242858887e+00 2.400786161422729492e+00 -1.249800086021423340e+00 -1.898999333381652832e+00 -2.540567398071289062e+00 -1.281820058822631836e+00 -2.039601087570190430e+00 -1.517772078514099121e+00 1.346869707107543945e+00 -2.724628448486328125e+00 1.946231722831726074e+00 -2.968815088272094727e+00 -1.973441123962402344e+00 -1.359630584716796875e+00 1.753424763679504395e+00 -1.699338197708129883e+00 2.336657762527465820e+00 7.442476153373718262e-01 -1.058853939175605774e-01 2.111987113952636719e+00 2.408596277236938477e+00 -2.090493917465209961e+00 -1.186380624771118164e+00 -4.265460968017578125e-01 2.305784225463867188e+00 -2.203741788864135742e+00 2.086806535720825195e+00 -1.757224559783935547e+00 2.672052145004272461e+00 9.615688920021057129e-01 7.667285799980163574e-01 -5.011601001024246216e-02 1.329213380813598633e+00 -1.479705333709716797e+00 -1.436586737632751465e+00 -2.408067941665649414e+00 -1.448754310607910156e+00 -7.677169144153594971e-02 2.477895736694335938e+00 2.508025884628295898e+00 9.169588088989257812e-01 2.464145183563232422e+00 5.500016808509826660e-01
1.161046266555786133e+00 2.753462076187133789e+00 1.756217241287231445e+00 2.244593381881713867e+00 1.206687241792678833e-01 1.177405118942260742e+00 1.635699868202209473e+00 2.806158781051635742e+00 1.470544040203094482e-01 1.355388164520263672e+00 7.903460264205932617e-01 2.927748441696166992e+00 1.701285362243652344e+00 -8.892304897308349609e-01 1.946920990943908691e+00 9.416910409927368164e-01 1.675597548484802246e+00 3.191556930541992188e+00 2.421780347824096680e+00 -1.439203143119812012e+00 -2.138691425323486328e+00 3.120366334915161133e+00 5.238299965858459473e-01 2.888350725173950195e+00 3.137542724609375000e+00 3.606154680252075195e+00 -6.937501430511474609e-01 2.510781288146972656e+00 4.508961439132690430e-01 1.643275856971740723e+00 2.663124084472656250e+00 3.240322351455688477e+00 -3.945703208446502686e-01 1.512810111045837402e+00 6.710051000118255615e-02 -1.532584309577941895e+00 1.200274705886840820e+00 1.702613830566406250e+00 -3.724545240402221680e-01 1.536419987678527832e+00 1.863430619239807129e+00 -1.060481905937194824e+00 -2.117882490158081055e+00 8.171097040176391602e-01 -2.380056858062744141e+00 -1.378099322319030762e+00 -1.964366555213928223e+00 -7.261192798614501953e-01 -1.142420053482055664e+00 -1.873590111732482910e+00 -2.005559682846069336e+00 -1.220551013946533203e+00 -6.814414262771606445e-01 5.132715776562690735e-02 -2.838661909103393555e+00 5.527306795120239258e-01 1.934507846832275391e+00 -2.751868486404418945e+00 -6.798581480979919434e-01 -1.284946084022521973e+00 -1.351748824119567871e+00 2.776274979114532471e-01 -9.745817184448242188e-01 -1.600545495748519897e-01 -2.256180286407470703e+00 3.078230619430541992e+00 1.247689008712768555e+00 -3.198950052261352539e+00 -1.754677176475524902e+00 -8.631617575883865356e-02 2.533790349960327148e+00 -7.240931987762451172e-01 8.323328495025634766e-01 2.132134437561035156e-01 -4.638501703739166260e-01 -2.025011301040649414e+00 -2.423348903656005859e+00 -5.308872461318969727e-01 -1.347863912582397461e+00 -4.983463138341903687e-02 -1.127666831016540527e+00 -2.351236343383789062e+00 -2.444681644439697266e+00 3.877285420894622803e-01 -2.152596235275268555e+00 -1.234048604965209961e+00 -7.176358103752136230e-01 -3.320252418518066406e+00 -6.467175483703613281e-01 -2.682021141052246094e+00 7.516508102416992188e-01 -2.744404315948486328e+00 -9.841491580009460449e-01 -3.975321073085069656e-03 8.737487792968750000e-01 4.361889660358428955e-01 3.006652891635894775e-01 -2.409134626388549805e+00 -3.475967884063720703e+00 -1.889623641967773438e+00
-1.815429806709289551e+00 1.880748987197875977e+00 -1.875484466552734375e+00 -2.595744371414184570e+00 -3.083596229553222656e+00 -1.200019121170043945e+00 6.557654142379760742e-01 9.268289208412170410e-01 -1.258546233177185059e+00 -1.065082430839538574e+00 6.201068758964538574e-01 3.021491765975952148e-01 -2.294182062149047852e+00 8.291906863451004028e-02 3.345795631408691406e+00 -8.931427597999572754e-01 -1.010738611221313477e+00 -7.787073254585266113e-01 1.068311572074890137e+00 -2.437439918518066406e+00 -2.829752683639526367e+00 -2.294360399246215820e+00 4.172689914703369141e-01 -2.136733770370483398e+00 5.679022073745727539e-01 -1.123104214668273926e+00 -1.971950411796569824e+00 -2.670467853546142578e+00 -2.063506603240966797e+00 -7.148508429527282715e-01 -7.787541747093200684e-01 -1.521649003028869629e+00 -1.965344190597534180e+00 -2.757825613021850586e+00 -9.946062564849853516e-01 -3.991462290287017822e-01 -2.282603263854980469e+00 -1.057872399687767029e-01 -2.626516520977020264e-01 -1.340036392211914062e+00 -2.139134168624877930e+00 -2.208501577377319336e+00 9.258008003234863281e-01 -1.133419513702392578e+00 -8.174665570259094238e-01 6.340652704238891602e-01 1.077089071273803711e+00 5.712726116180419922e-01 8.084619045257568359e-01 9.303012490272521973e-02 -1.511910438537597656e+00 3.402641415596008301e-01 2.676995992660522461e+00 4.332087934017181396e-01 2.332210063934326172e+00 2.350924253463745117e+00 -1.513957023620605469e+00 -8.343352079391479492e-01 -1.993673294782638550e-01 2.360460042953491211e+00 2.852905094623565674e-01 3.220397472381591797e+00 2.825909852981567383e+00 3.112512350082397461e+00 2.428053855895996094e+00 2.669910430908203125e+00 3.322551012039184570e+00 6.348456144332885742e-01 1.490547299385070801e+00 3.190191745758056641e+00 2.250054359436035156e+00 2.539934217929840088e-01 6.009087562561035156e-01 2.288552761077880859e+00 1.734681844711303711e+00 1.117699742317199707e+00 1.482009768486022949e+00 2.054297447204589844e+00 -1.035155773162841797e+00 3.395807266235351562e+00 -2.783010713756084442e-02 2.753235399723052979e-01 -1.454650402069091797e+00 -1.677754402160644531e+00 2.665034532546997070e+00 6.909646987915039062e-01 -1.771103620529174805e+00 7.667474746704101562e-01 -1.603899478912353516e+00 5.731599405407905579e-02 -1.364670246839523315e-01 4.808591008186340332e-01 -1.908276557922363281e+00 2.304320812225341797e+00 -6.906533837318420410e-01 -1.103202700614929199e+00 -1.807024121284484863e+00 1.959030702710151672e-02 -7.043669819831848145e-01 2.802606582641601562e+00
2.338661909103393555e+00 3.539625704288482666e-01 4.483084976673126221e-01 -4.869471490383148193e-02 3.327031612396240234e+00 2.492376089096069336e+00 3.335504770278930664e+00 2.563988685607910156e+00 1.081886142492294312e-01 -2.188475370407104492e+00 1.838622331619262695e+00 -6.936797499656677246e-01 -2.791668176651000977e-01 2.187911421060562134e-01 1.715659737586975098e+00 1.993727803230285645e+00 2.464197874069213867e+00 -2.199058532714843750e+00 1.234616994857788086e+00 2.948585152626037598e-01 2.624470233917236328e+00 -9.272176027297973633e-01 2.326614856719970703e+00 2.367916107177734375e+00 -1.353690028190612793e+00 -1.366996616125106812e-01 -1.341415405273437500e+00 1.295498490333557129e+00 1.049581646919250488e+00 1.959476947784423828e+00 8.174625635147094727e-01 -1.141160488128662109e+00 -3.572870969772338867e+00 2.271378934383392334e-01 1.566392555832862854e-02 1.791191220283508301e+00 1.416381597518920898e+00 1.062915444374084473e+00 2.502180099487304688e+00 2.128578662872314453e+00 -2.668912887573242188e+00 -1.726485967636108398e+00 -2.560955286026000977e+00 -2.226257801055908203e+00 -1.694438904523849487e-01 7.463914901018142700e-02 -1.935621201992034912e-01 -2.624621093273162842e-01 2.356546640396118164e+00 -2.355041742324829102e+00 -2.176114082336425781e+00 8.372455239295959473e-01 -1.268186569213867188e+00 -9.895832538604736328e-01 -2.150648832321166992e+00 -3.447234034538269043e-01 -1.799735546112060547e+00 6.916229128837585449e-01 -2.603976011276245117e+00 -1.109625220298767090e+00 1.090736031532287598e+00 -1.074781537055969238e+00 -2.460051536560058594e+00 -8.855411410331726074e-01 1.019010901451110840e+00 -7.099308967590332031e-01 1.675841212272644043e+00 -1.765069246292114258e+00 1.051075577735900879e+00 -2.351829051971435547e+00 -2.012344896793365479e-01 -2.451488077640533447e-01 -6.294696331024169922e-01 -2.518615245819091797e+00 -1.934469193220138550e-01 -3.107625246047973633e+00 -2.219299077987670898e+00 2.466891765594482422e+00 -8.982279300689697266e-01 -3.168408870697021484e-01 -2.164974927902221680e+00 1.938688874244689941e+00 -1.927108168601989746e-01 -1.163751482963562012e+00 2.585822045803070068e-01 1.335741162300109863e+00 5.848956704139709473e-01 -4.593322277069091797e-01 2.024243593215942383e+00 3.057036638259887695e+00 9.952916502952575684e-01 1.607738137245178223e+00 1.356715321540832520e+00 -1.710807085037231445e+00 -1.407555818557739258e+00 -1.809529215097427368e-01 -2.641145229339599609e+00 -5.286175608634948730e-01 1.941411644220352173e-01 -2.065763473510742188e+00
2.003923654556274414e+00 -1.314335823059082031e+00 2.576393127441406250e+00 2.858790874481201172e+00 -2.209908246994018555e+00 -2.756803989410400391e+00 -9.081290960311889648e-01 -2.614512681961059570e+00 -2.373218089342117310e-01 3.098801672458648682e-01 -1.224702119827270508e+00 2.290037631988525391e+00 -5.607639998197555542e-02 -6.625196337699890137e-01 -1.698281049728393555e+00 2.683726251125335693e-01 7.980843186378479004e-01 -7.483069300651550293e-01 -1.582761049270629883e+00 -7.722705602645874023e-01 2.875483989715576172e+00 1.838112235069274902e+00 -4.867730736732482910e-01 8.618567585945129395e-01 9.884993433952331543e-01 -1.222040414810180664e+00 -2.543745040893554688e+00 -4.857120513916015625e-01 -1.165290594100952148e+00 -1.924919486045837402e+00 -1.790188789367675781e+00 -1.712186574935913086e+00 -7.725062370300292969e-01 1.876929163932800293e+00 -8.079937845468521118e-02 8.138828277587890625e-01 1.779622316360473633e+00 -1.472873091697692871e+00 -2.157575845718383789e+00 2.306372858583927155e-02 -3.037505626678466797e+00 2.512988567352294922e+00 -7.005599141120910645e-01 -2.223615169525146484e+00 -3.092021465301513672e+00 8.696932196617126465e-01 -1.833748966455459595e-01 -1.900049448013305664e+00 -1.672504901885986328e+00 -1.225260496139526367e+00 -2.423845529556274414e+00 -1.839679479598999023e+00 -1.036104679107666016e+00 -1.304451942443847656e+00 2.340992927551269531e+00 1.603639125823974609e+00 -2.011166572570800781e+00 -1.473805308341979980e+00 -2.886444568634033203e+00 -1.210568428039550781e+00 1.561065554618835449e+00 -5.851552262902259827e-02 -6.908737421035766602e-01 4.701315164566040039e-01 2.031476497650146484e+00 7.316253781318664551e-01 -2.733488082885742188e-01 2.248547315597534180e+00 1.661967158317565918e+00 6.557436585426330566e-01 1.796253800392150879e+00 2.863402128219604492e+00 2.237293481826782227e+00 5.998306870460510254e-01 2.147486686706542969e+00 2.701581001281738281e+00 -5.856848359107971191e-01 1.459224820137023926e+00 3.353932797908782959e-01 -1.752933144569396973e+00 1.981535077095031738e+00 2.328716069459915161e-01 3.802731037139892578e-01 -2.308481454849243164e+00 -9.063137173652648926e-01 2.120428800582885742e+00 2.707488775253295898e+00 1.852678537368774414e+00 1.719117641448974609e+00 2.067420721054077148e+00 5.422461628913879395e-01 1.982674360275268555e+00 -9.511789083480834961e-01 -1.254506468772888184e+00 2.109338045120239258e+00 -9.293109923601150513e-02 -2.537702918052673340e-01 -2.518918752670288086e+00 3.982161879539489746e-01 1.407704114913940430e+00
-5.212123692035675049e-02 -8.894396424293518066e-01 -1.186993718147277832e+00 9.476186037063598633e-01 8.514290452003479004e-01 2.078916549682617188e+00 -2.903909206390380859e+00 1.393208384513854980e+00 -1.544232606887817383e+00 2.101731598377227783e-01 -1.084035634994506836e+00 9.384567737579345703e-01 -3.065508365631103516e+00 -7.451120615005493164e-01 -5.212511420249938965e-01 2.086388111114501953e+00 2.145453214645385742e+00 -4.491002559661865234e-01 -2.076739788055419922e+00 -2.670828580856323242e+00 2.288475751876831055e+00 1.352276325225830078e+00 1.417734265327453613e+00 2.881287783384323120e-02 1.106557488441467285e+00 5.785307884216308594e-01 2.658183097839355469e+00 -3.369861841201782227e-01 2.287687301635742188e+00 5.598007440567016602e-01 3.276427030563354492e+00 -1.423670649528503418e+00 2.952687978744506836e+00 2.545064210891723633e+00 -6.906390190124511719e-01 1.338665366172790527e+00 -1.642452836036682129e+00 2.225140094757080078e+00 2.055546522140502930e+00 2.495812892913818359e+00 -1.982395052909851074e+00 6.754626631736755371e-01 2.724585771560668945e+00 -7.647617459297180176e-01 -2.775137498974800110e-02 -1.637631893157958984e+00 -2.077791929244995117e+00 8.338812589645385742e-01 -1.688683629035949707e+00 8.845095038414001465e-01 -1.027857780456542969e+00 -1.711108684539794922e+00 -1.887411355972290039e+00 -2.586920022964477539e+00 -8.104165792465209961e-01 -1.344601750373840332e+00 2.758072137832641602e+00 1.623864173889160156e+00 2.438338279724121094e+00 -1.766107797622680664e+00 7.449063658714294434e-01 2.809011936187744141e+00 -8.224613070487976074e-01 6.498429775238037109e-01 5.190996453166007996e-02 -2.979050397872924805e+00 -2.671689033508300781e+00 1.431036591529846191e+00 -5.176301002502441406e-01 2.365507781505584717e-01 5.037270784378051758e-01 -7.372800707817077637e-01 -9.052615165710449219e-01 -5.114564299583435059e-01 -2.670638084411621094e+00 2.789667844772338867e-01 -1.565908432006835938e+00 -1.471096277236938477e+00 -1.199938297271728516e+00 -2.693000793457031250e+00 2.184780836105346680e+00 -3.129343032836914062e+00 -1.057562351226806641e+00 9.846744537353515625e-01 -1.480835914611816406e+00 -1.865308523178100586e+00 3.463691234588623047e+00 1.496103048324584961e+00 -2.149160951375961304e-01 -2.231400251388549805e+00 -9.699257463216781616e-02 -8.714675307273864746e-01 2.379482746124267578e+00 2.767460346221923828e-01 1.714981913566589355e+00 -2.046177864074707031e+00 1.735679745674133301e+00 5.983538031578063965e-01 -1.626932859420776367e+00 7.466148138046264648e-01
2.650474548339843750e+00 -2.727448701858520508e+00 7.998108267784118652e-01 -3.069114208221435547e+00 9.373603463172912598e-01 9.373522363603115082e-03 -2.282311677932739258e+00 -2.617437839508056641e+00 3.401097357273101807e-01 2.857726335525512695e+00 -8.173888921737670898e-01 -7.970675826072692871e-01 1.814673304557800293e+00 2.057022333145141602e+00 -7.405979037284851074e-01 -1.299565434455871582e+00 5.653555989265441895e-01 -1.967703819274902344e+00 -3.380912244319915771e-01 1.514234423637390137e+00 1.935868978500366211e+00 -1.988700628280639648e+00 3.805207312107086182e-01 2.854439735412597656e+00 4.606919586658477783e-01 1.054294109344482422e+00 2.583905458450317383e+00 1.619385957717895508e+00 -2.387388467788696289e+00 2.474194049835205078e+00 2.657034397125244141e+00 1.743349909782409668e+00 3.028379917144775391e+00 6.822983622550964355e-01 1.064968705177307129e+00 1.673245787620544434e+00 1.711808681488037109e+00 -5.500238537788391113e-01 1.297266840934753418e+00 -1.198558568954467773e+00 1.419609189033508301e+00 -2.293917655944824219e+00 -2.018754005432128906e+00 -4.913871586322784424e-01 3.336295783519744873e-01 -1.435263633728027344e+00 9.603176712989807129e-01 -2.649106502532958984e+00 -6.235119700431823730e-01 -1.712607145309448242e+00 8.947547078132629395e-01 -1.335055708885192871e+00 2.462603896856307983e-01 -1.028798937797546387e+00 9.862247705459594727e-01 1.341644823551177979e-01 2.170450925827026367e+00 -1.340908706188201904e-01 -2.371631383895874023e+00 -1.790514826774597168e+00 -1.353264689445495605e+00 6.840906739234924316e-01 1.656500697135925293e+00 -2.797072887420654297e+00 4.479189813137054443e-01 1.716917753219604492e+00 -2.641288995742797852e+00 2.795011997222900391e+00 2.384201765060424805e+00 4.927941262722015381e-01 -7.920271754264831543e-01 8.169904947280883789e-01 7.680441737174987793e-01 8.090906739234924316e-01 2.586156368255615234e+00 2.744772911071777344e+00 -6.244485378265380859e-01 2.073050975799560547e+00 -8.552941493690013885e-03 -2.756669044494628906e+00 -2.959279060363769531e+00 -1.931883096694946289e+00 1.650295257568359375e+00 -1.442754507064819336e+00 -6.138397455215454102e-01 -2.678856551647186279e-01 2.629993855953216553e-01 -1.069646596908569336e+00 1.525066047906875610e-01 -1.541460037231445312e+00 -8.418483138084411621e-01 2.027529239654541016e+00 -1.314810961484909058e-01 -8.679255843162536621e-01 -1.953178167343139648e+00 -1.026407480239868164e+00 -9.537975192070007324e-01 -2.247381448745727539e+00 -8.290953040122985840e-01 -1.875090003013610840e+00
2.774079322814941406e+00 2.641608705744147301e-03 1.878838419914245605e+00 -9.663482904434204102e-01 1.695105433464050293e+00 -6.302268505096435547e-01 -6.233093887567520142e-02 -1.797737598419189453e+00 2.928441762924194336e+00 5.022281408309936523e-01 6.276078820228576660e-01 -2.376471757888793945e+00 3.172772645950317383e+00 -2.594708681106567383e+00 3.082754611968994141e+00 -2.951975822448730469e+00 9.955477714538574219e-01 8.412491679191589355e-01 -9.160040616989135742e-01 1.883653283119201660e+00 -2.134916067123413086e+00 -1.831469416618347168e+00 -3.561523556709289551e-02 -9.882447123527526855e-01 -1.003942370414733887e+00 3.986797928810119629e-01 -1.234535455703735352e+00 -1.509793877601623535e+00 -1.171065926551818848e+00 1.941508531570434570e+00 -1.428388338536024094e-02 -1.328724324703216553e-01 2.520734369754791260e-01 1.330804824829101562e+00 -2.418889284133911133e+00 -4.045537114143371582e-01 -2.835155487060546875e+00 -5.941947698593139648e-01 -5.562334656715393066e-01 -2.430472820997238159e-01 -1.339834570884704590e+00 2.725530564785003662e-01 4.257447123527526855e-01 6.955549120903015137e-01 1.415148019790649414e+00 2.996216773986816406e+00 2.401745080947875977e+00 -1.068801164627075195e+00 -3.207697570323944092e-01 -2.128148078918457031e+00 1.991006970405578613e+00 -6.120000481605529785e-01 2.932854890823364258e+00 -1.891099095344543457e+00 1.084727644920349121e-01 2.103012800216674805e+00 -2.109206467866897583e-01 -1.647189021110534668e+00 1.650676488876342773e+00 -1.360906004905700684e+00 -3.730235099792480469e-01 -1.234686017036437988e+00 1.446882486343383789e+00 2.461304664611816406e+00 -1.650706052780151367e+00 -9.640239477157592773e-01 1.311276435852050781e+00 -2.238346099853515625e+00 8.845211863517761230e-01 -1.663941860198974609e+00 -1.915019750595092773e+00 3.360009193420410156e-01 -2.851859569549560547e+00 2.363489866256713867e+00 2.435002565383911133e+00 -2.084716081619262695e+00 -3.956705033779144287e-01 -1.001401782035827637e+00 2.502914667129516602e+00 3.569231331348419189e-01 1.453935384750366211e+00 -1.465806603431701660e+00 -1.288159728050231934e+00 -8.291752338409423828e-01 -4.395369887351989746e-01 -7.047723531723022461e-01 1.308828592300415039e+00 1.296494126319885254e+00 -1.846989750862121582e+00 2.258298635482788086e+00 2.126497030258178711e+00 -1.416425108909606934e+00 -1.640119910240173340e+00 -4.267275035381317139e-01 -1.698995709419250488e+00 1.167406439781188965e-01 2.025563955307006836e+00 1.579354405403137207e+00 -2.467855215072631836e+00 2.667764902114868164e+00
-1.378985762596130371e+00 -9.697203040122985840e-01 1.016865611076354980e+00 -1.128384232521057129e+00 -1.954882383346557617e+00 -1.494860053062438965e-01 -2.408751249313354492e+00 -2.289466619491577148e+00 -9.504155069589614868e-02 -2.246713399887084961e+00 -2.229415416717529297e+00 -4.447108209133148193e-01 -2.428922414779663086e+00 -1.332993388175964355e+00 2.258815765380859375e-01 -1.779354214668273926e+00 -2.239289760589599609e+00 -1.279102206230163574e+00 7.496300339698791504e-02 1.220704793930053711e+00 -1.336507916450500488e+00 -2.302272081375122070e+00 -1.314622044563293457e+00 3.335648298263549805e+00 -1.177944779396057129e+00 2.456562757492065430e+00 -7.100048661231994629e-01 -1.072845339775085449e+00 -2.057958841323852539e+00 -1.353754103183746338e-01 -1.784585714340209961e+00 1.298033595085144043e-01 -2.455669879913330078e+00 -3.283006191253662109e+00 2.330669403076171875e+00 -2.108022928237915039e+00 -1.588586449623107910e+00 2.495631575584411621e-01 9.497732520103454590e-01 1.197813004255294800e-01 5.125506520271301270e-01 2.399838447570800781e+00 -1.241589188575744629e+00 2.923457145690917969e+00 2.649318218231201172e+00 -7.404396533966064453e-01 -1.714107871055603027e+00 -1.407176017761230469e+00 2.000737190246582031e+00 -2.845229625701904297e+00 -1.543553471565246582e+00 -7.858451008796691895e-01 1.841617226600646973e+00 -5.917686223983764648e-01 -2.770939469337463379e-01 -1.006430387496948242e+00 1.963701963424682617e+00 -6.539922952651977539e-01 1.760458111763000488e+00 1.270295143127441406e+00 -1.320758182555437088e-02 3.016428470611572266e+00 -1.998077750205993652e+00 1.658459782600402832e+00 1.034188747406005859e+00 7.540910243988037109e-01 -4.568229615688323975e-01 1.901076436042785645e+00 2.327506542205810547e+00 -3.704147040843963623e-01 1.265552878379821777e+00 2.459417819976806641e+00 1.450774788856506348e+00 9.510564804077148438e-01 2.165296554565429688e+00 -1.728391885757446289e+00 7.588115930557250977e-01 -8.995795249938964844e-01 7.946006208658218384e-02 1.444441437721252441e+00 8.777330517768859863e-01 7.507587671279907227e-01 -1.168762445449829102e+00 1.118289589881896973e+00 -1.988066554069519043e+00 -1.485703825950622559e+00 2.052985668182373047e+00 3.484832048416137695e+00 2.348753213882446289e+00 -6.978493928909301758e-01 1.787063241004943848e+00 6.953954696655273438e-01 9.620372653007507324e-01 1.032970428466796875e+00 2.966493606567382812e+00 -2.105539798736572266e+00 1.976976633071899414e+00 2.802546977996826172e+00 1.873859018087387085e-01 -1.683550357818603516e+00
4.310339391231536865e-01 -1.508682131767272949e+00 -8.962363004684448242e-01 -2.253327369689941406e+00 -2.045885324478149414e+00 5.052697062492370605e-01 -8.405426740646362305e-01 1.340265035629272461e+00 1.190367460250854492e+00 1.621128916740417480e+00 1.210425376892089844e+00 -2.856010913848876953e+00 1.426701433956623077e-02 2.302542686462402344e+00 -1.468338489532470703e+00 1.540523767471313477e+00 -3.522656559944152832e-01 1.430648684501647949e+00 -1.547134518623352051e+00 2.337992191314697266e+00 -5.452176928520202637e-01 6.915075778961181641e-01 1.052103400230407715e+00 1.628446817398071289e+00 4.518594443798065186e-01 2.151203393936157227e+00 1.509662032127380371e+00 3.234878182411193848e-01 2.680123090744018555e+00 -3.808103501796722412e-01 -1.765930175781250000e+00 1.067931056022644043e+00 1.423745870590209961e+00 -2.468487739562988281e+00 -2.445377111434936523e+00 -2.087745666503906250e+00 1.209751844406127930e+00 1.631605386734008789e+00 2.495482444763183594e+00 2.897751629352569580e-01 -1.153402447700500488e+00 -6.456915140151977539e-01 -2.871453762054443359e+00 9.204694032669067383e-01 -1.719291806221008301e+00 -4.963421821594238281e-01 -2.147171497344970703e+00 1.730203270912170410e+00 -1.656921982765197754e+00 3.647991418838500977e-01 1.840365290641784668e+00 -8.020281195640563965e-01 1.167419195175170898e+00 -1.046025037765502930e+00 -1.083216667175292969e+00 -1.344218850135803223e+00 -2.071330785751342773e+00 -1.355500221252441406e+00 7.943198680877685547e-01 2.810887694358825684e-01 2.290911674499511719e+00 1.364454507827758789e+00 -2.211923360824584961e+00 -2.401563882827758789e+00 2.906161785125732422e+00 -2.340610504150390625e+00 -3.641619384288787842e-01 2.174534082412719727e+00 2.082515716552734375e+00 -5.990702509880065918e-01 3.450973033905029297e-01 5.300202965736389160e-01 2.376209646463394165e-01 -3.143782317638397217e-01 1.981353878974914551e+00 8.340088278055191040e-02 2.208658456802368164e+00 -4.258126914501190186e-01 2.142266988754272461e+00 1.635645747184753418e+00 -2.902204751968383789e+00 -5.456683635711669922e-01 1.471175402402877808e-01 -1.554790496826171875e+00 1.586326837539672852e+00 5.038673281669616699e-01 -2.813273906707763672e+00 1.081236243247985840e+00 -2.569196939468383789e+00 2.082115650177001953e+00 -5.019549727439880371e-01 -1.945043921470642090e+00 -1.134570121765136719e+00 8.345098495483398438e-01 -1.344038486480712891e+00 -1.800607919692993164e+00 -3.166759014129638672e-01 2.388608455657958984e+00 2.670672655105590820e+00 -2.277341604232788086e+00
-2.739556312561035156e+00 -9.523392319679260254e-01 -1.524635076522827148e+00 1.368738770484924316e+00 -2.836457252502441406e+00 -1.476650595664978027e+00 1.788704991340637207e+00 7.821468114852905273e-01 7.581421136856079102e-01 8.063796162605285645e-01 -2.469718933105468750e+00 -8.757361173629760742e-01 1.380900025367736816e+00 4.159269332885742188e-01 -9.001811742782592773e-01 -1.367109417915344238e+00 -3.152130842208862305e-01 -2.745605945587158203e+00 3.619226515293121338e-01 -1.675742983818054199e+00 -3.816674351692199707e-01 -2.125121355056762695e-01 -8.196112513542175293e-01 -1.080559968948364258e+00 -1.591569781303405762e+00 -2.228364467620849609e+00 2.242433786392211914e+00 -2.511733293533325195e+00 1.028345108032226562e+00 1.905930638313293457e+00 2.096315622329711914e+00 1.162123918533325195e+00 -4.229514300823211670e-01 7.904265522956848145e-01 1.010743737220764160e+00 -1.018096327781677246e+00 6.303699612617492676e-01 -1.760326743125915527e+00 2.531044960021972656e+00 8.351059556007385254e-01 -5.826881527900695801e-01 3.012075901031494141e+00 8.814328908920288086e-01 -1.003509610891342163e-01 1.196729540824890137e+00 -1.590164750814437866e-01 5.802804231643676758e-02 -1.405801534652709961e+00 2.691079378128051758e+00 1.511799216270446777e+00 -8.523837924003601074e-01 1.291974067687988281e+00 -7.655251622200012207e-01 1.771145820617675781e+00 2.706872701644897461e+00 2.399334192276000977e+00 -1.872209906578063965e+00 8.009343147277832031e-01 -1.761231303215026855e+00 2.969739198684692383e+00 -1.725878953933715820e+00 1.635870695114135742e+00 1.527571201324462891e+00 1.662663698196411133e+00 1.450815677642822266e+00 -2.055078268051147461e+00 9.225906133651733398e-01 -2.776314496994018555e+00 9.558070451021194458e-02 -6.030922532081604004e-01 -2.292748451232910156e+00 3.211654126644134521e-01 1.204488277435302734e-01 -2.065672159194946289e+00 -9.963349699974060059e-01 8.497885465621948242e-01 1.484501600265502930e+00 1.048088908195495605e+00 2.024363994598388672e+00 -1.213224291801452637e+00 -8.376767039299011230e-01 -2.257451295852661133e+00 4.914800226688385010e-01 -3.298795938491821289e+00 -2.103286743164062500e+00 1.614186644554138184e+00 -1.045833349227905273e+00 -6.865584850311279297e-01 2.139552086591720581e-01 -1.913828969001770020e+00 -1.817036271095275879e+00 -1.836126565933227539e+00 1.008899807929992676e+00 2.637815773487091064e-01 2.158185720443725586e+00 2.118935108184814453e+00 1.597190856933593750e+00 2.307865142822265625e+00 2.386355161666870117e+00 -9.181617498397827148e-01
-1.960107922554016113e+00 -1.844125986099243164e+00 -1.045328378677368164e+00 -3.778305530548095703e+00 -6.420028209686279297e-01 4.108574986457824707e-01 -5.676276683807373047e-01 -7.854996323585510254e-01 -4.774477481842041016e-01 -1.241452813148498535e+00 -1.571193337440490723e+00 4.547897875308990479e-01 1.069063067436218262e+00 -1.888226032257080078e+00 -1.805112719535827637e+00 -2.270151138305664062e+00 -1.278275489807128906e+00 -1.208404302597045898e+00 -1.122681498527526855e+00 -2.892961740493774414e+00 1.163464546203613281e+00 -3.341948091983795166e-01 -2.128498077392578125e+00 1.245172619819641113e+00 -2.473363578319549561e-01 1.390681713819503784e-01 1.193113207817077637e+00 1.839003086090087891e+00 -1.663026809692382812e+00 2.801345586776733398e-01 -5.614376664161682129e-01 -2.014932870864868164e+00 -2.960826158523559570e+00 2.073546886444091797e+00 2.567544698715209961e+00 2.220531940460205078e+00 2.672482728958129883e+00 2.542057991027832031e+00 6.448794603347778320e-01 -1.709064602851867676e+00 1.984079927206039429e-01 -6.437909007072448730e-01 7.578457593917846680e-01 -2.840385913848876953e+00 2.436249732971191406e+00 -2.053920984268188477e+00 -1.144801974296569824e+00 1.189861655235290527e+00 -2.385765075683593750e+00 1.871454358100891113e+00 2.700791120529174805e+00 7.999700307846069336e-01 -1.598053723573684692e-01 -1.309064507484436035e+00 9.700900316238403320e-02 -2.607192277908325195e+00 1.027989745140075684e+00 -7.131870985031127930e-01 -2.152746677398681641e+00 -5.577320605516433716e-02 -4.711716473102569580e-01 9.478263854980468750e-01 -2.036526679992675781e+00 1.967548727989196777e+00 -3.025649070739746094e+00 2.351343929767608643e-01 1.109514117240905762e+00 1.561693310737609863e+00 -2.848480463027954102e+00 2.179021358489990234e+00 -6.913633346557617188e-01 -5.367231369018554688e-02 1.958842992782592773e+00 1.969404339790344238e+00 7.538634538650512695e-01 1.655688643455505371e+00 8.730126619338989258e-01 2.200870513916015625e+00 9.472159147262573242e-01 1.153631329536437988e+00 1.699481248855590820e+00 1.347975134849548340e+00 1.822720527648925781e+00 2.371383905410766602e+00 1.533565670251846313e-01 3.264526724815368652e-01 2.136044025421142578e+00 1.308060407638549805e+00 2.541125774383544922e+00 -6.755850911140441895e-01 -3.559923768043518066e-01 6.689568161964416504e-01 -1.748461842536926270e+00 2.342900991439819336e+00 9.215123653411865234e-01 -2.525646686553955078e+00 4.793376848101615906e-02 1.450422525405883789e+00 -1.589601874351501465e+00 2.803021296858787537e-02
-1.744124591350555420e-01 1.791881799697875977e+00 1.275238990783691406e+00 2.230045557022094727e+00 3.007422208786010742e+00 2.525005578994750977e+00 1.451191425323486328e+00 -3.163368701934814453e-01 2.564405441284179688e+00 2.797455489635467529e-01 -1.469337940216064453e+00 6.490474343299865723e-01 4.714412987232208252e-01 -3.465021848678588867e-01 -8.652196526527404785e-01 1.654574394226074219e+00 -8.340727686882019043e-01 1.635067343711853027e+00 -1.650919765233993530e-01 2.189196109771728516e+00 -1.145173788070678711e+00 -2.840303480625152588e-01 -7.406639456748962402e-01 -5.270214006304740906e-02 -1.176303744316101074e+00 -2.127931594848632812e+00 -1.669220566749572754e+00 -2.340398788452148438e+00 -2.171730756759643555e+00 -2.731109380722045898e+00 -1.092021107673645020e+00 -8.473315238952636719e-01 -1.295767664909362793e+00 3.662618994712829590e-01 4.658266603946685791e-01 -3.102540016174316406e+00 -1.351202249526977539e+00 -2.407694578170776367e+00 -2.212444305419921875e+00 -1.018998265266418457e+00 2.019602298736572266e+00 2.333296537399291992e+00 -2.891284704208374023e+00 3.385753631591796875e+00 -1.705041408538818359e+00 9.662442207336425781e-01 -1.386425495147705078e+00 -6.739431023597717285e-01 1.217366814613342285e+00 2.667685031890869141e+00 1.999918580055236816e+00 5.705634877085685730e-02 -4.375644028186798096e-02 3.037684261798858643e-01 -2.265418693423271179e-02 2.985130786895751953e+00 1.928211450576782227e+00 2.791144609451293945e+00 1.496967673301696777e+00 1.252675890922546387e+00 2.040405035018920898e+00 2.405011892318725586e+00 1.596714615821838379e+00 8.531295657157897949e-01 2.423575401306152344e+00 1.033031865954399109e-01 -1.652190804481506348e+00 -5.751079320907592773e-01 -5.183755233883857727e-02 2.310475587844848633e+00 -2.336059510707855225e-01 2.068940401077270508e+00 -1.677882194519042969e+00 1.651296913623809814e-01 6.716603785753250122e-02 1.973299860954284668e+00 6.076636910438537598e-01 -2.020512580871582031e+00 1.932601690292358398e+00 -2.565686225891113281e+00 -1.451983809471130371e+00 -9.636603593826293945e-01 -2.392983198165893555e+00 -1.551712036132812500e+00 -2.683148622512817383e+00 -9.565232321619987488e-03 5.778648853302001953e-01 -3.906729444861412048e-02 1.191804260015487671e-01 -1.692942023277282715e+00 1.783123731613159180e+00 -2.840162038803100586e+00 -2.378709316253662109e+00 -1.197074294090270996e+00 1.019104838371276855e+00 -2.053454637527465820e+00 -1.222554087638854980e+00 -1.037900805473327637e+00 -1.059188008308410645e+00 3.415438234806060791e-01
1.498743444681167603e-01 1.669003844261169434e+00 -2.068797349929809570e+00 7.816939353942871094e-01 -5.034694075584411621e-01 8.913335204124450684e-01 1.174324154853820801e+00 -2.053370475769042969e+00 5.930984020233154297e-01 2.294946908950805664e+00 1.630071282386779785e+00 1.379294395446777344e+00 -1.151188850402832031e+00 -1.479104161262512207e-01 4.535371661186218262e-01 -2.835263729095458984e+00 -1.608447551727294922e+00 -6.804830431938171387e-01 2.421035051345825195e+00 -1.569935798645019531e+00 1.270179390907287598e+00 1.665685534477233887e+00 6.304829716682434082e-01 1.489069819450378418e+00 2.655670881271362305e+00 2.356220722198486328e+00 2.423821926116943359e+00 1.706972241401672363e+00 -1.046758055686950684e+00 3.900808095932006836e-01 2.789452552795410156e+00 2.673520088195800781e+00 2.612731218338012695e+00 1.132598161697387695e+00 2.415665239095687866e-01 1.511185050010681152e+00 2.876979827880859375e+00 8.324115872383117676e-01 -3.158354163169860840e-01 -2.228283882141113281e+00 -2.154080390930175781e+00 5.491571426391601562e-01 -1.946557044982910156e+00 -2.409909486770629883e+00 -5.765205621719360352e-01 -1.721163094043731689e-01 -1.503329426050186157e-01 -2.220460653305053711e+00 -6.229507327079772949e-01 -1.513528704643249512e+00 1.730783700942993164e+00 -8.020361065864562988e-01 -1.562802433967590332e+00 -1.176500797271728516e+00 7.805684208869934082e-02 -8.614882826805114746e-01 -1.123635411262512207e+00 -1.771893858909606934e+00 1.997478127479553223e+00 6.925588250160217285e-01 -6.938534975051879883e-02 -3.715303242206573486e-01 4.820005595684051514e-01 -3.239083588123321533e-01 1.319974780082702637e+00 -3.590742051601409912e-01 2.777720212936401367e+00 5.591387748718261719e-01 -6.687719225883483887e-01 -2.281847000122070312e+00 -7.012305315583944321e-03 6.509830355644226074e-01 1.135737299919128418e+00 2.786299705505371094e+00 2.234927892684936523e+00 8.391724228858947754e-01 -1.802012622356414795e-01 -1.168191075325012207e+00 1.515187621116638184e+00 2.405592203140258789e+00 2.585924148559570312e+00 -3.992394804954528809e-01 -2.914390563964843750e+00 -2.135377407073974609e+00 -3.018127202987670898e+00 -1.725778818130493164e+00 1.277538061141967773e+00 -2.854712247848510742e+00 -2.407263040542602539e+00 -1.916638255119323730e+00 -2.026516914367675781e+00 -2.411432981491088867e+00 -6.253824234008789062e-01 -1.698708891868591309e+00 -1.210743069648742676e+00 -1.660749554634094238e+00 2.012325525283813477e+00 -2.167640030384063721e-01 -1.169887900352478027e+00 -1.732189774513244629e+00
1.983507752418518066e+00 -5.805866718292236328e-01 -1.493971943855285645e+00 -7.775902003049850464e-02 -1.812168359756469727e+00 -1.438216090202331543e+00 8.081467747688293457e-01 -2.243171930313110352e+00 1.570683956146240234e+00 -1.169985890388488770e+00 7.133909314870834351e-02 9.507589340209960938e-01 -1.155181646347045898e+00 -5.317319631576538086e-01 9.636990427970886230e-01 3.697026669979095459e-01 -1.951928019523620605e+00 -7.349724173545837402e-01 3.096638202667236328e+00 1.168183684349060059e-01 -1.800685763359069824e+00 2.604515552520751953e-01 8.197765350341796875e-01 7.119933515787124634e-02 -6.700873970985412598e-01 2.071169137954711914e+00 3.453409671783447266e-01 -1.032264828681945801e+00 -2.798857212066650391e+00 -2.904473304748535156e+00 -5.808934569358825684e-01 2.607605934143066406e+00 -2.193432331085205078e+00 2.722749471664428711e+00 -7.229153513908386230e-01 -2.614017486572265625e+00 -1.380165934562683105e+00 4.577499032020568848e-01 6.379245519638061523e-01 2.621114492416381836e+00 6.631892919540405273e-01 -2.188584566116333008e+00 -7.308439612388610840e-01 -1.896694779396057129e+00 -9.878053069114685059e-01 -1.075349673628807068e-01 2.895952701568603516e+00 2.188545018434524536e-01 -2.413870811462402344e+00 1.039886236190795898e+00 -7.180571556091308594e-01 3.218784093856811523e+00 -2.721078157424926758e+00 -2.319652080535888672e+00 2.916509628295898438e+00 -1.064622521400451660e+00 1.253528743982315063e-01 2.953053474426269531e+00 1.647290110588073730e+00 -5.209220051765441895e-01 2.215248107910156250e+00 -1.644982814788818359e+00 9.889710545539855957e-01 -1.150561571121215820e+00 1.744915127754211426e+00 -2.023849725723266602e+00 -2.133870363235473633e+00 -1.487342000007629395e+00 -2.165677070617675781e+00 8.616798520088195801e-01 -1.553867936134338379e+00 -5.138863325119018555e-01 2.549340963363647461e+00 -1.146795511245727539e+00 -4.243797361850738525e-01 -2.753622055053710938e+00 -1.445580124855041504e+00 -3.689486384391784668e-01 -2.126336097717285156e+00 -1.176423788070678711e+00 1.332424044609069824e+00 1.473414897918701172e+00 5.579470992088317871e-01 3.030119895935058594e+00 -8.360430598258972168e-01 1.954741239547729492e+00 -1.007302045822143555e+00 -1.649304628372192383e-01 2.041984319686889648e+00 6.749503016471862793e-01 3.269366502761840820e+00 4.052577316761016846e-01 1.995261430740356445e+00 -2.316783428192138672e+00 1.191781759262084961e+00 -1.832703799009323120e-01 1.402065515518188477e+00 2.397839784622192383e+00 1.416016697883605957e+00 9.649379253387451172e-01
-2.189584493637084961e+00 -1.679218173027038574e+00 9.154777526855468750e-01 2.925166368484497070e+00 1.705725073814392090e+00 -1.679964303970336914e+00 9.772896766662597656e-01 2.622518241405487061e-01 -8.100608587265014648e-01 -1.647773385047912598e-02 -5.764220356941223145e-01 2.074270486831665039e+00 1.166783928871154785e+00 2.434139251708984375e+00 3.237090706825256348e-01 1.108913660049438477e+00 6.383103728294372559e-01 -4.277928769588470459e-01 1.399416208267211914e+00 2.342839479446411133e+00 8.841464519500732422e-01 2.212768316268920898e+00 3.199964761734008789e+00 -1.740489125251770020e+00 1.905181765556335449e+00 -1.322107195854187012e+00 -3.406695723533630371e-01 -3.292216062545776367e-01 1.783755540847778320e+00 2.382793426513671875e+00 2.206947088241577148e+00 1.451830744743347168e+00 1.195124387741088867e+00 2.928834259510040283e-01 2.499835729598999023e+00 -2.506086349487304688e+00 4.409888088703155518e-01 -1.125467777252197266e+00 1.548550009727478027e+00 1.491035461425781250e+00 -1.584640622138977051e+00 -2.268412590026855469e+00 -2.835372924804687500e+00 -1.292585730552673340e+00 -4.993418455123901367e-01 -8.592928647994995117e-01 -1.171860337257385254e+00 4.042012095451354980e-01 -1.274250388145446777e+00 -8.640193939208984375e-01 -2.217855215072631836e+00 -2.380764484405517578e+00 -1.652766585350036621e+00 -1.718437910079956055e+00 -2.181649446487426758e+00 -1.494775295257568359e+00 -2.982340574264526367e+00 8.212357759475708008e-01 1.223957180976867676e+00 1.294455051422119141e+00 8.681380748748779297e-01 -1.006560921669006348e+00 2.890461921691894531e+00 2.512470483779907227e+00 -7.242698073387145996e-01 8.893800377845764160e-01 1.241375923156738281e+00 -1.107437252998352051e+00 -2.230854034423828125e+00 9.135690927505493164e-01 -1.272913694381713867e+00 3.101464748382568359e+00 8.832927942276000977e-01 2.228786230087280273e+00 -1.192767024040222168e+00 2.353737831115722656e+00 1.771068215370178223e+00 -1.433957219123840332e-01 1.643980145454406738e+00 -1.151586532592773438e+00 -1.473125576972961426e+00 2.321144819259643555e+00 -2.763689041137695312e+00 7.466002702713012695e-01 5.680177211761474609e-01 -7.263332009315490723e-01 -1.551634073257446289e+00 -9.734029322862625122e-02 -1.271397322416305542e-01 -7.181203365325927734e-01 -1.681925535202026367e+00 1.136977076530456543e+00 -1.736913919448852539e+00 -1.146386146545410156e+00 -2.692233085632324219e+00 -2.986312866210937500e+00 -1.016383767127990723e+00 -4.638028144836425781e-01 1.393207535147666931e-02 -1.323435664176940918e+00
