-1.928112983703613281e+00 -4.153477668762207031e+00 -1.566545963287353516e+00 -1.006538629531860352e+00 -1.249880671501159668e+00 -9.976416826248168945e-01 -1.885227411985397339e-01 -1.769126176834106445e+00 2.798741579055786133e+00 2.706694602966308594e-01 5.541645288467407227e-01 2.200076580047607422e+00 -3.303877353668212891e+00 3.437743902206420898e+00 7.917653322219848633e-01 -6.314492225646972656e-02 -2.136898756027221680e+00 -1.127247333526611328e+00 5.757979750633239746e-01 3.583302974700927734e+00 4.313863068819046021e-02 2.176002264022827148e+00 -2.957340717315673828e+00 3.243254661560058594e+00 -1.112661480903625488e+00 -2.008347272872924805e+00 -4.206121921539306641e+00 -2.954156160354614258e+00 -2.345982491970062256e-01 2.868353843688964844e+00 -3.290849447250366211e+00 -1.156180262565612793e+00 1.333382487297058105e+00 2.256467819213867188e+00
-2.321144342422485352e+00 -2.861887454986572266e+00 -1.671218991279602051e+00 4.856629669666290283e-01 -3.327794551849365234e+00 -1.285123109817504883e+00 -6.289710998535156250e-01 -1.037246808409690857e-01 1.231728434562683105e+00 -3.345040798187255859e+00 6.696934998035430908e-02 -4.903674125671386719e+00 -1.058968901634216309e+00 -2.603408575057983398e+00 2.738728046417236328e+00 -7.536658048629760742e-01 -1.684641003608703613e+00 -4.665506362915039062e+00 1.910821914672851562e+00 1.427189260721206665e-01 -2.013339996337890625e+00 -1.478221297264099121e+00 3.555077791213989258e+00 5.108668804168701172e-01 3.364874720573425293e-01 1.329747289419174194e-01 -1.628049969673156738e+00 3.079818785190582275e-01 3.427595376968383789e+00 -5.798465013504028320e-01 3.460368633270263672e+00 1.651995778083801270e+00 3.378076791763305664e+00 7.334958910942077637e-01
-2.161484241485595703e+00 -9.566884636878967285e-01 1.915945649147033691e+00 -2.929831504821777344e+00 -2.177260875701904297e+00 -2.179339677095413208e-01 -1.000029206275939941e+00 -1.126238822937011719e+00 -2.338562965393066406e+00 -1.261481761932373047e+00 1.450890064239501953e+00 3.303934574127197266e+00 1.311805605888366699e+00 1.910549283027648926e+00 -2.447645366191864014e-01 -6.211887001991271973e-01 -3.755730986595153809e-01 3.017389059066772461e+00 -5.117477178573608398e-01 -2.247231006622314453e+00 -9.298110604286193848e-01 -3.619442701339721680e+00 2.939471483230590820e+00 2.315050840377807617e+00 -1.137897849082946777e+00 -2.672828435897827148e+00 2.521861314773559570e+00 -1.066112756729125977e+00 4.344736635684967041e-01 -2.871194601058959961e+00 -1.379382371902465820e+00 -1.396683335304260254e+00 2.470083951950073242e+00 -3.431433439254760742e+00
7.206933498382568359e-01 -1.486044406890869141e+00 -1.492432970553636551e-02 -2.395788908004760742e+00 -1.331172466278076172e+00 1.206335902214050293e+00 -3.560573339462280273e+00 -1.298710852861404419e-01 1.909414172172546387e+00 2.041230201721191406e+00 -3.842154979705810547e+00 1.792474389076232910e+00 -3.271204233169555664e+00 1.003502488136291504e+00 -1.251183748245239258e+00 -5.066826820373535156e+00 -1.094020247459411621e+00 -3.343164682388305664e+00 3.695706367492675781e+00 -2.548238992691040039e+00 8.221397399902343750e-01 -1.380227684974670410e+00 1.977979183197021484e+00 -1.014638096094131470e-01 2.550631999969482422e+00 -1.116662740707397461e+00 -1.429737687110900879e+00 1.414513468742370605e+00 1.403622508049011230e+00 -4.177834689617156982e-01 1.555974841117858887e+00 -2.259294033050537109e+00 1.348686337471008301e+00 2.423493385314941406e+00
-1.597798585891723633e+00 -2.333225965499877930e+00 -3.307096242904663086e+00 8.915621638298034668e-01 -1.093698024749755859e+00 6.808329224586486816e-01 -3.351881504058837891e+00 -1.544408440589904785e+00 -3.486092388629913330e-01 3.774057626724243164e+00 4.207777976989746094e+00 -3.836212456226348877e-01 6.935905814170837402e-01 2.667723000049591064e-01 -2.152632176876068115e-01 1.779507994651794434e+00 5.804912090301513672e+00 -2.819514274597167969e+00 -4.035777091979980469e+00 -1.757283806800842285e-01 -1.505507230758666992e+00 -1.834105253219604492e+00 -2.432768583297729492e+00 -2.825258970260620117e-01 2.631140053272247314e-01 -1.453043460845947266e+00 6.167645454406738281e-01 1.278848528861999512e+00 6.864827275276184082e-01 1.952159166336059570e+00 -2.285587310791015625e+00 -6.535578370094299316e-01 -1.173980385065078735e-01 -1.158826947212219238e+00
-1.461604952812194824e+00 -1.389232397079467773e+00 -3.987074375152587891e+00 -2.382962226867675781e+00 -4.995655417442321777e-01 1.985554248094558716e-01 1.250385761260986328e+00 1.384039163589477539e+00 4.790057182312011719e+00 -2.196709632873535156e+00 2.963843822479248047e+00 1.165530681610107422e+00 -4.038086891174316406e+00 1.975786328315734863e+00 -7.187106013298034668e-01 -4.482611417770385742e-01 -1.378278493881225586e+00 -4.802024662494659424e-01 -9.082406759262084961e-01 2.516960799694061279e-01 -2.324791669845581055e+00 -1.843279480934143066e+00 -9.261157512664794922e-01 1.718479037284851074e+00 5.507220625877380371e-01 -3.348547935485839844e+00 -1.308120489120483398e+00 -2.200647115707397461e+00 -1.118051052093505859e+00 2.980352044105529785e-01 -1.485143184661865234e+00 8.132229447364807129e-01 4.374164581298828125e+00 5.052813887596130371e-01
-6.514182896353304386e-04 -3.711298227310180664e+00 -1.063888669013977051e-01 -4.775421917438507080e-01 -7.964724302291870117e-01 1.218439102172851562e+00 -1.457818627357482910e+00 3.894366264343261719e+00 2.766359150409698486e-01 -7.089970707893371582e-01 4.128444194793701172e+00 -4.436479881405830383e-02 -2.281847298145294189e-01 -5.177820920944213867e-01 -3.061271429061889648e+00 2.174391150474548340e-01 5.070797801017761230e-01 -6.318996548652648926e-01 -2.607324361801147461e+00 -3.785296976566314697e-01 -8.202686905860900879e-01 -4.134612560272216797e+00 -4.594189167022705078e+00 1.440396755933761597e-01 2.453673839569091797e+00 -3.252015829086303711e+00 -1.730523109436035156e+00 -1.740563750267028809e+00 1.987006068229675293e+00 2.378713130950927734e+00 3.006934165954589844e+00 -1.765102148056030273e+00 4.731065273284912109e+00 -1.830031037330627441e+00
-3.178703784942626953e+00 -1.999623894691467285e+00 -1.453549504280090332e+00 1.971366643905639648e+00 -5.972222685813903809e-01 4.401229381561279297e+00 -4.044916927814483643e-01 9.332063198089599609e-01 1.483353257179260254e+00 -8.602923154830932617e-02 -5.311657786369323730e-01 3.768731832504272461e+00 -4.269781410694122314e-01 1.291471600532531738e+00 1.198396682739257812e+00 -9.624705314636230469e-01 9.490016698837280273e-01 -2.234034538269042969e+00 4.345093727111816406e+00 3.678438365459442139e-01 -1.789925217628479004e+00 -4.543834626674652100e-01 -4.364502131938934326e-01 1.734965205192565918e+00 -1.426796197891235352e+00 -6.055754184722900391e+00 2.591570377349853516e+00 -2.996359206736087799e-02 -2.945571899414062500e+00 -1.226071953773498535e+00 -4.112711429595947266e+00 -3.750851392745971680e+00 3.664155304431915283e-01 -2.838356494903564453e+00
-6.700612306594848633e-01 -2.081890344619750977e+00 -5.452885851263999939e-02 -1.546653509140014648e+00 -1.295897483825683594e+00 -8.537248969078063965e-01 -1.540977001190185547e+00 2.327599287033081055e+00 5.896008014678955078e-01 3.092396073043346405e-02 3.012899756431579590e-01 1.777961254119873047e+00 -3.254554510116577148e+00 -9.699813127517700195e-01 2.676109790802001953e+00 4.979080557823181152e-01 -2.834368348121643066e-01 8.040604591369628906e-01 1.317521929740905762e+00 7.619106173515319824e-01 -3.501967489719390869e-01 -4.975399017333984375e+00 -4.105474054813385010e-01 2.725995063781738281e+00 3.298595666885375977e+00 -4.308568835258483887e-01 -2.334196329116821289e+00 -7.400830984115600586e-01 -5.797542929649353027e-01 -3.740135908126831055e+00 -2.844187974929809570e+00 -4.691340446472167969e+00 4.342072010040283203e+00 -3.846372663974761963e-01
-4.587150096893310547e+00 -3.131165504455566406e+00 -1.844605326652526855e+00 1.753545850515365601e-01 -3.901005744934082031e+00 1.832717657089233398e+00 1.397085309028625488e+00 5.714395642280578613e-01 1.010141968727111816e+00 1.372393965721130371e+00 -4.733484745025634766e+00 6.174913048744201660e-01 2.443535089492797852e+00 -4.309568107128143311e-01 1.698763608932495117e+00 4.684801578521728516e+00 5.168452858924865723e-01 1.705586314201354980e+00 -1.850598573684692383e+00 1.941901206970214844e+00 -1.031386852264404297e+00 -2.792493104934692383e+00 -2.194530367851257324e-01 8.277341127395629883e-01 1.652979969978332520e+00 -1.967745661735534668e+00 -1.638908624649047852e+00 -3.114685535430908203e+00 -2.703788757324218750e+00 4.904712140560150146e-01 1.435622572898864746e+00 -3.084028482437133789e+00 3.819386959075927734e+00 -2.680671930313110352e+00
-1.070414066314697266e+00 -1.483126759529113770e+00 -1.442410707473754883e+00 -1.516306042671203613e+00 -2.124150514602661133e+00 -2.551402568817138672e+00 -1.796133279800415039e+00 2.054392576217651367e+00 6.487261056900024414e-01 -1.070086471736431122e-02 8.021641522645950317e-02 4.408028125762939453e-01 1.752767801284790039e+00 9.625470638275146484e-01 3.836064040660858154e-01 -1.997131466865539551e+00 1.986719965934753418e+00 6.665726900100708008e-01 1.632339000701904297e+00 2.832489967346191406e+00 -3.375573158264160156e+00 -7.310047149658203125e-01 -2.225678682327270508e+00 -9.377457201480865479e-02 -1.687743067741394043e+00 -4.752806425094604492e-01 -8.197645187377929688e+00 -1.542186141014099121e+00 1.781871557235717773e+00 4.446504116058349609e+00 1.049550175666809082e+00 1.820210576057434082e+00 2.864786386489868164e+00 -2.680567264556884766e+00
-7.965312004089355469e-01 -4.955436229705810547e+00 -6.864983439445495605e-01 7.326192259788513184e-01 -1.097423315048217773e+00 1.376407861709594727e+00 -2.430958509445190430e+00 -1.997273206710815430e+00 -1.837545782327651978e-01 -8.048810958862304688e-01 -6.228863000869750977e-01 -2.713464021682739258e+00 -1.331773281097412109e+00 -2.119741588830947876e-01 5.824386119842529297e+00 2.566920779645442963e-02 7.651987671852111816e-01 2.261511087417602539e+00 2.434349536895751953e+00 1.611209154129028320e+00 -2.344399839639663696e-01 -1.279279708862304688e+00 7.874112725257873535e-01 -1.811917543411254883e+00 1.582186222076416016e-01 -1.529345035552978516e+00 -4.378681182861328125e+00 3.416131496429443359e+00 -4.770936489105224609e+00 2.185041308403015137e-01 -3.337830066680908203e+00 5.486378073692321777e-01 3.757793426513671875e+00 1.843529820442199707e+00
-2.907832384109497070e+00 -4.564179897308349609e+00 -1.513671159744262695e+00 2.100908160209655762e-01 1.332102179527282715e+00 2.175423145294189453e+00 -4.450600147247314453e+00 9.868826866149902344e-01 9.670427441596984863e-01 -1.359787106513977051e+00 -3.937015295028686523e+00 2.035079479217529297e+00 -2.644149661064147949e-01 -4.642288684844970703e+00 2.214284092187881470e-01 -6.197193264961242676e-01 2.424585103988647461e+00 -3.192379951477050781e+00 5.108910799026489258e-01 2.018446922302246094e+00 7.572466731071472168e-01 -1.810843586921691895e+00 -1.500824213027954102e+00 2.311242818832397461e-01 -8.133074045181274414e-01 -3.291027784347534180e+00 9.278059601783752441e-01 8.901895880699157715e-01 4.007762074470520020e-01 3.145079135894775391e+00 -8.224452733993530273e-01 2.684652090072631836e+00 1.062055945396423340e+00 8.171305060386657715e-01
-1.274898290634155273e+00 -4.141512870788574219e+00 2.814185142517089844e+00 -1.266664385795593262e+00 -3.935549497604370117e+00 -2.071253776550292969e+00 -5.533519387245178223e-01 -2.560602426528930664e+00 1.715637922286987305e+00 1.413014531135559082e+00 -1.291836142539978027e+00 -1.189943552017211914e+00 -6.132293343544006348e-01 2.118124067783355713e-02 2.190641611814498901e-01 -1.592664599418640137e+00 1.852652788162231445e+00 -1.722600221633911133e+00 1.215651392936706543e+00 -4.058692455291748047e-01 8.653216361999511719e-01 -8.193390369415283203e-01 1.340891242027282715e+00 1.794746518135070801e+00 1.907895326614379883e+00 -2.993267297744750977e+00 2.454441636800765991e-01 1.301928758621215820e+00 2.180719614028930664e+00 -2.151695340871810913e-01 -6.992949247360229492e-01 -3.572010993957519531e+00 2.727625608444213867e+00 -3.094588518142700195e+00
-3.705575942993164062e+00 -4.875991940498352051e-01 1.084892630577087402e+00 5.913053750991821289e-01 -7.970460653305053711e-01 -1.922216892242431641e+00 -2.845059871673583984e+00 -3.804315090179443359e+00 -2.773937225341796875e+00 2.410862594842910767e-01 -9.359853267669677734e-01 -1.675441145896911621e+00 -7.936626672744750977e-01 2.469255626201629639e-01 1.677435785531997681e-01 -3.881501436233520508e+00 1.772409319877624512e+00 -1.342761397361755371e+00 1.340368390083312988e+00 -6.674267649650573730e-01 -1.272237420082092285e+00 2.446856796741485596e-01 -1.173399984836578369e-01 4.495059967041015625e+00 2.536267995834350586e+00 -1.464669466018676758e+00 -5.923348426818847656e+00 4.399280250072479248e-01 -2.794988155364990234e-01 3.286552429199218750e+00 4.492249488830566406e+00 6.445436477661132812e-01 1.735847115516662598e+00 1.441588163375854492e+00
-4.465127468109130859e+00 -9.043568968772888184e-01 -8.545146584510803223e-01 -2.160637855529785156e+00 -2.102500438690185547e+00 -6.066677570343017578e-01 -2.787956476211547852e+00 1.853943705558776855e+00 -5.776343941688537598e-01 2.616559505462646484e+00 2.986874103546142578e+00 -2.741534948348999023e+00 -7.767100632190704346e-02 -7.186946272850036621e-01 -2.615967512130737305e+00 2.421962022781372070e+00 1.853929042816162109e+00 2.090933620929718018e-01 -3.075264215469360352e+00 -6.268273591995239258e-01 3.500279903411865234e+00 1.724851369857788086e+00 1.553487658500671387e+00 1.356415033340454102e+00 1.174230575561523438e+00 -2.961644411087036133e+00 -4.385895252227783203e+00 3.873793780803680420e-01 -1.224194884300231934e+00 2.446793556213378906e+00 -1.331670522689819336e+00 -2.659888982772827148e+00 1.515330791473388672e+00 7.971865534782409668e-01
-2.820174455642700195e+00 -2.750087738037109375e+00 -2.812582492828369141e+00 2.774257063865661621e-01 4.566435515880584717e-02 1.015504956245422363e+00 -2.027623653411865234e+00 -7.509416341781616211e-01 -1.997974038124084473e+00 1.534673929214477539e+00 1.879741996526718140e-01 1.655447483062744141e-01 -7.407462000846862793e-01 -2.922859601676464081e-02 1.729127287864685059e+00 3.101478815078735352e+00 -1.053981900215148926e+00 -2.669817686080932617e+00 7.630630731582641602e-01 -2.279939502477645874e-01 1.803029537200927734e+00 1.303642153739929199e+00 -3.813580513000488281e+00 1.841307044029235840e+00 1.695873022079467773e+00 -2.373829126358032227e+00 -2.143481492996215820e+00 -3.100420713424682617e+00 -4.764555990695953369e-01 1.625879883766174316e+00 -1.114761352539062500e+00 1.042844295501708984e+00 1.334463119506835938e+00 -5.907624363899230957e-01
-8.082318305969238281e-01 -9.255822896957397461e-01 -2.208362817764282227e+00 1.458741068840026855e+00 -3.311724185943603516e+00 -1.383492588996887207e+00 7.142825722694396973e-01 -2.156485557556152344e+00 4.310651779174804688e+00 2.477653264999389648e+00 -2.976718664169311523e+00 -7.532687783241271973e-01 -3.135904550552368164e+00 5.332258939743041992e-01 -1.149424195289611816e+00 -2.604533433914184570e+00 3.203992843627929688e+00 -8.819540739059448242e-01 -1.702713966369628906e+00 2.804760932922363281e+00 -4.620511054992675781e+00 -1.302667140960693359e+00 -3.568492233753204346e-01 1.765617609024047852e+00 2.969539724290370941e-02 -1.122218728065490723e+00 -1.056008100509643555e+00 -1.513476371765136719e+00 -5.977895855903625488e-01 2.462884902954101562e+00 1.831401348114013672e+00 -2.093108177185058594e+00 1.938422203063964844e+00 1.748122572898864746e+00
3.412616968154907227e+00 -4.246903896331787109e+00 2.374565601348876953e+00 -2.028205871582031250e+00 -2.161628007888793945e+00 -2.684254169464111328e+00 2.486643791198730469e+00 -3.623331308364868164e+00 7.894260287284851074e-01 1.197976917028427124e-01 -1.792989611625671387e+00 1.238224744796752930e+00 -2.099156379699707031e+00 -5.096902847290039062e-01 2.387359887361526489e-01 6.760799288749694824e-01 1.188981533050537109e+00 1.863008499145507812e+00 3.995680063962936401e-02 1.781227946281433105e+00 -2.530745506286621094e+00 -2.578725665807723999e-02 -3.498446941375732422e-01 -4.366756081581115723e-01 2.889115333557128906e+00 -3.678539514541625977e+00 -6.471325159072875977e-01 -6.713809072971343994e-02 -9.186861515045166016e-01 9.978766441345214844e-01 -6.334996223449707031e-01 -1.093254446983337402e+00 1.417218565940856934e+00 -2.148793220520019531e+00
-6.583086848258972168e-01 -1.304887294769287109e+00 3.159143686294555664e+00 -9.189758300781250000e-01 -1.379603266716003418e+00 -1.454801917076110840e+00 9.669783525168895721e-03 9.715351462364196777e-01 1.852016448974609375e+00 2.366507530212402344e+00 1.408553719520568848e+00 -1.174436807632446289e+00 7.382899522781372070e-01 -6.672120094299316406e-01 9.233226776123046875e-01 3.581150770187377930e+00 -1.007383823394775391e+00 -3.297327995300292969e+00 -1.365980744361877441e+00 -3.547490537166595459e-01 3.463454544544219971e-01 -2.546492338180541992e+00 -1.511138081550598145e+00 2.867234230041503906e+00 -1.289562463760375977e+00 3.317529559135437012e-01 6.488154530525207520e-01 -2.380864858627319336e+00 -2.227549076080322266e+00 -1.888728022575378418e+00 -3.976113796234130859e+00 -3.962696313858032227e+00 1.272123932838439941e+00 1.191425137221813202e-02
6.236066818237304688e-01 -4.863920211791992188e+00 -9.494376182556152344e-01 -1.565054655075073242e+00 2.640443563461303711e+00 4.583922028541564941e-01 7.806762456893920898e-01 3.590288639068603516e+00 -3.325054407119750977e+00 -1.245101928710937500e+00 -6.885623931884765625e-01 1.510443925857543945e+00 -9.193012714385986328e-01 -1.988190174102783203e+00 -7.246389985084533691e-02 2.164433240890502930e+00 -8.238784670829772949e-01 -2.766477108001708984e+00 4.639522135257720947e-01 1.839802742004394531e+00 -4.037233829498291016e+00 4.822993755340576172e+00 -1.633252739906311035e+00 -5.404754877090454102e-01 3.858336806297302246e-01 -1.548700571060180664e+00 -1.988925814628601074e+00 2.123482465744018555e+00 3.617512464523315430e+00 1.096920251846313477e+00 9.814095497131347656e-01 -4.020114898681640625e+00 -4.567581653594970703e+00 9.822284430265426636e-02
-1.316021323204040527e+00 -3.613600015640258789e+00 7.006660103797912598e-01 1.133156538009643555e+00 2.513429880142211914e+00 -5.380335330963134766e+00 7.603202462196350098e-01 2.501984119415283203e+00 -1.499176383018493652e+00 -9.373196959495544434e-01 5.228688716888427734e-01 1.201019585132598877e-01 -8.901452422142028809e-01 1.524491190910339355e+00 3.606092929840087891e-01 -1.188693165779113770e+00 -9.814580082893371582e-01 5.067562103271484375e+00 -3.066048622131347656e-01 1.651309728622436523e+00 -3.225150823593139648e+00 -2.717032194137573242e+00 -2.808269500732421875e+00 5.417795777320861816e-01 7.355952262878417969e-01 4.033850669860839844e+00 2.369927406311035156e+00 -2.138350725173950195e+00 -3.017366886138916016e+00 -2.156972408294677734e+00 4.378618672490119934e-03 -4.094594478607177734e+00 -8.206988573074340820e-01 7.703475952148437500e-01
-2.176261663436889648e+00 -5.723494291305541992e-01 9.338909387588500977e-01 -1.584770560264587402e+00 1.210396364331245422e-02 9.954262375831604004e-01 -2.158108472824096680e+00 1.031751155853271484e+00 -1.153399124741554260e-01 -2.011961698532104492e+00 -3.972508907318115234e-01 -4.398537278175354004e-01 -1.372923374176025391e+00 -3.141355037689208984e+00 -1.628796339035034180e+00 -1.186946749687194824e+00 2.687781333923339844e+00 6.152732372283935547e-01 -1.273899435997009277e+00 6.082661747932434082e-01 1.332049846649169922e+00 -6.911278963088989258e-01 8.966564536094665527e-01 6.287153959274291992e-01 1.132507205009460449e+00 5.031305551528930664e-01 -1.244107246398925781e+00 -2.090037345886230469e+00 -4.048148393630981445e-01 -7.159014940261840820e-01 -7.033723592758178711e-01 -3.227704167366027832e-01 -2.112168788909912109e+00 1.209577322006225586e+00
-1.138840764760971069e-01 3.124756097793579102e+00 -1.656636476516723633e+00 -1.353162288665771484e+00 2.867964982986450195e+00 2.044273614883422852e+00 -3.096674203872680664e+00 -1.110624551773071289e+00 -2.400053501129150391e+00 -4.235292077064514160e-01 -2.426483869552612305e+00 -2.797000169754028320e+00 -6.551464796066284180e-01 -2.302572488784790039e+00 1.429202437400817871e+00 3.005850791931152344e+00 -9.972236305475234985e-02 -4.077102839946746826e-01 2.807059288024902344e-01 -1.039961934089660645e+00 1.613264799118041992e+00 2.133306503295898438e+00 -4.248590946197509766e+00 -1.591323137283325195e+00 1.132265686988830566e+00 1.104403376579284668e+00 -9.432770013809204102e-01 3.906323671340942383e+00 8.334302157163619995e-02 -5.206023454666137695e-01 -3.499624490737915039e+00 -5.097825527191162109e+00 -2.051306009292602539e+00 2.067380189895629883e+00
2.198344171047210693e-01 8.739976286888122559e-01 -4.167782962322235107e-01 -1.669319629669189453e+00 3.807660102844238281e+00 -4.307130336761474609e+00 1.560833692550659180e+00 -9.454345107078552246e-01 -4.053382873535156250e+00 2.106725215911865234e+00 1.495113015174865723e+00 4.834460914134979248e-01 -3.608742952346801758e+00 -2.926977574825286865e-01 -9.813566207885742188e-01 1.499402523040771484e-01 -6.795276403427124023e-01 1.216628074645996094e+00 -1.493973374366760254e+00 2.708595037460327148e+00 -1.609800219535827637e+00 1.238920211791992188e+00 -3.670468807220458984e+00 -2.153311729431152344e+00 6.182438135147094727e-01 6.822947263717651367e-01 6.295350790023803711e-01 4.177485704421997070e-01 1.911347031593322754e+00 -2.320997118949890137e-01 6.830937266349792480e-01 -5.536692142486572266e+00 -3.331772089004516602e+00 1.007307410240173340e+00
7.132322788238525391e-01 2.856034755706787109e+00 -8.345168232917785645e-01 -4.976719617843627930e-01 3.048238039016723633e+00 6.245598196983337402e-01 -1.790426969528198242e+00 -2.197318792343139648e+00 -4.361611366271972656e+00 -2.618306159973144531e+00 -2.502864003181457520e-01 1.309129238128662109e+00 -1.867625951766967773e+00 1.232340812683105469e+00 -3.936499953269958496e-01 -3.289428234100341797e+00 2.908092260360717773e+00 2.483743429183959961e+00 1.895351529121398926e+00 1.544129252433776855e-01 1.108748242259025574e-01 -1.234556317329406738e+00 1.607528924942016602e+00 -5.022348403930664062e+00 7.604395151138305664e-01 9.448763132095336914e-01 -1.642107725143432617e+00 -2.087019151076674461e-03 3.881294727325439453e+00 -1.884495854377746582e+00 -1.471619129180908203e+00 -5.072585105895996094e+00 -4.047260761260986328e+00 2.397117614746093750e+00
1.374284744262695312e+00 -9.357591867446899414e-01 -2.295042388141155243e-02 7.455964684486389160e-01 1.541216969490051270e+00 -5.994472503662109375e-01 3.488683104515075684e-01 -1.467325210571289062e+00 -2.448208332061767578e+00 1.074864625930786133e+00 -1.962475538253784180e+00 4.571057796478271484e+00 -2.089677572250366211e+00 4.003661632537841797e+00 -1.151351928710937500e+00 -1.695207953453063965e+00 -1.475903391838073730e+00 6.527663767337799072e-02 -1.991007804870605469e+00 -3.460287570953369141e+00 3.086106777191162109e+00 -2.089656114578247070e+00 -2.797521591186523438e+00 -3.217322826385498047e+00 -1.105273485183715820e+00 3.145306408405303955e-01 -2.088556051254272461e+00 2.367424726486206055e+00 1.037026166915893555e+00 2.787395000457763672e+00 -7.721074819564819336e-01 -2.237398147583007812e+00 7.563682198524475098e-01 -1.095108628273010254e+00
-2.679838180541992188e+00 -2.087615013122558594e+00 -9.564194083213806152e-02 -3.067796468734741211e+00 1.570578336715698242e+00 4.848754107952117920e-01 -2.125015497207641602e+00 -4.580190658569335938e+00 3.102910518646240234e-01 2.537964344024658203e+00 3.155016660690307617e+00 -5.316835880279541016e+00 -1.723698139190673828e+00 2.738763205707073212e-02 -4.240832030773162842e-01 -3.665805980563163757e-02 -3.531773686408996582e-01 1.988906145095825195e+00 -1.252289295196533203e+00 5.507924556732177734e-01 5.433955788612365723e-01 2.155820846557617188e+00 2.553516387939453125e+00 -3.098101139068603516e+00 -5.418499112129211426e-01 2.512855529785156250e+00 -1.641975939273834229e-01 -1.757286638021469116e-01 -9.041322022676467896e-02 -4.384857654571533203e+00 1.707571864128112793e+00 7.709825038909912109e-01 -4.105131149291992188e+00 2.677712440490722656e+00
8.148612976074218750e-01 2.650061249732971191e-01 -1.109108448028564453e+00 -5.205816626548767090e-01 3.345182418823242188e+00 -2.895992994308471680e+00 -1.527730226516723633e+00 3.207221984863281250e+00 -1.609603166580200195e+00 1.396816730499267578e+00 -3.347017765045166016e-01 -1.558306336402893066e+00 -3.488455533981323242e+00 2.660004138946533203e+00 -1.083797663450241089e-01 1.792510896921157837e-01 3.712574481964111328e+00 -2.218551486730575562e-01 3.304491341114044189e-01 -3.211432218551635742e+00 -9.119384884834289551e-01 1.590768218040466309e+00 1.568432569503784180e+00 -4.004130363464355469e+00 -4.576084136962890625e+00 -3.438542842864990234e+00 1.981736898422241211e+00 -6.971933692693710327e-02 -1.692662835121154785e+00 2.857213020324707031e-01 2.843357563018798828e+00 -2.671250343322753906e+00 -3.119718074798583984e+00 1.251582384109497070e+00
1.275308728218078613e-01 -6.906874179840087891e-01 -1.109583526849746704e-01 -3.345905303955078125e+00 3.231014013290405273e+00 -1.583494544029235840e+00 -2.207018852233886719e+00 5.651063323020935059e-01 -6.287736296653747559e-01 2.821144759654998779e-01 -9.970015883445739746e-01 1.762013077735900879e+00 -2.272061586380004883e+00 -4.398464262485504150e-01 2.668830938637256622e-02 2.078759193420410156e+00 1.038745403289794922e+00 1.519640564918518066e+00 1.530900955200195312e+00 1.141781687736511230e+00 -1.227330207824707031e+00 -3.512556314468383789e+00 -9.400316476821899414e-01 -8.103848695755004883e-01 1.667380332946777344e+00 1.336720347404479980e+00 -3.122410535812377930e+00 -2.471682786941528320e+00 -2.760104894638061523e+00 1.311271786689758301e-01 -8.904216289520263672e-01 -6.085753440856933594e-01 -3.054102659225463867e+00 1.634961128234863281e+00
1.191981554031372070e+00 -1.137890696525573730e+00 -2.069984674453735352e+00 -1.884201884269714355e+00 5.189667701721191406e+00 1.878771305084228516e+00 -3.707826137542724609e+00 1.512495279312133789e+00 -2.560706138610839844e+00 7.858490198850631714e-02 -2.017510175704956055e+00 3.622758388519287109e+00 -1.038612604141235352e+00 7.536374330520629883e-01 -2.270706653594970703e+00 1.397547483444213867e+00 2.168950319290161133e+00 1.319548249244689941e+00 1.030898690223693848e+00 1.563511192798614502e-01 -1.626786470413208008e+00 -4.580941677093505859e+00 3.422644376754760742e+00 -4.562729835510253906e+00 -3.996123559772968292e-03 3.138973116874694824e-01 -2.086262464523315430e+00 4.264125823974609375e-01 -3.405183076858520508e+00 2.359957545995712280e-01 -1.386420369148254395e+00 4.101532995700836182e-01 -2.169456481933593750e+00 2.070363283157348633e+00
-3.254862546920776367e+00 -5.503121018409729004e-01 -1.056930303573608398e+00 -2.814216613769531250e-01 2.092549800872802734e+00 2.151699513196945190e-01 2.764206647872924805e+00 4.774607181549072266e+00 -1.303524971008300781e+00 -8.371942639350891113e-01 2.465688943862915039e+00 -3.974599123001098633e+00 -4.951330661773681641e+00 -2.748370170593261719e-03 -4.539826393127441406e+00 1.068031430244445801e+00 1.074011087417602539e+00 1.587484359741210938e+00 1.038578629493713379e+00 -5.629387497901916504e-01 -1.724310994148254395e+00 2.319092512130737305e+00 8.830314278602600098e-01 -3.188977479934692383e+00 1.592738032341003418e-01 1.620215177536010742e+00 5.123565793037414551e-01 -1.984035253524780273e+00 -2.423942387104034424e-01 -4.022015094757080078e+00 -2.325655460357666016e+00 -3.232135057449340820e+00 -5.915715098381042480e-01 1.706544756889343262e+00
-8.714044690132141113e-01 -3.900826454162597656e+00 1.212796807289123535e+00 -3.999240696430206299e-01 2.208831071853637695e+00 4.341080784797668457e-02 -4.282390594482421875e+00 3.857536315917968750e-01 -1.333586096763610840e+00 -2.149193048477172852e+00 1.665117740631103516e+00 -2.635179758071899414e+00 3.585650026798248291e-01 -4.997858047485351562e+00 -6.386325955390930176e-01 5.805895328521728516e-01 2.463532447814941406e+00 3.561628103256225586e+00 1.278204798698425293e+00 2.011086940765380859e+00 1.458580344915390015e-01 1.530753254890441895e+00 -3.408576846122741699e-01 -4.698790550231933594e+00 -1.523979663848876953e+00 3.261102914810180664e+00 8.023439049720764160e-01 -2.098380088806152344e+00 -2.090460777282714844e+00 3.209894180297851562e+00 -3.394496202468872070e+00 -9.623149037361145020e-01 -1.877462506294250488e+00 1.649318099021911621e+00
-4.418693780899047852e-01 -2.381634712219238281e+00 1.271587133407592773e+00 -6.779109835624694824e-01 3.974034786224365234e+00 2.449294567108154297e+00 2.079660892486572266e+00 1.524507641792297363e+00 -1.426564455032348633e+00 5.274911522865295410e-01 -1.408311605453491211e+00 -6.878947019577026367e-01 -6.642754077911376953e-01 3.669710397720336914e+00 6.641684770584106445e-01 2.470103740692138672e+00 -2.386779069900512695e+00 4.851005971431732178e-01 -1.514689683914184570e+00 3.208869457244873047e+00 1.133064866065979004e+00 -2.598562240600585938e+00 -2.811185598373413086e+00 -5.699969768524169922e+00 -3.312858819961547852e+00 2.173493385314941406e+00 -1.753769516944885254e+00 1.162619590759277344e+00 -7.226540148258209229e-02 -5.552574992179870605e-01 -2.829016923904418945e+00 -1.019749283790588379e+00 -2.056923627853393555e+00 -3.584338903427124023e+00
-2.867535114288330078e+00 -1.284191250801086426e+00 -5.207334160804748535e-01 8.424564599990844727e-01 2.688221454620361328e+00 2.694895505905151367e+00 1.673941463232040405e-01 -4.766700863838195801e-01 3.620139360427856445e+00 1.081180214881896973e+00 -2.304571270942687988e-01 -1.353733062744140625e+00 -3.771402597427368164e+00 -3.090346813201904297e+00 9.439112544059753418e-01 2.911736249923706055e+00 -5.971754193305969238e-01 -3.774597883224487305e+00 -2.802045106887817383e+00 4.797441482543945312e+00 4.041994512081146240e-01 1.417923569679260254e+00 -3.100549697875976562e+00 -1.051738858222961426e+00 -7.857296466827392578e-01 2.221961975097656250e+00 8.659167289733886719e-01 -1.363064289093017578e+00 -1.582929253578186035e+00 -4.117312431335449219e+00 3.404836416244506836e+00 -3.792018175125122070e+00 -4.484855651855468750e+00 1.194097399711608887e+00
-2.256794691085815430e+00 -2.782314538955688477e+00 -1.650948077440261841e-01 3.971942961215972900e-01 2.188197612762451172e+00 -1.046924516558647156e-01 -1.359997630119323730e+00 1.759998917579650879e+00 -1.644462585449218750e+00 -4.206146717071533203e+00 -1.076320409774780273e+00 2.835889101028442383e+00 -3.811786696314811707e-02 -1.970956206321716309e+00 -2.222711563110351562e+00 -5.823382735252380371e-01 3.061673879623413086e+00 2.440503120422363281e+00 -1.605250716209411621e+00 2.450223207473754883e+00 -1.165420532226562500e+00 -6.587448716163635254e-01 3.522362112998962402e-01 -4.684211611747741699e-01 3.357101202011108398e+00 3.574699640274047852e+00 -6.057114601135253906e-01 -1.617490649223327637e+00 1.255609393119812012e+00 -1.592497706413269043e+00 -1.965136766433715820e+00 -3.748243570327758789e+00 -2.391762733459472656e+00 -1.986890196800231934e+00
-1.672939419746398926e+00 -1.569620847702026367e+00 -6.533972263336181641e+00 1.952357411384582520e+00 3.547764539718627930e+00 2.192697048187255859e+00 2.480631589889526367e+00 -2.213683605194091797e+00 8.713670969009399414e-01 -3.903531551361083984e+00 -4.548853933811187744e-01 7.082731723785400391e-01 -1.964339494705200195e+00 -2.260534763336181641e+00 -1.153636932373046875e+00 -4.181827068328857422e+00 6.994019746780395508e-01 -9.676671028137207031e-01 1.361580491065979004e+00 -1.142768621444702148e+00 -1.210376739501953125e+00 2.715315818786621094e+00 1.295739650726318359e+00 -3.554131746292114258e+00 2.477026224136352539e+00 2.169339179992675781e+00 -3.353118598461151123e-01 -2.612176835536956787e-01 4.486101865768432617e-01 -9.133372306823730469e-01 1.349991440773010254e+00 -2.010219812393188477e+00 2.084407091140747070e+00 -1.076590418815612793e+00
-1.066078066825866699e+00 -2.712404966354370117e+00 2.787888050079345703e-01 -2.653792858123779297e+00 1.168673038482666016e+00 -2.303866446018218994e-01 2.272032260894775391e+00 -2.592156827449798584e-01 1.835618615150451660e+00 1.805218696594238281e+00 -2.194563865661621094e+00 1.656672954559326172e+00 -1.283755421638488770e+00 1.558374285697937012e+00 1.260089755058288574e+00 1.696639418601989746e+00 -6.403967738151550293e-02 -3.727982342243194580e-01 -9.546332359313964844e-01 1.248348593711853027e+00 -3.469422101974487305e+00 2.585946559906005859e+00 -7.640825957059860229e-02 -2.837102890014648438e+00 -8.110954761505126953e-01 1.046133995056152344e+00 -8.333640098571777344e-01 -1.737533658742904663e-01 -4.789371967315673828e+00 2.411484003067016602e+00 1.313296556472778320e+00 -1.784563422203063965e+00 -2.627703666687011719e+00 -4.278569698333740234e+00
-1.894972473382949829e-01 -7.320890426635742188e-01 -1.285655260086059570e+00 -8.064006567001342773e-01 4.952430427074432373e-01 -1.489202380180358887e+00 5.168679356575012207e-01 -3.345946073532104492e-01 1.413165926933288574e-01 -1.430215477943420410e+00 2.041167259216308594e+00 -3.791539192199707031e+00 -1.830429911613464355e+00 -2.462782859802246094e+00 -1.178513884544372559e+00 -1.133033782243728638e-01 3.274845123291015625e+00 3.874977350234985352e+00 -1.654391586780548096e-01 -2.920107364654541016e+00 2.881919384002685547e+00 8.827415108680725098e-01 -1.037305831909179688e+00 -1.068274736404418945e+00 -3.363569259643554688e+00 -1.280458688735961914e+00 -1.754679560661315918e+00 -2.136932164430618286e-01 2.561638355255126953e+00 -9.622427821159362793e-01 2.451263904571533203e+00 -3.644062280654907227e+00 -2.213118553161621094e+00 1.571659326553344727e+00
-9.844669699668884277e-01 8.386165648698806763e-02 7.449036836624145508e-01 -7.834857106208801270e-01 7.304787635803222656e-01 9.255900979042053223e-01 -2.806978225708007812e-01 4.056958675384521484e+00 1.070196270942687988e+00 -4.409667491912841797e+00 -4.011771678924560547e+00 4.543920993804931641e+00 -2.162171840667724609e+00 1.525193214416503906e+00 -1.748885631561279297e+00 -2.442715167999267578e+00 1.974086284637451172e+00 -1.741994738578796387e+00 -3.164459705352783203e+00 -3.904399275779724121e-01 4.505402445793151855e-01 1.840319633483886719e+00 -8.503469824790954590e-01 3.517608940601348877e-01 -6.056510210037231445e-01 4.191771447658538818e-01 -2.789054393768310547e+00 1.526778459548950195e+00 -1.268690943717956543e+00 1.225329995155334473e+00 2.098717212677001953e+00 -1.383521556854248047e+00 -2.778420686721801758e+00 -2.363594532012939453e+00
1.369745969772338867e+00 5.123660564422607422e-01 1.182230114936828613e+00 1.177174806594848633e+00 -6.039182543754577637e-01 8.929231762886047363e-01 -2.078651666641235352e+00 -2.580175161361694336e+00 -1.662416100502014160e+00 -9.147170186042785645e-01 4.166212558746337891e+00 1.907866597175598145e+00 -3.741331100463867188e+00 8.670242428779602051e-01 -6.558272242546081543e-01 2.758443593978881836e+00 -1.974177598953247070e+00 8.225198984146118164e-01 1.539389610290527344e+00 3.002790212631225586e-01 -1.201903820037841797e+00 1.502893567085266113e+00 -1.320009827613830566e+00 -3.500532150268554688e+00 2.865232229232788086e+00 -4.937889575958251953e-01 -7.324734210968017578e+00 -2.802217245101928711e+00 1.201599359512329102e+00 -2.695351652801036835e-02 -2.798501968383789062e+00 2.466239780187606812e-01 -1.917828083038330078e+00 1.160514593124389648e+00
2.502797603607177734e+00 -1.722119569778442383e+00 -2.476047992706298828e+00 2.325177192687988281e+00 -2.937596142292022705e-01 1.299361109733581543e+00 -1.894495487213134766e-01 -3.645414590835571289e+00 -1.478914618492126465e-01 1.507390975952148438e+00 3.019340276718139648e+00 2.909600019454956055e+00 -5.307779312133789062e-01 2.685075521469116211e+00 -2.032790899276733398e+00 -7.393380999565124512e-01 -3.937010288238525391e+00 -1.016753792762756348e+00 3.880169630050659180e+00 -1.636944413185119629e+00 7.910790443420410156e-01 3.480806052684783936e-01 -1.990743994712829590e+00 -2.552918910980224609e+00 2.358245849609375000e+00 -1.409632086753845215e+00 1.489955335855484009e-01 -2.043812513351440430e+00 -2.359294891357421875e+00 2.507398724555969238e-01 -3.575452566146850586e+00 7.687669992446899414e-01 -1.172724604606628418e+00 -2.934778928756713867e+00
-1.815048336982727051e+00 1.611450314521789551e-01 4.963634312152862549e-01 -1.939143419265747070e+00 2.159768715500831604e-02 -8.878758549690246582e-01 -1.134271979331970215e+00 9.111924767494201660e-01 -5.506379604339599609e-01 3.021922826766967773e+00 -2.044510364532470703e+00 -2.586655855178833008e+00 -7.904933094978332520e-01 -1.919618010520935059e+00 -3.690653085708618164e+00 -1.588127136230468750e+00 4.899333417415618896e-02 2.570495843887329102e+00 1.818103671073913574e+00 2.043483018875122070e+00 -1.980377793312072754e+00 2.856180429458618164e+00 2.732961475849151611e-01 -6.658960580825805664e-01 3.027702331542968750e+00 -2.325519323348999023e+00 -1.814520001411437988e+00 5.555521965026855469e+00 1.361823916435241699e+00 -3.651418447494506836e+00 -3.855898141860961914e+00 2.751204252243041992e+00 -7.280559539794921875e-01 -5.254498481750488281e+00
3.055306434631347656e+00 -9.934140443801879883e-01 -9.278209805488586426e-01 7.137820124626159668e-01 -3.859005451202392578e+00 1.732342720031738281e+00 -2.239286422729492188e+00 -1.798768758773803711e+00 -1.554816722869873047e+00 2.790477514266967773e+00 3.318040817975997925e-02 -1.326581597328186035e+00 -3.556041419506072998e-01 -2.998646974563598633e+00 2.358297348022460938e+00 8.802539110183715820e-01 2.831724643707275391e+00 1.496516615152359009e-01 -2.541469335556030273e+00 -1.939521789550781250e+00 7.870844751596450806e-02 3.233142852783203125e+00 2.395475387573242188e+00 -5.527974605560302734e+00 2.071279048919677734e+00 7.496156692504882812e-01 4.309152662754058838e-01 -1.216645359992980957e+00 5.484529137611389160e-01 -1.344736814498901367e+00 -1.913494348526000977e+00 1.926867961883544922e+00 -1.063019156455993652e+00 -3.745820045471191406e+00
-3.756764531135559082e-01 1.560899138450622559e+00 -4.293259620666503906e+00 4.058339893817901611e-01 2.176348447799682617e+00 -5.537493899464607239e-02 1.920040130615234375e+00 -3.596697449684143066e-01 -1.287042349576950073e-01 4.032335758209228516e+00 8.318409919738769531e-01 -1.253414034843444824e+00 4.273961484432220459e-01 1.455652594566345215e+00 3.015946388244628906e+00 -1.322223663330078125e+00 1.041485428810119629e+00 -2.579159021377563477e+00 8.512393832206726074e-01 -3.545861244201660156e+00 1.563384830951690674e-01 -1.392557263374328613e+00 -3.154155492782592773e+00 -1.734012484550476074e+00 -3.426228046417236328e+00 9.226717948913574219e-01 -2.845136880874633789e+00 3.226412087678909302e-02 1.357448458671569824e+00 2.254254579544067383e+00 -2.502913713455200195e+00 -8.005978912115097046e-02 -6.284590363502502441e-01 -2.964468479156494141e+00
1.617353081703186035e+00 2.562179565429687500e+00 -9.587420821189880371e-01 -2.760670185089111328e+00 -2.252552270889282227e+00 6.914167106151580811e-02 -5.645904541015625000e-01 1.679856419563293457e+00 3.945815563201904297e-01 4.547798156738281250e+00 -1.417688488960266113e+00 7.932355999946594238e-01 1.719329506158828735e-01 1.266303896903991699e+00 -2.684852294623851776e-02 -2.909218549728393555e+00 -1.490125417709350586e+00 1.815004229545593262e+00 2.638146162033081055e+00 -1.974955797195434570e+00 -3.992966890335083008e+00 -3.217819213867187500e+00 -1.504111647605895996e+00 -2.650855541229248047e+00 4.090696334838867188e+00 -1.252185821533203125e+00 -9.769676327705383301e-01 -3.635975837707519531e+00 -1.290738105773925781e+00 2.344185590744018555e+00 -1.242679119110107422e+00 4.039155483245849609e+00 -3.837101936340332031e+00 -1.711388230323791504e+00
1.882163733243942261e-01 3.785301446914672852e+00 2.429065465927124023e+00 2.932209968566894531e+00 -1.212843418121337891e+00 -6.897851228713989258e-01 -1.073057174682617188e+00 1.187727928161621094e+00 1.663163006305694580e-01 1.698282718658447266e+00 -3.529678821563720703e+00 -1.940959095954895020e+00 -9.623643159866333008e-01 -2.896489620208740234e+00 -2.821853399276733398e+00 2.053796052932739258e-01 -2.560748338699340820e+00 1.094911813735961914e+00 1.115030407905578613e+00 -3.399389743804931641e+00 -5.742486119270324707e-01 4.196516573429107666e-01 -3.197341442108154297e+00 -1.983989596366882324e+00 1.368316769599914551e+00 2.694864034652709961e+00 -3.317354619503021240e-01 1.032091453671455383e-01 -2.474981069564819336e+00 6.303431987762451172e-01 -3.184441804885864258e+00 1.530560851097106934e+00 1.246116995811462402e+00 -2.716859340667724609e+00
1.967508643865585327e-01 -4.440757632255554199e-02 1.634482264518737793e+00 -6.013331934809684753e-02 -2.251705646514892578e+00 1.212532147765159607e-01 2.660692214965820312e+00 1.462943673133850098e+00 -2.206860065460205078e+00 1.351075649261474609e+00 3.401066541671752930e+00 -2.349245548248291016e+00 -1.653250813484191895e+00 -3.038913726806640625e+00 -2.259379386901855469e+00 -3.254353761672973633e+00 -1.961863517761230469e+00 2.687397003173828125e+00 1.984311938285827637e+00 1.345530629158020020e+00 -2.313696384429931641e+00 1.136476278305053711e+00 4.940312355756759644e-02 -4.308787345886230469e+00 1.741827577352523804e-01 -7.142056822776794434e-01 1.441887736320495605e+00 -1.752605438232421875e+00 1.718971014022827148e+00 -1.134117007255554199e+00 -2.998709917068481445e+00 1.333979606628417969e+00 -1.552893593907356262e-02 -4.074504375457763672e+00
-8.173730373382568359e-01 5.031786918640136719e+00 -2.511821746826171875e+00 -2.655071020126342773e+00 -4.089941680431365967e-01 4.249319732189178467e-01 2.917840719223022461e+00 4.742418825626373291e-01 -1.945114493370056152e+00 -1.268703937530517578e+00 -2.023905754089355469e+00 -3.527741432189941406e+00 -6.892924904823303223e-01 -1.089368164539337158e-01 -1.229422569274902344e+00 -1.690954715013504028e-01 2.286451816558837891e+00 2.080605983734130859e+00 -1.648742854595184326e-01 -6.458162307739257812e+00 -3.098715782165527344e+00 6.543746590614318848e-01 2.869765043258666992e+00 -1.183077171444892883e-01 1.382981538772583008e+00 5.325645208358764648e-01 3.497061133384704590e-02 -1.047767281532287598e+00 -1.767406702041625977e+00 1.992841124534606934e+00 2.879033088684082031e-01 1.800167798995971680e+00 -2.228091359138488770e-01 -2.723121404647827148e+00
-6.192916035652160645e-01 1.343905568122863770e+00 -3.997556924819946289e+00 3.439699649810791016e+00 -3.081293106079101562e-01 1.736886620521545410e+00 1.349730730056762695e+00 8.926764726638793945e-01 -2.300595283508300781e+00 7.475573420524597168e-01 9.705806374549865723e-01 5.050255656242370605e-01 -1.286355376243591309e+00 2.480459928512573242e+00 -2.307169198989868164e+00 -3.488793134689331055e+00 -3.433953762054443359e+00 1.848700404167175293e+00 4.293242454528808594e+00 -4.853062629699707031e+00 7.911427021026611328e-01 1.177039816975593567e-01 -1.303133249282836914e+00 -1.113487124443054199e+00 -4.124248921871185303e-01 -7.172117233276367188e-01 1.290785789489746094e+00 4.770546555519104004e-01 -2.857532024383544922e+00 -1.075661897659301758e+00 -4.059551239013671875e+00 8.920053243637084961e-01 -4.470108542591333389e-03 -2.301919937133789062e+00
4.383231103420257568e-01 -7.791930437088012695e-01 -2.235357999801635742e+00 -1.903297901153564453e+00 -3.407308340072631836e+00 1.184490919113159180e+00 2.262166500091552734e+00 -4.436980247497558594e+00 1.539796829223632812e+00 2.181708097457885742e+00 -8.846709132194519043e-01 -1.951565027236938477e+00 -2.039063215255737305e+00 7.428641915321350098e-01 2.109540700912475586e+00 -4.221051692962646484e+00 -7.241392135620117188e-01 -5.629278421401977539e-01 -2.748677015304565430e+00 -1.861598849296569824e+00 9.948359131813049316e-01 -2.652285099029541016e-01 -2.488653659820556641e+00 1.259875446557998657e-01 6.378524899482727051e-01 2.464386820793151855e-01 3.147462606430053711e-01 3.031704425811767578e+00 2.674721181392669678e-01 2.153943061828613281e+00 -3.102743864059448242e+00 2.241523265838623047e+00 4.856497943401336670e-01 -7.221059501171112061e-02
9.160775542259216309e-01 2.640475511550903320e+00 -3.282924175262451172e+00 -9.468508958816528320e-01 8.647497743368148804e-03 -3.495219707489013672e+00 4.538764953613281250e-01 -1.888533830642700195e+00 -1.557794213294982910e+00 1.998910307884216309e+00 5.527854338288307190e-02 -1.920635551214218140e-01 -1.555610418319702148e+00 5.244060039520263672e+00 -4.017475545406341553e-01 3.022212982177734375e-01 -6.175987124443054199e-01 -4.626985490322113037e-01 7.478178739547729492e-01 -4.221967697143554688e+00 -4.213698863983154297e+00 2.444284200668334961e+00 -1.579215884208679199e+00 3.445263624191284180e+00 4.330162107944488525e-01 2.921488046646118164e+00 -3.036024332046508789e+00 -8.653724193572998047e-01 7.467366456985473633e-01 -3.041456699371337891e+00 -3.152733087539672852e+00 -4.341340363025665283e-01 8.477469086647033691e-01 -1.145489454269409180e+00
-2.043685674667358398e+00 -1.754995286464691162e-01 8.221081495285034180e-01 -3.522794246673583984e+00 -3.111947536468505859e+00 2.525014638900756836e+00 2.012941598892211914e+00 1.584190130233764648e+00 -1.893113970756530762e+00 -4.431776523590087891e+00 1.189671754837036133e+00 -8.478317856788635254e-01 -2.015364170074462891e+00 -2.202950865030288696e-01 -3.351181268692016602e+00 3.855845689773559570e+00 -1.474218487739562988e+00 1.533912658691406250e+00 2.795957565307617188e+00 -1.258440613746643066e+00 -1.679895639419555664e+00 4.755455970764160156e+00 1.000516414642333984e+00 -2.325750350952148438e+00 -7.003238201141357422e-01 -2.959042787551879883e+00 8.687469959259033203e-01 -6.437822580337524414e-01 -3.827697038650512695e+00 -8.735261559486389160e-01 -1.455586671829223633e+00 3.457242250442504883e+00 -1.038809418678283691e+00 1.235774606466293335e-01
1.779608368873596191e+00 5.778032541275024414e-01 -3.440083503723144531e+00 -1.166390299797058105e+00 -4.718211650848388672e+00 -2.340421676635742188e+00 4.463571608066558838e-01 2.709277391433715820e+00 1.014551758766174316e+00 1.761975884437561035e+00 1.148282527923583984e+00 -1.275256395339965820e+00 3.007869958877563477e+00 -3.244253873825073242e+00 -3.795987665653228760e-01 5.142523050308227539e-01 -4.401794672012329102e-01 -9.232799410820007324e-01 8.502672314643859863e-01 -9.137975573539733887e-01 1.599483847618103027e+00 4.803665876388549805e-01 -1.229057386517524719e-01 7.220326662063598633e-01 1.717080831527709961e+00 2.211935281753540039e+00 -4.311025142669677734e+00 -1.733760952949523926e+00 -3.114185571670532227e+00 -4.814454078674316406e+00 -3.734122276306152344e+00 2.377850294113159180e+00 1.601691842079162598e+00 6.371895670890808105e-01
3.575262069702148438e+00 -3.444910764694213867e+00 -1.399379611015319824e+00 1.221189737319946289e+00 3.294835984706878662e-01 -2.391521692276000977e+00 3.001094758510589600e-01 -2.838607549667358398e+00 5.710209012031555176e-01 3.084609270095825195e+00 5.383886814117431641e+00 -3.361248970031738281e+00 1.750089883804321289e+00 2.553073406219482422e+00 -2.851715326309204102e+00 5.358150005340576172e-01 -1.481670618057250977e+00 -4.832467555999755859e+00 2.249283313751220703e+00 -2.759278535842895508e+00 8.352827429771423340e-01 3.612547516822814941e-01 -3.758213222026824951e-01 -1.497521638870239258e+00 8.516895771026611328e-01 -8.284792304039001465e-01 -3.310663938522338867e+00 -2.649741649627685547e+00 2.322680473327636719e+00 2.543501377105712891e+00 -1.395505428314208984e+00 7.669358253479003906e-01 -1.003221049904823303e-02 -2.350376844406127930e+00
7.207027822732925415e-02 -1.028006315231323242e+00 -1.072686553001403809e+00 5.458792209625244141e+00 -2.697235584259033203e+00 -2.105719782412052155e-02 1.180918931961059570e+00 -8.366219401359558105e-01 1.821648359298706055e+00 -1.532287955284118652e+00 1.603844314813613892e-01 5.840017199516296387e-01 2.332484245300292969e+00 -2.875628173351287842e-01 -2.088351011276245117e+00 3.113160610198974609e+00 -9.073376059532165527e-01 8.187098503112792969e-01 -2.951095819473266602e+00 -2.685441017150878906e+00 -4.829370975494384766e+00 1.787464022636413574e+00 2.692271471023559570e-01 -7.049649953842163086e-01 -1.374215126037597656e+00 1.540508151054382324e+00 -2.031513214111328125e+00 1.215461730957031250e+00 1.700134038925170898e+00 -3.908913850784301758e+00 -2.872268676757812500e+00 2.313531637191772461e+00 3.704365730285644531e+00 -6.497120857238769531e+00
-1.179258972406387329e-01 9.626430273056030273e-01 -3.165894269943237305e+00 -4.113693833351135254e-01 -2.222210645675659180e+00 2.187775611877441406e+00 -1.552127718925476074e+00 -2.345827341079711914e+00 -3.528524875640869141e+00 1.638847112655639648e+00 -7.883380055427551270e-01 4.340871810913085938e+00 -4.584745168685913086e-01 1.880684375762939453e+00 2.896103143692016602e+00 -2.263603448867797852e+00 -6.882152557373046875e-01 -4.286197721958160400e-01 -2.035621166229248047e+00 -1.255249261856079102e+00 7.688524127006530762e-01 3.205826997756958008e+00 -1.946025609970092773e+00 -5.291011333465576172e-01 1.985400319099426270e+00 -8.763196468353271484e-01 1.255907058715820312e+00 -8.084429502487182617e-01 -5.423453330993652344e+00 -8.484838604927062988e-01 -1.669122219085693359e+00 3.713559389114379883e+00 -2.044972658157348633e+00 -7.065454125404357910e-01
2.661422252655029297e+00 6.583286523818969727e-01 -3.186970949172973633e+00 -5.092257499694824219e+00 -1.787063241004943848e+00 6.438747644424438477e-01 4.949334144592285156e+00 -2.322595834732055664e+00 1.325505552813410759e-03 -5.486029386520385742e-01 3.482947349548339844e-01 -4.016168594360351562e+00 -2.139774322509765625e+00 -1.304808497428894043e+00 -1.314173579216003418e+00 1.903357028961181641e+00 -1.189150691032409668e+00 2.286469697952270508e+00 7.175974845886230469e-01 -2.144284248352050781e+00 -1.126186966896057129e+00 2.399172544479370117e+00 -3.280775070190429688e+00 -1.445375084877014160e+00 3.316967487335205078e-01 -1.106273412704467773e+00 3.989255428314208984e-01 2.699769496917724609e+00 -1.026982665061950684e+00 -1.624331951141357422e+00 -9.025683999061584473e-01 -4.277873933315277100e-01 1.507324576377868652e+00 9.119729995727539062e-01
5.136701107025146484e+00 9.006851911544799805e-01 -2.206606388092041016e+00 -1.944450855255126953e+00 9.884093403816223145e-01 -1.021538376808166504e+00 9.919443726539611816e-01 -2.091664075851440430e+00 -1.392448186874389648e+00 4.944658577442169189e-01 -7.069787979125976562e-01 -1.835041344165802002e-01 3.195903539657592773e+00 -1.250846982002258301e+00 1.143357276916503906e+00 -8.823720216751098633e-01 1.191347122192382812e+00 -4.377722263336181641e+00 2.408865213394165039e+00 -2.358331680297851562e+00 8.895357847213745117e-01 4.122156649827957153e-02 1.002231836318969727e+00 -2.051045417785644531e+00 -1.027392506599426270e+00 2.072663068771362305e+00 -3.369910001754760742e+00 3.503232002258300781e+00 1.002123236656188965e+00 -1.925128936767578125e+00 -3.795235157012939453e+00 -2.792900204658508301e-01 9.596664309501647949e-01 -4.379766941070556641e+00
1.928629159927368164e+00 2.156117677688598633e+00 1.967624902725219727e+00 -2.931787729263305664e+00 -1.953958868980407715e+00 -2.037895619869232178e-01 1.372235894203186035e+00 -9.941680431365966797e-01 -4.685672283172607422e+00 -2.517760515213012695e+00 1.199538826942443848e+00 -2.793321132659912109e+00 1.377511620521545410e+00 -2.825977802276611328e+00 -2.875473976135253906e+00 -3.176350831985473633e+00 -1.577681183815002441e+00 4.387347698211669922e-01 4.447462856769561768e-01 9.979715347290039062e-01 8.417662978172302246e-01 2.372184514999389648e+00 5.837256312370300293e-01 1.153174266219139099e-01 -2.935376644134521484e+00 -1.388115882873535156e+00 -3.326039314270019531e+00 4.909913063049316406e+00 3.042549848556518555e+00 -7.950984239578247070e-01 -7.683991193771362305e-01 3.959732294082641602e+00 -1.681071043014526367e+00 -2.405429840087890625e+00
1.206711605191230774e-01 -2.688065767288208008e+00 1.154366880655288696e-01 6.594207286834716797e-01 -2.265397548675537109e+00 -8.881868124008178711e-01 -3.231858015060424805e+00 3.531042635440826416e-01 1.893651485443115234e+00 -1.814619660377502441e+00 -3.000898838043212891e+00 1.393084406852722168e+00 -3.179452896118164062e+00 1.183450460433959961e+00 2.080749273300170898e+00 2.689728975296020508e+00 -4.535614490509033203e+00 -3.028816223144531250e+00 -3.005858421325683594e+00 5.883150696754455566e-01 5.773863568902015686e-02 1.553166508674621582e+00 -1.640083312988281250e+00 -4.639318466186523438e+00 1.401442885398864746e+00 2.611782312393188477e+00 2.992665529251098633e+00 -2.683329582214355469e+00 3.163296461105346680e+00 -2.510389685630798340e-01 8.287185430526733398e-01 2.779043912887573242e+00 -2.836446464061737061e-02 -1.420885682106018066e+00
-1.447587132453918457e+00 2.147613286972045898e+00 2.507293462753295898e+00 1.585701704025268555e+00 1.180623173713684082e+00 -4.198783397674560547e+00 -4.654736518859863281e+00 -1.685161441564559937e-01 -2.243497371673583984e+00 3.015718758106231689e-01 1.294286847114562988e-01 -1.305435657501220703e+00 -4.127348899841308594e+00 1.637484192848205566e+00 -1.481621861457824707e+00 -9.248470664024353027e-01 1.805509328842163086e+00 -4.802103042602539062e+00 -3.933140277862548828e+00 1.446941643953323364e-01 1.121963858604431152e+00 -4.696706533432006836e-01 2.607567548751831055e+00 1.341353803873062134e-01 -2.503662347793579102e+00 1.408946871757507324e+00 3.188678026199340820e+00 1.555354595184326172e+00 9.195138216018676758e-01 -4.618538022041320801e-01 -3.112721920013427734e+00 4.491871893405914307e-01 1.662915706634521484e+00 -3.245036602020263672e-01
-4.286850690841674805e-01 -5.363868921995162964e-02 -1.322326183319091797e+00 -2.511669635772705078e+00 -2.458654165267944336e+00 1.611193269491195679e-01 -1.253874301910400391e-01 1.396730184555053711e+00 2.736529588699340820e+00 2.045850992202758789e+00 -2.792045116424560547e+00 2.340403795242309570e+00 2.505618095397949219e+00 -8.818204998970031738e-01 -5.774303674697875977e-01 2.711586952209472656e-01 6.325753927230834961e-01 -5.288781642913818359e+00 -4.789128780364990234e+00 -2.221399307250976562e+00 -2.044801950454711914e+00 5.841318964958190918e-01 -9.295189976692199707e-01 1.293914914131164551e+00 -1.131816864013671875e+00 3.010681867599487305e+00 9.064629673957824707e-01 5.438522100448608398e-01 -2.273520231246948242e+00 -8.088483810424804688e-01 -9.052469134330749512e-01 1.486301541328430176e+00 -1.363741755485534668e+00 4.828165769577026367e-01
1.383706927299499512e+00 1.525036692619323730e+00 1.993635654449462891e+00 -5.321534633636474609e+00 2.073823690414428711e+00 -3.450610160827636719e+00 -1.415312767028808594e+00 2.368340015411376953e+00 5.352395057678222656e+00 8.294690251350402832e-01 -2.097276449203491211e+00 -1.338076710700988770e+00 -1.597100853919982910e+00 3.030182123184204102e+00 -8.636012673377990723e-01 -2.087067127227783203e+00 -3.222600936889648438e+00 -3.472029447555541992e+00 8.929635286331176758e-01 -1.269641280174255371e+00 5.828239917755126953e-01 -5.421406626701354980e-01 2.725077152252197266e+00 -4.071400165557861328e+00 -2.355769872665405273e+00 1.469686627388000488e+00 9.593396782875061035e-01 -2.989037632942199707e-01 6.459444761276245117e-01 -2.840067625045776367e+00 8.424335122108459473e-01 1.229781150817871094e+00 -1.241041943430900574e-01 -1.871096253395080566e+00
2.375417709350585938e+00 2.824974060058593750e+00 2.352969408035278320e+00 -3.840631246566772461e-01 -2.398069858551025391e+00 -2.329855203628540039e+00 -4.253387451171875000e-01 4.578846454620361328e+00 -2.588259935379028320e+00 -2.057453155517578125e+00 -2.432220458984375000e+00 -1.314712643623352051e+00 -2.571928977966308594e+00 1.739850640296936035e+00 -1.114849328994750977e+00 -1.208751678466796875e+00 -5.663417577743530273e-01 -4.556273460388183594e+00 -3.278371691703796387e-01 -6.924396753311157227e-01 2.101438999176025391e+00 4.250547409057617188e+00 -1.939626216888427734e+00 -2.732314765453338623e-01 -2.009848356246948242e+00 1.132825464010238647e-01 2.695702314376831055e+00 -2.192381858825683594e+00 -6.226924657821655273e-01 -4.157300472259521484e+00 -1.628089427947998047e+00 1.107001662254333496e+00 -2.987823784351348877e-01 1.519261479377746582e+00
2.266543149948120117e+00 -7.707176804542541504e-01 3.015970587730407715e-01 -1.574520587921142578e+00 -2.231690883636474609e+00 -1.802811145782470703e+00 6.250088810920715332e-01 1.155134320259094238e+00 3.451118946075439453e+00 -7.766295671463012695e-01 -2.341830492019653320e+00 -3.721516609191894531e+00 -2.656667232513427734e+00 1.810702562332153320e+00 -9.446133375167846680e-01 3.641249179840087891e+00 -1.011356636881828308e-01 -1.878442883491516113e+00 -3.952835321426391602e+00 1.792909026145935059e+00 -8.995978236198425293e-01 -2.957577466964721680e+00 3.632466495037078857e-01 -9.470011591911315918e-01 -2.381845474243164062e+00 -6.325497627258300781e-01 1.609903097152709961e+00 -1.964464545249938965e+00 -4.414016306400299072e-01 3.757540702819824219e+00 2.032326936721801758e+00 1.148445367813110352e+00 -8.313708901405334473e-01 -2.188524961471557617e+00
3.956961631774902344e-01 -4.507343471050262451e-01 1.308994293212890625e+00 3.345468342304229736e-01 -3.391641676425933838e-01 -3.144386112689971924e-01 -4.042871296405792236e-02 6.540634632110595703e-01 -6.265060901641845703e-01 -1.259378314018249512e+00 -3.233984947204589844e+00 8.650082945823669434e-01 8.588791489601135254e-01 -1.751415878534317017e-01 -1.354629397392272949e+00 -1.850784540176391602e+00 -3.081512451171875000e+00 -4.425423145294189453e+00 -4.839926242828369141e+00 3.273709118366241455e-01 -4.056494712829589844e+00 3.443585336208343506e-01 -6.030742526054382324e-01 -2.176796644926071167e-02 -4.837954640388488770e-01 5.071142673492431641e+00 2.625833988189697266e+00 5.339578151702880859e+00 -3.929231882095336914e+00 -3.680380284786224365e-01 -1.157188892364501953e+00 -1.277531027793884277e+00 1.383455991744995117e+00 3.786588191986083984e+00
4.567644298076629639e-01 -3.424050331115722656e+00 4.282330513000488281e+00 -5.854240655899047852e-01 -8.574615120887756348e-01 -4.622729778289794922e+00 -6.803523898124694824e-01 -2.306788206100463867e+00 -2.854140281677246094e+00 -1.318308234214782715e+00 -4.001778125762939453e+00 -2.299511432647705078e+00 -1.029199004173278809e+00 1.863587856292724609e+00 1.655925869941711426e+00 -3.013269901275634766e+00 -5.113630890846252441e-01 -1.371545553207397461e+00 1.246364116668701172e+00 -9.294551610946655273e-01 1.025192737579345703e+00 -7.901296019554138184e-01 2.480063438415527344e+00 -7.636642456054687500e-01 -2.550024986267089844e+00 5.349087715148925781e-01 3.325397968292236328e+00 -1.016899824142456055e+00 -7.787876129150390625e-01 1.304232120513916016e+00 -1.456317782402038574e+00 5.267792701721191406e+00 2.459933310747146606e-01 1.882001280784606934e+00
-8.997054100036621094e-01 -1.616703748703002930e+00 -1.090543746948242188e+00 1.042532801628112793e+00 1.657182574272155762e+00 -1.354451179504394531e+00 -2.554709434509277344e+00 -9.046695232391357422e-01 -9.864919781684875488e-01 1.561112880706787109e+00 -2.043644189834594727e+00 2.236679077148437500e+00 2.270809412002563477e+00 -3.207202434539794922e+00 -2.135867118835449219e+00 9.568388015031814575e-02 -7.019231319427490234e-01 -3.094005346298217773e+00 -3.983942985534667969e+00 1.154907345771789551e+00 -1.432934880256652832e+00 -7.298483848571777344e-01 9.735075831413269043e-01 1.519107222557067871e+00 -2.153161525726318359e+00 7.449664473533630371e-01 5.882942080497741699e-01 4.303339868783950806e-02 1.329158663749694824e+00 -5.635709688067436218e-02 -6.312792301177978516e-01 7.013403773307800293e-01 -7.113169431686401367e-01 2.241203308105468750e+00
3.081331014633178711e+00 -4.632437527179718018e-01 -9.293082356452941895e-01 6.401895284652709961e-01 7.206594347953796387e-01 -5.529748797416687012e-01 -1.845080375671386719e+00 1.433719158172607422e+00 -4.706065654754638672e+00 -9.755961894989013672e-01 -3.673298597335815430e+00 -1.451772093772888184e+00 4.662761211395263672e+00 2.677452087402343750e+00 -6.360135555267333984e+00 1.390171647071838379e+00 -2.017684221267700195e+00 -1.962248563766479492e+00 -9.425774812698364258e-01 -9.804622828960418701e-02 1.652352213859558105e+00 -4.243932291865348816e-02 -1.867862105369567871e+00 1.937241196632385254e+00 2.589278697967529297e+00 2.518925905227661133e+00 1.282251119613647461e+00 -9.410946369171142578e-01 3.070716857910156250e-01 -3.916819572448730469e+00 2.529660940170288086e+00 2.400269746780395508e+00 -5.884763240814208984e+00 -1.642007946968078613e+00
-4.000905513763427734e+00 1.861217617988586426e+00 2.936121940612792969e+00 -8.900629281997680664e-01 1.623487830162048340e+00 -5.691338539123535156e+00 -1.372429370880126953e+00 2.330988198518753052e-01 2.834369421005249023e+00 -3.820158481597900391e+00 -5.132091641426086426e-01 -3.269235134124755859e+00 1.297243714332580566e+00 -1.427149027585983276e-01 -2.166476845741271973e-01 1.140873908996582031e+00 -3.625971794128417969e+00 1.260626077651977539e+00 -3.172459125518798828e+00 -3.001746416091918945e+00 -3.931285738945007324e-01 -1.839718341827392578e+00 6.047392487525939941e-01 -1.940496921539306641e+00 -3.592098951339721680e+00 1.358761787414550781e+00 1.170625448226928711e+00 -3.010018348693847656e+00 1.032828912138938904e-01 1.002415537834167480e+00 2.146461725234985352e+00 4.706521034240722656e-01 3.389494180679321289e+00 3.758157968521118164e+00
-1.978035926818847656e+00 2.695504903793334961e+00 9.361862540245056152e-01 -1.066732406616210938e+00 -1.074560642242431641e+00 4.430527687072753906e-01 -3.850040912628173828e+00 -2.336037874221801758e+00 -1.588600635528564453e+00 -2.168529272079467773e+00 -1.936838865280151367e+00 2.795989751815795898e+00 -1.400051474571228027e+00 3.085137844085693359e+00 -3.411139011383056641e+00 2.265396595001220703e+00 -2.620340347290039062e+00 9.513661861419677734e-01 -3.159927845001220703e+00 -2.890919208526611328e+00 -7.530566304922103882e-02 -5.009447336196899414e-01 -6.091066002845764160e-01 -1.603904843330383301e+00 -3.907024860382080078e-01 8.289749026298522949e-01 2.129654407501220703e+00 8.595734834671020508e-02 1.331168413162231445e+00 -5.554592013359069824e-01 -2.053883969783782959e-01 3.608460128307342529e-01 1.565560817718505859e+00 6.390742212533950806e-02
-1.344981312751770020e+00 3.286105155944824219e+00 4.909582614898681641e+00 -2.083611249923706055e+00 -7.921354174613952637e-01 3.559451103210449219e+00 -7.808663249015808105e-01 -1.043539941310882568e-01 2.866336107254028320e+00 -1.408323526382446289e+00 -4.033120155334472656e+00 -2.133271694183349609e+00 -1.910772442817687988e+00 -2.253750085830688477e+00 -1.953623890876770020e+00 -7.284266948699951172e-01 -7.323519587516784668e-01 -2.208820104598999023e+00 -4.011113569140434265e-02 -2.854618072509765625e+00 -2.945890903472900391e+00 -5.339230060577392578e+00 2.357577800750732422e+00 4.029486775398254395e-01 1.311497092247009277e+00 1.678904294967651367e+00 -5.626786947250366211e-01 7.882172465324401855e-01 -3.944909334182739258e+00 -3.352378308773040771e-01 7.903435230255126953e-01 2.360214948654174805e+00 2.310338020324707031e+00 2.413154542446136475e-01
-3.348691225051879883e+00 1.901721835136413574e+00 -1.516319462098181248e-03 -4.471912384033203125e-01 -4.978843629360198975e-01 -2.726804018020629883e+00 -2.433414220809936523e+00 -5.880921483039855957e-01 1.071687102317810059e+00 -1.198057532310485840e+00 -1.788959503173828125e+00 -4.969768971204757690e-02 1.953085780143737793e+00 1.944831371307373047e+00 -4.391215801239013672e+00 -4.351438999176025391e+00 8.585463166236877441e-01 -3.981078624725341797e+00 -3.920214176177978516e+00 -4.370173454284667969e+00 9.994547963142395020e-01 2.110749959945678711e+00 -1.878323078155517578e+00 1.110388159751892090e+00 -8.456537723541259766e-01 1.665742278099060059e+00 1.035724401473999023e+00 -5.266765356063842773e-01 -3.573255613446235657e-02 6.287411212921142578e+00 1.545235157012939453e+00 2.404759407043457031e+00 7.772106528282165527e-01 -4.486441314220428467e-01
-7.182132005691528320e-01 -1.658470511436462402e+00 3.158700227737426758e+00 -2.699761390686035156e+00 1.809158563613891602e+00 -1.746022224426269531e+00 -5.255829691886901855e-01 1.114279985427856445e+00 1.124541044235229492e+00 -1.979174733161926270e+00 -4.720071792602539062e+00 1.073333978652954102e+00 1.325686097145080566e+00 1.107136607170104980e+00 2.818926095962524414e+00 -2.774123191833496094e+00 2.157872676849365234e+00 -7.492346167564392090e-01 -1.717990517616271973e+00 2.357656478881835938e+00 -2.685571908950805664e+00 -1.594405025243759155e-01 -4.087540626525878906e+00 -1.826961398124694824e+00 -1.367342710494995117e+00 -4.118697941303253174e-01 2.285281181335449219e+00 4.447323083877563477e-01 1.584644317626953125e+00 -6.038442850112915039e-01 -1.278084516525268555e+00 -1.993303537368774414e+00 2.390388995409011841e-01 -1.975598096847534180e+00
6.115096807479858398e-01 -2.643353939056396484e+00 -3.026527166366577148e-01 6.391198635101318359e-01 -3.610508918762207031e+00 -1.833351492881774902e+00 1.828761458396911621e+00 -1.377464294433593750e+00 3.810439407825469971e-01 -1.551447868347167969e+00 2.410003185272216797e+00 5.949830412864685059e-01 3.004036664962768555e+00 2.693328380584716797e+00 -2.810740232467651367e+00 -2.717042684555053711e+00 -1.144951939582824707e+00 -8.615937829017639160e-01 7.803855538368225098e-01 -2.328907966613769531e+00 -2.668813943862915039e+00 -4.158945083618164062e+00 3.913474559783935547e+00 -1.099860787391662598e+00 -3.197931528091430664e+00 -1.089534312486648560e-01 2.610761404037475586e+00 -1.995366692543029785e+00 2.044657170772552490e-01 -1.606433153152465820e+00 -1.852563500404357910e+00 1.416683912277221680e+00 -4.444180428981781006e-01 4.516756057739257812e+00
2.648317337036132812e+00 5.228714346885681152e-01 9.252399802207946777e-01 -9.333078861236572266e-01 -2.023369789123535156e+00 -7.289320826530456543e-01 6.973826885223388672e-01 4.595771431922912598e-01 -4.021766781806945801e-01 4.632228374481201172e+00 -4.336236000061035156e+00 -1.825430393218994141e+00 1.397599726915359497e-01 1.030065774917602539e+00 -1.589695215225219727e+00 -1.612645030021667480e+00 1.196281433105468750e+00 -2.324320524930953979e-01 -2.123204469680786133e+00 -5.916414260864257812e+00 1.232528209686279297e+00 -1.830652058124542236e-01 9.113186597824096680e-01 -5.230596542358398438e+00 4.978513419628143311e-01 1.607268452644348145e+00 7.138853073120117188e-01 -3.961732387542724609e+00 5.910958051681518555e-01 -1.556031584739685059e+00 1.527076125144958496e+00 9.229249954223632812e-01 1.992600560188293457e-01 2.647788524627685547e-01
-4.734664559364318848e-01 -4.674504280090332031e+00 3.322979450225830078e+00 -4.746817588806152344e+00 -1.390896677970886230e+00 -2.562179565429687500e+00 -3.404339551925659180e+00 9.669920206069946289e-01 3.908737301826477051e-01 -1.840045809745788574e+00 -2.547858238220214844e+00 -8.017112016677856445e-01 4.317057132720947266e+00 -1.383333086967468262e+00 -3.057087659835815430e+00 2.140697240829467773e+00 -1.412273049354553223e+00 -9.750000238418579102e-01 5.561490058898925781e-01 8.336542844772338867e-01 -1.689600348472595215e-01 -1.789295315742492676e+00 6.573526263236999512e-01 3.249270617961883545e-01 -3.671723365783691406e+00 1.281344443559646606e-01 1.621463775634765625e+00 1.422590255737304688e+00 3.249956607818603516e+00 -1.220811605453491211e+00 -2.114760160446166992e+00 3.297969579696655273e+00 8.047748804092407227e-01 -3.272715210914611816e-01
-2.121367692947387695e+00 -6.501025557518005371e-01 1.829228401184082031e+00 4.276816546916961670e-01 -2.991312980651855469e+00 -4.679372310638427734e+00 -1.624645471572875977e+00 -5.526735782623291016e+00 4.302867412567138672e+00 1.471768856048583984e+00 -2.597115278244018555e+00 1.843791961669921875e+00 -5.842167735099792480e-01 3.286290168762207031e+00 -2.665281295776367188e+00 -3.396393060684204102e+00 -1.860501885414123535e+00 -4.706030189990997314e-01 1.186510205268859863e+00 9.742802381515502930e-01 -8.193920850753784180e-01 1.718026399612426758e+00 6.035556793212890625e-01 -1.350514173507690430e+00 -2.463708519935607910e-01 1.292343497276306152e+00 9.806889295578002930e-01 1.448591828346252441e+00 9.512802958488464355e-01 -3.035196781158447266e+00 -2.109925508499145508e+00 4.497500360012054443e-01 9.727554917335510254e-01 7.494767308235168457e-01
4.635177254676818848e-01 -3.014463186264038086e+00 2.764762639999389648e-01 -4.156566143035888672e+00 5.094283819198608398e-01 -2.654709577560424805e+00 -4.001098632812500000e+00 6.439146399497985840e-02 -9.991295337677001953e-01 -3.574211835861206055e+00 1.676116943359375000e+00 6.417929530143737793e-01 3.298774063587188721e-01 1.185114979743957520e+00 1.471789121627807617e+00 -3.447628736495971680e+00 3.224622726440429688e+00 -1.031758666038513184e+00 -1.214332461357116699e+00 -2.501377820968627930e+00 -4.714628219604492188e+00 2.993352890014648438e+00 -2.828498840332031250e+00 1.776011943817138672e+00 -2.631351709365844727e+00 4.848814606666564941e-01 3.914430618286132812e+00 1.127536296844482422e+00 6.608536243438720703e-01 -1.747035861015319824e+00 5.902434587478637695e-01 -9.217062592506408691e-01 4.340510845184326172e+00 1.115204215049743652e+00
-1.505556702613830566e+00 1.319814920425415039e+00 9.073160290718078613e-01 1.470963597297668457e+00 -2.521922349929809570e+00 8.433661460876464844e-01 3.883346796035766602e+00 -1.916805744171142578e+00 -5.600601434707641602e-01 2.224342823028564453e+00 -2.861626625061035156e+00 -2.327846050262451172e+00 -1.260372400283813477e+00 -2.961711645126342773e+00 2.062246799468994141e+00 9.204050302505493164e-01 -8.175910711288452148e-01 -5.887870192527770996e-01 -1.371701121330261230e+00 7.414754629135131836e-01 2.170706510543823242e+00 4.449087977409362793e-01 2.090832948684692383e+00 3.382380679249763489e-02 -5.339717864990234375e-01 -1.777490735054016113e+00 -1.999523162841796875e+00 -3.516584634780883789e+00 -2.502264082431793213e-01 -3.041932106018066406e+00 -6.491143107414245605e-01 2.541292905807495117e+00 -3.884636163711547852e+00 -1.328636884689331055e+00
2.855505943298339844e+00 -4.055189132690429688e+00 1.173541903495788574e+00 7.259420156478881836e-01 -6.492869853973388672e-01 -5.934644341468811035e-01 1.366502285003662109e+00 -2.125408887863159180e+00 -2.767299890518188477e+00 -1.104444265365600586e+00 1.754996061325073242e+00 4.828972220420837402e-01 -3.343399465084075928e-01 -1.390527606010437012e+00 -7.295948863029479980e-01 -4.238131046295166016e+00 1.149868726730346680e+00 1.895135998725891113e+00 -3.779710292816162109e+00 -4.785626232624053955e-01 2.242867708206176758e+00 3.160869359970092773e+00 -2.445874929428100586e+00 -1.761939525604248047e+00 -2.382391214370727539e+00 -1.582360625267028809e+00 1.782079696655273438e+00 6.549863815307617188e-01 -2.549677610397338867e+00 -7.087277173995971680e-01 2.747570276260375977e+00 -5.246790051460266113e-01 -1.058363914489746094e-01 -4.026755392551422119e-01
-2.237506866455078125e+00 2.009668827056884766e+00 1.990678757429122925e-01 5.652902603149414062e+00 2.297514677047729492e-01 -6.855868697166442871e-01 -2.906382083892822266e+00 5.454456210136413574e-01 -2.241175174713134766e+00 -2.436681032180786133e+00 1.317270517349243164e+00 -1.227228403091430664e+00 -8.902799338102340698e-02 -4.163571357727050781e+00 4.696825981140136719e+00 -3.810060977935791016e+00 4.460810422897338867e-01 1.656146168708801270e+00 2.228326052427291870e-01 -9.633231163024902344e-01 8.680155873298645020e-01 -3.476931810379028320e+00 2.435497999191284180e+00 3.095824956893920898e+00 -1.281686782836914062e+00 -2.749047040939331055e+00 1.435392498970031738e-01 -1.504446625709533691e+00 -1.564698219299316406e+00 -4.810135841369628906e+00 -3.715710043907165527e-01 -5.109414458274841309e-01 -1.459346175193786621e+00 2.876219749450683594e+00
-4.044390618801116943e-01 7.721695303916931152e-01 -4.138748168945312500e+00 1.932321310043334961e+00 6.559498906135559082e-01 7.042512297630310059e-01 2.435642242431640625e+00 -8.443555235862731934e-01 -2.163047552108764648e+00 -3.138726472854614258e+00 -3.865809738636016846e-01 -8.501375913619995117e-01 1.604827761650085449e+00 -2.812478303909301758e+00 1.268546462059020996e+00 -3.175803184509277344e+00 3.779766857624053955e-01 -3.630811572074890137e-01 -3.831222772598266602e+00 -3.298306226730346680e+00 4.331119537353515625e+00 -2.218709230422973633e+00 -3.185174703598022461e+00 2.514165639877319336e+00 1.617290526628494263e-01 1.610799431800842285e-01 3.031035661697387695e+00 2.678987085819244385e-01 -4.623460471630096436e-01 -1.085202217102050781e+00 -8.399541378021240234e-01 1.520452857017517090e+00 -7.631102204322814941e-01 -1.528282880783081055e+00
-1.605160981416702271e-01 1.597056150436401367e+00 -2.389043569564819336e+00 5.620353817939758301e-01 -2.808985948562622070e+00 2.809233427047729492e+00 1.186950206756591797e+00 -3.184041023254394531e+00 -8.573825359344482422e-01 -2.584176063537597656e+00 2.593497931957244873e-01 4.842949807643890381e-01 4.156027436256408691e-01 -5.929226875305175781e-01 -1.111919403076171875e+00 -1.829153180122375488e+00 -4.914064407348632812e-01 5.331321358680725098e-01 -3.418279170989990234e+00 3.757748305797576904e-01 -7.302765250205993652e-01 -1.507855415344238281e+00 -2.738973617553710938e+00 1.098862886428833008e+00 -5.392044782638549805e-01 -5.248594880104064941e-01 2.559309959411621094e+00 -4.289028644561767578e-01 -1.838907241821289062e+00 4.096925258636474609e+00 1.445945739746093750e+00 -1.507107377052307129e+00 -1.548643708229064941e+00 -8.675354719161987305e-01
1.270986914634704590e+00 -4.409128427505493164e-02 1.146801471710205078e+00 1.685916662216186523e+00 -1.187448024749755859e+00 4.804825782775878906e-01 -5.346096679568290710e-02 -1.434627652168273926e+00 1.896768212318420410e+00 -7.604279518127441406e-01 2.182857751846313477e+00 -2.046472787857055664e+00 -3.844589471817016602e+00 -5.481004714965820312e+00 1.134606242179870605e+00 -1.429228305816650391e+00 -4.711552143096923828e+00 -2.038458824157714844e+00 1.617979407310485840e-01 1.282712221145629883e+00 9.858689904212951660e-01 -2.014062881469726562e+00 1.062264800071716309e+00 9.808178544044494629e-01 1.326191782951354980e+00 -2.329701900482177734e+00 -1.927934885025024414e+00 1.714691162109375000e+00 2.020224571228027344e+00 3.591222286224365234e+00 -1.967255115509033203e+00 -7.759264111518859863e-01 -1.745784163475036621e+00 -7.445622682571411133e-01
5.747965574264526367e-01 -2.479949146509170532e-01 -3.766112327575683594e+00 -9.134487509727478027e-01 -5.085685849189758301e-01 2.348894834518432617e+00 1.492034196853637695e+00 -2.620881795883178711e+00 -1.090983271598815918e+00 6.379923224449157715e-01 -2.340829133987426758e+00 -2.202624082565307617e+00 1.728065609931945801e+00 -4.090903759002685547e+00 -3.225721120834350586e+00 1.395126700401306152e+00 1.668678879737854004e+00 1.962445259094238281e+00 -5.296571850776672363e-01 -3.947438895702362061e-01 5.220975875854492188e+00 -4.879799842834472656e+00 1.143934369087219238e+00 3.208112001419067383e+00 1.339575052261352539e+00 -2.050983667373657227e+00 -1.597302436828613281e+00 -3.220749616622924805e+00 1.428784966468811035e+00 -1.023172616958618164e+00 2.794599056243896484e+00 -1.440099239349365234e+00 -1.531941890716552734e+00 -7.188827395439147949e-01
-5.152735710144042969e-01 1.248903751373291016e+00 -2.328994750976562500e+00 2.951011061668395996e-01 -2.403207302093505859e+00 6.301198601722717285e-01 6.511844992637634277e-01 -8.094782829284667969e-01 3.656760692596435547e+00 -5.160145163536071777e-01 -2.907147109508514404e-01 1.270114779472351074e+00 -9.351142644882202148e-01 -9.190613627433776855e-01 -2.100322484970092773e+00 5.481420159339904785e-01 -2.355783700942993164e+00 -1.290058255195617676e+00 -1.940263628959655762e+00 5.105443954467773438e+00 -4.605401158332824707e-01 -2.162784337997436523e+00 1.689391493797302246e+00 5.126008033752441406e+00 -5.760746479034423828e+00 -2.143424987792968750e+00 -7.952947616577148438e-01 -1.300648570060729980e+00 1.404066324234008789e+00 2.724326588213443756e-02 3.527740240097045898e-01 -1.996684312820434570e+00 -3.878118991851806641e+00 1.394196510314941406e+00
-2.914655923843383789e+00 2.265671491622924805e+00 1.968533635139465332e+00 -1.253963351249694824e+00 3.490758657455444336e+00 -3.135776042938232422e+00 -5.432118177413940430e-01 -4.886765956878662109e+00 -9.307005405426025391e-01 1.524667620658874512e+00 -1.107002496719360352e+00 7.762504816055297852e-01 2.397501468658447266e+00 -1.907400369644165039e+00 -4.626167118549346924e-01 -8.921830058097839355e-01 -3.582663297653198242e+00 -2.297634929418563843e-01 1.259862899780273438e+00 3.313122749328613281e+00 5.369449138641357422e+00 -4.899462223052978516e+00 -1.587357282638549805e+00 -3.243707656860351562e+00 -3.005193471908569336e-01 1.033353328704833984e+00 1.794840574264526367e+00 -9.981327652931213379e-01 -1.577386379241943359e+00 1.877674818038940430e+00 -8.582599163055419922e-01 -2.403930187225341797e+00 -9.434441328048706055e-01 -3.970784842967987061e-01
5.557549595832824707e-01 1.773690581321716309e+00 9.294169545173645020e-01 -5.430457592010498047e-01 9.621954560279846191e-01 1.677435517311096191e+00 -3.758392333984375000e+00 1.493793249130249023e+00 9.862667322158813477e-01 -3.991799116134643555e+00 2.826593875885009766e+00 2.529798746109008789e-01 4.340040206909179688e+00 -2.558444976806640625e+00 2.061420202255249023e+00 -2.149585008621215820e+00 4.200250506401062012e-01 -1.101796105504035950e-01 -1.247297883033752441e+00 -6.112539768218994141e-01 -2.767613172531127930e+00 -8.601760864257812500e-01 6.573614478111267090e-01 -6.033673882484436035e-01 -4.702466011047363281e+00 -4.924657821655273438e+00 2.767583429813385010e-01 1.817009329795837402e+00 -2.047217369079589844e+00 -1.437956571578979492e+00 2.325359582901000977e+00 -3.232574224472045898e+00 1.465257048606872559e+00 -8.978064060211181641e-01
-2.580847501754760742e+00 2.396999120712280273e+00 -2.885852336883544922e+00 2.064348936080932617e+00 2.451272487640380859e+00 -6.346090435981750488e-01 -9.652079939842224121e-01 -2.901147902011871338e-01 -5.631281137466430664e-01 -1.084065079689025879e+00 2.674373388290405273e+00 -8.078171014785766602e-01 4.203117191791534424e-01 -3.421365737915039062e+00 -2.745606184005737305e+00 -3.326054215431213379e-01 -5.083952426910400391e+00 -9.831128120422363281e-01 -3.288810014724731445e+00 -2.097108364105224609e+00 1.040886715054512024e-01 2.664470076560974121e-01 -1.111558794975280762e+00 2.842166662216186523e+00 1.371226549148559570e+00 -4.858694672584533691e-01 -5.960542559623718262e-01 1.595957756042480469e+00 4.683631956577301025e-01 5.956745743751525879e-01 -6.609062105417251587e-02 -2.720081433653831482e-02 -3.317990303039550781e+00 1.503533840179443359e+00
1.260064125061035156e+00 1.355584859848022461e+00 -5.343549847602844238e-01 -1.045701742172241211e+00 -1.993811011314392090e+00 -1.564706683158874512e+00 1.878234505653381348e+00 -2.803915500640869141e+00 -2.670508623123168945e-02 -3.654735565185546875e+00 -2.786226034164428711e+00 -2.598729133605957031e+00 1.886847138404846191e+00 -2.796354770660400391e+00 4.238072395324707031e+00 -2.247071027755737305e+00 -3.667385578155517578e+00 3.106450319290161133e+00 -3.092150926589965820e+00 3.458725690841674805e+00 1.190189838409423828e+00 1.571023225784301758e+00 -1.216162443161010742e+00 3.763785839080810547e+00 -1.915368080139160156e+00 -3.991332054138183594e+00 2.059478998184204102e+00 1.893182754516601562e+00 5.522030219435691833e-02 -2.476930379867553711e+00 1.952817082405090332e+00 7.854303717613220215e-01 -1.080355763435363770e+00 -3.623822689056396484e+00
-3.998080492019653320e+00 3.784726142883300781e+00 3.607589006423950195e-01 1.293286681175231934e+00 -3.040596246719360352e+00 -2.163797855377197266e+00 1.683212876319885254e+00 -7.128559350967407227e-01 -2.267907708883285522e-01 -3.117880582809448242e+00 -1.039261937141418457e+00 -1.866626977920532227e+00 1.563510656356811523e+00 -2.715387821197509766e+00 3.251894712448120117e+00 7.639821171760559082e-01 -1.637766957283020020e+00 -7.334611415863037109e-01 2.975876569747924805e+00 -1.018236756324768066e+00 -8.862956166267395020e-01 -3.665741682052612305e-01 -3.175632238388061523e+00 4.039364814758300781e+00 -3.158556461334228516e+00 -2.789382457733154297e+00 1.374767899513244629e+00 -4.030758857727050781e+00 -4.833358228206634521e-01 2.182951211929321289e+00 9.550759196281433105e-01 3.071110010147094727e+00 -2.516702651977539062e+00 -8.014805316925048828e-01
2.878474473953247070e+00 -5.413091182708740234e-01 -1.890111207962036133e+00 4.079997539520263672e+00 8.928548693656921387e-01 1.707090854644775391e+00 2.110803365707397461e+00 -9.505996108055114746e-02 4.512562155723571777e-01 -1.369441747665405273e+00 2.456211328506469727e+00 7.529610991477966309e-01 1.581460833549499512e+00 -2.698654651641845703e+00 -4.838669300079345703e+00 3.295895814895629883e+00 -1.501910448074340820e+00 2.021581172943115234e+00 -5.608696341514587402e-01 -3.790333747863769531e+00 1.543994188308715820e+00 -3.593670845031738281e+00 -5.917883515357971191e-01 2.670958340167999268e-01 -1.431266903877258301e+00 -1.826599597930908203e+00 -1.408984780311584473e+00 -2.396595239639282227e+00 -1.652290344238281250e+00 -2.220301628112792969e+00 3.761817693710327148e+00 -4.264324188232421875e+00 -2.619269847869873047e+00 -5.386340618133544922e-01
7.789003252983093262e-01 3.394665956497192383e+00 8.884563446044921875e-01 3.822299480438232422e+00 1.195458769798278809e+00 1.496888279914855957e+00 -5.882247924804687500e+00 6.916282176971435547e-01 -2.582373321056365967e-01 -3.024844884872436523e+00 9.342211484909057617e-01 2.282196730375289917e-01 -6.419206261634826660e-01 -2.516367197036743164e+00 -1.426971435546875000e+00 8.385929465293884277e-01 -6.933769583702087402e-01 1.705331802368164062e-01 -2.235359668731689453e+00 1.152148962020874023e+00 -1.406877517700195312e+00 -3.821585416793823242e+00 -2.414860725402832031e+00 3.086246967315673828e+00 -6.509183645248413086e-01 -1.769916117191314697e-01 -2.616319954395294189e-01 -1.045494198799133301e+00 -3.197307825088500977e+00 -2.114861011505126953e+00 9.069444984197616577e-02 9.961049556732177734e-01 -2.631722688674926758e+00 1.660057783126831055e+00
-1.731608867645263672e+00 3.483233690261840820e+00 7.000043392181396484e-01 2.677585840225219727e+00 1.637359857559204102e+00 -6.024943292140960693e-02 1.910279750823974609e+00 -3.673389911651611328e+00 -2.559322834014892578e+00 -2.364209413528442383e+00 1.211056828498840332e+00 -3.639424562454223633e+00 8.865098357200622559e-01 -2.806453466415405273e+00 -3.780496120452880859e-02 -1.448656916618347168e+00 -1.210264444351196289e+00 -2.890031099319458008e+00 2.681977748870849609e+00 -3.183810949325561523e+00 3.539340734481811523e+00 -1.763628244400024414e+00 1.255750775337219238e+00 6.629426479339599609e-01 -1.035878658294677734e+00 -4.978593289852142334e-01 -1.813471674919128418e+00 3.429572343826293945e+00 -2.448701620101928711e+00 -2.571035861968994141e+00 4.844062328338623047e-01 -2.004156589508056641e+00 1.183887720108032227e+00 -1.197647094726562500e+00
2.915159463882446289e+00 2.857742786407470703e+00 -3.870028018951416016e+00 -2.088870525360107422e+00 -1.030979156494140625e+00 -5.355080962181091309e-01 1.199491500854492188e+00 -3.540334939956665039e+00 -2.255392551422119141e+00 -1.629503130912780762e+00 4.189638495445251465e-01 -2.735611915588378906e+00 1.667980074882507324e+00 8.489065766334533691e-01 3.506067514419555664e+00 -7.369146347045898438e-01 -1.074585556983947754e+00 1.109791994094848633e+00 -9.784495234489440918e-01 -6.537343859672546387e-01 -2.850603818893432617e+00 -4.150323390960693359e+00 -2.516296505928039551e-01 3.829262554645538330e-01 -1.312903523445129395e+00 -3.265776634216308594e-01 2.448654651641845703e+00 -4.421273767948150635e-01 5.800861716270446777e-01 2.765039205551147461e-01 4.922550201416015625e+00 -1.678921103477478027e+00 -3.862652778625488281e+00 1.137470483779907227e+00
3.419935226440429688e+00 -1.710356593132019043e+00 1.936214566230773926e+00 -1.635860562324523926e+00 -3.992141962051391602e+00 -1.874615430831909180e+00 -1.004342317581176758e+00 -8.143864274024963379e-01 -1.507518768310546875e+00 -1.730993866920471191e+00 4.375395774841308594e+00 2.720674753189086914e+00 -6.454211473464965820e-01 -7.702706009149551392e-02 4.005597591400146484e+00 -1.969568371772766113e+00 -1.630707144737243652e+00 -1.169052958488464355e+00 -2.138284683227539062e+00 3.231790363788604736e-01 2.184453010559082031e+00 -8.004885911941528320e-01 3.218782186508178711e+00 -2.515284538269042969e+00 -1.420766353607177734e+00 6.744843721389770508e-01 -3.224414825439453125e+00 -5.432725548744201660e-01 -1.125641822814941406e+00 2.203984022140502930e+00 3.538189888000488281e+00 -2.591956853866577148e+00 -1.628765225410461426e+00 -9.140137434005737305e-01
-1.019935250282287598e+00 9.133856892585754395e-01 1.296817541122436523e+00 -1.211934447288513184e+00 -1.672008991241455078e+00 2.418997287750244141e+00 3.838534355163574219e-01 -2.924321174621582031e+00 -6.362432003021240234e+00 8.157879710197448730e-01 4.564130008220672607e-01 1.387212753295898438e+00 5.322745800018310547e+00 -1.189560770988464355e+00 1.117124915122985840e+00 6.362733244895935059e-01 -2.411088466644287109e+00 -2.577304840087890625e-01 9.735790491104125977e-01 1.323070645332336426e+00 -1.666203856468200684e+00 -3.109291315078735352e+00 2.175828218460083008e+00 2.831484317779541016e+00 -7.458514720201492310e-02 -4.243215084075927734e+00 -9.053926467895507812e-01 -1.205528527498245239e-01 -2.215913534164428711e+00 -6.173393130302429199e-01 4.014466285705566406e+00 -9.836341142654418945e-01 -3.255602598190307617e+00 -2.588596105575561523e+00
5.250071525573730469e+00 1.862432956695556641e+00 -2.099937200546264648e+00 1.698623418807983398e+00 -1.495320320129394531e+00 -1.984694242477416992e+00 1.614243030548095703e+00 6.583757400512695312e-01 2.391975402832031250e+00 1.672932982444763184e+00 -1.689851522445678711e+00 3.061635732650756836e+00 -1.031602025032043457e+00 -2.517786264419555664e+00 1.095812201499938965e+00 -1.125005006790161133e+00 -5.927731394767761230e-01 2.183636903762817383e+00 -8.119459450244903564e-02 -1.013372063636779785e+00 -1.438686609268188477e+00 -2.146250903606414795e-01 2.235376685857772827e-01 -1.205359175801277161e-01 -8.761441111564636230e-01 -4.779431343078613281e+00 2.451457381248474121e-01 -4.500994682312011719e+00 -2.443023681640625000e+00 -2.230968952178955078e+00 2.713965177536010742e+00 -2.499750614166259766e+00 -2.583974838256835938e+00 -1.051123976707458496e+00
