1.489631533622741699e+00 2.012747287750244141e+00 -1.165272712707519531e+00 9.639477729797363281e-01 2.017803907394409180e+00 3.116758108139038086e+00 -4.964739680290222168e-01 -1.644250392913818359e+00 -3.165096938610076904e-01 -2.113609790802001953e+00 -1.898813009262084961e+00 2.037073612213134766e+00 -3.658949434757232666e-01 -1.862233996391296387e+00 5.455353736877441406e+00 1.308401823043823242e+00 -6.287396430969238281e+00 3.479707717895507812e+00 -3.162198066711425781e+00 -1.223174214363098145e+00 -6.769063472747802734e-01 3.427605330944061279e-01 -2.695561408996582031e+00 -1.633484363555908203e+00 -9.378299713134765625e-01 -1.042623996734619141e+00 -4.960567951202392578e-01 -3.365288972854614258e+00 4.291745722293853760e-01 -2.683216333389282227e+00 4.607396125793457031e-01 -1.725716590881347656e+00 -1.410130500793457031e+00 2.703158378601074219e+00
4.222401142120361328e+00 3.661659955978393555e+00 -2.199392080307006836e+00 -1.755368947982788086e+00 -7.080920934677124023e-01 5.330187797546386719e+00 -2.323500394821166992e+00 -2.713460206985473633e+00 -2.796356916427612305e+00 -8.729946017265319824e-01 -3.036151885986328125e+00 -2.956756591796875000e+00 -4.871847629547119141e-01 -5.608922839164733887e-01 -3.670441150665283203e+00 1.644955754280090332e+00 -1.289332807064056396e-01 1.532523274421691895e+00 -1.953597187995910645e+00 3.335318863391876221e-01 -8.650825619697570801e-01 1.793278455734252930e+00 1.000413969159126282e-01 -8.251745104789733887e-01 -2.276672840118408203e+00 3.575355112552642822e-01 3.592942237854003906e+00 -1.423973917961120605e+00 1.119698166847229004e+00 -8.466787934303283691e-01 1.146078944206237793e+00 -1.396948337554931641e+00 -1.848981380462646484e+00 -1.575979471206665039e+00
1.660584688186645508e+00 -1.765283823013305664e+00 3.842492997646331787e-01 1.676900506019592285e+00 -1.380249381065368652e+00 -1.492402553558349609e+00 -8.739243149757385254e-01 -1.948950052261352539e+00 -2.219073295593261719e+00 2.470586061477661133e+00 -3.886994838714599609e+00 -2.418298721313476562e+00 -2.979760646820068359e+00 1.558185577392578125e+00 1.496744632720947266e+00 1.095144152641296387e+00 -2.044355392456054688e+00 4.624651670455932617e-01 -2.452522277832031250e+00 2.459811419248580933e-01 -6.462963223457336426e-01 -4.617160797119140625e+00 6.333625316619873047e-01 1.712791323661804199e+00 -7.584880590438842773e-01 2.746084034442901611e-01 -2.001837491989135742e+00 4.977005958557128906e+00 3.788935840129852295e-01 -7.499682903289794922e-01 -1.033077120780944824e+00 9.705332666635513306e-02 -1.451018691062927246e+00 3.140994787216186523e+00
4.123301506042480469e+00 1.121634960174560547e+00 1.613278746604919434e+00 -5.087869763374328613e-01 -2.966557979583740234e+00 4.152285456657409668e-01 -3.535945177078247070e+00 -4.326139450073242188e+00 7.337907552719116211e-01 -2.824697196483612061e-01 -5.304639935493469238e-01 5.280671715736389160e-01 -2.320761919021606445e+00 2.246552258729934692e-01 3.898184537887573242e+00 -2.143337011337280273e+00 -1.646162629127502441e+00 5.701173543930053711e-01 -6.022790670394897461e-01 -5.037483215332031250e+00 2.916308164596557617e+00 -3.001906633377075195e+00 3.634705543518066406e-01 -1.133739829063415527e+00 -7.713958024978637695e-01 2.638131618499755859e+00 7.745658755302429199e-01 -1.399972319602966309e+00 4.199563980102539062e+00 -3.906389713287353516e+00 -1.428695201873779297e+00 -8.810614943504333496e-01 -3.612459897994995117e-01 7.269174456596374512e-01
4.061178684234619141e+00 -9.499802589416503906e-01 -2.598314285278320312e+00 1.427381277084350586e+00 -3.040025472640991211e+00 3.428157418966293335e-02 2.525136172771453857e-01 -7.548306137323379517e-02 -1.164592742919921875e+00 1.928293347358703613e+00 -4.466647148132324219e+00 -2.319848060607910156e+00 -1.558542370796203613e+00 -3.913137316703796387e-01 1.490091562271118164e+00 2.717896461486816406e+00 -6.953219771385192871e-01 6.118315272033214569e-03 -1.859804868698120117e+00 -1.539631009101867676e+00 4.229874134063720703e+00 2.908001661300659180e+00 -1.540867686271667480e-01 -4.571472167968750000e+00 -2.933319091796875000e+00 -3.705771863460540771e-01 -3.259409666061401367e-01 -1.909827351570129395e+00 5.534645915031433105e-01 -3.817202091217041016e+00 1.136224269866943359e+00 1.272682309150695801e+00 -2.794236898422241211e+00 1.599776625633239746e+00
-1.038823962211608887e+00 -3.738693237304687500e+00 1.454206824302673340e+00 3.102099180221557617e+00 2.201997041702270508e+00 1.582389354705810547e+00 -8.169893622398376465e-01 -6.273008584976196289e-01 -3.007476568222045898e+00 -9.730335474014282227e-01 -2.458171606063842773e+00 -1.586905598640441895e+00 -5.598341226577758789e-01 -2.032438516616821289e+00 9.293093681335449219e-01 4.280111312866210938e+00 -1.358037590980529785e+00 -3.521607816219329834e-01 2.342951536178588867e+00 -2.345818042755126953e+00 -3.052756786346435547e+00 1.656893610954284668e+00 -1.020316839218139648e+00 -1.383487582206726074e+00 -1.587861180305480957e+00 8.293958902359008789e-01 3.408098220825195312e+00 -2.068028040230274200e-02 2.564080953598022461e+00 2.277046203613281250e+00 -2.678451836109161377e-01 -3.970538139343261719e+00 -3.797227144241333008e+00 -1.611723937094211578e-02
6.437594890594482422e-01 3.070704638957977295e-01 -1.313381195068359375e+00 2.763014554977416992e+00 -6.421583890914916992e-01 1.297176182270050049e-01 -3.366573572158813477e+00 1.751893877983093262e+00 -7.517459988594055176e-01 -1.206352472305297852e+00 2.561596632003784180e+00 -1.504189133644104004e+00 -2.522109270095825195e+00 -3.904440164566040039e+00 -1.138551115989685059e+00 1.196453690528869629e+00 1.596338033676147461e+00 -1.701254129409790039e+00 -2.381242990493774414e+00 7.646204829216003418e-01 1.399699926376342773e+00 -1.751118659973144531e+00 -3.590517640113830566e-01 -1.954035639762878418e+00 -3.613048315048217773e+00 -1.375709891319274902e+00 5.895578384399414062e+00 -1.115654230117797852e+00 2.392137527465820312e+00 -5.469357371330261230e-01 2.835768699645996094e+00 -4.226891517639160156e+00 -7.215400338172912598e-01 -1.306530475616455078e+00
2.637393712997436523e+00 -1.964136362075805664e-01 1.114112019538879395e+00 2.158713340759277344e+00 -2.918613910675048828e+00 -6.206235289573669434e-01 7.303173653781414032e-03 7.140193581581115723e-01 -4.715030193328857422e-01 -1.755244970321655273e+00 1.322352051734924316e+00 -1.801466107368469238e+00 -4.357956409454345703e+00 -1.254837989807128906e+00 1.442273736000061035e+00 2.892238855361938477e+00 2.425637245178222656e+00 9.248567223548889160e-01 -7.651892304420471191e-01 -5.488853454589843750e-01 -1.644271850585937500e+00 -2.351804018020629883e+00 -1.120271921157836914e+00 -2.456887960433959961e+00 -6.878498196601867676e-01 -3.720360755920410156e+00 1.258276253938674927e-01 1.933738350868225098e+00 2.138195276260375977e+00 -1.434079885482788086e+00 -2.664074659347534180e+00 -3.588780015707015991e-02 -3.592379808425903320e+00 5.838281661272048950e-02
-8.032203912734985352e-01 -9.037536382675170898e-01 1.655843377113342285e+00 1.753417402505874634e-02 9.056344628334045410e-01 2.017978668212890625e+00 -1.442118406295776367e+00 -2.922834873199462891e+00 -1.602355718612670898e+00 2.149545907974243164e+00 4.267813172191381454e-03 -2.524917840957641602e+00 -2.944833755493164062e+00 -2.886558055877685547e+00 5.074861645698547363e-01 5.096649646759033203e+00 -1.840004324913024902e+00 -1.046605348587036133e+00 5.159269571304321289e-01 6.477887034416198730e-01 4.746250629425048828e+00 -2.527902603149414062e+00 -2.631005287170410156e+00 -2.054163694381713867e+00 -1.035697460174560547e+00 -2.826786518096923828e+00 2.343877792358398438e+00 1.794687628746032715e+00 2.543946266174316406e+00 4.831134974956512451e-01 -4.496456146240234375e+00 3.734736442565917969e-01 -3.579623937606811523e+00 -2.479700148105621338e-01
2.297835111618041992e+00 5.234130024909973145e-01 -2.109595537185668945e+00 1.804798990488052368e-01 -2.553227186203002930e+00 3.360915660858154297e+00 -3.646034479141235352e+00 -5.530464053153991699e-01 -9.173732995986938477e-01 1.139693260192871094e-01 -7.002817988395690918e-01 7.187145352363586426e-01 2.483268737792968750e+00 9.374946951866149902e-01 1.177111044526100159e-01 8.787951469421386719e-01 -4.069966793060302734e+00 -3.391289710998535156e+00 -2.720043420791625977e+00 -2.240467786788940430e+00 1.812689065933227539e+00 -4.475843906402587891e+00 1.669177174568176270e+00 7.348006963729858398e-01 -4.635022580623626709e-01 -1.116550207138061523e+00 2.410500288009643555e+00 2.035864353179931641e+00 -9.798198938369750977e-01 -2.439656496047973633e+00 2.368557691574096680e+00 -1.038181543350219727e+00 1.579778671264648438e+00 -1.645562529563903809e+00
-4.255571961402893066e-01 -7.455901503562927246e-01 -3.898510694503784180e+00 4.794492125511169434e-01 -2.493276000022888184e-01 7.184666991233825684e-01 -1.815161943435668945e+00 -2.374710559844970703e+00 -2.471310853958129883e+00 -1.207695484161376953e+00 -8.884121775627136230e-01 -2.875111579895019531e+00 -2.110150337219238281e+00 -2.060222625732421875e+00 -1.813724339008331299e-01 1.446578621864318848e+00 -5.399244308471679688e+00 -1.548176407814025879e+00 -1.981197714805603027e+00 2.717379093170166016e+00 1.607916712760925293e+00 -5.894240140914916992e-01 8.087934553623199463e-02 -8.283421397209167480e-02 2.132716417312622070e+00 -4.578125178813934326e-01 2.660581111907958984e+00 3.998852729797363281e+00 1.975435614585876465e+00 1.699602842330932617e+00 -6.899275183677673340e-01 -3.057944297790527344e+00 -1.204331517219543457e+00 4.464109420776367188e+00
3.593173265457153320e+00 8.256167173385620117e-01 -3.473648309707641602e+00 -6.473130583763122559e-01 -3.235350370407104492e+00 5.131467580795288086e-01 -1.992523670196533203e+00 1.355186820030212402e+00 -5.212194442749023438e+00 -2.148859024047851562e+00 -1.963446438312530518e-01 1.089775562286376953e+00 3.911134719848632812e+00 8.405159115791320801e-01 2.483602285385131836e+00 3.116313695907592773e+00 -7.796805500984191895e-01 1.140869379043579102e+00 -5.510247945785522461e-01 1.745065212249755859e+00 -2.158194065093994141e+00 5.401564836502075195e-01 7.327585816383361816e-01 -1.924291849136352539e+00 6.893253326416015625e-01 -3.158461093902587891e+00 -5.969175696372985840e-01 2.776995420455932617e+00 -2.077278137207031250e+00 -3.357538700103759766e+00 -2.484747648239135742e+00 9.540902972221374512e-01 -1.861671924591064453e+00 -2.463032484054565430e+00
3.682484626770019531e+00 -1.031670570373535156e+00 1.931243419647216797e+00 3.621664524078369141e+00 -5.013817310333251953e+00 1.574197292327880859e+00 -1.529299616813659668e+00 -4.379416406154632568e-01 -1.496871352195739746e+00 -3.616098165512084961e+00 -2.266003608703613281e+00 -3.305258035659790039e+00 -2.911086320877075195e+00 1.555058002471923828e+00 1.371959805488586426e+00 3.871844291687011719e+00 1.614486694335937500e+00 -2.270694732666015625e+00 -3.892342150211334229e-01 -2.090334177017211914e+00 -2.490678131580352783e-01 5.698413252830505371e-01 -1.880134940147399902e-01 -1.056191444396972656e+00 -3.682830572128295898e+00 1.548608303070068359e+00 7.702745199203491211e-01 1.002676606178283691e+00 2.766726732254028320e+00 -3.396712839603424072e-01 -1.669659852981567383e+00 6.492604017257690430e-01 -9.198980927467346191e-01 -2.863095760345458984e+00
1.958277463912963867e+00 -1.855113267898559570e+00 3.651685953140258789e+00 -2.499633550643920898e+00 -2.115199804306030273e+00 1.143280863761901855e+00 -1.873573899269104004e+00 -1.756046175956726074e+00 -2.166950225830078125e+00 -1.122443005442619324e-01 -3.275823593139648438e+00 -4.756828844547271729e-01 1.622234344482421875e+00 2.708657264709472656e+00 -9.797396063804626465e-01 3.824871778488159180e+00 2.950341939926147461e+00 4.093648791313171387e-01 -2.531130313873291016e-01 -1.709747672080993652e+00 -2.589917421340942383e+00 3.194465398788452148e+00 3.118463456630706787e-01 -1.824504256248474121e+00 -1.386056900024414062e+00 1.089279651641845703e+00 -3.012342453002929688e+00 -4.906352162361145020e-01 1.590845465660095215e+00 -1.850762367248535156e+00 -2.758777618408203125e+00 -2.108378410339355469e+00 -1.364543318748474121e+00 -5.017473101615905762e-01
-6.748018860816955566e-01 -8.803464770317077637e-01 -4.279633045196533203e+00 2.653136968612670898e+00 -3.146268367767333984e+00 -1.265283107757568359e+00 -5.510215759277343750e-01 2.273545980453491211e+00 -1.850942969322204590e+00 -1.673896670341491699e+00 1.235549569129943848e+00 3.917340040206909180e+00 -1.638640046119689941e+00 -4.848187565803527832e-01 4.338537216186523438e+00 7.662890106439590454e-02 -7.490439414978027344e-01 -2.586263895034790039e+00 1.044420674443244934e-01 4.911781102418899536e-02 -1.398410439491271973e+00 -4.782793045043945312e+00 9.553328752517700195e-01 -2.144586801528930664e+00 -3.320169448852539062e+00 1.984259724617004395e+00 1.432630062103271484e+00 1.591393470764160156e+00 1.136957049369812012e+00 7.544798851013183594e-01 -6.473925113677978516e-01 -4.215775132179260254e-01 -4.327464103698730469e+00 1.633512377738952637e+00
-5.012977123260498047e-01 -1.624624371528625488e+00 -2.602152347564697266e+00 -2.634787797927856445e+00 6.039699912071228027e-01 3.366569280624389648e+00 -2.060917377471923828e+00 -3.199114799499511719e+00 -2.603272438049316406e+00 7.883444428443908691e-01 -2.217142343521118164e+00 -2.820977926254272461e+00 -2.237348079681396484e+00 5.520117282867431641e+00 -1.809612214565277100e-01 1.941465497016906738e+00 1.345415592193603516e+00 -2.254509449005126953e+00 -1.477604269981384277e+00 3.233354091644287109e+00 -3.079261064529418945e+00 -1.374246627092361450e-01 -1.123139619827270508e+00 5.523980408906936646e-02 -3.326743841171264648e+00 5.076912879943847656e+00 1.447522163391113281e+00 7.683570384979248047e-01 8.176342248916625977e-01 5.525544881820678711e-01 3.907774686813354492e-01 -1.051201578229665756e-02 1.025226593017578125e+00 -2.754931211471557617e+00
-8.097527027130126953e-01 4.895126521587371826e-01 -8.867461681365966797e-01 3.459889650344848633e+00 -2.544076681137084961e+00 2.094759464263916016e+00 -4.415722370147705078e+00 3.269536256790161133e+00 -3.818389892578125000e+00 7.459450960159301758e-01 -2.413621902465820312e+00 -1.488059997558593750e+00 -2.696256160736083984e+00 1.654240787029266357e-01 3.208582878112792969e+00 -3.006264925003051758e+00 -1.950704693794250488e+00 1.754241347312927246e+00 2.644088566303253174e-01 1.358273386955261230e+00 8.081176280975341797e-01 2.908754050731658936e-01 -1.731496304273605347e-01 7.339165359735488892e-02 -1.653469800949096680e+00 1.354528307914733887e+00 1.822311997413635254e+00 4.030922889709472656e+00 3.464678764343261719e+00 -8.569499850273132324e-01 -3.952932357788085938e+00 -1.478465199470520020e+00 -3.861470937728881836e+00 -3.442741155624389648e+00
2.262823283672332764e-01 2.747733116149902344e+00 -2.538494110107421875e+00 -2.436150074005126953e+00 2.183621883392333984e+00 7.073790431022644043e-01 4.057810306549072266e+00 -4.146244749426841736e-02 -1.943807005882263184e+00 2.175169467926025391e+00 -3.525720119476318359e+00 9.154656529426574707e-01 1.853188633918762207e+00 1.058879256248474121e+00 -3.841098248958587646e-01 -1.231123566627502441e+00 -1.711505293846130371e+00 8.813094496726989746e-01 -3.140208959579467773e+00 -1.766976833343505859e+00 -4.832642376422882080e-01 -5.115768909454345703e+00 1.011209845542907715e+00 -2.414686918258666992e+00 4.420321434736251831e-02 5.859844684600830078e-01 5.468119382858276367e-01 -1.860677599906921387e+00 9.548950791358947754e-01 -2.607381820678710938e+00 3.149596929550170898e+00 -3.054012060165405273e-01 -4.362874507904052734e+00 -4.973773062229156494e-01
-8.229139447212219238e-01 -9.625555574893951416e-02 1.045286059379577637e-01 4.454936683177947998e-01 -1.834231376647949219e+00 1.186136126518249512e+00 -7.709150910377502441e-01 5.251256227493286133e-01 -2.344040155410766602e+00 5.063223838806152344e-01 -2.303186357021331787e-01 -3.192083597183227539e+00 -6.451137065887451172e-01 1.296208053827285767e-01 1.280318379402160645e+00 1.800125241279602051e+00 2.383000612258911133e+00 -5.071756362915039062e+00 -5.831102728843688965e-01 2.274430394172668457e-01 1.923470139503479004e+00 2.877404451370239258e+00 -2.536334753036499023e+00 1.737772941589355469e+00 -4.191104888916015625e+00 -3.603390693664550781e+00 -2.066713571548461914e+00 2.837218046188354492e+00 -2.533474206924438477e+00 -3.487368345260620117e+00 -1.461588740348815918e-01 9.710472822189331055e-01 -2.158535480499267578e+00 3.659492254257202148e+00
3.605914354324340820e+00 -1.229352831840515137e+00 1.974836111068725586e+00 -8.283867239952087402e-01 -3.476406633853912354e-01 -7.195801287889480591e-02 2.162941455841064453e+00 -1.600925922393798828e+00 -7.820962071418762207e-01 1.338556289672851562e+00 -3.588818550109863281e+00 5.156987309455871582e-01 -1.112794280052185059e+00 3.648725748062133789e+00 -1.492372512817382812e+00 -3.374777436256408691e-01 1.388190627098083496e+00 -2.697608947753906250e+00 5.363677740097045898e-01 -1.773595690727233887e+00 -1.239822745323181152e+00 1.175763964653015137e+00 2.009449720382690430e+00 3.562198951840400696e-02 -7.857379317283630371e-01 -2.817235946655273438e+00 1.514263510704040527e+00 3.083263397216796875e+00 -2.701827764511108398e+00 -2.871752738952636719e+00 -9.798099398612976074e-01 -3.872198462486267090e-01 -2.647921085357666016e+00 -5.019865989685058594e+00
2.683059692382812500e+00 -2.395479202270507812e+00 -2.192694902420043945e+00 9.974402785301208496e-01 8.838540315628051758e-01 -4.770707607269287109e+00 -5.267750620841979980e-01 4.125824451446533203e+00 -3.705921411514282227e+00 2.126248836517333984e+00 -1.824115633964538574e+00 9.321282804012298584e-02 1.418910264968872070e+00 3.505754768848419189e-01 9.905771911144256592e-02 -1.199427247047424316e+00 -3.067358255386352539e+00 -9.848206639289855957e-01 -2.106068432331085205e-01 1.716157197952270508e+00 2.501681327819824219e+00 -6.317994594573974609e-01 -3.069886207580566406e+00 1.692715883255004883e+00 1.130552172660827637e+00 -2.523800611495971680e+00 -9.340999126434326172e-01 -3.704653024673461914e+00 -1.568602681159973145e+00 -6.229383945465087891e-01 4.124359786510467529e-01 -1.927131891250610352e+00 5.892825126647949219e-01 2.019844532012939453e+00
1.219573497772216797e+00 -4.343954563140869141e+00 -2.833265781402587891e+00 -4.089069366455078125e+00 1.378118634223937988e+00 -1.316583514213562012e+00 1.989364624023437500e-01 6.774066388607025146e-02 4.164185374975204468e-02 5.466988682746887207e-01 4.081848859786987305e-01 -4.805947244167327881e-01 3.915559768676757812e+00 -5.593966841697692871e-01 -3.820337727665901184e-02 -6.293204426765441895e-01 3.576393842697143555e+00 -2.532438278198242188e+00 8.038580417633056641e-01 -2.952381610870361328e+00 1.851308345794677734e+00 -3.341909646987915039e+00 -1.177814126014709473e+00 -3.702030479907989502e-01 6.232090950012207031e+00 -1.474449783563613892e-01 -2.214981555938720703e+00 -1.273676037788391113e+00 -1.593117833137512207e+00 -2.435306549072265625e+00 -2.046758413314819336e+00 4.134688854217529297e+00 1.181872010231018066e+00 -2.077711582183837891e+00
-2.224410772323608398e+00 7.567932605743408203e-01 -6.266796588897705078e+00 -5.340504646301269531e-01 2.179658561944961548e-01 3.652748584747314453e+00 1.865523219108581543e+00 -4.608229175209999084e-02 -1.938444137573242188e+00 -4.012039661407470703e+00 2.336681365966796875e+00 1.893377065658569336e+00 -7.972835898399353027e-01 -3.732876777648925781e+00 -1.188751339912414551e+00 6.617561727762222290e-02 1.430685669183731079e-01 -3.577504634857177734e+00 -1.270989775657653809e-01 -4.930330812931060791e-01 6.142154216766357422e+00 2.347518444061279297e+00 7.058084011077880859e-01 -8.111407756805419922e-01 -9.057654440402984619e-02 -1.511302351951599121e+00 -8.966461420059204102e-01 1.479011178016662598e+00 -1.040921080857515335e-02 -2.628236770629882812e+00 -2.340512037277221680e+00 6.912357211112976074e-01 1.377861380577087402e+00 -2.612242221832275391e+00
-3.968116939067840576e-01 -9.301878213882446289e-01 -1.021459698677062988e+00 4.130588769912719727e-01 4.425471305847167969e+00 -6.719896197319030762e-01 -2.230125665664672852e+00 -2.965318918228149414e+00 6.300192832946777344e+00 8.142228126525878906e-01 -6.577986478805541992e-01 -3.010307550430297852e+00 3.327185630798339844e+00 -9.094559550285339355e-01 2.374634504318237305e+00 -2.153117179870605469e+00 1.034073591232299805e+00 -1.253509640693664551e+00 -2.328432321548461914e+00 -3.593209743499755859e+00 -1.072378396987915039e+00 -3.326035737991333008e+00 1.517127394676208496e+00 -2.136523008346557617e+00 -1.970524191856384277e+00 -6.399845480918884277e-01 9.563750028610229492e-01 4.331079423427581787e-01 5.920563936233520508e-01 2.513097763061523438e+00 -7.391836047172546387e-01 -2.190534830093383789e+00 -2.386504411697387695e+00 1.024104356765747070e+00
-2.027891427278518677e-01 8.119988441467285156e-01 -7.361251115798950195e-01 -2.677191495895385742e+00 1.463348031044006348e+00 6.271612644195556641e-01 -3.372859358787536621e-01 4.883730113506317139e-01 -1.260307192802429199e+00 7.388540506362915039e-01 4.434013843536376953e+00 5.685027837753295898e-01 2.475934505462646484e+00 1.851620435714721680e+00 3.375316381454467773e+00 -2.821807146072387695e+00 -2.819734811782836914e+00 -2.192182064056396484e+00 -3.539150059223175049e-01 2.115913331508636475e-01 2.507121086120605469e+00 2.835917174816131592e-01 -2.920584082603454590e-01 -1.393001198768615723e+00 1.352909803390502930e+00 -3.987386465072631836e+00 -3.954668998718261719e+00 -2.978844404220581055e+00 2.400405645370483398e+00 -1.163455963134765625e+00 -2.563285350799560547e+00 -7.598920464515686035e-01 -3.772470712661743164e+00 -7.628333568572998047e-01
-8.195424079895019531e-01 -6.086105823516845703e+00 -7.171704769134521484e-01 3.569036006927490234e+00 5.237686157226562500e+00 1.628735423088073730e+00 1.322010010480880737e-01 -2.220762491226196289e+00 -2.727350950241088867e+00 2.190362930297851562e+00 2.908513545989990234e+00 -1.330325484275817871e+00 -3.235368967056274414e+00 -2.453191578388214111e-01 -3.285727262496948242e+00 -8.785985112190246582e-01 -2.486438274383544922e+00 1.206135153770446777e+00 -4.077441215515136719e+00 1.194003701210021973e+00 2.564626932144165039e+00 1.197734117507934570e+00 5.824338197708129883e-01 1.003303527832031250e+00 -2.938927412033081055e+00 2.009025573730468750e+00 -3.229056596755981445e-01 6.260743830353021622e-03 -2.092004537582397461e+00 -2.651402711868286133e+00 -8.186699748039245605e-01 -1.404494404792785645e+00 1.559474110603332520e+00 -6.845461130142211914e-01
-2.967567205429077148e+00 -2.585087060928344727e+00 1.287204742431640625e+00 -1.613852381706237793e+00 1.294456362724304199e+00 1.394288897514343262e+00 -8.424134850502014160e-01 2.825358211994171143e-01 -7.221347093582153320e-01 3.528648853302001953e+00 2.868148565292358398e+00 4.599503874778747559e-01 -1.840980172157287598e+00 2.482954740524291992e+00 1.717901706695556641e+00 -3.145778656005859375e+00 -8.961205482482910156e-01 -5.821582674980163574e-01 5.133370757102966309e-01 -1.236993551254272461e+00 1.826242327690124512e+00 3.776576519012451172e-01 -1.017119169235229492e+00 1.972023367881774902e+00 1.813449263572692871e+00 -3.620458841323852539e+00 -3.162136077880859375e-01 -1.712707400321960449e+00 -2.632586359977722168e-01 -3.097571134567260742e+00 -3.225140810012817383e+00 -7.380902171134948730e-01 -2.578202962875366211e+00 -1.429841399192810059e+00
1.301198363304138184e+00 -5.437573790550231934e-01 -2.521920919418334961e+00 1.346021056175231934e+00 4.177254199981689453e+00 1.038367509841918945e+00 -2.206019878387451172e+00 -2.916074514389038086e+00 2.642353296279907227e+00 -2.330364465713500977e+00 1.928496003150939941e+00 -1.627019405364990234e+00 -2.645125150680541992e+00 2.415291309356689453e+00 5.302626490592956543e-01 -3.602728366851806641e+00 -7.879724502563476562e-01 -2.044402360916137695e+00 -1.216128826141357422e+00 -5.008628964424133301e-01 6.053676605224609375e-01 -1.304602742195129395e+00 -3.968569040298461914e-01 1.974449306726455688e-01 5.863606333732604980e-01 5.660963058471679688e-01 -2.260232210159301758e+00 -2.077848613262176514e-01 2.279730558395385742e+00 -2.618326663970947266e+00 -1.474188923835754395e+00 1.744363784790039062e+00 -1.708469510078430176e+00 -7.195597290992736816e-01
-9.226346015930175781e-01 -5.328015327453613281e+00 -1.938915014266967773e+00 3.098929643630981445e+00 2.594760179519653320e+00 -2.725023269653320312e+00 9.195184111595153809e-01 -5.558657646179199219e-01 5.553751587867736816e-01 -1.023073554039001465e+00 5.921258125454187393e-03 -1.419872283935546875e+00 -2.188398875296115875e-02 1.406272947788238525e-01 -1.755805850028991699e+00 1.977829933166503906e+00 1.853265285491943359e+00 -1.867086648941040039e+00 2.498750925064086914e+00 -6.092942237854003906e+00 4.594460010528564453e+00 -8.913524150848388672e-01 1.522942900657653809e+00 3.140765905380249023e+00 1.643875241279602051e+00 7.600258290767669678e-02 -3.152614831924438477e+00 -1.578162074089050293e+00 -1.519379973411560059e+00 -5.452350974082946777e-01 -1.006435513496398926e+00 -2.532920837402343750e-01 -2.913292407989501953e+00 1.145401954650878906e+00
-1.042451620101928711e+00 -2.063715457916259766e+00 -1.633597135543823242e+00 1.172087550163269043e+00 4.344132423400878906e+00 8.490057587623596191e-01 3.287234306335449219e-01 -2.757653474807739258e+00 9.073216915130615234e-01 -1.352190852165222168e+00 -3.917860388755798340e-01 -7.331281900405883789e-02 -1.318971157073974609e+00 4.765504002571105957e-01 2.532663345336914062e+00 7.553998231887817383e-01 -2.655879259109497070e+00 2.979229211807250977e+00 2.363882511854171753e-01 -2.702279090881347656e+00 3.414139270782470703e+00 2.873502254486083984e+00 6.396535038948059082e-01 3.308701813220977783e-01 -2.690964460372924805e+00 6.765668392181396484e-01 -6.110323905944824219e+00 -1.432757735252380371e+00 -1.303711414337158203e+00 -6.879925727844238281e-01 -4.245044708251953125e+00 1.394770145416259766e+00 -1.861147999763488770e+00 -2.645179748535156250e+00
-3.432771205902099609e+00 -4.635107040405273438e+00 1.152740359306335449e+00 1.460469484329223633e+00 -6.664476990699768066e-01 -8.970102667808532715e-01 5.748942494392395020e-01 1.270136833190917969e+00 -3.581928968429565430e+00 1.421035408973693848e+00 1.929497122764587402e+00 3.345182657241821289e+00 -1.466967701911926270e+00 1.819882154464721680e+00 2.372195243835449219e+00 1.231642246246337891e+00 -8.399472236633300781e-01 -2.593393564224243164e+00 -1.386938691139221191e+00 7.557399272918701172e-01 3.503691196441650391e+00 -3.474245309829711914e+00 2.802138805389404297e+00 6.575273275375366211e-01 2.123796701431274414e+00 -1.270632863044738770e+00 -3.531632184982299805e+00 -2.672417879104614258e+00 -1.812301635742187500e+00 -4.757300019264221191e-01 -2.354130983352661133e+00 -2.775338411331176758e+00 2.528979778289794922e+00 -2.503628492355346680e+00
1.645992279052734375e+00 -3.924212217330932617e+00 -1.235108852386474609e+00 -1.779980897903442383e+00 -7.387257218360900879e-01 -4.605731666088104248e-01 1.792823672294616699e+00 2.847562551498413086e+00 -2.077076196670532227e+00 -1.371615886688232422e+00 -1.949557662010192871e+00 3.434114933013916016e+00 -7.255454063415527344e-01 1.274230003356933594e+00 1.147681593894958496e+00 4.234858989715576172e+00 -1.324095964431762695e+00 4.527920782566070557e-01 -1.097881674766540527e+00 9.176912903785705566e-01 -8.159991502761840820e-01 3.570652723312377930e+00 1.640027165412902832e+00 8.794763088226318359e-01 -1.570592641830444336e+00 -2.326506376266479492e+00 -3.796335756778717041e-01 -3.231619596481323242e+00 -2.652677536010742188e+00 -1.200985670089721680e+00 -3.096574783325195312e+00 -2.940372467041015625e+00 -9.403658509254455566e-01 -7.775781154632568359e-01
1.332059025764465332e+00 -4.082269191741943359e+00 -4.785320281982421875e+00 1.873247623443603516e+00 4.096398830413818359e+00 -2.079698801040649414e+00 -1.841877698898315430e+00 -1.555025100708007812e+00 2.505101561546325684e-01 -3.935986518859863281e+00 4.681822359561920166e-01 1.003378033638000488e+00 -2.429509878158569336e+00 1.719722628593444824e+00 -5.541774034500122070e-01 8.737925291061401367e-01 -1.053791642189025879e+00 1.685933470726013184e-01 -2.203716993331909180e+00 -2.160161495208740234e+00 2.544383518397808075e-02 -1.902537465095520020e+00 3.183846175670623779e-01 -1.172440052032470703e+00 1.033325076103210449e+00 5.314410328865051270e-01 -1.755738377571105957e+00 3.514514446258544922e+00 -3.404933691024780273e+00 -1.539947867393493652e+00 2.206828117370605469e+00 2.440530776977539062e+00 1.774974107742309570e+00 1.035128355026245117e+00
-2.430731773376464844e+00 2.686436474323272705e-01 -2.131897687911987305e+00 -2.283798933029174805e+00 -2.986132502555847168e-01 -5.166176706552505493e-02 1.250154852867126465e+00 -2.712403237819671631e-01 -4.296391010284423828e+00 1.429087519645690918e+00 -3.444176614284515381e-01 2.367470264434814453e+00 3.641522645950317383e+00 -4.746681213378906250e+00 3.848475962877273560e-02 1.015794873237609863e+00 -1.921731114387512207e+00 -1.272466421127319336e+00 -9.626637697219848633e-01 -7.333829402923583984e-01 3.176847934722900391e+00 1.376592397689819336e+00 2.652128696441650391e+00 -1.075086712837219238e+00 -2.281910181045532227e+00 -2.265309333801269531e+00 -3.539053916931152344e+00 -3.336468935012817383e+00 1.878883004188537598e+00 -8.638021945953369141e-01 4.882884025573730469e-01 -2.808004140853881836e+00 2.390747785568237305e+00 1.722191095352172852e+00
1.034343913197517395e-01 -9.244851469993591309e-01 2.098299503326416016e+00 1.925628066062927246e+00 2.201580286026000977e+00 -3.714367151260375977e+00 8.998115658760070801e-01 -1.183995723724365234e+00 4.630261421203613281e+00 -2.655938267707824707e-01 3.489586353302001953e+00 -2.113854646682739258e+00 2.124745607376098633e+00 1.865282893180847168e+00 -1.063632726669311523e+00 -3.845391571521759033e-01 -7.682310342788696289e-01 2.475551843643188477e+00 -1.209401011466979980e+00 9.373698234558105469e-01 2.283321022987365723e-01 -4.471325874328613281e+00 5.652511026710271835e-03 1.392746448516845703e+00 -8.943912982940673828e-01 -2.326580286026000977e+00 -4.661934375762939453e+00 1.448648095130920410e+00 -1.742297053337097168e+00 -6.442123055458068848e-01 -1.414784550666809082e+00 -3.498322963714599609e+00 -1.775180578231811523e+00 -3.629810333251953125e+00
-1.443034291267395020e+00 -7.040507793426513672e+00 -2.271594047546386719e+00 -1.470869660377502441e+00 1.003487706184387207e+00 4.526287615299224854e-01 -1.273440480232238770e+00 2.724685430526733398e+00 3.029337167739868164e+00 -1.346688747406005859e+00 2.273982048034667969e+00 -1.846579909324645996e-01 -2.921034574508666992e+00 1.812651872634887695e+00 3.710578680038452148e-01 7.728153467178344727e-01 6.607127189636230469e-01 1.490963101387023926e+00 -1.845391988754272461e+00 1.445186495780944824e+00 -3.725167214870452881e-01 7.899589538574218750e-01 -4.458349704742431641e+00 3.300286293029785156e+00 2.452972173690795898e+00 -2.225469350814819336e+00 -2.003424882888793945e+00 9.341833591461181641e-01 -7.562159895896911621e-01 -2.849365472793579102e-01 6.553022265434265137e-01 -2.074363946914672852e+00 -1.677413940429687500e+00 -1.562199473381042480e+00
7.842226028442382812e-01 -3.458987712860107422e+00 -1.052453517913818359e+00 -2.239107608795166016e+00 4.074010252952575684e-01 -4.539408981800079346e-01 1.954997777938842773e+00 -3.334798812866210938e-01 -1.316129863262176514e-01 -2.054354190826416016e+00 2.852385044097900391e+00 -1.374904036521911621e+00 4.183550775051116943e-01 1.547311782836914062e+00 3.338224649429321289e+00 -2.450127363204956055e+00 -1.292683601379394531e+00 -3.400782585144042969e+00 -2.456645965576171875e+00 -4.193843603134155273e-01 -1.834428459405899048e-01 3.399727106094360352e+00 1.930568099021911621e+00 2.633193731307983398e+00 -2.876206398010253906e+00 -2.359411478042602539e+00 -1.991342186927795410e+00 -3.213232517242431641e+00 -2.827464342117309570e-01 -1.718332171440124512e+00 8.218001127243041992e-01 1.346669316291809082e+00 -7.966160774230957031e-01 1.090164184570312500e+00
-1.000291109085083008e+00 -6.450229644775390625e+00 -3.270765066146850586e+00 -2.165535211563110352e+00 2.853725194931030273e+00 -1.726267576217651367e+00 5.953163504600524902e-01 2.066591739654541016e+00 1.154251813888549805e+00 -9.859477877616882324e-01 9.685344099998474121e-01 1.116796612739562988e+00 1.279611978679895401e-02 -3.519183397293090820e+00 5.985563993453979492e-01 3.498223543167114258e+00 4.243988990783691406e-01 2.810499072074890137e-01 -1.947318911552429199e+00 -8.693994879722595215e-01 8.266440629959106445e-01 1.477128624916076660e+00 -4.588080942630767822e-01 4.334430217742919922e+00 1.969387531280517578e+00 -2.733343839645385742e+00 -1.954323291778564453e+00 6.030502542853355408e-02 -3.977319717407226562e+00 2.336893796920776367e+00 -2.512084722518920898e+00 -9.549756646156311035e-01 -1.514174222946166992e+00 7.300398312509059906e-03
3.299836814403533936e-01 -6.206829547882080078e-01 -1.656892776489257812e+00 9.101690053939819336e-01 7.412487864494323730e-01 -8.885256648063659668e-01 1.626930832862854004e+00 2.684401273727416992e+00 1.816880822181701660e+00 -2.778825044631958008e+00 -1.039977788925170898e+00 -4.951700866222381592e-01 1.513422012329101562e+00 1.062764048576354980e+00 1.567855238914489746e+00 1.251168489456176758e+00 -1.143826246261596680e+00 6.343949586153030396e-02 2.511362079530954361e-03 1.887623667716979980e+00 1.874385595321655273e+00 -3.778228908777236938e-02 -3.570259332656860352e+00 2.236658573150634766e+00 -3.407258510589599609e+00 -4.099896550178527832e-01 -3.271760463714599609e+00 -3.688297271728515625e+00 2.413727492094039917e-01 -1.504579782485961914e+00 5.993936657905578613e-01 -3.820098876953125000e+00 -9.085172787308692932e-03 -3.976532459259033203e+00
7.171355485916137695e-01 -4.260776042938232422e+00 -1.945528149604797363e+00 -4.154124855995178223e-01 3.626727342605590820e+00 2.843165874481201172e+00 -1.171332120895385742e+00 9.657647013664245605e-01 2.283510446548461914e+00 -8.298933506011962891e-01 3.484245061874389648e+00 -2.703452110290527344e+00 1.977202415466308594e+00 -2.449520111083984375e+00 -3.945406526327133179e-02 -5.155147910118103027e-01 9.256497025489807129e-01 -1.313905835151672363e+00 -2.377549409866333008e+00 5.849593877792358398e-01 -5.299076437950134277e-01 -3.223243713378906250e+00 -3.182763338088989258e+00 2.811613798141479492e+00 -1.137077093124389648e+00 -1.283371567726135254e+00 -2.254071474075317383e+00 -9.378687739372253418e-01 -2.541925668716430664e+00 3.165626227855682373e-01 1.400384426116943359e+00 3.563390493392944336e+00 9.638831019401550293e-01 -4.523899555206298828e+00
2.287286996841430664e+00 4.086049556732177734e+00 -2.238181591033935547e+00 -1.219018936157226562e+00 -1.695077657699584961e+00 -3.348994255065917969e+00 1.945250272750854492e+00 -9.945459365844726562e-01 1.562580615282058716e-01 -2.008938491344451904e-01 -1.061525106430053711e+00 -1.840370655059814453e+00 1.651375770568847656e+00 7.948616504669189453e+00 -2.544258117675781250e+00 -2.977221488952636719e+00 -1.109015941619873047e+00 2.453373670578002930e+00 1.336324930191040039e+00 -3.483828544616699219e+00 -8.407981991767883301e-01 2.939206957817077637e-01 -5.678396821022033691e-01 -1.121511220932006836e+00 6.042181849479675293e-01 2.747955024242401123e-01 -3.242989301681518555e+00 -3.062783241271972656e+00 -1.594928503036499023e+00 -1.594994425773620605e+00 1.149774432182312012e+00 -1.114863157272338867e+00 1.501190543174743652e+00 -3.628524839878082275e-01
1.981980651617050171e-01 6.530243158340454102e-01 9.295863509178161621e-01 5.121396064758300781e+00 -2.190975666046142578e+00 -1.980024576187133789e+00 -6.845351308584213257e-02 -4.288262367248535156e+00 -2.408139705657958984e-01 -5.311576724052429199e-01 1.060194373130798340e+00 -4.297565817832946777e-01 2.534455060958862305e+00 -1.107086062431335449e+00 -3.786640167236328125e+00 1.634426116943359375e+00 -1.052633047103881836e+00 -1.606600642204284668e+00 1.514223456382751465e+00 -3.081147193908691406e+00 2.905951976776123047e+00 2.526674032211303711e+00 -2.565774202346801758e+00 5.216479301452636719e-01 -2.637704849243164062e+00 3.125759065151214600e-01 -1.019355297088623047e+00 -1.096355319023132324e+00 -1.842886209487915039e+00 4.321144580841064453e+00 -8.548039793968200684e-01 -6.879071593284606934e-01 -1.005470991134643555e+00 -1.348949551582336426e+00
1.254886575043201447e-02 1.958218693733215332e+00 1.939649343490600586e+00 -5.130508542060852051e-02 2.083129584789276123e-01 -2.671116828918457031e+00 -7.815145254135131836e-01 -3.141323626041412354e-01 -2.974584102630615234e+00 3.000607967376708984e+00 3.385491132736206055e+00 -1.809576869010925293e+00 2.230669498443603516e+00 -1.077373743057250977e+00 -3.697083473205566406e+00 1.338063366711139679e-02 1.139766931533813477e+00 -3.682235956192016602e+00 -8.058278262615203857e-02 -8.917378783226013184e-01 -2.101823329925537109e+00 -1.035699248313903809e+00 -2.987963914871215820e+00 2.138364553451538086e+00 -5.488190427422523499e-02 4.452665805816650391e+00 5.773267745971679688e-01 -2.728484153747558594e+00 3.958487510681152344e+00 -1.391549706459045410e+00 -4.027307033538818359e-02 -4.673096656799316406e+00 8.898412585258483887e-01 -3.369225025177001953e+00
-2.656751394271850586e+00 -1.846862554550170898e+00 1.702817320823669434e+00 5.008899569511413574e-01 -4.765854835510253906e+00 1.201469659805297852e+00 -2.440766811370849609e+00 -9.541802406311035156e-01 -3.872162997722625732e-01 2.480937480926513672e+00 2.839773416519165039e+00 -1.279728412628173828e+00 5.096997737884521484e+00 3.417997062206268311e-02 -2.038149237632751465e-01 -2.526401758193969727e+00 -1.690705776214599609e+00 -1.448589801788330078e+00 -4.047852993011474609e+00 -1.861503720283508301e+00 7.204240560531616211e-01 1.970879316329956055e+00 3.282419204711914062e+00 -3.573224544525146484e+00 -7.694649696350097656e-01 -1.990785360336303711e+00 -1.132803678512573242e+00 1.928720027208328247e-01 3.202190250158309937e-02 -2.102780818939208984e+00 2.422503709793090820e+00 4.344818592071533203e-01 6.863657832145690918e-01 4.992830455303192139e-01
-1.051596283912658691e+00 -1.007185935974121094e+00 4.292702198028564453e+00 1.504433155059814453e+00 -2.252466678619384766e+00 -3.649287223815917969e-01 -2.321290016174316406e+00 7.332119345664978027e-01 5.943070054054260254e-01 8.547792434692382812e-01 -5.467771887779235840e-01 -6.683617591857910156e+00 1.470020055770874023e+00 9.846715331077575684e-01 -9.072694182395935059e-01 -1.862443089485168457e+00 -2.377111434936523438e+00 -3.174651384353637695e+00 -1.465044736862182617e+00 1.530918240547180176e+00 5.800753235816955566e-01 -6.609156131744384766e-01 -2.145378589630126953e+00 1.323350906372070312e+00 2.058025360107421875e+00 1.505096256732940674e-01 4.314121305942535400e-01 3.517551898956298828e+00 -3.860146701335906982e-01 -5.251355767250061035e-01 -1.829605221748352051e+00 5.256187915802001953e-01 3.996146321296691895e-01 -3.677636861801147461e+00
-3.808401107788085938e+00 3.597044944763183594e+00 -7.367109060287475586e-01 5.743480920791625977e-01 -1.267967104911804199e+00 4.987111687660217285e-01 -2.057404994964599609e+00 -1.933688759803771973e+00 -9.752611070871353149e-02 -6.129314303398132324e-01 8.891041278839111328e-01 -2.247091293334960938e+00 4.003149032592773438e+00 9.735823869705200195e-01 -1.833596467971801758e+00 8.688851594924926758e-01 -5.089671611785888672e+00 -1.056712388992309570e+00 -3.809117078781127930e-01 3.536790609359741211e-01 2.379711389541625977e+00 1.510452508926391602e+00 -2.854909375309944153e-02 -2.540969371795654297e+00 -1.238162159919738770e+00 1.045547500252723694e-01 -9.270431399345397949e-01 7.285846471786499023e-01 -7.373434305191040039e-01 1.791216254234313965e+00 1.167446970939636230e+00 7.104729413986206055e-01 -2.706233561038970947e-01 -4.390209197998046875e+00
-5.691835403442382812e+00 8.852275609970092773e-01 1.255165815353393555e+00 -4.698731899261474609e+00 -1.125154137611389160e+00 -1.665762066841125488e-01 -1.751099944114685059e+00 -1.391789913177490234e+00 1.315744996070861816e+00 -3.834886252880096436e-01 9.415385127067565918e-01 -6.121087074279785156e-01 6.181373000144958496e-01 -1.460054278373718262e+00 1.709919869899749756e-01 6.804441809654235840e-01 1.716428875923156738e+00 -1.403008222579956055e+00 4.715699553489685059e-01 3.901682376861572266e+00 1.306455850601196289e+00 2.959370017051696777e-01 -2.180846214294433594e+00 -4.428610950708389282e-02 4.429164826869964600e-01 8.092180490493774414e-01 9.835733175277709961e-01 -3.203751802444458008e+00 -1.117171764373779297e+00 6.936985850334167480e-01 -4.841883182525634766e+00 1.215705513954162598e+00 -1.230795860290527344e+00 8.391968607902526855e-01
-1.164394855499267578e+00 2.293213605880737305e+00 2.542670488357543945e+00 -1.824677586555480957e+00 -9.167268276214599609e-01 -3.416326045989990234e-01 -1.610114574432373047e+00 -3.333546161651611328e+00 -6.204467415809631348e-01 -1.784237861633300781e+00 1.999572157859802246e+00 -1.269835114479064941e+00 2.314399957656860352e+00 2.834414243698120117e+00 -2.229788064956665039e+00 -1.734166145324707031e+00 -5.304161310195922852e-01 -1.456762194633483887e+00 -3.340259075164794922e+00 3.638660192489624023e+00 -2.232921421527862549e-01 3.088564395904541016e+00 -3.454298496246337891e+00 -6.726585388183593750e+00 2.340360641479492188e+00 8.261550664901733398e-01 -2.635265827178955078e+00 -6.233217120170593262e-01 -1.145290017127990723e+00 1.947226166725158691e+00 3.654838800430297852e+00 -3.058708667755126953e+00 3.321130275726318359e+00 -6.028432250022888184e-01
1.521537661552429199e+00 -3.023684978485107422e+00 3.555996179580688477e+00 -1.073420643806457520e+00 -4.035285472869873047e+00 6.662831902503967285e-01 -3.039425373077392578e+00 7.775115966796875000e-01 5.068776130676269531e+00 -4.085938453674316406e+00 1.856530785560607910e+00 -1.237384676933288574e+00 4.096340179443359375e+00 -4.860320091247558594e-01 1.753714829683303833e-01 8.045312166213989258e-01 1.244690656661987305e+00 -1.783980429172515869e-01 2.267075777053833008e+00 -2.875604391098022461e+00 -4.725891113281250000e+00 -1.490779668092727661e-01 7.875022292137145996e-01 7.690343260765075684e-01 -1.030275464057922363e+00 -6.783113479614257812e-01 -3.517015695571899414e+00 -1.119321942329406738e+00 1.862454652786254883e+00 -9.374656081199645996e-01 -6.015909910202026367e-01 -4.161447048187255859e+00 4.835289418697357178e-01 1.609561681747436523e+00
5.366361141204833984e-01 -1.480277299880981445e+00 4.536527633666992188e+00 7.583906054496765137e-01 -3.080341577529907227e+00 -9.687880873680114746e-01 -1.950639039278030396e-01 2.042092323303222656e+00 2.842579841613769531e+00 -1.216105937957763672e+00 2.984040737152099609e+00 -1.615377783775329590e+00 1.941645503044128418e+00 7.195334434509277344e-01 -4.258305430412292480e-01 -5.174570560455322266e+00 -2.910988926887512207e-01 -4.005810737609863281e+00 -1.591163277626037598e+00 3.264164328575134277e-01 1.317055106163024902e+00 -1.816248655319213867e+00 -3.930200815200805664e+00 -1.805535316467285156e+00 -1.614035248756408691e+00 -1.065999627113342285e+00 4.697222411632537842e-01 4.657081365585327148e-01 -3.672573328018188477e+00 2.781272411346435547e+00 9.503146409988403320e-01 -1.855962276458740234e+00 2.495635509490966797e+00 1.828538328409194946e-01
1.401766091585159302e-01 -2.145282924175262451e-01 1.135787844657897949e+00 6.190602779388427734e-01 -5.233539104461669922e+00 1.639043807983398438e+00 -1.913918554782867432e-01 8.875635266304016113e-01 3.771361708641052246e-01 -1.681692600250244141e+00 3.194823265075683594e-01 1.201234102249145508e+00 3.816678762435913086e+00 -1.817050814628601074e+00 -1.649196505546569824e+00 -1.840222120285034180e+00 -3.377235174179077148e+00 -2.786905288696289062e+00 2.029134750366210938e+00 1.099731683731079102e+00 1.103806018829345703e+00 3.201319694519042969e+00 -4.650241374969482422e+00 -4.587215423583984375e+00 9.341083765029907227e-01 1.525828361511230469e+00 1.754488587379455566e+00 -4.897442832589149475e-02 1.410457491874694824e-01 1.908678412437438965e+00 -2.763094902038574219e+00 -3.262247800827026367e+00 -1.036329984664916992e+00 2.375477790832519531e+00
-2.042949646711349487e-01 2.591654956340789795e-01 -1.064796328544616699e+00 -3.432344436645507812e+00 -1.458693265914916992e+00 -2.727475404739379883e+00 -2.812787771224975586e+00 3.653349876403808594e+00 3.635808467864990234e+00 7.462328076362609863e-01 -4.654607295989990234e+00 2.421161651611328125e+00 2.155811309814453125e+00 2.668537616729736328e+00 -2.656340837478637695e+00 -2.310676336288452148e+00 1.002930164337158203e+00 -1.757609248161315918e+00 -3.494867086410522461e+00 3.508031368255615234e-01 2.070129871368408203e+00 -5.105299949645996094e-01 -1.475988626480102539e+00 -2.197261095046997070e+00 -1.824114918708801270e+00 -1.088252544403076172e+00 -1.182624697685241699e+00 1.156675815582275391e+00 1.127820134162902832e+00 3.022378206253051758e+00 -1.816961407661437988e+00 6.432399153709411621e-01 1.005545020103454590e+00 -9.079585075378417969e-01
-3.851745843887329102e+00 -1.448346853256225586e+00 2.549269676208496094e+00 -4.354429721832275391e+00 5.219337940216064453e-01 -1.670070290565490723e+00 -3.754618644714355469e+00 -1.622474044561386108e-01 1.539366126060485840e+00 1.556947469711303711e+00 -1.486267805099487305e+00 2.529078006744384766e+00 4.111717700958251953e+00 1.331570386886596680e+00 -7.595448940992355347e-02 -1.213778033852577209e-01 -7.493928670883178711e-01 -4.157793521881103516e+00 -1.121788263320922852e+00 7.388230562210083008e-01 1.563845157623291016e+00 -1.249582409858703613e+00 2.745276391506195068e-01 2.396604269742965698e-01 -1.829131722450256348e+00 5.667787551879882812e+00 -4.323512077331542969e+00 2.486435174942016602e+00 -2.975114107131958008e+00 -6.131720542907714844e-01 -3.544759750366210938e+00 1.033030748367309570e+00 -7.981081604957580566e-01 3.288012266159057617e+00
1.248430967330932617e+00 2.369872093200683594e+00 -1.399712443351745605e+00 2.540909051895141602e+00 -3.314043760299682617e+00 -3.132712841033935547e+00 2.050886392593383789e+00 -2.262552641332149506e-02 6.118649244308471680e-02 -2.551228284835815430e+00 2.975354194641113281e+00 -2.647232294082641602e+00 3.825856685638427734e+00 1.579361319541931152e+00 -1.530111432075500488e+00 -4.404849410057067871e-01 -1.459063768386840820e+00 -2.923020124435424805e+00 2.499026656150817871e-01 -1.247410655021667480e+00 8.611101508140563965e-01 -1.684709429740905762e+00 -5.128733634948730469e+00 1.367695331573486328e+00 9.354236125946044922e-01 7.798292040824890137e-01 -4.224231243133544922e+00 3.338616371154785156e+00 -2.587342739105224609e+00 -4.404137611389160156e+00 -1.398643732070922852e+00 1.357192397117614746e+00 5.900698304176330566e-01 2.981966495513916016e+00
7.006937861442565918e-01 1.652515679597854614e-01 -1.858282208442687988e+00 -3.006089448928833008e+00 -1.690992712974548340e+00 2.769239425659179688e+00 -4.710297882556915283e-01 3.309469223022460938e-01 2.623937606811523438e+00 -7.715730071067810059e-01 6.082767248153686523e-01 -7.749910354614257812e-01 3.778722047805786133e+00 1.583295822143554688e+00 -4.859190940856933594e+00 1.391910552978515625e+00 3.388926029205322266e+00 -1.372310519218444824e+00 -1.581340193748474121e+00 3.152984976768493652e-01 -8.910824656486511230e-01 -9.862865805625915527e-01 -3.520668268203735352e+00 -2.595339059829711914e+00 -3.498041868209838867e+00 5.994069576263427734e-01 -1.479895591735839844e+00 -3.199316263198852539e-01 4.025367259979248047e+00 2.279568910598754883e+00 -5.151836872100830078e-01 -2.819858074188232422e+00 -2.981502294540405273e+00 -6.247268244624137878e-02
-1.798493623733520508e+00 1.715420603752136230e+00 -2.112979888916015625e+00 1.243736147880554199e+00 -4.190757870674133301e-02 -1.358132243156433105e+00 -1.296344399452209473e+00 -1.176132321357727051e+00 -2.562011718750000000e+00 2.805668354034423828e+00 -3.636323213577270508e-01 -3.749570369720458984e+00 4.891997814178466797e+00 -6.524532437324523926e-01 -1.574867486953735352e+00 -3.598180294036865234e+00 -1.959066271781921387e+00 -2.362399816513061523e+00 -3.891001224517822266e+00 4.366277754306793213e-01 6.504983901977539062e-01 1.970636963844299316e+00 -2.225317001342773438e+00 -7.351092100143432617e-01 9.678595662117004395e-01 3.903343915939331055e+00 6.389965415000915527e-01 -3.015127182006835938e+00 6.008029580116271973e-01 1.259231090545654297e+00 -1.418545484542846680e+00 7.165416330099105835e-02 2.453164577484130859e+00 -1.383085012435913086e+00
-3.331399679183959961e+00 2.513989448547363281e+00 -1.573739528656005859e+00 -7.906465530395507812e-01 -1.381699800491333008e+00 -2.445610523223876953e+00 2.016041994094848633e+00 -2.198981046676635742e+00 1.709027051925659180e+00 -5.923342704772949219e-01 -1.465197324752807617e+00 -1.178585171699523926e+00 6.445395350456237793e-01 3.008480072021484375e+00 1.470255374908447266e+00 -1.012599229812622070e+00 -3.120047807693481445e+00 -1.681156396865844727e+00 -1.327582716941833496e+00 1.841771006584167480e+00 1.097909435629844666e-01 -2.812115192413330078e+00 9.265795946121215820e-01 4.156030654907226562e+00 1.392128586769104004e+00 -1.738447070121765137e+00 2.255316972732543945e+00 -3.885511755943298340e-01 3.046344757080078125e+00 -3.447766065597534180e+00 -1.003324031829833984e+00 4.321846365928649902e-01 -3.674594163894653320e+00 -1.626903891563415527e+00
-9.689110517501831055e-01 -2.039326906204223633e+00 1.855551123619079590e+00 -2.366027832031250000e+00 1.816416680812835693e-01 2.826485335826873779e-01 2.781782388687133789e+00 3.295724093914031982e-01 2.220566421747207642e-01 4.621763706207275391e+00 1.657344460487365723e+00 -3.176443576812744141e+00 3.112248659133911133e+00 -2.475417451933026314e-03 -1.787333965301513672e+00 -1.949960708618164062e+00 2.195552825927734375e+00 -2.628776311874389648e+00 -3.177338600158691406e+00 6.050337553024291992e-01 -3.350796937942504883e+00 1.394709944725036621e+00 -1.390810012817382812e+00 -3.345334231853485107e-01 -1.582486748695373535e+00 3.992635607719421387e-01 -3.622928857803344727e+00 -2.968055486679077148e+00 5.852023959159851074e-01 -3.800822973251342773e+00 1.367076396942138672e+00 -2.155988931655883789e+00 5.763817429542541504e-01 3.196195602416992188e+00
-1.279486775398254395e+00 -3.293430805206298828e-01 3.285464525222778320e+00 -3.240307569503784180e+00 -8.926555514335632324e-01 2.261958837509155273e+00 4.984801292419433594e+00 -2.839348793029785156e+00 1.031859278678894043e+00 7.694946229457855225e-02 2.327634811401367188e+00 -8.020650595426559448e-02 1.884004950523376465e+00 2.194515466690063477e+00 -3.028933525085449219e+00 2.450067996978759766e+00 -7.904981970787048340e-01 2.295552253723144531e+00 -1.697543859481811523e+00 7.655165195465087891e-01 1.148164868354797363e+00 -4.701918601989746094e+00 -5.731214284896850586e-01 -2.893473863601684570e+00 -3.427142620086669922e+00 1.266247510910034180e+00 -9.323412179946899414e-01 -1.027148365974426270e+00 -1.249402880668640137e+00 -3.334073781967163086e+00 -2.557032346725463867e+00 -2.459441125392913818e-01 2.553497791290283203e+00 -3.881434202194213867e+00
1.449085593223571777e+00 -6.680002212524414062e-01 3.295166015625000000e+00 -1.763778209686279297e+00 -3.355470657348632812e+00 -1.566969037055969238e+00 1.498427152633666992e+00 3.982198536396026611e-01 1.530284523963928223e+00 1.295919656753540039e+00 -6.653475165367126465e-01 3.849989891052246094e+00 -6.018064022064208984e-01 -2.604027748107910156e+00 -3.464779853820800781e+00 9.703726321458816528e-02 1.393237411975860596e-01 -2.840743064880371094e+00 -1.454951018095016479e-01 3.516553401947021484e+00 -2.625127315521240234e+00 -1.609048843383789062e+00 -6.855617761611938477e-01 4.955800473690032959e-01 3.400229454040527344e+00 -3.750177025794982910e-01 -4.960796356201171875e+00 8.642793893814086914e-01 -2.012205123901367188e+00 2.983321547508239746e-01 1.468360900878906250e+00 -4.192287445068359375e+00 -9.977017045021057129e-01 4.487849473953247070e-01
3.837719559669494629e-01 4.622589945793151855e-01 -5.249743461608886719e+00 -1.081028103828430176e+00 2.542333006858825684e-01 -1.501719206571578979e-01 2.359093427658081055e+00 -4.572442531585693359e+00 -3.075104951858520508e-01 -3.253162205219268799e-01 -2.085669664666056633e-03 9.484311342239379883e-01 -1.630173444747924805e+00 5.148306488990783691e-01 -1.390963912010192871e+00 -1.066204547882080078e+00 2.573554754257202148e+00 -1.386000871658325195e+00 -2.535509765148162842e-01 2.456748485565185547e+00 -2.663419246673583984e+00 -2.529649257659912109e+00 -2.458827793598175049e-01 -2.547081708908081055e+00 2.840185880661010742e+00 -1.078597307205200195e+00 1.872340440750122070e+00 -2.409186363220214844e+00 7.006169557571411133e-01 1.827222824096679688e+00 2.601957321166992188e+00 -1.976600408554077148e+00 -3.991230249404907227e+00 1.948158264160156250e+00
-2.946933507919311523e+00 8.382000327110290527e-01 -3.456085681915283203e+00 2.121166706085205078e+00 -3.983512163162231445e+00 -2.036291122436523438e+00 -2.680070638656616211e+00 -9.295391440391540527e-01 3.823842406272888184e-01 4.142258644104003906e+00 -1.296103715896606445e+00 1.839831113815307617e+00 -8.644952178001403809e-01 -1.054594635963439941e+00 -3.474209547042846680e+00 -2.227222919464111328e+00 5.674764886498451233e-02 1.624180555343627930e+00 1.151874303817749023e+00 -1.367593169212341309e+00 -9.790975451469421387e-01 1.114129185676574707e+00 -1.785177826881408691e+00 -3.351254761219024658e-01 -1.913971662521362305e+00 -2.691155433654785156e+00 4.394139766693115234e+00 -2.732390880584716797e+00 2.047374486923217773e+00 2.068197965621948242e+00 -7.654342055320739746e-01 2.328912973403930664e+00 -1.174809694290161133e+00 2.933019399642944336e+00
-5.280281543731689453e+00 1.683286190032958984e+00 -2.974854946136474609e+00 2.143143177032470703e+00 -7.193798422813415527e-01 -2.773594141006469727e+00 1.981728434562683105e+00 -4.491746127605438232e-01 -3.441950082778930664e+00 -2.750969648361206055e+00 -1.844338178634643555e+00 1.538097500801086426e+00 -4.339694976806640625e+00 2.820570468902587891e+00 9.257717728614807129e-01 -1.862418770790100098e+00 1.938469886779785156e+00 -6.077018380165100098e-01 9.014077782630920410e-01 8.986580371856689453e-01 -1.946795701980590820e+00 -1.257397174835205078e+00 7.886750102043151855e-01 -6.326189637184143066e-01 -1.385472178459167480e+00 -3.567453384399414062e+00 -8.987771272659301758e-01 2.751826047897338867e+00 -2.699478149414062500e+00 9.958182573318481445e-01 3.767730712890625000e+00 -6.374637484550476074e-01 2.753935337066650391e+00 1.248183369636535645e+00
-2.955497026443481445e+00 -2.856007516384124756e-01 2.204494237899780273e+00 -1.554863572120666504e+00 -2.351033449172973633e+00 7.485524415969848633e-01 3.515552282333374023e+00 -4.040767192840576172e+00 -1.079302310943603516e+00 -4.545088291168212891e+00 -4.461979959160089493e-03 1.622869372367858887e+00 -2.874200344085693359e+00 1.109002709388732910e+00 -2.880040168762207031e+00 -6.919984817504882812e-01 -3.662227988243103027e-01 2.580220699310302734e+00 -1.699429303407669067e-01 1.853146791458129883e+00 1.513025522232055664e+00 -7.204605638980865479e-02 2.771493196487426758e+00 -8.309223055839538574e-01 5.780003666877746582e-01 1.571422696113586426e+00 3.359939455986022949e-01 1.794614672660827637e+00 -3.967563867568969727e+00 4.017666816711425781e+00 -1.866084814071655273e+00 -1.276222944259643555e+00 -2.930034637451171875e+00 -2.613209486007690430e+00
4.476260542869567871e-01 -2.973389148712158203e+00 -2.066787719726562500e+00 -2.631101369857788086e+00 -2.569032430648803711e+00 -2.867156028747558594e+00 8.774248361587524414e-01 -1.659035682678222656e+00 -2.634150981903076172e-01 -2.811913192272186279e-01 4.084860384464263916e-01 6.361697673797607422e+00 -1.978435635566711426e+00 3.139323294162750244e-01 6.381392478942871094e-01 -2.193894624710083008e+00 3.237386226654052734e+00 3.034345149993896484e+00 7.548392415046691895e-01 2.023575305938720703e-01 -8.465684056282043457e-01 -3.566231966018676758e+00 -1.728991270065307617e+00 -2.638533592224121094e+00 1.128513336181640625e+00 -5.168575286865234375e+00 2.524893999099731445e+00 9.466584324836730957e-01 3.314890265464782715e-01 1.866404533386230469e+00 2.529079914093017578e+00 -1.630622625350952148e+00 -1.451253175735473633e+00 -1.764186859130859375e+00
-3.683420419692993164e+00 -1.263517618179321289e+00 -2.127330541610717773e+00 -6.350923180580139160e-01 2.351125031709671021e-01 9.279491901397705078e-01 8.687515258789062500e-01 -1.229786634445190430e+00 -1.506228446960449219e+00 3.306753635406494141e-01 -1.170168519020080566e+00 4.452403068542480469e+00 -2.973710000514984131e-01 1.294030785560607910e+00 -4.254103660583496094e+00 -7.943210005760192871e-01 7.447990775108337402e-02 -2.197324275970458984e+00 -3.149235248565673828e-01 -1.663538813591003418e+00 -2.525900840759277344e+00 2.530677556991577148e+00 -6.694304466247558594e+00 1.746841788291931152e+00 1.424715757369995117e+00 9.505133032798767090e-01 -8.413767814636230469e-01 4.538467824459075928e-01 -2.197132587432861328e+00 -6.146811842918395996e-01 1.832667231559753418e+00 1.034821987152099609e+00 2.826363444328308105e-01 4.357085704803466797e+00
-6.687822341918945312e-01 -9.979911446571350098e-01 2.284013748168945312e+00 -1.595228791236877441e+00 -2.121497392654418945e+00 -1.029765844345092773e+00 8.707427978515625000e-01 4.093957841396331787e-01 -9.615435600280761719e-01 4.240991175174713135e-01 9.352986812591552734e-01 1.811150550842285156e+00 -4.626262187957763672e+00 -4.388260543346405029e-01 4.328975081443786621e-01 -5.318188071250915527e-01 -1.066676974296569824e+00 -8.794354200363159180e-01 2.518148183822631836e+00 -4.088500976562500000e+00 -2.429424047470092773e+00 -2.803646326065063477e+00 -1.990406066179275513e-01 1.455672830343246460e-01 4.152197837829589844e+00 1.992725491523742676e+00 1.037010192871093750e+00 -2.110468626022338867e+00 -5.736713409423828125e-01 9.306864142417907715e-01 3.647742748260498047e+00 2.498789548873901367e+00 -4.032692432403564453e+00 -2.204274892807006836e+00
-2.591373920440673828e+00 1.048522353172302246e+00 1.214323878288269043e+00 -5.819488763809204102e-01 -7.685759663581848145e-01 -3.564113974571228027e-01 8.827118277549743652e-01 -4.855777263641357422e+00 -2.379403829574584961e+00 1.552447080612182617e+00 -2.672053575515747070e+00 3.203075408935546875e+00 -1.131516933441162109e+00 -3.121209442615509033e-01 -1.126895189285278320e+00 -1.072146058082580566e+00 -4.852440953254699707e-02 -2.996096312999725342e-01 -2.851104259490966797e+00 -1.883388519287109375e+00 2.285928964614868164e+00 -2.448852777481079102e+00 -2.326336145401000977e+00 -2.655944824218750000e-01 -4.491020739078521729e-01 -2.716875076293945312e+00 4.335259497165679932e-01 -2.797608852386474609e+00 -3.085221767425537109e+00 6.135358333587646484e+00 3.931179285049438477e+00 1.666478276252746582e+00 9.707885980606079102e-01 1.227799773216247559e+00
-1.812660813331604004e+00 -7.614067196846008301e-01 1.906619191169738770e+00 -5.412037372589111328e-01 2.458724260330200195e+00 -6.592346191406250000e+00 -1.919330239295959473e+00 -2.554004669189453125e+00 -1.885169029235839844e+00 1.029475688934326172e+00 3.463113307952880859e+00 6.199072673916816711e-02 -3.993403315544128418e-01 3.827166259288787842e-01 1.662083745002746582e+00 -1.075710654258728027e+00 1.574563622474670410e+00 -3.628060817718505859e-01 6.774976849555969238e-01 2.395910024642944336e+00 4.010835587978363037e-01 -1.366967082023620605e+00 -3.485201120376586914e+00 -1.090274930000305176e+00 -3.767096757888793945e+00 -1.044964194297790527e+00 2.938999176025390625e+00 4.320361912250518799e-01 -1.315292239189147949e+00 -2.434446096420288086e+00 3.792021512985229492e+00 1.688967704772949219e+00 -2.586104571819305420e-01 -4.649584293365478516e+00
-6.413125038146972656e+00 1.359395503997802734e+00 3.373286724090576172e+00 -1.981246590614318848e+00 2.911080718040466309e-01 -1.442383050918579102e+00 -7.424112558364868164e-01 -6.494843959808349609e-01 -1.060122489929199219e+00 3.551433563232421875e+00 -8.311678171157836914e-01 8.214997649192810059e-01 -1.018460392951965332e+00 9.800565838813781738e-01 1.749125242233276367e+00 -3.645814418792724609e+00 -1.986877679824829102e+00 2.059492111206054688e+00 6.972720026969909668e-01 -6.143519878387451172e-01 -3.938647270202636719e+00 -6.018979549407958984e+00 2.346314638853073120e-01 2.251388072967529297e+00 -1.967371106147766113e+00 -1.191486954689025879e+00 2.882702827453613281e+00 -1.778652191162109375e+00 1.428951382637023926e+00 4.071024417877197266e+00 -5.516038835048675537e-02 -3.735248804092407227e+00 1.187095403671264648e+00 8.549331426620483398e-01
-1.376715779304504395e+00 -4.620985090732574463e-01 9.986603856086730957e-01 -3.080308675765991211e+00 -1.028861641883850098e+00 1.390795230865478516e+00 1.672591686248779297e+00 -1.739125967025756836e+00 -1.278758764266967773e+00 -2.809602260589599609e+00 -1.614316821098327637e+00 2.710799455642700195e+00 -2.358795166015625000e+00 -2.202745437622070312e+00 -1.401987791061401367e+00 -2.987734317779541016e+00 -1.043045997619628906e+00 9.442827105522155762e-02 -2.468153238296508789e+00 -1.923068284988403320e+00 1.425763487815856934e+00 -1.200431942939758301e+00 1.700353145599365234e+00 1.448506832122802734e+00 -1.628825068473815918e+00 1.152481794357299805e+00 1.904860377311706543e+00 4.098927974700927734e+00 -4.919016361236572266e-01 -1.460555791854858398e+00 3.636251211166381836e+00 -2.521764114499092102e-02 -4.254170894622802734e+00 1.336778759956359863e+00
-1.355052590370178223e-01 -2.326470375061035156e+00 -6.636518239974975586e-01 -2.170194387435913086e+00 1.256021261215209961e-01 4.077834188938140869e-01 5.520281195640563965e-01 -1.561109662055969238e+00 1.531049489974975586e+00 -4.069854736328125000e+00 3.006505489349365234e+00 1.211857438087463379e+00 -3.966745138168334961e+00 -1.089572310447692871e+00 -3.576669216156005859e+00 -4.567750930786132812e+00 -2.486619651317596436e-01 3.255524873733520508e+00 -1.462087154388427734e+00 -2.955099821090698242e+00 -2.280752420425415039e+00 1.367798924446105957e+00 -1.212406083941459656e-01 5.842507481575012207e-01 1.180034995079040527e+00 1.563989877700805664e+00 7.990534305572509766e-01 -1.800768852233886719e+00 1.935170650482177734e+00 -8.075713515281677246e-01 2.906192541122436523e+00 -1.209796071052551270e+00 -1.476825214922428131e-02 2.128849029541015625e+00
-2.558792829513549805e+00 1.319149374961853027e+00 2.250412464141845703e+00 -6.592977046966552734e-01 -3.196575641632080078e+00 -6.002454757690429688e+00 7.149941325187683105e-01 -2.847901105880737305e+00 -9.059363603591918945e-01 -2.324427843093872070e+00 -3.483777940273284912e-01 3.169899463653564453e+00 -2.570274353027343750e+00 -1.416125059127807617e+00 1.393282294273376465e+00 2.148888856172561646e-01 2.580209076404571533e-01 1.736375451087951660e+00 -1.808072566986083984e+00 1.561618089675903320e+00 -2.820426464080810547e+00 -2.371593475341796875e+00 1.157635569572448730e+00 -4.840875566005706787e-01 1.951691150665283203e+00 -5.986495018005371094e-01 2.118084430694580078e+00 6.489399075508117676e-01 4.468971729278564453e+00 -2.076976537704467773e+00 6.853178143501281738e-01 -1.339469194412231445e+00 -7.360524535179138184e-01 -9.488888382911682129e-01
-4.779148399829864502e-01 -5.768359899520874023e-01 3.011671066284179688e+00 1.076280355453491211e+00 -2.932268857955932617e+00 -1.325966596603393555e+00 -1.760603189468383789e+00 1.300335049629211426e+00 -1.226659417152404785e+00 8.495150804519653320e-01 -2.498078823089599609e+00 -1.805978119373321533e-01 -1.310061454772949219e+00 -2.204863309860229492e+00 1.094209790229797363e+00 -3.838035106658935547e+00 -2.153281927108764648e+00 3.160515546798706055e+00 -2.856774568557739258e+00 -9.567151069641113281e-01 -1.125524878501892090e+00 -3.219462871551513672e+00 -2.174699753522872925e-01 8.450449109077453613e-01 -1.340813755989074707e+00 -2.305742166936397552e-02 5.945230126380920410e-01 -3.589289665222167969e+00 -3.617369651794433594e+00 1.198512390255928040e-01 2.854418277740478516e+00 1.971070647239685059e+00 3.832796573638916016e+00 4.180891990661621094e+00
-2.264908313751220703e+00 -2.128327131271362305e+00 6.359075903892517090e-01 -2.109495162963867188e+00 4.720194637775421143e-01 -9.358922839164733887e-01 1.666047811508178711e+00 -1.684550523757934570e+00 -3.480173826217651367e+00 -1.887820482254028320e+00 -3.134648323059082031e+00 2.954922616481781006e-01 -2.645444154739379883e+00 -1.359079003334045410e+00 3.769037485122680664e+00 -3.856934070587158203e+00 -1.838117122650146484e+00 1.355026841163635254e+00 -1.149782180786132812e+00 -2.040932416915893555e+00 4.854668140411376953e+00 -1.939289093017578125e+00 -3.024545192718505859e+00 3.653024733066558838e-01 1.663310378789901733e-01 3.354829788208007812e+00 2.572846174240112305e+00 6.763445585966110229e-02 6.944072246551513672e-01 3.126954555511474609e+00 2.810814082622528076e-01 8.417624831199645996e-01 1.976613879203796387e+00 -2.366623878479003906e+00
-1.944571018218994141e+00 1.062274456024169922e+00 -1.020015001296997070e+00 -1.499459862709045410e+00 -1.969910621643066406e+00 -2.297093868255615234e+00 -1.136092424392700195e+00 -3.322608470916748047e+00 -3.156538963317871094e+00 -1.540879607200622559e+00 -2.119523286819458008e+00 4.019608020782470703e+00 -2.057058572769165039e+00 4.662674427032470703e+00 2.017201930284500122e-01 -2.308975696563720703e+00 -2.037171840667724609e+00 -3.238230645656585693e-01 3.361080288887023926e-01 3.777402043342590332e-01 -1.489981412887573242e+00 3.681164503097534180e+00 -3.895104646682739258e+00 3.372676074504852295e-01 2.454009532928466797e+00 1.022160887718200684e+00 9.819548130035400391e-01 1.434912979602813721e-01 -5.867735147476196289e-01 -2.781352519989013672e+00 7.270077466964721680e-01 -1.605871438980102539e+00 3.789143562316894531e+00 7.467338442802429199e-01
-8.903433084487915039e-01 -2.697410106658935547e+00 -1.310154438018798828e+00 2.439521312713623047e+00 -8.002710938453674316e-01 -1.443706512451171875e+00 -1.687247633934020996e+00 2.252099514007568359e-01 3.305204808712005615e-01 -1.583906412124633789e+00 -2.680026054382324219e+00 1.336946785449981689e-01 -2.301496505737304688e+00 -8.998401165008544922e-01 -5.301497578620910645e-01 -2.445847690105438232e-01 -9.934508800506591797e-01 -1.251021265983581543e+00 3.573197126388549805e+00 -5.667328238487243652e-01 -7.190828323364257812e-01 1.052651524543762207e+00 -2.033728122711181641e+00 -1.038731098175048828e+00 -1.562608599662780762e+00 2.658299446105957031e+00 3.243943929672241211e+00 -1.098409891128540039e+00 -2.035928010940551758e+00 -1.638970613479614258e+00 2.623314619064331055e+00 1.917020797729492188e+00 -1.522134780883789062e+00 1.973319768905639648e+00
8.234212994575500488e-01 1.249031305313110352e+00 3.938206136226654053e-01 2.040777444839477539e+00 1.332513213157653809e+00 -7.881471514701843262e-02 -1.405774950981140137e+00 -1.794807076454162598e+00 -3.538837909698486328e+00 2.806228399276733398e+00 -7.562504410743713379e-01 2.621382474899291992e-01 -5.328913927078247070e-01 -1.658226847648620605e+00 -1.327241897583007812e+00 -1.316082119941711426e+00 3.937574386596679688e+00 1.173094034194946289e+00 -9.203177094459533691e-01 -1.870324373245239258e+00 -1.123053789138793945e+00 -3.616505622863769531e+00 -7.486965060234069824e-01 1.768451929092407227e+00 -2.238235950469970703e+00 -1.469443678855895996e+00 7.074118256568908691e-01 -1.154274582862854004e+00 -4.711949825286865234e+00 2.096183300018310547e+00 -4.406873881816864014e-01 4.270396232604980469e+00 -5.039308071136474609e+00 -2.886245846748352051e-01
-1.689277768135070801e+00 2.017581701278686523e+00 1.514901161193847656e+00 -1.753238797187805176e+00 5.339118242263793945e-01 -1.426976174116134644e-01 4.887607395648956299e-01 -8.356033563613891602e-01 -2.171570539474487305e+00 -1.309525489807128906e+00 -2.473553895950317383e+00 7.210530638694763184e-01 -3.067659378051757812e+00 -7.518545985221862793e-01 3.326218366622924805e+00 -5.353939533233642578e+00 1.353764295578002930e+00 -5.825482606887817383e-01 3.759341955184936523e+00 1.544718146324157715e+00 -9.659196734428405762e-01 -7.814530730247497559e-01 -2.420355796813964844e+00 4.318673014640808105e-01 -2.141970872879028320e+00 -2.903670966625213623e-01 1.612220764160156250e+00 1.399698257446289062e+00 -2.711665868759155273e+00 -4.495586872100830078e+00 3.245301961898803711e+00 -1.395228862762451172e+00 6.315718293190002441e-01 6.867245435714721680e-01
-3.467951297760009766e+00 -4.441447556018829346e-02 2.738774299621582031e+00 -1.109693527221679688e+00 -2.367057800292968750e+00 -1.011407136917114258e+00 -3.645188093185424805e+00 1.655256390571594238e+00 -4.615213394165039062e+00 -4.275698363780975342e-01 -6.653704047203063965e-01 5.779982089996337891e+00 -1.298689007759094238e+00 -4.518282413482666016e+00 -1.644674390554428101e-01 -9.634169936180114746e-01 3.704332113265991211e+00 1.586965918540954590e+00 2.926643133163452148e+00 -3.077550888061523438e+00 -1.698542684316635132e-01 -3.334545195102691650e-01 -1.170963644981384277e+00 1.037100315093994141e+00 2.733388841152191162e-01 -2.711579322814941406e+00 -2.416489839553833008e+00 1.734297633171081543e+00 -2.871985435485839844e-01 -5.089949965476989746e-01 2.724871873855590820e+00 2.139964252710342407e-01 3.575404584407806396e-01 -1.618048787117004395e+00
-1.507957220077514648e+00 1.327397584915161133e+00 -2.574582815170288086e+00 -2.377791106700897217e-01 7.123769819736480713e-02 -2.613851070404052734e+00 4.197689056396484375e+00 -8.799381852149963379e-01 1.544661402702331543e+00 1.817821383476257324e+00 -2.869528055191040039e+00 -1.893772602081298828e+00 -2.361165285110473633e+00 -3.875368118286132812e+00 -2.526806116104125977e+00 -3.126745939254760742e+00 -2.027189016342163086e+00 2.115825563669204712e-01 2.795546650886535645e-01 -2.180400133132934570e+00 -3.273334741592407227e+00 2.395446777343750000e+00 3.464097976684570312e-01 3.785572052001953125e+00 8.526483178138732910e-01 5.428855419158935547e-01 4.351545572280883789e-01 -1.864666819572448730e+00 9.779008030891418457e-01 -2.678210437297821045e-01 -1.840835452079772949e+00 -2.213622927665710449e-01 4.016456127166748047e+00 6.043995022773742676e-01
8.592600226402282715e-01 2.140286207199096680e+00 1.470174074172973633e+00 4.039390087127685547e-01 5.896720886230468750e-01 1.539446473121643066e+00 -1.280729770660400391e+00 3.705074787139892578e+00 -2.014916658401489258e+00 5.157086849212646484e-01 -5.366881370544433594e+00 3.613057434558868408e-01 -1.289304852485656738e+00 -3.819128274917602539e+00 -2.854422330856323242e+00 3.949433565139770508e+00 -2.232190132141113281e+00 1.385178446769714355e+00 -1.764211356639862061e-01 -6.997107267379760742e-01 1.351927638053894043e+00 -2.910647392272949219e+00 2.111505746841430664e+00 -1.117299869656562805e-01 -1.226785182952880859e-01 -2.952673733234405518e-01 -6.458296179771423340e-01 -2.644067049026489258e+00 -1.952003717422485352e+00 -9.615454077720642090e-01 -5.082970619201660156e+00 -8.244099020957946777e-01 1.324836850166320801e+00 1.122702240943908691e+00
-2.214660197496414185e-01 -1.123589515686035156e+00 -9.622200727462768555e-01 -4.544233798980712891e+00 2.020220279693603516e+00 9.655454009771347046e-02 3.803186178207397461e+00 -8.224333077669143677e-02 3.026180744171142578e+00 1.023737549781799316e+00 1.338984370231628418e-01 -1.282798647880554199e+00 -2.080420732498168945e+00 -3.698034763336181641e+00 -1.819885730743408203e+00 -2.065473794937133789e+00 7.337407022714614868e-02 1.006662011146545410e+00 -1.844498515129089355e-01 -3.086836338043212891e+00 -3.168720006942749023e+00 -1.262109160423278809e+00 4.176946282386779785e-01 1.639705657958984375e+00 1.240638345479965210e-01 6.138395667076110840e-01 6.707578301429748535e-01 1.983199000358581543e+00 2.538392543792724609e-01 -5.649880170822143555e-01 -1.324117630720138550e-01 -3.053785562515258789e+00 4.653687477111816406e+00 -3.421954870223999023e+00
-2.431698083877563477e+00 3.879326581954956055e+00 6.519590318202972412e-02 -1.846901774406433105e+00 3.648646831512451172e+00 2.503075838088989258e+00 5.648658275604248047e-01 1.534066647291183472e-01 3.333349823951721191e-01 8.831802010536193848e-01 -2.213422060012817383e+00 -2.559165239334106445e+00 -4.567355215549468994e-01 -4.558553695678710938e+00 -8.527378439903259277e-01 -6.088656187057495117e-01 1.341196775436401367e+00 -1.733287811279296875e+00 5.757144689559936523e-01 9.799019098281860352e-01 -3.718812942504882812e+00 -3.942303061485290527e-01 1.492328882217407227e+00 -2.902760744094848633e+00 -2.637651860713958740e-01 3.592458069324493408e-01 -3.856873035430908203e+00 4.808157384395599365e-01 -3.558990240097045898e+00 1.296782642602920532e-01 2.422814846038818359e+00 9.754045605659484863e-01 -1.601418614387512207e+00 3.107776343822479248e-01
-3.283605575561523438e+00 2.688441514968872070e+00 2.467429399490356445e+00 1.135609030723571777e+00 1.075939774513244629e+00 1.116664052009582520e+00 -4.755009412765502930e-01 2.481648921966552734e+00 2.711815595626831055e+00 -3.951888799667358398e+00 -2.986948192119598389e-01 -4.108844757080078125e+00 -9.913471341133117676e-01 -3.469892501831054688e+00 -2.968060970306396484e+00 5.101163387298583984e-01 -2.731003999710083008e+00 2.692963555455207825e-02 -4.193793535232543945e-01 -1.058865785598754883e+00 -4.126760482788085938e+00 -3.636668026447296143e-01 -3.345242515206336975e-02 1.929868757724761963e-02 -7.752133607864379883e-01 3.260997772216796875e+00 1.714659810066223145e+00 1.207185387611389160e+00 -2.975361824035644531e+00 8.895195722579956055e-01 -3.385554552078247070e+00 2.408468008041381836e+00 9.372422099113464355e-01 -3.250476121902465820e-01
3.244704008102416992e+00 -1.273491978645324707e+00 -1.394450187683105469e+00 -1.765946507453918457e+00 -1.954965472221374512e+00 -1.995038390159606934e+00 -2.652272224426269531e+00 2.134537696838378906e+00 5.436261892318725586e-01 -2.599545240402221680e+00 -2.465366363525390625e+00 1.595738679170608521e-01 -6.550723314285278320e-01 -2.074285507202148438e+00 -1.797226786613464355e+00 -9.636518955230712891e-01 9.092410653829574585e-02 3.681071281433105469e+00 7.575581669807434082e-01 8.961594849824905396e-02 -2.837890386581420898e+00 4.573292136192321777e-01 2.033587217330932617e+00 6.420739293098449707e-01 1.344884037971496582e+00 -1.387473940849304199e+00 -1.436423540115356445e+00 -2.415673494338989258e+00 1.166209951043128967e-02 -7.954583764076232910e-01 -2.420198202133178711e+00 -1.433357119560241699e+00 2.755297422409057617e+00 1.411293506622314453e+00
1.709321022033691406e+00 -1.602685928344726562e+00 9.441406130790710449e-01 7.331018447875976562e-01 1.636998504400253296e-01 -2.105282247066497803e-01 8.414635062217712402e-01 2.221863508224487305e+00 7.451049089431762695e-01 9.387875795364379883e-01 2.664641618728637695e+00 2.203248739242553711e+00 -1.012551665306091309e+00 1.582095772027969360e-01 -2.618003368377685547e+00 -7.846805453300476074e-01 -3.336612224578857422e+00 -2.718395233154296875e+00 1.762757182121276855e+00 -4.939960956573486328e+00 -1.690846204757690430e+00 9.345402121543884277e-01 -3.887072503566741943e-01 1.164056777954101562e+00 -2.835321187973022461e+00 -5.636077001690864563e-02 3.616293191909790039e+00 -3.585228323936462402e-01 -5.601309299468994141e+00 -2.804806232452392578e+00 -2.218455553054809570e+00 1.540525197982788086e+00 3.160892009735107422e+00 -3.044066429138183594e+00
-1.107324600219726562e+00 1.049727678298950195e+00 8.816722631454467773e-01 -2.992295920848846436e-01 -8.412229418754577637e-01 -1.077266573905944824e+00 -3.332998752593994141e+00 1.111244320869445801e+00 -2.205687284469604492e+00 3.038819432258605957e-01 -7.577311396598815918e-01 -4.282873630523681641e+00 -7.199783325195312500e-01 -4.856210947036743164e-01 -2.430468559265136719e+00 1.382618308067321777e+00 2.461763024330139160e-01 1.855168104171752930e+00 5.644671440124511719e+00 -1.673520803451538086e+00 -6.273758888244628906e+00 3.823154687881469727e+00 3.550393104553222656e+00 -1.378152370452880859e+00 -9.777389168739318848e-01 -1.707099437713623047e+00 -1.049831151962280273e+00 5.144557356834411621e-01 -2.687832117080688477e+00 9.540317952632904053e-02 1.627421677112579346e-01 -4.984354972839355469e-01 2.464714527130126953e+00 -8.209415674209594727e-01
-4.450798034667968750e+00 3.931352376937866211e+00 -7.200209617614746094e+00 -3.460988998413085938e-01 -1.142396450042724609e+00 2.658648967742919922e+00 -6.038950681686401367e-01 3.041344642639160156e+00 2.151610851287841797e+00 9.268078207969665527e-01 -5.208271145820617676e-01 1.075100079178810120e-01 -2.017428159713745117e+00 -1.533429384231567383e+00 -3.827704191207885742e+00 1.801480889320373535e+00 -1.534801840782165527e+00 3.691656589508056641e-01 1.995025515556335449e+00 4.165401160717010498e-01 -1.674075722694396973e+00 -4.043394565582275391e+00 -5.898736715316772461e-01 1.408582776784896851e-01 3.163095235824584961e+00 -2.992399930953979492e+00 -1.293829381465911865e-01 -2.070311754941940308e-01 -1.175678253173828125e+00 2.710933446884155273e+00 -1.214555978775024414e+00 1.080785036087036133e+00 2.284398078918457031e-01 5.789690837264060974e-02
9.644596576690673828e-01 8.885866403579711914e-01 2.363022565841674805e+00 -3.033355474472045898e+00 -9.149142503738403320e-01 -1.335602879524230957e+00 1.008648753166198730e+00 -2.005197763442993164e+00 2.520491123199462891e+00 -1.039067745208740234e+00 -2.107764005661010742e+00 -8.807991147041320801e-01 -4.003695487976074219e+00 -1.964495331048965454e-01 -3.112569823861122131e-02 -4.605045542120933533e-02 1.823081970214843750e+00 -2.374206542968750000e+00 6.743391752243041992e-01 -1.385841965675354004e+00 -2.356319665908813477e+00 1.722050309181213379e+00 1.444846391677856445e+00 3.274701356887817383e+00 4.322938024997711182e-01 -3.996912717819213867e+00 -1.300601720809936523e+00 -2.744822740554809570e+00 3.793667852878570557e-01 -8.630371689796447754e-01 -5.067587375640869141e+00 3.159368991851806641e+00 2.041947126388549805e+00 6.901985406875610352e-01
1.916948795318603516e+00 -3.960440158843994141e-01 1.174888849258422852e+00 8.242051005363464355e-01 -1.489681124687194824e+00 -6.236199736595153809e-01 -3.852795839309692383e+00 3.568030357360839844e+00 -2.145895481109619141e+00 -1.233837604522705078e+00 3.484893083572387695e+00 -2.797443866729736328e+00 -1.575713872909545898e+00 -1.395874142646789551e+00 -4.293847084045410156e+00 5.510230064392089844e-01 1.517812848091125488e+00 1.134392857551574707e+00 -2.793519258499145508e+00 1.413897514343261719e+00 -4.891133308410644531e+00 -2.606189966201782227e+00 2.774824142456054688e+00 1.975740075111389160e+00 2.566116333007812500e+00 -5.831849575042724609e-01 -2.991314411163330078e+00 -2.264667510986328125e+00 -1.227546453475952148e+00 1.873075604438781738e+00 -3.451726913452148438e+00 1.462121605873107910e+00 1.936577320098876953e+00 2.500779330730438232e-01
1.802728295326232910e+00 4.497798919677734375e+00 3.456509411334991455e-01 -1.124084666371345520e-01 1.694143176078796387e+00 1.488538265228271484e+00 1.265964627265930176e+00 -1.325460076332092285e+00 4.804800987243652344e+00 -1.445080161094665527e+00 -2.690834999084472656e+00 -3.313048124313354492e+00 -1.663276433944702148e+00 -3.685887813568115234e+00 -2.891991376876831055e+00 -2.207971811294555664e+00 -5.205477476119995117e-01 -1.256958365440368652e+00 -2.163168668746948242e+00 2.249985694885253906e+00 -2.342606306076049805e+00 1.906050682067871094e+00 -6.560149788856506348e-01 -3.762935161590576172e+00 5.546848773956298828e-01 -3.927551209926605225e-01 1.532269716262817383e+00 1.153727054595947266e+00 -2.895958900451660156e+00 -1.870112657546997070e+00 -1.093378186225891113e+00 3.661966562271118164e+00 -1.538859367370605469e+00 -7.786126136779785156e-01
-1.559090614318847656e+00 -3.603671491146087646e-01 -3.664623498916625977e+00 5.051093697547912598e-01 1.977950334548950195e+00 -4.171802997589111328e+00 2.395276308059692383e+00 -9.568931460380554199e-01 2.479993581771850586e+00 -2.701745510101318359e+00 -8.640146851539611816e-01 -2.259871959686279297e+00 -2.482275009155273438e+00 -1.262823194265365601e-01 -1.248606443405151367e+00 -1.575490236282348633e+00 1.186683893203735352e+00 1.049734354019165039e+00 1.194138526916503906e+00 -9.829653054475784302e-02 -4.607804775238037109e+00 2.429114341735839844e+00 2.394149303436279297e+00 2.004713565111160278e-01 -2.425791025161743164e+00 3.248623371124267578e+00 -1.575008511543273926e+00 -2.446855783462524414e+00 1.685810208320617676e+00 -1.235721707344055176e+00 7.102931383997201920e-03 1.514172911643981934e+00 -9.819354414939880371e-01 -4.421825110912322998e-01
4.476787090301513672e+00 9.455416351556777954e-02 -2.719242095947265625e+00 4.465550899505615234e+00 1.514145851135253906e+00 -6.695021986961364746e-01 2.296261310577392578e+00 4.482605159282684326e-01 1.173996210098266602e+00 2.183191537857055664e+00 -1.139555096626281738e+00 -3.772804975509643555e+00 -5.687858462333679199e-01 -4.853116989135742188e+00 -2.055831998586654663e-01 -3.537603139877319336e+00 -3.268881440162658691e-01 2.129445552825927734e+00 2.188585042953491211e+00 1.508980989456176758e+00 -1.914110779762268066e+00 -2.646504878997802734e+00 1.177943468093872070e+00 -2.424093723297119141e+00 5.390043854713439941e-01 8.692911863327026367e-01 -2.805183649063110352e+00 -1.982172727584838867e+00 -1.543997406959533691e+00 -2.096611261367797852e+00 -2.336221694946289062e+00 -1.573674201965332031e+00 -1.772574067115783691e+00 8.535334467887878418e-01
1.357673764228820801e+00 -3.605103492736816406e-01 -2.989589452743530273e+00 -2.214692831039428711e+00 -3.085480928421020508e+00 -1.344286918640136719e+00 -8.233734965324401855e-01 1.535273432731628418e+00 3.072509288787841797e+00 -2.332507610321044922e+00 6.183961629867553711e-01 9.541317820549011230e-01 -1.985041022300720215e+00 -3.399302065372467041e-01 -3.152655124664306641e+00 4.821806773543357849e-02 1.851561903953552246e+00 1.872052311897277832e+00 4.385982036590576172e+00 2.137838751077651978e-01 -3.729639053344726562e+00 -1.169199496507644653e-01 2.353457689285278320e+00 -7.755297422409057617e-01 -2.355345964431762695e+00 -4.101555645465850830e-01 -9.039990305900573730e-01 -1.918613195419311523e+00 -4.466209888458251953e+00 3.652097225189208984e+00 -1.272245645523071289e+00 1.595212221145629883e+00 -8.010736107826232910e-01 -3.942257165908813477e-01
-1.617644667625427246e+00 -9.793090224266052246e-01 -3.576189279556274414e+00 1.769192934036254883e+00 -1.069750711321830750e-01 -3.221503734588623047e+00 4.630882740020751953e-01 3.231059312820434570e+00 4.053881168365478516e+00 -3.735211372375488281e+00 -3.926548004150390625e+00 -7.839918732643127441e-01 9.110083580017089844e-01 -4.395322799682617188e+00 2.672805070877075195e+00 -1.989310622215270996e+00 -8.378062397241592407e-02 -7.909296452999114990e-02 3.711146116256713867e-01 2.077418088912963867e+00 -1.037591576576232910e+00 -5.936450362205505371e-01 5.771293640136718750e-01 -2.231586694717407227e+00 2.677812814712524414e+00 3.011369466781616211e+00 2.956356525421142578e+00 -1.313627123832702637e+00 -1.461334466934204102e+00 -4.227168560028076172e+00 -1.021728038787841797e+00 4.032019615173339844e+00 7.370568513870239258e-01 -2.794815063476562500e+00
6.374529004096984863e-01 2.020849943161010742e+00 1.948876857757568359e+00 -2.960662841796875000e-01 1.904725790023803711e+00 -1.300119400024414062e+00 -1.220154166221618652e+00 2.345761843025684357e-02 1.578845262527465820e+00 -4.321392059326171875e+00 5.184279680252075195e-01 -4.715225398540496826e-01 -1.909449696540832520e+00 -2.021453619003295898e+00 5.681021809577941895e-01 -7.069440484046936035e-01 -3.331906795501708984e+00 -2.711031913757324219e+00 -2.092296838760375977e+00 -3.160330355167388916e-01 -1.958329439163208008e+00 -1.754776597023010254e+00 4.198063850402832031e+00 4.468204677104949951e-01 -8.050659894943237305e-01 -1.712143778800964355e+00 -1.537808895111083984e+00 -2.343027591705322266e+00 2.072539806365966797e+00 5.607809543609619141e+00 1.322710663080215454e-01 9.566389322280883789e-01 3.974786400794982910e-01 -2.878026723861694336e+00
-1.761897802352905273e+00 3.457632303237915039e+00 -2.036514282226562500e+00 -2.068146944046020508e+00 3.428632974624633789e+00 9.460049867630004883e-01 5.753705501556396484e-01 -2.799337506294250488e-01 -3.426843881607055664e+00 1.816389083862304688e+00 1.357409715652465820e+00 -2.894983768463134766e+00 -4.013412475585937500e+00 -2.941796064376831055e+00 -6.254918575286865234e-01 -5.931431055068969727e-01 -4.471861124038696289e-01 2.149367094039916992e+00 8.809919953346252441e-01 -2.497621774673461914e+00 -2.467725753784179688e+00 3.616008996963500977e+00 5.296060562133789062e+00 -2.556327342987060547e+00 2.729973793029785156e+00 -3.713096380233764648e+00 -2.820333957672119141e+00 -2.237064838409423828e+00 8.902551531791687012e-01 -1.489684134721755981e-01 -9.168589115142822266e-01 2.376531124114990234e+00 -2.838330268859863281e-01 -2.910533666610717773e+00
-1.158778667449951172e+00 -5.928796529769897461e-01 7.515901327133178711e-01 -3.756290912628173828e+00 1.742080926895141602e+00 -3.939953088760375977e+00 -4.691944718360900879e-01 5.020330548286437988e-01 6.721776723861694336e-01 -2.624801397323608398e+00 -1.834364384412765503e-01 9.704308509826660156e-01 -4.327601194381713867e-01 -2.816736459732055664e+00 -3.267656087875366211e+00 -1.053256988525390625e-01 -4.054566621780395508e-01 1.577015638351440430e+00 -5.658100247383117676e-01 1.194498594850301743e-02 -1.558397769927978516e+00 4.011112689971923828e+00 3.334948778152465820e+00 -1.497258186340332031e+00 -2.979109525680541992e+00 -1.254357814788818359e+00 -5.285084247589111328e-01 -3.922404348850250244e-01 -4.544500634074211121e-02 1.198251724243164062e+00 2.144084930419921875e+00 -1.579811096191406250e+00 4.427501559257507324e-01 -1.105185866355895996e+00
-1.232208847999572754e+00 9.227774143218994141e-01 1.670045614242553711e+00 -2.874799966812133789e+00 -4.117137432098388672e+00 2.578682899475097656e+00 3.494916856288909912e-01 1.366684079170227051e+00 3.332028388977050781e-01 6.298028230667114258e-01 -3.463759660720825195e+00 -3.573132991790771484e+00 -1.540134787559509277e+00 -3.709796190261840820e+00 -1.598155871033668518e-02 1.114887237548828125e+00 1.100878596305847168e+00 1.489942222833633423e-01 4.746361732482910156e+00 1.514739274978637695e+00 -3.764640569686889648e+00 -1.181809663772583008e+00 -2.077001094818115234e+00 -3.606019020080566406e-01 2.488423824310302734e+00 3.239918947219848633e+00 -1.677345275878906250e+00 1.708072662353515625e+00 -2.311092615127563477e-01 -9.177914261817932129e-01 -3.801707744598388672e+00 -1.892743557691574097e-01 9.338076114654541016e-01 -1.029168844223022461e+00
