-1.938634157180786133e+00 1.099119544029235840e+00 -4.118848145008087158e-01 -2.385094314813613892e-01 1.041266202926635742e+00 -3.076951205730438232e-01 1.119559407234191895e+00 1.657073855400085449e+00 -2.502263784408569336e+00 1.993013858795166016e+00 -1.311201930046081543e+00 1.030477881431579590e+00 1.336455821990966797e+00 8.412434458732604980e-01 -9.301121830940246582e-01 1.724153518676757812e+00 -1.295499652624130249e-01 2.746700286865234375e+00 -3.161086797714233398e+00 4.730482995510101318e-01 2.620781898498535156e+00 2.083945035934448242e+00 2.393572092056274414e+00 1.128326281905174255e-01 1.904089152812957764e-01 2.213743776082992554e-01 -1.530667841434478760e-01 5.064222216606140137e-01 -2.603251934051513672e+00 -3.132062256336212158e-01 2.271736145019531250e+00 -1.888896711170673370e-02 -1.339621424674987793e+00 -2.815586924552917480e-01 -9.872429966926574707e-01 1.801740288734436035e+00 -1.832309126853942871e+00 2.054646968841552734e+00 -6.836761534214019775e-02 -7.677440643310546875e-01 -1.997276544570922852e-01 2.638533353805541992e+00 1.861072301864624023e+00 -1.677511572837829590e+00 2.941783189773559570e+00 2.273939922451972961e-02 4.575470685958862305e-01 1.071134090423583984e+00 2.231277942657470703e+00 -5.031040906906127930e-01 7.109966874122619629e-01 1.641862839460372925e-01 2.455406427383422852e+00 -2.108831703662872314e-01 1.407209634780883789e+00 3.322570919990539551e-01 2.971784591674804688e+00 2.772548198699951172e+00 -7.008240222930908203e-01 1.350524902343750000e+00 -1.194898009300231934e+00 -1.746561408042907715e+00 -1.994953393936157227e+00 -1.058278203010559082e+00 -1.337142825126647949e+00 -2.787985563278198242e+00 -2.703741073608398438e+00 -1.412798523902893066e+00 -2.211646318435668945e+00 -1.762612700462341309e+00 1.220854043960571289e+00 -1.781276941299438477e+00 -1.902587294578552246e+00 -2.327809810638427734e+00 -1.793144583702087402e+00 -2.375417947769165039e+00 -2.276524305343627930e+00 -1.657731771469116211e+00 -1.858343482017517090e+00 -1.275863766670227051e+00 -8.665924072265625000e-01 3.631368651986122131e-02 -1.576508402824401855e+00 1.592296600341796875e+00 -2.193674325942993164e+00 2.419513911008834839e-01 -6.036815643310546875e-01 -1.037847638130187988e+00 -7.673941850662231445e-01 -1.307079076766967773e+00 -3.279666900634765625e-01 7.576934695243835449e-01 3.107255458831787109e+00 1.854003667831420898e+00 1.947441458702087402e+00 1.617502450942993164e+00 -2.306007862091064453e+00 2.703495025634765625e+00 -2.507632784545421600e-02 9.770928621292114258e-01
-2.166733264923095703e+00 -1.443343281745910645e+00 -2.476330757141113281e+00 -1.044214248657226562e+00 -1.710432171821594238e+00 1.190360426902770996e+00 1.971359252929687500e-01 -1.247695922851562500e+00 1.200042605400085449e+00 2.078385114669799805e+00 -2.452112674713134766e+00 1.769257426261901855e+00 -2.362830638885498047e+00 -9.849334359169006348e-01 -1.808581829071044922e+00 1.432552814483642578e+00 -2.074808597564697266e+00 -1.635398983955383301e+00 1.766414761543273926e+00 -1.145512819290161133e+00 1.344304084777832031e+00 -2.058638572692871094e+00 1.153650879859924316e-01 -1.306085824966430664e+00 -1.890502452850341797e+00 -2.934673309326171875e+00 -1.575332403182983398e+00 -8.783296346664428711e-01 -2.422316312789916992e+00 -9.856153726577758789e-01 -1.735942125320434570e+00 2.613899707794189453e+00 -9.803881049156188965e-01 -1.980295538902282715e+00 -2.123417139053344727e+00 -1.428626179695129395e+00 -2.085242986679077148e+00 -5.010705590248107910e-01 -2.026925683021545410e-01 -1.391541838645935059e+00 -1.067093253135681152e+00 2.379678487777709961e+00 1.384795188903808594e+00 1.788380742073059082e+00 1.255603075027465820e+00 1.505716800689697266e+00 -6.557962298393249512e-01 -6.127419471740722656e-01 1.282020062208175659e-01 9.998715519905090332e-01 -8.337744474411010742e-01 2.366436481475830078e+00 -1.307012557983398438e+00 1.717751741409301758e+00 1.735212445259094238e+00 1.534498214721679688e+00 -1.352170825004577637e+00 -1.992166399955749512e+00 9.433442950248718262e-01 1.851883888244628906e+00 1.893824934959411621e+00 1.816251516342163086e+00 2.462248086929321289e+00 1.229357004165649414e+00 1.748363971710205078e-01 1.709367275238037109e+00 1.771627426147460938e+00 -5.824102759361267090e-01 1.266220331192016602e+00 1.458715081214904785e+00 2.359475374221801758e+00 5.604634284973144531e-01 2.363850593566894531e+00 1.331146121025085449e+00 2.036629766225814819e-01 2.845261335372924805e+00 1.020284175872802734e+00 3.630515635013580322e-01 -2.599804103374481201e-01 2.586203575134277344e+00 -1.248287916183471680e+00 -1.347477436065673828e+00 2.113474607467651367e+00 2.342403888702392578e+00 1.084421873092651367e+00 6.412165760993957520e-01 -1.089585661888122559e+00 1.385772526264190674e-01 -1.028914570808410645e+00 2.062681198120117188e+00 1.872928589582443237e-01 -6.406192183494567871e-01 1.823221802711486816e+00 -2.082339048385620117e+00 -1.296139240264892578e+00 1.399323344230651855e-01 -4.592882990837097168e-01 -1.387885332107543945e+00 -1.599658846855163574e+00 -1.289372444152832031e+00
-1.822188496589660645e-01 2.040158033370971680e+00 -8.256515115499496460e-02 1.929153442382812500e+00 1.753901600837707520e+00 -1.238176703453063965e+00 7.341564297676086426e-01 1.205391526222229004e+00 1.805378675460815430e+00 2.165055513381958008e+00 -3.391424715518951416e-01 -2.095475196838378906e+00 -1.225662469863891602e+00 1.993113994598388672e+00 1.201708316802978516e+00 -2.229867219924926758e+00 -1.932900786399841309e+00 -1.410696864128112793e+00 4.609033763408660889e-01 -1.102923035621643066e+00 1.346626996994018555e+00 1.146412253379821777e+00 -6.936255842447280884e-02 -7.090460062026977539e-01 -6.087969541549682617e-01 -1.378524005413055420e-01 -2.827586174011230469e+00 4.495653212070465088e-01 -2.691728115081787109e+00 2.072302341461181641e+00 2.266765594482421875e+00 -1.873230487108230591e-01 7.840269804000854492e-01 -1.766675353050231934e+00 -1.764794468879699707e+00 -5.799276828765869141e-01 -7.622828483581542969e-01 -1.132099404931068420e-01 -9.988768696784973145e-01 7.338237166404724121e-01 2.333303451538085938e+00 -2.294354915618896484e+00 1.915352225303649902e+00 2.401318073272705078e+00 4.349292218685150146e-01 1.132611751556396484e+00 -2.181331396102905273e+00 -2.168160229921340942e-01 2.560310959815979004e-01 -2.863000631332397461e+00 -2.136750698089599609e+00 -1.197896338999271393e-02 4.294813573360443115e-01 -1.278114318847656250e+00 -1.687627434730529785e+00 -2.307565927505493164e+00 -1.733089566230773926e+00 -2.528341054916381836e+00 -3.941601514816284180e-01 1.315628170967102051e+00 -9.414421766996383667e-02 2.328238964080810547e+00 2.320630550384521484e+00 2.513308525085449219e+00 2.278438329696655273e+00 -1.658564925193786621e+00 -1.727801680564880371e+00 2.108891487121582031e+00 1.773298978805541992e+00 2.140562057495117188e+00 1.490246057510375977e+00 1.738324642181396484e+00 1.743382096290588379e+00 1.850197434425354004e+00 7.816854715347290039e-01 2.990136861801147461e+00 2.713806629180908203e+00 -2.693035900592803955e-01 2.823356628417968750e+00 1.915814518928527832e+00 -2.733908593654632568e-01 1.930507659912109375e+00 -1.267750263214111328e+00 5.949372891336679459e-03 -1.975741147994995117e+00 -1.895231485366821289e+00 -1.373592853546142578e+00 -2.150427579879760742e+00 -1.797292709350585938e+00 -1.683978289365768433e-01 -1.963283419609069824e+00 6.736372709274291992e-01 7.247893810272216797e-01 -2.170543432235717773e+00 -1.595181584358215332e+00 -2.779543638229370117e+00 -2.406046390533447266e+00 -1.981607437133789062e+00 -7.170513868331909180e-01 1.680233716964721680e+00
1.621517390012741089e-01 1.148277997970581055e+00 1.803758859634399414e+00 -2.316627264022827148e+00 2.130580425262451172e+00 1.629129767417907715e+00 1.950284123420715332e+00 -1.497661948204040527e+00 -2.820359706878662109e+00 -1.304681420326232910e+00 -9.943967312574386597e-02 5.039050579071044922e-01 2.101085901260375977e+00 2.005419492721557617e+00 -9.967756271362304688e-01 1.893348336219787598e+00 -1.147717237472534180e+00 -1.279058575630187988e+00 -4.143132865428924561e-01 -6.055902242660522461e-01 -1.762116551399230957e+00 7.235607504844665527e-02 -8.494209498167037964e-02 -2.123831748962402344e+00 -2.337903738021850586e+00 -2.556192874908447266e+00 7.907156944274902344e-01 -2.065920114517211914e+00 -2.160652637481689453e+00 -1.999612331390380859e+00 -2.263869762420654297e+00 -3.213707804679870605e-01 -3.013170957565307617e+00 -2.042699575424194336e+00 -1.657267332077026367e+00 -2.489089488983154297e+00 -2.104032278060913086e+00 -2.114185571670532227e+00 -1.525426506996154785e+00 3.540454804897308350e-01 1.313354253768920898e+00 2.600321769714355469e+00 1.912291347980499268e-01 2.177492618560791016e+00 -1.895538926124572754e+00 1.301747918128967285e+00 -1.136390566825866699e+00 1.787272453308105469e+00 1.320096850395202637e-01 3.373844325542449951e-01 3.062685251235961914e+00 9.198961853981018066e-01 2.322303056716918945e+00 2.323989391326904297e+00 9.655134081840515137e-01 1.346750378608703613e+00 2.336867809295654297e+00 4.135632812976837158e-01 2.477150440216064453e+00 2.574678897857666016e+00 1.913870215415954590e+00 6.709463596343994141e-01 1.908181071281433105e+00 4.821865856647491455e-01 1.186453342437744141e+00 1.278662681579589844e+00 1.341925263404846191e+00 -4.611626565456390381e-01 4.577098786830902100e-01 -6.087347269058227539e-01 1.259843587875366211e+00 1.859313845634460449e+00 -2.384160757064819336e-01 -6.819829940795898438e-01 1.979827880859375000e+00 6.351674199104309082e-01 1.253543376922607422e+00 1.616060018539428711e+00 1.038756489753723145e+00 2.090949535369873047e+00 1.591478586196899414e+00 1.471088409423828125e+00 6.132731437683105469e-01 1.638684749603271484e+00 -2.147859334945678711e+00 -2.103889465332031250e+00 1.015903592109680176e+00 -2.181655168533325195e+00 -4.159580469131469727e-01 -1.755814194679260254e+00 -3.147158622741699219e+00 -1.786004304885864258e+00 -2.208351850509643555e+00 -1.459741115570068359e+00 -2.565361022949218750e+00 9.463772177696228027e-01 -3.830688595771789551e-01 -1.667932271957397461e+00 -1.889228671789169312e-01 -1.136154770851135254e+00
2.539468765258789062e+00 1.392365932464599609e+00 5.670713782310485840e-01 9.939464330673217773e-01 1.524052143096923828e+00 1.479902863502502441e+00 -1.357311964035034180e+00 -7.015572190284729004e-01 2.895590543746948242e+00 2.155882120132446289e+00 5.290234684944152832e-01 1.815829038619995117e+00 -3.415571898221969604e-02 3.167941272258758545e-01 2.267159938812255859e+00 2.641831874847412109e+00 7.381022721529006958e-02 1.945106983184814453e+00 1.525438785552978516e+00 7.815558314323425293e-01 6.729518771171569824e-01 -2.798581719398498535e-01 1.871272087097167969e+00 1.160999417304992676e+00 -1.102413654327392578e+00 2.036142587661743164e+00 2.453429698944091797e+00 1.798257231712341309e+00 2.670810937881469727e+00 -2.538825750350952148e+00 7.620487213134765625e-01 7.564584612846374512e-01 2.845593690872192383e+00 1.727030515670776367e+00 2.124434471130371094e+00 2.379270553588867188e+00 -3.407186865806579590e-01 7.417849302291870117e-01 1.547533035278320312e+00 -6.506818532943725586e-01 -1.522667426615953445e-02 1.096229553222656250e+00 -8.023680448532104492e-01 -1.977058768272399902e+00 -1.289840221405029297e+00 1.771780014038085938e+00 -1.899455666542053223e+00 -2.347577571868896484e+00 -1.031585693359375000e+00 -2.021903276443481445e+00 -1.257138013839721680e+00 -2.402134895324707031e+00 -1.852122843265533447e-01 -2.116908073425292969e+00 -1.881961941719055176e+00 -2.894589185714721680e+00 -1.108937740325927734e+00 -2.134502172470092773e+00 -6.050943136215209961e-01 -7.844058275222778320e-01 -4.786223173141479492e-01 -9.336185455322265625e-01 -6.296081542968750000e-01 -1.923161268234252930e+00 -1.000781893730163574e+00 1.182107090950012207e+00 -1.207098007202148438e+00 -1.189517855644226074e+00 1.276985526084899902e+00 2.317242145538330078e+00 1.843245625495910645e+00 2.292204856872558594e+00 -1.267932653427124023e+00 -6.740970611572265625e-01 -2.072856426239013672e+00 4.445275664329528809e-01 -5.221534147858619690e-02 1.806669712066650391e+00 1.653298139572143555e+00 -1.994909048080444336e+00 -4.635254144668579102e-01 8.439741730690002441e-01 -1.921236395835876465e+00 -1.188038110733032227e+00 -1.394258499145507812e+00 -1.409829854965209961e+00 -1.197393536567687988e+00 -2.290387630462646484e+00 -1.654822587966918945e+00 -1.573174834251403809e+00 -2.586424589157104492e+00 3.079579770565032959e-01 -1.097002744674682617e+00 1.532148241996765137e+00 -1.239704728126525879e+00 -1.465119719505310059e+00 1.855233684182167053e-02 -4.744470119476318359e-01 -1.533467531204223633e+00 -5.567574501037597656e-01
-2.585199356079101562e+00 -2.276655435562133789e+00 -2.001446962356567383e+00 1.644724369049072266e+00 1.147754907608032227e+00 -1.970724821090698242e+00 -1.853761911392211914e+00 7.559275627136230469e-01 -1.899239420890808105e+00 4.441989064216613770e-01 2.164855957031250000e+00 -7.475344538688659668e-01 6.947904825210571289e-01 -7.107934355735778809e-01 -1.586775064468383789e+00 -2.250949144363403320e+00 -1.190718561410903931e-01 1.435607075691223145e+00 -2.473859071731567383e+00 -1.713272452354431152e+00 -1.193178296089172363e+00 2.613265752792358398e+00 2.244740486145019531e+00 2.301995038986206055e+00 -6.095109581947326660e-01 7.346180081367492676e-01 -6.379600167274475098e-01 2.543193101882934570e+00 -2.320050716400146484e+00 4.527054429054260254e-01 1.005341634154319763e-01 6.373690962791442871e-01 1.996061682701110840e+00 -1.049791812896728516e+00 2.846509218215942383e+00 -4.268725514411926270e-01 -4.658415317535400391e-01 -2.217761993408203125e+00 1.018640398979187012e+00 5.429440140724182129e-01 -1.508063316345214844e+00 -2.384445905685424805e+00 -2.761360406875610352e+00 6.496565937995910645e-01 -2.512365818023681641e+00 -7.013413310050964355e-01 -2.713777303695678711e+00 1.529989242553710938e+00 -1.037894845008850098e+00 -1.702132582664489746e+00 1.752493858337402344e+00 -1.180203795433044434e+00 2.367768526077270508e+00 -2.552478611469268799e-01 -5.306652784347534180e-01 2.314724773168563843e-01 -1.314830780029296875e+00 7.517184596508741379e-03 1.904153466224670410e+00 1.600537657737731934e+00 1.347066879272460938e+00 -1.363767504692077637e+00 -1.762920141220092773e+00 2.918306350708007812e+00 1.849690794944763184e+00 1.166499376296997070e+00 6.847721934318542480e-01 6.364470720291137695e-01 -2.268207073211669922e-01 2.626900672912597656e+00 3.265073299407958984e-01 2.238584756851196289e+00 -1.537142992019653320e+00 1.939930677413940430e+00 1.648180484771728516e+00 -1.196774601936340332e+00 1.120005965232849121e+00 9.216822981834411621e-01 6.610658168792724609e-01 4.635905325412750244e-01 -1.280216097831726074e+00 -2.682877540588378906e+00 1.289016366004943848e+00 3.061274290084838867e-01 6.175725460052490234e-01 -1.734664916992187500e+00 -5.179024338722229004e-01 2.392817974090576172e+00 -1.381571143865585327e-01 1.418964028358459473e+00 1.052980422973632812e-01 1.640925049781799316e+00 -8.034924864768981934e-01 1.549403190612792969e+00 2.370057582855224609e+00 -2.389423131942749023e+00 9.103586077690124512e-01 -1.297905445098876953e+00 -2.100975751876831055e+00 -1.738200664520263672e+00
1.446559429168701172e+00 3.041189670562744141e+00 2.017890930175781250e+00 2.159049034118652344e+00 1.906764388084411621e+00 2.892646551132202148e+00 2.527579545974731445e+00 1.217734456062316895e+00 2.423756837844848633e+00 1.174258470535278320e+00 1.701255202293395996e+00 2.394917249679565430e+00 3.006852865219116211e-01 1.391082644462585449e+00 -6.263490915298461914e-01 5.083038210868835449e-01 4.527335464954376221e-01 1.967241913080215454e-01 2.544403791427612305e+00 1.430642485618591309e+00 -1.803395748138427734e+00 -1.955037951469421387e+00 -5.147154331207275391e-01 -8.075314760208129883e-02 1.518703579902648926e+00 2.370573997497558594e+00 1.695207595825195312e+00 1.398300051689147949e+00 5.100153759121894836e-02 -2.462311685085296631e-01 -1.460712701082229614e-01 -1.822648286819458008e+00 6.005898714065551758e-01 1.593216419219970703e+00 4.139719009399414062e-01 -4.552152454853057861e-01 -1.366950750350952148e+00 -1.022786498069763184e+00 -1.881515145301818848e+00 1.463252186775207520e+00 -1.909567952156066895e+00 -1.133226275444030762e+00 -1.971168994903564453e+00 -5.733198523521423340e-01 -2.028813123703002930e+00 -1.513061404228210449e+00 -2.646358966827392578e+00 -1.620559453964233398e+00 1.673741817474365234e+00 -2.416100740432739258e+00 -1.077998518943786621e+00 9.123045206069946289e-01 -2.232602357864379883e+00 7.074950933456420898e-01 -8.877695798873901367e-01 -1.542273283004760742e+00 6.192156672477722168e-01 -6.274962425231933594e-01 -1.455476403236389160e+00 -1.388213753700256348e+00 -1.954190492630004883e+00 -8.048534393310546875e-02 1.125216245651245117e+00 -1.105560541152954102e+00 -1.333282232284545898e+00 -2.274379253387451172e+00 2.091010212898254395e-01 2.917121052742004395e-01 -9.385752677917480469e-01 -1.545153379440307617e+00 -1.761743664741516113e+00 8.255980014801025391e-01 1.563412547111511230e+00 2.706450700759887695e+00 -2.500687122344970703e+00 -5.953757762908935547e-01 -8.768253028392791748e-02 -8.628613948822021484e-01 -2.726466655731201172e+00 -1.911830306053161621e+00 1.237716436386108398e+00 -1.592610001564025879e+00 -1.348442912101745605e+00 -2.269101589918136597e-01 1.737948060035705566e+00 2.638140439987182617e+00 -1.542756676673889160e+00 -1.379518628120422363e+00 -1.179623961448669434e+00 3.368522524833679199e-01 -1.140934109687805176e+00 -1.602168828248977661e-01 7.175047397613525391e-01 1.758394837379455566e+00 1.849058270454406738e+00 -2.314290031790733337e-02 2.026731252670288086e+00 2.201361179351806641e+00 -2.040778875350952148e+00 -4.554796218872070312e-01
-8.716382980346679688e-01 -2.495366096496582031e+00 5.300524234771728516e-01 -7.649998068809509277e-01 -1.787647485733032227e+00 2.070971727371215820e+00 5.491740703582763672e-01 -3.394899964332580566e-01 -1.405901908874511719e+00 -2.205936193466186523e+00 -2.487387418746948242e+00 -2.093300819396972656e+00 -2.109048515558242798e-01 -5.723357796669006348e-01 2.793157696723937988e-01 -3.024582386016845703e+00 1.674636840820312500e+00 -1.651215076446533203e+00 -1.100497126579284668e+00 5.702497363090515137e-01 2.003950357437133789e+00 4.773702025413513184e-01 1.838520050048828125e+00 2.293253660202026367e+00 2.262053966522216797e+00 1.177544832229614258e+00 1.442905426025390625e+00 1.631452798843383789e+00 4.797788560390472412e-01 1.169412016868591309e+00 -3.338855803012847900e-01 7.132989913225173950e-02 2.510662317276000977e+00 2.731003522872924805e+00 -9.001994132995605469e-01 2.863833665847778320e+00 2.573591470718383789e+00 2.427978754043579102e+00 1.652900218963623047e+00 2.326320409774780273e+00 1.204945325851440430e+00 -2.328019216656684875e-02 3.192400336265563965e-01 1.887745380401611328e+00 1.463807463645935059e+00 -1.607130050659179688e+00 -3.616230795159935951e-03 1.442396491765975952e-01 -2.549354076385498047e+00 5.255205035209655762e-01 -2.343526929616928101e-01 -1.714392900466918945e+00 -1.154896140098571777e+00 3.655913472175598145e-01 6.109107136726379395e-01 -1.545332074165344238e-01 1.634518384933471680e+00 -3.673042356967926025e-01 -1.055766582489013672e+00 -3.141312122344970703e+00 -2.556490182876586914e+00 -3.242136240005493164e-01 1.727033972740173340e+00 1.393786191940307617e+00 -1.911864399909973145e+00 9.546986222267150879e-01 -1.249248385429382324e+00 1.967140197753906250e+00 -1.173852801322937012e+00 2.694596052169799805e+00 -5.490757822990417480e-01 7.076264619827270508e-01 -2.282396793365478516e+00 1.845735549926757812e+00 -7.198082208633422852e-01 1.020544290542602539e+00 1.500433206558227539e+00 4.292449951171875000e-01 2.314757585525512695e+00 3.386574387550354004e-01 -2.501219272613525391e+00 -1.100735068321228027e+00 -4.895505607128143311e-01 1.030796766281127930e+00 -1.900398135185241699e+00 -4.670006632804870605e-01 -1.099292278289794922e+00 2.270022630691528320e+00 -2.101402282714843750e+00 1.126871824264526367e+00 -6.197485923767089844e-01 -1.956649541854858398e+00 -2.602132558822631836e+00 1.861695885658264160e+00 -1.013346791267395020e+00 -1.155508637428283691e+00 -9.065709710121154785e-01 -1.602737784385681152e+00 -2.278255224227905273e+00 -1.688918113708496094e+00
1.520716398954391479e-01 2.922969162464141846e-01 -4.388970881700515747e-02 7.522701621055603027e-01 1.870287656784057617e+00 1.636862158775329590e+00 1.217412114143371582e+00 -7.576158046722412109e-01 -1.090323448181152344e+00 1.264352679252624512e+00 2.101960778236389160e-01 3.971824944019317627e-01 8.304593563079833984e-01 1.786750078201293945e+00 2.585680961608886719e+00 1.032812833786010742e+00 -8.288408517837524414e-01 2.146114826202392578e+00 1.559747338294982910e+00 -4.691528379917144775e-01 2.120354175567626953e+00 4.491640329360961914e-01 -2.322711706161499023e+00 2.764924168586730957e-01 6.373568624258041382e-02 1.717172026634216309e+00 -1.859257698059082031e+00 -1.191328525543212891e+00 -9.031814336776733398e-02 -2.608461141586303711e+00 1.303031682968139648e+00 -2.794036865234375000e+00 -3.683094084262847900e-01 1.045761823654174805e+00 -5.030676722526550293e-01 8.683789372444152832e-01 7.017001509666442871e-01 1.416943073272705078e+00 1.520737290382385254e+00 -1.325749307870864868e-01 -2.509122133255004883e+00 -2.273504018783569336e+00 -2.598027467727661133e+00 3.697681427001953125e-01 -8.739376664161682129e-01 -8.567479252815246582e-01 -1.336998939514160156e+00 1.775876164436340332e+00 -2.301938772201538086e+00 -2.081095457077026367e+00 -1.481275439262390137e+00 -1.841869831085205078e+00 -5.786472558975219727e-01 -1.748525947332382202e-01 1.776504814624786377e-01 -2.899465262889862061e-01 -1.378590464591979980e+00 1.555323451757431030e-01 -1.681762933731079102e+00 -1.741953253746032715e+00 -2.924667596817016602e+00 -2.267781347036361694e-01 -1.432980179786682129e+00 -1.160162448883056641e+00 5.560758113861083984e-01 -2.982574939727783203e+00 2.227078527212142944e-01 -1.012403368949890137e+00 -2.390055954456329346e-01 -6.425135135650634766e-01 -1.527339577674865723e+00 1.786994218826293945e+00 7.209272384643554688e-01 -8.020642399787902832e-01 6.027916669845581055e-01 7.927889227867126465e-01 8.853123188018798828e-01 -1.658311486244201660e+00 -2.368740797042846680e+00 1.185199618339538574e+00 1.611843585968017578e+00 7.974657416343688965e-01 -3.008208870887756348e-01 1.273162722587585449e+00 4.501767456531524658e-01 2.732412576675415039e+00 -2.333592891693115234e+00 1.455930471420288086e+00 1.283360481262207031e+00 2.035117864608764648e+00 1.859481573104858398e+00 5.624989271163940430e-01 1.957719206809997559e+00 -1.777534961700439453e+00 1.553526818752288818e-01 1.469940781593322754e+00 1.964664101600646973e+00 1.466735720634460449e+00 1.373379826545715332e+00 -3.271372020244598389e-01
-1.080666542053222656e+00 -2.324745178222656250e+00 -1.838674664497375488e+00 -1.020323991775512695e+00 -3.412781357765197754e-01 -1.458688855171203613e+00 8.694871068000793457e-01 8.066282868385314941e-01 -1.834758967161178589e-01 1.121298193931579590e+00 -7.624423503875732422e-01 1.343407511711120605e+00 2.580426931381225586e+00 1.885236978530883789e+00 1.658003807067871094e+00 2.138582706451416016e+00 -2.268711924552917480e-01 2.580511868000030518e-01 1.299090385437011719e+00 -2.206526279449462891e+00 1.455599308013916016e+00 -1.058656945824623108e-01 -1.785898804664611816e+00 5.194306373596191406e-01 6.474660634994506836e-01 -1.676076173782348633e+00 -1.257343292236328125e-01 2.356148719787597656e+00 4.025993123650550842e-02 -2.703100204467773438e+00 -2.323156356811523438e+00 -1.964311480522155762e+00 -6.150769591331481934e-01 -1.917814970016479492e+00 8.070967197418212891e-01 -1.269828200340270996e+00 -1.152773976325988770e+00 1.096854567527770996e+00 1.950641155242919922e+00 4.076173603534698486e-01 2.135905027389526367e+00 -1.626616001129150391e+00 3.531374633312225342e-01 -1.462445735931396484e+00 1.886677980422973633e+00 5.947121977806091309e-01 -1.805359244346618652e+00 1.015755057334899902e+00 -3.453600704669952393e-01 2.481599748134613037e-01 -1.567020535469055176e+00 6.442375779151916504e-01 -1.112357139587402344e+00 -2.398719310760498047e+00 1.271452784538269043e+00 -1.217378139495849609e+00 1.296178579330444336e+00 -2.386198043823242188e+00 -1.527550578117370605e+00 -8.339008688926696777e-01 1.060316681861877441e+00 -5.505161881446838379e-01 -1.827155232429504395e+00 1.309455037117004395e+00 -2.455597400665283203e+00 -2.502869606018066406e+00 1.614175140857696533e-01 -2.261271476745605469e-01 1.927805304527282715e+00 1.229601025581359863e+00 3.956648409366607666e-01 -1.057371497154235840e+00 -2.000506877899169922e+00 8.973526358604431152e-01 9.489176273345947266e-01 -1.031231284141540527e+00 -7.286381125450134277e-01 2.804894149303436279e-01 6.327112913131713867e-01 -1.580999255180358887e+00 1.658894658088684082e+00 2.253695726394653320e+00 -3.300777673721313477e-01 4.411561042070388794e-02 1.526926279067993164e+00 -2.479329109191894531e+00 7.271523475646972656e-01 2.010485887527465820e+00 2.365077972412109375e+00 -2.631806373596191406e+00 2.739184617996215820e+00 1.456438541412353516e+00 -8.055318593978881836e-01 1.477765202522277832e+00 -5.004264116287231445e-01 7.755975127220153809e-01 5.226052403450012207e-01 8.284599334001541138e-02 2.804953336715698242e+00 2.027794837951660156e+00
-1.537304043769836426e+00 -1.195861816406250000e+00 -1.894235253334045410e+00 2.366095036268234253e-01 -2.444456338882446289e+00 -4.122350811958312988e-01 -1.361429095268249512e+00 -2.090240478515625000e+00 -1.503722310066223145e+00 -2.003285646438598633e+00 2.928440809249877930e+00 -8.879293203353881836e-01 -1.387201309204101562e+00 -2.918320417404174805e+00 -2.032630205154418945e+00 6.991488337516784668e-01 -1.703827142715454102e+00 -1.302250862121582031e+00 -2.715653181076049805e+00 -2.347278833389282227e+00 -1.426718711853027344e+00 -1.724851131439208984e+00 1.192470312118530273e+00 1.716337323188781738e+00 9.230149984359741211e-01 1.484329581260681152e+00 3.510478436946868896e-01 -1.082802534103393555e+00 -5.802732110023498535e-01 3.728203177452087402e-01 -2.681690156459808350e-01 1.925269961357116699e+00 7.347673773765563965e-01 2.214860439300537109e+00 -1.511241644620895386e-01 1.570117235183715820e+00 2.191275358200073242e+00 5.348792076110839844e-01 2.200128078460693359e+00 -9.562445878982543945e-01 -4.606532454490661621e-01 -2.427002042531967163e-01 4.993655979633331299e-01 9.129143953323364258e-01 1.513655781745910645e+00 -1.363146185874938965e+00 -8.481255769729614258e-01 1.499385833740234375e+00 2.112623691558837891e+00 1.044107198715209961e+00 1.108305215835571289e+00 2.257213830947875977e+00 8.293067812919616699e-01 -1.660138010978698730e+00 -4.056463241577148438e-01 6.059844046831130981e-02 1.039760589599609375e+00 1.689203023910522461e+00 -1.907279491424560547e+00 8.174999356269836426e-01 2.185317993164062500e+00 4.967840909957885742e-01 1.635081410408020020e+00 -2.622650384902954102e+00 2.667147397994995117e+00 5.488046407699584961e-01 2.346258640289306641e+00 2.112871885299682617e+00 1.610332012176513672e+00 1.829270362854003906e+00 8.138806819915771484e-01 -3.696952164173126221e-01 2.179432153701782227e+00 2.011871486902236938e-01 4.478706419467926025e-01 -1.913062572479248047e+00 2.039085865020751953e+00 -1.233121633529663086e+00 2.018947601318359375e+00 -1.009700417518615723e+00 -2.908247709274291992e+00 -4.395409524440765381e-01 -4.831144213676452637e-01 -1.113133907318115234e+00 2.046120405197143555e+00 -7.607871294021606445e-01 -1.366953611373901367e+00 -1.234416484832763672e+00 1.461008787155151367e+00 1.793990135192871094e+00 3.987212777137756348e-01 8.585950126871466637e-04 -6.065237522125244141e-01 -2.180375456809997559e-01 -1.408827662467956543e+00 -1.598568320274353027e+00 -1.552243709564208984e+00 -2.286384105682373047e+00 -4.802219569683074951e-01 5.096442103385925293e-01
1.870368957519531250e+00 1.225216746330261230e+00 2.732319533824920654e-01 -7.295667529106140137e-01 1.341149061918258667e-01 -1.749996423721313477e+00 -1.335597872734069824e+00 2.489648342132568359e+00 -1.461019277572631836e+00 1.591387271881103516e+00 1.337825417518615723e+00 2.326006650924682617e+00 -1.552924990653991699e+00 1.765316009521484375e+00 6.084342002868652344e-01 4.199509620666503906e-01 1.670759439468383789e+00 -2.044092893600463867e+00 -1.430148124694824219e+00 -1.290552973747253418e+00 5.955364704132080078e-01 -1.464635252952575684e+00 9.106819033622741699e-01 -1.331635951995849609e+00 -2.755329310894012451e-01 1.349832534790039062e+00 1.159467339515686035e+00 3.620579242706298828e-01 -2.227383375167846680e+00 2.931597232818603516e+00 1.518543124198913574e+00 2.695066928863525391e+00 1.352434992790222168e+00 2.185841321945190430e+00 1.355717658996582031e+00 -1.908368706703186035e+00 1.237413763999938965e+00 -1.605711340904235840e+00 -1.676074504852294922e+00 2.577345371246337891e+00 -2.230930089950561523e+00 -2.763749837875366211e+00 -7.744182348251342773e-01 -2.980703115463256836e+00 1.014780163764953613e+00 -1.812934875488281250e+00 1.518442183732986450e-01 -1.769409656524658203e+00 -1.160733222961425781e+00 3.883801698684692383e-01 -1.958415985107421875e+00 -2.516122758388519287e-01 -2.163175344467163086e+00 -1.174839138984680176e+00 -1.843975186347961426e+00 -1.555802702903747559e+00 -2.291936397552490234e+00 -1.598652005195617676e+00 -2.443265199661254883e+00 -2.263389348983764648e+00 3.786451220512390137e-01 -1.906001091003417969e+00 1.256888359785079956e-01 1.244557127356529236e-01 1.787643313407897949e+00 5.462481379508972168e-01 -2.715834140777587891e+00 2.468654870986938477e+00 -2.198702096939086914e+00 -2.859368562698364258e+00 -1.870160818099975586e+00 -3.600850105285644531e+00 -1.199236586689949036e-01 -5.892327055335044861e-02 4.990532398223876953e-01 1.384963393211364746e+00 1.171059846878051758e+00 1.731537878513336182e-01 4.975811839103698730e-01 1.493377923965454102e+00 1.132198572158813477e+00 2.159720420837402344e+00 1.531738638877868652e+00 6.709483861923217773e-01 1.396613717079162598e+00 1.854730486869812012e+00 2.236445665359497070e+00 2.215632200241088867e+00 2.090386152267456055e+00 1.111076235771179199e+00 1.637023329734802246e+00 -1.816792488098144531e+00 1.830518484115600586e+00 1.709091961383819580e-01 2.447503089904785156e+00 2.030958652496337891e+00 -2.735620260238647461e+00 -7.889523506164550781e-01 1.288647502660751343e-01 8.888782262802124023e-01
-8.816672563552856445e-01 -5.086759924888610840e-01 -4.289389848709106445e-01 4.178156554698944092e-01 -4.512709975242614746e-01 3.448687493801116943e-02 -1.055650949478149414e+00 -1.694047689437866211e+00 7.851471900939941406e-01 -1.059657558798789978e-01 9.631943702697753906e-01 1.460404157638549805e+00 2.351218700408935547e+00 6.984642148017883301e-01 5.129168629646301270e-01 -1.603919744491577148e+00 2.697161197662353516e+00 -7.432285547256469727e-01 9.969141483306884766e-01 9.218046665191650391e-01 -1.440912604331970215e+00 -2.768075704574584961e+00 -1.937426090240478516e+00 -2.160606384277343750e+00 -2.360801696777343750e+00 -2.622358560562133789e+00 -8.875603675842285156e-01 -2.404976606369018555e+00 -2.735821485519409180e+00 -2.464585900306701660e-01 -1.839492321014404297e-01 -2.019420146942138672e+00 1.896739304065704346e-01 -1.347907036542892456e-01 -4.030467569828033447e-01 -2.056057214736938477e+00 5.347621440887451172e-01 -2.092584133148193359e+00 -2.980199575424194336e+00 -3.031530857086181641e+00 -1.990330576896667480e+00 5.914840698242187500e-01 -6.304804682731628418e-01 -1.290114760398864746e+00 -6.705518811941146851e-03 -1.241549134254455566e+00 -2.231219559907913208e-01 -1.918880343437194824e+00 -1.519622445106506348e+00 -1.536101341247558594e+00 2.243632793426513672e+00 1.461938023567199707e+00 -4.685994684696197510e-01 1.920422911643981934e+00 1.340033769607543945e+00 1.947126686573028564e-01 1.776459068059921265e-01 1.699766814708709717e-01 -1.797664761543273926e-01 -5.936552882194519043e-01 -5.492282509803771973e-01 2.775805294513702393e-01 1.008633852005004883e+00 -1.853595733642578125e+00 2.313567638397216797e+00 -2.873594164848327637e-01 1.727213501930236816e+00 1.998079657554626465e+00 -1.839457511901855469e+00 2.255719304084777832e-01 2.024424791336059570e+00 1.297573685646057129e+00 -5.538674592971801758e-01 2.803143262863159180e+00 -9.023340046405792236e-02 6.978967189788818359e-01 2.429963350296020508e+00 6.169584766030311584e-02 1.737022638320922852e+00 1.613267302513122559e+00 2.236309051513671875e+00 2.289813041687011719e+00 -1.606044530868530273e+00 2.400290727615356445e+00 -1.520618915557861328e+00 2.036350369453430176e-01 5.287749171257019043e-01 1.027333259582519531e+00 1.548079729080200195e+00 -4.400181770324707031e-01 2.176396369934082031e+00 9.273587465286254883e-01 -2.180903196334838867e+00 2.894935607910156250e+00 1.082486748695373535e+00 2.246624946594238281e+00 7.730596065521240234e-01 1.369904875755310059e+00 -2.533691644668579102e+00 2.055376529693603516e+00
7.641457319259643555e-01 -1.396225333213806152e+00 -2.353603839874267578e+00 -2.645702123641967773e+00 -2.538355827331542969e+00 -2.951821982860565186e-01 -2.515027999877929688e+00 -2.336394548416137695e+00 -1.111319541931152344e+00 -1.746819376945495605e+00 -3.230821132659912109e+00 -2.518636941909790039e+00 -1.985870838165283203e+00 -2.052553415298461914e+00 -8.280400633811950684e-01 6.685622930526733398e-01 -2.616458892822265625e+00 -3.110586166381835938e+00 2.567398548126220703e-02 -1.544448137283325195e+00 1.475693225860595703e+00 1.287444591522216797e+00 1.728952407836914062e+00 4.547244310379028320e-01 2.773072957992553711e+00 1.913268119096755981e-01 1.672308683395385742e+00 6.125970929861068726e-02 3.000190258026123047e+00 1.757725715637207031e+00 1.951894283294677734e+00 2.033172369003295898e+00 2.642318725585937500e+00 -2.530680596828460693e-01 2.130049467086791992e+00 -9.035995602607727051e-01 -4.095211029052734375e-01 1.394687891006469727e-01 1.186205863952636719e+00 1.632416844367980957e-01 -1.594466567039489746e-01 1.592426061630249023e+00 -3.404186666011810303e-01 -9.256302714347839355e-01 1.513914704322814941e+00 2.156116247177124023e+00 -3.891749978065490723e-01 -2.203926324844360352e+00 1.414103865623474121e+00 -2.456568777561187744e-01 1.646352171897888184e+00 -1.090502738952636719e+00 -1.208438515663146973e+00 -7.570207715034484863e-01 -1.897332906723022461e+00 2.219323158264160156e+00 -1.729609608650207520e+00 1.557149291038513184e+00 1.342102527618408203e+00 2.755845546722412109e+00 -2.401757240295410156e+00 2.444550514221191406e+00 -1.602544337511062622e-01 -1.737738966941833496e+00 -6.774094700813293457e-01 1.421478390693664551e+00 -1.525057554244995117e+00 3.988384008407592773e-01 -1.738309621810913086e+00 -6.778110265731811523e-01 -2.635814666748046875e+00 -4.916112497448921204e-02 -8.050114661455154419e-02 1.861145734786987305e+00 -1.737078189849853516e+00 -8.559420704841613770e-01 -3.316026926040649414e+00 2.264153480529785156e+00 -2.770133018493652344e+00 8.591250181198120117e-01 4.092749655246734619e-01 5.614160895347595215e-01 2.189361572265625000e+00 -1.047884821891784668e+00 2.298634529113769531e+00 -2.395271658897399902e-01 2.357296943664550781e+00 2.074330329895019531e+00 -2.783392965793609619e-01 2.274849414825439453e+00 7.242314815521240234e-01 2.068844556808471680e+00 -8.452281951904296875e-01 -7.637028694152832031e-01 3.195491433143615723e-01 8.270148932933807373e-02 1.558386445045471191e+00 1.766290426254272461e+00 -1.051999926567077637e+00 1.840783238410949707e+00
-1.075161099433898926e+00 -1.596278905868530273e+00 1.766505241394042969e+00 9.810976386070251465e-01 -2.052023261785507202e-01 6.090338230133056641e-01 -1.788833022117614746e+00 -1.851439237594604492e+00 -1.786393284797668457e+00 -3.884941637516021729e-01 -1.776448845863342285e+00 -3.904391527175903320e-01 2.702836751937866211e+00 1.623382806777954102e+00 1.436726212501525879e+00 -1.023928672075271606e-01 4.397491812705993652e-01 3.744148313999176025e-01 6.353197097778320312e-01 2.547799825668334961e+00 -5.734931826591491699e-01 -2.055527448654174805e+00 -6.966999769210815430e-01 -8.505098819732666016e-01 1.071629881858825684e+00 2.769032478332519531e+00 1.342598199844360352e+00 -9.087622761726379395e-01 1.849044412374496460e-01 -2.292961120605468750e+00 1.395660877227783203e+00 1.411993622779846191e+00 2.884165287017822266e+00 -1.851681590080261230e+00 -4.508960545063018799e-01 2.263833999633789062e+00 -7.286852598190307617e-01 1.706158995628356934e+00 -2.227824181318283081e-01 -1.329410076141357422e+00 -1.261582523584365845e-01 -1.074389457702636719e+00 1.700328230857849121e+00 -1.106255650520324707e+00 -1.142709970474243164e+00 2.187044620513916016e+00 3.374977707862854004e-01 -4.200277626514434814e-01 -9.992107748985290527e-01 5.449972152709960938e-01 -2.961930632591247559e-01 -1.581443667411804199e+00 1.703604459762573242e+00 -1.655499696731567383e+00 2.108669579029083252e-01 -1.593992412090301514e-01 2.782550334930419922e+00 -1.740443706512451172e+00 -2.003595352172851562e+00 1.785756468772888184e+00 2.096470832824707031e+00 -2.222058057785034180e+00 1.272817015647888184e+00 3.672184050083160400e-02 -1.191948056221008301e+00 8.840638399124145508e-01 3.093099117279052734e+00 -5.473541021347045898e-01 -1.016580462455749512e+00 7.650183141231536865e-02 1.890815019607543945e+00 -1.185496211051940918e+00 9.257802963256835938e-01 2.189887523651123047e+00 1.007135510444641113e+00 2.832093000411987305e+00 -1.127377271652221680e+00 1.151114106178283691e+00 1.935510873794555664e+00 4.450781345367431641e-01 -1.309610247611999512e+00 -1.517148137092590332e+00 -9.400851726531982422e-01 -1.814219355583190918e+00 -1.291734337806701660e+00 9.181362986564636230e-01 -1.967174887657165527e+00 -4.942446947097778320e-01 -1.960272669792175293e+00 -1.864646315574645996e+00 -6.423224210739135742e-01 -2.549061059951782227e+00 3.199482858180999756e-01 -1.137962579727172852e+00 6.346505284309387207e-01 -2.884835004806518555e-01 -1.147875547409057617e+00 -8.572819232940673828e-01 1.165246844291687012e+00 -1.365457326173782349e-01
-2.100082159042358398e+00 2.543520927429199219e+00 9.811027646064758301e-01 -2.635682821273803711e+00 7.733605504035949707e-01 -3.007949113845825195e+00 -2.401473999023437500e+00 8.493285775184631348e-01 1.170379161834716797e+00 -2.659493923187255859e+00 6.923411488533020020e-01 -1.373736560344696045e-01 4.876753389835357666e-01 -1.534623146057128906e+00 6.684653162956237793e-01 -2.123149156570434570e+00 1.336938500404357910e+00 -1.608748584985733032e-01 -1.108858823776245117e+00 9.335789084434509277e-01 -8.705837726593017578e-01 2.427971601486206055e+00 5.445758700370788574e-01 1.137411594390869141e+00 1.513680368661880493e-01 1.212142944335937500e+00 4.509136676788330078e-01 4.958145320415496826e-01 8.618362545967102051e-01 7.185525298118591309e-01 2.355987787246704102e+00 -3.281648755073547363e-01 -1.033214688301086426e+00 -2.174492627382278442e-01 7.563290596008300781e-01 1.316605880856513977e-02 1.584517955780029297e+00 7.167584896087646484e-01 -1.885944604873657227e+00 -1.081616878509521484e+00 2.525797367095947266e+00 2.608788907527923584e-01 -2.910177707672119141e-01 4.988906085491180420e-01 3.658784031867980957e-01 -2.742604017257690430e+00 2.523442029953002930e+00 -1.314065098762512207e+00 -1.020989179611206055e+00 -3.287335634231567383e-01 -2.112259626388549805e+00 -1.052042365074157715e+00 6.518356800079345703e-01 3.146689832210540771e-01 -1.112358093261718750e+00 3.825029432773590088e-01 -1.288766503334045410e+00 8.950954079627990723e-01 2.473669528961181641e+00 -2.334139108657836914e+00 2.038149833679199219e+00 -1.432539105415344238e+00 -7.729659974575042725e-02 1.226929426193237305e+00 3.415807783603668213e-01 -1.095401287078857422e+00 -4.589840769767761230e-01 1.494759798049926758e+00 2.150239706039428711e+00 9.360437989234924316e-01 4.587468504905700684e-01 2.557416439056396484e+00 -1.182563677430152893e-01 -4.429075494408607483e-02 3.731740713119506836e-01 -1.178071126341819763e-01 -3.025065660476684570e+00 1.877594113349914551e+00 -8.890365958213806152e-01 -1.703419566154479980e+00 6.285444498062133789e-01 1.487706184387207031e+00 -5.269078612327575684e-01 -3.060985505580902100e-01 -2.100441455841064453e+00 1.574853897094726562e+00 -1.157310679554939270e-01 -2.381043910980224609e+00 3.907479047775268555e-01 1.108885765075683594e+00 -2.898865699768066406e+00 2.188969135284423828e+00 -5.541558265686035156e-01 -2.323961973190307617e+00 -3.708154261112213135e-01 -2.304173231124877930e+00 2.129424333572387695e+00 9.615124464035034180e-01 -9.581106901168823242e-01 2.308859586715698242e+00
2.457334756851196289e+00 6.273555755615234375e-01 1.585498213768005371e+00 -7.490419149398803711e-01 2.263716697692871094e+00 3.269880414009094238e-01 -1.455408811569213867e+00 2.493980646133422852e+00 1.857742428779602051e+00 -1.694358587265014648e+00 1.661207318305969238e+00 -1.511178016662597656e+00 -1.280296921730041504e+00 2.023960828781127930e+00 -2.334892272949218750e+00 -1.876573204994201660e+00 1.243030786514282227e+00 8.260757923126220703e-01 -3.373116552829742432e-01 -4.527050256729125977e-01 -2.048299074172973633e+00 -4.709099531173706055e-01 7.091062664985656738e-01 -1.791738748550415039e+00 -5.593993663787841797e-01 8.551579117774963379e-01 -1.973683357238769531e+00 1.842642426490783691e+00 -2.412262409925460815e-01 -2.243461370468139648e+00 -1.611264944076538086e+00 -1.517543911933898926e+00 -3.244826495647430420e-01 -2.365033864974975586e+00 1.313178420066833496e+00 2.620089054107666016e-01 3.522504866123199463e-01 -1.543117403984069824e+00 4.822238981723785400e-01 -5.604208707809448242e-01 1.931297063827514648e+00 5.070094466209411621e-01 1.603785037994384766e+00 -2.229755073785781860e-01 1.348588943481445312e+00 1.893025279045104980e+00 1.992832541465759277e+00 6.192746162414550781e-01 1.551265597343444824e+00 1.985451817512512207e+00 1.061329990625381470e-01 -6.329216361045837402e-01 1.640890240669250488e+00 2.605851888656616211e+00 1.343006968498229980e+00 1.173657536506652832e+00 -9.385707974433898926e-01 4.984771609306335449e-01 8.426622152328491211e-01 2.344277620315551758e+00 -1.565651178359985352e+00 -3.375799417495727539e+00 -2.779403448104858398e+00 3.955595493316650391e-01 4.366837739944458008e-01 -8.025912046432495117e-01 -5.960092544555664062e-01 -2.842958688735961914e+00 -1.402874946594238281e+00 3.402182161808013916e-01 -2.314682245254516602e+00 -2.483691215515136719e+00 -2.650985240936279297e+00 -2.574913501739501953e+00 -4.225107133388519287e-01 -1.561095356941223145e+00 -1.187728285789489746e+00 -9.789636731147766113e-01 -1.710210680961608887e+00 -2.696068286895751953e+00 1.795906782150268555e+00 2.310402870178222656e+00 1.478309929370880127e-01 2.002652168273925781e+00 1.864966630935668945e+00 -1.052028894424438477e+00 9.317350983619689941e-01 1.542902112007141113e+00 1.561519026756286621e+00 9.842502474784851074e-01 2.281917810440063477e+00 8.508898615837097168e-01 -6.825075745582580566e-01 1.110323190689086914e+00 9.561026692390441895e-01 -2.569168567657470703e+00 -1.865584999322891235e-01 -1.401598691940307617e+00 1.987200975418090820e+00 1.204455375671386719e+00
1.848842382431030273e+00 -1.065870165824890137e+00 2.551123142242431641e+00 -1.154877901077270508e+00 -1.354613184928894043e+00 -1.010138988494873047e+00 2.618078708648681641e+00 7.703704833984375000e-01 1.349717378616333008e+00 -6.672999262809753418e-01 -7.866185903549194336e-01 -2.528179645538330078e+00 -1.703253388404846191e+00 -2.021861553192138672e+00 1.775089800357818604e-01 6.522423028945922852e-01 -2.061111927032470703e+00 -1.795018315315246582e+00 -1.903930425643920898e+00 8.364649415016174316e-01 -1.067546963691711426e+00 7.894159555435180664e-01 -2.159013986587524414e+00 1.822476983070373535e+00 -1.991031289100646973e+00 1.402253270149230957e+00 -2.372821807861328125e+00 -1.693660974502563477e+00 1.252685785293579102e+00 -9.707818031311035156e-01 -1.631605625152587891e+00 3.532499074935913086e-01 -1.003595232963562012e+00 2.333916127681732178e-01 3.188290596008300781e-01 -5.130801796913146973e-01 9.983378052711486816e-01 -2.583942174911499023e+00 1.373829960823059082e+00 -2.529840767383575439e-01 2.379909753799438477e-01 2.553933560848236084e-01 1.497845411300659180e+00 -2.154698371887207031e+00 3.116208016872406006e-01 1.477775931358337402e+00 -2.544962167739868164e+00 1.543218255043029785e+00 1.687212824821472168e+00 -1.724311709403991699e+00 -9.511547088623046875e-01 4.693539738655090332e-01 -3.251278102397918701e-01 1.022990107536315918e+00 7.163500189781188965e-01 4.297493100166320801e-01 8.094018697738647461e-01 7.669761180877685547e-01 -1.617322444915771484e+00 1.979364514350891113e+00 4.274727404117584229e-01 8.173979073762893677e-02 -7.790290713310241699e-01 -1.837297081947326660e+00 -6.452848315238952637e-01 4.224983453750610352e-01 -2.069857120513916016e+00 2.259172916412353516e+00 5.590829253196716309e-01 -9.922496080398559570e-01 1.785533308982849121e+00 1.314028054475784302e-01 1.944389820098876953e+00 -1.063688635826110840e+00 -1.000641226768493652e+00 1.476394534111022949e+00 2.431226730346679688e+00 1.208282232284545898e+00 1.112206578254699707e+00 -5.204787254333496094e-01 2.354751348495483398e+00 -1.590726733207702637e+00 2.214805334806442261e-01 -1.381664872169494629e+00 -1.568088680505752563e-01 -2.451030969619750977e+00 1.208974361419677734e+00 -1.245522141456604004e+00 2.127323150634765625e+00 -4.285458326339721680e-01 2.051220178604125977e+00 5.487909317016601562e-01 2.509177684783935547e+00 -4.553747177124023438e-01 -5.638394951820373535e-01 1.224700212478637695e+00 1.954741716384887695e+00 2.354647159576416016e+00 1.275780677795410156e+00 -1.884041905403137207e+00
-1.268231630325317383e+00 1.203170537948608398e+00 1.842718601226806641e+00 1.541652798652648926e+00 4.203217625617980957e-01 2.468647718429565430e+00 4.805233180522918701e-01 -1.087316274642944336e+00 1.071414709091186523e+00 7.478204965591430664e-01 2.605421066284179688e+00 5.819812417030334473e-01 7.910045981407165527e-01 -1.511210799217224121e+00 3.925438597798347473e-02 1.232440590858459473e+00 1.113907337188720703e+00 2.380683183670043945e+00 -7.461671829223632812e-01 1.362225174903869629e+00 -7.696592807769775391e-01 -2.466145753860473633e+00 -1.004315614700317383e+00 -3.087385892868041992e-01 -2.849660158157348633e+00 1.194211840629577637e+00 1.883122473955154419e-01 1.344364136457443237e-01 8.322011828422546387e-01 1.002373218536376953e+00 -2.344482183456420898e+00 -4.053264260292053223e-01 -1.057709336280822754e+00 -6.153175830841064453e-01 8.025205731391906738e-01 -1.090351819992065430e+00 8.521183133125305176e-01 3.045682609081268311e-01 4.293304979801177979e-01 1.305847644805908203e+00 -4.552686512470245361e-01 -1.491505265235900879e+00 -1.813674092292785645e+00 -3.261650800704956055e+00 -2.684009552001953125e+00 -2.070445537567138672e+00 -2.253526926040649414e+00 -1.564997792243957520e+00 -6.350396871566772461e-01 -2.766087532043457031e+00 -1.833602190017700195e-01 -2.077604770660400391e+00 -1.606171965599060059e+00 -1.901996254920959473e+00 -1.931548714637756348e+00 -8.361926078796386719e-01 -1.910499095916748047e+00 -2.390550613403320312e+00 -4.639723002910614014e-01 -2.821605205535888672e-01 1.926035761833190918e+00 -5.256762504577636719e-01 1.557186245918273926e+00 2.327470779418945312e-01 5.213631391525268555e-01 7.436979413032531738e-01 1.491926193237304688e+00 1.609686374664306641e+00 2.160393476486206055e+00 3.503050506114959717e-01 1.182595133781433105e+00 -1.836547493934631348e+00 8.583858013153076172e-01 -1.402280092239379883e+00 -6.279084682464599609e-01 -7.826111316680908203e-01 2.979033291339874268e-01 2.407099485397338867e+00 -2.556723594665527344e+00 4.164585173130035400e-01 -2.298890352249145508e+00 1.961811065673828125e+00 2.520189762115478516e+00 -1.259055286645889282e-01 1.934806585311889648e+00 2.013945102691650391e+00 1.160179972648620605e+00 4.639077782630920410e-01 2.535813808441162109e+00 1.741081595420837402e+00 3.143396973609924316e-01 1.453728437423706055e+00 2.351316660642623901e-01 6.585332155227661133e-01 -1.894180536270141602e+00 2.262515306472778320e+00 1.833715438842773438e+00 -2.313782691955566406e+00 2.241046428680419922e+00 -1.061219096183776855e+00
1.196889162063598633e+00 1.063882470130920410e+00 -2.194396853446960449e-01 4.292075037956237793e-01 -1.789916157722473145e+00 -2.225078582763671875e+00 3.294451907277107239e-02 -1.418693304061889648e+00 -1.200527667999267578e+00 -9.533858895301818848e-01 1.892311722040176392e-01 -7.529339790344238281e-01 -6.940144300460815430e-01 -2.021558523178100586e+00 1.813094735145568848e+00 -1.257567763328552246e+00 7.427586317062377930e-01 -1.161982178688049316e+00 1.712699770927429199e+00 2.729692459106445312e+00 2.308347940444946289e+00 1.049926280975341797e+00 5.698035359382629395e-01 5.929270386695861816e-01 -2.536906301975250244e-01 2.264137983322143555e+00 1.984675049781799316e+00 -4.454033821821212769e-02 -6.600330471992492676e-01 2.849911451339721680e+00 4.347867667675018311e-01 3.958009481430053711e-01 -9.214057922363281250e-01 -3.650246560573577881e-01 2.281889915466308594e+00 -7.701704651117324829e-02 2.734799861907958984e+00 2.964268438518047333e-02 2.182202100753784180e+00 1.354519605636596680e+00 -2.189576148986816406e+00 2.213762044906616211e+00 -1.804401874542236328e+00 5.017325878143310547e-01 -2.066229820251464844e+00 6.935933828353881836e-01 2.083381563425064087e-01 7.541469931602478027e-01 2.194372653961181641e+00 1.135508537292480469e+00 9.289136528968811035e-01 -1.012439608573913574e+00 -1.404248356819152832e+00 2.910864055156707764e-01 -1.835770010948181152e+00 -1.695285558700561523e+00 -1.172100424766540527e+00 -6.135407090187072754e-01 -9.331342577934265137e-01 -1.123381257057189941e+00 -1.918310761451721191e+00 -1.258193492889404297e+00 1.148842453956604004e+00 -1.710641622543334961e+00 2.684090137481689453e+00 2.140852451324462891e+00 -1.094596624374389648e+00 4.682028591632843018e-01 1.413678526878356934e+00 -4.938001036643981934e-01 7.238759398460388184e-01 -1.241668701171875000e+00 3.735201656818389893e-01 9.827300310134887695e-01 2.191292762756347656e+00 -1.738533258438110352e+00 -1.704447269439697266e+00 -1.544338822364807129e+00 -4.890580773353576660e-01 2.374896526336669922e+00 -7.613691687583923340e-01 -9.706868529319763184e-01 -1.733031034469604492e+00 -2.018091678619384766e+00 -1.660410165786743164e+00 -1.507115840911865234e+00 1.685959815979003906e+00 5.458586812019348145e-01 1.097250103950500488e+00 -1.024877786636352539e+00 -9.059232473373413086e-01 -1.281720638275146484e+00 -2.476205348968505859e+00 -1.598235726356506348e+00 3.701592981815338135e-01 2.286163330078125000e+00 1.622114896774291992e+00 5.082961916923522949e-01 3.135450780391693115e-01 -1.786373257637023926e+00
-1.430390954017639160e+00 7.948057055473327637e-01 -1.319994807243347168e+00 -2.495708018541336060e-01 5.447308421134948730e-01 2.073196887969970703e+00 1.254160761833190918e+00 1.777887701988220215e+00 -8.011286258697509766e-01 1.970368623733520508e+00 -1.653918266296386719e+00 -4.856895804405212402e-01 -5.249539017677307129e-01 -2.937949001789093018e-01 -2.164465427398681641e+00 -1.725082397460937500e+00 1.117441177368164062e+00 -5.340660810470581055e-01 5.729401707649230957e-01 5.306720137596130371e-01 -1.532976031303405762e+00 -8.886240720748901367e-01 -1.831924676895141602e+00 -1.681166291236877441e+00 4.216090738773345947e-01 -1.682977318763732910e+00 1.263794898986816406e+00 6.680780053138732910e-01 -1.209226727485656738e+00 -1.462437152862548828e+00 4.596585035324096680e-01 -5.027812123298645020e-01 -1.239417791366577148e+00 2.124624013900756836e+00 2.032287120819091797e+00 -7.494744062423706055e-01 -2.559649944305419922e+00 -1.054765939712524414e+00 -1.318134069442749023e+00 -7.806207537651062012e-01 1.478390336036682129e+00 -1.869686365127563477e+00 -1.354308247566223145e+00 -7.823344469070434570e-01 -8.235788941383361816e-01 6.493881940841674805e-01 2.040040969848632812e+00 -1.872022628784179688e+00 -1.343484878540039062e+00 2.650486230850219727e+00 -1.333837747573852539e+00 -1.372546315193176270e+00 -1.559382915496826172e+00 -1.086673617362976074e+00 4.763740301132202148e-01 1.349985718727111816e+00 7.689796686172485352e-01 -1.733764529228210449e+00 -2.903373539447784424e-01 5.378083586692810059e-01 -1.408042907714843750e+00 1.288362026214599609e+00 -1.456628680229187012e+00 1.204869508743286133e+00 -7.800114750862121582e-01 1.154617071151733398e+00 1.472885608673095703e+00 7.706802487373352051e-01 1.225583672523498535e+00 -2.472945690155029297e+00 -2.811572849750518799e-01 -2.130978822708129883e+00 2.594279289245605469e+00 -2.103610515594482422e+00 1.780585169792175293e+00 1.182070016860961914e+00 -7.086755335330963135e-02 1.569884777069091797e+00 -1.095624923706054688e+00 -7.683946490287780762e-01 3.124563694000244141e+00 -1.350975513458251953e+00 1.695216536521911621e+00 1.580697178840637207e+00 9.555737376213073730e-01 1.648156881332397461e+00 1.487931728363037109e+00 7.046483755111694336e-01 -1.199164867401123047e+00 1.702753543853759766e+00 -1.097088217735290527e+00 -1.690948158502578735e-01 1.416127800941467285e+00 -1.012573957443237305e+00 2.181992530822753906e+00 1.494150757789611816e+00 1.218075633049011230e+00 -1.071968436241149902e+00 2.561023473739624023e+00 3.257287144660949707e-01
-8.341304063796997070e-01 -1.869454741477966309e+00 5.613490343093872070e-01 2.111042022705078125e+00 -2.579468190670013428e-01 3.853324800729751587e-02 -5.089195370674133301e-01 -1.444876432418823242e+00 1.846725940704345703e+00 -2.145133495330810547e+00 -1.451351330615580082e-03 -2.615668058395385742e+00 -1.212714791297912598e+00 -2.609440326690673828e+00 -2.727634668350219727e+00 -2.405667781829833984e+00 -2.908251047134399414e+00 -4.017709791660308838e-01 -1.033671855926513672e+00 -2.164418220520019531e+00 9.226157665252685547e-01 2.546928167343139648e+00 1.295908927917480469e+00 2.470591545104980469e+00 -8.600519299507141113e-01 -7.527732253074645996e-01 1.767517328262329102e-01 -5.585504174232482910e-01 1.848738908767700195e+00 1.453198075294494629e+00 1.377192974090576172e+00 -2.642289549112319946e-02 -2.642077445983886719e+00 1.775592714548110962e-01 9.167950153350830078e-01 2.211665630340576172e+00 -2.783218860626220703e+00 5.473827719688415527e-01 1.636416792869567871e+00 2.020820617675781250e+00 -1.586385011672973633e+00 -7.318276166915893555e-01 -6.322875618934631348e-01 -4.029726684093475342e-01 -1.281063079833984375e+00 7.735828757286071777e-01 1.728700757026672363e+00 1.666702985763549805e+00 -8.182716369628906250e-01 -1.464525699615478516e+00 -1.360745579004287720e-01 1.727188825607299805e+00 1.361956357955932617e+00 1.522058963775634766e+00 1.961928129196166992e+00 -1.508620738983154297e+00 -2.053662776947021484e+00 -1.499145150184631348e+00 7.829713821411132812e-01 1.455440640449523926e+00 -1.938003301620483398e-01 -1.717431068420410156e+00 2.230039596557617188e+00 3.309252560138702393e-01 -1.213463425636291504e+00 1.277436733245849609e+00 4.663380980491638184e-01 -3.254279613494873047e+00 -1.315554261207580566e+00 -1.329159498214721680e+00 -2.377421379089355469e+00 -4.244966804981231689e-01 7.108940482139587402e-01 -4.975568950176239014e-01 1.541052699089050293e+00 -8.348530530929565430e-01 4.603272974491119385e-01 5.995151996612548828e-01 1.163236856460571289e+00 -1.410135984420776367e+00 2.324065923690795898e+00 1.140545964241027832e+00 5.767883062362670898e-01 1.852747201919555664e+00 -4.156374931335449219e-01 1.179165363311767578e+00 1.291191339492797852e+00 -1.699233651161193848e-01 -2.188551187515258789e+00 1.223970174789428711e+00 -1.204541206359863281e+00 -5.682526230812072754e-01 7.993944883346557617e-01 1.780455350875854492e+00 8.386722207069396973e-01 1.995417356491088867e+00 2.226222991943359375e+00 2.350603342056274414e+00 -8.292734026908874512e-01 7.672030478715896606e-02
8.509642481803894043e-01 2.848672628402709961e+00 1.149593830108642578e+00 -8.333053588867187500e-01 2.996554613113403320e+00 1.196262478828430176e+00 8.947927355766296387e-01 1.233103871345520020e+00 -2.925890684127807617e-01 1.106552720069885254e+00 1.009082198143005371e+00 -1.744463324546813965e+00 -1.146075367927551270e+00 1.852048635482788086e+00 2.025688886642456055e+00 1.413033008575439453e+00 -1.225301265716552734e+00 -6.801233291625976562e-01 6.490138173103332520e-01 2.137682437896728516e+00 -1.648505926132202148e+00 -4.085265100002288818e-01 8.481824398040771484e-01 -1.906519412994384766e+00 2.251950263977050781e+00 -9.077275395393371582e-01 -6.021297574043273926e-01 -1.920570850372314453e+00 5.713655948638916016e-01 -1.686953186988830566e+00 -1.467656850814819336e+00 6.115581393241882324e-01 5.841804146766662598e-01 -6.511695981025695801e-01 -1.510175466537475586e+00 1.539529085159301758e+00 -1.818523883819580078e+00 -1.177634477615356445e+00 -6.071115732192993164e-01 2.161750555038452148e+00 1.140982210636138916e-01 1.712975353002548218e-01 8.498324751853942871e-01 2.354073524475097656e+00 -2.776267230510711670e-01 2.711899995803833008e+00 -1.784724473953247070e+00 -1.393492221832275391e+00 -1.849134802818298340e+00 2.432823181152343750e+00 2.685523509979248047e+00 -4.577327370643615723e-01 -1.789890766143798828e+00 1.902318596839904785e+00 -2.496521472930908203e+00 -1.564534902572631836e+00 2.632365942001342773e+00 -5.072590708732604980e-01 3.314564526081085205e-01 -7.430148720741271973e-01 -1.370184659957885742e+00 -1.718836069107055664e+00 -9.231854677200317383e-01 -1.387822151184082031e+00 -1.471341609954833984e+00 -2.192303419113159180e+00 -1.534696102142333984e+00 -1.551320791244506836e+00 -7.844767570495605469e-01 -1.910066723823547363e+00 -2.216683626174926758e+00 -1.021867871284484863e+00 -2.549841642379760742e+00 -2.090312242507934570e+00 -2.490043163299560547e+00 -5.732131600379943848e-01 -1.118672728538513184e+00 -2.792714357376098633e+00 3.950069844722747803e-01 -2.627443313598632812e+00 6.834731996059417725e-02 1.418101906776428223e+00 2.348837614059448242e+00 1.623661398887634277e+00 1.177539229393005371e+00 2.976285696029663086e+00 1.957997798919677734e+00 -1.704507231712341309e+00 1.511053323745727539e+00 1.902234673500061035e+00 -1.620483756065368652e+00 9.284959435462951660e-01 -2.641717195510864258e-01 1.782880544662475586e+00 1.296043395996093750e+00 1.251817941665649414e+00 1.875443696975708008e+00 5.435340404510498047e-01 -3.188465833663940430e-01 1.823577284812927246e+00
1.233527183532714844e+00 -1.200601816177368164e+00 1.367864608764648438e+00 6.698513031005859375e-02 7.896647453308105469e-01 -2.383374214172363281e+00 -1.722066879272460938e+00 2.301607608795166016e+00 1.778283476829528809e+00 -2.312343269586563110e-01 3.359021544456481934e-01 5.589572787284851074e-01 1.217427611351013184e+00 1.257787704467773438e+00 8.603703975677490234e-02 2.368248999118804932e-01 -3.816035687923431396e-01 -5.668907165527343750e-01 -4.782418906688690186e-01 -2.182650566101074219e+00 -1.175742983818054199e+00 -3.511033654212951660e-01 4.612860381603240967e-01 -1.618476152420043945e+00 2.659552812576293945e+00 -1.148049354553222656e+00 2.570865869522094727e+00 -1.019721627235412598e+00 3.323970735073089600e-01 8.531977534294128418e-01 1.532114624977111816e+00 -1.565625786781311035e+00 -1.891370058059692383e+00 1.206963896751403809e+00 1.058368563652038574e+00 -2.063918828964233398e+00 1.567828536033630371e+00 2.105221748352050781e+00 -2.362235307693481445e+00 2.259412527084350586e+00 -1.688426494598388672e+00 -1.313103318214416504e+00 1.506541013717651367e+00 -2.552255630493164062e+00 -2.341866970062255859e+00 -1.938325405120849609e+00 -1.225849628448486328e+00 -6.887483000755310059e-01 2.043116241693496704e-01 -1.154493212699890137e+00 8.870042562484741211e-01 4.438401460647583008e-01 -8.915634751319885254e-01 -2.208305358886718750e+00 1.633814454078674316e+00 1.366001844406127930e+00 -6.715829372406005859e-01 -3.370200097560882568e-01 -2.400163888931274414e+00 -1.959097981452941895e+00 -1.924284219741821289e+00 5.845475792884826660e-01 2.055325031280517578e+00 1.820850729942321777e+00 -3.591331839561462402e-01 2.211642265319824219e-01 2.519158124923706055e+00 -1.688165664672851562e+00 2.055558681488037109e+00 -8.532767891883850098e-01 -6.821723580360412598e-01 2.391158342361450195e+00 -2.799615561962127686e-01 3.027191758155822754e-01 2.693042278289794922e+00 2.985186338424682617e+00 2.795551061630249023e+00 1.274868939071893692e-02 1.206694960594177246e+00 7.463660836219787598e-01 8.145735859870910645e-01 -1.879222393035888672e+00 9.062879085540771484e-01 -2.201500415802001953e+00 6.338251233100891113e-01 -2.779254615306854248e-01 5.441535711288452148e-01 2.698636054992675781e-01 -2.101170301437377930e+00 -6.697113513946533203e-01 -1.124145984649658203e+00 6.829149723052978516e-01 2.848458588123321533e-01 -1.259787797927856445e+00 2.404087036848068237e-01 -1.939095616340637207e+00 -1.503909468650817871e+00 -3.975488543510437012e-01 1.777090430259704590e+00 3.822327777743339539e-02
1.981655836105346680e+00 -3.874654173851013184e-01 -2.434192419052124023e+00 -9.822384119033813477e-01 -1.188600420951843262e+00 -6.617336869239807129e-01 -1.758841037750244141e+00 1.065163135528564453e+00 5.821343660354614258e-01 -1.750435471534729004e+00 -2.161679983139038086e+00 1.669950008392333984e+00 -9.822980165481567383e-01 -1.841147541999816895e+00 -1.782439231872558594e+00 -1.584406614303588867e+00 -2.258362054824829102e+00 -1.105112314224243164e+00 -1.038998603820800781e+00 7.367527484893798828e-01 -2.020587474107742310e-01 2.369726449251174927e-01 3.242201209068298340e-01 2.016530275344848633e+00 3.263868093490600586e-01 1.167489811778068542e-01 -1.400080680847167969e+00 -2.985689401626586914e+00 -1.833461999893188477e+00 -3.038881719112396240e-01 1.627210974693298340e+00 -1.870241522789001465e+00 -2.847580194473266602e+00 2.528376102447509766e+00 -9.787271618843078613e-01 -2.027583122253417969e+00 -1.536829113960266113e+00 -1.456086158752441406e+00 -2.159419298171997070e+00 -1.422008633613586426e+00 -8.106469511985778809e-01 -8.048842549324035645e-01 2.975085258483886719e+00 8.918935656547546387e-01 -1.194248914718627930e+00 -1.509877443313598633e+00 2.105740308761596680e+00 2.606873512268066406e-01 5.574409961700439453e-01 1.793916702270507812e+00 2.373315572738647461e+00 1.506487250328063965e+00 2.310994863510131836e+00 -1.639041066169738770e+00 2.360418558120727539e+00 -1.456758856773376465e+00 -8.330959081649780273e-02 7.768651247024536133e-01 -1.893480420112609863e+00 -1.341753959655761719e+00 -1.336608886718750000e+00 -2.231756597757339478e-01 7.226853966712951660e-01 -1.293813943862915039e+00 2.950755357742309570e+00 2.561381816864013672e+00 3.328539729118347168e-01 4.429195523262023926e-01 1.930590391159057617e+00 2.363522291183471680e+00 2.502283573150634766e+00 -1.325023531913757324e+00 2.346742391586303711e+00 -9.872465133666992188e-01 2.417479515075683594e+00 -2.738640308380126953e-01 -9.318222403526306152e-01 1.457223176956176758e+00 -9.360660612583160400e-02 -1.033669710159301758e+00 6.801036596298217773e-01 2.295034408569335938e+00 -1.850500822067260742e+00 9.878248572349548340e-01 -1.931422948837280273e+00 4.287724792957305908e-01 2.141542285680770874e-01 -1.472133845090866089e-01 -1.061908245086669922e+00 -5.596251487731933594e-01 1.160075515508651733e-01 2.053992271423339844e+00 1.637267589569091797e+00 2.164768218994140625e+00 2.627280235290527344e+00 1.361709713935852051e+00 -7.811055779457092285e-01 -7.754019498825073242e-01 1.459220647811889648e+00 5.729651451110839844e-01
2.190208911895751953e+00 -2.282416343688964844e+00 2.045131444931030273e+00 -8.549187183380126953e-01 1.166331887245178223e+00 -1.480007648468017578e+00 3.856445550918579102e-01 -1.665923953056335449e+00 -2.335481643676757812e+00 -5.117151737213134766e-01 4.604964256286621094e-01 1.147505640983581543e+00 -1.313185095787048340e+00 2.630674242973327637e-01 1.949199914932250977e+00 1.381250381469726562e+00 -1.883427947759628296e-01 -6.864688396453857422e-01 -5.890343189239501953e-01 -2.812704086303710938e+00 -2.397760868072509766e+00 -2.709031701087951660e-01 1.790940761566162109e+00 -2.393054962158203125e+00 2.293065786361694336e+00 -1.716385722160339355e+00 4.528179466724395752e-01 1.363525152206420898e+00 9.417738914489746094e-01 1.599270462989807129e+00 -1.107304334640502930e+00 -1.120930194854736328e+00 -8.602979779243469238e-01 3.542340397834777832e-01 -9.894024133682250977e-01 2.677699327468872070e+00 1.467723608016967773e+00 2.209118604660034180e+00 3.970935046672821045e-01 -6.335786581039428711e-01 1.841156482696533203e+00 7.926043123006820679e-02 -2.147783517837524414e+00 1.588079333305358887e+00 6.580574512481689453e-01 -1.772375702857971191e+00 -6.455851197242736816e-01 -2.580065250396728516e+00 -2.721414804458618164e+00 -1.353953599929809570e+00 -3.975802659988403320e-01 -1.214756488800048828e+00 -2.149454593658447266e+00 -1.078097820281982422e-01 -2.115988016128540039e+00 -2.306684106588363647e-01 -1.782215118408203125e+00 1.334190726280212402e+00 -1.764700531959533691e+00 6.917374730110168457e-01 1.396767616271972656e+00 1.118344187736511230e+00 -7.438040375709533691e-01 2.261147499084472656e+00 2.417321920394897461e+00 1.592009544372558594e+00 1.381453275680541992e+00 -1.069833159446716309e+00 8.032439947128295898e-01 9.467552900314331055e-01 1.706826090812683105e+00 1.623904466629028320e+00 8.436676859855651855e-01 1.423124909400939941e+00 -5.654936432838439941e-01 -1.178916454315185547e+00 1.522913455963134766e+00 2.082722902297973633e+00 3.606865704059600830e-01 -1.279148738831281662e-02 1.348830938339233398e+00 -6.361003518104553223e-01 -5.072310566902160645e-01 -1.862591952085494995e-01 -5.146555304527282715e-01 -1.640372395515441895e+00 -7.588478922843933105e-01 1.941044688224792480e+00 -7.768210172653198242e-01 -1.949061870574951172e+00 1.346725463867187500e+00 1.050469756126403809e+00 2.514904260635375977e+00 8.862119913101196289e-02 -2.417572736740112305e+00 -7.396649122238159180e-01 -2.688712596893310547e+00 1.540479898452758789e+00 -1.584114313125610352e+00 6.583045721054077148e-01
-1.700159430503845215e+00 -7.122611999511718750e-01 2.009284496307373047e+00 1.550247907638549805e+00 -2.175349473953247070e+00 5.530164241790771484e-01 -8.287184238433837891e-01 -2.762813679873943329e-02 -1.532618045806884766e+00 1.260252833366394043e+00 2.121666632592678070e-02 2.139386415481567383e+00 -1.336852312088012695e+00 -7.372346520423889160e-01 1.773185372352600098e+00 1.655830025672912598e+00 1.620776176452636719e+00 3.193595409393310547e+00 -1.009026527404785156e+00 1.090464711189270020e+00 -6.424750685691833496e-01 1.042160630226135254e+00 -2.242528200149536133e+00 1.150552272796630859e+00 -5.721307992935180664e-01 2.194932222366333008e+00 -7.272518873214721680e-01 9.113228321075439453e-01 -8.194918632507324219e-01 2.248139083385467529e-01 1.346371650695800781e+00 -1.803717851638793945e+00 -1.249337941408157349e-01 -1.792962312698364258e+00 9.813281297683715820e-01 2.402205705642700195e+00 -1.026356935501098633e+00 6.342659592628479004e-01 -1.944146633148193359e+00 -2.523994922637939453e+00 -1.539251923561096191e+00 -1.403974056243896484e+00 1.295453429222106934e+00 7.962754964828491211e-01 -6.333417296409606934e-01 1.463443040847778320e+00 6.126461625099182129e-01 -1.867640495300292969e+00 6.539593338966369629e-01 1.039330124855041504e+00 -2.006472587585449219e+00 -2.690473079681396484e+00 5.919738858938217163e-02 3.904118835926055908e-01 -2.630565404891967773e+00 -2.258341789245605469e+00 -4.817991256713867188e-01 1.888548731803894043e+00 -9.262811541557312012e-01 -3.091759085655212402e-01 2.423632383346557617e+00 2.166655540466308594e+00 -1.943142414093017578e+00 1.862564325332641602e+00 1.973302811384201050e-01 1.555451035499572754e+00 1.872859001159667969e+00 -4.690598249435424805e-01 -1.724937111139297485e-01 9.785988926887512207e-01 6.598451137542724609e-01 4.938989579677581787e-01 1.423019528388977051e+00 3.589537143707275391e-01 9.486252665519714355e-01 -2.332784891128540039e+00 2.022718489170074463e-01 2.137937307357788086e+00 2.403414726257324219e+00 7.387923002243041992e-01 -1.527622938156127930e+00 -2.307651281356811523e+00 -6.299917101860046387e-01 -3.031634330749511719e+00 -9.085220694541931152e-01 7.638461589813232422e-01 1.996768236160278320e+00 -1.331908106803894043e+00 2.246211528778076172e+00 -6.036972999572753906e-01 1.943405717611312866e-01 -1.381937861442565918e+00 -1.781535029411315918e+00 -2.759196996688842773e+00 4.883340597152709961e-01 -1.362784266471862793e+00 -5.548106431961059570e-01 1.536755800247192383e+00 -2.954572625458240509e-02 1.114608168601989746e+00
-1.064764261245727539e+00 5.527592897415161133e-01 -2.916802883148193359e+00 -1.977602481842041016e+00 5.533910393714904785e-01 -4.177042245864868164e-01 -2.253260374069213867e+00 -5.454902052879333496e-01 -1.562830448150634766e+00 -2.202991485595703125e+00 6.921415925025939941e-01 -1.038376569747924805e+00 1.526632547378540039e+00 2.088830471038818359e+00 3.152301907539367676e-01 5.702974647283554077e-02 -5.294450521469116211e-01 -5.696219205856323242e-01 2.497536659240722656e+00 -1.288258433341979980e+00 5.377942919731140137e-01 2.329144954681396484e+00 2.257078886032104492e+00 -1.446627140045166016e+00 2.485079526901245117e+00 2.636672854423522949e-01 3.318160533905029297e+00 -2.850759327411651611e-01 2.766644001007080078e+00 1.613160490989685059e+00 2.488708972930908203e+00 1.951683759689331055e+00 2.250868797302246094e+00 1.075207471847534180e+00 2.251728773117065430e+00 1.164278626441955566e+00 5.357192158699035645e-01 1.989196777343750000e+00 8.328261375427246094e-01 2.596750259399414062e+00 -2.378178089857101440e-01 6.161745190620422363e-01 -2.180292129516601562e+00 1.654769659042358398e+00 -4.175251424312591553e-01 3.939122557640075684e-01 -5.661465972661972046e-02 1.283762454986572266e+00 1.056376814842224121e+00 1.872298598289489746e+00 4.431134089827537537e-02 3.648968935012817383e-01 1.421226263046264648e+00 1.482957750558853149e-01 6.395362019538879395e-01 1.189259409904479980e+00 3.393884599208831787e-01 1.551375269889831543e+00 7.934820055961608887e-01 7.607598900794982910e-01 4.267292022705078125e-01 -1.307664752006530762e+00 -5.166539549827575684e-01 -1.619435310363769531e+00 -5.904310345649719238e-01 -2.166449546813964844e+00 -1.676488280296325684e+00 -1.340389966964721680e+00 -1.144554972648620605e+00 1.486895829439163208e-01 -7.701774239540100098e-01 -1.632118076086044312e-01 -1.025693535804748535e+00 -2.753077745437622070e+00 1.442160606384277344e+00 -9.840721487998962402e-01 -2.772051811218261719e+00 -8.760187029838562012e-01 -9.685298800468444824e-01 1.811481356620788574e+00 -1.957588315010070801e+00 -1.740994811058044434e+00 -1.880321383476257324e+00 1.302446007728576660e+00 -5.611637830734252930e-01 1.059166431427001953e+00 -1.677367329597473145e+00 -1.027662038803100586e+00 -1.447084188461303711e+00 4.362952113151550293e-01 9.428040385246276855e-01 -2.281091213226318359e+00 -2.289676427841186523e+00 1.043653607368469238e+00 1.597434878349304199e+00 -2.027063369750976562e+00 -1.740361213684082031e+00 -1.056025624275207520e+00 -1.976889252662658691e+00 -1.838915228843688965e+00
2.041489124298095703e+00 -1.716779321432113647e-01 1.782788634300231934e+00 -9.731253981590270996e-01 -2.243699550628662109e+00 1.815774917602539062e+00 1.925559997558593750e+00 1.568175077438354492e+00 2.003567934036254883e+00 1.870107650756835938e+00 1.276361465454101562e+00 2.929211854934692383e+00 1.976827263832092285e+00 1.773228168487548828e+00 8.428216576576232910e-01 1.279249310493469238e+00 2.868303537368774414e+00 -8.663732409477233887e-01 1.175882816314697266e+00 8.060447573661804199e-01 1.929454088211059570e+00 2.081313848495483398e+00 -1.040874600410461426e+00 -2.332599163055419922e+00 7.517770528793334961e-01 1.133886575698852539e+00 -1.319260001182556152e+00 2.725356817245483398e+00 -4.285342395305633545e-01 -1.473636746406555176e+00 1.019371114671230316e-02 2.312475204467773438e+00 3.763793110847473145e-01 -3.164379596710205078e+00 -9.661083221435546875e-01 -1.752622872591018677e-01 -5.894959568977355957e-01 -6.101717054843902588e-02 2.819666385650634766e+00 2.934561252593994141e+00 -9.403696656227111816e-01 -2.756197750568389893e-02 -1.608929485082626343e-01 3.124896287918090820e-01 -1.649288535118103027e+00 -2.707591056823730469e+00 3.073449611663818359e+00 1.709237456321716309e+00 -6.283066272735595703e-01 -8.665770292282104492e-01 -1.032046198844909668e+00 1.888363718986511230e+00 6.038967147469520569e-02 -1.332898497581481934e+00 4.292826056480407715e-01 -1.824996918439865112e-01 -1.996967911720275879e+00 1.334881067276000977e+00 2.548389732837677002e-01 -1.961675167083740234e+00 1.896909952163696289e+00 -1.295395731925964355e+00 2.718752861022949219e+00 -2.460634469985961914e+00 -1.512811303138732910e+00 -1.081777215003967285e+00 -1.866176843643188477e+00 7.376347780227661133e-01 2.427352190017700195e+00 1.396905303001403809e+00 -1.471692085266113281e+00 -5.940022468566894531e-01 -1.404744625091552734e+00 -1.108170270919799805e+00 -1.928337812423706055e+00 -1.305249571800231934e+00 -2.489358186721801758e+00 -2.091185301542282104e-01 -2.694078445434570312e+00 9.552255868911743164e-01 -3.774696290493011475e-01 -1.823385238647460938e+00 2.379431247711181641e+00 -1.857972502708435059e+00 1.576439142227172852e+00 -1.095567584037780762e+00 -3.002485632896423340e-01 -5.493722558021545410e-01 -4.408355653285980225e-01 -1.174529075622558594e+00 -1.677300572395324707e+00 -1.787761092185974121e+00 8.846669197082519531e-01 -1.348704546689987183e-01 -2.976216554641723633e+00 1.510849356651306152e+00 -2.001427888870239258e+00 -6.349984556436538696e-02 -1.650791168212890625e+00 -2.505532503128051758e+00
-5.914040803909301758e-01 2.123978853225708008e+00 6.186244487762451172e-01 2.840228796005249023e+00 1.521676898002624512e+00 -1.306110024452209473e+00 1.323038339614868164e+00 1.086369037628173828e+00 1.780297398567199707e+00 4.150076210498809814e-02 -3.470642566680908203e-01 -1.090760305523872375e-01 -1.873356401920318604e-01 -2.456380128860473633e+00 1.176698207855224609e+00 1.354664325714111328e+00 9.481099247932434082e-01 -7.178676724433898926e-01 2.377401828765869141e+00 9.554820060729980469e-01 1.659083962440490723e+00 8.852003216743469238e-01 -1.804190397262573242e+00 2.044148921966552734e+00 2.322776556015014648e+00 -1.162119984626770020e+00 -1.078244328498840332e+00 2.472411155700683594e+00 -1.813934326171875000e+00 1.079915761947631836e+00 -9.027784466743469238e-01 3.509027659893035889e-01 -1.276979446411132812e+00 2.526141405105590820e+00 1.417813062667846680e+00 -1.545321702957153320e+00 1.937367081642150879e+00 -8.356959819793701172e-01 1.566843390464782715e-01 9.294520616531372070e-01 2.086556553840637207e-01 2.231660366058349609e+00 -1.054338455200195312e+00 3.664917647838592529e-01 2.018201112747192383e+00 -2.092834413051605225e-01 1.035871982574462891e+00 -2.549869537353515625e+00 2.368512630462646484e+00 2.602758407592773438e+00 1.122640728950500488e+00 2.654079198837280273e+00 -1.286208629608154297e+00 -2.283933639526367188e+00 1.629840612411499023e+00 -2.831020116806030273e+00 9.002641439437866211e-01 1.008934140205383301e+00 1.955043315887451172e+00 7.395970821380615234e-01 -1.312865018844604492e+00 -1.750236451625823975e-01 -1.687377929687500000e+00 -1.119260787963867188e+00 -2.084220170974731445e+00 -2.380689859390258789e+00 1.070534288883209229e-01 -2.909960031509399414e+00 -2.154743432998657227e+00 -2.425334930419921875e+00 1.618256568908691406e+00 -1.814028501510620117e+00 -2.555837854743003845e-02 -3.427199423313140869e-01 -1.800392389297485352e+00 -1.331493616104125977e+00 1.102249026298522949e+00 -3.244275093078613281e+00 1.437784582376480103e-01 -2.335721731185913086e+00 -5.866751670837402344e-01 -6.722692847251892090e-01 -1.404202342033386230e+00 4.834663867950439453e-01 2.226243734359741211e+00 -2.755870342254638672e+00 -1.707556486129760742e+00 -1.927350163459777832e-01 8.472654819488525391e-01 -9.200341105461120605e-01 6.684268116950988770e-01 7.503524888306856155e-03 -2.207462072372436523e+00 -4.463871419429779053e-01 8.910700678825378418e-01 1.374286174774169922e+00 -6.831133961677551270e-01 8.217741250991821289e-01 -8.526850938796997070e-01 -1.647382259368896484e+00
1.842727422714233398e+00 -8.464761972427368164e-01 5.257267951965332031e-01 2.109010457992553711e+00 -1.422621250152587891e+00 -3.460602760314941406e-01 2.060676574707031250e+00 2.269588947296142578e+00 5.411164090037345886e-02 4.494217038154602051e-01 8.000717759132385254e-01 9.555557370185852051e-01 1.141039848327636719e+00 8.945046067237854004e-01 2.167117118835449219e+00 3.276626169681549072e-01 1.921775698661804199e+00 1.261804580688476562e+00 -7.200152873992919922e-01 6.875353455543518066e-01 -1.614896059036254883e+00 -2.292225122451782227e+00 -1.351072192192077637e+00 -1.606907844543457031e+00 -5.903666615486145020e-01 2.690485417842864990e-01 -1.559234857559204102e+00 -2.823500156402587891e+00 -1.401884675025939941e+00 -4.007547795772552490e-01 -1.917467951774597168e+00 -2.185781478881835938e+00 -2.029293775558471680e+00 -3.748681843280792236e-01 -2.558245897293090820e+00 -2.429250478744506836e+00 -1.384217143058776855e+00 -1.283229231834411621e+00 -2.195194065570831299e-01 -2.623171091079711914e+00 9.671953320503234863e-01 -1.582206368446350098e+00 1.146804928779602051e+00 1.478661417961120605e+00 2.394727230072021484e+00 5.278831124305725098e-01 7.508130669593811035e-01 1.567270994186401367e+00 3.409134447574615479e-01 5.026792883872985840e-01 1.755398273468017578e+00 8.610219955444335938e-01 1.706123113632202148e+00 5.238000154495239258e-01 7.459849715232849121e-01 1.682981729507446289e+00 3.929457664489746094e-01 2.772854328155517578e+00 -8.935080170631408691e-01 1.007040619850158691e+00 -1.351175546646118164e+00 1.833499670028686523e+00 -9.889461845159530640e-02 -8.156081438064575195e-01 -5.626058578491210938e-02 -4.507473111152648926e-01 9.747880697250366211e-01 -2.038609981536865234e+00 -2.287187099456787109e+00 -1.001995444297790527e+00 -1.541773080825805664e+00 1.079797267913818359e+00 -1.454837203025817871e+00 5.843944549560546875e-01 -8.277702331542968750e-01 -2.157715320587158203e+00 5.035268068313598633e-01 -2.414811611175537109e+00 1.287364840507507324e+00 -7.499947398900985718e-02 -7.375345826148986816e-01 2.184805870056152344e-01 -6.681351065635681152e-01 -1.615668535232543945e+00 1.966541409492492676e+00 1.061402559280395508e+00 2.234960317611694336e+00 1.729522466659545898e+00 3.672973215579986572e-01 1.586005389690399170e-01 -1.584009677171707153e-01 1.039675235748291016e+00 9.658705592155456543e-01 8.996095657348632812e-01 -9.892474412918090820e-01 -1.730887889862060547e+00 -1.021458506584167480e+00 -7.892937660217285156e-01 2.020502805709838867e+00 2.143775522708892822e-01
-1.952943205833435059e+00 3.094841539859771729e-01 1.483802437782287598e+00 -2.823608636856079102e+00 -2.382178068161010742e+00 8.052136898040771484e-01 -2.772358357906341553e-01 -1.248967409133911133e+00 -4.804061949253082275e-01 6.002635955810546875e-01 -2.547605037689208984e+00 -2.404921531677246094e+00 -4.452671110630035400e-01 1.809481531381607056e-01 -1.734517455101013184e+00 -1.596353501081466675e-01 -2.447294712066650391e+00 -2.338453769683837891e+00 -1.172084927558898926e+00 2.161371707916259766e+00 9.120519757270812988e-01 -8.523684740066528320e-01 2.031265974044799805e+00 1.895747542381286621e+00 3.528317809104919434e-01 -1.299282193183898926e+00 -8.750299215316772461e-01 -1.298747062683105469e+00 -7.848621010780334473e-01 -5.364626049995422363e-01 -1.806330442428588867e+00 7.511111497879028320e-01 -3.795859515666961670e-01 -1.480618596076965332e+00 -2.428662538528442383e+00 -1.362714648246765137e+00 5.052659511566162109e-01 2.043125867843627930e+00 -4.795953631401062012e-01 -8.701209425926208496e-01 -2.866191387176513672e+00 1.497787594795227051e+00 6.526444554328918457e-01 -1.917196631431579590e+00 -8.634564280509948730e-01 -9.500763416290283203e-01 -1.926756381988525391e+00 8.566793203353881836e-01 -2.790215492248535156e+00 -1.089062213897705078e+00 -9.483963251113891602e-01 -1.715716123580932617e+00 2.053998708724975586e+00 -5.476729869842529297e-01 -4.404882490634918213e-01 1.858633279800415039e+00 1.477355718612670898e+00 2.226719856262207031e-01 1.115658283233642578e+00 -2.799595117568969727e+00 1.799975395202636719e+00 2.737334966659545898e+00 2.704167366027832031e-01 2.678209066390991211e+00 -2.354733467102050781e+00 2.411251515150070190e-01 -4.250832200050354004e-01 1.549690842628479004e+00 -3.042418062686920166e-01 -6.454147696495056152e-01 -1.979534983634948730e+00 1.790449976921081543e+00 -1.057800531387329102e+00 1.631714224815368652e+00 -3.618175983428955078e-01 2.218094468116760254e-01 -6.136616468429565430e-01 -2.953950166702270508e-01 6.161136627197265625e-01 -6.019884347915649414e-01 -2.322171449661254883e+00 2.000550478696823120e-01 2.415403842926025391e+00 3.087016046047210693e-01 9.636958837509155273e-01 1.700979769229888916e-01 2.703269243240356445e+00 2.173952579498291016e+00 2.279208421707153320e+00 1.700637698173522949e+00 2.191264629364013672e+00 2.441054105758666992e+00 1.644042849540710449e+00 1.926340103149414062e+00 2.018992900848388672e+00 -9.981935024261474609e-01 -6.253941655158996582e-01 2.549824714660644531e+00 2.081709146499633789e+00 2.782427310943603516e+00
-1.585446953773498535e+00 1.750231146812438965e+00 -7.417884469032287598e-01 -5.586556792259216309e-01 -2.094963550567626953e+00 -2.334929943084716797e+00 -1.462956815958023071e-01 -2.084969282150268555e+00 -2.037085533142089844e+00 -2.319074869155883789e+00 7.089586257934570312e-01 3.755059242248535156e-01 -1.913575291633605957e+00 5.555328130722045898e-01 -2.201273888349533081e-01 -1.446479678153991699e+00 -3.634167462587356567e-02 -1.342082470655441284e-01 -3.109171986579895020e-01 -1.815960049629211426e+00 -6.024098396301269531e-01 9.666486382484436035e-01 -1.213138401508331299e-01 -1.644798517227172852e-01 -2.201605796813964844e+00 -1.279035568237304688e+00 -2.125509977340698242e-01 1.887556314468383789e+00 1.709878206253051758e+00 1.545828461647033691e+00 -1.242804169654846191e+00 -9.661208987236022949e-01 -6.263597607612609863e-01 -2.286237955093383789e+00 -2.301778554916381836e+00 5.025304555892944336e-01 2.611376762390136719e+00 2.850940704345703125e+00 -7.178575396537780762e-01 -4.769653379917144775e-01 9.564006328582763672e-01 2.111812591552734375e+00 6.928839683532714844e-01 -1.800165653228759766e+00 3.215098083019256592e-01 -7.548118829727172852e-01 2.243076801300048828e+00 2.435165405273437500e+00 2.023600816726684570e+00 -5.085793733596801758e-01 -2.424170017242431641e+00 1.651119589805603027e+00 -1.523748755455017090e+00 2.666422367095947266e+00 4.044116437435150146e-01 2.714240789413452148e+00 -7.458378076553344727e-01 -1.331042647361755371e-01 1.931151866912841797e+00 -4.064218401908874512e-01 9.407060146331787109e-01 -2.275771379470825195e+00 -7.610054016113281250e-01 1.845155027695000172e-03 1.138991117477416992e+00 -1.517973065376281738e+00 1.622676014900207520e+00 7.886155843734741211e-01 1.456852555274963379e+00 1.183686852455139160e+00 -4.620223343372344971e-01 1.031432524323463440e-01 -1.269683718681335449e+00 -3.138636648654937744e-01 -1.280061125755310059e+00 1.077974557876586914e+00 6.840631365776062012e-01 -1.581253886222839355e+00 -6.818561553955078125e-01 -1.402416378259658813e-01 1.121456980705261230e+00 -1.198018908500671387e+00 4.725207388401031494e-01 2.601648330688476562e+00 -1.369430780410766602e+00 -5.535426363348960876e-02 -1.356620907783508301e+00 -1.460191488265991211e+00 7.821677327156066895e-01 6.674792766571044922e-01 2.473434209823608398e+00 -2.735405683517456055e+00 1.275111794471740723e+00 -1.290720343589782715e+00 1.192052483558654785e+00 5.399956181645393372e-02 1.116573691368103027e+00 1.196107506752014160e+00 5.892130136489868164e-01 2.016492605209350586e+00
1.127601265907287598e+00 -1.859433650970458984e+00 -2.812472581863403320e+00 1.325097560882568359e+00 9.505721926689147949e-01 -1.057350277900695801e+00 -2.204456806182861328e+00 -2.742930173873901367e+00 1.422526359558105469e+00 2.922039985656738281e+00 -1.047750711441040039e+00 -7.344827055931091309e-02 -1.605797648429870605e+00 1.427059292793273926e+00 -6.710581779479980469e-01 -9.916187524795532227e-01 1.766342520713806152e+00 1.661961555480957031e+00 2.154047727584838867e+00 1.007880687713623047e+00 -3.753943741321563721e-01 -3.780592381954193115e-01 -2.044941186904907227e+00 -2.572872161865234375e+00 -7.351926565170288086e-01 -2.473493814468383789e+00 -1.149524092674255371e+00 -2.575964927673339844e+00 2.191150903701782227e+00 1.359331250190734863e+00 -1.112292647361755371e+00 -1.170791625976562500e+00 4.527823626995086670e-01 -1.355117917060852051e+00 1.086930185556411743e-02 -6.083757877349853516e-01 -2.456191778182983398e+00 -1.382867932319641113e+00 1.101392388343811035e+00 -3.021774530410766602e+00 2.481728553771972656e+00 -1.454200744628906250e+00 2.861005067825317383e+00 2.578756332397460938e+00 2.276752948760986328e+00 2.397113323211669922e+00 1.727465987205505371e+00 2.097709655761718750e+00 1.221905827522277832e+00 -1.250682830810546875e+00 1.817713975906372070e+00 1.519920468330383301e+00 8.625721335411071777e-01 2.032179832458496094e+00 2.593362331390380859e+00 2.630962610244750977e+00 1.796578526496887207e+00 2.294089078903198242e+00 4.711098968982696533e-01 3.798978626728057861e-01 -1.473397761583328247e-01 2.766279458999633789e+00 -8.118318915367126465e-01 1.051756292581558228e-01 2.259407937526702881e-01 2.432455539703369141e+00 -1.842502236366271973e+00 5.958715677261352539e-01 -2.675264179706573486e-01 -1.482415199279785156e+00 -1.053440093994140625e+00 -9.411119818687438965e-01 2.059527158737182617e+00 -2.433747529983520508e+00 -1.809212088584899902e+00 1.882020384073257446e-01 4.116563498973846436e-01 -6.573020815849304199e-01 1.525092124938964844e+00 -1.661784887313842773e+00 -5.545925498008728027e-01 6.738293170928955078e-01 -7.121863961219787598e-01 -1.203464269638061523e+00 -1.012156605720520020e+00 2.141754180192947388e-01 -9.514384269714355469e-01 -5.927595496177673340e-01 -6.744126677513122559e-01 -7.137678265571594238e-01 1.166835904121398926e+00 6.539984345436096191e-01 -1.576006650924682617e+00 -1.383638978004455566e+00 -1.338800668716430664e+00 -6.533844470977783203e-01 1.019172549247741699e+00 -1.476564407348632812e+00 -5.420249700546264648e-01 -6.841332912445068359e-01
-2.079880714416503906e+00 -1.555888891220092773e+00 -2.003653526306152344e+00 -9.440309405326843262e-01 6.126409769058227539e-01 -9.364486336708068848e-01 6.264610886573791504e-01 -3.582992553710937500e-01 -3.910754621028900146e-01 3.050945401191711426e-01 -2.295874357223510742e+00 -9.367138147354125977e-01 -1.834924578666687012e+00 -1.958310961723327637e+00 -1.064353466033935547e+00 -1.869810700416564941e+00 -1.165155172348022461e-01 9.959537982940673828e-01 -1.717418313026428223e+00 -9.011797308921813965e-01 1.417925000190734863e+00 3.767628967761993408e-01 1.908222079277038574e+00 -4.269704222679138184e-01 1.483421564102172852e+00 2.081106185913085938e+00 -1.748042702674865723e+00 -4.167119860649108887e-01 7.010580897331237793e-01 2.596866846084594727e+00 6.898768246173858643e-02 2.669845342636108398e+00 1.164252638816833496e+00 1.186249732971191406e+00 1.684818148612976074e+00 4.192282855510711670e-01 2.407287597656250000e+00 -2.556431293487548828e-01 2.087734460830688477e+00 -5.468007326126098633e-01 2.033628463745117188e+00 -5.168784856796264648e-01 -8.097419738769531250e-01 3.893658816814422607e-01 1.571837902069091797e+00 -1.178545832633972168e+00 -8.122065067291259766e-01 -5.221485495567321777e-01 2.653892278671264648e+00 -7.692962288856506348e-01 -1.464864611625671387e+00 1.625954151153564453e+00 1.489481687545776367e+00 -1.303965330123901367e+00 2.693688154220581055e+00 2.045489549636840820e+00 8.584614396095275879e-01 1.990491628646850586e+00 2.861570358276367188e+00 -1.671897768974304199e-01 -5.389922261238098145e-01 1.903740525245666504e+00 -1.229545831680297852e+00 -7.193984985351562500e-01 -8.559525609016418457e-01 1.749594449996948242e+00 -1.006066083908081055e+00 -2.637952804565429688e+00 6.242341399192810059e-01 -2.964941859245300293e-01 1.906974196434020996e+00 -4.887291789054870605e-01 2.220458269119262695e+00 -1.430246353149414062e+00 -1.867575883865356445e+00 -1.421678662300109863e+00 -1.106957197189331055e+00 -1.790632963180541992e+00 -7.381491065025329590e-01 -2.581574320793151855e-01 -1.299038052558898926e+00 -5.611588358879089355e-01 7.926232218742370605e-01 -1.544999003410339355e+00 -1.085755109786987305e+00 -4.970352053642272949e-01 -1.744796276092529297e+00 1.865437626838684082e+00 -8.809477090835571289e-01 -1.812088012695312500e+00 -1.606728196144104004e+00 2.427087545394897461e+00 -1.377531766891479492e+00 -1.838296771049499512e+00 -1.531849652528762817e-01 2.138936519622802734e+00 1.980414867401123047e+00 -1.388319253921508789e+00 1.131844520568847656e+00 -5.889496803283691406e-01
1.937557220458984375e+00 1.462604165077209473e+00 6.149370074272155762e-01 2.929886817932128906e+00 1.002229809761047363e+00 2.544332981109619141e+00 2.906881093978881836e+00 2.260215759277343750e+00 1.699568390846252441e+00 -9.938975572586059570e-01 2.951522111892700195e+00 -5.754438638687133789e-01 2.739336729049682617e+00 -4.255328178405761719e-01 2.372674703598022461e+00 2.294306278228759766e+00 1.125226497650146484e+00 2.330030918121337891e+00 2.543310165405273438e+00 2.381929874420166016e+00 2.962384521961212158e-01 -5.439856648445129395e-01 1.537485837936401367e+00 1.529972314834594727e+00 -2.193963527679443359e+00 -4.943660795688629150e-01 2.087501525878906250e+00 -1.713304966688156128e-02 1.425006031990051270e+00 -1.144228100776672363e+00 -1.455167651176452637e+00 1.527720332145690918e+00 9.790995717048645020e-01 1.007114887237548828e+00 -1.275069236755371094e+00 2.873250842094421387e-01 -3.565330207347869873e-01 -1.982461452484130859e+00 -2.383727550506591797e+00 -1.038332343101501465e+00 2.062143087387084961e+00 1.211173176765441895e+00 1.647408127784729004e+00 -1.674993872642517090e+00 9.530001878738403320e-01 7.444387078285217285e-01 7.126974314451217651e-02 7.957553863525390625e-01 -1.742613792419433594e+00 1.695937514305114746e+00 3.125584125518798828e-01 1.366175889968872070e+00 -1.035493493080139160e+00 2.220482349395751953e+00 -9.989418387413024902e-01 1.667652845382690430e+00 -7.062661647796630859e-01 -2.418817758560180664e+00 2.399585008621215820e+00 -1.440335154533386230e+00 2.509508132934570312e-01 7.488633394241333008e-01 -1.294914484024047852e+00 -4.042724370956420898e-01 -1.414616465568542480e+00 1.294031381607055664e+00 -1.273837208747863770e+00 1.679409503936767578e+00 -2.943390369415283203e+00 1.383756756782531738e+00 1.795383453369140625e+00 -1.555157184600830078e+00 -1.376345872879028320e+00 4.846242666244506836e-01 1.951108694076538086e+00 -5.781783536076545715e-02 1.066491246223449707e+00 2.297180175781250000e+00 -1.046889185905456543e+00 3.076866388320922852e+00 -2.984477758407592773e+00 -2.297598123550415039e+00 -2.717282295227050781e+00 -2.039831399917602539e+00 -1.320377469062805176e+00 -2.452464818954467773e+00 -1.402606725692749023e+00 -1.901134967803955078e+00 -1.735992431640625000e+00 -2.479403018951416016e+00 -2.104075193405151367e+00 -3.199283361434936523e+00 -2.153145313262939453e+00 -2.174185752868652344e+00 -1.548720002174377441e+00 -2.121586084365844727e+00 -1.927696466445922852e+00 -2.214674234390258789e+00 -1.553678154945373535e+00 -2.991578102111816406e+00
