-2.663539648056030273e+00 -1.409154891967773438e+00 -1.911700725555419922e+00 -8.353001624345779419e-02 -2.140493869781494141e+00 -1.461119651794433594e+00 -1.664921998977661133e+00 -1.792508959770202637e+00 -1.924591064453125000e+00 1.875663280487060547e+00 -2.392275333404541016e+00 -8.479128479957580566e-01 -1.140083909034729004e+00 1.176743268966674805e+00 -2.434202432632446289e+00 -5.143567323684692383e-01 -1.620556831359863281e+00 -1.678983449935913086e+00 -2.810376882553100586e-01 -9.771487116813659668e-01 1.079210281372070312e+00 -1.291271686553955078e+00 -9.583222270011901855e-01 -2.312384128570556641e+00 -1.271244049072265625e+00 -9.180533885955810547e-01 -2.557692766189575195e+00 -1.328458428382873535e+00 -6.991759538650512695e-01 -1.904243350028991699e+00 -1.621498465538024902e-01 -2.068958282470703125e+00 -1.182747006416320801e+00 -1.310920119285583496e+00 -1.901688694953918457e+00 3.094583451747894287e-01 -1.756590127944946289e+00 -9.473575949668884277e-01 -2.305532932281494141e+00 -1.755955934524536133e+00 -2.446288824081420898e+00 1.243362188339233398e+00 1.619115591049194336e+00 -1.330971956253051758e+00 -7.315738201141357422e-01 1.972169041633605957e+00 1.723771691322326660e+00 7.597266435623168945e-01 2.618178606033325195e+00 3.363555073738098145e-01 1.790033817291259766e+00 8.360494971275329590e-01 1.142113327980041504e+00 4.609057009220123291e-01 6.886875629425048828e-01 -1.264268279075622559e+00 5.404066443443298340e-01 8.280189633369445801e-01 1.129240751266479492e+00 -1.988532245159149170e-01 -1.605310477316379547e-02 -2.102637737989425659e-01 -1.525421738624572754e+00 2.483707666397094727e+00 8.452671170234680176e-01 -7.534458637237548828e-01 2.341357707977294922e+00 -1.386727333068847656e+00 -1.528131604194641113e+00 1.314511418342590332e+00 -6.251024007797241211e-01 1.927030444145202637e+00 1.088072419166564941e+00 -6.146406531333923340e-01 -1.720126271247863770e+00 -9.329960346221923828e-01 2.064969778060913086e+00 -1.907614111900329590e+00 2.192571163177490234e+00 -2.560071468353271484e+00 2.344973564147949219e+00 2.786148786544799805e+00 2.558448314666748047e+00 1.533783197402954102e+00 2.135444164276123047e+00 2.434380769729614258e+00 1.281514644622802734e+00 2.692468404769897461e+00 -8.642755150794982910e-01 8.014944791793823242e-01 2.351614952087402344e+00 1.689444065093994141e+00 2.192646503448486328e+00 2.345469951629638672e+00 1.769065022468566895e+00 1.285543799400329590e+00 1.988656878471374512e+00 9.962715506553649902e-01 2.152157306671142578e+00 2.315674543380737305e+00
-2.390579700469970703e+00 -1.140819907188415527e+00 -8.920699954032897949e-01 -2.001169681549072266e+00 -1.305608391761779785e+00 -2.344211190938949585e-01 1.650512814521789551e+00 -2.240602254867553711e+00 -1.267112612724304199e+00 -1.185155630111694336e+00 -1.193754971027374268e-01 -2.534568548202514648e+00 -4.328447878360748291e-01 1.617850661277770996e+00 -5.656151175498962402e-01 3.556779026985168457e-01 1.579622030258178711e+00 -1.320344805717468262e+00 3.174396753311157227e-01 -7.560090422630310059e-01 1.297983169555664062e+00 1.505356788635253906e+00 1.050522923469543457e+00 1.379092335700988770e+00 1.389657855033874512e+00 2.355386495590209961e+00 8.936432003974914551e-01 1.455971837043762207e+00 -4.351359307765960693e-01 1.953707218170166016e+00 2.158986806869506836e+00 -1.156481266021728516e+00 1.516540348529815674e-01 2.107220411300659180e+00 2.115540027618408203e+00 -4.987868964672088623e-01 2.034143686294555664e+00 1.630377650260925293e+00 2.026624202728271484e+00 2.734771728515625000e+00 -8.741970062255859375e-01 6.016830205917358398e-01 -3.842272236943244934e-02 4.590760543942451477e-02 3.498399853706359863e-01 1.735649257898330688e-01 8.602043986320495605e-01 -3.355709314346313477e-01 2.632762789726257324e-01 -2.547272443771362305e-01 -4.515832960605621338e-01 -7.047991156578063965e-01 3.982209861278533936e-01 -1.799064040184020996e+00 4.086076915264129639e-01 -3.772331774234771729e-01 -1.999725341796875000e+00 3.675939738750457764e-01 -2.030563592910766602e+00 1.020464658737182617e+00 5.789709091186523438e-01 -3.927810788154602051e-01 -1.641767472028732300e-01 1.254061609506607056e-01 -1.898298978805541992e+00 5.331266298890113831e-02 -8.596938252449035645e-01 -2.039359092712402344e+00 -1.763069868087768555e+00 1.643951892852783203e+00 -1.560359358787536621e+00 8.903016448020935059e-01 -8.172768168151378632e-03 -6.584065556526184082e-01 8.323200941085815430e-01 1.477242231369018555e+00 1.537486314773559570e+00 1.341052770614624023e+00 2.850222885608673096e-01 6.549950838088989258e-01 1.667325615882873535e+00 1.508575826883316040e-01 1.875272840261459351e-01 -1.153832674026489258e+00 -1.840428233146667480e+00 -1.418818831443786621e+00 6.406597495079040527e-01 -1.352766990661621094e+00 -8.637917041778564453e-01 -5.400994420051574707e-01 -1.444568634033203125e+00 -3.769176900386810303e-01 -7.434921264648437500e-01 -1.649264812469482422e+00 -1.937934398651123047e+00 -7.452083379030227661e-02 -1.901647448539733887e-01 3.320552706718444824e-01 1.246549844741821289e+00 2.977537214756011963e-01
-5.916059017181396484e-01 4.280346632003784180e-01 6.652044504880905151e-02 8.803405165672302246e-01 -5.840818881988525391e-01 1.815814971923828125e+00 -2.008438110351562500e-01 1.166630864143371582e+00 -9.553157538175582886e-02 1.376682817935943604e-01 1.702284574508666992e+00 2.155560255050659180e-01 -2.109090685844421387e-01 1.216833591461181641e+00 -2.164740562438964844e+00 9.787013530731201172e-01 3.543293476104736328e-01 -7.954099178314208984e-01 8.732793480157852173e-02 2.196583747863769531e+00 -2.044023036956787109e+00 9.514358043670654297e-01 -4.998710453510284424e-01 -1.904612541198730469e+00 5.748182907700538635e-02 1.268664598464965820e+00 2.550333440303802490e-01 -3.491418659687042236e-01 -3.236419260501861572e-01 -8.342680931091308594e-01 -1.930436611175537109e+00 -6.671709418296813965e-01 -1.585835576057434082e+00 -8.417058587074279785e-01 2.935494780540466309e-01 1.702200062572956085e-02 -1.495471835136413574e+00 -1.415976047515869141e+00 -2.452418565750122070e+00 1.086809873580932617e+00 3.198428153991699219e-01 7.792038321495056152e-01 -1.961381912231445312e+00 -5.480344891548156738e-01 -9.157322645187377930e-01 -1.350108861923217773e+00 -7.407842278480529785e-01 2.334849834442138672e+00 -1.519004344940185547e+00 -5.970938205718994141e-01 -1.278753042221069336e+00 -1.063369989395141602e+00 -1.325070977210998535e+00 -2.162030935287475586e+00 -2.644176483154296875e+00 -1.288560479879379272e-01 -2.305058002471923828e+00 -5.550266504287719727e-01 3.908858895301818848e-01 -1.939103364944458008e+00 5.099692940711975098e-01 8.103424906730651855e-01 2.153384685516357422e-02 -7.484554052352905273e-01 -8.236449360847473145e-01 1.041318774223327637e+00 -6.773182749748229980e-01 -5.673881173133850098e-01 1.428296208381652832e+00 6.555792093276977539e-01 -2.102565526962280273e+00 1.134346604347229004e+00 -3.070344924926757812e-01 -2.266779989004135132e-01 3.968860805034637451e-01 1.270273804664611816e+00 7.774689793586730957e-01 1.190926551818847656e+00 2.438305139541625977e+00 1.201135516166687012e+00 1.368718624114990234e+00 6.749974489212036133e-01 4.405847750604152679e-03 2.009489297866821289e+00 9.314467906951904297e-01 -5.512297749519348145e-01 1.727588057518005371e+00 2.024748802185058594e+00 2.439684867858886719e+00 2.332907438278198242e+00 2.173837423324584961e-01 -8.321331739425659180e-01 -1.193478107452392578e+00 6.979973912239074707e-01 -7.030058503150939941e-01 1.701993793249130249e-01 1.194985389709472656e+00 1.241629481315612793e+00 -4.006499052047729492e-02 2.013461589813232422e+00
1.121420741081237793e+00 -2.329128265380859375e+00 -6.177240014076232910e-01 -5.159314274787902832e-01 1.226277370005846024e-02 1.408085942268371582e+00 5.313751101493835449e-01 -9.619635939598083496e-01 -1.271323084831237793e+00 9.340777993202209473e-01 -4.837297797203063965e-01 9.226320385932922363e-01 -2.427202701568603516e+00 1.072457432746887207e+00 1.636867970228195190e-01 -1.014571547508239746e+00 -1.299755096435546875e+00 5.406105518341064453e-01 1.072097182273864746e+00 -1.511394262313842773e+00 1.112370714545249939e-01 -1.399439692497253418e+00 4.673404693603515625e-01 4.191291332244873047e-01 1.505472660064697266e+00 1.237930178642272949e+00 1.664801597595214844e+00 -5.934469699859619141e-01 1.277443408966064453e+00 1.572376847267150879e+00 1.127153754234313965e+00 8.206701874732971191e-01 3.394728899002075195e-01 -8.950638025999069214e-02 2.560926377773284912e-01 1.668287158012390137e+00 -2.062409639358520508e+00 -2.278011083602905273e+00 -6.335227489471435547e-01 9.045534729957580566e-01 2.146895647048950195e+00 1.856927514076232910e+00 6.256529092788696289e-01 5.353872776031494141e-01 8.002420663833618164e-01 1.914571642875671387e+00 -5.067037940025329590e-01 -6.162884831428527832e-01 1.314114093780517578e+00 1.445712208747863770e+00 -3.159541189670562744e-01 -1.319601893424987793e+00 -6.106958389282226562e-01 1.887680411338806152e+00 1.041968584060668945e+00 1.878438472747802734e+00 5.159202814102172852e-01 1.706142425537109375e+00 1.059079289436340332e+00 -1.359033942222595215e+00 2.553658008575439453e+00 1.093088388442993164e+00 6.196920871734619141e-01 9.993702173233032227e-01 -1.165185570716857910e+00 1.358363032341003418e-01 -2.496437072753906250e+00 -4.729452431201934814e-01 5.042303204536437988e-01 -1.238428521901369095e-02 9.109446406364440918e-01 -1.978166341781616211e+00 -2.117448151111602783e-01 -1.607632279396057129e+00 1.134585857391357422e+00 -1.030409336090087891e+00 -2.226961135864257812e+00 2.587053477764129639e-01 -6.862697601318359375e-01 1.421707272529602051e+00 -1.478631734848022461e+00 3.504736721515655518e-02 -1.366820573806762695e+00 6.862794756889343262e-01 -9.112269878387451172e-01 -1.886413931846618652e+00 -1.104898095130920410e+00 -7.439383864402770996e-01 -2.872755825519561768e-01 9.787654876708984375e-01 -1.248589396476745605e+00 -1.987928032875061035e+00 -1.935921192169189453e+00 -4.243381321430206299e-01 -2.095058202743530273e+00 -1.426975488662719727e+00 1.947321891784667969e+00 -4.559903740882873535e-01 2.492631673812866211e+00 -1.346301078796386719e+00
3.490884304046630859e-01 9.888153076171875000e-01 8.828712701797485352e-01 -2.043159246444702148e+00 -7.607773542404174805e-01 9.715982079505920410e-01 8.071030974388122559e-01 -1.894156217575073242e+00 9.880332946777343750e-01 -6.617667675018310547e-01 -1.301709055900573730e+00 -7.226304411888122559e-01 1.177488803863525391e+00 5.506693720817565918e-01 -1.469537019729614258e+00 1.539584994316101074e+00 -6.353260874748229980e-01 -1.951318234205245972e-01 -9.406889677047729492e-01 3.449605405330657959e-01 -1.934352636337280273e+00 -1.858247280120849609e+00 -1.377283573150634766e+00 -1.336389541625976562e+00 -6.117222309112548828e-01 -1.975290894508361816e+00 -6.265363693237304688e-01 1.048765897750854492e+00 -1.371177881956100464e-01 -7.372322082519531250e-01 -9.192330837249755859e-01 1.232540309429168701e-01 -1.963976025581359863e+00 -1.350116729736328125e+00 9.810040593147277832e-01 -2.609105348587036133e+00 -1.745912075042724609e+00 -9.039283990859985352e-01 -1.427428126335144043e+00 -3.182735145092010498e-01 1.044453382492065430e+00 8.357228636741638184e-01 4.821908473968505859e-01 5.587012171745300293e-01 -1.295574665069580078e+00 -2.264639586210250854e-01 -6.654343008995056152e-01 1.234027147293090820e+00 2.162245273590087891e+00 1.647264599800109863e+00 1.540659308433532715e+00 -1.451511502265930176e+00 -2.785428524017333984e+00 1.453364849090576172e+00 -1.552525281906127930e+00 -1.665023207664489746e+00 -1.054003596305847168e+00 -1.845216631889343262e+00 -1.883754849433898926e+00 1.263446569442749023e+00 3.876656591892242432e-01 -5.980823636054992676e-01 2.034255981445312500e+00 1.971797943115234375e+00 -7.043873667716979980e-01 2.578700065612792969e+00 1.348255276679992676e+00 1.189199805259704590e+00 1.986263036727905273e+00 -1.298120498657226562e+00 -1.870639175176620483e-01 2.158331871032714844e+00 1.279217362403869629e+00 2.081609010696411133e+00 -1.850522875785827637e+00 1.591525077819824219e+00 1.876649141311645508e+00 7.963949441909790039e-01 8.190250992774963379e-01 1.298336863517761230e+00 7.916049957275390625e-01 -5.012899041175842285e-01 -1.374630808830261230e+00 -1.648311495780944824e+00 -1.114853858947753906e+00 -1.653092980384826660e+00 1.999168515205383301e+00 -6.085065603256225586e-01 2.823219537734985352e+00 2.764572381973266602e+00 1.476202130317687988e+00 1.420091152191162109e+00 -6.268355846405029297e-01 -1.831729888916015625e+00 -2.005965709686279297e+00 1.098848581314086914e+00 6.827697753906250000e-01 2.779557704925537109e-01 8.730909824371337891e-01 2.263063192367553711e+00
3.800185024738311768e-01 8.629480004310607910e-01 1.565038971602916718e-02 -8.269931674003601074e-01 8.925988078117370605e-01 -1.609960943460464478e-01 1.059953212738037109e+00 -2.955496907234191895e-01 2.832378745079040527e-01 -1.409365415573120117e+00 -5.402203202247619629e-01 2.672552824020385742e+00 1.635567396879196167e-01 9.434190988540649414e-01 1.207126140594482422e+00 -9.685356616973876953e-01 1.296304821968078613e+00 6.953449547290802002e-02 1.935777902603149414e+00 -1.510467290878295898e+00 2.035575151443481445e+00 1.183944940567016602e+00 7.944808602333068848e-01 -1.668213367462158203e+00 -6.258189082145690918e-01 -1.257430911064147949e+00 -5.140676498413085938e-01 -1.694038152694702148e+00 2.275825664401054382e-02 1.222271546721458435e-01 -1.265861392021179199e+00 1.372899770736694336e+00 -1.674960851669311523e+00 6.745504140853881836e-01 -6.473653912544250488e-01 9.561881422996520996e-01 -5.008895397186279297e-01 7.138057351112365723e-01 5.202206373214721680e-01 -9.468193054199218750e-01 -3.228653073310852051e-01 -1.664991855621337891e+00 -2.168398380279541016e+00 -2.186527967453002930e+00 -2.119878053665161133e+00 -1.341450691223144531e+00 -6.810159087181091309e-01 1.329276561737060547e+00 -1.878570199012756348e+00 -2.736042253673076630e-02 8.889041543006896973e-01 -7.614285349845886230e-01 -1.903988718986511230e+00 -1.989060163497924805e+00 1.637770175933837891e+00 -2.308295965194702148e+00 2.056155204772949219e+00 1.065198659896850586e+00 1.436710476875305176e+00 -8.997387886047363281e-01 9.234797358512878418e-01 6.482459902763366699e-01 8.193745613098144531e-01 2.109468698501586914e+00 9.232483506202697754e-01 1.353560566902160645e+00 1.327110528945922852e-01 -1.293726265430450439e-01 2.131657838821411133e+00 2.364203453063964844e+00 2.307301998138427734e+00 -6.782044172286987305e-01 5.265484452247619629e-01 1.127840638160705566e+00 2.808809995651245117e+00 1.936445951461791992e+00 1.674664020538330078e-01 -1.103582903742790222e-01 1.710286140441894531e+00 2.446682155132293701e-01 -9.063854217529296875e-01 -1.779293894767761230e+00 -1.845384120941162109e+00 -9.011106193065643311e-02 1.713541746139526367e+00 1.128289341926574707e+00 -7.411644458770751953e-01 -1.335682988166809082e+00 6.769776940345764160e-01 8.366272449493408203e-01 -1.424479603767395020e+00 -1.272279977798461914e+00 -2.996917963027954102e-01 -6.845826506614685059e-01 -1.451834321022033691e+00 -2.193210870027542114e-01 -1.591380596160888672e+00 -6.781575679779052734e-01 -2.092778682708740234e+00 -6.992319822311401367e-01
1.557701349258422852e+00 -6.241160631179809570e-01 -4.820168912410736084e-01 -7.515957355499267578e-01 -9.754667878150939941e-01 8.847014978528022766e-03 -2.559604644775390625e+00 -6.214334964752197266e-01 -1.319572448730468750e+00 -1.798614114522933960e-01 -1.077281236648559570e+00 -1.830971956253051758e+00 -2.620851993560791016e+00 -2.675183296203613281e+00 -5.802905559539794922e-01 -2.264860630035400391e+00 -1.661477327346801758e+00 4.388551115989685059e-01 -2.196445941925048828e+00 -1.488540649414062500e+00 -2.308633625507354736e-01 2.311251878738403320e+00 1.905992031097412109e-01 3.836475312709808350e-01 -2.306765317916870117e-01 6.267239451408386230e-01 -1.074150085449218750e+00 -2.944975905120372772e-02 8.156426548957824707e-01 1.945607304573059082e+00 1.046020746231079102e+00 4.737519621849060059e-01 2.586209535598754883e+00 7.464751005172729492e-01 1.990379571914672852e+00 2.193465471267700195e+00 1.949216276407241821e-01 1.521908879280090332e+00 1.983058691024780273e+00 1.076735615730285645e+00 -1.457749128341674805e+00 -4.462694823741912842e-01 -2.552855253219604492e+00 -2.532474040985107422e+00 -8.097077012062072754e-01 -2.551774024963378906e+00 -1.224366903305053711e+00 -6.789979934692382812e-01 -4.572809934616088867e-01 -2.074588060379028320e+00 1.654319047927856445e+00 -1.493936538696289062e+00 -1.959999948740005493e-01 1.374577283859252930e+00 -1.446049690246582031e+00 1.087195500731468201e-01 1.642402768135070801e+00 4.782200157642364502e-01 1.827995926141738892e-01 2.135716676712036133e-01 1.215396285057067871e+00 -7.220265269279479980e-01 1.831357032060623169e-01 -1.643180370330810547e+00 1.136152818799018860e-01 1.897968173027038574e+00 5.259290337562561035e-01 -1.062022805213928223e+00 -2.034544497728347778e-01 1.401466012001037598e+00 1.000695347785949707e+00 1.263375639915466309e+00 2.548346996307373047e+00 3.927415013313293457e-01 1.109679862856864929e-01 1.754668056964874268e-01 1.579666733741760254e+00 1.795558214187622070e+00 2.537119388580322266e-01 1.763026118278503418e+00 9.540198445320129395e-01 1.257565736770629883e+00 -1.661880373954772949e+00 1.171686887741088867e+00 1.360011219978332520e+00 -1.538270235061645508e+00 -1.354734301567077637e+00 2.502793312072753906e+00 1.020018458366394043e+00 -1.174016714096069336e+00 -6.795773655176162720e-02 1.351167440414428711e+00 -4.283433035016059875e-02 -4.194975197315216064e-01 9.077877551317214966e-02 -9.397249221801757812e-01 1.524632096290588379e+00 1.615683734416961670e-01 -1.194085836410522461e+00 -3.970778882503509521e-01
9.138540029525756836e-01 2.332053661346435547e+00 -1.485566020011901855e+00 -5.304160714149475098e-01 2.077836751937866211e+00 2.207045316696166992e+00 2.424696445465087891e+00 -2.831810116767883301e-01 8.958989381790161133e-02 -2.996872365474700928e-01 9.695403575897216797e-01 1.328280925750732422e+00 1.326374888420104980e+00 7.221086025238037109e-01 2.671020030975341797e+00 1.301928162574768066e+00 9.167711138725280762e-01 1.442702531814575195e+00 1.741550803184509277e+00 1.866086006164550781e+00 -1.758208990097045898e+00 -9.375725388526916504e-01 1.393351793289184570e+00 -8.419115841388702393e-02 -2.028651088476181030e-01 9.777563810348510742e-01 2.066765069961547852e+00 -9.772602915763854980e-01 1.061461925506591797e+00 2.184574127197265625e+00 -2.445846319198608398e+00 -3.722173273563385010e-01 1.136786580085754395e+00 5.277146100997924805e-01 4.040310084819793701e-01 -4.245905280113220215e-01 1.886308789253234863e+00 2.068790197372436523e+00 2.196815013885498047e+00 2.569493293762207031e+00 -4.315156340599060059e-01 -1.113239884376525879e+00 -2.078402280807495117e+00 -2.600568294525146484e+00 -1.782807826995849609e+00 -2.352489233016967773e+00 -4.750676453113555908e-01 -1.573401212692260742e+00 -2.692355394363403320e+00 -9.293662905693054199e-01 -3.263654112815856934e-01 -2.462029695510864258e+00 7.145857065916061401e-02 -6.678448915481567383e-01 -9.875593781471252441e-01 -2.738138914108276367e+00 -1.731184363365173340e+00 -2.305232286453247070e+00 -2.263378381729125977e+00 -1.488453149795532227e+00 -1.735130667686462402e+00 -1.621033549308776855e+00 4.032356441020965576e-01 -1.479595184326171875e+00 -1.629508376121520996e+00 -1.270885020494461060e-01 1.184167027473449707e+00 -1.054075360298156738e+00 -1.705137044191360474e-01 7.074828743934631348e-01 1.236950159072875977e-01 -1.782597899436950684e+00 5.108913779258728027e-01 -1.780163496732711792e-01 -2.408380061388015747e-01 -1.657957196235656738e+00 -1.141056418418884277e+00 -1.409317493438720703e+00 -1.285637378692626953e+00 -2.639415979385375977e+00 -8.403797447681427002e-02 -2.974398732185363770e-01 1.401258826255798340e+00 1.652883887290954590e+00 -6.330474466085433960e-02 -1.043966412544250488e+00 5.513854622840881348e-01 2.525234520435333252e-01 -4.208444654941558838e-01 1.765276312828063965e+00 1.712306261062622070e+00 -6.590595841407775879e-01 1.607957363128662109e+00 8.752493262290954590e-01 1.062062144279479980e+00 -1.038527607917785645e+00 -1.895920932292938232e-01 2.064869880676269531e+00 2.232385158538818359e+00 2.003587245941162109e+00
1.846028089523315430e+00 -1.375557184219360352e+00 -6.566485762596130371e-02 -1.047406196594238281e+00 -1.861424207687377930e+00 -1.184677958488464355e+00 -7.574617266654968262e-01 3.209099769592285156e-01 -1.029576063156127930e+00 -9.226989746093750000e-01 4.047790542244911194e-02 -1.106306910514831543e+00 9.172776937484741211e-01 -3.508444726467132568e-01 1.860143065452575684e+00 2.004031658172607422e+00 8.888571858406066895e-01 -1.649691224098205566e+00 9.616350531578063965e-01 -6.950719356536865234e-01 -2.817558348178863525e-01 1.705587863922119141e+00 -1.740474462509155273e+00 9.441315531730651855e-01 -6.850515007972717285e-01 -5.299440622329711914e-01 -1.831391096115112305e+00 -1.628137588500976562e+00 -2.681407451629638672e+00 6.320614218711853027e-01 -7.110696285963058472e-02 2.328915834426879883e+00 -1.395978212356567383e+00 8.282331228256225586e-01 2.374114841222763062e-01 1.253697156906127930e+00 9.054358005523681641e-01 6.651366949081420898e-01 3.073602318763732910e-01 -3.881655037403106689e-01 1.533838510513305664e+00 7.031973004341125488e-01 1.341841697692871094e+00 -1.095390796661376953e+00 1.129422307014465332e+00 1.874403119087219238e+00 2.985020399093627930e+00 1.921871781349182129e+00 1.889353632926940918e+00 1.845024943351745605e+00 2.233894824981689453e+00 2.010976076126098633e+00 -2.103148400783538818e-02 -7.629439979791641235e-02 1.121752023696899414e+00 -1.538926601409912109e+00 5.462234616279602051e-01 2.694643139839172363e-01 2.803257226943969727e+00 1.920018196105957031e+00 -2.231721878051757812e+00 -2.512454032897949219e+00 -3.295833170413970947e-01 -5.919032096862792969e-01 -1.732652544975280762e+00 1.584442853927612305e+00 -1.432325839996337891e+00 -1.192227125167846680e+00 -1.721536517143249512e+00 -1.960890293121337891e+00 -8.598020672798156738e-01 -1.473247885704040527e+00 -3.688838779926300049e-01 5.420904755592346191e-01 -1.942248344421386719e+00 4.126495420932769775e-01 -1.391209125518798828e+00 -1.989686369895935059e+00 -2.629952907562255859e+00 -1.809896588325500488e+00 1.411075711250305176e+00 -1.054130792617797852e+00 3.439081609249114990e-01 -1.037198305130004883e+00 8.168277889490127563e-02 5.461760163307189941e-01 -8.780406713485717773e-01 1.305849075317382812e+00 8.331047892570495605e-01 6.873788237571716309e-01 3.556414246559143066e-01 -8.281963467597961426e-01 2.136851310729980469e+00 2.426376819610595703e+00 -9.854077100753784180e-01 -3.201377093791961670e-01 -3.774028718471527100e-01 -1.036192297935485840e+00 1.148084878921508789e+00 -5.700634121894836426e-01
-1.311362743377685547e+00 -2.214599132537841797e+00 -1.311096549034118652e+00 1.677536129951477051e+00 -6.218065619468688965e-01 -1.508303761482238770e+00 -1.205413222312927246e+00 2.333909571170806885e-01 -1.334873199462890625e+00 9.030135869979858398e-01 -5.166043639183044434e-01 -1.742167115211486816e+00 -1.319013386964797974e-01 -1.363848447799682617e+00 7.084038257598876953e-01 -3.701620921492576599e-02 1.808667182922363281e+00 1.446054458618164062e+00 5.381318926811218262e-01 6.589402258396148682e-02 -1.733948588371276855e+00 1.074406623840332031e+00 2.833912074565887451e-01 -5.842680335044860840e-01 6.072728037834167480e-01 6.637130379676818848e-01 -1.218921065330505371e+00 1.234465956687927246e+00 1.198783636093139648e+00 1.305744409561157227e+00 1.617433190345764160e+00 -1.450439810752868652e+00 9.967508912086486816e-01 7.058447599411010742e-02 1.153243660926818848e+00 2.203774601221084595e-01 7.935851812362670898e-01 2.398344993591308594e+00 9.617809653282165527e-01 1.771720528602600098e+00 4.068241119384765625e-01 -5.930282473564147949e-01 -2.727169096469879150e-01 1.250568032264709473e+00 -2.244266986846923828e+00 1.695934534072875977e+00 -2.317893356084823608e-01 -6.195209622383117676e-01 1.517567515373229980e+00 6.618520617485046387e-01 1.191683888435363770e+00 -1.006753325462341309e+00 -1.469700217247009277e+00 -3.912624418735504150e-01 1.836491703987121582e+00 -1.249672695994377136e-01 -2.024393320083618164e+00 7.249497771263122559e-01 1.871888518333435059e+00 8.372850418090820312e-01 5.891681313514709473e-01 -4.365689158439636230e-01 -1.585854440927505493e-01 -9.668224453926086426e-01 4.221278131008148193e-01 1.816953271627426147e-01 8.563856482505798340e-01 -1.067977428436279297e+00 1.373717427253723145e+00 9.472542405128479004e-01 1.122758388519287109e-01 1.264319896697998047e+00 1.979193687438964844e+00 1.672551155090332031e+00 4.798881709575653076e-01 1.158100605010986328e+00 -2.167894095182418823e-01 -1.769393801689147949e+00 -1.354468941688537598e+00 6.641604900360107422e-01 -1.748549222946166992e+00 -1.077867865562438965e+00 2.059289693832397461e+00 -1.945099532604217529e-01 -3.771261870861053467e-01 -3.170098066329956055e-01 3.679659664630889893e-01 1.581480741500854492e+00 -2.237822055816650391e+00 -2.339520215988159180e+00 -1.200871109962463379e+00 -2.327880382537841797e+00 -1.460514068603515625e+00 -6.643375158309936523e-01 4.922821521759033203e-01 -1.173672378063201904e-01 -2.051035165786743164e+00 -1.447921872138977051e+00 -1.444802403450012207e+00 -2.463811449706554413e-02
-1.077151656150817871e+00 -1.386513710021972656e-01 -2.061717271804809570e+00 6.673220992088317871e-01 -2.261751890182495117e+00 -3.094021603465080261e-02 -2.105055809020996094e+00 6.728008389472961426e-01 1.959246754646301270e+00 -5.143458843231201172e-01 -1.213067412376403809e+00 -2.967421710491180420e-01 -1.875537753105163574e+00 -1.116955995559692383e+00 2.945046424865722656e-01 -5.156379938125610352e-01 -9.831574559211730957e-01 -1.924428224563598633e+00 -1.249717235565185547e+00 1.273374795913696289e+00 -1.641176104545593262e+00 -1.322392463684082031e+00 1.488881111145019531e+00 5.774410367012023926e-01 1.432150363922119141e+00 -8.047933578491210938e-01 -1.601707577705383301e+00 -1.650318622589111328e+00 -1.254469752311706543e+00 -4.262718856334686279e-01 1.749597549438476562e+00 -1.534379243850708008e+00 -1.154302597045898438e+00 1.975946307182312012e+00 -1.162157654762268066e+00 1.394505023956298828e+00 2.688601493835449219e+00 1.802284717559814453e+00 1.475652217864990234e+00 9.020360708236694336e-01 1.028190255165100098e+00 1.868135571479797363e+00 -2.677772283554077148e+00 6.242997646331787109e-01 -6.223010420799255371e-01 1.168758988380432129e+00 1.193701624870300293e+00 1.582523584365844727e+00 -4.106273651123046875e-01 2.402426451444625854e-01 -6.349628567695617676e-01 -3.181593492627143860e-02 1.662696480751037598e+00 2.335906475782394409e-01 5.600620508193969727e-01 2.873353362083435059e-01 1.582519054412841797e+00 2.251443862915039062e+00 -9.417163133621215820e-01 -2.250984907150268555e+00 1.046441316604614258e+00 4.090420529246330261e-02 -8.965763449668884277e-01 1.605683326721191406e+00 2.111148357391357422e+00 1.833947896957397461e+00 7.440334558486938477e-01 1.371651649475097656e+00 -9.535776972770690918e-01 5.993422865867614746e-01 -1.256655812263488770e+00 1.387540221214294434e+00 2.477099895477294922e-01 1.157541036605834961e+00 2.201861858367919922e+00 -9.954395294189453125e-01 -2.957141399383544922e-01 6.277092099189758301e-01 1.384413838386535645e+00 2.008362293243408203e+00 -1.503571629524230957e+00 1.096590042114257812e+00 -2.439846038818359375e+00 -1.813013195991516113e+00 4.972106218338012695e-01 -2.085149765014648438e+00 -1.789002180099487305e+00 2.930023968219757080e-01 -2.373341560363769531e+00 1.147273778915405273e-01 -8.568233847618103027e-01 -2.057908773422241211e-01 2.578791379928588867e-01 6.046324372291564941e-01 -9.897367358207702637e-01 -1.898904681205749512e+00 3.872448205947875977e-01 2.064018011093139648e+00 1.458542227745056152e+00 -2.594761133193969727e+00
1.998439729213714600e-01 2.025579452514648438e+00 1.781801223754882812e+00 -2.535682618618011475e-01 -2.005695343017578125e+00 -1.403069138526916504e+00 1.234327912330627441e+00 1.096445798873901367e+00 2.027306318283081055e+00 -1.278200149536132812e+00 -1.321687817573547363e+00 -5.503006577491760254e-01 1.001172304153442383e+00 -5.883800983428955078e-01 -1.654463171958923340e+00 1.680884838104248047e+00 2.296446800231933594e+00 -2.342829942703247070e+00 1.053227186203002930e+00 8.287307024002075195e-01 1.472857356071472168e+00 -1.666153073310852051e+00 -1.199978590011596680e+00 1.863167762756347656e+00 -1.437830567359924316e+00 1.879194617271423340e+00 -4.068715870380401611e-01 -2.617139220237731934e-01 9.157403111457824707e-01 -2.547066211700439453e-01 2.459855794906616211e+00 1.262791454792022705e-01 3.501266241073608398e-01 2.513947248458862305e+00 -1.729297995567321777e+00 -2.248827457427978516e+00 2.461731195449829102e+00 2.554742693901062012e-01 2.393958270549774170e-01 -1.223579883575439453e+00 -9.381767511367797852e-01 -1.294943809509277344e+00 -3.472488820552825928e-01 -4.815079569816589355e-01 -3.784739375114440918e-01 -1.412180423736572266e+00 -9.039251208305358887e-01 5.012683868408203125e-01 -1.113189220428466797e+00 -6.447853446006774902e-01 -2.319462060928344727e+00 -8.432461619377136230e-01 6.305763870477676392e-02 -2.157542228698730469e+00 -2.508230924606323242e+00 -7.918735742568969727e-01 -8.538511395454406738e-01 7.811313122510910034e-02 1.456658959388732910e+00 -1.419117212295532227e+00 -7.636740207672119141e-01 1.237496376037597656e+00 -5.860686302185058594e-01 2.194246768951416016e+00 -5.637888982892036438e-02 1.363780975341796875e+00 2.045178890228271484e+00 2.429595232009887695e+00 -1.760182619094848633e+00 -1.187800884246826172e+00 2.288860082626342773e-01 -1.403488874435424805e+00 8.755654692649841309e-01 1.036144375801086426e+00 5.781586170196533203e-01 -1.842874646186828613e+00 5.006612539291381836e-01 -1.760413311421871185e-02 -1.149669885635375977e+00 7.141535878181457520e-01 -1.688977479934692383e+00 -6.250669956207275391e-01 6.952124238014221191e-01 8.361849188804626465e-01 -5.973460078239440918e-01 1.696006536483764648e+00 -1.416268706321716309e+00 1.453172087669372559e+00 3.355530500411987305e-01 -5.287543535232543945e-01 1.724923729896545410e+00 -3.676149547100067139e-01 -7.910236716270446777e-01 1.310072183609008789e+00 -7.927862405776977539e-01 8.947237133979797363e-01 -6.004959344863891602e-01 1.462790250778198242e+00 1.310169577598571777e+00 -7.586045265197753906e-01
-3.132982552051544189e-01 -4.359759986400604248e-01 2.599524974822998047e+00 -1.117829322814941406e+00 6.092557907104492188e-01 5.766024589538574219e-01 9.726514816284179688e-01 1.758836865425109863e+00 6.996061801910400391e-01 -6.510897278785705566e-01 2.071828603744506836e+00 -5.109564065933227539e-01 1.952772259712219238e+00 1.297977089881896973e+00 2.288707733154296875e+00 1.358861804008483887e+00 9.825190901756286621e-01 -1.248699665069580078e+00 4.803432524204254150e-01 1.637476682662963867e+00 8.524922132492065430e-01 1.357565283775329590e+00 -5.592709183692932129e-01 1.268425703048706055e+00 -1.330142855644226074e+00 2.066762000322341919e-01 -1.081921815872192383e+00 -2.649138212203979492e+00 1.553322672843933105e+00 -1.364799737930297852e+00 -1.247769355773925781e+00 -1.833592891693115234e+00 -2.461956024169921875e+00 2.023017406463623047e+00 2.386044412851333618e-01 -1.384793996810913086e+00 -1.418071508407592773e+00 -1.883106380701065063e-01 -9.321531653404235840e-01 8.153596520423889160e-01 -1.172175049781799316e+00 -3.083544597029685974e-02 -1.334140449762344360e-01 -5.782905220985412598e-01 7.911433577537536621e-01 -2.379761487245559692e-01 -2.192752212285995483e-01 -1.046632885932922363e+00 9.125117659568786621e-01 -1.588061213493347168e+00 1.843925332650542259e-03 1.913397431373596191e+00 -2.176737308502197266e+00 -3.723308145999908447e-01 -1.828231096267700195e+00 1.365564227104187012e+00 1.215863704681396484e+00 -1.071124196052551270e+00 -1.051849126815795898e+00 -9.220749735832214355e-01 -1.971290558576583862e-01 -5.462682247161865234e-01 1.363340377807617188e+00 4.561381042003631592e-01 -9.856820702552795410e-01 -1.635422945022583008e+00 1.722847700119018555e+00 -6.449683308601379395e-01 -1.732548356056213379e+00 6.097770333290100098e-01 2.692221403121948242e+00 9.911107420921325684e-01 1.508163213729858398e+00 5.888008475303649902e-01 -8.381779789924621582e-01 2.032549530267715454e-01 2.146314620971679688e+00 1.391372799873352051e+00 -1.030786752700805664e+00 2.314509302377700806e-01 -6.208530664443969727e-01 1.895749449729919434e+00 -6.968890428543090820e-01 1.480552792549133301e+00 3.541918694972991943e-01 -6.701276898384094238e-01 -8.263849020004272461e-01 3.897170349955558777e-02 8.402537107467651367e-01 -1.841059207916259766e+00 -9.642555713653564453e-01 -8.187921047210693359e-01 -8.970562219619750977e-01 -1.315514326095581055e+00 7.122623920440673828e-01 -1.463417172431945801e+00 4.160071909427642822e-01 1.794040501117706299e-01 -3.222866654396057129e-01 -1.721807718276977539e+00
1.479831457138061523e+00 1.523634672164916992e+00 -1.335902571678161621e+00 1.652781248092651367e+00 1.018604040145874023e+00 1.714295625686645508e+00 7.374444007873535156e-01 7.272381186485290527e-01 9.989734888076782227e-01 -1.553449630737304688e+00 -1.662524223327636719e+00 -2.355927228927612305e-01 5.532182455062866211e-01 8.932024240493774414e-01 1.350116610527038574e+00 1.209712982177734375e+00 -4.060559272766113281e-01 -2.159485071897506714e-01 -1.739071249961853027e+00 -1.211353182792663574e+00 1.872896432876586914e+00 1.436974406242370605e-01 -1.612911939620971680e+00 -1.681992769241333008e+00 1.939678788185119629e+00 2.050458908081054688e+00 1.276256799697875977e+00 -6.564972996711730957e-01 2.464118480682373047e+00 6.324893832206726074e-01 7.330449819564819336e-01 4.708260670304298401e-02 2.078173875808715820e+00 1.053658366203308105e+00 1.185437321662902832e+00 -1.459663510322570801e+00 -1.470080614089965820e-01 1.385740041732788086e+00 1.179382920265197754e+00 -1.839280724525451660e-01 1.194492936134338379e+00 5.152980983257293701e-02 2.249296426773071289e+00 2.115481138229370117e+00 1.665753245353698730e+00 4.798404276371002197e-01 1.795948386192321777e+00 6.541057229042053223e-01 -7.600842714309692383e-01 1.053696632385253906e+00 1.296804785728454590e+00 -6.993607878684997559e-01 3.408463895320892334e-01 1.733519077301025391e+00 -4.223633091896772385e-03 8.455955982208251953e-01 2.500143647193908691e-01 -1.529455900192260742e+00 -1.031847834587097168e+00 2.546035766601562500e+00 -2.719721317291259766e+00 -1.812444210052490234e+00 -1.670120835304260254e+00 -1.609459519386291504e+00 -2.000769615173339844e+00 3.905967772006988525e-01 9.872483611106872559e-01 6.755665540695190430e-01 1.681348830461502075e-01 -1.923163980245590210e-01 -2.062177658081054688e+00 -5.691651701927185059e-01 -1.147645711898803711e+00 -2.282013177871704102e+00 -2.156165122985839844e+00 -1.922591090202331543e+00 -1.386362314224243164e+00 7.082779407501220703e-01 -2.687069416046142578e+00 -4.139805138111114502e-01 -1.229331135749816895e+00 -1.696927070617675781e+00 -2.378619909286499023e-01 2.906711995601654053e-01 -1.704670429229736328e+00 -1.582811355590820312e+00 1.511874794960021973e+00 -2.222636938095092773e+00 4.063784480094909668e-01 -7.262744307518005371e-01 -5.488431453704833984e-01 1.904811859130859375e+00 1.456119656562805176e+00 2.292010188102722168e-01 -2.405272483825683594e+00 -5.962131619453430176e-01 -8.478608131408691406e-01 7.122433185577392578e-02 -1.274126410484313965e+00 -1.540002226829528809e+00
-1.287453651428222656e+00 2.609931468963623047e+00 1.871991038322448730e+00 1.374601960182189941e+00 -2.530111968517303467e-01 -1.085281133651733398e+00 1.859844684600830078e+00 -2.527257919311523438e+00 1.603945970535278320e+00 2.218562215566635132e-01 -1.892831206321716309e+00 -1.067164659500122070e+00 -7.456601858139038086e-01 7.315708398818969727e-01 -1.413805335760116577e-01 -2.258449077606201172e+00 -5.235989093780517578e-01 2.171913862228393555e+00 4.255138039588928223e-01 2.209625482559204102e+00 1.842215180397033691e+00 2.110991477966308594e+00 1.656996488571166992e+00 2.711848020553588867e-01 2.049125671386718750e+00 2.401656627655029297e+00 -3.344742655754089355e-01 2.055985927581787109e+00 -4.369208812713623047e-01 -4.941038787364959717e-01 1.410248160362243652e+00 2.019117593765258789e+00 1.521724104881286621e+00 8.094628453254699707e-01 1.471696615219116211e+00 1.474784255027770996e+00 -9.483969956636428833e-02 4.838423132896423340e-01 -7.803490161895751953e-01 -1.923286199569702148e+00 8.466971516609191895e-01 -1.251418590545654297e+00 -8.371974229812622070e-01 1.287737786769866943e-01 1.890689432621002197e-01 3.524894714355468750e-01 -1.011732816696166992e+00 8.435903191566467285e-01 -1.020983934402465820e+00 5.711023211479187012e-01 -2.171556234359741211e+00 6.250330805778503418e-01 2.179871320724487305e+00 1.154887199401855469e+00 -5.962939858436584473e-01 -9.939608573913574219e-01 -7.906967401504516602e-01 -1.025135159492492676e+00 2.079569578170776367e+00 2.614403069019317627e-01 -1.758550524711608887e+00 2.283364720642566681e-02 1.917994022369384766e-01 -1.894955277442932129e+00 -8.612427711486816406e-01 -1.913278460502624512e+00 -2.278582811355590820e+00 -1.349257469177246094e+00 -1.814065814018249512e+00 4.245147705078125000e-01 -1.113985896110534668e+00 -2.139770984649658203e+00 -2.170419931411743164e+00 -9.429811835289001465e-01 1.925445720553398132e-02 -8.769307732582092285e-01 -5.044535994529724121e-01 -2.407603979110717773e+00 -8.105293512344360352e-01 -1.984441995620727539e+00 -1.006832599639892578e+00 -8.190466165542602539e-01 4.984839558601379395e-01 1.032280683517456055e+00 -1.447500109672546387e+00 3.796159625053405762e-01 -2.374923467636108398e+00 -1.607715189456939697e-01 -1.299041867256164551e+00 -3.731383979320526123e-01 1.354900598526000977e-01 2.648242473602294922e+00 1.289960265159606934e+00 -1.009552627801895142e-01 2.564604997634887695e+00 -7.511178255081176758e-01 1.052011847496032715e+00 9.789531230926513672e-01 4.492826163768768311e-01 1.373931169509887695e+00
1.180193781852722168e+00 -8.505650758743286133e-01 6.882303953170776367e-01 2.425695896148681641e+00 3.973251283168792725e-01 1.108649611473083496e+00 -2.501336812973022461e+00 2.327452182769775391e+00 2.077795028686523438e+00 -7.365395426750183105e-01 -1.545551538467407227e+00 1.013217926025390625e+00 6.625687479972839355e-01 -1.527619957923889160e+00 -1.540499329566955566e+00 -4.125865101814270020e-01 9.256704449653625488e-01 1.485291957855224609e+00 -2.449240684509277344e+00 -4.165740609169006348e-01 1.822047233581542969e+00 -1.022097840905189514e-02 9.309098124504089355e-01 9.724494814872741699e-01 1.656903386116027832e+00 -2.308790683746337891e+00 1.382487297058105469e+00 4.965952336788177490e-01 8.012325763702392578e-01 3.088837563991546631e-01 5.843986272811889648e-01 1.949252009391784668e+00 4.292723238468170166e-01 2.055788040161132812e+00 9.828739166259765625e-01 1.224859505891799927e-01 1.072372794151306152e-01 1.922681331634521484e-01 1.925196349620819092e-01 1.641841530799865723e+00 -1.232335090637207031e+00 -3.435125946998596191e-01 1.146372914314270020e+00 1.601768374443054199e+00 -1.694850325584411621e+00 1.950028300285339355e+00 -1.655104160308837891e+00 -1.925449848175048828e+00 -1.945667624473571777e+00 -3.022736549377441406e+00 -7.510322332382202148e-02 5.206448435783386230e-01 1.549711346626281738e+00 -1.013831257820129395e+00 -1.328004360198974609e+00 5.691078305244445801e-01 -4.072678387165069580e-01 -1.809390664100646973e+00 -1.328950762748718262e+00 -1.393431872129440308e-01 -1.861416101455688477e+00 -6.466956138610839844e-01 -1.189315438270568848e+00 -5.683332085609436035e-01 2.271327733993530273e+00 1.043999552726745605e+00 1.359162449836730957e+00 -4.042065143585205078e-01 2.097394317388534546e-01 4.237256348133087158e-01 -5.632789134979248047e-01 2.226575851440429688e+00 -4.514279663562774658e-01 4.271234869956970215e-01 1.907587289810180664e+00 1.605553150177001953e+00 1.349309682846069336e+00 6.764575839042663574e-01 1.265686377882957458e-02 -1.287431955337524414e+00 7.178157567977905273e-01 -2.267659664154052734e+00 -9.714694619178771973e-01 4.291817247867584229e-01 -1.516291856765747070e+00 1.344577193260192871e+00 1.403903961181640625e+00 -1.512752532958984375e+00 -1.576881170272827148e+00 -6.521449089050292969e-01 -1.213997080922126770e-01 5.848608911037445068e-02 7.159838676452636719e-01 -1.281938195228576660e+00 -1.960237741470336914e+00 2.291513919830322266e+00 -2.375913381576538086e+00 -2.577868700027465820e+00 -2.319999933242797852e+00 -7.539972662925720215e-01
1.384965300559997559e+00 -2.842395305633544922e-01 8.033156394958496094e-01 1.246986031532287598e+00 -7.918040156364440918e-01 -1.103657484054565430e+00 3.501483425498008728e-02 -1.520665287971496582e+00 1.185369372367858887e+00 -2.112736225128173828e+00 9.456351399421691895e-01 -6.349030733108520508e-01 -3.220174908638000488e-01 9.249178171157836914e-01 -1.112487465143203735e-01 -6.181631684303283691e-01 2.998028099536895752e-01 -7.183784842491149902e-01 -1.922496676445007324e+00 -1.226387977600097656e+00 -1.662902832031250000e+00 -2.601546049118041992e+00 9.736795425415039062e-01 -9.794595837593078613e-01 1.429031044244766235e-01 -2.868120670318603516e-01 -1.652165889739990234e+00 -8.758057355880737305e-01 -1.926110982894897461e+00 -1.923924446105957031e+00 -1.822010517120361328e+00 -1.296711921691894531e+00 1.374807804822921753e-01 -2.044059991836547852e+00 -1.196159124374389648e+00 6.450785994529724121e-01 1.748180985450744629e-01 -1.719057202339172363e+00 4.499313831329345703e-01 -2.062570333480834961e+00 2.061353445053100586e+00 2.710501670837402344e+00 8.485682010650634766e-01 1.699623823165893555e+00 1.243889212608337402e+00 -1.269332766532897949e+00 -1.088070392608642578e+00 2.042135953903198242e+00 -1.379877924919128418e+00 2.569773912429809570e+00 6.443117260932922363e-01 5.221256613731384277e-01 1.126130819320678711e+00 1.674962520599365234e+00 3.435216546058654785e-01 2.102125883102416992e+00 5.603290796279907227e-01 1.208376407623291016e+00 9.623563289642333984e-01 1.244849443435668945e+00 -1.703705906867980957e+00 2.019933938980102539e+00 1.702510952949523926e+00 5.378019809722900391e-02 6.039985418319702148e-01 -5.446867942810058594e-01 -9.243360757827758789e-01 1.418292284011840820e+00 1.875344872474670410e+00 -1.778822541236877441e+00 7.885034680366516113e-01 -9.196013212203979492e-01 1.454539060592651367e+00 3.898341953754425049e-02 5.774633884429931641e-01 9.872707128524780273e-01 -1.409394383430480957e+00 -7.052034735679626465e-01 9.749777615070343018e-02 -1.452519536018371582e+00 2.778017520904541016e-01 6.871933341026306152e-01 1.544897794723510742e+00 -6.765157580375671387e-01 -4.105007350444793701e-01 -1.711360335350036621e+00 1.982934236526489258e+00 2.626294791698455811e-01 2.943070828914642334e-01 1.081330776214599609e+00 -8.571839928627014160e-01 1.713586568832397461e+00 -9.144718050956726074e-01 -8.613443970680236816e-01 5.215203166007995605e-01 1.105867147445678711e+00 -9.470801055431365967e-02 5.734000802040100098e-01 -1.202647566795349121e+00 -9.306875467300415039e-01
2.342070579528808594e+00 1.348360180854797363e+00 -1.813985943794250488e+00 4.624964296817779541e-01 1.162015125155448914e-01 -9.659867286682128906e-01 -9.780610799789428711e-01 2.089611530303955078e+00 -1.896262526512145996e+00 1.687837988138198853e-01 2.377674341201782227e+00 1.371571302413940430e+00 1.018912315368652344e+00 -4.280424416065216064e-01 1.734651327133178711e-01 1.424676060676574707e+00 -2.323663234710693359e+00 -1.352578878402709961e+00 -9.064707159996032715e-01 1.754713207483291626e-01 -5.089398026466369629e-01 -1.505194187164306641e+00 -1.383342742919921875e+00 -7.873534560203552246e-01 1.902678012847900391e+00 1.262924313545227051e+00 -1.394023776054382324e+00 9.937301278114318848e-01 -2.044922299683094025e-02 1.775959730148315430e+00 -1.956120133399963379e+00 -1.970387578010559082e+00 1.819508910179138184e+00 -1.325583815574645996e+00 1.601819515228271484e+00 7.384510636329650879e-01 -2.757945537567138672e+00 -5.334174036979675293e-01 -1.914706528186798096e-01 7.954402565956115723e-01 -1.936138123273849487e-01 1.691781878471374512e+00 -5.112519264221191406e-01 1.990245282649993896e-01 1.122283577919006348e+00 -1.092633962631225586e+00 -2.115192651748657227e+00 1.673849701881408691e+00 4.147468805313110352e-01 -3.213962018489837646e-01 5.238339900970458984e-01 -9.462946653366088867e-02 -6.692999601364135742e-01 1.257569551467895508e+00 7.322965860366821289e-01 -1.941346764564514160e+00 -1.711829781532287598e+00 -2.324182748794555664e+00 -1.226086616516113281e+00 -2.291107922792434692e-01 1.014929533004760742e+00 -1.476053237915039062e+00 1.601746082305908203e+00 1.695152163505554199e+00 1.779665589332580566e+00 8.387215733528137207e-01 1.000169757753610611e-02 1.175993084907531738e+00 2.009947538375854492e+00 -1.505110859870910645e+00 4.184416234493255615e-01 2.240997076034545898e+00 -2.828618288040161133e-01 8.905252218246459961e-01 -1.834717392921447754e+00 -7.584263086318969727e-01 8.657675981521606445e-01 9.814102053642272949e-01 1.555216312408447266e+00 -6.005966290831565857e-02 -4.451492428779602051e-01 1.230721712112426758e+00 1.929590582847595215e+00 1.189775109291076660e+00 -1.870147347450256348e+00 1.750087499618530273e+00 -1.461468100547790527e+00 -5.789613127708435059e-01 -2.517258405685424805e+00 -2.953751802444458008e+00 2.068583488464355469e+00 -1.566146254539489746e+00 1.037595152854919434e+00 5.432264208793640137e-01 4.284948110580444336e-01 1.038179039955139160e+00 -2.209388971328735352e+00 -2.029031515121459961e+00 1.135951995849609375e+00 -2.320293188095092773e+00
-2.352932453155517578e+00 -2.362630367279052734e+00 -1.966049313545227051e+00 -1.067384839057922363e+00 -3.855051696300506592e-01 -2.063378334045410156e+00 -8.700280189514160156e-01 -2.372873574495315552e-01 -1.822779893875122070e+00 -2.401485443115234375e+00 -8.499444723129272461e-01 -1.498229742050170898e+00 9.402269721031188965e-01 -1.389913082122802734e+00 -1.151213526725769043e+00 -2.160965681076049805e+00 -1.414755225181579590e+00 3.219104409217834473e-01 -8.930574655532836914e-01 -2.222608566284179688e+00 -1.734824419021606445e+00 1.442018449306488037e-01 -1.722840070724487305e+00 9.809601902961730957e-01 -2.921741604804992676e-01 -2.424637794494628906e+00 8.906758427619934082e-01 -1.576263546943664551e+00 1.957651734352111816e+00 1.806429982185363770e+00 -1.472939491271972656e+00 -1.060441613197326660e+00 -1.667836070060729980e+00 -9.832985401153564453e-01 -2.167092084884643555e+00 -1.312080264091491699e+00 2.010435461997985840e-01 -9.506794810295104980e-01 -1.978224635124206543e+00 -1.670070290565490723e+00 8.834007382392883301e-01 1.088197231292724609e+00 1.284339189529418945e+00 1.502117991447448730e+00 -1.624829769134521484e+00 1.338418006896972656e+00 5.544204711914062500e-01 -1.372520327568054199e+00 3.219275176525115967e-01 7.049599289894104004e-01 -1.361516714096069336e+00 2.259943008422851562e+00 2.423017919063568115e-01 -1.984205603599548340e+00 -1.810722053050994873e-01 2.233296155929565430e+00 -7.192184925079345703e-01 1.826463222503662109e+00 -1.366510242223739624e-01 -9.698349237442016602e-01 -3.135788142681121826e-01 2.698344469070434570e+00 2.194284439086914062e+00 1.968151807785034180e+00 5.582927465438842773e-01 2.846321463584899902e-01 1.811395168304443359e+00 2.468698263168334961e+00 3.797632455825805664e-01 2.111152172088623047e+00 2.713782310485839844e+00 -5.512048006057739258e-01 1.945980548858642578e+00 2.126369714736938477e+00 2.205407857894897461e+00 2.201130867004394531e+00 1.648742675781250000e+00 1.650545120239257812e+00 2.388606071472167969e+00 -1.776475310325622559e-01 -9.508376121520996094e-01 1.392640709877014160e+00 -4.799537062644958496e-01 -9.180631637573242188e-01 -1.192592024803161621e+00 1.860234498977661133e+00 4.105810821056365967e-01 1.275157690048217773e+00 5.047639012336730957e-01 -1.247516751289367676e+00 -1.233641132712364197e-01 4.630589783191680908e-01 -5.653299093246459961e-01 -1.479621767997741699e+00 2.386033058166503906e+00 -1.028125762939453125e+00 1.632888793945312500e+00 -7.901164889335632324e-02 7.088823914527893066e-01 1.302324414253234863e+00
-1.179639101028442383e+00 3.464953303337097168e-01 2.547272920608520508e+00 -8.718737959861755371e-01 -1.940256059169769287e-01 -2.215131998062133789e+00 8.230150341987609863e-01 1.931637644767761230e+00 3.256894350051879883e-01 1.593282938003540039e+00 1.575686633586883545e-01 5.050907135009765625e-01 1.207004189491271973e+00 -2.116320133209228516e-01 2.452996075153350830e-01 -1.837406277656555176e+00 8.090062141418457031e-01 1.950347304344177246e+00 -1.007054805755615234e+00 5.071890950202941895e-01 -2.444426536560058594e+00 -1.648332238197326660e+00 -1.870213747024536133e+00 -1.249898076057434082e+00 -1.919929623603820801e+00 -2.078835964202880859e+00 -1.265185356140136719e+00 -1.214931607246398926e+00 -2.001060485839843750e+00 -3.826649188995361328e-01 -1.296543002128601074e+00 6.195974349975585938e-02 1.299116015434265137e+00 1.282246351242065430e+00 -1.848997592926025391e+00 -2.297343492507934570e+00 -1.194356799125671387e+00 -1.477889418601989746e+00 1.632658958435058594e+00 -3.978454470634460449e-01 1.138475775718688965e+00 -2.298496246337890625e+00 1.153614893555641174e-01 -2.488452434539794922e+00 -3.945123255252838135e-01 1.005197763442993164e+00 -2.024835824966430664e+00 -2.539022922515869141e+00 -1.305410504341125488e+00 -1.343159675598144531e+00 8.927053213119506836e-01 -2.419100522994995117e+00 -4.635467529296875000e-01 1.818119406700134277e+00 9.389972686767578125e-01 -7.100779563188552856e-02 1.233257532119750977e+00 7.254018783569335938e-01 -8.626142144203186035e-01 1.442776560783386230e+00 2.247309923171997070e+00 -1.453401088714599609e+00 -1.043878555297851562e+00 1.017645835876464844e+00 8.409466743469238281e-01 1.954180955886840820e+00 -1.023183941841125488e+00 -1.127045989036560059e+00 3.217276036739349365e-01 -1.408461332321166992e-01 -1.636586904525756836e+00 -4.665224552154541016e-01 6.838714480400085449e-01 -2.099589347839355469e+00 5.150170326232910156e-01 5.724237561225891113e-01 -1.184201478958129883e+00 2.406165599822998047e+00 1.421559095382690430e+00 1.884132325649261475e-01 2.239455938339233398e+00 -1.108552694320678711e+00 6.724033355712890625e-01 2.664684772491455078e+00 1.559372305870056152e+00 -4.534711539745330811e-01 1.332365155220031738e+00 8.128900527954101562e-01 1.431772589683532715e+00 1.143758177757263184e+00 -1.445420026779174805e+00 2.173258066177368164e+00 1.756726980209350586e+00 6.278578042984008789e-01 8.548046648502349854e-02 1.991483807563781738e+00 3.198958635330200195e-01 3.175669014453887939e-01 8.861042857170104980e-01 2.829254150390625000e+00
1.418759703636169434e+00 -1.523429393768310547e+00 1.098530530929565430e+00 -2.724733114242553711e+00 1.034536242485046387e+00 -2.232128381729125977e+00 -4.838207960128784180e-01 -7.940083146095275879e-01 -1.573604583740234375e+00 -1.537944436073303223e+00 4.421488046646118164e-01 -1.032874941825866699e+00 -2.041074275970458984e+00 -1.872540473937988281e+00 -1.137394309043884277e+00 -1.666357159614562988e+00 -2.280781507492065430e+00 -6.515747308731079102e-01 -1.416859984397888184e+00 -1.684059761464595795e-02 -4.355393052101135254e-01 1.825976133346557617e+00 2.157829761505126953e+00 1.313511729240417480e+00 2.807103872299194336e+00 -1.327428221702575684e+00 3.051399707794189453e+00 2.207130432128906250e+00 2.056643247604370117e+00 2.155128240585327148e+00 1.580450773239135742e+00 2.333507537841796875e+00 -3.639907240867614746e-01 3.328601419925689697e-01 -4.365071356296539307e-01 2.645322322845458984e+00 1.452166438102722168e+00 1.140342593193054199e+00 5.715316534042358398e-01 8.584454655647277832e-01 -1.568074703216552734e+00 1.835680127143859863e+00 1.249961972236633301e+00 5.176515579223632812e-01 8.030470609664916992e-01 -1.633293151855468750e+00 -1.208540797233581543e+00 -5.038633942604064941e-01 -5.142913386225700378e-02 -1.058832764625549316e+00 -1.658775091171264648e+00 1.458043336868286133e+00 -2.015667200088500977e+00 -3.159441351890563965e-01 -1.606757879257202148e+00 3.530339300632476807e-01 -1.108481287956237793e+00 -1.118078827857971191e+00 -1.039424657821655273e+00 -1.153236269950866699e+00 1.201034307479858398e+00 -1.129690408706665039e+00 8.297885060310363770e-01 7.336354851722717285e-01 1.315259456634521484e+00 -6.291767358779907227e-01 -1.876938104629516602e+00 -1.610517263412475586e+00 -1.555493474006652832e+00 -2.051214218139648438e+00 3.753208220005035400e-01 -1.049576282501220703e+00 -1.389149904251098633e+00 -8.716014623641967773e-01 -2.446920275688171387e-01 1.845740914344787598e+00 1.523136615753173828e+00 -2.373594522476196289e+00 6.826134324073791504e-01 8.893774151802062988e-01 1.461179256439208984e+00 2.200991153717041016e+00 -1.859711647033691406e+00 1.604872941970825195e+00 1.781685799360275269e-01 9.917283654212951660e-01 -2.125195503234863281e+00 -9.704141616821289062e-01 1.710466504096984863e+00 3.159529566764831543e-01 -1.541076183319091797e+00 1.159227609634399414e+00 -1.344263672828674316e+00 -9.162020683288574219e-01 2.762713655829429626e-02 9.534187316894531250e-01 2.300016403198242188e+00 5.181500911712646484e-01 2.311857700347900391e+00 2.960250675678253174e-01
-2.077988862991333008e+00 -2.426007986068725586e+00 -1.298475861549377441e+00 -1.904636025428771973e+00 -2.185040950775146484e+00 -1.054235816001892090e+00 -1.378417730331420898e+00 7.228697091341018677e-02 -9.242813587188720703e-01 -5.962266325950622559e-01 5.021271109580993652e-01 -8.923185467720031738e-01 -8.680691719055175781e-01 -2.617253303527832031e+00 -1.802594423294067383e+00 2.190651446580886841e-01 6.638463139533996582e-01 -1.488909840583801270e+00 -1.048905491828918457e+00 -1.408759474754333496e+00 4.106509089469909668e-01 1.691416978836059570e+00 -1.966811537742614746e+00 -5.507419705390930176e-01 1.102314114570617676e+00 1.804110884666442871e+00 1.673190474510192871e+00 -2.829849421977996826e-01 1.952634692192077637e+00 9.806029200553894043e-01 2.583450078964233398e-01 1.220905184745788574e+00 1.168780803680419922e+00 -1.226541996002197266e+00 -1.635906219482421875e+00 1.189557433128356934e+00 1.284842371940612793e+00 -6.176033020019531250e-01 4.532851278781890869e-01 -2.063427418470382690e-01 -2.584473192691802979e-01 -5.291070938110351562e-01 -1.617181599140167236e-01 -7.358877360820770264e-02 1.476452350616455078e+00 -1.855607748031616211e+00 -2.290115833282470703e+00 -2.385555744171142578e+00 9.582436680793762207e-01 -1.749727010726928711e+00 -2.069028139114379883e+00 -1.335047721862792969e+00 -4.940680265426635742e-01 -1.266097307205200195e+00 -1.176727563142776489e-01 1.817008256912231445e-01 1.918254643678665161e-01 -9.085692167282104492e-01 -1.298574805259704590e+00 1.028233885765075684e+00 -1.173503637313842773e+00 1.853555202484130859e+00 -8.435627818107604980e-01 -1.617593050003051758e+00 1.012583822011947632e-02 -1.324658632278442383e+00 1.334566473960876465e+00 1.862125754356384277e+00 -6.229526996612548828e-01 6.215720772743225098e-01 -6.439582705497741699e-01 -7.863680720329284668e-01 2.227970600128173828e+00 -4.082036018371582031e-01 4.072600901126861572e-01 -2.755567073822021484e+00 -1.912767291069030762e+00 -6.605640053749084473e-01 8.498412370681762695e-02 -4.343757629394531250e-01 1.135655045509338379e+00 1.573937654495239258e+00 2.693212509155273438e+00 2.241924285888671875e+00 1.380213379859924316e+00 2.172856807708740234e+00 1.873491048812866211e+00 1.560063600540161133e+00 1.876395821571350098e+00 8.781556785106658936e-02 2.013706207275390625e+00 7.982388138771057129e-01 2.156274557113647461e+00 2.215945959091186523e+00 2.583718538284301758e+00 1.404155731201171875e+00 1.952239632606506348e+00 1.890308380126953125e+00 -4.649459421634674072e-01 5.771327614784240723e-01
-1.580064296722412109e+00 -1.095308139920234680e-01 3.435238897800445557e-01 -8.585447669029235840e-01 1.617506384849548340e+00 -1.373220205307006836e+00 1.051728487014770508e+00 -1.585052132606506348e+00 -1.739579319953918457e+00 -1.651011705398559570e+00 -2.865142583847045898e+00 6.692759990692138672e-01 -8.186643719673156738e-01 -1.109020233154296875e+00 1.293974220752716064e-01 -1.449693202972412109e+00 9.723225980997085571e-02 5.696005225181579590e-01 8.712756037712097168e-01 -1.371009826660156250e+00 -5.311093926429748535e-01 6.109611988067626953e-01 1.481491088867187500e+00 1.252191185951232910e+00 -8.982012271881103516e-01 -2.934682071208953857e-01 -1.779241800308227539e+00 1.813964128494262695e+00 1.400356531143188477e+00 -2.017097711563110352e+00 1.772261977195739746e+00 -6.330428123474121094e-01 8.703610897064208984e-01 -1.307760000228881836e+00 2.136662483215332031e+00 -2.359990358352661133e+00 -2.359444141387939453e+00 1.013216599822044373e-01 1.403434634208679199e+00 -1.451319176703691483e-02 7.733442187309265137e-01 8.839737176895141602e-01 1.455533266067504883e+00 1.939138412475585938e+00 1.422334671020507812e+00 1.553433537483215332e+00 1.321157455444335938e+00 1.930992126464843750e+00 4.231045842170715332e-01 -8.189906477928161621e-01 2.012722015380859375e+00 1.745803594589233398e+00 2.828575134277343750e+00 2.269668340682983398e+00 2.369790077209472656e+00 2.095647096633911133e+00 2.466629981994628906e+00 2.374239683151245117e+00 -5.249936580657958984e-01 2.167958974838256836e+00 -8.852868080139160156e-01 4.256134927272796631e-01 -2.191766500473022461e+00 6.875035166740417480e-01 1.708750844001770020e+00 -1.606134295463562012e+00 -2.687956094741821289e-01 1.130063891410827637e+00 1.243526339530944824e-01 6.674981713294982910e-01 2.294385731220245361e-01 1.347318887710571289e+00 -1.170628666877746582e+00 -1.739351749420166016e+00 -6.036655902862548828e-01 2.035201340913772583e-01 -1.723925828933715820e+00 5.041152834892272949e-01 -1.001722455024719238e+00 1.700135111808776855e+00 -1.507790565490722656e+00 -1.622231960296630859e+00 6.054654121398925781e-01 -1.240690708160400391e+00 2.976866662502288818e-01 -1.918552637100219727e+00 6.946666538715362549e-02 3.925518989562988281e-01 -1.274564623832702637e+00 -1.456183314323425293e+00 -1.922714948654174805e+00 -1.634486317634582520e+00 -5.630230903625488281e-01 5.934699773788452148e-01 -1.051921248435974121e+00 -1.407635450363159180e+00 -1.405835628509521484e+00 -2.140981674194335938e+00 -1.440299034118652344e+00 5.401708483695983887e-01
-1.781951427459716797e+00 1.776547074317932129e+00 -3.874268233776092529e-01 2.326831668615341187e-01 1.553490161895751953e+00 1.782289147377014160e+00 7.077144384384155273e-01 -4.729623794555664062e-01 -5.206311941146850586e-01 1.852145671844482422e+00 -1.021642703562974930e-03 -1.122974872589111328e+00 5.761088132858276367e-01 -8.960829973220825195e-01 -7.617384195327758789e-01 -7.925509214401245117e-01 9.948707222938537598e-01 1.604576826095581055e+00 2.544501304626464844e+00 -1.313540458679199219e+00 3.206613361835479736e-01 -5.983996987342834473e-01 -7.707660198211669922e-01 -1.715057253837585449e+00 -2.402680158615112305e+00 -1.800448060035705566e+00 -1.263803243637084961e+00 1.585918903350830078e+00 -7.092404961585998535e-01 -2.382929995656013489e-02 -5.609502792358398438e-01 2.752094566822052002e-01 1.126978635787963867e+00 -2.687888383865356445e+00 -1.693087100982666016e+00 1.642890453338623047e+00 -3.171767890453338623e-01 1.007676243782043457e+00 -1.894970893859863281e+00 -1.410835027694702148e+00 1.275307297706604004e+00 -1.353927850723266602e-01 -4.220651090145111084e-01 -8.696432709693908691e-01 -3.933452069759368896e-01 -1.521324753761291504e+00 6.762164831161499023e-01 1.045458912849426270e-01 -9.717865288257598877e-02 1.947156786918640137e+00 -9.578413367271423340e-01 1.856267809867858887e+00 1.686041951179504395e+00 -5.448393225669860840e-01 2.461709260940551758e+00 -8.962923288345336914e-01 -2.054431676864624023e+00 -8.997139334678649902e-02 -5.523055195808410645e-01 1.474090337753295898e+00 2.182489871978759766e+00 1.106859207153320312e+00 2.455619335174560547e+00 -7.397730946540832520e-01 2.399058103561401367e+00 9.838560819625854492e-01 1.842379689216613770e+00 1.488615393638610840e+00 8.823909163475036621e-01 1.117420196533203125e+00 6.728544831275939941e-01 2.127029895782470703e+00 1.646559119224548340e+00 2.201140880584716797e+00 1.877720594406127930e+00 2.127811193466186523e+00 1.065058827400207520e+00 1.898539185523986816e+00 1.744350314140319824e+00 1.267175316810607910e+00 -1.762529492378234863e+00 -8.824788928031921387e-01 -7.035477161407470703e-01 -2.582264423370361328e+00 -2.006585359573364258e+00 -1.649056911468505859e+00 -1.669889688491821289e+00 -3.591009080410003662e-01 -1.570951819419860840e+00 -7.550898194313049316e-01 1.604615330696105957e+00 -1.292751312255859375e+00 -1.718315601348876953e+00 -2.768928050994873047e+00 -1.924115657806396484e+00 -8.411377072334289551e-01 -1.792646765708923340e+00 -2.195079177618026733e-01 -1.932729721069335938e+00 -2.342647314071655273e+00
-6.186605691909790039e-01 7.956610918045043945e-01 -1.546462535858154297e+00 8.829882740974426270e-01 -1.468600869178771973e+00 3.878200054168701172e-01 -2.360966920852661133e+00 -1.901917457580566406e+00 2.197961062192916870e-01 1.113744020462036133e+00 4.901421964168548584e-01 2.343786478042602539e+00 1.214710950851440430e+00 2.509536027908325195e+00 1.508886933326721191e+00 -1.666596978902816772e-01 -2.125600337982177734e+00 6.951193213462829590e-01 -2.455587148666381836e+00 9.404096603393554688e-01 2.303989648818969727e+00 1.689895153045654297e+00 1.093213319778442383e+00 2.464842796325683594e+00 -6.641423106193542480e-01 1.179625988006591797e+00 1.453026294708251953e+00 -2.630591988563537598e-01 -4.559303075075149536e-02 -1.944155544042587280e-01 -1.493219614028930664e+00 2.439752101898193359e+00 1.448951959609985352e+00 1.218451142311096191e+00 -1.043094247579574585e-01 1.796864032745361328e+00 1.510888695716857910e+00 -5.121299028396606445e-01 -8.771111071109771729e-02 -1.443729847669601440e-01 1.406488776206970215e+00 7.660189270973205566e-01 6.630324721336364746e-01 -9.316478967666625977e-01 6.172360181808471680e-01 8.391979336738586426e-01 -4.190489351749420166e-01 -1.381561517715454102e+00 -6.535258293151855469e-01 6.836462616920471191e-01 6.243932619690895081e-02 1.256105065345764160e+00 7.400013804435729980e-01 -7.312595248222351074e-01 -7.464728951454162598e-01 1.586233258247375488e+00 1.636901736259460449e+00 7.115676999092102051e-01 1.685474872589111328e+00 4.257092773914337158e-01 -2.561070919036865234e+00 2.175622701644897461e+00 2.045282363891601562e+00 -1.001195788383483887e+00 -1.862824678421020508e+00 1.270070552825927734e+00 -4.756810963153839111e-01 8.871098160743713379e-01 2.737839698791503906e+00 -2.892625808715820312e+00 -1.279096752405166626e-01 -3.970057070255279541e-01 -1.145294785499572754e+00 1.982048511505126953e+00 2.732603549957275391e-01 -1.154508829116821289e+00 -7.433147430419921875e-01 1.616522312164306641e+00 8.542358875274658203e-01 -8.589332699775695801e-01 -4.015696644783020020e-01 -1.524385809898376465e+00 -2.117707490921020508e+00 -2.098955631256103516e+00 -2.222999811172485352e+00 -5.049517750740051270e-01 -2.880746722221374512e-01 -1.226686477661132812e+00 -2.165615797042846680e+00 -1.529574394226074219e+00 -9.604139328002929688e-01 -2.393997192382812500e+00 -2.158192634582519531e+00 -1.758387446403503418e+00 1.342268943786621094e+00 -2.176004886627197266e+00 2.554909884929656982e-02 -1.156956434249877930e+00 -1.071509361267089844e+00 2.927542030811309814e-01
7.178456187248229980e-01 4.126625359058380127e-01 -2.254560589790344238e-01 2.264695167541503906e+00 -5.780927538871765137e-01 1.363567233085632324e+00 9.812630712985992432e-02 2.816178202629089355e-01 2.391618251800537109e+00 1.922582268714904785e+00 1.496477127075195312e+00 -1.991138100624084473e+00 -5.824193954467773438e-01 -1.355796933174133301e+00 2.564502477645874023e+00 -1.271893382072448730e+00 2.324326753616333008e+00 1.851078391075134277e+00 -8.262665271759033203e-01 2.342820167541503906e+00 -9.692409634590148926e-01 7.547880411148071289e-01 2.324292898178100586e+00 7.104923129081726074e-01 -3.077805936336517334e-01 9.963861107826232910e-01 2.078415632247924805e+00 1.402951836585998535e+00 6.763061285018920898e-01 -1.734118461608886719e+00 1.427025079727172852e+00 -1.119996309280395508e+00 -1.056217908859252930e+00 5.278515219688415527e-01 1.130641937255859375e+00 8.606759458780288696e-02 -7.414011359214782715e-01 -3.001157045364379883e-01 1.604291558265686035e+00 8.213039636611938477e-01 -1.927897095680236816e+00 -2.356664419174194336e+00 -1.713952660560607910e+00 3.673121333122253418e-01 -2.087018013000488281e+00 -2.080546468496322632e-01 2.624297142028808594e-01 1.153160333633422852e-01 -1.929820477962493896e-01 2.315683603286743164e+00 -7.399144768714904785e-01 -4.055693149566650391e-01 -5.073801279067993164e-01 1.087661623954772949e+00 -7.098883986473083496e-01 -1.133270382881164551e+00 -1.602963328361511230e+00 1.289722919464111328e+00 -1.432356119155883789e+00 -1.067546606063842773e+00 2.101317346096038818e-01 -1.385879635810852051e+00 -1.946490645408630371e+00 1.552430987358093262e+00 -9.508521556854248047e-01 -1.839190244674682617e+00 -1.405395030975341797e+00 -1.752738475799560547e+00 -8.644439578056335449e-01 -5.913631916046142578e-01 -7.932532429695129395e-01 -6.815627813339233398e-01 -2.121968030929565430e+00 1.068988323211669922e+00 -1.325045704841613770e+00 -2.330957204103469849e-01 -3.820183873176574707e-01 -2.071127891540527344e+00 -6.851033121347427368e-02 -1.857343792915344238e+00 -1.997744083404541016e+00 1.290752053260803223e+00 1.239107370376586914e+00 -1.005972027778625488e+00 2.824119567871093750e+00 1.899287104606628418e+00 9.329195618629455566e-01 2.357551097869873047e+00 4.039999842643737793e-01 9.211178869009017944e-02 5.473673939704895020e-01 6.471584439277648926e-01 -1.639033675193786621e+00 -2.682743310928344727e+00 2.257124334573745728e-02 2.262187480926513672e+00 -1.805696606636047363e+00 2.299820899963378906e+00 -3.090989589691162109e-01 -9.164757132530212402e-01
6.474052667617797852e-01 -2.154438346624374390e-01 1.148168206214904785e+00 6.162331104278564453e-01 1.589296698570251465e+00 -1.588573932647705078e+00 8.456600308418273926e-01 1.564874887466430664e+00 1.369743943214416504e+00 1.875029683113098145e+00 1.961253404617309570e+00 2.307625055313110352e+00 2.296550989151000977e+00 6.707671284675598145e-01 4.625179469585418701e-01 1.680429100990295410e+00 1.967441678047180176e+00 2.040072679519653320e+00 3.914556205272674561e-01 3.927984237670898438e-01 -4.642312228679656982e-01 5.383178591728210449e-01 -1.325583100318908691e+00 -2.538953304290771484e+00 9.616544470191001892e-03 6.338624358177185059e-01 -1.862137466669082642e-01 -9.658595323562622070e-01 -9.668676853179931641e-01 -1.677610993385314941e+00 1.001277327537536621e+00 -2.072409152984619141e+00 -7.589989304542541504e-01 -1.353576660156250000e+00 -1.355168461799621582e+00 -2.145882368087768555e+00 -1.066738963127136230e+00 2.278380870819091797e+00 -1.519376635551452637e+00 -1.617001175880432129e+00 4.589023888111114502e-01 1.066860318183898926e+00 1.913490295410156250e+00 1.626519322395324707e+00 1.614138841629028320e+00 -1.450383663177490234e+00 -2.457733631134033203e+00 -1.451780915260314941e+00 1.449152588844299316e+00 2.960770018398761749e-02 -2.434622287750244141e+00 1.203177198767662048e-01 7.781955599784851074e-01 -3.302907347679138184e-01 -1.776924967765808105e+00 1.874788999557495117e+00 -4.300268888473510742e-01 1.491042733192443848e+00 3.767010271549224854e-01 -1.444279253482818604e-01 -7.471977919340133667e-02 1.923631429672241211e+00 -3.898822963237762451e-01 1.019659191370010376e-01 -1.693432927131652832e+00 1.369339942932128906e+00 1.641227841377258301e+00 4.632632434368133545e-01 -4.139980673789978027e-02 3.819825947284698486e-01 -2.314138174057006836e+00 -9.559744596481323242e-01 -1.270695686340332031e+00 1.750038981437683105e+00 6.552959680557250977e-01 1.538629651069641113e+00 1.308126330375671387e+00 -1.350521206855773926e+00 -5.169755220413208008e-01 2.888149261474609375e+00 -1.218609690666198730e+00 -1.210332512855529785e+00 -1.336292028427124023e+00 1.622600555419921875e+00 -2.378908395767211914e+00 -1.554850459098815918e+00 -1.974088549613952637e+00 -2.203223228454589844e+00 1.484214067459106445e+00 -7.450351715087890625e-01 -1.903006434440612793e+00 1.956189393997192383e+00 -6.000773906707763672e-01 -1.959380954504013062e-01 -8.029048442840576172e-01 -2.459680080413818359e+00 6.668770909309387207e-01 5.665045976638793945e-01 -1.789876699447631836e+00 5.589030385017395020e-01
2.260596752166748047e+00 -5.556599497795104980e-01 2.434739828109741211e+00 1.914419531822204590e+00 2.160457134246826172e+00 1.711639165878295898e+00 -1.163232922554016113e+00 2.035779714584350586e+00 1.648836135864257812e+00 2.119415044784545898e+00 4.180848300457000732e-01 2.487594127655029297e+00 2.077507019042968750e+00 1.877014636993408203e+00 1.070466041564941406e+00 1.441467702388763428e-01 1.279135227203369141e+00 1.427723646163940430e+00 8.299518227577209473e-01 9.714344739913940430e-01 -2.379788637161254883e+00 -1.930886149406433105e+00 3.956065475940704346e-01 -1.878951430320739746e+00 -1.287645220756530762e+00 -1.375684976577758789e+00 -4.910346269607543945e-01 -9.722334742546081543e-01 -2.624716281890869141e+00 -1.839707016944885254e+00 1.359369009733200073e-01 -1.530098795890808105e+00 -2.652766942977905273e+00 1.263666003942489624e-01 -1.978653430938720703e+00 -1.941202163696289062e+00 1.336949229240417480e+00 -4.956878125667572021e-01 -1.943393349647521973e+00 -1.465815424919128418e+00 -6.741515398025512695e-01 1.808452248573303223e+00 1.918504357337951660e+00 1.156104803085327148e+00 1.551241517066955566e+00 1.672535300254821777e+00 1.859438180923461914e+00 1.681341409683227539e+00 -2.508234679698944092e-01 1.623832106590270996e+00 1.307978272438049316e+00 6.330588459968566895e-01 1.150858879089355469e+00 2.190582752227783203e+00 -6.217803955078125000e-01 -4.062074124813079834e-01 -8.850767612457275391e-01 3.969877362251281738e-01 2.117587566375732422e+00 -2.153901338577270508e+00 -4.010963737964630127e-01 -7.202338576316833496e-01 -1.495998740196228027e+00 -1.534300923347473145e+00 1.847403168678283691e+00 -9.343223571777343750e-01 -1.246991395950317383e+00 -6.727477163076400757e-02 -5.689980387687683105e-01 -1.447968721389770508e+00 -5.346563830971717834e-02 2.277255803346633911e-01 6.317062973976135254e-01 -1.286036849021911621e+00 -3.939844369888305664e-01 2.142256870865821838e-02 -1.601853251457214355e+00 -2.332973718643188477e+00 -9.386858940124511719e-01 -1.762767553329467773e+00 2.254788875579833984e+00 7.727062106132507324e-01 5.126102566719055176e-01 -8.431680202484130859e-01 -4.822894930839538574e-01 -2.438397407531738281e-01 -1.458966016769409180e+00 4.074481725692749023e-01 -1.813705801963806152e+00 1.412039399147033691e-01 -1.173232674598693848e+00 -1.272803902626037598e+00 -6.724844574928283691e-01 1.709141135215759277e+00 9.043239951133728027e-01 -1.796355366706848145e+00 1.845480352640151978e-01 -1.908299922943115234e+00 -6.183072924613952637e-01 6.861031651496887207e-01
4.328536391258239746e-01 1.767489552497863770e+00 -7.192812561988830566e-01 -1.426925420761108398e+00 -1.913575291633605957e+00 -1.633224487304687500e-01 1.017980933189392090e+00 -6.955626010894775391e-01 1.332544565200805664e+00 -2.231398105621337891e+00 1.970458984375000000e+00 -1.598349452018737793e+00 1.964252471923828125e+00 -2.475477933883666992e+00 -7.705942988395690918e-01 1.240948438644409180e+00 9.521940946578979492e-01 -3.104768693447113037e-01 8.167535066604614258e-01 1.722699165344238281e+00 -1.745926976203918457e+00 4.529888033866882324e-01 -5.002840757369995117e-01 4.833771884441375732e-01 2.940707206726074219e-01 4.959418177604675293e-01 -1.142496764659881592e-01 7.484283447265625000e-01 -4.803013205528259277e-01 9.307057857513427734e-01 -1.882451534271240234e+00 1.014462113380432129e+00 -7.384766936302185059e-01 -1.822177529335021973e+00 -1.217141985893249512e+00 -1.381229400634765625e+00 -1.389057040214538574e+00 -8.521975874900817871e-01 7.088206410408020020e-01 -3.566644191741943359e-01 2.653929948806762695e+00 -2.617457509040832520e-01 -5.144904553890228271e-02 2.325989007949829102e+00 5.993583798408508301e-01 1.736334562301635742e+00 1.313129186630249023e+00 1.430453300476074219e+00 2.148073673248291016e+00 -8.398168087005615234e-01 2.039759874343872070e+00 1.449593067169189453e+00 8.947669863700866699e-01 1.415889382362365723e+00 2.630642652511596680e+00 -5.049667954444885254e-01 1.008246302604675293e+00 -1.147009372711181641e+00 6.308835744857788086e-01 2.408094882965087891e+00 -5.339013934135437012e-01 -1.395515441894531250e+00 5.032621622085571289e-01 -2.524140119552612305e+00 -1.968964099884033203e+00 -1.808638095855712891e+00 -2.249429941177368164e+00 -1.605589270591735840e+00 -2.338941246271133423e-01 -2.896714448928833008e+00 -1.756721496582031250e+00 2.292581051588058472e-01 -1.579129099845886230e+00 2.066510438919067383e+00 -1.794125795364379883e+00 -1.310855597257614136e-01 -6.114480495452880859e-01 -3.820145130157470703e-01 1.533873915672302246e+00 1.203990168869495392e-02 -7.416859865188598633e-01 1.598510265350341797e+00 -1.050735786557197571e-01 -1.770457625389099121e+00 2.127315998077392578e+00 1.043046563863754272e-01 -9.240927696228027344e-01 -3.000282347202301025e-01 3.281971216201782227e-01 -6.739294528961181641e-01 5.123118162155151367e-01 -9.022165536880493164e-01 4.615848362445831299e-01 1.007546544075012207e+00 -5.910011753439903259e-02 1.763270974159240723e+00 -1.415130376815795898e+00 2.005203247070312500e+00 -9.113243818283081055e-01 -1.500463247299194336e+00
-7.064595222473144531e-01 7.056236863136291504e-01 -5.533747076988220215e-01 1.470847964286804199e+00 -2.280045747756958008e-01 2.685407698154449463e-01 -1.896138638257980347e-01 1.731788069009780884e-01 -6.362102031707763672e-01 6.153676286339759827e-02 1.026710867881774902e+00 5.167980194091796875e-01 -1.336164921522140503e-01 2.189670801162719727e+00 1.293160080909729004e+00 1.428654551506042480e+00 9.266574382781982422e-01 -1.702468991279602051e+00 1.061861366033554077e-01 -1.418148636817932129e+00 2.392300367355346680e+00 -9.647992253303527832e-01 9.214203357696533203e-01 -1.389667868614196777e+00 1.656674861907958984e+00 -8.614645153284072876e-02 1.314060091972351074e+00 5.541709065437316895e-01 1.584138274192810059e+00 -2.958430945873260498e-01 3.729488253593444824e-01 6.240456104278564453e-01 -4.631087779998779297e-01 7.821063995361328125e-01 6.260077953338623047e-01 7.943365722894668579e-02 -8.996496796607971191e-01 4.232410788536071777e-01 2.448388934135437012e-01 -6.735005974769592285e-02 1.651572823524475098e+00 5.709632635116577148e-01 -1.803269505500793457e+00 1.546837687492370605e+00 1.698834061622619629e+00 8.039266467094421387e-01 -1.316930770874023438e+00 1.228847861289978027e+00 9.229031801223754883e-01 -1.736616730690002441e+00 -1.550786256790161133e+00 -4.976073503494262695e-01 -1.332763791084289551e+00 -1.961098670959472656e+00 9.872332215309143066e-01 1.293024897575378418e+00 2.272406816482543945e+00 9.980094432830810547e-01 -1.191521644592285156e+00 2.375683784484863281e-01 1.198561906814575195e+00 -1.433137416839599609e+00 -1.128225803375244141e+00 -1.304315209388732910e+00 7.377591729164123535e-01 -1.852255582809448242e+00 -4.348207116127014160e-01 -2.698688268661499023e+00 -1.036652684211730957e+00 -2.021518707275390625e+00 -4.784016609191894531e-01 -1.755348086357116699e+00 -4.416437149047851562e-01 -1.742573142051696777e+00 -7.331717610359191895e-01 -2.104214429855346680e+00 -1.068297743797302246e+00 1.142341613769531250e+00 2.628239393234252930e-01 -8.389216661453247070e-01 -4.973160028457641602e-01 -1.548871994018554688e+00 2.023145323619246483e-03 1.163263559341430664e+00 1.138141751289367676e+00 -6.255434155464172363e-01 1.716095805168151855e+00 -4.567117393016815186e-01 -9.491140246391296387e-01 1.766707062721252441e+00 1.726118445396423340e+00 -1.264293313026428223e+00 1.897279262542724609e+00 -1.048172593116760254e+00 -1.857454776763916016e+00 1.423462867736816406e+00 1.871021240949630737e-01 8.863264918327331543e-01 1.079484462738037109e+00 -1.276799440383911133e+00
1.078415870666503906e+00 -9.051597118377685547e-01 -2.546913921833038330e-01 9.306776523590087891e-01 2.332489967346191406e+00 -1.605405926704406738e+00 2.281543970108032227e+00 2.050833225250244141e+00 -8.751757740974426270e-01 2.921184897422790527e-02 7.134492993354797363e-01 7.962636947631835938e-01 1.484260439872741699e+00 8.243901729583740234e-01 1.141266822814941406e+00 6.196527481079101562e-01 -3.085576184093952179e-02 1.147153139114379883e+00 1.635822534561157227e+00 -1.952353864908218384e-01 6.310480237007141113e-01 -1.652364730834960938e+00 2.789399325847625732e-01 1.794320821762084961e+00 9.109730124473571777e-01 -1.980278372764587402e+00 3.029910326004028320e-01 2.160480499267578125e+00 -1.709856867790222168e+00 -5.408385396003723145e-01 8.678556084632873535e-01 1.712521672248840332e+00 1.002321958541870117e+00 -8.759875893592834473e-01 2.192074775695800781e+00 -3.710947632789611816e-01 5.451276898384094238e-01 -2.220905065536499023e+00 -8.668846487998962402e-01 -1.243800163269042969e+00 -2.075286388397216797e+00 -2.972012996673583984e+00 4.347663223743438721e-01 -1.565359354019165039e+00 -8.862227201461791992e-01 9.943967461585998535e-01 1.087846755981445312e+00 -2.073549270629882812e+00 -3.382611989974975586e+00 -2.166221857070922852e+00 -1.081201881170272827e-01 -5.911647081375122070e-01 -2.733138561248779297e+00 -1.394724607467651367e+00 9.439080022275447845e-03 -1.761090755462646484e+00 -2.161791801452636719e+00 -2.668652057647705078e+00 -1.518418431282043457e+00 -2.796510696411132812e+00 2.710794508457183838e-01 1.743791460990905762e+00 -6.261492967605590820e-01 -9.168029576539993286e-02 -5.507193803787231445e-01 -1.975306272506713867e+00 8.254621624946594238e-01 1.598061919212341309e+00 1.755803823471069336e+00 1.984265804290771484e+00 2.493349552154541016e+00 -9.891655445098876953e-01 -1.959846168756484985e-01 -9.832458496093750000e-01 -1.519625931978225708e-01 2.470405697822570801e-01 -1.022377252578735352e+00 -5.414773225784301758e-01 9.710501134395599365e-02 1.915518522262573242e+00 -1.424223661422729492e+00 1.072489142417907715e+00 -1.326772421598434448e-01 3.165195882320404053e-01 -7.503888756036758423e-02 -1.818588227033615112e-01 1.841472268104553223e+00 -1.899478316307067871e+00 -8.060992956161499023e-01 2.490668296813964844e+00 1.615056395530700684e+00 1.234222412109375000e+00 1.474736452102661133e+00 1.950903058052062988e+00 4.813351631164550781e-01 -5.276522636413574219e-01 8.665679097175598145e-01 1.198282957077026367e+00 -2.324534021317958832e-02 -6.493601202964782715e-01
1.595716238021850586e+00 9.167912602424621582e-01 -9.893933534622192383e-01 3.658144474029541016e-01 4.464738816022872925e-02 2.797964572906494141e+00 1.551541209220886230e+00 6.074697971343994141e-01 -5.572586655616760254e-01 4.068657383322715759e-02 -1.390832304954528809e+00 -6.068019270896911621e-01 -1.232063055038452148e+00 -9.617872238159179688e-01 -1.310332179069519043e+00 1.297616839408874512e+00 -1.186918377876281738e+00 -1.196591854095458984e+00 1.356688499450683594e+00 -4.372490942478179932e-01 8.022929430007934570e-01 -1.112218737602233887e+00 -5.239862203598022461e-01 1.984904527664184570e+00 -1.428141713142395020e+00 -7.268887758255004883e-01 9.725143909454345703e-01 -3.750835657119750977e-01 -1.394418835639953613e+00 1.444116830825805664e+00 1.619764864444732666e-01 -1.181581139564514160e+00 8.686251044273376465e-01 1.394435524940490723e+00 -3.020804822444915771e-01 -1.244435191154479980e+00 -6.889718770980834961e-01 -2.518417835235595703e+00 1.629727840423583984e+00 2.468689441680908203e+00 1.262626528739929199e+00 -5.325970053672790527e-01 2.082573413848876953e+00 6.888206005096435547e-01 2.153765201568603516e+00 -1.223711252212524414e+00 1.551645278930664062e+00 -4.789904505014419556e-02 5.954787135124206543e-01 7.743353247642517090e-01 1.152536153793334961e+00 1.798613548278808594e+00 -1.155254840850830078e-01 9.183714538812637329e-02 -4.346334934234619141e-01 -5.852708816528320312e-01 -7.307925820350646973e-01 -9.527542591094970703e-01 -5.420684814453125000e-01 3.945904672145843506e-01 -3.520936667919158936e-01 -2.871522009372711182e-01 -2.034473419189453125e+00 -1.889258980751037598e+00 -4.474054574966430664e-01 -1.823685884475708008e+00 -1.633244633674621582e+00 3.445184826850891113e-01 -1.667987585067749023e+00 1.867192864418029785e+00 1.404465079307556152e+00 1.426837639883160591e-03 -1.561501145362854004e+00 -5.412730574607849121e-01 2.153167009353637695e+00 1.550443053245544434e+00 -1.942180037498474121e+00 7.452239394187927246e-01 1.105307266116142273e-01 -9.466672539710998535e-01 1.222297787666320801e+00 -5.859401226043701172e-01 -1.312653303146362305e+00 -1.518172144889831543e+00 1.579385519027709961e+00 8.551481962203979492e-01 8.359200954437255859e-01 -1.461056709289550781e+00 1.600335478782653809e+00 -1.674963712692260742e+00 -1.751225709915161133e+00 -2.432690382003784180e+00 1.567866325378417969e+00 -1.761337637901306152e+00 1.445925116539001465e+00 1.803862452507019043e+00 7.162944078445434570e-01 -1.694936752319335938e+00 -3.624903559684753418e-01 1.209975242614746094e+00
-1.475087761878967285e+00 -1.269875407218933105e+00 -3.127090334892272949e-01 -2.521736621856689453e+00 2.097587585449218750e+00 -1.062626004219055176e+00 -1.584106802940368652e+00 -7.797924876213073730e-01 -3.506489992141723633e-01 -1.621589899063110352e+00 -1.330212950706481934e+00 1.099577069282531738e+00 -2.804864048957824707e-01 -8.735747933387756348e-01 -1.096892237663269043e+00 -1.162749290466308594e+00 -2.370036363601684570e+00 -1.233994483947753906e+00 -1.150573492050170898e+00 -8.689884543418884277e-01 -3.479343354701995850e-01 1.483768582344055176e+00 2.766632318496704102e+00 1.934896260499954224e-01 -1.930380225181579590e+00 1.154134273529052734e+00 -5.987319946289062500e-01 9.865623116493225098e-01 1.300971150398254395e+00 -1.816328883171081543e+00 6.780654191970825195e-01 7.250017523765563965e-01 1.472301363945007324e+00 -7.898911833763122559e-01 -1.646484732627868652e-01 1.704627871513366699e+00 1.369691252708435059e+00 6.275156736373901367e-01 1.062197685241699219e+00 -6.275569200515747070e-01 -2.210276842117309570e+00 -7.115867137908935547e-01 7.753236293792724609e-01 -2.030205965042114258e+00 -2.095952033996582031e-01 -1.295933008193969727e+00 2.049215555191040039e+00 -1.076712727546691895e+00 1.935402035713195801e+00 1.197416782379150391e+00 -1.485539376735687256e-01 -8.812249302864074707e-01 2.439434289932250977e+00 -2.766866981983184814e-01 8.566970825195312500e-01 6.786016821861267090e-01 1.559831261634826660e+00 1.861700057983398438e+00 1.934340000152587891e+00 -1.403059244155883789e+00 -2.818698287010192871e-01 1.507204294204711914e+00 -1.341729760169982910e+00 3.070757985115051270e-01 -2.071957588195800781e+00 -8.321878910064697266e-01 6.498627662658691406e-01 1.392726421356201172e+00 -1.922078728675842285e-01 -4.715421199798583984e-01 -1.295572638511657715e+00 -8.479832410812377930e-01 -2.339003562927246094e+00 -2.214247465133666992e+00 -1.639914274215698242e+00 -1.117017507553100586e+00 2.014649152755737305e+00 1.244076967239379883e+00 -9.458456039428710938e-01 -9.476068615913391113e-01 2.070402860641479492e+00 9.903001785278320312e-01 -1.029561042785644531e+00 -6.235306262969970703e-01 6.033591628074645996e-01 2.266915798187255859e+00 -3.330641984939575195e-01 -7.145623564720153809e-01 1.342997550964355469e+00 -2.960096001625061035e-01 1.802264809608459473e+00 1.346310973167419434e-02 1.545778632164001465e+00 1.397418141365051270e+00 1.176813483238220215e+00 1.216572046279907227e+00 2.111524581909179688e+00 -1.289149045944213867e+00 9.379567503929138184e-01 9.420940279960632324e-02
1.329057216644287109e+00 1.276857018470764160e+00 1.424286603927612305e+00 1.304312229156494141e+00 -1.361241042613983154e-01 1.076969504356384277e+00 6.595669388771057129e-01 1.378092765808105469e-01 -6.321495175361633301e-01 2.906753540039062500e+00 1.986966371536254883e+00 5.800352096557617188e-01 -7.991836667060852051e-01 1.979354143142700195e+00 4.917818009853363037e-01 2.327532291412353516e+00 -3.622931838035583496e-01 1.003019213676452637e+00 1.692296624183654785e+00 1.856791734695434570e+00 5.848794579505920410e-01 4.471177756786346436e-01 -1.165513396263122559e+00 1.704253911972045898e+00 -1.131859540939331055e+00 -7.210638523101806641e-01 1.685313880443572998e-01 -1.253484725952148438e+00 -2.790209770202636719e+00 4.276697337627410889e-01 -3.332211077213287354e-01 -1.456790089607238770e+00 -2.935749590396881104e-01 -1.542477607727050781e+00 1.211327433586120605e+00 -5.578709840774536133e-01 -6.168946027755737305e-01 -1.264192223548889160e+00 8.625720739364624023e-01 -5.104702711105346680e-01 -1.594562888145446777e+00 -2.101205348968505859e+00 -7.448596358299255371e-01 3.055764436721801758e-01 2.489022493362426758e+00 -2.520430684089660645e-01 -7.983055710792541504e-01 6.207382678985595703e-02 1.081403613090515137e+00 -2.500031292438507080e-01 -7.042404413223266602e-01 2.005006313323974609e+00 -1.487264275550842285e+00 -2.328971326351165771e-01 -2.101480960845947266e-01 2.165765762329101562e+00 6.780267953872680664e-01 4.978543817996978760e-01 -1.430771231651306152e+00 5.919021368026733398e-01 2.291544914245605469e+00 -2.902776002883911133e-01 1.726816058158874512e+00 -1.037830829620361328e+00 1.532708048820495605e+00 -1.248251318931579590e+00 5.174321532249450684e-01 5.369271039962768555e-01 -2.095825910568237305e+00 -1.364736109972000122e-01 -8.552877902984619141e-01 -9.802537560462951660e-01 1.592664599418640137e+00 -3.923507034778594971e-01 -7.242244482040405273e-01 -1.993348479270935059e+00 1.223505973815917969e+00 -1.073377728462219238e+00 -2.642529249191284180e+00 9.751756787300109863e-01 1.229630351066589355e+00 -8.728964924812316895e-01 -6.754676252603530884e-02 -1.554705142974853516e+00 1.193882822990417480e+00 -2.692262232303619385e-01 -9.392988085746765137e-01 -1.660783767700195312e+00 -1.156833529472351074e+00 -2.752933800220489502e-01 -2.016115903854370117e+00 1.529245972633361816e+00 -1.464254736900329590e+00 1.089092731475830078e+00 6.208217740058898926e-01 -1.359018445014953613e+00 -3.584881126880645752e-02 -1.952953815460205078e+00 -2.068981170654296875e+00 4.749146848917007446e-02
