-9.972590208053588867e-02
2.681619115173816681e-02
-2.087174914777278900e-02
8.983205258846282959e-02
6.014907266944646835e-03
2.148683667182922363e-01
1.059608533978462219e-01
-1.247382629662752151e-02
-1.986982077360153198e-01
4.270787537097930908e-02
1.612605154514312744e-01
1.104548480361700058e-02
-2.002994157373905182e-02
-1.716417670249938965e-01
-1.444154828786849976e-01
-8.224719762802124023e-02
1.820804327726364136e-01
1.793206781148910522e-01
1.188340932130813599e-01
-8.279357105493545532e-02
2.651880495250225067e-02
-4.622148349881172180e-03
1.166558191180229187e-01
8.429319411516189575e-02
-9.533978998661041260e-02
-1.478283703327178955e-01
4.807255417108535767e-02
9.601140767335891724e-02
2.354773692786693573e-03
1.115283966064453125e-01
7.418584078550338745e-02
-9.524292498826980591e-02
-6.349951773881912231e-02
-2.455615848302841187e-01
-1.218049228191375732e-01
-2.093994757160544395e-03
-4.315054416656494141e-02
1.065538674592971802e-01
1.185155846178531647e-02
1.371563225984573364e-01
6.349138170480728149e-02
2.129927091300487518e-02
