9.518524408340454102e-01 -2.804549694061279297e+00 -3.301177263259887695e+00 1.063238024711608887e+00 -5.873161554336547852e-01 9.803255200386047363e-01 3.844593837857246399e-02 1.008391141891479492e+00 -1.157710075378417969e+00 -2.450493574142456055e+00 1.747145414352416992e+00 5.950025320053100586e-01 -2.549910306930541992e+00 3.923896849155426025e-01 -1.368802189826965332e+00 2.053025484085083008e+00 -2.061053961515426636e-01 -6.966567635536193848e-01 7.127137780189514160e-01 -1.709682822227478027e+00 -5.535034537315368652e-01 -1.231315374374389648e+00 -2.452700614929199219e+00 1.631461381912231445e-01 2.274730950593948364e-01 -2.464406490325927734e+00 -3.105197668075561523e+00 -6.273480653762817383e-01 -2.090785503387451172e+00 -3.858619034290313721e-01 -2.089921236038208008e+00 -2.716305971145629883e+00 -9.155238270759582520e-01 9.925016164779663086e-01 -1.615422248840332031e+00 -1.157924175262451172e+00 -1.122840523719787598e+00 1.398989200592041016e+00 -1.577892541885375977e+00 -1.495797753334045410e+00 1.231680870056152344e+00 -1.557412743568420410e+00 1.062709093093872070e+00 8.567320704460144043e-01 4.353101849555969238e-01 1.097523927688598633e+00 -6.289360523223876953e-01 -2.989484667778015137e-01 -1.281192898750305176e+00 -8.960965871810913086e-01 -1.500242054462432861e-01 1.347533226013183594e+00 -7.285339832305908203e-01 1.770172119140625000e+00 2.613158464431762695e+00 -1.001100659370422363e+00 -4.253942072391510010e-01 -1.285972952842712402e+00 1.906531095504760742e+00 1.380316495895385742e+00 3.012756109237670898e+00 2.893536090850830078e+00 2.847016334533691406e+00 -4.001475274562835693e-01 3.078895568847656250e+00 1.223013877868652344e+00 1.028933644294738770e+00 2.232273519039154053e-01 -1.067629337310791016e+00 2.403197139501571655e-01 1.858015656471252441e+00 2.213118076324462891e+00 -1.337061285972595215e+00 2.013896465301513672e+00 -4.243634045124053955e-01 -2.629215955734252930e+00 -1.146790385246276855e+00 1.604403406381607056e-01 3.663395881652832031e+00 2.318246364593505859e+00 8.826366662979125977e-01 -2.949730157852172852e+00 -9.648153781890869141e-01 -1.027648374438285828e-01 2.630295038223266602e+00 5.447213053703308105e-01 -1.988129973411560059e+00 -1.932315826416015625e+00 1.806461572647094727e+00 6.243947148323059082e-01 -1.095619678497314453e+00 -1.187859058380126953e+00 -2.040637016296386719e+00 3.205146551132202148e+00 -6.475370526313781738e-01 2.600075244903564453e+00 1.874445438385009766e+00 2.698054790496826172e+00 6.126828789710998535e-01 6.938008666038513184e-01
2.766638040542602539e+00 -9.015494585037231445e-01 1.644047737121582031e+00 -1.908098816871643066e+00 -4.048210978507995605e-01 -1.003109097480773926e+00 2.114956855773925781e+00 -2.775718927383422852e+00 3.130306303501129150e-01 1.558350205421447754e+00 -9.510425329208374023e-01 3.495172262191772461e-01 1.581066846847534180e+00 -1.916743874549865723e+00 5.373450517654418945e-01 3.546810746192932129e-01 6.302334666252136230e-01 -2.335652351379394531e+00 -1.951985716819763184e+00 -1.258402824401855469e+00 -2.225249290466308594e+00 -1.181125164031982422e+00 -2.917683839797973633e+00 -9.776940941810607910e-01 -5.873336791992187500e-01 -4.898667931556701660e-01 1.036476612091064453e+00 -4.482854157686233521e-02 7.020544409751892090e-01 -6.743609309196472168e-01 -1.280663251876831055e+00 -1.419925093650817871e+00 1.422437310218811035e+00 4.742885231971740723e-01 -1.220342993736267090e+00 2.102843046188354492e+00 1.001846432685852051e+00 -2.629792690277099609e-01 -1.152882099151611328e+00 -8.016139268875122070e-01 -2.507902145385742188e+00 -1.541403293609619141e+00 -2.669882059097290039e+00 -2.010285139083862305e+00 9.237986803054809570e-01 3.286235034465789795e-01 1.428784847259521484e+00 -4.510081708431243896e-01 -9.952711462974548340e-01 1.397505998611450195e-01 1.069931030273437500e+00 -1.740065455436706543e+00 -8.165294528007507324e-01 -1.438651084899902344e+00 -1.795405149459838867e+00 -2.142211675643920898e+00 -1.920436501502990723e+00 1.306864023208618164e+00 1.845952510833740234e+00 -1.424867510795593262e+00 1.469171047210693359e+00 1.377962827682495117e+00 1.702610611915588379e+00 4.271210730075836182e-01 2.365460157394409180e+00 -1.110626578330993652e+00 1.082352519035339355e+00 2.110720872879028320e+00 4.330697953701019287e-01 1.922784566879272461e+00 1.371199488639831543e+00 -8.917373418807983398e-02 2.314574718475341797e+00 -6.558170914649963379e-01 7.327795624732971191e-01 2.461215972900390625e+00 1.227600812911987305e+00 1.677109479904174805e+00 9.077872633934020996e-01 1.155855774879455566e+00 5.346766710281372070e-01 -9.508376121520996094e-01 5.542716383934020996e-01 2.297493696212768555e+00 -1.034327983856201172e+00 1.339583516120910645e+00 2.219645977020263672e+00 6.285168528556823730e-01 1.317219972610473633e+00 1.148244500160217285e+00 1.778775453567504883e+00 -1.686821579933166504e+00 -1.362078666687011719e+00 -2.274058759212493896e-01 -2.356435775756835938e+00 -2.613223552703857422e+00 -1.278337985277175903e-01 1.212374567985534668e+00 -6.943465471267700195e-01 1.343417763710021973e+00
-1.170292019844055176e+00 -1.159978359937667847e-01 3.951953351497650146e-01 7.072851061820983887e-01 -2.425706386566162109e-01 -1.516419410705566406e+00 -2.739768266677856445e+00 -2.302689790725708008e+00 9.643329381942749023e-01 -6.581451296806335449e-01 -1.622412443161010742e+00 -2.910770654678344727e+00 -2.397460699081420898e+00 5.513157844543457031e-01 -2.708498716354370117e+00 2.261775881052017212e-01 1.434226155281066895e+00 -1.341427445411682129e+00 -1.811932802200317383e+00 -2.013276815414428711e-01 7.543264031410217285e-01 1.906419515609741211e+00 1.504517674446105957e+00 -8.869941234588623047e-01 -1.551271557807922363e+00 6.254619359970092773e-01 2.304047584533691406e+00 1.596762239933013916e-01 1.725979685783386230e+00 -7.191658020019531250e-01 2.088613271713256836e+00 1.782489061355590820e+00 2.333387851715087891e+00 -1.501727104187011719e+00 2.142971038818359375e+00 -4.373541474342346191e-01 -1.190637145191431046e-02 1.012689709663391113e+00 1.408344745635986328e+00 -1.141438961029052734e+00 1.366936445236206055e+00 1.575088500976562500e+00 -1.617627143859863281e+00 2.667227745056152344e+00 -2.172911167144775391e+00 1.472861409187316895e+00 -2.910555839538574219e+00 -3.269531428813934326e-01 -2.865039408206939697e-01 -8.719587922096252441e-01 2.298224925994873047e+00 5.989168882369995117e-01 -2.019232034683227539e+00 -2.214400768280029297e-01 -3.014119863510131836e+00 -1.632091641426086426e+00 -3.361921310424804688e+00 -9.279758334159851074e-01 -1.560990571975708008e+00 -1.490378499031066895e+00 -7.538794875144958496e-01 9.911159276962280273e-01 -7.346218228340148926e-01 -1.028965830802917480e+00 -4.560084640979766846e-01 -2.755289793014526367e+00 1.720787763595581055e+00 2.084008693695068359e+00 2.117083072662353516e+00 -9.670310616493225098e-01 2.507505655288696289e+00 -6.614608168601989746e-01 2.492464780807495117e+00 1.754257082939147949e+00 2.200536727905273438e+00 1.820111155509948730e+00 2.035122394561767578e+00 -8.383879065513610840e-01 1.351710796356201172e+00 -4.221735596656799316e-01 1.733959078788757324e+00 -2.029753923416137695e+00 -1.250150322914123535e+00 9.094784855842590332e-01 -5.625828504562377930e-01 -2.083297729492187500e+00 3.322873115539550781e+00 -3.211824655532836914e+00 7.393997907638549805e-01 5.719210505485534668e-01 -2.227181911468505859e+00 1.821846723556518555e+00 2.174217939376831055e+00 1.972260475158691406e+00 2.068649291992187500e+00 -5.452328324317932129e-01 -7.171413302421569824e-01 2.248766183853149414e+00 -1.859727621078491211e+00 8.576397299766540527e-01
-4.872453510761260986e-01 -1.768728017807006836e+00 -1.636920452117919922e+00 1.199810206890106201e-01 -2.757905483245849609e+00 1.215998291969299316e+00 -2.426112651824951172e+00 -2.046551465988159180e+00 -2.170591115951538086e+00 -2.605189800262451172e+00 -2.653150796890258789e+00 -4.053841345012187958e-03 -2.089155018329620361e-01 -2.196630239486694336e+00 5.452601909637451172e-01 -1.640110611915588379e+00 2.864894568920135498e-01 -1.912575364112854004e+00 -1.511683940887451172e+00 -7.985647767782211304e-02 9.961432814598083496e-01 -2.277608633041381836e+00 -2.791044235229492188e+00 -2.498060941696166992e+00 -1.600968480110168457e+00 -2.457118511199951172e+00 -1.728958129882812500e+00 -2.586490392684936523e+00 -2.577545881271362305e+00 6.482682228088378906e-01 1.246792674064636230e+00 -1.241623282432556152e+00 -9.089490771293640137e-02 -4.621003568172454834e-01 -2.201054334640502930e+00 -1.536963820457458496e+00 -9.981229156255722046e-02 -9.745157957077026367e-01 2.008348107337951660e-01 4.715069532394409180e-01 8.793798685073852539e-01 1.524235367774963379e+00 2.508338928222656250e+00 1.486319422721862793e+00 2.772150278091430664e+00 2.257471084594726562e+00 5.626267194747924805e-01 1.778466224670410156e+00 8.740988373756408691e-01 1.751530647277832031e+00 2.071129798889160156e+00 1.583273410797119141e-01 9.456344842910766602e-01 1.636862993240356445e+00 1.062886357307434082e+00 1.171033143997192383e+00 2.692467927932739258e+00 1.050758957862854004e-01 4.085713326930999756e-01 1.879906535148620605e+00 -1.718407988548278809e+00 1.514422655105590820e+00 -2.099085897207260132e-01 -8.464455008506774902e-01 -2.607550919055938721e-01 1.532961606979370117e+00 1.369247436523437500e+00 -1.925320744514465332e+00 1.724548101425170898e+00 5.997109413146972656e-01 -4.995635151863098145e-01 2.672427177429199219e+00 -7.017802596092224121e-01 5.524285435676574707e-01 -3.434808254241943359e+00 1.718797922134399414e+00 -7.348826527595520020e-01 2.266664981842041016e+00 1.551779508590698242e+00 2.447971343994140625e+00 1.932351708412170410e+00 2.708913326263427734e+00 -6.391215920448303223e-01 2.309044837951660156e+00 -2.126540184020996094e+00 -2.678578495979309082e-01 2.357832342386245728e-01 1.327565789222717285e+00 -1.981671929359436035e+00 2.460337877273559570e+00 -1.880000829696655273e+00 -1.379375696182250977e+00 9.497213363647460938e-01 1.831985592842102051e+00 -7.918983697891235352e-01 2.133574008941650391e+00 8.408545255661010742e-01 -1.851247429847717285e+00 1.796709060668945312e+00 1.670534133911132812e+00
8.299430012702941895e-01 -1.853238344192504883e-01 -4.230475425720214844e-02 1.604008913040161133e+00 -2.139793157577514648e+00 2.610763788223266602e+00 1.078388929367065430e+00 8.611453771591186523e-01 -3.251033782958984375e+00 1.806949973106384277e+00 -1.534674763679504395e+00 9.409466981887817383e-01 -2.328246831893920898e+00 -2.230109930038452148e+00 1.066704511642456055e+00 -2.365315198898315430e+00 -1.564898252487182617e+00 -1.821928143501281738e+00 -6.575513482093811035e-01 -5.514952540397644043e-01 2.797731876373291016e+00 1.502923846244812012e+00 9.757346510887145996e-01 -1.002621293067932129e+00 1.080493927001953125e+00 -9.186263084411621094e-01 2.835206747055053711e+00 2.450023651123046875e+00 3.232192397117614746e-01 2.491269111633300781e+00 -2.246788740158081055e-01 9.482544064521789551e-01 2.155825138092041016e+00 -1.570333242416381836e-01 8.359100222587585449e-01 5.212984681129455566e-01 2.279737710952758789e+00 -2.607267379760742188e+00 3.057042837142944336e+00 7.991706132888793945e-01 2.335757970809936523e+00 -1.016952618956565857e-01 8.872959613800048828e-01 2.638488769531250000e+00 -2.378046512603759766e+00 -1.054913401603698730e+00 5.088425874710083008e-01 1.647737503051757812e+00 1.323488950729370117e+00 1.874674439430236816e+00 -2.305518627166748047e+00 -1.725808024406433105e+00 3.000549077987670898e-01 -2.105424106121063232e-01 2.043109655380249023e+00 -1.752460002899169922e+00 -1.709226250648498535e+00 -2.043926954269409180e+00 2.747911214828491211e+00 2.617599964141845703e+00 -1.602509140968322754e+00 -2.361778736114501953e+00 -4.819609224796295166e-02 7.537967562675476074e-01 -3.081494569778442383e-01 3.354595005512237549e-01 -1.008419752120971680e+00 1.251061916351318359e+00 -2.622449159622192383e+00 -1.155128359794616699e+00 -7.087018489837646484e-01 -2.147807836532592773e+00 -2.243956804275512695e+00 -1.954617619514465332e+00 -1.841663837432861328e+00 -1.193470597267150879e+00 -2.736873030662536621e-01 1.965322256088256836e+00 -2.583104884251952171e-03 -2.155367851257324219e+00 -2.153089284896850586e+00 2.915844202041625977e+00 -1.657509922981262207e+00 -2.355904728174209595e-01 1.248541712760925293e+00 8.841926455497741699e-01 1.284065008163452148e+00 -1.077248096466064453e+00 1.329031229019165039e+00 1.644466519355773926e+00 -1.503794044256210327e-01 -1.180816769599914551e+00 -2.132364273071289062e+00 8.519870638847351074e-01 1.981302142143249512e+00 -3.774618506431579590e-01 -1.246303081512451172e+00 -2.651588916778564453e+00 2.187807410955429077e-01 -1.121801972389221191e+00
-1.729143142700195312e+00 -2.119441509246826172e+00 -8.857212662696838379e-01 -1.853382825851440430e+00 -2.308779239654541016e+00 -6.137774884700775146e-02 1.794637203216552734e+00 -6.374281644821166992e-01 -6.550200581550598145e-01 2.282085418701171875e+00 4.096671342849731445e-01 -3.246552646160125732e-01 -1.589694321155548096e-01 -2.761832714080810547e+00 3.308406472206115723e-02 -3.813783824443817139e-01 -3.008800446987152100e-01 1.012503385543823242e+00 2.728165686130523682e-01 -2.618548631668090820e+00 3.410149216651916504e-01 3.041223764419555664e+00 6.180159449577331543e-01 -1.300354838371276855e+00 -2.529900550842285156e+00 -1.418162465095520020e+00 1.263091325759887695e+00 1.850847601890563965e+00 1.436963677406311035e+00 2.395428657531738281e+00 1.367755413055419922e+00 -4.431459903717041016e-01 -1.141915798187255859e+00 1.240958094596862793e+00 2.596122026443481445e+00 2.120386362075805664e+00 -3.506300210952758789e+00 9.454528689384460449e-01 -3.220898807048797607e-01 -1.454501152038574219e+00 -6.344090104103088379e-01 4.131221175193786621e-01 -2.890280961990356445e+00 9.722514152526855469e-01 -1.070440560579299927e-01 9.247797727584838867e-01 1.669268965721130371e+00 -3.225569963455200195e+00 -1.333685517311096191e+00 -1.645959377288818359e+00 5.095628499984741211e-01 2.124124526977539062e+00 -7.910832017660140991e-02 2.541381835937500000e+00 1.327227830886840820e+00 2.234429836273193359e+00 1.455321073532104492e+00 9.703918099403381348e-01 1.812297582626342773e+00 1.413424730300903320e+00 -1.357046127319335938e+00 -2.418385028839111328e+00 1.716238409280776978e-01 2.006960391998291016e+00 2.768606185913085938e+00 1.914205431938171387e+00 -1.897101640701293945e+00 1.494488477706909180e+00 -1.934146404266357422e+00 -1.216813802719116211e+00 6.248083710670471191e-01 -3.731003403663635254e-01 3.378154933452606201e-01 -2.707601308822631836e+00 1.250220835208892822e-01 -4.623102843761444092e-01 -2.065957546234130859e+00 -1.924061536788940430e+00 -3.005191802978515625e+00 1.163395285606384277e+00 2.340661734342575073e-01 -8.973313570022583008e-01 2.341581135988235474e-01 -1.819918513298034668e+00 3.095520138740539551e-01 -4.877911806106567383e-01 -1.790262699127197266e+00 -2.411104291677474976e-01 9.348161220550537109e-01 -7.528284788131713867e-01 2.241631984710693359e+00 1.667478680610656738e+00 1.278985381126403809e+00 -6.982520818710327148e-01 2.531118988990783691e-01 2.358206272125244141e+00 -1.377142667770385742e+00 -2.292364239692687988e-01 1.231784105300903320e+00 9.987898468971252441e-01
-4.064073562622070312e-01 -1.546231508255004883e+00 -3.092701081186532974e-03 -1.558972120285034180e+00 1.863442420959472656e+00 -2.874028682708740234e+00 2.293226480484008789e+00 6.536566615104675293e-01 -3.463884815573692322e-02 -1.101021051406860352e+00 -2.585866928100585938e+00 -1.827277541160583496e+00 -2.565676212310791016e+00 -5.947914123535156250e-01 1.810878068208694458e-01 -1.250261425971984863e+00 8.548657298088073730e-01 6.118769645690917969e-01 -1.303521096706390381e-01 4.293562471866607666e-01 2.823067426681518555e+00 -5.784851312637329102e-02 -2.790492959320545197e-02 2.098733901977539062e+00 1.022613525390625000e+00 -1.125480175018310547e+00 -2.825712263584136963e-01 -1.618778586387634277e+00 9.533871412277221680e-01 2.288638114929199219e+00 -1.470867753028869629e+00 3.071039438247680664e+00 1.214631438255310059e+00 1.769071578979492188e+00 -5.264868140220642090e-01 4.878390431404113770e-01 -2.650795698165893555e+00 2.128968954086303711e+00 2.557403564453125000e+00 2.660755872726440430e+00 -1.553792953491210938e+00 3.841777741909027100e-01 7.078410387039184570e-01 -2.611424207687377930e+00 -2.426410198211669922e+00 4.056294858455657959e-01 1.075762987136840820e+00 -3.028710842132568359e+00 5.100125670433044434e-01 1.177274465560913086e+00 2.475562572479248047e+00 -2.561569690704345703e+00 1.698877096176147461e+00 1.140251159667968750e+00 -2.609514474868774414e+00 3.338956832885742188e-01 5.520282983779907227e-01 -2.767041921615600586e+00 4.149536490440368652e-01 -2.264414578676223755e-01 -1.379709839820861816e+00 1.403312198817729950e-02 1.156969428062438965e+00 -2.222078561782836914e+00 -1.793388009071350098e+00 1.707960486412048340e+00 7.996684312820434570e-01 -1.962521672248840332e+00 1.196494698524475098e+00 1.862294554710388184e+00 -1.100668787956237793e+00 2.357129573822021484e+00 -2.798076868057250977e+00 1.351152181625366211e+00 1.256816625595092773e+00 -8.119210600852966309e-01 -2.477379798889160156e+00 -6.382024884223937988e-01 -8.576265573501586914e-01 1.100008726119995117e+00 -2.032171964645385742e+00 2.658743858337402344e+00 -1.251069664955139160e+00 2.998402118682861328e+00 1.221564173698425293e+00 -8.848031759262084961e-01 9.078510403633117676e-01 1.146290659904479980e+00 -1.018447995185852051e+00 -9.113181382417678833e-02 -1.269987702369689941e+00 1.928533196449279785e+00 -1.115625619888305664e+00 1.701317429542541504e+00 -9.311679601669311523e-01 -2.494990110397338867e+00 2.185878753662109375e+00 -1.381064772605895996e+00 1.189604520797729492e+00 1.351504564285278320e+00
2.193493843078613281e+00 -1.900067806243896484e+00 1.303635388612747192e-01 -2.573151826858520508e+00 9.303390979766845703e-02 1.912282586097717285e+00 1.315770030021667480e+00 -2.569062948226928711e+00 -1.646239638328552246e+00 -4.812845289707183838e-01 2.749368548393249512e-01 1.371918320655822754e-01 -9.366737008094787598e-01 -1.265277385711669922e+00 -2.943858861923217773e+00 -1.387437105178833008e+00 -2.185335397720336914e+00 -2.264327526092529297e+00 -2.157178640365600586e+00 -6.144341826438903809e-01 -1.235677957534790039e+00 2.528443813323974609e+00 2.532818555831909180e+00 2.245301961898803711e+00 1.163155078887939453e+00 2.184501647949218750e+00 5.329667329788208008e-01 1.409590125083923340e+00 -3.322508335113525391e-01 2.019049882888793945e+00 2.208168268203735352e+00 2.094309329986572266e+00 1.636674880981445312e+00 -1.653241634368896484e+00 3.326691389083862305e-01 2.362948417663574219e+00 2.278903484344482422e+00 1.637697339057922363e+00 2.110481023788452148e+00 1.093776822090148926e+00 2.218631505966186523e+00 -1.480332255363464355e+00 -1.695858836174011230e+00 -9.737808704376220703e-01 -8.205288648605346680e-01 1.087084293365478516e+00 -1.022227525711059570e+00 5.415127426385879517e-02 -2.895948648452758789e+00 4.406986832618713379e-01 2.401587516069412231e-01 -1.412178635597229004e+00 1.500260233879089355e+00 -2.967169761657714844e+00 -3.162733316421508789e+00 1.130892410874366760e-01 3.834900856018066406e-01 -2.385386466979980469e+00 2.337897717952728271e-01 -1.244422316551208496e+00 -9.716555476188659668e-01 1.867219924926757812e+00 1.961210966110229492e+00 1.060281991958618164e-01 -1.874061942100524902e+00 2.710873603820800781e+00 1.515530824661254883e+00 6.544972956180572510e-02 -1.336243510246276855e+00 -1.450861930847167969e+00 1.252029538154602051e+00 5.781631544232368469e-02 2.087095260620117188e+00 2.816420793533325195e+00 5.119125172495841980e-02 -7.374601364135742188e-01 1.812392354011535645e+00 -1.490356564521789551e+00 2.548261404037475586e+00 -1.172427296638488770e+00 1.626614928245544434e+00 2.174747228622436523e+00 -1.636931657791137695e+00 -1.502786040306091309e+00 8.583849072456359863e-01 -1.223607659339904785e+00 -2.485641241073608398e+00 1.185888886451721191e+00 2.016770362854003906e+00 -1.535291194915771484e+00 1.419513463973999023e+00 -4.259310066699981689e-01 -1.256977200508117676e+00 6.638913154602050781e-01 -2.214031457901000977e+00 -1.324689537286758423e-01 -1.208970069885253906e+00 -1.783931851387023926e+00 6.043417453765869141e-01 -1.183152675628662109e+00
-2.504297733306884766e+00 2.335641145706176758e+00 -2.431299448013305664e+00 2.188641071319580078e+00 1.722656130790710449e+00 -1.187738776206970215e+00 -5.590968132019042969e-01 -2.057601213455200195e+00 -1.615236401557922363e+00 1.219267487525939941e+00 -1.402911901473999023e+00 -2.435199022293090820e+00 -6.366074681282043457e-01 2.032514333724975586e+00 9.771192073822021484e-01 -2.023975610733032227e+00 -1.580295920372009277e+00 2.197335243225097656e+00 -2.947327196598052979e-01 -2.150289535522460938e+00 1.014055967330932617e+00 1.065862417221069336e+00 5.089473128318786621e-01 -2.519682407379150391e+00 2.239264965057373047e+00 1.389124616980552673e-02 4.227154850959777832e-01 2.581737637519836426e-01 -2.075010836124420166e-01 -1.440144181251525879e+00 8.540936708450317383e-01 -7.140994668006896973e-01 -1.297194123268127441e+00 -7.792950272560119629e-01 5.605792999267578125e-01 -1.722926378250122070e+00 7.248728871345520020e-01 1.542639017105102539e+00 -1.276323795318603516e+00 2.332107543945312500e+00 -2.931215524673461914e+00 2.178862094879150391e+00 2.622389316558837891e+00 -3.759916722774505615e-01 1.339680075645446777e+00 1.782711982727050781e+00 2.442694664001464844e+00 -3.080686330795288086e-01 -2.486480236053466797e+00 2.219057083129882812e+00 1.885162353515625000e+00 -3.144947886466979980e-01 2.973268747329711914e+00 -9.001538902521133423e-02 -1.183779612183570862e-01 5.441047549247741699e-01 2.735276222229003906e-01 7.300671339035034180e-01 -1.406090706586837769e-01 -1.883753657341003418e+00 -2.754395008087158203e+00 -1.044731378555297852e+00 -3.155519962310791016e+00 8.396448493003845215e-01 -9.199883341789245605e-01 -6.747219562530517578e-01 1.552141785621643066e+00 -2.216783285140991211e+00 -1.036420583724975586e+00 -1.575600028038024902e+00 1.574888825416564941e+00 5.429629683494567871e-01 1.140531539916992188e+00 -1.385337591171264648e+00 -1.626178979873657227e+00 8.595726490020751953e-01 1.701471805572509766e-01 -2.291182756423950195e+00 -1.515300631523132324e+00 -1.585743427276611328e+00 -1.083242297172546387e+00 -1.580720663070678711e+00 1.868777871131896973e+00 7.407798767089843750e-01 -2.335206747055053711e+00 1.553387522697448730e+00 1.820999741554260254e+00 -1.234991192817687988e+00 -2.138876438140869141e+00 -2.223254442214965820e-01 -2.348124831914901733e-01 5.963816046714782715e-01 8.291370868682861328e-01 2.373198509216308594e+00 2.769896030426025391e+00 5.453982949256896973e-01 2.302249908447265625e+00 1.512828946113586426e+00 1.057762265205383301e+00 1.626422882080078125e+00
1.095281481742858887e+00 1.240481853485107422e+00 1.985172033309936523e+00 -2.198488235473632812e+00 -1.232604861259460449e+00 -2.134440422058105469e+00 -2.589354038238525391e+00 2.218204498291015625e+00 1.585980415344238281e+00 -2.560454607009887695e+00 -4.719215333461761475e-01 2.611721992492675781e+00 -2.605028629302978516e+00 -1.086893200874328613e+00 1.274113535881042480e+00 -6.101410984992980957e-01 -8.252428174018859863e-01 -2.282361745834350586e+00 -8.223266005516052246e-01 1.954041361808776855e+00 -4.202816188335418701e-01 -1.650447726249694824e+00 1.636238694190979004e+00 -2.319617986679077148e+00 1.129205703735351562e+00 -7.593569755554199219e-01 -5.798639059066772461e-01 2.019582748413085938e+00 -2.195917367935180664e+00 -6.307737827301025391e-01 8.480706810951232910e-01 -9.543157815933227539e-01 -1.871026635169982910e+00 1.916931986808776855e+00 2.441979169845581055e+00 -1.803615689277648926e+00 -2.099926710128784180e+00 2.476430177688598633e+00 1.005761981010437012e+00 1.507718801498413086e+00 2.689568042755126953e+00 -3.989990651607513428e-01 -8.380953073501586914e-01 1.306946724653244019e-01 -1.432066917419433594e+00 -2.501034259796142578e+00 6.150045897811651230e-03 -3.723749220371246338e-01 -2.563588857650756836e+00 -2.015161752700805664e+00 -2.084932804107666016e+00 -1.951766371726989746e+00 2.350136995315551758e+00 -2.153290748596191406e+00 -1.599347777664661407e-02 5.483872294425964355e-01 1.772176861763000488e+00 -2.238195180892944336e+00 -1.400848627090454102e+00 3.117238916456699371e-02 5.104198455810546875e-01 3.768557608127593994e-01 7.214589118957519531e-01 -5.789264440536499023e-01 -2.097537279129028320e+00 5.832151174545288086e-01 -1.385857939720153809e+00 1.720620393753051758e+00 -1.881653308868408203e+00 -5.708407759666442871e-01 -1.241078019142150879e+00 5.297000408172607422e-01 9.376757144927978516e-01 -5.017495155334472656e-01 -8.364108949899673462e-02 -2.346690177917480469e+00 2.267302036285400391e+00 -2.252572774887084961e+00 5.952178835868835449e-01 1.858263731002807617e+00 6.118371486663818359e-01 2.837918043136596680e+00 6.102061867713928223e-01 1.844761967658996582e+00 -4.309186339378356934e-01 1.628942787647247314e-01 -3.836136758327484131e-01 2.020640969276428223e-01 -2.097966909408569336e+00 1.526604294776916504e+00 2.626436948776245117e+00 1.803680062294006348e+00 3.136735439300537109e+00 -2.943717479705810547e+00 1.356789112091064453e+00 2.633669614791870117e+00 2.065936923027038574e-01 2.363286733627319336e+00 2.825495481491088867e+00 2.078305244445800781e+00
-3.189398348331451416e-01 2.582044124603271484e+00 1.833244442939758301e+00 1.902148723602294922e+00 1.576165676116943359e+00 2.484986543655395508e+00 1.643847823143005371e+00 8.230775594711303711e-01 -1.919289350509643555e+00 7.715570330619812012e-01 -1.630927681922912598e+00 1.188418507575988770e+00 1.287548780441284180e+00 2.356512546539306641e+00 -2.376967906951904297e+00 1.469904065132141113e+00 1.779678344726562500e+00 2.672293186187744141e+00 7.661921554245054722e-04 5.444507002830505371e-01 -9.857761859893798828e-01 -2.721475660800933838e-01 -6.382521986961364746e-02 -8.744333982467651367e-01 8.906105160713195801e-01 -1.967628598213195801e+00 -2.012608051300048828e+00 -2.524576663970947266e+00 -2.180964499711990356e-02 -1.296140193939208984e+00 2.102905660867691040e-01 -2.567363262176513672e+00 2.801880121231079102e+00 -6.925010681152343750e-01 -2.122292518615722656e-01 1.123694181442260742e+00 6.184772253036499023e-01 -4.981898665428161621e-01 1.662321925163269043e+00 1.870525240898132324e+00 1.563281655311584473e+00 -2.223339557647705078e+00 9.309359011240303516e-04 -3.588531613349914551e-01 2.486250638961791992e+00 1.069942951202392578e+00 3.135363757610321045e-01 -8.256781101226806641e-01 -4.162087440490722656e-01 -1.504257321357727051e+00 -1.520858526229858398e+00 1.373882651329040527e+00 1.671696007251739502e-01 1.528182625770568848e+00 1.959544062614440918e+00 -2.463192939758300781e+00 -1.262910068035125732e-01 1.831415891647338867e+00 2.370086431503295898e+00 -1.031406521797180176e+00 -2.338196754455566406e+00 -1.286811590194702148e+00 -2.008348941802978516e+00 -3.574848175048828125e-01 1.551127791404724121e+00 2.137242794036865234e+00 1.617959737777709961e-01 -2.230274200439453125e+00 -5.383331179618835449e-01 -1.509919047355651855e+00 -1.326951026916503906e+00 -6.936453580856323242e-01 -2.352004289627075195e+00 -7.637394666671752930e-01 1.280282974243164062e+00 -9.788950681686401367e-01 1.183121204376220703e+00 1.559378862380981445e+00 1.091294050216674805e+00 -1.845524311065673828e+00 -1.394070267677307129e+00 -2.733836889266967773e+00 -2.277547597885131836e+00 1.401169300079345703e-01 -6.285153627395629883e-01 -1.572672843933105469e+00 2.056715011596679688e+00 5.349387526512145996e-01 2.971130013465881348e-01 -2.276091575622558594e+00 -2.365587711334228516e+00 -2.094469308853149414e+00 1.659928560256958008e+00 -9.584971666336059570e-01 5.311787128448486328e-01 1.472216963768005371e+00 2.145124912261962891e+00 2.217322349548339844e+00 -2.342571467161178589e-01 -2.798587799072265625e+00
2.506612777709960938e+00 1.224100664258003235e-01 2.734325885772705078e+00 2.694916486740112305e+00 -4.221423566341400146e-01 -2.283222436904907227e+00 -1.933351516723632812e+00 6.656361222267150879e-01 4.573973417282104492e-01 -1.196035072207450867e-01 -2.509292602539062500e+00 3.676800429821014404e-02 2.755833625793457031e+00 1.241363406181335449e+00 1.854480981826782227e+00 -2.430537790060043335e-01 -1.149273276329040527e+00 -2.304844617843627930e+00 -4.279780089855194092e-01 -1.101090669631958008e+00 1.433981180191040039e+00 3.993148803710937500e-01 7.307515144348144531e-01 1.587124943733215332e+00 4.431233555078506470e-02 -4.313461780548095703e-01 1.274355292320251465e+00 -1.573084115982055664e+00 6.546571850776672363e-01 1.581502437591552734e+00 -2.558084487915039062e+00 -5.946441888809204102e-01 4.589489400386810303e-01 -1.094153404235839844e+00 1.214319944381713867e+00 -2.084302008152008057e-01 -2.124289982020854950e-02 1.566922068595886230e+00 -2.533873915672302246e-01 2.120321512222290039e+00 -2.744338512420654297e+00 -2.877083778381347656e+00 5.919975042343139648e-01 1.245796918869018555e+00 -2.084372282028198242e+00 -8.202216625213623047e-01 -1.362490892410278320e+00 -6.447097063064575195e-01 7.482857108116149902e-01 -1.919025540351867676e+00 2.019362300634384155e-01 -1.734043598175048828e+00 -2.285138607025146484e+00 6.880555748939514160e-01 -1.247319817543029785e+00 -1.447716951370239258e+00 7.804473638534545898e-01 1.015282869338989258e+00 1.383563041687011719e+00 -1.983617544174194336e+00 1.821074128150939941e+00 8.275731801986694336e-01 9.363150000572204590e-01 1.298402786254882812e+00 1.749164342880249023e+00 1.728219032287597656e+00 1.811673641204833984e-01 7.969875931739807129e-01 8.399658799171447754e-01 -1.362370729446411133e+00 1.142232179641723633e+00 2.711458206176757812e+00 2.122263669967651367e+00 3.320335745811462402e-01 1.048327445983886719e+00 2.196452379226684570e+00 -1.929327487945556641e+00 2.079284429550170898e+00 1.424605965614318848e+00 1.799050211906433105e+00 -2.337710559368133545e-01 -5.967833399772644043e-01 -1.185599327087402344e+00 -1.583236217498779297e+00 2.542128562927246094e+00 -1.295045763254165649e-01 -1.476792216300964355e+00 1.293135732412338257e-01 -2.222225666046142578e+00 -1.147821784019470215e+00 5.553001761436462402e-01 -1.638403296470642090e+00 9.065955877304077148e-01 -8.057200908660888672e-01 -2.310270309448242188e+00 -1.701113462448120117e+00 7.616204619407653809e-01 -1.762825846672058105e+00 -1.820592641830444336e+00 -2.569490432739257812e+00
1.384171724319458008e+00 1.956685543060302734e+00 -3.646920919418334961e-01 2.041288137435913086e+00 2.549218893051147461e+00 2.126578092575073242e+00 -6.089941412210464478e-02 -2.075884819030761719e+00 2.751645565032958984e+00 2.609930515289306641e+00 2.457375049591064453e+00 -1.906230926513671875e+00 9.012827873229980469e-01 2.040709733963012695e+00 2.561264038085937500e+00 2.279672384262084961e+00 -1.973795175552368164e+00 1.405927538871765137e+00 2.318639516830444336e+00 -2.609739542007446289e+00 1.998229861259460449e+00 1.723110318183898926e+00 8.349694013595581055e-01 -6.623960733413696289e-01 2.120606899261474609e+00 -1.187147259712219238e+00 -1.141297459602355957e+00 2.485612869262695312e+00 1.946320652961730957e+00 1.109531044960021973e+00 2.192273378372192383e+00 5.099536776542663574e-01 6.784725189208984375e-01 2.719619512557983398e+00 -2.375888109207153320e+00 -1.974601030349731445e+00 -4.592050909996032715e-01 -2.084665298461914062e+00 6.889522671699523926e-01 2.595007658004760742e+00 -4.038023054599761963e-01 -1.850613236427307129e+00 -3.117962181568145752e-01 1.936162233352661133e+00 -2.868581056594848633e+00 -2.400574207305908203e+00 -1.288494706153869629e+00 -1.470659136772155762e+00 -3.249812424182891846e-01 2.103020906448364258e+00 9.801831245422363281e-01 1.366960525512695312e+00 -1.459075212478637695e+00 -1.873445138335227966e-02 -4.855683147907257080e-01 2.748892307281494141e+00 1.216920614242553711e+00 -1.364192008972167969e+00 -1.070889309048652649e-01 4.552698433399200439e-01 1.844621658325195312e+00 -1.044598221778869629e+00 -2.862787008285522461e+00 -1.047745466232299805e+00 -2.406841516494750977e+00 -1.025367140769958496e+00 -1.413090705871582031e+00 -6.842535734176635742e-02 1.319809436798095703e+00 1.555600047111511230e+00 -8.255920559167861938e-02 8.637293428182601929e-02 -9.476845860481262207e-01 -2.072820186614990234e+00 2.207290381193161011e-01 -2.480675935745239258e+00 2.038835763931274414e+00 -1.667886853218078613e+00 2.278557538986206055e+00 -6.606131196022033691e-01 -5.826247930526733398e-01 -2.583546638488769531e+00 -1.560238718986511230e+00 -2.897253751754760742e+00 -2.905028104782104492e+00 -1.603066086769104004e+00 -1.696322083473205566e+00 1.802088022232055664e+00 -1.472717970609664917e-01 -2.561766147613525391e+00 -2.435189485549926758e+00 -6.251773834228515625e-01 -2.096718311309814453e+00 3.091955371201038361e-02 1.458962917327880859e+00 -1.303714752197265625e+00 -4.348965287208557129e-01 -1.233177065849304199e+00 1.906655907630920410e+00 -3.538619875907897949e-01
-2.620502710342407227e+00 -2.008817195892333984e-01 -2.484928131103515625e+00 1.959851741790771484e+00 6.832513809204101562e-01 -1.923050284385681152e+00 1.361600279808044434e+00 1.599988579750061035e+00 -1.807569265365600586e+00 -1.551867604255676270e+00 -1.179596662521362305e+00 1.045619726181030273e+00 -1.247305154800415039e+00 -1.176068186759948730e+00 -2.242259740829467773e+00 2.274300813674926758e+00 -1.717561721801757812e+00 3.603304326534271240e-01 -2.652474641799926758e+00 -1.337281346321105957e+00 1.508816480636596680e+00 -1.443205714225769043e+00 -1.469659954309463501e-01 -1.814136981964111328e+00 -1.325368523597717285e+00 3.751445412635803223e-01 -1.497491955757141113e+00 -2.092316389083862305e+00 -1.543694853782653809e+00 -1.495249509811401367e+00 -1.620162129402160645e+00 -7.945045232772827148e-01 7.631020545959472656e-01 9.649624228477478027e-01 -9.238575100898742676e-01 -8.071247935295104980e-01 -1.031851768493652344e+00 -1.417959690093994141e+00 2.536496818065643311e-01 2.899686992168426514e-01 -1.752629756927490234e+00 -2.213946878910064697e-01 -8.901902437210083008e-01 -2.285280376672744751e-01 1.138090565800666809e-01 -2.693987846374511719e+00 -9.827045202255249023e-01 -1.670480251312255859e+00 -1.671956181526184082e+00 1.493718385696411133e+00 -1.483607769012451172e+00 -5.505666136741638184e-01 1.162011265754699707e+00 9.287389516830444336e-01 5.443553328514099121e-01 1.953067660331726074e+00 -9.001184105873107910e-01 2.309712409973144531e+00 3.414195775985717773e-01 9.225754141807556152e-01 2.027251482009887695e+00 1.781123876571655273e+00 2.363037109375000000e+00 2.981650114059448242e+00 -1.361889958381652832e+00 1.054404616355895996e+00 2.920752286911010742e+00 2.036112785339355469e+00 7.704885601997375488e-01 2.865475416183471680e+00 2.703605592250823975e-01 2.738313674926757812e+00 3.093017816543579102e+00 1.878921985626220703e+00 2.583110570907592773e+00 1.436029672622680664e+00 2.308340787887573242e+00 2.712586164474487305e+00 2.763885021209716797e+00 8.266384154558181763e-02 -2.380062580108642578e+00 -4.978320896625518799e-01 4.141311049461364746e-01 1.501538872718811035e+00 3.976095914840698242e-01 5.727706551551818848e-01 -6.081269383430480957e-01 3.996404707431793213e-01 9.438671916723251343e-02 -2.310461997985839844e+00 1.900161653757095337e-01 -1.193243861198425293e+00 4.189354479312896729e-01 -5.600489377975463867e-01 -2.107825756072998047e+00 -2.310238122940063477e+00 1.874475121498107910e+00 1.459234833717346191e+00 -2.521822690963745117e+00 -1.583184450864791870e-01
2.098360210657119751e-01 -2.008902549743652344e+00 7.573159337043762207e-01 1.177150607109069824e+00 1.857123017311096191e+00 -2.136690169572830200e-01 -2.242231369018554688e+00 -1.754805445671081543e+00 -1.144451141357421875e+00 4.323295652866363525e-01 1.885466098785400391e+00 2.553531408309936523e+00 1.612608432769775391e+00 -2.004102230072021484e+00 1.548737049102783203e+00 -1.131536602973937988e+00 -1.453017711639404297e+00 2.015604496002197266e+00 -1.493575930595397949e+00 6.348642706871032715e-01 6.310435533523559570e-01 -3.503139615058898926e-01 -1.213077902793884277e+00 -1.533161044120788574e+00 1.406092047691345215e+00 -8.766740560531616211e-01 2.364086627960205078e+00 -1.240781545639038086e-01 -8.841632306575775146e-02 1.938580513000488281e+00 -1.937288761138916016e+00 -3.683344423770904541e-01 -2.025487661361694336e+00 -1.821595430374145508e-01 -4.681479632854461670e-01 2.102388620376586914e+00 2.070421725511550903e-01 -1.299034833908081055e+00 1.847492456436157227e+00 -2.579959392547607422e+00 2.150358557701110840e-01 -2.275573492050170898e+00 1.023305296897888184e+00 1.879055380821228027e+00 1.738664507865905762e+00 -2.969362497329711914e+00 9.908239245414733887e-01 6.710119843482971191e-01 -2.003667831420898438e+00 -1.908048152923583984e+00 -2.033561944961547852e+00 4.921156764030456543e-01 -1.684104561805725098e+00 -2.556737422943115234e+00 -2.719546079635620117e+00 1.368770718574523926e+00 1.974227547645568848e+00 -9.131743311882019043e-01 -1.621486902236938477e+00 -2.681234359741210938e+00 -5.506952106952667236e-02 2.481312036514282227e+00 1.955406546592712402e+00 2.551089286804199219e+00 -2.851457297801971436e-01 1.873154044151306152e+00 -2.231108099222183228e-01 5.613768696784973145e-01 6.536157727241516113e-01 -1.615621000528335571e-01 1.663121223449707031e+00 1.320412755012512207e+00 8.454269766807556152e-01 6.169463992118835449e-01 1.768004179000854492e+00 -5.721043944358825684e-01 1.648072838783264160e+00 2.001385211944580078e+00 1.771618008613586426e+00 -7.011322975158691406e-01 -1.220674157142639160e+00 -6.210194230079650879e-01 1.192529678344726562e+00 -4.311447218060493469e-02 4.623945057392120361e-01 1.164593577384948730e+00 -7.879309654235839844e-01 -1.215700149536132812e+00 -2.471100330352783203e+00 -1.143785715103149414e+00 -1.129703316837549210e-02 -1.123344659805297852e+00 9.781137704849243164e-01 -2.507662534713745117e+00 2.282980442047119141e+00 8.937625288963317871e-01 -7.412678748369216919e-02 5.452594757080078125e-01 -1.297097802162170410e+00 -2.556715011596679688e-01
1.178010582923889160e+00 -1.147856831550598145e+00 -8.160795569419860840e-01 7.107875943183898926e-01 -1.461566448211669922e+00 -3.591997325420379639e-01 2.117368936538696289e+00 2.407341957092285156e+00 2.521782159805297852e+00 3.419318199157714844e-01 2.285478115081787109e+00 1.343327760696411133e+00 7.317481637001037598e-01 6.603263020515441895e-01 1.000753164291381836e+00 1.511024475097656250e+00 -7.954541593790054321e-02 1.902957081794738770e+00 1.738192319869995117e+00 3.020319044589996338e-01 -4.281393885612487793e-01 -1.011332422494888306e-01 6.214203834533691406e-01 2.203117370605468750e+00 2.718691110610961914e+00 1.678266048431396484e+00 -4.817031025886535645e-01 2.909820973873138428e-01 2.120914459228515625e+00 -3.521731197834014893e-01 1.298699498176574707e+00 2.425709962844848633e+00 -7.718585431575775146e-02 8.073312640190124512e-01 1.254673361778259277e+00 1.469846844673156738e+00 2.301192283630371094e+00 1.013864874839782715e+00 -2.092545986175537109e+00 9.339213967323303223e-01 -8.980788588523864746e-01 -2.110943943262100220e-01 2.625865042209625244e-01 -2.765235900878906250e+00 -1.205317854881286621e+00 -2.086248993873596191e-01 -2.494120121002197266e+00 1.452163815498352051e+00 -1.836561799049377441e+00 -4.906392097473144531e-01 -3.464509725570678711e+00 1.976599693298339844e+00 -1.370148181915283203e+00 -2.332704067230224609e+00 -1.695416569709777832e+00 -1.344528794288635254e+00 -2.156467914581298828e+00 2.158282138407230377e-02 -2.419172525405883789e+00 2.173188209533691406e+00 4.904675185680389404e-01 -6.555983424186706543e-02 1.055582284927368164e+00 -1.743593454360961914e+00 1.284501910209655762e+00 -1.948045343160629272e-01 1.252090185880661011e-02 -2.033593893051147461e+00 9.635123610496520996e-02 2.310712188482284546e-01 1.879331469535827637e+00 -2.633587121963500977e+00 -1.469889163970947266e+00 1.015410106629133224e-02 -4.586857259273529053e-01 -2.714182615280151367e+00 -5.740873217582702637e-01 -6.491813659667968750e-01 1.721556901931762695e+00 1.827256679534912109e+00 1.248935818672180176e+00 8.761529922485351562e-01 -1.486702084541320801e+00 1.938916742801666260e-01 -3.537949085235595703e+00 -3.010801970958709717e-01 -3.516117572784423828e+00 2.424160242080688477e+00 -1.225561857223510742e+00 -2.663557291030883789e+00 1.152621030807495117e+00 -2.827611684799194336e+00 7.435234785079956055e-01 -1.001792073249816895e+00 -1.085461854934692383e+00 1.618346691131591797e+00 1.286257028579711914e+00 8.553994894027709961e-01 -2.684956789016723633e+00 -1.461461901664733887e+00
-2.006540894508361816e-01 -2.423490524291992188e+00 2.411611080169677734e+00 -1.175976514816284180e+00 -2.743861079216003418e-01 -5.990245938301086426e-01 2.063503026962280273e+00 2.300612181425094604e-01 -1.736938476562500000e+00 2.522693872451782227e+00 1.337127089500427246e+00 -4.883258938789367676e-01 1.457707524299621582e+00 1.171151638031005859e+00 -2.692660689353942871e-01 2.394312858581542969e+00 -2.349082469940185547e+00 -2.841102600097656250e+00 2.038442611694335938e+00 -2.160076141357421875e+00 1.903636932373046875e+00 -8.849814534187316895e-01 2.388511449098587036e-01 -1.077916502952575684e+00 2.531463146209716797e+00 -1.653509140014648438e+00 2.423155546188354492e+00 8.549624122679233551e-03 -7.272557616233825684e-01 -1.753898859024047852e+00 -1.228418231010437012e+00 2.031029462814331055e+00 1.940488100051879883e+00 -2.312729835510253906e+00 -1.358970046043395996e+00 4.902487993240356445e-02 -6.917492747306823730e-01 -1.356906533241271973e+00 2.128880500793457031e+00 5.881247520446777344e-01 1.122806310653686523e+00 -5.555219054222106934e-01 1.921894192695617676e+00 1.178634285926818848e+00 -2.148197412490844727e+00 7.461962699890136719e-01 -1.111331105232238770e+00 -3.960547149181365967e-01 2.382307291030883789e+00 2.046350091695785522e-01 1.068515658378601074e+00 -5.559223294258117676e-01 1.127669662237167358e-01 2.045375823974609375e+00 1.779140591621398926e+00 -1.984045147895812988e+00 6.308940052986145020e-01 -1.025604724884033203e+00 1.229321770370006561e-02 -1.881268382072448730e+00 3.930777311325073242e-01 1.773273468017578125e+00 4.331428706645965576e-01 -1.995153069496154785e+00 1.559947013854980469e+00 1.805787682533264160e+00 -2.088093757629394531e+00 -7.467055320739746094e-02 8.510262705385684967e-03 -1.299744606018066406e+00 -8.401052653789520264e-02 -9.506315737962722778e-02 -1.536255359649658203e+00 -2.706932306289672852e+00 1.081753056496381760e-02 1.065544486045837402e-01 -1.985263705253601074e+00 1.076971530914306641e+00 2.837805747985839844e-01 -1.447985887527465820e+00 -8.251354098320007324e-01 6.691420078277587891e-01 1.261358380317687988e+00 -7.357337474822998047e-01 2.252945423126220703e+00 2.820333957672119141e+00 1.250927448272705078e+00 -1.846561670303344727e+00 -7.954079508781433105e-01 1.058351159095764160e+00 4.158231019973754883e-01 -3.486564159393310547e-01 -1.540609121322631836e+00 -1.596723437309265137e+00 -4.388559237122535706e-02 -1.321598649024963379e+00 -1.932799100875854492e+00 8.925116807222366333e-02 7.863613367080688477e-01 7.766537666320800781e-01
-1.307693243026733398e+00 -5.307711362838745117e-01 -1.826198339462280273e+00 -3.247408628463745117e+00 -6.526165604591369629e-01 6.640517711639404297e-01 8.157768249511718750e-01 2.403192222118377686e-01 1.751008987426757812e+00 2.287517786026000977e+00 -2.417898416519165039e+00 -8.120891451835632324e-01 -2.619949281215667725e-01 -7.495702505111694336e-01 -2.701883316040039062e+00 -1.255425095558166504e+00 1.323234081268310547e+00 -1.154593676328659058e-01 -2.436225891113281250e+00 -1.200947642326354980e+00 -1.614728331565856934e+00 -6.938576698303222656e-01 2.664322376251220703e+00 -1.364258050918579102e+00 2.369946539402008057e-01 -8.954639732837677002e-02 -1.858441710472106934e+00 5.669049024581909180e-01 2.322433233261108398e+00 -1.824382185935974121e+00 -5.735399723052978516e-01 -1.617319464683532715e+00 -3.953847885131835938e-01 6.698791980743408203e-01 -9.004245996475219727e-01 -1.316578030586242676e+00 2.361663818359375000e+00 -1.376387119293212891e+00 2.083978176116943359e+00 -1.154459476470947266e+00 -2.155012935400009155e-01 2.762604951858520508e+00 9.644312262535095215e-01 1.398291826248168945e+00 -6.987162828445434570e-01 2.078232288360595703e+00 -3.026779651641845703e+00 1.862441897392272949e+00 1.183180287480354309e-01 3.841095864772796631e-01 -1.936159729957580566e+00 2.043395042419433594e+00 1.349307060241699219e+00 -4.906861577183008194e-03 -2.928325533866882324e-01 1.841343879699707031e+00 9.337897896766662598e-01 1.187937974929809570e+00 2.163075804710388184e-01 2.118512392044067383e+00 1.425702095031738281e+00 -2.835155725479125977e+00 7.823120951652526855e-01 1.516943097114562988e+00 9.052245020866394043e-01 -3.255474939942359924e-02 1.537701785564422607e-01 -1.583182692527770996e+00 3.922556340694427490e-01 2.038654804229736328e+00 -9.385870695114135742e-01 -2.466394901275634766e+00 1.432551622390747070e+00 2.813784480094909668e-01 2.359252452850341797e+00 -2.235299587249755859e+00 6.265204548835754395e-01 -2.738745689392089844e+00 4.755935668945312500e-01 -2.904953718185424805e+00 1.979821920394897461e+00 -1.032579302787780762e+00 1.466179251670837402e+00 -6.826940178871154785e-01 1.052918553352355957e+00 1.186791181564331055e+00 1.876496195793151855e+00 -2.090520620346069336e+00 -1.191349267959594727e+00 9.305494427680969238e-01 1.179134964942932129e+00 2.122763872146606445e+00 -7.472538948059082031e-01 -9.509701728820800781e-01 -7.907452583312988281e-01 2.614980220794677734e+00 -2.529592037200927734e+00 2.558953523635864258e+00 -2.087190389633178711e+00 8.762466907501220703e-01
2.618962287902832031e+00 2.342860698699951172e+00 -3.449873030185699463e-01 2.685284852981567383e+00 2.104430675506591797e+00 2.746921777725219727e+00 6.324594020843505859e-01 -5.609212070703506470e-02 2.707476854324340820e+00 1.814077973365783691e+00 -6.958346366882324219e-01 2.461280107498168945e+00 -2.517075538635253906e+00 -2.968432188034057617e+00 -1.677005141973495483e-01 2.255520582199096680e+00 2.399689197540283203e+00 3.119940996170043945e+00 2.124575376510620117e+00 3.032338380813598633e+00 -2.474965810775756836e+00 -3.137624263763427734e-01 -1.796519637107849121e+00 -1.556462764739990234e+00 -1.501779794692993164e+00 2.134391784667968750e+00 -1.625141382217407227e+00 -1.242182374000549316e+00 2.313102006912231445e+00 -1.055998206138610840e+00 6.282283663749694824e-01 -1.006397485733032227e+00 -1.835834622383117676e+00 -3.085295438766479492e+00 2.077810525894165039e+00 -2.170697927474975586e+00 -1.347143650054931641e+00 1.674124240875244141e+00 6.241050958633422852e-01 -1.871407866477966309e+00 1.731741547584533691e+00 -5.057829618453979492e-01 1.210371181368827820e-01 8.162340521812438965e-01 4.003148674964904785e-01 -6.545720696449279785e-01 2.208175897598266602e+00 -1.679022908210754395e+00 -1.015941858291625977e+00 1.238346934318542480e+00 2.210062980651855469e+00 7.165173888206481934e-01 2.115535020828247070e+00 8.703374862670898438e-01 -1.044991135597229004e+00 5.430599674582481384e-02 -3.556371107697486877e-02 1.930612206459045410e+00 1.493200182914733887e+00 -1.021634221076965332e+00 -2.421391725540161133e+00 -2.277512550354003906e+00 -5.165449976921081543e-01 1.497568845748901367e+00 -1.403349757194519043e+00 -2.519721746444702148e+00 -1.283217072486877441e-01 -2.015889644622802734e+00 2.066899538040161133e+00 2.071945667266845703e+00 4.296506941318511963e-01 -1.544368386268615723e+00 -2.736586570739746094e+00 -2.504192590713500977e-01 1.213250994682312012e+00 1.460246205329895020e+00 -1.445034265518188477e+00 -1.407165527343750000e+00 1.278121471405029297e+00 -9.790136665105819702e-02 -2.103481531143188477e+00 -4.349192976951599121e-01 -2.885580778121948242e+00 -2.342159986495971680e+00 3.682050108909606934e-01 -2.194113254547119141e+00 1.231010556221008301e+00 -1.059525012969970703e+00 -3.111188411712646484e-01 -5.970835089683532715e-01 -1.294435143470764160e+00 1.824567556381225586e+00 4.965874850749969482e-01 8.084142804145812988e-01 -2.495470285415649414e+00 3.448371589183807373e-01 -2.034252405166625977e+00 -1.494967579841613770e+00 -7.280608415603637695e-01 9.962379932403564453e-01
-6.566267013549804688e-01 2.089535295963287354e-01 1.632735729217529297e+00 3.141865432262420654e-01 5.435751080513000488e-01 1.019669294357299805e+00 4.250819087028503418e-01 1.330814480781555176e+00 -2.757558524608612061e-01 5.721817016601562500e-01 1.272212386131286621e+00 -1.984902381896972656e+00 -2.975099086761474609e-01 1.785414218902587891e-01 -2.966200351715087891e+00 -2.341749429702758789e+00 -2.462411403656005859e+00 -6.304017901420593262e-01 1.973212122917175293e+00 1.834150433540344238e+00 -1.779412269592285156e+00 1.805089041590690613e-02 -9.715644717216491699e-01 -2.122920036315917969e+00 2.027199119329452515e-01 1.833202600479125977e+00 2.082973003387451172e+00 1.221646070480346680e+00 -2.682975053787231445e+00 6.648921370506286621e-01 -1.769624829292297363e+00 -1.704733848571777344e+00 2.970490455627441406e-01 -2.675479173660278320e+00 -2.376055717468261719e+00 4.458895027637481689e-01 -1.485904216766357422e+00 -5.895509123802185059e-01 -1.125107645988464355e+00 -6.830494999885559082e-01 1.720343351364135742e+00 5.454011559486389160e-01 1.598065137863159180e+00 -1.486513137817382812e+00 8.900027871131896973e-01 1.885564565658569336e+00 1.989446878433227539e+00 1.875504732131958008e+00 2.257275104522705078e+00 2.714852571487426758e+00 1.605249285697937012e+00 2.038375854492187500e+00 1.174176812171936035e+00 1.785546541213989258e+00 -1.183355927467346191e+00 2.614539384841918945e+00 2.609583139419555664e+00 2.003623008728027344e+00 1.023874759674072266e+00 1.674424767494201660e+00 -1.182149723172187805e-01 -2.100626707077026367e+00 1.417072892189025879e+00 2.071245431900024414e+00 1.896611690521240234e+00 2.739166736602783203e+00 -4.491725265979766846e-01 -1.441884279251098633e+00 3.156311273574829102e+00 4.629465639591217041e-01 -1.165050864219665527e+00 -8.435591459274291992e-01 -3.303280770778656006e-01 2.689879179000854492e+00 -2.611927270889282227e+00 2.047902345657348633e+00 6.663836240768432617e-01 -1.370203137397766113e+00 -6.012203097343444824e-01 1.778079152107238770e+00 -2.030996799468994141e+00 9.578586816787719727e-01 -2.060447931289672852e+00 -9.395106881856918335e-02 -2.093979835510253906e+00 -1.376536488533020020e+00 -1.527129530906677246e+00 -2.768359422683715820e+00 -2.555316448211669922e+00 -2.337526559829711914e+00 6.553838253021240234e-01 1.993538737297058105e+00 -6.499700993299484253e-02 -1.805859923362731934e+00 -2.486406326293945312e+00 -4.665701091289520264e-01 2.368959039449691772e-01 -2.485409975051879883e+00 -1.937243223190307617e+00 -8.655812144279479980e-01
1.599742412567138672e+00 2.051322698593139648e+00 -1.385919094085693359e+00 -4.534493684768676758e-01 -5.076432228088378906e-01 -2.744207143783569336e+00 -1.963922023773193359e+00 1.083482384681701660e+00 -2.274981141090393066e-02 -1.261367797851562500e+00 -1.678629875183105469e+00 -2.912164688110351562e+00 -9.377176761627197266e-01 -9.839475154876708984e-01 1.278889298439025879e+00 -3.064442873001098633e-01 1.199221760034561157e-01 -8.374529331922531128e-02 1.267105460166931152e+00 -1.355747580528259277e+00 -1.917361736297607422e+00 -3.110695600509643555e+00 1.029802083969116211e+00 1.368781805038452148e+00 8.825061917304992676e-01 1.812922358512878418e-01 1.428448110818862915e-01 1.038890242576599121e+00 2.083881139755249023e+00 1.205248475074768066e+00 1.949298739433288574e+00 -2.287025690078735352e+00 1.452483654022216797e+00 -1.861199259757995605e+00 -2.640328645706176758e+00 6.924070119857788086e-01 -1.040044188499450684e+00 -2.345879316329956055e+00 4.084969758987426758e-01 2.175817251205444336e+00 -4.029617607593536377e-01 -1.425204515457153320e+00 2.862638950347900391e+00 -1.591890692710876465e+00 2.244086503982543945e+00 -2.861005067825317383e-01 -2.463576078414916992e+00 -7.362156510353088379e-01 6.755281090736389160e-01 -4.338674992322921753e-02 -4.066848754882812500e-01 2.190148353576660156e+00 -2.570579051971435547e+00 1.766439676284790039e+00 -4.714452326297760010e-01 -7.811653614044189453e-01 -8.173974156379699707e-01 1.128572225570678711e+00 -1.174398660659790039e+00 1.399875998497009277e+00 3.707633540034294128e-02 -4.803057909011840820e-01 -6.739454865455627441e-01 1.789730072021484375e+00 -1.447512745857238770e+00 -1.228611946105957031e+00 8.938421010971069336e-01 -7.791434526443481445e-01 -2.551926851272583008e+00 -1.547530412673950195e+00 1.415292859077453613e+00 -1.721497297286987305e+00 7.053138613700866699e-01 1.209030032157897949e+00 -6.993333697319030762e-01 -3.086625099182128906e+00 -2.106170415878295898e+00 -2.288781404495239258e-01 -1.821396231651306152e+00 3.118996024131774902e-01 3.121532201766967773e+00 -7.761813402175903320e-01 6.081883609294891357e-02 -7.321249842643737793e-01 2.414676189422607422e+00 -1.633691906929016113e+00 2.205024003982543945e+00 2.203088283538818359e+00 1.612737298011779785e+00 3.818446695804595947e-01 6.653094291687011719e-01 2.663864850997924805e+00 2.350935935974121094e+00 9.814468026161193848e-01 1.569810628890991211e+00 -1.701291561126708984e+00 2.265606641769409180e+00 6.372330784797668457e-01 2.827766418457031250e+00 1.087703227996826172e+00
-1.496700286865234375e+00 1.776470780372619629e+00 1.126329779624938965e+00 -5.517511367797851562e-01 -1.647333621978759766e+00 -1.490013480186462402e+00 -1.589854121208190918e+00 -1.319419980049133301e+00 -3.104761540889739990e-01 -3.631063997745513916e-01 -1.147934123873710632e-01 -2.637283504009246826e-01 -2.410559177398681641e+00 1.448004484176635742e+00 2.373190969228744507e-01 -2.567316055297851562e+00 -2.089885473251342773e+00 1.467257618904113770e+00 -2.102826118469238281e+00 -2.665029168128967285e-01 9.515700936317443848e-01 2.588350296020507812e+00 3.069203376770019531e+00 1.426136016845703125e+00 -2.493693351745605469e+00 2.486643314361572266e+00 -6.893692016601562500e-01 -2.356717824935913086e+00 1.121209502220153809e+00 2.187328815460205078e+00 -7.338801026344299316e-01 -6.296557188034057617e-01 7.179091572761535645e-01 3.411108970642089844e+00 1.870087862014770508e+00 -1.345802426338195801e+00 3.187154054641723633e+00 4.325819909572601318e-01 5.877757668495178223e-01 -3.628912270069122314e-01 -7.836248874664306641e-01 1.828611493110656738e+00 -1.576934456825256348e+00 1.617878913879394531e+00 2.847148656845092773e+00 -1.395880579948425293e+00 1.749514460563659668e+00 1.572223603725433350e-01 9.014025926589965820e-01 1.688853502273559570e-01 -8.546195030212402344e-01 1.443797796964645386e-01 -1.419378876686096191e+00 1.840535163879394531e+00 6.531431674957275391e-01 -8.825829029083251953e-01 -7.629979848861694336e-01 -1.703240036964416504e+00 6.444466114044189453e-01 2.103856801986694336e+00 1.317134857177734375e+00 1.388013243675231934e+00 1.543474555015563965e+00 -1.420845627784729004e+00 1.930052042007446289e+00 4.778038859367370605e-01 -2.531420469284057617e+00 1.005003094673156738e+00 6.742633581161499023e-01 6.121965646743774414e-01 8.745688199996948242e-01 -1.016558170318603516e+00 -1.398433327674865723e+00 3.194338321685791016e+00 -1.228683114051818848e+00 9.482817053794860840e-01 2.043104171752929688e+00 1.448186755180358887e+00 -1.061181902885437012e+00 -4.092545714229345322e-03 -5.560206174850463867e-01 -3.661994934082031250e-01 1.382211327552795410e+00 -8.196409046649932861e-02 -2.505470752716064453e+00 -2.302853584289550781e+00 -4.248934090137481689e-01 -1.130558490753173828e+00 -3.239165246486663818e-01 -1.224708199501037598e+00 -2.168724298477172852e+00 -1.357560515403747559e+00 -2.113191843032836914e+00 9.511918425559997559e-01 2.424964189529418945e+00 -1.780411481857299805e+00 2.564971745014190674e-01 -7.684495449066162109e-01 -2.326371908187866211e+00 -2.515141725540161133e+00
-2.591975450515747070e+00 8.095844984054565430e-01 1.909375071525573730e+00 2.233986139297485352e+00 -1.026613473892211914e+00 2.295458555221557617e+00 -3.338127851486206055e+00 9.876388311386108398e-01 -1.124915257096290588e-01 -1.932555437088012695e+00 -1.289284467697143555e+00 9.779011011123657227e-01 -2.553892135620117188e-01 6.633875370025634766e-01 9.491363763809204102e-01 2.389526605606079102e+00 2.792222976684570312e+00 -1.529505729675292969e+00 2.552374124526977539e+00 -4.910764098167419434e-02 5.783970654010772705e-02 -1.623682737350463867e+00 -2.224164247512817383e+00 2.429857492446899414e+00 -1.045442894101142883e-01 1.181652545928955078e+00 2.161381840705871582e-01 6.983518004417419434e-01 -1.728989183902740479e-01 5.020864009857177734e-01 -1.275845885276794434e+00 -1.674848049879074097e-01 -3.032546997070312500e+00 7.208043932914733887e-01 1.455402135848999023e+00 -2.292261362075805664e+00 -2.829777479171752930e+00 6.628713011741638184e-01 -2.580557107925415039e+00 -3.035929441452026367e+00 -1.833850741386413574e+00 1.672097682952880859e+00 -1.296052694320678711e+00 2.657614052295684814e-01 -1.162103414535522461e+00 -1.966702222824096680e+00 2.006783246994018555e+00 1.349555134773254395e+00 -1.021695733070373535e+00 1.424726963043212891e+00 -2.469875097274780273e+00 2.504798173904418945e-01 -2.958023548126220703e+00 2.100761651992797852e+00 9.826695919036865234e-01 8.114461302757263184e-01 -1.231693029403686523e+00 1.888738751411437988e+00 -2.026825666427612305e+00 1.091403514146804810e-02 -1.684413790702819824e+00 -3.293333947658538818e-01 1.777169466018676758e+00 9.976499080657958984e-01 1.465458869934082031e-01 -1.649715185165405273e+00 4.571121335029602051e-01 1.182312607765197754e+00 1.675349235534667969e+00 -1.101881384849548340e+00 -7.106709480285644531e-01 1.943189144134521484e+00 -9.584141969680786133e-01 -1.817999005317687988e+00 -5.919594168663024902e-01 -2.857132852077484131e-01 -9.749308228492736816e-01 8.782268762588500977e-01 -1.957442045211791992e+00 -9.729498624801635742e-01 2.612641096115112305e+00 1.780737876892089844e+00 -2.025032997131347656e+00 4.834718406200408936e-01 2.729934930801391602e+00 1.261044383049011230e+00 1.135067701339721680e+00 1.940191745758056641e+00 7.165313959121704102e-01 2.357335329055786133e+00 -2.455285787582397461e+00 -2.022666692733764648e+00 -2.804518699645996094e+00 2.818184614181518555e+00 2.556089162826538086e+00 1.657159447669982910e+00 -6.109898686408996582e-01 8.888545446097850800e-03 -1.893755197525024414e+00 1.929947137832641602e+00
2.633963823318481445e+00 -1.547455906867980957e+00 -2.109658479690551758e+00 1.296084403991699219e+00 -1.953143239021301270e+00 2.248031944036483765e-01 1.224460959434509277e+00 -1.406411647796630859e+00 -1.592536270618438721e-01 2.333516836166381836e+00 2.444101572036743164e+00 8.117170929908752441e-01 2.631476879119873047e+00 -4.223615825176239014e-01 1.571505069732666016e+00 1.208411216735839844e+00 -9.872950315475463867e-01 5.095928311347961426e-01 -3.995594382286071777e-01 -6.476483941078186035e-01 4.987610280513763428e-01 -1.864126801490783691e+00 1.689455151557922363e+00 -3.159273862838745117e-01 4.658952355384826660e-01 8.858759403228759766e-01 1.836542248725891113e+00 -1.758646368980407715e-01 5.310382246971130371e-01 4.472329467535018921e-02 1.507526278495788574e+00 3.157741308212280273e+00 2.820156812667846680e+00 7.915350198745727539e-01 1.976673483848571777e+00 -2.808723449707031250e+00 2.017764806747436523e+00 2.814419507980346680e+00 -1.202096700668334961e+00 -2.954418182373046875e+00 1.486573457717895508e+00 2.052789211273193359e+00 -2.779995679855346680e+00 -2.455119371414184570e+00 -1.419221758842468262e+00 1.066784381866455078e+00 -7.225324213504791260e-02 1.702029109001159668e+00 -1.416168808937072754e+00 -8.434607386589050293e-01 2.633011043071746826e-01 2.169220447540283203e+00 1.594991683959960938e-01 -2.185779571533203125e+00 1.584314107894897461e+00 -1.034703612327575684e+00 1.362488865852355957e+00 1.707013607025146484e+00 -2.471410989761352539e+00 -4.287025332450866699e-01 -1.415577292442321777e+00 2.287653684616088867e+00 2.002512216567993164e+00 -2.233495235443115234e+00 2.042098522186279297e+00 -5.253808498382568359e-01 1.839933514595031738e+00 2.186130523681640625e+00 -5.853074193000793457e-01 -2.429889678955078125e+00 -1.003360629081726074e+00 3.332737684249877930e-01 -1.209691405296325684e+00 1.772692441940307617e+00 -3.629225790500640869e-01 -2.128257006406784058e-01 -1.207955360412597656e+00 4.967239499092102051e-01 -1.234728693962097168e+00 -3.128739595413208008e+00 -2.204576015472412109e+00 -1.877712130546569824e+00 1.078954458236694336e+00 -2.783277511596679688e+00 -8.857453465461730957e-01 2.087827205657958984e+00 -1.544529080390930176e+00 -1.843986749649047852e+00 7.583757638931274414e-01 -2.287914991378784180e+00 -2.096253633499145508e+00 6.069303750991821289e-01 1.141565084457397461e+00 -2.288364410400390625e+00 -1.547735571861267090e+00 -1.531346917152404785e+00 -2.951527118682861328e+00 1.355294704437255859e+00 2.234450101852416992e+00 1.321818590164184570e+00
-1.765153288841247559e+00 1.129975438117980957e+00 3.946714103221893311e-01 1.576143622398376465e+00 1.380692601203918457e+00 -1.855989336967468262e+00 -1.205579042434692383e+00 1.810058712959289551e+00 -7.893605828285217285e-01 -3.019410073757171631e-01 6.698388606309890747e-02 -1.493580818176269531e+00 -2.223603129386901855e-01 -4.746814668178558350e-01 1.411262273788452148e+00 7.326601147651672363e-01 1.199990510940551758e+00 -1.318119049072265625e+00 2.388604640960693359e+00 2.475475311279296875e+00 2.960734665393829346e-01 1.225008606910705566e+00 2.212518215179443359e+00 9.607781767845153809e-01 -1.215354442596435547e+00 1.493179678916931152e+00 4.582643508911132812e-01 7.334396243095397949e-02 -1.437497377395629883e+00 -1.349514365196228027e+00 -3.073014914989471436e-01 -1.467370688915252686e-01 -1.498601913452148438e+00 1.034513786435127258e-01 1.445351243019104004e+00 2.472064733505249023e+00 -1.409748435020446777e+00 -2.741877079010009766e+00 -1.259122014045715332e+00 2.703567445278167725e-01 2.347780466079711914e+00 -1.536581873893737793e+00 -5.148988366127014160e-01 1.766726851463317871e+00 2.003093957901000977e+00 2.272899150848388672e-01 4.305964112281799316e-01 5.146439671516418457e-01 2.716462373733520508e+00 -5.892969369888305664e-01 1.616789102554321289e+00 1.931702017784118652e+00 1.628471016883850098e+00 1.433760166168212891e+00 1.918496489524841309e+00 1.316420316696166992e+00 8.025205135345458984e-01 -7.960774004459381104e-02 1.453284621238708496e+00 -2.083457946777343750e+00 1.689383506774902344e+00 -9.799259155988693237e-02 -2.017230749130249023e+00 -2.388107299804687500e+00 -2.872667074203491211e+00 -9.650356173515319824e-01 -3.039256095886230469e+00 9.205579161643981934e-01 -2.085983991622924805e+00 1.808006286621093750e+00 -1.862585783004760742e+00 -4.060046672821044922e-01 1.065940022468566895e+00 -3.470781743526458740e-01 6.644696593284606934e-01 -4.928447306156158447e-01 -2.039130210876464844e+00 4.267866909503936768e-01 8.060843944549560547e-01 2.139093160629272461e+00 2.693479061126708984e-01 1.999866589903831482e-02 1.700532317161560059e+00 -2.072756052017211914e+00 2.684310078620910645e-01 -2.987128973007202148e+00 -2.158871650695800781e+00 -2.474757909774780273e+00 1.009757280349731445e+00 9.835677742958068848e-01 1.211815953254699707e+00 -1.104144930839538574e+00 1.378358006477355957e+00 -3.031563997268676758e+00 -1.163502335548400879e+00 8.355898261070251465e-01 -1.901168227195739746e+00 -3.023608684539794922e+00 -1.127064108848571777e+00 6.687687337398529053e-02
1.708524107933044434e+00 -2.516125679016113281e+00 1.835199236869812012e+00 -6.434462070465087891e-01 -1.989892244338989258e+00 6.748697161674499512e-01 -2.537799477577209473e-01 -2.096198320388793945e+00 -3.202858865261077881e-01 1.992834210395812988e+00 1.544788837432861328e+00 1.769288927316665649e-01 1.529974460601806641e+00 -2.139062404632568359e+00 -6.022372245788574219e-01 -8.197987675666809082e-01 -1.614165902137756348e+00 2.822170853614807129e-01 1.145836234092712402e+00 1.796933174133300781e+00 -1.783131480216979980e+00 -2.168428659439086914e+00 1.981981158256530762e+00 -2.418406605720520020e-01 -2.724786043167114258e+00 1.320551633834838867e+00 5.132965371012687683e-02 -2.565344572067260742e+00 6.610659956932067871e-01 1.834286570549011230e+00 2.204740285873413086e+00 -1.628403782844543457e+00 2.268827438354492188e+00 -7.148604393005371094e-01 1.708101034164428711e+00 -5.371562242507934570e-01 -2.723428249359130859e+00 1.890143275260925293e+00 -2.807214260101318359e+00 -3.118710517883300781e-01 -1.205034732818603516e+00 -4.029864668846130371e-01 -8.715465068817138672e-01 4.848135411739349365e-01 -1.423695534467697144e-01 -5.031135082244873047e-01 2.799613177776336670e-01 -2.454995155334472656e+00 1.193970680236816406e+00 1.318704605102539062e+00 2.009589195251464844e+00 -2.606003761291503906e+00 -1.190969586372375488e+00 -2.157142400741577148e+00 -1.571843624114990234e+00 1.649002552032470703e+00 -1.783910155296325684e+00 -2.046812295913696289e+00 1.419201493263244629e-01 6.415225863456726074e-01 1.380484104156494141e+00 1.246423482894897461e+00 -1.620321869850158691e+00 1.505769610404968262e+00 6.132601294666528702e-03 -2.712574958801269531e+00 -1.706944346427917480e+00 1.189574822783470154e-01 1.563603997230529785e+00 -1.189456224441528320e+00 -2.982413768768310547e+00 -2.887667655944824219e+00 1.111260294914245605e+00 2.340222358703613281e+00 2.605497360229492188e+00 -9.830528870224952698e-03 -5.587031841278076172e-01 -1.751453042030334473e+00 -2.528979063034057617e+00 -7.252461910247802734e-01 1.069213509559631348e+00 9.451630711555480957e-01 6.157394051551818848e-01 -1.759919226169586182e-01 7.051194906234741211e-01 3.833349049091339111e-01 2.114721298217773438e+00 2.763346910476684570e+00 1.974942326545715332e+00 1.832307338714599609e+00 -8.855745792388916016e-01 3.376476168632507324e-01 2.260252714157104492e+00 1.260708570480346680e+00 1.129643559455871582e+00 1.407352566719055176e+00 2.278105020523071289e+00 5.786006450653076172e-01 2.001091957092285156e+00 -1.860408782958984375e+00
-1.633294820785522461e+00 1.773708760738372803e-01 -3.523344695568084717e-01 -1.628500819206237793e+00 1.697487354278564453e+00 -2.777969121932983398e+00 -1.634714126586914062e+00 -1.538178920745849609e-01 1.247130751609802246e+00 -6.382867693901062012e-01 2.538557291030883789e+00 2.013876736164093018e-01 8.995336890220642090e-01 -2.187339514493942261e-01 -5.813688039779663086e-01 8.493531495332717896e-02 -2.075383186340332031e+00 1.990964651107788086e+00 -1.946297883987426758e+00 6.373251974582672119e-02 -5.752448439598083496e-01 -2.082304000854492188e+00 -1.266919374465942383e+00 -2.280962765216827393e-01 -1.178518772125244141e+00 -2.570916414260864258e+00 -1.834325790405273438e+00 -3.179081916809082031e+00 -2.557206869125366211e+00 -2.747543573379516602e+00 -2.309608936309814453e+00 2.178291797637939453e+00 -2.543329954147338867e+00 -3.333933353424072266e+00 -1.729703426361083984e+00 -2.774488925933837891e+00 -9.818329215049743652e-01 -2.877013921737670898e+00 -1.150857210159301758e+00 -2.565864086151123047e+00 9.647757411003112793e-01 3.162626504898071289e+00 2.712988376617431641e+00 2.560726642608642578e+00 -4.590774178504943848e-01 2.968400239944458008e+00 4.086972400546073914e-02 3.254195213317871094e+00 6.455431580543518066e-01 3.211753129959106445e+00 2.964514493942260742e-01 2.514920473098754883e+00 2.095091104507446289e+00 2.699310541152954102e+00 -4.273020327091217041e-01 6.997635960578918457e-01 2.691524982452392578e+00 2.904809474945068359e+00 2.078715324401855469e+00 2.760549545288085938e+00 1.777506351470947266e+00 -1.032636523246765137e+00 -2.348248243331909180e+00 7.390067577362060547e-01 -1.312411189079284668e+00 9.190415740013122559e-01 -1.556960642337799072e-01 2.986006975173950195e+00 -1.933883190155029297e+00 2.947775125503540039e+00 3.390119373798370361e-01 -9.011185914278030396e-02 2.913867235183715820e+00 1.449258565902709961e+00 3.837169408798217773e-01 -4.504164159297943115e-01 4.601739645004272461e-01 1.295971751213073730e+00 -2.266762733459472656e+00 -9.558023214340209961e-01 1.590858101844787598e+00 9.103074073791503906e-01 7.509561181068420410e-01 -2.193191766738891602e+00 -1.754456758499145508e+00 -7.957695722579956055e-01 -2.915665805339813232e-01 -2.964627444744110107e-01 1.649868130683898926e+00 5.980749130249023438e-01 1.488435029983520508e+00 -1.036912441253662109e+00 -5.412014126777648926e-01 -1.671803116798400879e+00 2.005500495433807373e-01 -1.786292195320129395e+00 1.493304133415222168e+00 -6.477065086364746094e-01 1.812599420547485352e+00 -1.910819768905639648e+00
-1.052243471145629883e+00 1.441797375679016113e+00 7.930138707160949707e-01 2.025596141815185547e+00 -2.420391082763671875e+00 -7.903297543525695801e-01 -7.715694904327392578e-01 1.581546664237976074e+00 2.233939647674560547e+00 1.349983811378479004e+00 -3.987228274345397949e-01 -2.253931760787963867e+00 -1.808793902397155762e+00 1.135507702827453613e+00 -1.338793933391571045e-01 3.122608363628387451e-01 -5.705251544713973999e-02 2.134215086698532104e-01 -4.640722870826721191e-01 -1.025297880172729492e+00 -7.146553993225097656e-01 -3.081162929534912109e+00 -1.760941267013549805e+00 2.845300197601318359e+00 -2.491451263427734375e+00 1.581722855567932129e+00 -4.537769854068756104e-01 4.204859733581542969e-01 1.444162130355834961e+00 7.148100733757019043e-01 -1.600889086723327637e+00 2.576667308807373047e+00 -1.574457645416259766e+00 -1.787211894989013672e+00 2.832514524459838867e+00 3.025479793548583984e+00 2.463613510131835938e+00 1.465658068656921387e+00 1.611787438392639160e+00 -1.733502030372619629e+00 -1.062299609184265137e+00 7.189723253250122070e-01 -6.713034510612487793e-01 -2.517494440078735352e+00 -1.700376868247985840e+00 -2.385997056961059570e+00 1.946573734283447266e+00 5.584583282470703125e-01 -2.389305353164672852e+00 7.174282670021057129e-01 2.292350232601165771e-01 -1.583465695381164551e+00 1.420313835144042969e+00 1.607065439224243164e+00 1.161409020423889160e+00 -2.572042703628540039e+00 -1.649964690208435059e+00 1.555819988250732422e+00 -7.989252805709838867e-01 -2.581201791763305664e+00 -2.763499736785888672e+00 -1.932601451873779297e+00 5.151560306549072266e-01 -9.488747715950012207e-01 -9.914659857749938965e-01 -7.356677055358886719e-01 -1.082142233848571777e+00 -1.208855748176574707e+00 -3.085161924362182617e+00 -7.802265882492065430e-01 1.765343427658081055e+00 5.966682434082031250e-01 1.536929726600646973e+00 2.730906903743743896e-01 -2.861195325851440430e+00 3.672541677951812744e-02 -2.122928857803344727e+00 6.631870865821838379e-01 -2.835670709609985352e+00 -2.110174179077148438e+00 -5.469846129417419434e-01 2.121085643768310547e+00 2.076099872589111328e+00 1.158593446016311646e-01 7.306130528450012207e-01 2.281020641326904297e+00 1.318132638931274414e+00 2.207729578018188477e+00 1.544738888740539551e+00 6.002634167671203613e-01 3.382401227951049805e+00 -1.182774543762207031e+00 2.542444169521331787e-01 3.552342951297760010e-01 1.907861471176147461e+00 1.485010147094726562e+00 2.023784875869750977e+00 2.556380331516265869e-01 -6.888760328292846680e-01 2.839000225067138672e+00
-3.039328813552856445e+00 -1.830203056335449219e+00 -5.431888699531555176e-01 -1.354152858257293701e-01 1.908239126205444336e-01 2.037458494305610657e-02 -5.808432698249816895e-01 -1.427040249109268188e-01 6.249855831265449524e-02 -1.830448031425476074e+00 1.660057544708251953e+00 -6.192826032638549805e-01 1.069748878479003906e+00 2.924874067306518555e+00 -2.896437644958496094e+00 8.053722977638244629e-01 -2.371929883956909180e+00 -4.814059138298034668e-01 2.254350185394287109e+00 -1.346235513687133789e+00 -1.593294978141784668e+00 7.504580616950988770e-01 -3.158283233642578125e-02 2.426676511764526367e+00 8.811371922492980957e-01 1.768002629280090332e+00 2.585028409957885742e+00 -2.385665416717529297e+00 -3.576435446739196777e-01 -3.078454434871673584e-01 3.783463314175605774e-02 -7.558308839797973633e-01 1.157404631376266479e-01 -1.600146055221557617e+00 -1.176106691360473633e+00 -4.028280675411224365e-01 3.083167970180511475e-01 4.894127845764160156e-01 -2.120679855346679688e+00 1.651903867721557617e+00 -8.004669547080993652e-01 3.152714073657989502e-01 -3.871127665042877197e-01 -2.284708023071289062e+00 2.243753433227539062e+00 -2.219275474548339844e+00 -2.304751157760620117e+00 -1.840107321739196777e+00 7.780176401138305664e-01 -2.183080434799194336e+00 -1.654252052307128906e+00 -1.058806538581848145e+00 2.019368410110473633e+00 6.682405471801757812e-01 -8.285140991210937500e-01 -1.906937718391418457e+00 1.284267544746398926e+00 -2.703410089015960693e-01 -2.775615215301513672e+00 -2.553130149841308594e+00 1.578715085983276367e+00 -2.312869578599929810e-01 2.004120111465454102e+00 2.268126010894775391e+00 -2.030445635318756104e-01 -2.990657389163970947e-01 -8.910850882530212402e-01 1.063428759574890137e+00 1.970632076263427734e+00 2.163697242736816406e+00 -2.262958526611328125e+00 -1.232207864522933960e-01 -1.395616084337234497e-01 -2.333942651748657227e+00 1.691913127899169922e+00 2.033483982086181641e+00 1.222209453582763672e+00 2.851521015167236328e+00 -8.168865442276000977e-01 -1.741799712181091309e+00 -1.171108961105346680e+00 1.700537681579589844e+00 2.785362720489501953e+00 2.529817104339599609e+00 1.364010691642761230e+00 1.939586997032165527e+00 1.016197562217712402e+00 -2.325274944305419922e-01 5.521042346954345703e-01 -6.517435312271118164e-01 -4.952739775180816650e-01 3.724798262119293213e-01 1.286996722221374512e+00 1.264381647109985352e+00 1.012523055076599121e+00 2.330577671527862549e-01 1.466832756996154785e+00 8.210610747337341309e-01 -9.334365725517272949e-01 -1.790199995040893555e+00
8.496792316436767578e-01 -2.218023538589477539e+00 9.340096712112426758e-01 -2.132297039031982422e+00 6.318306326866149902e-01 -2.071387290954589844e+00 1.873610615730285645e+00 2.537783861160278320e+00 1.618848443031311035e+00 -1.223613500595092773e+00 -1.297768115997314453e+00 1.170237541198730469e+00 1.959733366966247559e+00 -1.827788352966308594e+00 7.886119484901428223e-01 2.193496942520141602e+00 1.544083118438720703e+00 7.653902173042297363e-01 9.636418223381042480e-01 2.245279788970947266e+00 1.322275400161743164e+00 1.019380092620849609e+00 4.230753183364868164e-01 -8.167899847030639648e-01 3.210219144821166992e+00 2.136557340621948242e+00 1.739766478538513184e+00 -6.083875298500061035e-01 2.522538185119628906e+00 -2.238802164793014526e-01 -1.868988156318664551e+00 -2.160149812698364258e+00 -2.244049072265625000e+00 -1.327983975410461426e+00 -6.366043686866760254e-01 -3.615825474262237549e-01 5.812667012214660645e-01 -1.708230733871459961e+00 8.951104879379272461e-01 -7.272151708602905273e-01 -1.206118702888488770e+00 -1.655956268310546875e+00 -2.546076774597167969e+00 -2.342698812484741211e+00 -1.049865365028381348e+00 4.649921655654907227e-01 -1.767827272415161133e+00 3.343859910964965820e-01 2.471530675888061523e+00 -1.720465421676635742e+00 -1.257918924093246460e-01 -2.708571031689643860e-02 4.402646422386169434e-01 3.571783900260925293e-01 2.410985469818115234e+00 1.887534499168395996e+00 -2.558054685592651367e+00 2.750420808792114258e+00 -2.156983375549316406e+00 2.043874979019165039e+00 1.551277190446853638e-01 5.668613314628601074e-01 -2.301425218582153320e+00 -9.174351096153259277e-01 -1.830463767051696777e+00 -1.845862269401550293e+00 2.799333333969116211e+00 -2.052377939224243164e+00 3.169171512126922607e-01 -2.294106960296630859e+00 1.634048223495483398e+00 1.094152331352233887e+00 -1.162789702415466309e+00 -1.077380180358886719e+00 -2.583339691162109375e+00 2.539508044719696045e-01 -7.838431000709533691e-01 -2.511195659637451172e+00 -3.667173683643341064e-01 -1.251864552497863770e+00 -2.728919982910156250e-01 7.646812200546264648e-01 1.186556458473205566e+00 2.247900962829589844e+00 1.396179676055908203e+00 -1.525991316884756088e-02 1.895946145057678223e+00 1.018208622932434082e+00 -2.057893991470336914e+00 -1.405802488327026367e+00 5.538781881332397461e-01 1.264033555984497070e+00 -1.760943770408630371e+00 1.393096923828125000e+00 3.200120031833648682e-01 5.838240385055541992e-01 -9.943905472755432129e-01 2.501980662345886230e-01 6.484183669090270996e-01 6.763690114021301270e-01
-1.154174327850341797e+00 1.710621714591979980e-01 -3.069160938262939453e+00 -1.559114456176757812e+00 1.500374794006347656e+00 1.430371642112731934e+00 -1.628678441047668457e-01 -7.453349828720092773e-01 -9.346693754196166992e-02 -2.731506526470184326e-01 1.320081591606140137e+00 1.216795444488525391e+00 -7.196127176284790039e-01 1.978692054748535156e+00 -5.162975192070007324e-01 1.379512429237365723e+00 1.969026327133178711e+00 1.519825339317321777e+00 -1.617574810981750488e+00 -1.630698204040527344e+00 2.439509153366088867e+00 -3.021409809589385986e-01 -1.732720255851745605e+00 1.370632350444793701e-01 9.780431985855102539e-01 2.881282329559326172e+00 1.786703705787658691e+00 3.545917272567749023e+00 -1.025821566581726074e+00 2.048105001449584961e+00 1.721641778945922852e+00 6.901465058326721191e-01 -2.395931243896484375e+00 2.147258281707763672e+00 -4.576047360897064209e-01 1.742753267288208008e+00 3.470474183559417725e-01 3.035688400268554688e+00 -5.842420272529125214e-03 2.797799110412597656e+00 -7.307426929473876953e-01 2.368733644485473633e+00 -2.216954946517944336e+00 8.092546463012695312e-01 3.025972604751586914e+00 7.973005771636962891e-01 -1.306479573249816895e+00 -2.439826488494873047e+00 2.584295511245727539e+00 -1.879833340644836426e+00 2.209295749664306641e+00 -1.650537371635437012e+00 9.356157779693603516e-01 -1.713414072990417480e+00 1.592114090919494629e+00 7.984623908996582031e-01 -1.913504600524902344e-01 -1.179259300231933594e+00 -1.553168773651123047e+00 2.125822305679321289e+00 -1.817296445369720459e-02 1.169847011566162109e+00 -1.968594193458557129e+00 1.512824892997741699e+00 -1.520842164754867554e-01 -1.892939209938049316e-01 -1.089051127433776855e+00 1.689640879631042480e+00 -1.556709408760070801e+00 8.380860090255737305e-01 -2.844925642013549805e+00 2.564864635467529297e+00 -1.406667709350585938e+00 -2.741248607635498047e-01 -2.742539882659912109e+00 -1.172441720962524414e+00 7.786909341812133789e-01 -5.975437164306640625e-01 -1.618099689483642578e+00 -2.921527028083801270e-01 1.705504655838012695e+00 -2.158828496932983398e+00 -3.079243898391723633e+00 9.167214035987854004e-01 -1.792154073715209961e+00 -3.788953423500061035e-01 1.799538493156433105e+00 -1.279315590858459473e+00 -2.558532238006591797e+00 1.900548100471496582e+00 6.981045603752136230e-01 -7.484829425811767578e-02 -2.521892547607421875e+00 -3.410363912582397461e+00 1.085621356964111328e+00 -3.000713825225830078e+00 -1.608770489692687988e+00 1.035064458847045898e+00 -2.354448437690734863e-01 -2.644425153732299805e+00
9.036334753036499023e-01 1.563912510871887207e+00 -2.221548557281494141e+00 -1.528028488159179688e+00 2.147264242172241211e+00 -1.358025550842285156e+00 -4.320845007896423340e-01 -9.498161673545837402e-01 -2.888932228088378906e+00 2.013735532760620117e+00 7.879273295402526855e-01 -2.170352458953857422e+00 1.603296399116516113e+00 -1.161251515150070190e-01 2.153709650039672852e+00 1.084367394447326660e+00 2.341031074523925781e+00 -2.751131534576416016e+00 1.682688444852828979e-01 2.330816984176635742e+00 -5.193137750029563904e-02 -3.172135353088378906e-01 5.983745455741882324e-01 1.519267410039901733e-01 6.971049308776855469e-01 5.810565352439880371e-01 -3.798828423023223877e-01 3.145872116088867188e+00 -1.495283603668212891e+00 -1.841006278991699219e-01 4.724572896957397461e-01 1.456708073616027832e+00 -9.481813758611679077e-02 3.176542043685913086e+00 8.438331484794616699e-01 5.502808094024658203e-01 -1.650729179382324219e+00 -9.335465431213378906e-01 -2.641397476196289062e+00 -4.253783822059631348e-01 -4.574054479598999023e-01 6.135624051094055176e-01 1.320047616958618164e+00 -6.216456368565559387e-02 1.419611692428588867e+00 -1.848523616790771484e+00 1.389454126358032227e+00 2.123444974422454834e-01 -1.130175948143005371e+00 2.964186668395996094e+00 9.133412837982177734e-01 2.596078157424926758e+00 -8.292207121849060059e-01 -1.142558693885803223e+00 2.448219060897827148e+00 1.386495590209960938e+00 -2.786445856094360352e+00 -1.367719411849975586e+00 1.381017804145812988e+00 -1.034194946289062500e+00 9.400815963745117188e-01 2.461300849914550781e+00 4.343406483530998230e-02 -2.642565727233886719e+00 -3.735200464725494385e-01 -8.928287625312805176e-01 -1.631522536277770996e+00 -2.565814018249511719e+00 2.919261932373046875e+00 -1.625649213790893555e+00 -2.334519386291503906e+00 -1.856184959411621094e+00 1.134708642959594727e+00 3.149611353874206543e-01 -5.102789402008056641e-01 1.150773167610168457e+00 -1.538557410240173340e+00 -8.689343929290771484e-01 4.385975003242492676e-01 -1.412989020347595215e+00 2.117911577224731445e+00 7.783318161964416504e-01 -1.946301460266113281e+00 7.802134752273559570e-01 -1.587116003036499023e+00 1.950227022171020508e+00 -1.105846643447875977e+00 -7.294627428054809570e-01 -2.657523632049560547e+00 -3.900018930435180664e-01 2.350247055292129517e-01 -1.240391060709953308e-01 -1.872418403625488281e+00 -1.224796939641237259e-02 -7.751617431640625000e-01 -2.038096636533737183e-01 -3.438919037580490112e-02 9.674245715141296387e-01 -2.557239532470703125e+00 3.162377595901489258e+00
-1.233521103858947754e+00 4.566184580326080322e-01 9.303090572357177734e-01 9.231213927268981934e-01 -1.391002535820007324e+00 7.164745032787322998e-02 2.399775028228759766e+00 -2.397398799657821655e-01 2.335962772369384766e+00 1.920433402061462402e+00 1.532319635152816772e-01 1.268770694732666016e+00 9.687485694885253906e-01 1.300649523735046387e+00 1.613821744918823242e+00 1.971948504447937012e+00 1.021640896797180176e+00 -3.407306671142578125e-01 -2.269329309463500977e+00 9.467620253562927246e-01 -1.476479411125183105e+00 1.085340023040771484e+00 -4.187183082103729248e-01 2.227579653263092041e-01 -8.535977005958557129e-01 -1.321782588958740234e+00 -2.480136871337890625e+00 8.477280139923095703e-01 2.675615787506103516e+00 2.111505985260009766e+00 -1.296363234519958496e+00 -2.694698333740234375e+00 4.228001236915588379e-01 -1.661733865737915039e+00 3.562542200088500977e-01 -2.535497426986694336e+00 4.270948767662048340e-01 -3.206906318664550781e-01 -2.008814096450805664e+00 -1.060310363769531250e+00 8.615062236785888672e-01 -1.142184734344482422e+00 6.310428977012634277e-01 -1.935313269495964050e-02 -5.041133165359497070e-01 6.139060854911804199e-01 -2.027127504348754883e+00 -4.290143251419067383e-01 1.649380683898925781e+00 -1.197003483772277832e+00 4.586956463754177094e-03 4.679810702800750732e-01 5.814700126647949219e-01 -1.907583951950073242e+00 2.244746685028076172e+00 -1.280421495437622070e+00 5.305032804608345032e-02 -1.456888437271118164e+00 -1.939460277557373047e+00 -1.763390183448791504e+00 -1.252256751060485840e+00 -1.373053669929504395e+00 -2.953297376632690430e+00 -2.512032032012939453e+00 -7.931162714958190918e-01 -1.829724907875061035e+00 -2.336550712585449219e+00 -1.581438183784484863e+00 -2.369137287139892578e+00 2.448689788579940796e-01 -2.628965616226196289e+00 1.564121603965759277e+00 -2.054925918579101562e+00 -2.798609495162963867e+00 -2.052200317382812500e+00 1.577224373817443848e+00 -1.108229041099548340e+00 7.667014002799987793e-01 1.400563865900039673e-01 1.238198041915893555e+00 1.198079705238342285e+00 -1.961570501327514648e+00 2.271800041198730469e+00 2.704455375671386719e+00 1.466947317123413086e+00 2.690028429031372070e+00 -9.890503287315368652e-01 2.591659784317016602e+00 2.714659452438354492e+00 1.556295156478881836e+00 2.871887922286987305e+00 2.565014600753784180e+00 2.020618915557861328e+00 -3.701124787330627441e-01 -2.268068492412567139e-01 -1.946261152625083923e-02 1.982819318771362305e+00 1.592036008834838867e+00 2.141716182231903076e-01 1.082369804382324219e+00
9.675450325012207031e-01 -6.871923804283142090e-01 1.830582737922668457e+00 -2.234567403793334961e+00 -3.792775869369506836e-01 -3.121127188205718994e-02 2.494351416826248169e-01 1.536445856094360352e+00 1.712103486061096191e+00 -2.437108039855957031e+00 -2.999983072280883789e+00 5.663462281227111816e-01 3.241236925125122070e+00 2.894203901290893555e+00 -4.019137918949127197e-01 -2.812663078308105469e+00 1.321445941925048828e+00 5.031519532203674316e-01 2.494977712631225586e+00 -2.566969394683837891e+00 2.454167842864990234e+00 -1.522877812385559082e+00 -2.483774662017822266e+00 5.534105300903320312e-01 8.547831773757934570e-01 -2.533598423004150391e+00 -2.277683734893798828e+00 4.520108401775360107e-01 6.947044134140014648e-01 1.940422534942626953e+00 1.575470924377441406e+00 -6.527920812368392944e-02 1.735815405845642090e+00 -1.551247954368591309e+00 -1.022449970245361328e+00 2.666682004928588867e+00 -1.190926194190979004e+00 -3.701775968074798584e-01 -2.426517963409423828e+00 -1.618506908416748047e-01 5.653361082077026367e-01 -8.327469825744628906e-01 -2.166722536087036133e+00 -3.195986747741699219e-01 -7.628077268600463867e-01 2.644937515258789062e+00 1.614304661750793457e+00 2.291627407073974609e+00 2.838094949722290039e+00 -1.060874819755554199e+00 4.801406562328338623e-01 -6.149451136589050293e-01 -2.529936790466308594e+00 -1.449155092239379883e+00 5.957732796669006348e-01 2.933086395263671875e+00 2.478517770767211914e+00 -1.445563912391662598e+00 1.510441660881042480e+00 -1.238849163055419922e+00 2.933532714843750000e+00 2.430190891027450562e-02 -4.598891139030456543e-01 -1.262046575546264648e+00 -1.429470896720886230e+00 -2.413065582513809204e-01 2.298198938369750977e+00 5.163558721542358398e-01 -7.249670028686523438e-01 -2.834236145019531250e+00 -2.500010251998901367e+00 -4.949198067188262939e-01 1.136891484260559082e+00 -1.001071929931640625e+00 -1.343505024909973145e+00 -1.714166879653930664e+00 2.655592441558837891e+00 -2.914616346359252930e+00 -6.264090538024902344e-01 -7.430444359779357910e-01 -2.106155872344970703e+00 1.120596885681152344e+00 3.121767044067382812e+00 1.450881958007812500e+00 -1.168957725167274475e-01 1.712072849273681641e+00 3.244487047195434570e-01 2.079205065965652466e-01 3.451466858386993408e-01 1.538242101669311523e-01 -1.276588678359985352e+00 -1.495336145162582397e-01 -3.554477393627166748e-01 1.658766269683837891e+00 -1.772007822990417480e+00 1.299546718597412109e+00 1.239242196083068848e+00 -2.024365186691284180e+00 -2.627808809280395508e+00 2.098213195800781250e+00
1.388791799545288086e+00 2.733799219131469727e+00 1.813496828079223633e+00 -2.150641232728958130e-01 2.352708578109741211e+00 1.467617154121398926e+00 1.475646257400512695e+00 2.045280933380126953e+00 2.677627563476562500e+00 -8.578068614006042480e-01 2.700555562973022461e+00 2.161852836608886719e+00 -2.358731031417846680e-01 9.684469103813171387e-01 2.362214565277099609e+00 -2.196019887924194336e+00 2.198926448822021484e+00 -5.130308270454406738e-01 -1.746218204498291016e+00 2.386835813522338867e+00 9.513273835182189941e-01 1.429017543792724609e+00 -8.700844645500183105e-01 -5.313379764556884766e-01 -6.872918009757995605e-01 1.228932142257690430e+00 -1.648890972137451172e+00 -8.351473212242126465e-01 -1.784259438514709473e+00 -2.984134674072265625e+00 -1.858727574348449707e+00 3.894331455230712891e-01 -1.855616807937622070e+00 7.648847699165344238e-01 -2.241413116455078125e+00 -2.231495857238769531e+00 -1.876745223999023438e-01 -1.600581765174865723e+00 2.381467580795288086e+00 9.469407200813293457e-01 -3.251773357391357422e+00 7.654211483895778656e-03 -1.878115296363830566e+00 -2.330858945846557617e+00 -2.563508033752441406e+00 -4.581709206104278564e-01 -2.250972747802734375e+00 -2.330586433410644531e+00 -2.393010377883911133e+00 -5.251661539077758789e-01 -3.501902103424072266e+00 -1.479096263647079468e-01 -1.455394625663757324e+00 1.299735665321350098e+00 -2.658891439437866211e+00 -1.478075385093688965e+00 -1.060768663883209229e-01 -2.777922153472900391e+00 8.434467948973178864e-03 -1.561634242534637451e-01 1.378609061241149902e+00 -1.639572024345397949e+00 1.318004965782165527e+00 1.008490622043609619e-01 1.384778618812561035e+00 1.590683579444885254e+00 4.639281891286373138e-03 -1.591609120368957520e+00 1.197109222412109375e+00 2.146080493927001953e+00 1.973387956619262695e+00 1.306890726089477539e+00 -3.526689708232879639e-01 -1.586804389953613281e+00 2.417919397354125977e+00 2.843332886695861816e-01 1.123850584030151367e+00 -3.410985767841339111e-01 -2.618489503860473633e+00 1.755044937133789062e+00 1.922886371612548828e+00 3.442578613758087158e-01 1.114216804504394531e+00 7.856974005699157715e-01 8.983547687530517578e-01 1.068160459399223328e-01 -2.087758064270019531e+00 -1.337994933128356934e+00 6.819950938224792480e-01 1.808876991271972656e+00 1.753915905952453613e+00 2.278942823410034180e+00 -1.028223514556884766e+00 8.437699675559997559e-01 1.271529197692871094e+00 -6.735491156578063965e-01 -1.083613157272338867e+00 -1.397953510284423828e+00 1.983901023864746094e+00 -1.413808226585388184e+00
1.545556902885437012e+00 2.093399524688720703e+00 2.013685703277587891e+00 8.208073377609252930e-01 1.947767496109008789e+00 1.502794504165649414e+00 2.340472221374511719e+00 2.921062469482421875e+00 -9.652773737907409668e-01 -5.037090182304382324e-01 1.873273134231567383e+00 2.307190179824829102e+00 1.084893703460693359e+00 1.631950616836547852e+00 2.406844854354858398e+00 -2.617894709110260010e-01 2.282550811767578125e+00 2.719662427902221680e+00 1.846014380455017090e+00 1.199868559837341309e+00 -1.816052913665771484e+00 -3.466195762157440186e-01 1.661081314086914062e+00 -2.982123374938964844e+00 -2.645195245742797852e+00 -2.026088953018188477e+00 -2.112951278686523438e+00 1.472547531127929688e+00 -1.927482247352600098e+00 -2.229717016220092773e+00 1.052817583084106445e+00 -9.638453722000122070e-01 -1.470438003540039062e+00 -2.056629896163940430e+00 -1.045719027519226074e+00 1.516488492488861084e-01 4.416743814945220947e-01 -1.933874964714050293e+00 -2.248079299926757812e+00 -9.712125658988952637e-01 -1.871288299560546875e+00 4.135295450687408447e-01 1.151954054832458496e+00 7.375544905662536621e-01 -1.538988947868347168e+00 1.130864262580871582e+00 2.337545394897460938e+00 2.580842256546020508e+00 7.687287330627441406e-01 -2.393509864807128906e+00 -1.493219494819641113e+00 -2.641673326492309570e+00 -2.922617673873901367e+00 -1.237529277801513672e+00 -3.406390845775604248e-01 -2.669504404067993164e+00 -7.283013314008712769e-02 2.351083457469940186e-01 1.108961462974548340e+00 -1.846748031675815582e-02 -7.939490079879760742e-01 1.724725842475891113e+00 -6.314233690500259399e-02 -2.556193828582763672e+00 1.044754028320312500e+00 -9.995323419570922852e-01 1.946111798286437988e+00 2.419915437698364258e+00 -2.277702331542968750e+00 -1.509704589843750000e+00 1.385902285575866699e+00 -1.967620134353637695e+00 -9.242150783538818359e-01 1.480989098548889160e+00 1.397669434547424316e+00 -1.890385627746582031e+00 1.564243674278259277e+00 4.618315994739532471e-01 -8.731068372726440430e-01 1.147129178047180176e+00 -2.174235343933105469e+00 -9.704695940017700195e-01 1.739991426467895508e+00 -8.214307427406311035e-01 1.855612874031066895e+00 -1.440577864646911621e+00 -1.125854969024658203e+00 -1.564083933830261230e+00 1.064033985137939453e+00 6.468557715415954590e-01 -1.644727706909179688e+00 -7.870630025863647461e-01 -2.978898286819458008e-01 3.167095780372619629e-01 1.024928092956542969e+00 -1.971721529960632324e+00 -4.003165364265441895e-01 1.631594896316528320e+00 1.315182328224182129e+00 1.320561021566390991e-01
2.190409421920776367e+00 -1.185385882854461670e-02 -9.621016979217529297e-01 -2.250243663787841797e+00 3.014669895172119141e+00 -2.160666584968566895e-01 -3.812679052352905273e-01 -3.189527690410614014e-01 -1.762709736824035645e+00 5.674756248481571674e-04 7.323961257934570312e-01 2.522393226623535156e+00 -1.065122187137603760e-01 1.243899703025817871e+00 1.648736715316772461e+00 3.809858262538909912e-01 1.367150068283081055e+00 -1.719652771949768066e+00 1.119116663932800293e+00 2.311820745468139648e+00 -1.702213287353515625e+00 -7.118180990219116211e-01 -1.900523185729980469e+00 3.048710584640502930e+00 2.216613292694091797e+00 1.529374718666076660e+00 -1.624089665710926056e-02 -1.288528442382812500e+00 9.328873157501220703e-01 -4.991064667701721191e-01 6.419163942337036133e-01 -1.000619530677795410e+00 5.919352173805236816e-01 2.319423198699951172e+00 6.791645884513854980e-01 -1.507947325706481934e+00 2.494215250015258789e+00 7.347371578216552734e-01 3.612088784575462341e-02 8.399947285652160645e-01 2.923152685165405273e+00 -2.566747665405273438e+00 -2.654825150966644287e-01 2.506666183471679688e+00 1.575416699051856995e-02 -1.602972030639648438e+00 5.382125377655029297e-01 8.598390221595764160e-01 9.803667664527893066e-02 1.515635550022125244e-01 1.703755021095275879e+00 -6.383227705955505371e-01 1.471729040145874023e+00 -1.876953601837158203e+00 1.689976215362548828e+00 -6.538948416709899902e-01 -8.916260004043579102e-01 1.160689949989318848e+00 2.335980653762817383e+00 -1.093322873115539551e+00 -1.224145889282226562e+00 7.760337591171264648e-01 1.831670165061950684e+00 -2.435632228851318359e+00 -2.562203407287597656e+00 5.487633347511291504e-01 -6.087827086448669434e-01 -1.771390438079833984e+00 -7.629795074462890625e-01 1.132494360208511353e-01 -6.285336017608642578e-01 -1.640202879905700684e+00 -5.520498156547546387e-01 -1.398984432220458984e+00 1.700275182723999023e+00 1.719792842864990234e+00 6.686497330665588379e-01 1.229713320732116699e+00 -2.005972862243652344e+00 -1.048331975936889648e+00 -1.333446502685546875e+00 -9.557828307151794434e-01 -9.405832886695861816e-01 -2.786000967025756836e-01 1.473211050033569336e-01 1.644723564386367798e-01 3.872280716896057129e-01 2.663814723491668701e-01 -1.192531704902648926e+00 1.897313475608825684e+00 -1.832876205444335938e+00 -1.387334942817687988e+00 -1.405305624008178711e+00 -1.517709136009216309e+00 -9.301629662513732910e-02 -7.601000070571899414e-01 -1.953563690185546875e+00 -1.858339428901672363e+00 8.265675604343414307e-02 -1.623448014259338379e+00
-1.475099802017211914e+00 3.027045130729675293e-01 -2.485797166824340820e+00 -2.169277906417846680e+00 -1.250874996185302734e+00 -1.926833748817443848e+00 -1.352929949760437012e+00 -1.974895238876342773e+00 -2.802711963653564453e+00 -1.922952175140380859e+00 -1.402076482772827148e-01 -1.397374629974365234e+00 -2.063286453485488892e-01 -1.999825358390808105e+00 -1.375024318695068359e+00 -1.650673151016235352e+00 1.376049160957336426e+00 -1.099640488624572754e+00 3.361491262912750244e-01 -5.466924309730529785e-01 -2.909698724746704102e+00 3.594058036804199219e+00 -2.207437038421630859e+00 -1.234263628721237183e-01 -1.837696909904479980e+00 -1.890431284904479980e+00 1.378562569618225098e+00 -1.497944235801696777e+00 -1.117800235748291016e+00 -1.869380474090576172e+00 2.967824220657348633e+00 -8.059977889060974121e-01 1.136349663138389587e-01 2.233933687210083008e+00 -3.059568405151367188e-01 -7.912501096725463867e-01 1.682821035385131836e+00 2.911786437034606934e-01 -2.289863377809524536e-01 -6.317829489707946777e-01 -5.744477510452270508e-01 2.080210447311401367e+00 3.086063385009765625e+00 -2.077233076095581055e+00 6.569043397903442383e-01 2.159732103347778320e+00 2.150007963180541992e+00 1.173301815986633301e+00 -6.494469642639160156e-01 -2.687604188919067383e+00 8.095705509185791016e-01 -1.036847472190856934e+00 -1.194805622100830078e+00 -1.130452871322631836e+00 9.906646609306335449e-02 1.884413957595825195e+00 -5.223438143730163574e-01 2.126377820968627930e-01 -2.009291887283325195e+00 -1.667748928070068359e+00 -2.822314977645874023e+00 -1.828620076179504395e+00 -1.280348181724548340e+00 1.685140252113342285e+00 7.914572954177856445e-01 2.783657312393188477e+00 1.384868025779724121e+00 8.166683912277221680e-01 4.746080636978149414e-01 2.167227983474731445e+00 3.532060146331787109e+00 1.831966757774353027e+00 -3.872464001178741455e-01 1.368820428848266602e+00 1.644188404083251953e+00 3.286107301712036133e+00 1.248310565948486328e+00 2.610720634460449219e+00 -1.097414270043373108e-01 3.527947425842285156e+00 -2.186209678649902344e+00 -3.421074450016021729e-01 5.874449014663696289e-01 -2.250703573226928711e+00 4.034151434898376465e-01 -1.381639122962951660e+00 -1.652939915657043457e+00 2.302733421325683594e+00 3.483779191970825195e+00 3.261210203170776367e+00 1.592572212219238281e+00 1.947709441184997559e+00 2.164677143096923828e+00 -8.454991132020950317e-02 -1.898684978485107422e+00 -6.755765080451965332e-01 -2.372264146804809570e+00 -1.701115965843200684e-01 1.228953123092651367e+00 -7.125114202499389648e-01
