4.534010589122772217e-01 -1.151021003723144531e+00 -7.412773966789245605e-01 3.694553852081298828e+00 9.996127486228942871e-01 -2.056796401739120483e-01 -1.184407234191894531e+00 2.279376029968261719e+00 -9.729779362678527832e-01 -2.190003395080566406e+00 -4.062218189239501953e+00 2.208387136459350586e+00 3.276379704475402832e-01 -1.222384944558143616e-01 -3.260703802108764648e+00 -2.718089342117309570e+00 -5.244166851043701172e-01 7.482723593711853027e-01 7.083023339509963989e-02 5.141091823577880859e+00 -4.809086799621582031e+00 -4.322564601898193359e+00 9.565547108650207520e-01 -1.614847302436828613e+00 1.387807726860046387e+00 1.728171706199645996e+00 2.074596732854843140e-01
-1.835088133811950684e+00 6.583214998245239258e-01 1.073341727256774902e+00 7.666347026824951172e-01 -2.357042551040649414e+00 -1.467974662780761719e+00 -2.809975862503051758e+00 1.079868197441101074e+00 3.737567424774169922e+00 9.334286451339721680e-01 1.065891459584236145e-01 6.569575071334838867e-01 -1.277245402336120605e+00 6.412541866302490234e-01 -2.793811798095703125e+00 2.983183383941650391e+00 -8.984135985374450684e-01 -6.195319294929504395e-01 -1.839613437652587891e+00 1.717234373092651367e+00 -3.478271245956420898e+00 -1.711479306221008301e+00 -1.804574131965637207e+00 2.860644102096557617e+00 -4.010803699493408203e+00 7.659437656402587891e-01 -1.268494606018066406e+00
-4.274719655513763428e-01 2.548146963119506836e+00 2.970233201980590820e+00 -1.783424019813537598e+00 -2.263047933578491211e+00 -3.185341060161590576e-01 -2.182084321975708008e+00 -8.870495557785034180e-01 2.656245470046997070e+00 -2.193886518478393555e+00 -1.956630825996398926e+00 1.214141249656677246e+00 -1.500200510025024414e+00 3.955062329769134521e-01 2.129002571105957031e+00 3.852286040782928467e-01 -2.886071681976318359e+00 -4.198393523693084717e-01 -1.466564178466796875e+00 2.987096071243286133e+00 -6.662850379943847656e-01 -3.969620466232299805e+00 1.849417924880981445e+00 -8.837308883666992188e-01 1.176623821258544922e+00 -3.554773569107055664e+00 -1.388313531875610352e+00
1.124680995941162109e+00 -9.805445075035095215e-01 1.653397083282470703e+00 1.096080780029296875e+00 -2.114082813262939453e+00 2.157932043075561523e+00 6.922236084938049316e-01 2.952394723892211914e+00 6.533737182617187500e-01 6.329407095909118652e-01 -9.086570739746093750e-01 -8.305096626281738281e-02 -1.752607107162475586e+00 2.719158172607421875e+00 -2.049394607543945312e+00 -1.125209450721740723e+00 -1.865190148353576660e+00 3.942787349224090576e-01 -3.211915731430053711e+00 1.587756633758544922e+00 -4.794328689575195312e+00 -2.920946836471557617e+00 3.583180189132690430e+00 7.150997519493103027e-01 -1.701367497444152832e+00 -8.084611296653747559e-01 -2.777058839797973633e+00
8.579243421554565430e-01 1.222407221794128418e+00 -2.660428047180175781e+00 4.075886011123657227e-01 -1.727545142173767090e+00 9.467269182205200195e-01 7.970340847969055176e-01 -5.922582149505615234e-01 2.717243432998657227e+00 2.492753028869628906e+00 -1.834081530570983887e+00 -6.682934612035751343e-02 -2.020617008209228516e+00 1.272870540618896484e+00 -1.843840956687927246e+00 -1.724446415901184082e+00 2.618711233139038086e+00 4.878347516059875488e-01 -2.723363399505615234e+00 7.324404716491699219e-01 -2.769498348236083984e+00 -4.641526222229003906e+00 1.585740685462951660e+00 -1.567983984947204590e+00 -2.436082601547241211e+00 3.331177711486816406e+00 -2.372881650924682617e+00
-7.924502491950988770e-01 1.087195515632629395e+00 7.260411381721496582e-01 -9.449947476387023926e-01 -1.274870753288269043e+00 -1.537842392921447754e+00 6.414605379104614258e-01 1.256026387214660645e+00 -1.002748012542724609e+00 9.102721810340881348e-01 9.154608845710754395e-01 -1.026544928550720215e+00 -2.202982187271118164e+00 2.685451507568359375e+00 -2.763157367706298828e+00 -2.078846931457519531e+00 3.820746541023254395e-01 2.921525239944458008e+00 1.379530191421508789e+00 -5.712265372276306152e-01 -3.421374559402465820e+00 -3.279267549514770508e+00 3.360225915908813477e+00 -2.284992694854736328e+00 -3.140849590301513672e+00 2.724916219711303711e+00 -1.712803244590759277e+00
5.672613382339477539e-01 1.542439818382263184e+00 -3.879818201065063477e+00 1.142418503761291504e+00 -2.153755426406860352e+00 -1.586797237396240234e+00 1.292057186365127563e-01 -1.436869740486145020e+00 -1.631390571594238281e+00 1.495545625686645508e+00 -2.040756464004516602e+00 -6.989362239837646484e-01 -2.829257965087890625e+00 2.045489072799682617e+00 9.200990796089172363e-01 -3.442048549652099609e+00 -3.832697868347167969e+00 1.921231031417846680e+00 -9.911541938781738281e-01 6.295478343963623047e-01 -1.464346289634704590e+00 -1.889076471328735352e+00 7.532691955566406250e-01 3.197595119476318359e+00 1.673490047454833984e+00 6.388643383979797363e-01 1.489687561988830566e+00
-6.631033420562744141e-01 -1.149739980697631836e+00 5.679913759231567383e-01 1.006014272570610046e-01 -2.725291967391967773e+00 1.827136158943176270e+00 1.046432495117187500e+00 -6.856756210327148438e-01 8.284674286842346191e-01 -2.703448534011840820e+00 -4.219917356967926025e-01 1.656506419181823730e+00 -6.837040781974792480e-01 2.347300052642822266e+00 -1.465161323547363281e+00 3.094754695892333984e+00 2.288675546646118164e+00 -1.523584842681884766e+00 -1.938641428947448730e+00 1.547994613647460938e+00 -2.661353588104248047e+00 -2.713058233261108398e+00 6.369175314903259277e-01 -1.871249824762344360e-01 -2.492170095443725586e+00 -6.823980808258056641e-01 -1.811100006103515625e+00
2.317350149154663086e+00 1.913708746433258057e-01 1.034708380699157715e+00 8.366629481315612793e-01 -1.394951343536376953e+00 -4.548578262329101562e+00 -2.149400949478149414e+00 -6.105937957763671875e-01 1.596470355987548828e+00 1.051011085510253906e+00 -3.515169858932495117e+00 1.156094551086425781e+00 -1.819375514984130859e+00 -6.868212819099426270e-01 1.300940632820129395e+00 -3.336462378501892090e-01 5.143807828426361084e-02 2.027318000793457031e+00 1.493428230285644531e+00 2.829867005348205566e-01 -2.983850717544555664e+00 -2.315275907516479492e+00 -1.238344550132751465e+00 -2.327661991119384766e+00 -1.489103317260742188e+00 1.467595815658569336e+00 -3.269822001457214355e-01
3.769061803817749023e+00 1.980787634849548340e+00 -2.267742156982421875e+00 -2.150377482175827026e-01 -3.641481161117553711e+00 1.575957059860229492e+00 -5.138953328132629395e-01 -3.341355085372924805e+00 1.158822327852249146e-01 -1.573387861251831055e+00 -2.600213766098022461e+00 -1.018573641777038574e+00 -3.970176458358764648e+00 3.841627597808837891e+00 1.094433665275573730e+00 -1.285919845104217529e-01 1.472298026084899902e+00 1.010266780853271484e+00 -4.758810520172119141e+00 7.188701033592224121e-01 -4.064079284667968750e+00 -1.881896615028381348e+00 8.144036680459976196e-02 3.959296047687530518e-01 3.038810491561889648e-01 1.505137324333190918e+00 2.507136344909667969e+00
-2.345909625291824341e-01 1.249089002609252930e+00 -1.107670441269874573e-01 3.135921716690063477e+00 -1.357834219932556152e+00 2.138672828674316406e+00 -8.569759130477905273e-01 -1.687361359596252441e+00 -2.805305004119873047e+00 1.860613524913787842e-01 -2.539807558059692383e+00 5.907198190689086914e-01 -2.654722452163696289e+00 2.527024984359741211e+00 4.387140870094299316e-01 -2.539907693862915039e+00 -1.795282006263732910e+00 -1.677077710628509521e-01 6.439534425735473633e-01 2.646237373352050781e+00 -3.983125209808349609e+00 4.423160254955291748e-01 4.350102841854095459e-01 1.460425972938537598e+00 -2.779731988906860352e+00 -1.269619584083557129e+00 -1.270561099052429199e+00
4.521981716156005859e+00 -1.315667629241943359e+00 -2.353809177875518799e-01 1.391812205314636230e+00 -9.531148672103881836e-01 -2.237554550170898438e+00 -1.439618229866027832e+00 -6.335858106613159180e-01 -1.117174327373504639e-01 3.052195549011230469e+00 9.863480180501937866e-02 8.041902780532836914e-01 -3.344755649566650391e+00 -3.310354053974151611e-01 -4.420183971524238586e-02 -1.748490095138549805e+00 5.061194300651550293e-01 2.360292911529541016e+00 7.495577931404113770e-01 -1.334914445877075195e+00 -3.770785093307495117e+00 -3.900725364685058594e+00 7.625933885574340820e-01 -1.733981490135192871e+00 -2.843076467514038086e+00 4.305697977542877197e-01 1.999751448631286621e+00
7.643405199050903320e-01 9.723260402679443359e-01 -1.833000898361206055e+00 2.453241109848022461e+00 -3.203948974609375000e+00 -1.044305205345153809e+00 1.056061625480651855e+00 9.833870530128479004e-01 1.049120545387268066e+00 -1.275106787681579590e+00 -4.670099258422851562e+00 -5.620829463005065918e-01 -1.471360445022583008e+00 -2.228060722351074219e+00 -3.277983069419860840e-01 5.527035593986511230e-01 3.148680686950683594e+00 -1.735795378684997559e+00 -2.876631259918212891e+00 3.373020648956298828e+00 -1.418023109436035156e+00 -2.658644437789916992e+00 -6.689240932464599609e-01 1.515560507774353027e+00 -2.884460449218750000e+00 1.231356501579284668e+00 2.400334358215332031e+00
3.911925554275512695e-01 2.070193529129028320e+00 1.482431650161743164e+00 1.474825143814086914e-01 -2.168840169906616211e+00 -2.351035356521606445e+00 -4.563058614730834961e-01 1.250730037689208984e+00 2.511031389236450195e+00 -6.197951436042785645e-01 -2.781763553619384766e+00 2.591653764247894287e-01 -5.970648303627967834e-02 7.792066037654876709e-02 1.845331788063049316e+00 1.695905178785324097e-01 -3.219833850860595703e+00 -3.238754272460937500e+00 -1.773970842361450195e+00 1.378546833992004395e+00 -1.764669418334960938e+00 -3.065928459167480469e+00 2.209439754486083984e+00 1.646666407585144043e+00 -5.770056247711181641e-01 -1.972730278968811035e+00 -2.233507871627807617e+00
2.110122442245483398e+00 1.929521262645721436e-01 -4.918172359466552734e+00 3.226869106292724609e+00 -9.353351593017578125e-01 -1.839629411697387695e+00 -1.266389012336730957e+00 -2.023758143186569214e-01 1.739153981208801270e+00 2.294341802597045898e+00 -1.040730834007263184e+00 8.632383346557617188e-01 -1.722066402435302734e+00 1.460809707641601562e+00 1.428949236869812012e+00 -2.189689636230468750e+00 -2.680383920669555664e+00 5.614913105964660645e-01 -1.746990680694580078e+00 1.374908447265625000e+00 -2.130849838256835938e+00 -3.188974380493164062e+00 -2.929840795695781708e-02 1.525243520736694336e+00 5.243930220603942871e-01 3.859044313430786133e-01 -3.854270935058593750e+00
-8.381210267543792725e-02 -2.313100814819335938e+00 -2.357152700424194336e+00 2.710148096084594727e+00 -2.263168245553970337e-01 2.295030355453491211e+00 -2.010874748229980469e+00 -7.542573846876621246e-03 -3.173268556594848633e+00 1.299027085304260254e+00 -1.799262762069702148e+00 1.886811852455139160e+00 -3.703730106353759766e+00 2.307110786437988281e+00 1.482084870338439941e+00 1.002753600478172302e-01 7.749049663543701172e-01 1.596908330917358398e+00 -1.520994544029235840e+00 1.512668281793594360e-01 -2.425412893295288086e+00 -4.067029356956481934e-01 -2.400892496109008789e+00 6.509948968887329102e-01 -1.129299283027648926e+00 5.326899290084838867e-01 -2.798867225646972656e+00
-7.733358740806579590e-01 3.835387229919433594e+00 -2.215462684631347656e+00 -3.419533967971801758e-01 -3.099760055541992188e+00 -3.563659429550170898e+00 -7.980239391326904297e-01 8.786841630935668945e-01 2.207697868347167969e+00 -8.766324520111083984e-01 -6.445683836936950684e-01 -1.383472204208374023e+00 5.746057033538818359e-01 -1.960360765457153320e+00 -4.886372387409210205e-01 -3.163783550262451172e-01 -2.908829689025878906e+00 3.323546648025512695e-01 1.754999637603759766e+00 2.381786704063415527e-02 -1.790746212005615234e+00 -3.013205051422119141e+00 3.967441320419311523e+00 7.864549756050109863e-01 -1.182966947555541992e+00 2.720283269882202148e+00 -6.639242768287658691e-01
1.852294564247131348e+00 -1.113463997840881348e+00 1.821789592504501343e-01 -6.360561586916446686e-03 -4.152998924255371094e+00 -9.512276202440261841e-02 -1.534773111343383789e+00 3.013684272766113281e+00 -6.936783343553543091e-02 -1.774780392646789551e+00 -3.489232540130615234e+00 2.306684970855712891e+00 -1.719939827919006348e+00 -2.000923305749893188e-01 -1.981786489486694336e+00 -2.921636104583740234e-01 -3.924695849418640137e-01 -4.266358017921447754e-01 1.875432491302490234e+00 7.915427684783935547e-01 -2.413056373596191406e+00 -3.061476707458496094e+00 2.488757133483886719e+00 6.395888328552246094e-01 5.941827893257141113e-01 -2.644756317138671875e+00 1.111554384231567383e+00
2.936296463012695312e+00 -2.001018047332763672e+00 1.982792764902114868e-01 3.146816253662109375e+00 -3.280235767364501953e+00 9.817792475223541260e-02 -2.478576660156250000e+00 9.307577013969421387e-01 -4.628933072090148926e-01 -4.306426644325256348e-01 -1.753012895584106445e+00 -1.691744685173034668e+00 -1.129788398742675781e+00 9.938260912895202637e-01 -7.246293872594833374e-02 6.349872946739196777e-01 -3.437821388244628906e+00 4.055137634277343750e+00 -2.846061944961547852e+00 3.762895107269287109e+00 -1.052248835563659668e+00 -2.370505094528198242e+00 -7.042075395584106445e-01 -9.221437573432922363e-01 -8.955159783363342285e-01 2.391862869262695312e+00 -3.539070129394531250e+00
-1.921315193176269531e-01 9.326488375663757324e-01 1.711347818374633789e+00 3.324256181716918945e+00 -1.778573155403137207e+00 -3.199952125549316406e+00 4.600896239280700684e-01 1.720898747444152832e+00 -9.939120411872863770e-01 -2.882018566131591797e+00 -3.123306512832641602e+00 -1.939753055572509766e+00 8.857384324073791504e-01 -7.670794129371643066e-01 8.381565809249877930e-01 5.937853455543518066e-01 -4.039676666259765625e+00 3.110864877700805664e+00 -6.504011154174804688e-01 1.474946737289428711e-01 -2.329776287078857422e+00 -3.445129632949829102e+00 1.219685673713684082e+00 2.006062746047973633e+00 -2.134887456893920898e+00 8.791081905364990234e-01 -9.807118177413940430e-01
1.954761981964111328e+00 1.360246419906616211e+00 1.385684370994567871e+00 2.005528926849365234e+00 -3.519618988037109375e+00 -1.692893505096435547e+00 -2.477655649185180664e+00 -2.946413278579711914e+00 1.197726011276245117e+00 -1.098019242286682129e+00 -1.523362994194030762e+00 -1.612038612365722656e+00 -2.578281238675117493e-02 -1.924520492553710938e+00 -2.964816331863403320e+00 2.395551681518554688e+00 -1.826459050178527832e+00 1.482788845896720886e-02 2.209831953048706055e+00 -2.847046613693237305e+00 -2.477802038192749023e+00 2.339723110198974609e+00 -1.649102330207824707e+00 6.053726077079772949e-01 -1.120913743972778320e+00 3.043124675750732422e+00 8.912728428840637207e-01
-1.361484646797180176e+00 9.398234486579895020e-01 2.797796487808227539e+00 1.179472357034683228e-01 -2.936536967754364014e-01 -1.744960904121398926e+00 -2.093737602233886719e+00 -3.211769342422485352e+00 -6.731986999511718750e-01 1.668760061264038086e+00 1.287521123886108398e+00 -2.093113422393798828e+00 -3.850247263908386230e-01 -2.038713216781616211e+00 1.939953446388244629e+00 1.898452281951904297e+00 7.057858109474182129e-01 2.412625355646014214e-03 1.304208636283874512e-01 -1.475422263145446777e+00 1.657707214355468750e+00 4.030952453613281250e-01 -1.182692050933837891e+00 -3.065343201160430908e-01 -4.066515862941741943e-01 -4.019445419311523438e+00 -1.622725129127502441e+00
-1.006831750273704529e-01 2.227906703948974609e+00 -1.658281832933425903e-01 -4.029582500457763672e+00 -1.032050013542175293e+00 1.878838419914245605e+00 -4.609333515167236328e+00 1.597782731056213379e+00 -7.851464152336120605e-01 3.500762939453125000e+00 -1.926920413970947266e-01 -2.158744812011718750e+00 1.393480420112609863e+00 -1.285126686096191406e+00 -2.778074979782104492e+00 1.550867795944213867e+00 -1.717724680900573730e+00 -3.054313659667968750e+00 3.383875489234924316e-01 -2.138564825057983398e+00 -2.166614294052124023e+00 2.761017560958862305e+00 7.478767037391662598e-01 -2.071489334106445312e+00 1.576175451278686523e+00 -2.257009267807006836e+00 2.017532825469970703e+00
3.438420295715332031e-01 -5.211271047592163086e-01 5.186138153076171875e-01 2.568132877349853516e+00 -2.987446486949920654e-01 -2.413679122924804688e+00 -1.939171910285949707e+00 -2.715355396270751953e+00 3.224919795989990234e+00 8.723720312118530273e-01 -1.825212478637695312e+00 -1.965969324111938477e+00 3.370505332946777344e+00 7.360467314720153809e-01 1.486468434333801270e+00 2.146017074584960938e+00 -2.706215143203735352e+00 -4.571724236011505127e-01 -1.069525718688964844e+00 -6.754279136657714844e-01 -2.943938255310058594e+00 2.032058000564575195e+00 -4.514931201934814453e+00 -2.273455381393432617e+00 1.088462829589843750e+00 -2.209432363510131836e+00 5.225571617484092712e-02
-2.148977071046829224e-01 2.261890649795532227e+00 1.635378003120422363e+00 8.422200679779052734e-01 -2.125654935836791992e+00 3.218841254711151123e-01 -3.512966632843017578e+00 -3.195780038833618164e+00 -3.963585138320922852e+00 2.653450965881347656e+00 -1.728739857673645020e+00 -1.719079017639160156e+00 -4.434183537960052490e-01 -2.199111461639404297e+00 -1.112462282180786133e+00 4.093352317810058594e+00 4.098361134529113770e-01 -3.998618602752685547e+00 1.078334927558898926e+00 -7.318116426467895508e-01 1.949261069297790527e+00 4.700949490070343018e-01 -1.184544205665588379e+00 1.231360435485839844e+00 1.088322520256042480e+00 -1.182499527931213379e+00 -1.421436548233032227e+00
-1.691222906112670898e+00 -4.329276978969573975e-01 -4.106551110744476318e-01 -2.552194118499755859e+00 -3.225473880767822266e+00 -1.044149637222290039e+00 -1.826869010925292969e+00 7.805950939655303955e-02 1.241460084915161133e+00 1.151891589164733887e+00 -4.528437614440917969e+00 2.347821444272994995e-01 2.583487033843994141e+00 -6.490535140037536621e-01 -1.571960926055908203e+00 3.223488092422485352e+00 3.752179741859436035e-01 -3.897269666194915771e-01 -3.535320997238159180e+00 8.142698407173156738e-01 -8.372758030891418457e-01 1.781690120697021484e+00 -4.432276189327239990e-01 1.031248807907104492e+00 2.282135486602783203e+00 -3.549971342086791992e+00 1.352150917053222656e+00
-5.818983912467956543e-01 -1.211036205291748047e+00 1.828004360198974609e+00 1.802206635475158691e-01 -3.044440746307373047e+00 2.259232699871063232e-01 -3.138648033142089844e+00 4.019059985876083374e-02 -4.823767244815826416e-01 2.182528227567672729e-01 -5.119158625602722168e-01 -3.285039424896240234e+00 -2.949066162109375000e-01 -3.329058647155761719e+00 -2.977308511734008789e+00 1.109058260917663574e+00 3.354441642761230469e+00 -2.578193187713623047e+00 2.956274986267089844e+00 3.410529196262359619e-01 -1.009094715118408203e+00 2.112455129623413086e+00 -4.201691448688507080e-01 -1.087306857109069824e+00 3.708533763885498047e+00 -3.037121772766113281e+00 -2.267200648784637451e-01
1.234670639038085938e+00 -3.713809013366699219e+00 2.101910591125488281e+00 1.063101887702941895e+00 -2.549816608428955078e+00 -1.771645784378051758e+00 -8.748182058334350586e-01 -2.219221115112304688e+00 2.430598497390747070e+00 4.565146446228027344e+00 -2.511658072471618652e-01 -3.132399082183837891e+00 8.344612121582031250e-01 -1.979734599590301514e-01 -2.495944976806640625e+00 -9.434117674827575684e-01 8.819668889045715332e-01 -1.460660934448242188e+00 -1.812132596969604492e-01 -5.139145374298095703e+00 1.038867712020874023e+00 2.158327102661132812e+00 9.352676868438720703e-01 -1.744895577430725098e+00 1.191484332084655762e+00 -2.575376987457275391e+00 2.275032043457031250e+00
-2.236032247543334961e+00 2.391223192214965820e+00 1.309433221817016602e+00 -1.282420396804809570e+00 -4.151616573333740234e+00 2.024490118026733398e+00 -9.603425860404968262e-01 -2.561999320983886719e+00 3.649440050125122070e+00 7.254191637039184570e-01 -1.602770239114761353e-01 -2.323962688446044922e+00 -6.856147646903991699e-01 3.070366084575653076e-01 2.092047452926635742e+00 2.481326013803482056e-01 1.783403903245925903e-01 -1.524365663528442383e+00 -2.196423292160034180e+00 -1.160113573074340820e+00 -4.321373939514160156e+00 2.630893468856811523e+00 -6.407901048660278320e-01 -1.143780350685119629e+00 1.235562443733215332e+00 -2.023967504501342773e+00 3.434323966503143311e-01
-4.452598094940185547e-01 3.543555140495300293e-01 1.646941304206848145e+00 -2.780088663101196289e+00 -2.481421232223510742e+00 2.187425613403320312e+00 -1.741974800825119019e-02 -1.781297683715820312e+00 2.879739761352539062e+00 -2.432451963424682617e+00 1.893281102180480957e+00 -3.256406068801879883e+00 6.680981516838073730e-01 -3.750693798065185547e+00 -1.587076187133789062e-01 -1.362584471702575684e+00 -2.063652753829956055e+00 -2.152263969182968140e-01 1.280486106872558594e+00 7.537841796875000000e-01 -1.124588966369628906e+00 2.829186439514160156e+00 8.314575552940368652e-01 -2.017755985260009766e+00 1.396811246871948242e+00 -1.578634738922119141e+00 -2.320293188095092773e+00
-1.853987336158752441e+00 -3.083016633987426758e+00 1.176960587501525879e+00 -1.118981480598449707e+00 -1.622311234474182129e+00 -3.442783594131469727e+00 -1.055908203125000000e+00 -2.060105085372924805e+00 4.840606451034545898e-01 -8.983805775642395020e-01 -1.089518666267395020e+00 -1.753990769386291504e+00 3.857943773269653320e+00 -1.304926574230194092e-01 -2.604209899902343750e+00 -5.360402464866638184e-01 3.787376403808593750e+00 -3.660792112350463867e-01 -1.495518237352371216e-01 -1.597985982894897461e+00 -1.425994038581848145e+00 1.800177216529846191e+00 9.350524544715881348e-01 -2.684026956558227539e+00 2.660696268081665039e+00 1.980419516563415527e+00 1.292176008224487305e+00
-1.666519343852996826e-01 2.905488491058349609e+00 5.638751983642578125e-01 -2.753086328506469727e+00 -3.085423707962036133e+00 1.896114833652973175e-02 -3.045706510543823242e+00 -3.365051507949829102e+00 -1.297845125198364258e+00 1.226769804954528809e+00 -1.610321283340454102e+00 -1.802456259727478027e+00 -2.478284835815429688e-01 -5.024616122245788574e-01 -1.236886620521545410e+00 3.218605279922485352e+00 -2.262140989303588867e+00 -1.606320738792419434e+00 1.618151664733886719e+00 -2.875317573547363281e+00 -6.732545495033264160e-01 3.540210962295532227e+00 1.483974337577819824e+00 2.531394958496093750e+00 -1.967130184173583984e+00 -3.128703683614730835e-02 2.363880395889282227e+00
-4.492093622684478760e-01 1.679554939270019531e+00 -2.045531988143920898e+00 -2.754773139953613281e+00 -4.084993839263916016e+00 -1.890444308519363403e-01 -1.353323936462402344e+00 -1.679569005966186523e+00 -1.644600033760070801e+00 1.201569676399230957e+00 2.048877716064453125e+00 -2.192517518997192383e+00 1.283870697021484375e+00 1.195051193237304688e+00 -6.719491481781005859e-01 4.568840861320495605e-01 -5.913911461830139160e-01 -2.790494680404663086e+00 -1.221504569053649902e+00 -4.443403184413909912e-01 -4.543265819549560547e+00 2.384220600128173828e+00 1.426866173744201660e+00 -1.322587847709655762e+00 8.696053028106689453e-01 2.648325204849243164e+00 2.493327140808105469e+00
1.605558633804321289e+00 2.658373594284057617e+00 3.188532590866088867e+00 -3.769178390502929688e-01 -2.440628767013549805e+00 -2.011860847473144531e+00 -1.996088147163391113e+00 -3.711887598037719727e-01 -2.153419494628906250e+00 4.846297204494476318e-01 1.998563766479492188e+00 -2.103755712509155273e+00 2.131166934967041016e+00 -8.609189391136169434e-01 -2.769378185272216797e+00 -1.855483204126358032e-01 -5.270453929901123047e+00 1.759893417358398438e+00 -1.138918399810791016e+00 -1.842161059379577637e+00 -1.750895619392395020e+00 2.706326007843017578e+00 -2.426431417465209961e+00 -2.219301700592041016e+00 -9.344787150621414185e-02 9.363696575164794922e-01 2.259301662445068359e+00
-5.113046988844871521e-02 -2.401804208755493164e+00 1.379927754402160645e+00 -1.106445431709289551e+00 -6.332790255546569824e-01 -1.838878035545349121e+00 -3.035977363586425781e+00 -2.041395187377929688e+00 2.761918604373931885e-01 1.449723958969116211e+00 -2.223316669464111328e+00 -1.608910679817199707e+00 2.571366071701049805e+00 -9.520432949066162109e-01 -2.786705255508422852e+00 3.019776105880737305e+00 -4.328525364398956299e-01 -5.322380065917968750e+00 1.745258808135986328e+00 -1.417673975229263306e-01 2.248272657394409180e+00 1.641681790351867676e+00 5.621975064277648926e-01 -1.687595367431640625e+00 -2.734348058700561523e+00 1.553540229797363281e+00 2.465580463409423828e+00
3.519936800003051758e+00 -3.779330849647521973e-01 8.458244204521179199e-01 -2.260825872421264648e+00 -2.676276445388793945e+00 -7.049721479415893555e-01 -2.904174089431762695e+00 -3.390789985656738281e+00 1.469928383827209473e+00 3.078947782516479492e+00 -1.263178110122680664e+00 -3.046124458312988281e+00 -8.976168185472488403e-02 8.168094158172607422e-01 9.408601522445678711e-01 1.813980221748352051e+00 -2.050292968750000000e+00 -5.980572104454040527e-01 -1.048682689666748047e+00 -3.054374217987060547e+00 4.734720289707183838e-01 1.677020668983459473e+00 -2.537472009658813477e+00 1.707568049430847168e+00 1.642288804054260254e+00 -3.420937299728393555e+00 -8.612973093986511230e-01
7.630303502082824707e-02 3.026972293853759766e+00 3.339483737945556641e+00 -2.276673555374145508e+00 -5.607063770294189453e-01 -7.279859185218811035e-01 -1.981713652610778809e+00 1.380657076835632324e+00 -1.100309133529663086e+00 7.182590365409851074e-01 1.444768905639648438e-01 -2.598487615585327148e+00 -1.624606370925903320e+00 -5.069308280944824219e-01 -4.769781112670898438e+00 4.761723875999450684e-01 1.248928904533386230e+00 5.912657976150512695e-01 -3.350119829177856445e+00 -3.070200681686401367e+00 -1.275485634803771973e+00 8.470336198806762695e-01 -1.510641336441040039e+00 -5.033621191978454590e-01 2.302654981613159180e+00 -1.856396198272705078e+00 1.950883269309997559e+00
-1.914083123207092285e+00 1.568859934806823730e+00 3.657567739486694336e+00 -3.254386425018310547e+00 -2.653606414794921875e+00 8.342026919126510620e-02 -2.438823461532592773e+00 -2.141856193542480469e+00 -2.665373980998992920e-01 -1.931363463401794434e+00 -4.533835947513580322e-01 -4.812174439430236816e-01 2.162976503372192383e+00 -1.713734030723571777e+00 -3.780145645141601562e+00 2.379522323608398438e+00 -1.620430946350097656e+00 9.583678841590881348e-01 -4.765671491622924805e-01 5.665370821952819824e-01 -6.472792029380798340e-01 1.478603482246398926e+00 -1.084532022476196289e+00 -3.169138431549072266e+00 2.097299098968505859e+00 2.476025342941284180e+00 -2.828780561685562134e-02
-1.424087047576904297e+00 4.074643850326538086e-01 -3.773086965084075928e-01 -1.041199803352355957e+00 -2.664648771286010742e+00 -3.843645572662353516e+00 -6.949065327644348145e-01 -4.213545322418212891e-01 -2.594926357269287109e+00 -7.577093243598937988e-01 5.634391903877258301e-01 -2.988808393478393555e+00 2.989303350448608398e+00 -1.777696371078491211e+00 1.840652823448181152e+00 1.563684582710266113e+00 6.885137557983398438e-01 3.819478154182434082e-01 7.166535258293151855e-01 8.521119952201843262e-01 -3.213755130767822266e+00 1.887121558189392090e+00 3.759407997131347656e-01 -9.143550992012023926e-01 4.354363679885864258e-01 -2.316514968872070312e+00 3.074783086776733398e+00
2.318081140518188477e+00 -6.164673566818237305e-01 -3.009923458099365234e+00 6.910848021507263184e-01 -1.430971741676330566e+00 -6.672462224960327148e-01 -2.889688730239868164e+00 -1.869857430458068848e+00 -1.434881687164306641e+00 2.142753601074218750e+00 -5.132027864456176758e-01 -1.890131235122680664e+00 1.863847017288208008e+00 -2.821504771709442139e-01 2.707913815975189209e-01 1.516003251075744629e+00 -2.408563196659088135e-01 -3.905704975128173828e+00 2.735542535781860352e+00 4.460618197917938232e-01 -2.186349868774414062e+00 2.598567247390747070e+00 -6.835090517997741699e-01 -3.595750331878662109e+00 4.948704838752746582e-01 3.904490768909454346e-01 -2.511945664882659912e-01
-3.031867027282714844e+00 7.262385487556457520e-01 -1.806721806526184082e+00 -1.367625713348388672e+00 8.468016982078552246e-01 -5.183374285697937012e-01 1.919884562492370605e+00 -3.923359215259552002e-01 8.832753896713256836e-01 1.152115941047668457e+00 2.781645298004150391e+00 1.009771347045898438e+00 -1.721109628677368164e+00 -2.274656772613525391e+00 -3.168543577194213867e-01 5.661228299140930176e-01 3.242672204971313477e+00 -5.050541400909423828e+00 -1.399264097213745117e+00 -2.369502305984497070e+00 -9.868088364601135254e-01 1.709458708763122559e+00 -2.223584175109863281e+00 3.065134525299072266e+00 -2.212317943572998047e+00 2.492552518844604492e+00 -3.962837219238281250e+00
-3.979025125503540039e+00 6.437005400657653809e-01 -2.408138990402221680e+00 8.199787139892578125e-02 1.406667947769165039e+00 -1.803514242172241211e+00 -1.590023756027221680e+00 6.432416439056396484e-01 8.461114168167114258e-01 -2.595125675201416016e+00 1.961015462875366211e+00 1.746588587760925293e+00 -1.524557590484619141e+00 -2.461903572082519531e+00 -1.490826487541198730e+00 -3.973241090774536133e+00 -7.707015424966812134e-02 -2.147990226745605469e+00 5.377551913261413574e-01 1.302242279052734375e+00 1.091263890266418457e+00 1.834202647209167480e+00 -1.542287707328796387e+00 2.749536991119384766e+00 3.436616621911525726e-03 2.933798789978027344e+00 -1.929828524589538574e+00
-5.235867023468017578e+00 -6.908898353576660156e-01 -1.006091356277465820e+00 -1.360941648483276367e+00 -1.120721250772476196e-01 -2.686630964279174805e+00 -3.149760484695434570e+00 3.758072853088378906e+00 -1.136155605316162109e+00 3.544474244117736816e-01 -2.296447992324829102e+00 2.963807582855224609e+00 -1.949344277381896973e+00 3.053736984729766846e-01 6.554254889488220215e-01 -6.108815670013427734e-01 2.588542461395263672e+00 2.714558124542236328e+00 -5.635150074958801270e-01 9.622092247009277344e-01 1.798358798027038574e+00 2.322086989879608154e-01 -1.752770185470581055e+00 4.621402919292449951e-01 -1.111429214477539062e+00 9.931890964508056641e-01 -2.834414958953857422e+00
-1.286389827728271484e+00 6.223323345184326172e-01 7.302605360746383667e-02 1.172783732414245605e+00 -1.068485081195831299e-01 -2.325684070587158203e+00 -2.378101348876953125e-01 7.879732847213745117e-01 3.332469761371612549e-01 1.533502817153930664e+00 2.204620838165283203e+00 1.557987213134765625e+00 6.792464256286621094e-01 -1.646682858467102051e+00 4.088798165321350098e-02 -3.446200370788574219e+00 -4.697231948375701904e-01 1.025759696960449219e+00 -1.756685614585876465e+00 -3.065072774887084961e+00 -2.802508592605590820e+00 -2.633582353591918945e+00 -2.366884946823120117e+00 2.558407545089721680e+00 1.488888144493103027e+00 -3.458625555038452148e+00 2.554311275482177734e+00
-2.632122278213500977e+00 3.687674645334482193e-03 -5.054011821746826172e+00 -1.584632754325866699e+00 -2.859397530555725098e-01 8.227410316467285156e-01 -2.833660602569580078e+00 2.858639478683471680e+00 2.953437089920043945e+00 -3.645808994770050049e-01 7.945768535137176514e-02 1.782819032669067383e+00 -1.208103179931640625e+00 -9.325981140136718750e-01 2.308392524719238281e+00 -2.250412702560424805e+00 -1.281780600547790527e+00 -1.650004982948303223e+00 -1.859374046325683594e+00 4.459511339664459229e-01 -1.182958722114562988e+00 2.816483974456787109e+00 -6.602825969457626343e-02 -9.741553068161010742e-01 1.900781035423278809e+00 5.683785080909729004e-01 -1.888094902038574219e+00
-1.365617513656616211e+00 -1.231875121593475342e-01 -1.849895834922790527e+00 1.224349260330200195e+00 -2.885901629924774170e-01 -2.943622589111328125e+00 3.706624984741210938e+00 -1.525800466537475586e+00 -2.079873800277709961e+00 2.983197450637817383e+00 2.421715736389160156e+00 4.377708733081817627e-01 -2.719756364822387695e-01 -2.796612262725830078e+00 -2.918688774108886719e+00 3.022141158580780029e-01 -7.771355565637350082e-03 -1.591694474220275879e+00 3.621083974838256836e+00 -2.277705669403076172e+00 -1.622880101203918457e+00 9.667697548866271973e-01 -9.284482002258300781e-01 1.092027187347412109e+00 -8.383548855781555176e-01 1.617465615272521973e+00 -3.221302509307861328e+00
-3.218926668167114258e+00 -7.707791030406951904e-02 -6.752746701240539551e-01 -1.726176738739013672e+00 -3.663986921310424805e-01 1.310203075408935547e+00 1.356308698654174805e+00 3.166337490081787109e+00 -4.640313237905502319e-02 7.002971768379211426e-01 2.132922649383544922e+00 1.072164893150329590e+00 4.426622092723846436e-01 5.831566452980041504e-01 -2.650394439697265625e+00 -6.512497663497924805e-01 -5.738413929939270020e-01 7.393104434013366699e-01 -1.968153715133666992e+00 -2.784042835235595703e+00 1.224347591400146484e+00 -1.486213922500610352e+00 -5.267125606536865234e+00 -2.903530597686767578e-01 3.186550378799438477e+00 -5.078166127204895020e-01 -3.224652290344238281e+00
-3.899499893188476562e+00 -3.426150798797607422e+00 -2.440580129623413086e+00 -1.981328129768371582e+00 1.665742754936218262e+00 1.538008451461791992e+00 -2.117924213409423828e+00 -8.815898895263671875e-01 -2.063618451356887817e-01 1.254763007164001465e+00 8.686910867691040039e-01 -1.357460141181945801e+00 -1.720103144645690918e+00 -2.624266147613525391e+00 -3.771820366382598877e-01 6.835778951644897461e-01 2.373643875122070312e+00 2.535641908645629883e+00 -1.866057395935058594e+00 -1.861058950424194336e+00 -9.588163495063781738e-01 1.934631109237670898e+00 -1.755228996276855469e+00 1.675714254379272461e+00 2.233983993530273438e+00 2.907026767730712891e+00 -2.382158041000366211e+00
-2.093584775924682617e+00 1.849705696105957031e+00 -2.690318584442138672e+00 1.386316895484924316e+00 1.586050748825073242e+00 -2.873000502586364746e-01 -1.211117029190063477e+00 8.738409876823425293e-01 -1.050634980201721191e+00 -4.334149956703186035e-01 -2.793473482131958008e+00 2.878807067871093750e+00 6.675084829330444336e-01 -3.365571022033691406e+00 -1.294270992279052734e+00 1.488728046417236328e+00 2.456766605377197266e+00 -1.199872851371765137e+00 1.016770720481872559e+00 1.239911913871765137e-01 -8.115416765213012695e-01 1.189747452735900879e+00 -1.031566023826599121e+00 -1.677563548088073730e+00 -7.613264918327331543e-01 -3.456459522247314453e+00 -1.459621429443359375e+00
-4.013398647308349609e+00 -9.807290434837341309e-01 -4.013047695159912109e+00 2.680990993976593018e-01 -3.136274814605712891e-01 -7.906977534294128418e-01 -1.379702806472778320e+00 2.267467975616455078e+00 -2.589139461517333984e+00 7.213553786277770996e-01 1.626265168190002441e+00 2.953041076660156250e+00 -2.379137836396694183e-02 -4.821360588073730469e+00 -2.838101625442504883e+00 3.202847242355346680e+00 8.388047814369201660e-01 2.361434221267700195e+00 -5.519420504570007324e-01 9.794905781745910645e-02 2.159636467695236206e-01 1.342534661293029785e+00 9.240273833274841309e-01 5.027036666870117188e-01 -5.991606116294860840e-01 -3.455943584442138672e+00 1.726727038621902466e-01
-3.252137899398803711e+00 -1.456662863492965698e-01 -3.943447351455688477e+00 1.115815758705139160e+00 -9.906454086303710938e-01 -2.437583684921264648e+00 2.913173198699951172e+00 -3.461058139801025391e-01 -2.242439091205596924e-01 2.213056564331054688e+00 -1.794571161270141602e+00 9.521344304084777832e-01 3.061904609203338623e-01 -2.024570941925048828e+00 2.089111566543579102e+00 1.955257505178451538e-01 2.098665952682495117e+00 9.453209638595581055e-01 2.966544032096862793e-01 -1.914805650711059570e+00 -2.967045783996582031e+00 2.686064243316650391e+00 -2.909590244293212891e+00 1.387313961982727051e+00 -1.087471485137939453e+00 1.526713609695434570e+00 -2.986045598983764648e+00
-3.932362794876098633e+00 1.963710069656372070e+00 1.586416959762573242e-01 -1.213557600975036621e+00 3.976633846759796143e-01 -2.057710409164428711e+00 -1.363544106483459473e+00 9.799656271934509277e-01 2.245364636182785034e-01 -2.816394269466400146e-01 2.790660560131072998e-01 1.198800951242446899e-01 -2.590640068054199219e+00 1.968968063592910767e-01 -1.169674515724182129e+00 -2.459204912185668945e+00 1.084179759025573730e+00 4.072662830352783203e+00 -4.100751399993896484e+00 -1.635372042655944824e+00 1.772457480430603027e+00 -2.314306735992431641e+00 -1.529065012931823730e+00 3.007614374160766602e+00 1.382602691650390625e+00 1.628994822502136230e+00 -2.080585479736328125e+00
-3.554530382156372070e+00 -3.582643985748291016e+00 -5.900802612304687500e-01 1.315418958663940430e+00 -1.582872122526168823e-01 -4.537006855010986328e+00 1.428403496742248535e+00 2.607265114784240723e-01 -9.206998348236083984e-01 -1.031657934188842773e+00 1.105475187301635742e+00 3.851490974426269531e+00 1.869072198867797852e+00 -2.144780635833740234e+00 2.073842734098434448e-01 -4.496133804321289062e+00 -5.917066335678100586e-02 -1.251221537590026855e+00 9.556250572204589844e-01 -1.685266017913818359e+00 3.480744659900665283e-01 -1.276553869247436523e+00 -2.659213244915008545e-01 2.988638877868652344e+00 1.147797346115112305e+00 1.396575689315795898e+00 -2.856990098953247070e-01
-2.833689928054809570e+00 -2.743897914886474609e+00 -1.231594920158386230e+00 6.912772655487060547e-01 2.454058408737182617e+00 -5.435725450515747070e-01 -3.257659375667572021e-01 1.040737509727478027e+00 -5.497369766235351562e+00 2.060581207275390625e+00 1.436318635940551758e+00 1.431902289390563965e+00 -1.591645836830139160e+00 -6.490648388862609863e-01 -8.119193464517593384e-02 1.439612746238708496e+00 3.589549064636230469e+00 -2.982749938964843750e+00 -1.082271561026573181e-01 -8.472375273704528809e-01 5.728536248207092285e-01 -2.222616910934448242e+00 -1.802822232246398926e+00 5.435433387756347656e-01 -1.850318074226379395e+00 1.630914211273193359e-01 -1.089922666549682617e+00
-3.770503759384155273e+00 2.064569234848022461e+00 -1.545718610286712646e-01 9.808561801910400391e-01 4.184551715850830078e+00 4.339394867420196533e-01 -1.893583893775939941e+00 9.239150285720825195e-01 -1.146594643592834473e+00 1.272060632705688477e+00 1.282925486564636230e+00 1.189266443252563477e+00 -2.183807134628295898e+00 -3.215747117996215820e+00 -2.940310478210449219e+00 -1.591788172721862793e+00 1.396639943122863770e+00 1.865290284156799316e+00 -1.676471352577209473e+00 -1.066712260246276855e+00 -1.886081457138061523e+00 -1.464012145996093750e+00 -2.023742198944091797e+00 2.900263786315917969e+00 -8.379265069961547852e-01 -2.476005792617797852e+00 -1.552547365427017212e-01
-3.696916818618774414e+00 -2.049353122711181641e+00 -2.307156324386596680e+00 -3.631047725677490234e+00 -3.264248967170715332e-01 -4.719507396221160889e-01 -2.467286348342895508e+00 1.735442876815795898e+00 1.020818710327148438e+00 2.100798130035400391e+00 3.317736387252807617e+00 4.172493457794189453e+00 1.669668078422546387e+00 1.164437651634216309e+00 -8.734621852636337280e-02 8.851768970489501953e-01 1.493228554725646973e+00 -2.763175249099731445e+00 -3.276954889297485352e+00 -2.130763530731201172e+00 -4.493308365345001221e-01 -7.599021792411804199e-01 1.978501439094543457e+00 3.009053170680999756e-01 3.085099458694458008e-01 -4.399015605449676514e-01 -3.600886583328247070e+00
-1.233756184577941895e+00 -3.357596695423126221e-01 1.031536221504211426e+00 -1.575149297714233398e+00 1.497671127319335938e+00 -2.420423030853271484e+00 5.746735334396362305e-01 8.896921873092651367e-01 -1.638352274894714355e+00 1.911271333694458008e+00 4.368443191051483154e-01 1.021843910217285156e+00 3.408942222595214844e+00 -1.401086330413818359e+00 5.936953425407409668e-01 -1.676155328750610352e+00 2.934381484985351562e+00 -2.256117820739746094e+00 -3.514819622039794922e+00 -1.825832843780517578e+00 -3.564545214176177979e-01 -3.594196796417236328e+00 1.433481335639953613e+00 1.692024350166320801e+00 -5.711606144905090332e-02 1.225439310073852539e+00 -5.833403587341308594e+00
-4.356597423553466797e+00 -1.930646747350692749e-01 -3.092403888702392578e+00 1.048631906509399414e+00 1.619638800621032715e+00 1.031096279621124268e-01 5.520873665809631348e-01 -5.107697844505310059e-01 -2.206908464431762695e+00 -1.934270977973937988e+00 -4.535164833068847656e-01 2.104426383972167969e+00 1.801575303077697754e+00 -3.088676214218139648e+00 -3.497104406356811523e+00 2.559293031692504883e+00 3.321590185165405273e+00 1.308998703956604004e+00 -3.333728075027465820e+00 -4.172492325305938721e-01 6.066561117768287659e-02 -3.876704692840576172e+00 -8.038876652717590332e-01 2.020691394805908203e+00 2.193653345108032227e+00 1.866959571838378906e+00 -8.359398245811462402e-01
-3.654526710510253906e+00 -3.398405313491821289e-01 -2.739264011383056641e+00 2.718597173690795898e+00 -3.810638189315795898e-01 -1.411285042762756348e+00 -2.060272455215454102e+00 -5.440436601638793945e-01 -6.956909298896789551e-01 -1.351061582565307617e+00 2.154582500457763672e+00 -3.677537441253662109e-01 -2.447041511535644531e+00 -3.586703062057495117e+00 2.548407316207885742e+00 5.136068463325500488e-01 -3.464286923408508301e-01 -1.268499851226806641e+00 -3.736886024475097656e+00 2.853041589260101318e-01 2.383454799652099609e+00 -1.498082995414733887e+00 -1.449821591377258301e+00 4.056402683258056641e+00 1.960940241813659668e+00 7.981812953948974609e-01 3.811378777027130127e-01
-4.659543514251708984e+00 -5.792194008827209473e-01 7.809811234474182129e-01 -1.111471295356750488e+00 6.209425255656242371e-02 -3.656362295150756836e+00 -2.492410421371459961e+00 2.903093814849853516e+00 -3.037807703018188477e+00 2.543242692947387695e+00 4.574541449546813965e-01 1.825451493263244629e+00 -1.380275487899780273e+00 -4.881249666213989258e-01 2.985711812973022461e+00 -9.916513562202453613e-01 5.877901911735534668e-01 -1.765134096145629883e+00 1.556822896003723145e+00 -8.907750248908996582e-01 -6.705821752548217773e-01 1.250647187232971191e+00 -8.660345077514648438e-01 1.582748413085937500e+00 -2.128383159637451172e+00 -1.610020518302917480e+00 4.847472906112670898e-01
2.809787273406982422e+00 -5.371515750885009766e+00 -2.760017633438110352e+00 -2.990371584892272949e-01 -1.750185489654541016e-01 1.091030359268188477e+00 2.076283216476440430e+00 1.409203886985778809e+00 -7.307765483856201172e-01 -3.009364366531372070e+00 1.583783507347106934e+00 -2.355588197708129883e+00 2.425769902765750885e-02 -1.117689728736877441e+00 -1.626575112342834473e+00 -1.856937646865844727e+00 -3.012937545776367188e+00 1.724909782409667969e+00 4.191907644271850586e-01 -1.025893330574035645e+00 2.027693510055541992e+00 3.765367269515991211e+00 1.214210391044616699e+00 -1.016395807266235352e+00 -1.357781171798706055e+00 -1.711151003837585449e+00 1.058588102459907532e-01
2.258382320404052734e+00 -3.534391820430755615e-01 -5.070937871932983398e-01 -4.145199298858642578e+00 -1.446313261985778809e+00 -1.236149907112121582e+00 -5.276714563369750977e-01 -3.214614868164062500e+00 -8.328434228897094727e-01 2.239943265914916992e+00 2.123622655868530273e+00 4.689160287380218506e-01 -4.332377910614013672e+00 9.978002905845642090e-01 1.236986398696899414e+00 -1.856237053871154785e+00 -1.527012228965759277e+00 1.453610062599182129e+00 -1.002231717109680176e+00 1.549454927444458008e+00 3.983025074005126953e+00 2.311348915100097656e+00 1.260562181472778320e+00 -2.333090782165527344e+00 -3.155555248260498047e+00 -2.651448488235473633e+00 1.775675825774669647e-02
1.978723764419555664e+00 -2.016415119171142578e+00 -1.587346792221069336e+00 6.795000433921813965e-01 -1.069250822067260742e+00 3.048903495073318481e-02 7.154356241226196289e-01 1.725457668304443359e+00 1.427874207496643066e+00 -3.516572237014770508e+00 -7.606334090232849121e-01 -4.686496555805206299e-01 -1.824497938156127930e+00 -1.722061157226562500e+00 2.901556730270385742e+00 6.635999679565429688e-01 5.793079137802124023e-01 -1.358817219734191895e+00 1.084809154272079468e-01 1.049746632575988770e+00 1.308607339859008789e+00 3.542255878448486328e+00 -1.796490550041198730e-01 -9.865936636924743652e-01 -5.473514556884765625e+00 -3.167773246765136719e+00 -1.742703318595886230e+00
1.941281795501708984e+00 -2.381574064493179321e-01 1.674410551786422729e-01 -5.942875146865844727e-01 8.777925968170166016e-01 -3.559253215789794922e+00 2.572688817977905273e+00 -1.007297158241271973e+00 -1.665907204151153564e-01 -1.876892149448394775e-01 1.788546204566955566e+00 -7.977231740951538086e-01 -4.799302220344543457e-01 -1.518994212150573730e+00 2.664080858230590820e-01 1.114603757858276367e+00 1.630640745162963867e+00 -8.056567311286926270e-01 -8.303556591272354126e-02 1.780958175659179688e+00 -1.187756061553955078e-01 -3.120563745498657227e+00 -1.544296383857727051e+00 -1.691014289855957031e+00 -2.317232608795166016e+00 -2.085536003112792969e+00 -1.699157238006591797e+00
2.071717828512191772e-01 -1.512688398361206055e-01 8.576125651597976685e-02 -1.995100259780883789e+00 3.438178539276123047e+00 -3.437593221664428711e+00 4.344834089279174805e-01 -6.856034398078918457e-01 -8.072500824928283691e-01 -8.890853524208068848e-01 9.046527147293090820e-01 1.710627794265747070e+00 -3.354555368423461914e+00 -3.316754579544067383e+00 -1.860126733779907227e+00 5.486763119697570801e-01 -9.635549783706665039e-01 -7.295195460319519043e-01 -2.244150638580322266e+00 9.295214414596557617e-01 2.342532396316528320e+00 3.007267713546752930e-01 3.127074956893920898e+00 -4.070642948150634766e+00 1.515375494956970215e+00 -6.959384083747863770e-01 7.054793089628219604e-02
3.232974052429199219e+00 -2.462476015090942383e+00 -2.381010532379150391e+00 -6.410127282142639160e-01 -1.404864788055419922e-01 -5.916801095008850098e-01 3.259033203125000000e+00 -4.567184671759605408e-02 -1.274480581283569336e+00 -7.734282612800598145e-01 7.988936305046081543e-01 1.096831187605857849e-01 -1.537379741668701172e+00 -4.569756031036376953e+00 1.311475634574890137e+00 1.767431735992431641e+00 -1.293169260025024414e+00 3.008376598358154297e+00 -1.360884904861450195e+00 3.627741336822509766e+00 -5.079711675643920898e-01 -1.781757831573486328e+00 1.060047388076782227e+00 -3.822499752044677734e+00 -2.307224035263061523e+00 -1.591711640357971191e+00 -5.085098147392272949e-01
1.027742862701416016e+00 -1.085867404937744141e+00 5.133313536643981934e-01 6.584265828132629395e-01 7.412721514701843262e-01 -3.039178133010864258e+00 2.551556587219238281e+00 -1.668532371520996094e+00 7.757505774497985840e-01 -1.578588366508483887e+00 9.987806677818298340e-01 2.234703302383422852e+00 -3.614979982376098633e+00 -1.937936305999755859e+00 1.506126999855041504e+00 2.419472932815551758e+00 -1.167942285537719727e-01 -1.755274772644042969e+00 -4.991875886917114258e-01 -8.378692865371704102e-01 -1.251269459724426270e+00 6.202159523963928223e-01 1.440709114074707031e+00 -1.057842969894409180e+00 -2.340850830078125000e+00 -1.927262783050537109e+00 -2.153951406478881836e+00
2.247904062271118164e+00 1.124331802129745483e-01 -3.108321726322174072e-01 -1.782302975654602051e+00 2.288924932479858398e+00 5.299652218818664551e-01 2.727776467800140381e-01 -2.126543998718261719e+00 -1.102219223976135254e+00 -3.445207118988037109e+00 1.301131397485733032e-01 -2.686939239501953125e+00 1.170236945152282715e+00 -1.235520243644714355e+00 3.169820070266723633e+00 -2.043868601322174072e-01 2.893003463745117188e+00 2.763959169387817383e-01 -1.725066423416137695e+00 1.431899070739746094e+00 9.607769846916198730e-01 -4.355251789093017578e-01 -5.198940634727478027e-02 -3.738584280014038086e+00 -5.619524478912353516e+00 -1.471113085746765137e+00 7.989523410797119141e-01
1.086851716041564941e+00 -7.139405012130737305e-01 9.592127203941345215e-01 -1.612819552421569824e+00 2.280491352081298828e+00 -1.669752836227416992e+00 2.968105554580688477e+00 2.143044710159301758e+00 1.909141898155212402e+00 -2.013573169708251953e+00 3.811845779418945312e-01 -3.310458183288574219e+00 -2.259498119354248047e+00 -1.303704857826232910e+00 2.148733615875244141e+00 -1.205710887908935547e+00 9.673490524291992188e-01 -3.003470420837402344e+00 -1.901093125343322754e+00 -1.810421109199523926e+00 1.513794541358947754e+00 9.565384984016418457e-01 1.360522389411926270e+00 -8.969796299934387207e-01 -4.626980304718017578e+00 -2.688126802444458008e+00 9.421493411064147949e-01
5.852116942405700684e-01 -5.183124542236328125e-01 -2.978510379791259766e+00 -9.720026254653930664e-01 2.562312602996826172e+00 1.729551315307617188e+00 2.893008470535278320e+00 6.711897999048233032e-02 -1.213185548782348633e+00 -7.019034624099731445e-01 3.273663759231567383e+00 1.859526187181472778e-01 -1.529426932334899902e+00 -5.854688644409179688e+00 -4.628878831863403320e-01 -1.833765625953674316e+00 -2.031412363052368164e+00 1.039090394973754883e+00 -3.669758558273315430e+00 1.701693534851074219e+00 -1.478453993797302246e+00 6.621780395507812500e-01 1.078510761260986328e+00 1.557531118392944336e+00 -3.508273363113403320e+00 -2.311493873596191406e+00 2.043179273605346680e+00
9.460853338241577148e-01 4.609189927577972412e-01 -2.988844633102416992e+00 -2.377976328134536743e-01 6.086136102676391602e-01 1.146656155586242676e+00 1.180704593658447266e+00 -1.531809329986572266e+00 -3.860159635543823242e+00 -2.422074377536773682e-01 3.398028612136840820e-01 6.161129474639892578e-01 -1.798684954643249512e+00 2.691564261913299561e-01 -2.456259965896606445e+00 -3.964128017425537109e+00 2.004034996032714844e+00 -3.321613371372222900e-01 -1.149546384811401367e+00 -1.099102854728698730e+00 1.687112808227539062e+00 3.020812749862670898e+00 2.592928171157836914e+00 -2.298081159591674805e+00 -1.537449359893798828e+00 -9.779676795005798340e-01 3.937744796276092529e-01
1.773684144020080566e+00 1.773591279983520508e+00 -1.153553247451782227e+00 1.014362573623657227e+00 2.535320043563842773e+00 -4.356768131256103516e-01 4.342127740383148193e-01 -2.918077230453491211e+00 -6.973090171813964844e-01 -3.595969200134277344e+00 -8.617615699768066406e-01 -2.275987625122070312e+00 5.068470835685729980e-01 -1.557632088661193848e+00 -4.874147176742553711e-01 -2.470302104949951172e+00 1.827113032341003418e+00 2.794700622558593750e+00 -4.369216442108154297e+00 1.380968451499938965e+00 2.429466247558593750e+00 1.305679202079772949e+00 -9.512383937835693359e-01 -3.391083717346191406e+00 -1.397520542144775391e+00 -1.691274404525756836e+00 -1.788628995418548584e-01
2.071422815322875977e+00 9.010400176048278809e-01 -1.982002258300781250e-01 -2.469176769256591797e+00 -2.509442567825317383e+00 -2.111520528793334961e+00 2.149037599563598633e+00 8.149760365486145020e-01 3.837731480598449707e-01 8.314155936241149902e-01 2.886931180953979492e+00 -5.054116249084472656e-01 -1.465372204780578613e+00 -2.709881544113159180e+00 -1.904559731483459473e+00 -3.198891162872314453e+00 9.347478747367858887e-01 -3.161096811294555664e+00 5.889447331428527832e-01 1.730013251304626465e+00 3.019512653350830078e+00 2.115965783596038818e-01 2.006659805774688721e-01 5.694108083844184875e-02 -2.980348110198974609e+00 -2.367269039154052734e+00 -1.060183763504028320e+00
3.225014448165893555e+00 2.400688409805297852e+00 -2.586991548538208008e+00 -1.329114794731140137e+00 1.686101108789443970e-01 -1.389642000198364258e+00 4.035406589508056641e+00 -4.422300338745117188e+00 9.562745094299316406e-01 -3.100386857986450195e+00 -3.239319026470184326e-01 1.633699059486389160e+00 -8.944119811058044434e-01 5.114872753620147705e-02 1.371181726455688477e+00 -2.157631158828735352e+00 5.497023463249206543e-01 -2.172017097473144531e+00 2.034825980663299561e-01 -1.599689602851867676e+00 1.607297062873840332e+00 -9.828281402587890625e-01 3.296990871429443359e+00 -3.151849746704101562e+00 -1.126037955284118652e+00 -9.442766308784484863e-01 -2.406745195388793945e+00
1.220201730728149414e+00 4.200788140296936035e-01 5.324580073356628418e-01 -3.149561643600463867e+00 1.118756890296936035e+00 2.639874219894409180e+00 -3.009991645812988281e-01 -1.528379082679748535e+00 1.030048653483390808e-01 -2.525099039077758789e+00 1.474612832069396973e+00 -1.322837948799133301e+00 -1.373135298490524292e-01 -1.351393818855285645e+00 2.634623527526855469e+00 -3.502693653106689453e+00 -1.901875257492065430e+00 -4.118162691593170166e-01 -2.825022459030151367e+00 1.321588039398193359e+00 1.061856985092163086e+00 1.396265625953674316e+00 1.866893291473388672e+00 9.999295473098754883e-01 -5.673660755157470703e+00 1.018130872398614883e-02 -1.497924923896789551e+00
1.769551634788513184e+00 -1.466133356094360352e+00 -1.172809600830078125e+00 9.324914813041687012e-01 -8.164854049682617188e-01 -4.287499785423278809e-01 1.819815278053283691e+00 1.829586148262023926e+00 1.093683838844299316e+00 -1.775827646255493164e+00 1.821223855018615723e+00 -1.822021842002868652e+00 -1.521033048629760742e+00 1.243525505065917969e+00 -4.810965955257415771e-01 -2.716945886611938477e+00 2.995360136032104492e+00 1.268279433250427246e+00 8.604260683059692383e-01 1.731759071350097656e+00 1.239046454429626465e-02 -2.490118294954299927e-01 -1.462728977203369141e+00 -6.259943842887878418e-01 -4.083633899688720703e+00 -4.172809123992919922e+00 -3.653326988220214844e+00
1.972311019897460938e+00 -4.807872772216796875e+00 1.963733732700347900e-01 9.808996319770812988e-01 1.300006628036499023e+00 -1.644697666168212891e+00 1.869080185890197754e+00 -3.706398963928222656e+00 1.125564575195312500e+00 -2.308686256408691406e+00 2.284542322158813477e+00 3.186598122119903564e-01 -1.410062313079833984e+00 -1.029081583023071289e+00 5.988219380378723145e-01 -3.976709246635437012e-01 -1.384642004966735840e+00 2.181866645812988281e+00 -3.345608711242675781e+00 -3.557157814502716064e-01 -1.142601609230041504e+00 2.348589658737182617e+00 8.199721574783325195e-01 -3.203897178173065186e-01 -1.904242277145385742e+00 -8.475846648216247559e-01 -1.948965072631835938e+00
1.555621027946472168e-01 -1.864765644073486328e+00 4.823886454105377197e-01 -3.437889099121093750e+00 2.407158136367797852e+00 6.400685906410217285e-01 -5.838580727577209473e-01 -5.393474698066711426e-01 6.872410178184509277e-01 -8.521704673767089844e-01 2.194973707199096680e+00 -1.682999372482299805e+00 -1.875385046005249023e+00 1.055337071418762207e+00 -3.258617639541625977e+00 -4.526009082794189453e+00 3.352584540843963623e-01 6.572972536087036133e-01 -1.408999204635620117e+00 3.082693815231323242e-01 1.162454128265380859e+00 4.203962802886962891e+00 3.805654346942901611e-01 -1.904271483421325684e+00 -3.995748460292816162e-01 -1.245796442031860352e+00 -1.177950501441955566e+00
1.816107749938964844e+00 4.752643108367919922e-01 -1.075955033302307129e+00 1.214588284492492676e-01 5.755802989006042480e-01 8.150726556777954102e-01 6.763087585568428040e-03 -4.456743597984313965e-01 -3.263603925704956055e+00 -1.039668798446655273e+00 -1.732347011566162109e-01 6.913489103317260742e-01 -2.763170897960662842e-01 -3.083477497100830078e+00 1.782220304012298584e-01 -1.374950885772705078e+00 -3.027293920516967773e+00 -5.816536545753479004e-01 2.208998352289199829e-01 8.040726780891418457e-01 4.139254570007324219e+00 -3.554120485205203295e-04 4.284204959869384766e+00 -4.795296192169189453e+00 3.181973397731781006e-01 -2.033079385757446289e+00 -1.282738685607910156e+00
1.052434802055358887e+00 7.336162030696868896e-02 1.088607311248779297e+00 -1.543680787086486816e+00 3.302044153213500977e+00 -9.785993099212646484e-01 1.150669574737548828e+00 -3.539381504058837891e+00 -4.057321250438690186e-01 -1.674595594406127930e+00 2.371216773986816406e+00 1.209303066134452820e-01 1.716786324977874756e-01 5.595631003379821777e-01 -3.506010532379150391e+00 -1.759504914283752441e+00 8.984305262565612793e-01 3.868857398629188538e-02 -8.228813409805297852e-01 3.240206241607666016e+00 -7.114680856466293335e-02 1.376825451850891113e+00 -1.238963365554809570e+00 -2.624302864074707031e+00 -1.541749596595764160e+00 -1.403318166732788086e+00 -4.188285827636718750e+00
1.300205945968627930e+00 9.614233374595642090e-01 3.149640560150146484e+00 3.754725158214569092e-01 2.609041213989257812e+00 -5.063230991363525391e-01 -1.069169044494628906e+00 6.342038512229919434e-01 3.779035806655883789e-02 -7.541358470916748047e-01 -3.281661748886108398e+00 -1.955234646797180176e+00 1.510957717895507812e+00 2.295015096664428711e+00 -6.939132213592529297e-01 -3.795215129852294922e+00 9.841251373291015625e-01 -1.090921282768249512e+00 3.403189659118652344e+00 -3.044717311859130859e+00 -2.897547006607055664e+00 -3.181047439575195312e+00 -2.103638648986816406e+00 -1.531625628471374512e+00 2.807736396789550781e+00 -3.068411588668823242e+00 -7.591124773025512695e-01
-2.979130029678344727e+00 -3.009980201721191406e+00 -3.259215354919433594e-01 2.074685543775558472e-01 1.153398230671882629e-01 3.566316366195678711e+00 -1.275483012199401855e+00 -1.402118921279907227e+00 5.241432189941406250e-01 -2.083759546279907227e+00 7.359438538551330566e-01 -1.557638406753540039e+00 -2.198697924613952637e-01 6.488033533096313477e-01 4.454405784606933594e+00 -1.011045694351196289e+00 -8.790182471275329590e-01 -2.576562881469726562e+00 1.631652712821960449e+00 -4.460795879364013672e+00 3.875354528427124023e+00 -1.861955165863037109e+00 -3.265001535415649414e+00 2.731297016143798828e+00 1.027542352676391602e+00 -2.024970769882202148e+00 8.939296603202819824e-01
8.303604125976562500e-01 -2.303600072860717773e+00 -1.701116800308227539e+00 -1.047853231430053711e+00 1.027887463569641113e+00 2.853282988071441650e-01 -2.048250287771224976e-01 1.006660819053649902e+00 -1.277949571609497070e+00 -3.681775808334350586e+00 -2.685038447380065918e-01 5.777946114540100098e-01 1.556260704994201660e+00 6.464416980743408203e-01 -4.678694605827331543e-01 -9.548867940902709961e-01 -2.228493213653564453e+00 -3.329197883605957031e+00 3.941737890243530273e+00 -1.190972208976745605e+00 -1.953087329864501953e+00 -2.132670164108276367e+00 -2.619462490081787109e+00 -2.848881721496582031e+00 1.823590874671936035e+00 4.420134067535400391e+00 2.394167900085449219e+00
5.556962490081787109e-01 -1.444316387176513672e+00 1.361826062202453613e-01 -1.048493504524230957e+00 6.916541457176208496e-01 4.017862319946289062e+00 -3.095992803573608398e+00 -1.254998326301574707e+00 -3.781907796859741211e+00 -3.481508970260620117e+00 1.251813292503356934e+00 -2.044713258743286133e+00 -7.417991161346435547e-01 -2.841266989707946777e-01 -1.114057525992393494e-01 2.425957918167114258e+00 -2.378455638885498047e+00 7.395069003105163574e-01 2.329720973968505859e+00 -2.957365274429321289e+00 6.146721243858337402e-01 -2.846766233444213867e+00 -1.021027684211730957e+00 1.374048590660095215e+00 -4.769301116466522217e-01 8.321311473846435547e-01 1.675184488296508789e+00
-1.678473472595214844e+00 3.731051832437515259e-02 -3.013491392135620117e+00 -4.218292981386184692e-02 -9.039049148559570312e-01 1.562166690826416016e+00 -5.371127128601074219e-01 -3.727813363075256348e-01 -8.208603262901306152e-01 -2.865726470947265625e+00 -2.183661937713623047e+00 -4.413869380950927734e+00 2.696516275405883789e+00 2.236944913864135742e+00 1.653671622276306152e+00 -2.989992380142211914e+00 -4.169387221336364746e-01 4.082410931587219238e-01 2.686029434204101562e+00 -1.311965823173522949e+00 -4.134708046913146973e-01 3.787017166614532471e-01 -3.041427373886108398e+00 5.157433748245239258e-01 -1.138814926147460938e+00 1.336976885795593262e+00 1.666531682014465332e+00
6.637734770774841309e-01 -3.910248756408691406e+00 -7.497829198837280273e-01 1.055341839790344238e+00 4.746754169464111328e-01 3.644751548767089844e+00 -2.980725467205047607e-01 -3.714322090148925781e+00 1.417499035596847534e-01 -1.783605933189392090e+00 -2.375832319259643555e+00 -1.324470877647399902e+00 -2.227644443511962891e+00 5.063909530639648438e+00 -1.876925975084304810e-01 -2.069595813751220703e+00 9.498909860849380493e-02 -2.274130344390869141e+00 7.576903104782104492e-01 -1.781417250633239746e+00 3.453805446624755859e+00 -1.478465318679809570e+00 -1.277579665184020996e+00 7.423977851867675781e-01 3.175864696502685547e+00 -2.172353982925415039e+00 -6.816944479942321777e-01
8.832584023475646973e-01 -2.037356138229370117e+00 -1.522298574447631836e+00 5.048843622207641602e-01 1.805202603340148926e+00 1.684556126594543457e+00 3.706005334854125977e+00 -1.936151273548603058e-02 -1.409122705459594727e+00 -1.002544641494750977e+00 -3.457983255386352539e+00 -1.969607546925544739e-03 1.307541251182556152e+00 -5.808289051055908203e-01 1.937006235122680664e+00 -3.021669626235961914e+00 -2.442151308059692383e+00 -2.708125114440917969e+00 1.504603981971740723e+00 1.917043685913085938e+00 -9.106299877166748047e-01 -1.181733727455139160e+00 -1.587987303733825684e+00 -1.376672863960266113e+00 1.653635501861572266e-01 -4.047348201274871826e-01 -1.146208763122558594e+00
-2.159015893936157227e+00 2.068201780319213867e+00 2.755870103836059570e+00 -1.092037677764892578e+00 2.416653156280517578e+00 -3.237980127334594727e+00 1.423151493072509766e-01 1.485057473182678223e-01 -4.318714439868927002e-01 -7.739211916923522949e-01 -2.772013425827026367e+00 -7.696712017059326172e-01 9.249167442321777344e-01 2.071295261383056641e+00 -7.429495453834533691e-01 -7.612274289131164551e-01 -2.629466295242309570e+00 -2.789370536804199219e+00 -6.279832124710083008e-01 -1.829121112823486328e+00 2.386304616928100586e+00 -1.092659831047058105e+00 -1.178008198738098145e+00 -3.294360637664794922e+00 2.987637817859649658e-01 2.718817710876464844e+00 6.088138744235038757e-02
-2.854041099548339844e+00 -2.156929969787597656e+00 1.375815391540527344e+00 2.762627601623535156e+00 -4.134787321090698242e-01 3.760348081588745117e+00 1.409365385770797729e-01 -2.012984037399291992e+00 -1.368455171585083008e+00 -1.856810569763183594e+00 -3.417016744613647461e+00 3.097739458084106445e+00 6.604008674621582031e-01 1.288009583950042725e-01 3.424956500530242920e-01 2.221582651138305664e+00 -2.194398164749145508e+00 -1.337322950363159180e+00 1.299516916275024414e+00 1.308376789093017578e+00 -3.162319362163543701e-01 -3.385435819625854492e+00 -3.177898883819580078e+00 -2.695382595062255859e+00 -1.902162283658981323e-01 -7.359462231397628784e-02 1.163738727569580078e+00
-2.562395334243774414e+00 -4.491770744323730469e+00 2.657606363296508789e+00 3.060642480850219727e+00 3.744428232312202454e-02 9.409652948379516602e-01 1.494788765907287598e+00 3.326658159494400024e-02 1.509977579116821289e+00 -2.821678638458251953e+00 -5.997989773750305176e-01 -3.960639476776123047e+00 1.675019621849060059e+00 -9.095455408096313477e-01 8.903612494468688965e-01 6.099312901496887207e-01 -6.296302676200866699e-01 -1.979490160942077637e+00 3.108879327774047852e+00 -2.278381824493408203e+00 2.261891603469848633e+00 -1.853541135787963867e+00 -1.809764623641967773e+00 -1.956901788711547852e+00 -3.460170030593872070e-01 -1.223434567451477051e+00 -1.159178763628005981e-01
-6.707086563110351562e-01 2.038265705108642578e+00 -2.581284940242767334e-01 -2.110128402709960938e+00 5.923970937728881836e-01 3.336177825927734375e+00 -3.497142493724822998e-01 2.049361944198608398e+00 1.905320286750793457e+00 -4.225308895111083984e+00 -4.574078619480133057e-01 -4.294975399971008301e-01 -2.698063611984252930e+00 1.752224415540695190e-01 1.122418045997619629e-02 -6.962870359420776367e-01 -1.415933609008789062e+00 -3.823456048965454102e+00 1.664080262184143066e+00 -1.675417661666870117e+00 -8.750187754631042480e-01 -1.073630213737487793e+00 -3.147598028182983398e+00 -1.809843301773071289e+00 3.387596011161804199e-01 4.617404639720916748e-01 3.194413423538208008e+00
-3.743556886911392212e-02 -3.717555522918701172e+00 1.616000771522521973e+00 -1.795719385147094727e+00 7.950951457023620605e-01 -3.886397778987884521e-01 -6.705399602651596069e-02 -4.052583128213882446e-02 -2.608479261398315430e+00 -7.296406030654907227e-01 -1.045688867568969727e+00 -6.266112923622131348e-01 -1.001418471336364746e+00 1.589705467224121094e+00 -1.987308263778686523e+00 -6.586118936538696289e-01 -1.337306380271911621e+00 2.183167695999145508e+00 2.389268875122070312e+00 -2.462528467178344727e+00 2.474748849868774414e+00 -2.607802629470825195e+00 7.011578679084777832e-01 7.265341281890869141e-02 1.221695065498352051e+00 -2.057652473449707031e+00 -2.475163340568542480e-01
-2.703471183776855469e+00 -3.028618812561035156e+00 1.304063796997070312e+00 -1.922806501388549805e+00 -1.857091665267944336e+00 1.396507024765014648e+00 1.243081212043762207e+00 1.299369215965270996e+00 -2.015056312084197998e-01 -2.668426513671875000e+00 -1.243363261222839355e+00 -1.473322987556457520e+00 -1.869323015213012695e+00 3.134303569793701172e+00 -1.768336296081542969e+00 2.685921192169189453e+00 -1.616827964782714844e+00 2.332770586013793945e+00 2.207211732864379883e+00 -1.913959383964538574e+00 3.523667812347412109e+00 -3.160448312759399414e+00 6.827539205551147461e-01 -1.849933624267578125e+00 -2.999487332999706268e-02 -1.508270382881164551e+00 6.769388914108276367e-01
-2.942038774490356445e+00 2.328605651855468750e+00 2.351127862930297852e+00 -8.166191577911376953e-01 7.089397311210632324e-01 -1.702087759971618652e+00 2.910614013671875000e+00 6.755027174949645996e-01 -1.117725014686584473e+00 -2.756156682968139648e+00 -3.149254560470581055e+00 8.987203985452651978e-02 1.428021907806396484e+00 1.743501782417297363e+00 9.468062520027160645e-01 -6.247800588607788086e-01 -1.597528457641601562e+00 -1.120804786682128906e+00 7.200871407985687256e-02 -1.980136871337890625e+00 5.311522483825683594e-01 -3.182449340820312500e+00 -1.713654160499572754e+00 -3.473913192749023438e+00 -2.089086621999740601e-01 1.202230930328369141e+00 1.573376417160034180e+00
-2.358451366424560547e+00 -1.650081276893615723e+00 -1.727313041687011719e+00 -1.166425824165344238e+00 2.212854623794555664e+00 7.417585849761962891e-01 -2.577614784240722656e+00 -3.394947767257690430e+00 -3.266041755676269531e+00 -2.672410309314727783e-01 -1.763246178627014160e+00 9.419367909431457520e-01 1.725865364074707031e+00 3.816725254058837891e+00 -7.546629756689071655e-02 -1.441140174865722656e+00 -2.793051958084106445e+00 2.018603563308715820e+00 6.403636336326599121e-01 -1.151385426521301270e+00 2.797845840454101562e+00 -1.687439203262329102e+00 -3.966940343379974365e-01 -1.370836019515991211e+00 1.793650865554809570e+00 -1.394609570503234863e+00 9.375897645950317383e-01
-1.169170811772346497e-02 -2.340071916580200195e+00 -8.263450860977172852e-01 3.883005976676940918e-01 3.331140995025634766e+00 5.136539936065673828e-01 6.347628831863403320e-01 -4.155041277408599854e-01 -2.133702754974365234e+00 -2.775305747985839844e+00 1.319519639015197754e+00 -8.355659246444702148e-01 3.139682769775390625e+00 1.981568932533264160e+00 -2.827437162399291992e+00 -3.138110637664794922e+00 -2.290477037429809570e+00 -2.105816602706909180e+00 1.017397642135620117e+00 -2.299921512603759766e+00 1.518999934196472168e+00 -1.807155489921569824e+00 -6.900472640991210938e-01 -2.071463823318481445e+00 7.306903004646301270e-01 4.490796089172363281e+00 -1.810985922813415527e+00
-1.082882881164550781e+00 -3.142092704772949219e+00 -1.845349371433258057e-01 -1.667466759681701660e+00 1.977175354957580566e+00 2.228974819183349609e+00 1.520158529281616211e+00 3.928279638290405273e+00 -1.027284860610961914e+00 -4.286816120147705078e-01 -2.169722795486450195e+00 -4.425438880920410156e+00 -2.393026590347290039e+00 7.756629586219787598e-01 -1.801842570304870605e+00 -3.111906349658966064e-01 -3.213923454284667969e+00 -1.448317289352416992e+00 1.342698574066162109e+00 9.515001773834228516e-01 2.074616670608520508e+00 -7.659385204315185547e-01 -2.796193361282348633e+00 -3.226475715637207031e-01 1.537779331207275391e+00 -1.474986225366592407e-01 1.305270791053771973e+00
-5.800454616546630859e-01 7.512978315353393555e-01 -1.629659771919250488e+00 -3.818212032318115234e+00 1.968932032585144043e+00 2.346426010131835938e+00 -1.189326643943786621e+00 2.308509796857833862e-01 -1.144216418266296387e+00 -7.861952781677246094e-01 -2.970380067825317383e+00 -5.295962095260620117e-01 -1.681847333908081055e+00 3.639028310775756836e+00 3.138712942600250244e-01 -1.401677012443542480e+00 -3.208328485488891602e-01 7.236825823783874512e-01 3.562401533126831055e+00 1.080122828483581543e+00 1.023734211921691895e+00 -1.092972159385681152e+00 -5.141976356506347656e+00 -2.105669975280761719e+00 -1.861734092235565186e-01 -2.767730474472045898e+00 2.565835237503051758e+00
-7.142968177795410156e-01 -3.842124700546264648e+00 1.364396691322326660e+00 -2.761094808578491211e+00 -2.798222191631793976e-02 1.139728546142578125e+00 4.286107540130615234e+00 -2.632441759109497070e+00 -2.706915140151977539e+00 8.766096085309982300e-02 -4.414054393768310547e+00 8.468406200408935547e-01 8.672660589218139648e-01 1.375399231910705566e+00 2.172217130661010742e+00 -1.807278208434581757e-02 -7.951727509498596191e-01 8.905080705881118774e-02 3.090470097959041595e-02 -3.494698762893676758e+00 -2.165855281054973602e-02 -2.578930139541625977e+00 -4.614370167255401611e-01 -3.694949448108673096e-01 1.178756594657897949e+00 1.623915910720825195e+00 1.641093015670776367e+00
4.345633983612060547e-01 -5.058968067169189453e-01 -3.822230100631713867e+00 7.025358676910400391e-01 -1.594497442245483398e+00 9.202641248703002930e-01 2.605622053146362305e+00 -1.467910170555114746e+00 -1.017876505851745605e+00 -2.330159425735473633e+00 -1.489892125129699707e+00 1.895277142524719238e+00 1.791743993759155273e+00 1.802669763565063477e+00 3.351992368698120117e-02 6.971632242202758789e-01 -4.828711032867431641e+00 -8.565580844879150391e-01 2.412369012832641602e+00 -4.137565612792968750e+00 9.110756516456604004e-01 -1.350826382637023926e+00 -3.342072248458862305e+00 2.108917236328125000e+00 -1.192072127014398575e-02 -3.715682029724121094e-02 2.357824802398681641e+00
