-2.272971630096435547e+00 -2.984255790710449219e+00 -1.422111511230468750e+00 -4.204283237457275391e+00 1.651399374008178711e+00 2.230505943298339844e+00 1.690168231725692749e-01 1.059283852577209473e+00 -2.093006134033203125e+00 -4.529518127441406250e+00 -1.552664399147033691e+00 7.208429336547851562e+00 -4.399653911590576172e+00 4.036252975463867188e+00 6.675146818161010742e-01 -3.228636980056762695e+00 1.553163528442382812e+00 -8.908944129943847656e-01 -1.273509860038757324e+00 -1.038180112838745117e+00 1.987915635108947754e+00 -4.327958583831787109e+00 -3.082034111022949219e+00 4.015644073486328125e+00 1.440479278564453125e+00 1.395617008209228516e+00
1.961855292320251465e+00 -1.156520247459411621e+00 1.608129143714904785e+00 -1.901225090026855469e+00 -1.692146182060241699e+00 5.111664295196533203e+00 4.181943237781524658e-01 1.751829624176025391e+00 3.339947760105133057e-01 -2.450635910034179688e+00 -2.985707283020019531e+00 -5.457471013069152832e-01 -3.900654315948486328e+00 -5.466392040252685547e+00 -3.756617069244384766e+00 4.116961002349853516e+00 -3.697003364562988281e+00 1.579839229583740234e+00 -2.082230150699615479e-01 4.523431137204170227e-02 8.266211152076721191e-01 -1.461742401123046875e+00 -5.207959651947021484e+00 1.759397625923156738e+00 -1.693812251091003418e+00 7.121627777814865112e-02
-2.414608001708984375e+00 -4.123285293579101562e+00 9.220880270004272461e-02 -1.835331916809082031e+00 -4.409729957580566406e+00 1.489193320274353027e+00 -3.941192030906677246e-01 4.362456873059272766e-02 1.054345250129699707e+00 1.849805474281311035e+00 -8.850266337394714355e-01 -4.331624984741210938e+00 -2.206584930419921875e+00 2.515293598175048828e+00 -5.386364459991455078e+00 3.478037595748901367e+00 1.091708540916442871e+00 -2.794129848480224609e+00 -2.506340265274047852e+00 3.036130189895629883e+00 2.820487499237060547e+00 2.005708068609237671e-01 -9.442016482353210449e-01 1.559341549873352051e+00 -2.951963424682617188e+00 1.348046541213989258e+00
4.616142511367797852e-01 -5.465930461883544922e+00 -7.717222571372985840e-01 -2.785930395126342773e+00 -1.327766656875610352e+00 2.429120779037475586e+00 -5.989394783973693848e-01 -1.527433753013610840e+00 -3.246109187602996826e-01 -1.347678780555725098e+00 -7.005925476551055908e-02 -2.858214974403381348e-01 -4.624023914337158203e+00 -2.446068525314331055e+00 2.870434522628784180e-01 2.458518981933593750e+00 1.734784960746765137e+00 -2.514040470123291016e+00 -2.802788019180297852e+00 9.050427079200744629e-01 5.464566230773925781e+00 -2.750742197036743164e+00 -3.067290544509887695e+00 3.972205400466918945e+00 4.031161785125732422e+00 3.305295407772064209e-01
-4.259507954120635986e-01 -2.680100440979003906e+00 1.777374982833862305e+00 -1.737372279167175293e+00 1.313272356986999512e+00 2.099391460418701172e+00 -3.973130583763122559e-01 -6.249326229095458984e+00 -3.226321458816528320e+00 -3.798370122909545898e+00 5.472048521041870117e-01 -9.392694830894470215e-01 -3.143194198608398438e+00 -2.693851709365844727e+00 2.353317290544509888e-01 1.164479732513427734e+00 -1.511517763137817383e+00 2.495798110961914062e+00 -2.916100263595581055e+00 -6.651357412338256836e-01 2.575844764709472656e+00 4.459260404109954834e-01 -3.554578304290771484e+00 5.927155017852783203e-01 3.173341274261474609e+00 3.896427631378173828e+00
-1.204032063484191895e+00 -2.914381027221679688e+00 -1.849266290664672852e+00 -2.605530738830566406e+00 -1.388829499483108521e-01 -7.736114859580993652e-01 2.104002952575683594e+00 -1.238276124000549316e+00 -2.280452013015747070e+00 -2.765355348587036133e+00 2.535693168640136719e+00 -1.552007675170898438e+00 -3.821771860122680664e+00 -5.936611890792846680e-01 -2.789870977401733398e+00 1.026393055915832520e+00 -9.091280698776245117e-01 7.495110034942626953e-01 1.544418334960937500e+00 -2.785570383071899414e+00 1.492696881294250488e+00 -1.737420678138732910e+00 -3.629786968231201172e+00 1.870679259300231934e+00 7.085592269897460938e+00 1.964050889015197754e+00
-2.020391702651977539e+00 1.293670177459716797e+00 -2.665453195571899414e+00 -3.203389167785644531e+00 1.442748665809631348e+00 3.944141864776611328e-01 -4.987689018249511719e+00 -3.002660274505615234e-01 -1.484088182449340820e+00 -5.242801189422607422e+00 1.820317804813385010e-01 -3.790959358215332031e+00 -3.730108499526977539e+00 2.432746410369873047e+00 1.338594555854797363e+00 2.889745473861694336e+00 1.591049075126647949e+00 -1.850306868553161621e+00 -3.847232162952423096e-01 7.128236293792724609e-01 -6.004419326782226562e-01 2.877445220947265625e+00 -2.825894117355346680e+00 1.602543830871582031e+00 6.179246902465820312e-01 2.160501956939697266e+00
-1.847036123275756836e+00 -4.410590648651123047e+00 1.966572403907775879e+00 -9.143238663673400879e-01 -3.238084316253662109e+00 2.126047611236572266e+00 3.383317291736602783e-01 1.346510171890258789e+00 -9.800811409950256348e-01 -1.690163373947143555e+00 1.924201130867004395e+00 1.045232653617858887e+00 -1.154298782348632812e+00 -3.998872756958007812e+00 5.879099369049072266e-01 1.172167658805847168e+00 -3.804325580596923828e+00 -6.079499125480651855e-01 -2.462607145309448242e+00 1.040210962295532227e+00 3.214384794235229492e+00 -3.890289068222045898e+00 -2.050806760787963867e+00 7.609356641769409180e-01 -1.745012998580932617e+00 3.160565137863159180e+00
-8.694522976875305176e-01 -6.000123023986816406e-01 2.295438766479492188e+00 -1.560688376426696777e+00 2.431985884904861450e-01 7.289767265319824219e-01 1.829265356063842773e+00 -3.768590211868286133e+00 -1.751317620277404785e+00 -2.624254226684570312e+00 -1.915903925895690918e+00 -1.403512358665466309e+00 -3.841967582702636719e+00 3.142344474792480469e+00 -3.864297389984130859e+00 2.591899394989013672e+00 1.915479302406311035e+00 1.694573760032653809e+00 4.059177398681640625e+00 -1.496845006942749023e+00 -1.253814220428466797e+00 -1.279609322547912598e+00 -4.498074054718017578e+00 1.916600167751312256e-01 -1.613025426864624023e+00 -1.137156605720520020e+00
-4.680126667022705078e+00 1.321761369705200195e+00 9.890986084938049316e-01 5.641815066337585449e-01 4.884321987628936768e-01 1.265370965003967285e+00 -4.554257869720458984e+00 -2.068984985351562500e+00 -3.036700487136840820e+00 -3.561514854431152344e+00 1.844942331314086914e+00 -3.935196876525878906e+00 -4.062494754791259766e+00 -9.918189644813537598e-01 3.428238391876220703e+00 2.934432029724121094e+00 -1.287017703056335449e+00 1.247203469276428223e+00 -1.751724600791931152e+00 1.537724733352661133e+00 2.758245468139648438e+00 -2.339062690734863281e+00 -2.602939367294311523e+00 5.378421783447265625e+00 -2.119614601135253906e+00 2.327135086059570312e+00
-2.242766506969928741e-02 -2.623243331909179688e+00 -4.183120727539062500e+00 -3.249046325683593750e+00 -2.622004039585590363e-02 7.222726941108703613e-01 -2.518526792526245117e+00 1.168133854866027832e+00 -2.703836917877197266e+00 -1.209493875503540039e+00 2.116635084152221680e+00 -3.129458129405975342e-01 -4.152085781097412109e+00 -1.861290335655212402e+00 1.763120293617248535e+00 2.449366092681884766e+00 4.942000865936279297e+00 -5.124906301498413086e-01 6.090011596679687500e-01 3.073461532592773438e+00 9.271990507841110229e-03 -2.703003883361816406e+00 -3.509696722030639648e+00 -2.424757480621337891e+00 -1.151124119758605957e+00 2.284323453903198242e+00
-1.162299275398254395e+00 -2.367730140686035156e+00 2.524187803268432617e+00 -4.014401912689208984e+00 -6.753919720649719238e-01 4.018777981400489807e-02 2.451591014862060547e+00 -3.982948303222656250e+00 -5.133341312408447266e+00 -3.049934625625610352e+00 -1.560200810432434082e+00 -2.661054372787475586e+00 -3.392040252685546875e+00 1.603591442108154297e+00 3.014861822128295898e+00 7.709964364767074585e-02 -1.021832585334777832e+00 2.022549390792846680e+00 5.460650920867919922e+00 1.925491690635681152e+00 -1.911758661270141602e+00 -1.879578977823257446e-01 -3.763931751251220703e+00 1.942959427833557129e+00 2.088621139526367188e+00 -4.844836294651031494e-01
-3.527296781539916992e+00 -1.587737202644348145e+00 3.851998329162597656e+00 -1.604357063770294189e-01 3.553303480148315430e+00 6.626654624938964844e+00 -2.192402601242065430e+00 -9.030892252922058105e-01 -5.100726604461669922e+00 -2.620803594589233398e+00 -5.741228580474853516e+00 -1.959202885627746582e-01 -9.933160543441772461e-01 -1.866042256355285645e+00 -2.084982246160507202e-01 1.390542387962341309e+00 6.363392472267150879e-01 -1.157504200935363770e+00 7.501859664916992188e-01 1.549875855445861816e+00 3.182359457015991211e+00 -2.591541767120361328e+00 -1.569711685180664062e+00 -3.589435815811157227e+00 -9.350633025169372559e-01 1.196164488792419434e+00
1.694713354110717773e+00 -2.136294841766357422e+00 9.720985293388366699e-01 -1.906416773796081543e+00 -2.483392953872680664e+00 1.969565391540527344e+00 -2.377341508865356445e+00 -9.395186305046081543e-01 -2.749489545822143555e+00 1.831764817237854004e+00 -3.520868301391601562e+00 -7.870560884475708008e-01 -4.309384346008300781e+00 1.127859711647033691e+00 -3.351102590560913086e+00 4.382947444915771484e+00 2.274200201034545898e+00 -3.984616518020629883e+00 -2.674928426742553711e+00 -2.475398033857345581e-01 2.048700571060180664e+00 7.757443785667419434e-01 -3.504506945610046387e-01 1.211707949638366699e+00 -3.265012979507446289e+00 1.770587444305419922e+00
2.039450883865356445e+00 -5.960817337036132812e-01 -1.302710652351379395e+00 -4.384802341461181641e+00 1.957142114639282227e+00 1.827134609222412109e+00 -1.217721700668334961e+00 -4.982028484344482422e+00 -9.259697794914245605e-02 -5.722621917724609375e+00 -1.987283349037170410e+00 -4.584650397300720215e-01 -4.583861351013183594e+00 4.793525934219360352e-01 1.426475048065185547e+00 2.421517133712768555e+00 1.870225191116333008e+00 -1.676023006439208984e+00 -3.135403156280517578e+00 7.212809324264526367e-01 -2.288661599159240723e-01 4.729673385620117188e+00 -3.115370273590087891e+00 1.981438755989074707e+00 -1.042773604393005371e+00 1.250519514083862305e+00
6.888184547424316406e-01 -3.911297082901000977e+00 1.746393203735351562e+00 2.564227879047393799e-01 2.189790010452270508e+00 5.921515226364135742e-01 -7.118306756019592285e-01 -1.505785226821899414e+00 -2.856764756143093109e-02 -5.053331375122070312e+00 4.008150100708007812e+00 7.846872210502624512e-01 -4.744878292083740234e+00 -3.275756359100341797e+00 3.730865001678466797e+00 3.729644417762756348e-01 1.916939496994018555e+00 -6.115789413452148438e-01 -2.039191722869873047e+00 1.901053667068481445e+00 -4.133365154266357422e+00 -9.045894145965576172e-01 -1.868258714675903320e+00 6.280491948127746582e-01 -1.629815101623535156e+00 -1.551452279090881348e+00
-1.557932019233703613e+00 5.346835255622863770e-01 1.631651967763900757e-01 -4.094711780548095703e+00 1.495996594429016113e+00 -1.390825629234313965e+00 2.636332511901855469e+00 1.228823900222778320e+00 -2.894586801528930664e+00 -2.892379522323608398e+00 -2.842980146408081055e+00 -3.478700518608093262e-01 -4.284645080566406250e+00 -7.163236141204833984e-01 -4.153583049774169922e+00 3.517299890518188477e+00 -7.313529849052429199e-01 -3.076365470886230469e+00 -3.592541813850402832e-01 -1.846778035163879395e+00 -8.295619487762451172e-01 4.294306755065917969e+00 -1.251633644104003906e+00 -4.060161709785461426e-01 1.316303253173828125e+00 4.716148376464843750e+00
-5.070008754730224609e+00 -3.849645614624023438e+00 3.338902711868286133e+00 -2.955234527587890625e+00 -2.275706529617309570e+00 -9.084009528160095215e-01 -1.528554916381835938e+00 1.936063051223754883e+00 -1.774212598800659180e+00 -9.150644540786743164e-01 -2.307978153228759766e+00 1.885769605636596680e+00 -2.706779241561889648e+00 2.946618199348449707e-01 -2.847670555114746094e+00 -1.211523175239562988e+00 2.784289598464965820e+00 -3.865050077438354492e+00 1.196162462234497070e+00 2.694228887557983398e+00 1.725665211677551270e+00 -3.488460779190063477e-01 -4.825292110443115234e+00 3.102547168731689453e+00 1.080656886100769043e+00 1.292225480079650879e+00
-1.302176564931869507e-01 -6.722691655158996582e-01 -1.152723789215087891e+00 -2.818397760391235352e+00 4.131788253784179688e+00 2.503616571426391602e+00 3.551235198974609375e+00 -2.100596904754638672e+00 -3.352170705795288086e+00 -4.533674716949462891e+00 1.871814131736755371e+00 -1.586332917213439941e+00 -2.531316757202148438e+00 -1.804554343223571777e+00 -1.469918131828308105e+00 1.393844127655029297e+00 -5.876244306564331055e-01 -4.699557781219482422e+00 -1.481201648712158203e+00 3.774035215377807617e+00 2.165373563766479492e+00 -1.352768301963806152e+00 -2.564580440521240234e+00 5.336792945861816406e+00 -1.273879170417785645e+00 -3.751251220703125000e+00
3.317161798477172852e+00 6.145342588424682617e-01 1.416504025459289551e+00 -4.385967731475830078e+00 1.114638090133666992e+00 1.378236651420593262e+00 2.979102134704589844e+00 2.047337770462036133e+00 -2.502975702285766602e+00 -3.023243188858032227e+00 -2.362538576126098633e+00 -3.070709228515625000e+00 -4.623378276824951172e+00 2.611485242843627930e+00 -5.177555680274963379e-01 3.906606435775756836e+00 8.118435740470886230e-01 -5.602202892303466797e+00 -5.992842316627502441e-01 -1.364338099956512451e-01 -8.110899925231933594e-01 -4.153022289276123047e+00 7.119180560111999512e-01 -8.083517551422119141e-01 4.830211400985717773e-01 -1.103875994682312012e+00
8.140220046043395996e-01 4.204871654510498047e+00 -1.704801023006439209e-01 -1.832518339157104492e+00 -6.667873263359069824e-01 -4.276985168457031250e+00 2.772931814193725586e+00 3.768883705139160156e+00 -3.287589251995086670e-01 -1.816022515296936035e+00 -2.149647712707519531e+00 -2.251151561737060547e+00 -1.327444076538085938e+00 -1.345269083976745605e-01 -2.479258060455322266e+00 -1.085919141769409180e+00 -2.437100887298583984e+00 1.233518242835998535e+00 3.677099227905273438e+00 1.233286499977111816e+00 -3.299265384674072266e+00 1.855535984039306641e+00 -4.881604194641113281e+00 9.596838355064392090e-01 -5.002853870391845703e+00 1.254702925682067871e+00
-1.657083868980407715e+00 -2.237590789794921875e+00 -3.328858852386474609e+00 -9.111633896827697754e-01 1.641002058982849121e+00 -1.137679100036621094e+00 3.455426931381225586e+00 -6.379728317260742188e-01 2.710021972656250000e+00 3.982791185379028320e+00 -3.552258014678955078e+00 -2.412950992584228516e+00 -1.240059971809387207e+00 4.722494184970855713e-01 -4.323401927947998047e+00 -3.010217666625976562e+00 4.566491544246673584e-01 1.580548644065856934e+00 -3.219556808471679688e+00 2.358386754989624023e+00 -3.318433761596679688e+00 -2.318020820617675781e+00 1.184346556663513184e+00 2.104346752166748047e+00 6.374943256378173828e-01 -9.010863900184631348e-01
2.762856483459472656e+00 3.626451015472412109e+00 6.983485221862792969e-01 1.113597005605697632e-01 -4.176749885082244873e-01 -3.504617452621459961e+00 -6.149363517761230469e+00 -1.377795457839965820e+00 3.755234956741333008e+00 -5.728292465209960938e-01 -2.520968675613403320e+00 -3.743361234664916992e+00 -2.019310951232910156e+00 -1.357441425323486328e+00 -2.731179714202880859e+00 -3.796868801116943359e+00 -2.219609260559082031e+00 1.271790742874145508e+00 1.507272720336914062e+00 5.707743763923645020e-01 -9.701683521270751953e-01 -2.272223472595214844e+00 2.034339904785156250e+00 -7.399702668190002441e-01 3.931379079818725586e+00 3.685587167739868164e+00
1.932825565338134766e+00 2.557832956314086914e+00 -2.825506448745727539e+00 -2.215223014354705811e-01 -8.984469771385192871e-01 -1.455817580223083496e+00 -1.054257988929748535e+00 6.055980682373046875e+00 1.766400694847106934e+00 2.483865976333618164e+00 -2.848770618438720703e+00 -4.566275119781494141e+00 -5.167258739471435547e+00 -3.787388503551483154e-01 -1.479570269584655762e+00 -2.233867645263671875e+00 4.592360019683837891e+00 1.523526787757873535e+00 -1.532891750335693359e+00 -1.406981110572814941e+00 1.561571002006530762e+00 -3.259387493133544922e+00 -2.118416547775268555e+00 2.040137052536010742e+00 -4.982932567596435547e+00 -2.048599481582641602e+00
1.665608167648315430e+00 -7.446573972702026367e-01 2.308230638504028320e+00 6.793162822723388672e-01 3.620419800281524658e-01 -2.410357475280761719e+00 2.799010753631591797e+00 1.868224143981933594e+00 3.214336335659027100e-01 2.712664604187011719e+00 -2.180109262466430664e+00 -4.047623157501220703e+00 4.376658201217651367e-01 -2.108255386352539062e+00 -3.380897045135498047e+00 -4.150926589965820312e+00 -3.124885797500610352e+00 -1.115795254707336426e+00 2.470080614089965820e+00 1.830253958702087402e+00 -3.236015796661376953e+00 -5.976150512695312500e+00 2.371100425720214844e+00 5.988667607307434082e-01 -3.049645662307739258e+00 2.285412788391113281e+00
1.169248938560485840e+00 -1.184250414371490479e-02 1.520067811012268066e+00 4.267928600311279297e+00 -5.331760406494140625e+00 -2.953845262527465820e+00 -2.018908262252807617e+00 3.305584192276000977e+00 2.733702898025512695e+00 1.120955944061279297e+00 -3.089972734451293945e+00 8.981211185455322266e-01 -5.808676719665527344e+00 -1.793625831604003906e+00 -7.933247089385986328e-01 -1.444147706031799316e+00 6.891315430402755737e-02 -1.458308100700378418e+00 -1.584521174430847168e+00 4.103847980499267578e+00 5.364267826080322266e-01 -3.398849248886108398e+00 -3.478332161903381348e-01 -4.112476825714111328e+00 -6.794117093086242676e-01 1.811122894287109375e+00
2.691106498241424561e-01 -9.117938876152038574e-01 -1.155487537384033203e+00 7.198713421821594238e-01 -1.156538248062133789e+00 -3.348826408386230469e+00 -1.483956456184387207e+00 1.481420993804931641e-01 8.960049152374267578e-01 3.750998497009277344e+00 -5.440608978271484375e+00 -4.817765712738037109e+00 -2.929277718067169189e-01 2.059889554977416992e+00 -3.050902128219604492e+00 -1.575995922088623047e+00 -7.082936763763427734e-01 1.916800022125244141e+00 2.689893245697021484e+00 4.257809221744537354e-01 -1.656164884567260742e+00 -8.716832995414733887e-01 3.451565742492675781e+00 -6.306502819061279297e+00 5.903299897909164429e-02 3.393770217895507812e+00
-2.024478763341903687e-01 5.391997814178466797e+00 -3.345086336135864258e+00 4.597674369812011719e+00 3.305654048919677734e+00 -5.273258686065673828e+00 -2.105230808258056641e+00 3.895261287689208984e-01 8.194784075021743774e-02 6.873034954071044922e+00 -3.910472393035888672e+00 -1.266357898712158203e+00 -2.891374111175537109e+00 7.672720551490783691e-01 -2.758315563201904297e+00 -2.777458429336547852e+00 -2.488580942153930664e+00 -2.460867762565612793e-01 -7.821441888809204102e-01 1.175321459770202637e+00 -5.598905682563781738e-01 -5.288978666067123413e-02 -5.929099917411804199e-01 1.897814869880676270e-01 -2.937520027160644531e+00 -2.414631128311157227e+00
1.239232301712036133e+00 2.460686445236206055e+00 7.815677672624588013e-02 -5.381772518157958984e-01 -4.795638561248779297e+00 -2.879913568496704102e+00 -2.287416219711303711e+00 -3.140533685684204102e+00 2.148695468902587891e+00 3.425554037094116211e+00 -2.038784265518188477e+00 -4.807952404022216797e+00 -1.999203324317932129e+00 -2.496062755584716797e+00 -1.214126348495483398e+00 3.159362971782684326e-01 8.749741315841674805e-01 5.113707542419433594e+00 -4.557212352752685547e+00 2.209128856658935547e+00 -1.076244637370109558e-01 -9.186828136444091797e-01 -9.447988867759704590e-01 1.523542881011962891e+00 -1.521975398063659668e+00 1.392593622207641602e+00
2.047840356826782227e+00 1.422435402870178223e+00 -4.554268836975097656e+00 -3.000950574874877930e+00 -3.165874958038330078e+00 -4.000538349151611328e+00 2.132153511047363281e+00 -1.452895760536193848e+00 1.265373587608337402e+00 8.588274717330932617e-01 -1.614845395088195801e+00 -2.099163770675659180e+00 1.914165019989013672e+00 -3.031041383743286133e+00 -5.876959800720214844e+00 2.705177068710327148e+00 -9.179888367652893066e-01 3.142565965652465820e+00 -1.880024552345275879e+00 8.376396298408508301e-01 1.084865331649780273e-01 2.981849014759063721e-01 2.472520351409912109e+00 -1.780218601226806641e+00 5.331561565399169922e-01 1.491384059190750122e-01
-2.140294551849365234e+00 1.862137675285339355e+00 -3.350580453872680664e+00 8.626601696014404297e-01 1.434516906738281250e+00 -3.709250450134277344e+00 -1.602182626724243164e+00 3.174779415130615234e+00 -4.287712097167968750e+00 3.714198827743530273e+00 -2.311911344528198242e+00 -9.568212032318115234e-01 -1.967622280120849609e+00 -4.644095003604888916e-01 2.832995891571044922e+00 -1.163995027542114258e+00 -3.684239625930786133e+00 1.266853332519531250e+00 -1.512418150901794434e+00 1.168888330459594727e+00 1.166881799697875977e+00 1.495946794748306274e-01 -9.115134477615356445e-01 -4.958759784698486328e+00 -5.277533531188964844e-01 4.298011302947998047e+00
2.384814023971557617e+00 5.064476013183593750e+00 -3.889666795730590820e-01 1.792169094085693359e+00 -5.578099489212036133e-01 -3.947209596633911133e+00 2.199597120285034180e+00 -1.615089297294616699e+00 2.745733976364135742e+00 -3.125906229019165039e+00 -5.786159038543701172e-01 -2.085185050964355469e+00 -1.580185294151306152e+00 -1.456621885299682617e+00 -1.890103697776794434e+00 -1.904214143753051758e+00 -3.645708322525024414e+00 9.920467734336853027e-01 5.092093944549560547e-01 3.503442049026489258e+00 -4.955957889556884766e+00 -2.066426277160644531e+00 -1.740292787551879883e+00 2.260315120220184326e-01 -1.633503437042236328e+00 3.397718191146850586e+00
-2.442856550216674805e+00 4.344505310058593750e+00 1.479112029075622559e+00 1.278775215148925781e+00 -2.615633308887481689e-01 -5.833254814147949219e+00 -1.873810529708862305e+00 -3.329440057277679443e-01 2.105339288711547852e+00 -2.773842334747314453e+00 -1.459104180335998535e+00 -2.496895551681518555e+00 -1.198694586753845215e+00 -5.286507129669189453e+00 -2.608005106449127197e-01 -1.881879925727844238e+00 -3.501452207565307617e+00 2.861824035644531250e+00 -2.051321029663085938e+00 -1.758371710777282715e+00 1.968307137489318848e+00 1.642389595508575439e-01 1.690024614334106445e+00 6.428404450416564941e-01 -1.060437440872192383e+00 4.485151290893554688e+00
-3.839665055274963379e-01 4.966946125030517578e+00 -5.586547374725341797e+00 -3.969902515411376953e+00 -2.329849004745483398e+00 -4.558901309967041016e+00 1.209805756807327271e-01 4.431157588958740234e+00 8.397010564804077148e-01 2.411314547061920166e-01 5.863909721374511719e-01 -1.108618378639221191e+00 -3.609232902526855469e+00 -2.203591585159301758e+00 -1.326414346694946289e+00 -2.343161106109619141e+00 -2.299690961837768555e+00 2.217731952667236328e+00 3.281246185302734375e+00 7.187743186950683594e-01 -1.092233061790466309e+00 -1.164246082305908203e+00 -1.405261635780334473e+00 3.119839668273925781e+00 2.661159515380859375e+00 -1.288789987564086914e+00
8.900787234306335449e-01 3.405857086181640625e+00 -4.164225578308105469e+00 1.601320803165435791e-01 5.693521499633789062e+00 6.189597249031066895e-01 3.850611150264739990e-01 2.665090560913085938e+00 2.165916919708251953e+00 2.777756750583648682e-01 -4.167802929878234863e-01 -1.582035183906555176e+00 -2.983645677566528320e+00 -7.484547048807144165e-02 -1.781864166259765625e+00 -4.076462268829345703e+00 -5.082481861114501953e+00 -7.421572804450988770e-01 2.548797130584716797e-01 6.294415593147277832e-01 -8.871355652809143066e-02 -2.295472383499145508e+00 -9.213384985923767090e-01 -4.503136634826660156e+00 -3.512270212173461914e+00 3.309587478637695312e+00
9.615995883941650391e-01 3.246376037597656250e+00 -3.693844318389892578e+00 3.337035417556762695e+00 -1.089065790176391602e+00 -4.555602073669433594e+00 2.082990646362304688e+00 2.597799062728881836e+00 3.487203836441040039e+00 9.763544201850891113e-01 -3.928290367126464844e+00 -4.029943466186523438e+00 -8.241004943847656250e-01 -2.721076965332031250e+00 -2.784429550170898438e+00 -2.812439110130071640e-03 2.515995025634765625e+00 -4.188917636871337891e+00 -2.557783365249633789e+00 1.297205567359924316e+00 -1.447307586669921875e+00 -3.462934017181396484e+00 -1.344643831253051758e+00 2.087096452713012695e+00 -2.542273998260498047e-01 1.137839555740356445e+00
-3.518225193023681641e+00 2.496672630310058594e+00 1.542479634284973145e+00 5.209226161241531372e-02 -1.522623658180236816e+00 -3.733699560165405273e+00 -5.039373397827148438e+00 1.860844969749450684e+00 5.092247128486633301e-01 3.583297491073608398e+00 -2.316847085952758789e+00 -4.426448822021484375e+00 -6.522290110588073730e-01 -2.391378879547119141e+00 -1.584157943725585938e+00 -1.574109315872192383e+00 -1.348291397094726562e+00 -1.602175354957580566e+00 1.849209785461425781e+00 2.980253696441650391e+00 -3.069317102432250977e+00 9.014877080917358398e-01 -3.191359996795654297e+00 5.600649118423461914e-01 4.561415672302246094e+00 1.657917857170104980e+00
-2.856419801712036133e+00 2.446920394897460938e+00 5.662347078323364258e-01 -6.413938522338867188e+00 -1.202662825584411621e+00 -6.541424751281738281e+00 -1.075183033943176270e+00 4.610300064086914062e+00 1.495445847511291504e+00 8.287273645401000977e-01 1.311797142028808594e+00 -1.202442288398742676e+00 1.433452069759368896e-01 -2.339803457260131836e+00 -1.285760402679443359e+00 -1.441647529602050781e+00 -2.300107002258300781e+00 3.564358711242675781e+00 6.229312419891357422e-01 3.908651590347290039e+00 1.079301238059997559e+00 -8.071268796920776367e-01 -2.111229658126831055e+00 -4.061884880065917969e+00 -4.615253210067749023e-01 1.664090991020202637e+00
-3.442483425140380859e+00 1.043335556983947754e+00 -3.735215902328491211e+00 1.795626401901245117e+00 -1.405241370201110840e+00 -1.557178258895874023e+00 1.015356540679931641e+00 -4.516254737973213196e-02 -7.540500164031982422e-01 -2.705918312072753906e+00 -3.378459453582763672e+00 -1.154344677925109863e+00 -6.014516830444335938e+00 -6.086642146110534668e-01 8.919426202774047852e-01 -2.728034257888793945e+00 -4.532260894775390625e-01 5.505675792694091797e+00 1.585245579481124878e-01 1.666362166404724121e+00 -2.282866954803466797e+00 -1.355942130088806152e+00 3.262578248977661133e+00 -1.185845017433166504e+00 8.996505737304687500e-01 2.571549892425537109e+00
2.998988628387451172e+00 5.876359343528747559e-01 -3.336827278137207031e+00 4.498616158962249756e-01 2.744822978973388672e+00 -2.534211635589599609e+00 -1.973280191421508789e+00 2.187140703201293945e+00 5.381110310554504395e-01 -1.574750185012817383e+00 -3.254270315170288086e+00 -3.904778242111206055e+00 -2.190874099731445312e+00 -5.901255011558532715e-01 -1.445115208625793457e-01 3.525741696357727051e-01 -2.506966352462768555e+00 1.356891155242919922e+00 1.914462566375732422e+00 -3.668276071548461914e+00 2.669902518391609192e-02 -3.579233407974243164e+00 2.673912525177001953e+00 1.106340408325195312e+00 -4.404828071594238281e+00 3.540155649185180664e+00
-2.193176269531250000e+00 -1.501505613327026367e+00 5.851837158203125000e+00 7.577071785926818848e-01 1.756096363067626953e+00 3.589641302824020386e-02 -3.108627319335937500e+00 1.891160726547241211e+00 -3.050580978393554688e+00 3.325268745422363281e+00 -1.229929566383361816e+00 9.022046327590942383e-01 3.674504041671752930e+00 -5.534020423889160156e+00 -1.721609711647033691e+00 3.024614334106445312e+00 -7.491788864135742188e-01 1.131712555885314941e+00 -2.783910036087036133e+00 -2.734359025955200195e+00 -5.525153636932373047e+00 -4.828317761421203613e-01 -5.817222595214843750e-01 -1.934049725532531738e+00 -5.932914018630981445e-01 -1.678877353668212891e+00
2.388128757476806641e+00 -3.397374868392944336e+00 -7.693459391593933105e-01 -4.440783023834228516e+00 1.400712251663208008e+00 1.319594860076904297e+00 -3.135140895843505859e+00 3.738554000854492188e+00 -3.019116401672363281e+00 -1.174283742904663086e+00 1.173860430717468262e+00 1.329388618469238281e+00 3.256386995315551758e+00 -2.000681400299072266e+00 -4.039066314697265625e+00 6.834349781274795532e-02 -3.503569841384887695e+00 3.685479164123535156e+00 -5.908184647560119629e-01 -2.961696147918701172e+00 -1.441981792449951172e+00 1.433244943618774414e+00 -3.721987605094909668e-01 1.549649953842163086e+00 -7.090349793434143066e-01 -4.494678974151611328e+00
1.341954827308654785e+00 -5.173509597778320312e+00 -6.559932231903076172e-01 1.660476565361022949e+00 2.797390460968017578e+00 2.136462450027465820e+00 -2.073798894882202148e+00 1.412116140127182007e-01 2.013953685760498047e+00 -1.343237757682800293e+00 9.394447505474090576e-02 2.947183370590209961e+00 -1.545390844345092773e+00 1.938770771026611328e+00 -4.414100646972656250e+00 -4.184636771678924561e-01 -2.119478225708007812e+00 7.757533788681030273e-01 -1.566126585006713867e+00 8.926093578338623047e-01 -6.481791973114013672e+00 7.485172748565673828e-01 -1.324888229370117188e+00 -7.795760035514831543e-01 3.920863151550292969e+00 -4.271636009216308594e+00
-1.447492390871047974e-01 -2.511443614959716797e+00 2.227270603179931641e-02 -4.897408187389373779e-02 -7.937871217727661133e-01 1.950568556785583496e-01 -2.940928459167480469e+00 -3.833851777017116547e-03 2.906578183174133301e-01 1.733871400356292725e-01 -2.423888921737670898e+00 -2.333164215087890625e+00 1.231511384248733521e-01 3.010175466537475586e+00 3.479996204376220703e+00 -6.458826065063476562e+00 9.592918753623962402e-01 1.760390996932983398e+00 -2.252845764160156250e+00 -3.936699628829956055e-01 -1.640419721603393555e+00 1.448067784309387207e+00 -5.511917114257812500e+00 4.766769409179687500e+00 -2.877859175205230713e-01 -1.679532051086425781e+00
2.443401575088500977e+00 -4.200531005859375000e+00 -4.462302207946777344e+00 -5.288779139518737793e-01 3.014310359954833984e+00 -1.174505829811096191e+00 -5.906168460845947266e+00 2.620151519775390625e+00 3.159245848655700684e-01 -4.854855835437774658e-01 -1.028444886207580566e+00 7.284806370735168457e-01 -1.013666510581970215e+00 -1.609922766685485840e+00 -2.177075862884521484e+00 1.933662891387939453e+00 -5.209561437368392944e-02 1.408890008926391602e+00 -5.404912948608398438e+00 1.511354804039001465e+00 1.406157732009887695e+00 3.736487150192260742e+00 3.240903094410896301e-02 -1.145183324813842773e+00 -8.082935810089111328e-01 -3.273645877838134766e+00
4.300210952758789062e+00 -1.621933460235595703e+00 4.028800487518310547e+00 1.090303421020507812e+00 -2.446444511413574219e+00 -5.753620713949203491e-02 -3.055180311203002930e+00 4.135825037956237793e-01 7.435081005096435547e-01 1.626848131418228149e-01 -1.343906641006469727e+00 -1.097247377038002014e-02 3.476205110549926758e+00 -1.491617560386657715e+00 -1.165545463562011719e+00 2.736661434173583984e-01 -1.133136391639709473e+00 2.237137317657470703e+00 1.840434312820434570e+00 -5.968098640441894531e+00 -3.837318658828735352e+00 -1.477069020271301270e+00 -2.028316259384155273e+00 -2.934263706207275391e+00 -3.779760360717773438e+00 1.343017578125000000e+00
1.822178006172180176e+00 -2.371501684188842773e+00 8.587887287139892578e-01 -9.593439102172851562e-01 -1.973748683929443359e+00 -1.810595154762268066e+00 -4.366090297698974609e-01 3.177992254495620728e-02 6.036674976348876953e-01 1.574699044227600098e+00 2.959763765335083008e+00 -1.486063003540039062e+00 -5.250055193901062012e-01 3.547479867935180664e+00 1.397548794746398926e+00 1.623845219612121582e+00 -1.265441775321960449e+00 -6.109177470207214355e-01 -4.260675907135009766e+00 -4.357751369476318359e+00 -5.542541980743408203e+00 4.623780727386474609e+00 -4.803159236907958984e+00 3.850499093532562256e-01 -5.536630153656005859e-01 -3.403701782226562500e+00
3.053061068058013916e-01 -3.283907413482666016e+00 1.465249419212341309e+00 2.098459243774414062e+00 7.622636556625366211e-01 -3.896286010742187500e+00 -5.942745685577392578e+00 2.735702753067016602e+00 3.306847810745239258e-01 -2.898967504501342773e+00 3.671242237091064453e+00 -9.731360077857971191e-01 -1.667005866765975952e-01 -2.470789194107055664e+00 1.674724578857421875e+00 3.695130109786987305e+00 -3.418469667434692383e+00 -7.038874030113220215e-01 -2.058397293090820312e+00 -1.885813593864440918e+00 -5.955859184265136719e+00 2.221049785614013672e+00 2.613804340362548828e+00 -1.273093968629837036e-01 1.056748151779174805e+00 -8.987363427877426147e-02
1.137613534927368164e+00 -3.895425081253051758e+00 -4.271207749843597412e-01 -5.360801815986633301e-01 -4.321711063385009766e+00 -1.247093901038169861e-01 -5.279997736215591431e-02 4.004214286804199219e+00 -2.347952425479888916e-01 8.321831822395324707e-01 -3.609763145446777344e+00 4.856701374053955078e+00 -1.983247846364974976e-01 -2.351558804512023926e-01 8.958948850631713867e-01 -2.661109268665313721e-01 -1.625318884849548340e+00 -1.794010519981384277e+00 5.376569628715515137e-01 8.312891721725463867e-01 -4.066249847412109375e+00 -1.666145205497741699e+00 -1.243944615125656128e-01 2.594967484474182129e-01 -5.188142657279968262e-01 -5.163887023925781250e+00
1.401594281196594238e+00 -4.248201370239257812e+00 1.259704381227493286e-01 3.016842842102050781e+00 -9.528105258941650391e-01 -8.780859708786010742e-01 1.966410279273986816e-01 3.449188709259033203e+00 4.794220626354217529e-01 1.102981328964233398e+00 -3.415427446365356445e+00 2.389785528182983398e+00 -3.688534975051879883e+00 -3.351654291152954102e+00 4.480272769927978516e+00 -1.510627985000610352e+00 -5.760075092315673828e+00 2.324279069900512695e+00 6.638802289962768555e-01 1.627500057220458984e-01 -3.202836275100708008e+00 8.971064090728759766e-01 1.114894747734069824e+00 -1.714029550552368164e+00 1.982767105102539062e+00 -5.432159423828125000e+00
1.630719065666198730e+00 -2.647830009460449219e+00 3.632100105285644531e+00 2.557310819625854492e+00 -1.109835505485534668e+00 2.366237878799438477e+00 -6.130750179290771484e+00 1.844763875007629395e+00 -4.475164785981178284e-02 -2.359982013702392578e+00 -2.175118446350097656e+00 6.902221441268920898e-01 -3.076813369989395142e-02 -1.625489115715026855e+00 -1.292024016380310059e+00 1.484029650688171387e+00 1.366653919219970703e+00 1.609069824218750000e+00 -4.285505712032318115e-01 -3.396763503551483154e-01 -5.192991733551025391e+00 2.314802885055541992e+00 -2.598726749420166016e+00 -5.446814060211181641e+00 -2.457631587982177734e+00 7.902665436267852783e-02
5.104398727416992188e-01 -4.128927230834960938e+00 -4.101616442203521729e-01 -2.324340581893920898e+00 3.811752080917358398e+00 1.055798649787902832e+00 -1.020017743110656738e+00 1.140135288238525391e+00 1.770888805389404297e+00 -2.394972085952758789e+00 1.313071548938751221e-01 -3.625724792480468750e+00 9.319684505462646484e-01 5.488911271095275879e-01 -1.981051921844482422e+00 -2.345680952072143555e+00 -1.795011043548583984e+00 -1.149616956710815430e+00 -3.208200931549072266e+00 -2.390410900115966797e+00 -5.179624080657958984e+00 4.612579822540283203e+00 -1.840395331382751465e+00 1.349225163459777832e+00 4.972900390625000000e+00 1.646719276905059814e-01
3.098065614700317383e+00 -3.615212440490722656e+00 2.359302997589111328e+00 1.216245293617248535e+00 -6.297028064727783203e-01 6.427881717681884766e-01 -4.443493366241455078e+00 2.978196442127227783e-01 -5.364544391632080078e+00 -2.501785278320312500e+00 1.098195552825927734e+00 3.162634849548339844e+00 3.635612010955810547e+00 2.725198268890380859e+00 -2.783435285091400146e-01 -6.859909534454345703e+00 -1.564549446105957031e+00 3.866245746612548828e+00 -1.359860658645629883e+00 -2.197493553161621094e+00 -1.643190145492553711e+00 5.880376100540161133e-01 -2.709208965301513672e+00 -8.070527911186218262e-01 -6.015449762344360352e-01 -1.189847826957702637e+00
1.437067866325378418e+00 -4.264873504638671875e+00 4.391656875610351562e+00 3.888603687286376953e+00 -3.489623963832855225e-01 -1.097353339195251465e+00 2.656736135482788086e+00 -7.394080162048339844e-01 -2.000081539154052734e+00 -1.764856338500976562e+00 -6.630398035049438477e-01 9.015878438949584961e-01 -1.420623660087585449e+00 -3.608143806457519531e+00 -4.771632850170135498e-01 -2.114254474639892578e+00 2.668608903884887695e+00 3.152721405029296875e+00 -4.066777229309082031e+00 -2.795787811279296875e+00 -5.545048713684082031e+00 -8.448500037193298340e-01 1.146947026252746582e+00 1.037402153015136719e+00 1.538493633270263672e-01 -3.500988483428955078e+00
-1.870751619338989258e+00 -4.871974468231201172e+00 1.357987165451049805e+00 -6.027098894119262695e-01 8.214496970176696777e-01 1.029262095689773560e-01 -1.959406256675720215e+00 5.035091400146484375e+00 3.228883981704711914e+00 7.945052981376647949e-01 -3.275788068771362305e+00 2.928109765052795410e-01 -1.023892402648925781e+00 -1.555319666862487793e+00 1.921947479248046875e+00 -3.234727382659912109e+00 -1.116173028945922852e+00 3.740911483764648438e-01 -4.623170197010040283e-02 -5.943095207214355469e+00 -4.002955913543701172e+00 9.616295099258422852e-01 -9.199434518814086914e-01 5.068165302276611328e+00 6.380131840705871582e-01 -2.439815759658813477e+00
4.455030441284179688e+00 -4.601212501525878906e+00 5.575675964355468750e-01 5.714341998100280762e-01 3.005017995834350586e+00 -3.434915542602539062e+00 -1.341092824935913086e+00 -1.975392699241638184e+00 -8.495457172393798828e-01 3.999184846878051758e+00 -1.490088831633329391e-02 1.099288463592529297e+00 4.443901181221008301e-01 -3.245822429656982422e+00 2.122496604919433594e+00 -6.875848174095153809e-01 -4.881159782409667969e+00 6.410958766937255859e-01 -5.413309574127197266e+00 2.593208312988281250e+00 -3.084172964096069336e+00 2.464768171310424805e+00 -2.781111001968383789e+00 1.717224530875682831e-02 -5.959493517875671387e-01 -6.873764395713806152e-01
3.511329650878906250e+00 -2.985183238983154297e+00 4.037945747375488281e+00 3.342154920101165771e-01 2.390012264251708984e+00 -1.810266256332397461e+00 -1.125548601150512695e+00 -2.742517471313476562e+00 -2.694518327713012695e+00 5.679925680160522461e-01 -2.841769695281982422e+00 3.398088455200195312e+00 1.371457457542419434e+00 -1.354656696319580078e+00 2.063942551612854004e-01 -2.463743686676025391e+00 3.095611035823822021e-01 -4.548578262329101562e+00 -3.042293310165405273e+00 -1.120548725128173828e+00 -6.436958312988281250e+00 2.436016082763671875e+00 -1.062076926231384277e+00 1.897716403007507324e+00 2.335016876459121704e-01 3.311711311340332031e+00
1.209998965263366699e+00 -5.272352218627929688e+00 3.104275226593017578e+00 -9.596391916275024414e-01 -7.874904572963714600e-02 -1.752422332763671875e+00 2.755360841751098633e+00 4.736096858978271484e+00 -5.344997644424438477e-01 -3.756747484207153320e+00 -2.674493074417114258e+00 4.824366569519042969e-01 4.443474709987640381e-01 4.708483219146728516e-01 3.330859661102294922e+00 -1.375929713249206543e+00 -2.428602457046508789e+00 5.877823233604431152e-01 -3.978595256805419922e+00 -2.175863027572631836e+00 -5.314753055572509766e+00 1.287122368812561035e+00 -8.515301346778869629e-01 -2.582354068756103516e+00 4.110974311828613281e+00 1.461679488420486450e-01
4.391911029815673828e-01 -2.654418468475341797e+00 2.769353866577148438e+00 1.174407720565795898e+00 3.004107952117919922e+00 3.697891950607299805e+00 -1.627512931823730469e+00 2.823337316513061523e+00 -3.411501169204711914e+00 -3.908485651016235352e+00 -1.040262699127197266e+00 -3.808978080749511719e+00 4.290743768215179443e-01 -6.418737769126892090e-01 5.597255229949951172e-01 -2.426560401916503906e+00 -4.219428062438964844e+00 -8.923717141151428223e-01 -2.556834697723388672e+00 -4.864028990268707275e-01 -2.840243577957153320e+00 2.873818635940551758e+00 3.323088645935058594e+00 2.018017768859863281e+00 -2.383044958114624023e+00 -4.612998008728027344e+00
2.676286697387695312e+00 -4.114419937133789062e+00 2.477477550506591797e+00 4.067494869232177734e+00 -9.527763724327087402e-01 2.178223609924316406e+00 -4.090781688690185547e+00 -2.912134170532226562e+00 9.259466528892517090e-01 8.038215637207031250e-01 -7.073551416397094727e-01 1.121901988983154297e+00 -1.629915952682495117e+00 -3.094005107879638672e+00 -4.083292961120605469e+00 -5.509233474731445312e+00 -2.214613109827041626e-01 3.049808979034423828e+00 -2.079979181289672852e-01 9.037902355194091797e-01 -1.822983741760253906e+00 -6.168558821082115173e-02 -7.535725831985473633e-01 2.962245464324951172e+00 4.703203141689300537e-01 -3.157053709030151367e+00
-4.844494163990020752e-01 8.365029096603393555e-01 -3.752845764160156250e+00 2.519665360450744629e-01 2.162691593170166016e+00 -4.130504131317138672e+00 3.720143556594848633e+00 -5.613274574279785156e+00 8.740817308425903320e-01 -1.915971159934997559e+00 2.073284387588500977e+00 2.307258844375610352e+00 3.705960810184478760e-01 -3.693867444992065430e+00 -1.279653549194335938e+00 1.186626791954040527e+00 -9.311152696609497070e-01 -5.093683600425720215e-01 1.895401239395141602e+00 -2.433678627014160156e+00 1.172067761421203613e+00 -4.393779039382934570e-01 4.608871459960937500e+00 4.464163780212402344e-01 -7.858393788337707520e-01 -7.023822784423828125e+00
-2.721696376800537109e+00 4.286164760589599609e+00 -2.229586839675903320e+00 -4.434698522090911865e-01 -5.730210542678833008e-01 1.738224744796752930e+00 -9.519638419151306152e-01 -4.800878047943115234e+00 9.381315708160400391e-01 4.200328826904296875e+00 -5.873271226882934570e-01 -2.506067037582397461e+00 9.381046295166015625e-01 -2.552023172378540039e+00 7.863591313362121582e-01 2.500632762908935547e+00 -3.557130098342895508e+00 -3.369992733001708984e+00 3.738785743713378906e+00 2.868124961853027344e+00 -8.229286670684814453e-01 -2.562259435653686523e+00 -1.966903209686279297e+00 2.755245566368103027e-01 1.392078757286071777e+00 -5.847339630126953125e+00
-2.955111742019653320e+00 -6.576513051986694336e-01 -2.075658559799194336e+00 4.296070337295532227e-01 -3.399786949157714844e+00 2.092437505722045898e+00 6.783512234687805176e-01 -4.896110892295837402e-01 -9.769518375396728516e-01 -1.390081167221069336e+00 7.912592291831970215e-01 4.235383510589599609e+00 1.595588564872741699e+00 -4.966410160064697266e+00 -3.496323108673095703e+00 2.999126911163330078e+00 -3.394276857376098633e+00 -4.654356002807617188e+00 1.230662584304809570e+00 -1.631863713264465332e-01 1.704697251319885254e+00 8.319973945617675781e-01 3.933439970016479492e+00 -2.477755069732666016e+00 1.450081825256347656e+00 -2.736367702484130859e+00
3.747985661029815674e-01 -1.511884093284606934e+00 -3.427236318588256836e+00 3.063955605030059814e-01 -1.509796261787414551e+00 4.403857707977294922e+00 -3.113256394863128662e-01 -2.903409242630004883e+00 -1.280628889799118042e-01 -2.545463562011718750e+00 -1.343105435371398926e+00 -1.684203982353210449e+00 3.287652730941772461e-01 -3.596699535846710205e-01 3.730134725570678711e+00 8.532691597938537598e-01 -2.114117383956909180e+00 -4.308615684509277344e+00 1.489778995513916016e+00 -3.563733398914337158e-01 -3.147085905075073242e+00 -2.838434696197509766e+00 7.104433774948120117e-01 1.632795691490173340e+00 -9.203560352325439453e-01 3.234911441802978516e+00
1.329392433166503906e+00 -2.541324138641357422e+00 -4.160629272460937500e+00 -3.857127189636230469e+00 6.315497756004333496e-01 8.015293478965759277e-01 -3.178448677062988281e+00 -2.141381740570068359e+00 1.726670026779174805e+00 -4.953021407127380371e-01 -4.077916622161865234e+00 -2.945853471755981445e+00 3.975526809692382812e+00 1.531602382659912109e+00 1.533545374870300293e+00 1.457034945487976074e+00 -7.244479060173034668e-01 -3.375302553176879883e-01 3.329026222229003906e+00 1.613439679145812988e+00 -1.288072347640991211e+00 -1.681625247001647949e+00 1.719015121459960938e+00 -1.336156249046325684e+00 2.127329856157302856e-01 -4.498105525970458984e+00
-3.063925027847290039e+00 -4.958259105682373047e+00 -2.361422300338745117e+00 1.495648145675659180e+00 -6.685787439346313477e-01 2.910116434097290039e+00 1.511470675468444824e+00 -5.020601749420166016e+00 2.521582603454589844e+00 -2.285587787628173828e+00 4.996139705181121826e-01 -3.508350610733032227e+00 6.344638466835021973e-01 -1.230193138122558594e+00 9.236128330230712891e-01 1.592147946357727051e+00 -3.938660383224487305e+00 -1.234000444412231445e+00 5.173902988433837891e+00 -1.887097358703613281e+00 3.120480775833129883e+00 -5.628829598426818848e-01 1.773353099822998047e+00 3.917401134967803955e-01 4.504380375146865845e-02 -2.260248899459838867e+00
-2.149797916412353516e+00 -3.008013486862182617e+00 -1.205349922180175781e+00 -4.347075462341308594e+00 -4.852234840393066406e+00 1.815228819847106934e+00 -1.543825984001159668e+00 -7.510405778884887695e-01 2.356423139572143555e+00 -7.883114218711853027e-01 -4.319558441638946533e-01 5.874252319335937500e-01 2.254600524902343750e+00 -2.003930330276489258e+00 1.121796131134033203e+00 1.904967069625854492e+00 -7.157358527183532715e-01 -3.491770029067993164e+00 7.644961476325988770e-01 -1.366635262966156006e-01 -2.376640796661376953e+00 -3.038755893707275391e+00 3.798521518707275391e+00 1.005765914916992188e+00 1.709535598754882812e+00 -9.298004508018493652e-01
-3.450935363769531250e+00 8.720365762710571289e-01 -3.345933198928833008e+00 2.131694078445434570e+00 -6.001528263092041016e+00 8.826287984848022461e-01 1.016409397125244141e+00 -1.780494928359985352e+00 -4.329569816589355469e+00 -2.928101539611816406e+00 -2.785369396209716797e+00 4.312100708484649658e-01 4.144464492797851562e+00 -3.704182803630828857e-01 4.022580385208129883e-01 1.362846374511718750e+00 -4.486348152160644531e+00 -1.301314353942871094e+00 4.440806865692138672e+00 -1.740788966417312622e-01 2.001816272735595703e+00 2.682498693466186523e+00 -2.491565197706222534e-01 4.536907970905303955e-01 -1.212584972381591797e+00 7.863809913396835327e-02
-2.929014682769775391e+00 1.689624309539794922e+00 -2.443733930587768555e+00 2.308975532650947571e-02 -2.593178987503051758e+00 2.795288085937500000e+00 -1.606582641601562500e+00 -4.426452159881591797e+00 -2.431843280792236328e+00 8.546603322029113770e-01 -4.646093845367431641e+00 3.514701366424560547e+00 2.828062057495117188e+00 -3.664591610431671143e-01 -1.704044580459594727e+00 4.498204588890075684e-02 -8.657302856445312500e-01 -3.814907312393188477e+00 -1.549193412065505981e-01 -6.407836675643920898e-01 -2.777089357376098633e+00 9.662497639656066895e-01 6.703843116760253906e+00 2.676278948783874512e-01 5.940153002738952637e-01 -1.583521604537963867e+00
-3.473866224288940430e+00 -2.541352510452270508e+00 1.817071795463562012e+00 3.844179809093475342e-01 1.928868889808654785e-01 2.169912815093994141e+00 -7.856031060218811035e-01 -5.541975021362304688e+00 1.342611908912658691e+00 3.941996991634368896e-01 -5.614723205566406250e+00 -8.351901769638061523e-01 9.888349771499633789e-01 -3.570322513580322266e+00 4.161780834197998047e+00 1.147620677947998047e+00 -3.128268718719482422e+00 2.358291149139404297e+00 1.200080513954162598e+00 -3.974709987640380859e+00 3.080528974533081055e+00 2.600990772247314453e+00 3.198277473449707031e+00 -1.938830971717834473e+00 -1.574621915817260742e+00 -4.504069805145263672e+00
-2.168611764907836914e+00 1.994311809539794922e+00 -9.205377697944641113e-01 -8.719327449798583984e-01 8.651639223098754883e-01 -4.104070186614990234e+00 -2.157159566879272461e+00 -1.917838454246520996e+00 -4.177474081516265869e-01 -1.536777377128601074e+00 -1.891753673553466797e+00 4.026501655578613281e+00 4.454453885555267334e-01 -2.545883417129516602e+00 3.991166353225708008e+00 1.423261761665344238e+00 -1.081863999366760254e+00 -5.810753107070922852e-01 3.241842508316040039e+00 2.897228717803955078e+00 7.996338605880737305e-01 -1.374183177947998047e+00 -5.261040329933166504e-01 -1.898542165756225586e+00 -3.692085981369018555e+00 -5.033020496368408203e+00
-2.760902881622314453e+00 -6.155516505241394043e-01 -4.004116535186767578e+00 2.350960969924926758e+00 -3.283699750900268555e+00 -2.008621692657470703e+00 1.091717481613159180e+00 -2.106790065765380859e+00 -2.071895360946655273e+00 -2.711543083190917969e+00 -3.403646945953369141e+00 -1.379150271415710449e+00 3.154805421829223633e+00 -2.331246376037597656e+00 1.879554867744445801e+00 2.628328084945678711e+00 2.694293260574340820e+00 -1.454920649528503418e+00 3.841338872909545898e+00 1.314843773841857910e+00 2.082204520702362061e-01 4.594475269317626953e+00 -2.617064714431762695e+00 -9.915379881858825684e-01 -3.586602210998535156e+00 -2.296517372131347656e+00
3.362437725067138672e+00 2.161178112030029297e+00 -1.218346118927001953e+00 8.718001842498779297e-02 2.746264338493347168e-01 2.788713455200195312e+00 -3.903256654739379883e+00 -5.471854686737060547e+00 -1.277728438377380371e+00 1.036830663681030273e+00 -1.929722309112548828e+00 1.660306692123413086e+00 6.564985513687133789e-01 -4.953306674957275391e+00 2.356232881546020508e+00 5.018526315689086914e-01 -2.556875705718994141e+00 -4.173345088958740234e+00 1.267255544662475586e+00 8.419085741043090820e-01 -5.730423331260681152e-01 -2.446321725845336914e+00 3.274654626846313477e+00 -2.623718023300170898e+00 -4.871510565280914307e-01 -6.065120100975036621e-01
-3.142558097839355469e+00 -7.745371460914611816e-01 -2.308335304260253906e+00 -1.646777749061584473e+00 -3.462018728256225586e+00 -1.416749238967895508e+00 -4.676021575927734375e+00 -2.490790128707885742e+00 3.491304397583007812e+00 2.112225055694580078e+00 5.006340146064758301e-01 3.219671487808227539e+00 2.621827840805053711e+00 -1.059300661087036133e+00 1.869684338569641113e+00 -1.481932044029235840e+00 -2.206193923950195312e+00 -4.057374477386474609e+00 3.650485992431640625e+00 7.155206203460693359e-01 -6.217213273048400879e-01 8.048137426376342773e-01 7.084348201751708984e-01 2.441462755203247070e+00 -4.817024707794189453e+00 1.718512028455734253e-01
-2.186351537704467773e+00 3.858536720275878906e+00 -1.254850924015045166e-01 -4.447931349277496338e-01 -4.479612827301025391e+00 2.841490030288696289e+00 -1.415155887603759766e+00 -4.989229679107666016e+00 1.907324641942977905e-01 3.682030439376831055e-01 -2.524264574050903320e+00 2.000909090042114258e+00 2.584291219711303711e+00 -3.458960771560668945e+00 -7.250871062278747559e-01 3.710305318236351013e-02 -6.293172240257263184e-01 -2.567563295364379883e+00 9.497921466827392578e-01 -2.766838788986206055e+00 3.915510416030883789e+00 3.362424850463867188e+00 -3.151355266571044922e+00 1.123345851898193359e+00 3.660792410373687744e-01 -4.411188602447509766e+00
-1.045668125152587891e+00 -1.617636919021606445e+00 -5.363912582397460938e+00 2.686691045761108398e+00 -2.252469062805175781e+00 1.561286330223083496e+00 3.228744029998779297e+00 -3.906481981277465820e+00 -8.635928630828857422e-01 -4.460240304470062256e-01 -2.971635758876800537e-01 5.736373901367187500e+00 -1.408826231956481934e+00 -5.970915794372558594e+00 1.147967934608459473e+00 1.114329338073730469e+00 -5.353244543075561523e-01 -2.737922668457031250e+00 9.404812008142471313e-02 1.099956750869750977e+00 -1.895114779472351074e+00 -1.447588205337524414e+00 -2.077087908983230591e-01 -8.457871675491333008e-01 1.753039598464965820e+00 7.240365147590637207e-01
-5.049500942230224609e+00 -6.748148798942565918e-01 -1.353735476732254028e-01 -4.579692840576171875e+00 -2.184510707855224609e+00 -5.441572070121765137e-01 4.093559741973876953e+00 -3.657767057418823242e+00 1.029057264328002930e+00 -6.497919559478759766e-01 1.168670058250427246e+00 -1.544224262237548828e+00 2.277633190155029297e+00 -5.589111328125000000e+00 1.499085307121276855e+00 3.014200448989868164e+00 8.548183441162109375e-01 -1.417260766029357910e-01 1.238045334815979004e+00 -2.599427223205566406e+00 -2.123764276504516602e+00 -1.311022043228149414e-01 2.059297084808349609e+00 2.050171613693237305e+00 -4.035801291465759277e-01 -2.529421091079711914e+00
1.571128219366073608e-01 2.145243883132934570e+00 -6.221605777740478516e+00 -4.634958207607269287e-01 1.944278120994567871e+00 -1.965423464775085449e+00 -3.786417543888092041e-01 -3.068790912628173828e+00 -8.691595196723937988e-01 2.339779376983642578e+00 -2.040441751480102539e+00 1.854699134826660156e+00 4.225599288940429688e+00 -3.220997095108032227e+00 -9.882141351699829102e-01 3.743996381759643555e+00 2.351637482643127441e-01 2.103279113769531250e+00 2.001994550228118896e-01 -1.487772107124328613e+00 -1.928965926170349121e+00 -8.169874548912048340e-01 -2.722525358200073242e+00 -1.051275134086608887e+00 -2.393587082624435425e-01 -5.384956359863281250e+00
3.640266060829162598e-01 -1.833707451820373535e+00 -1.737558841705322266e+00 -1.775221943855285645e+00 1.964516788721084595e-01 -1.114216208457946777e+00 -4.020177841186523438e+00 -3.649845838546752930e+00 3.711014270782470703e+00 -2.121194601058959961e+00 -1.381618827581405640e-01 -1.563523530960083008e+00 1.767048358917236328e+00 -1.846948415040969849e-01 -1.103450655937194824e+00 3.210059404373168945e-01 -1.096350550651550293e+00 -2.661480903625488281e+00 5.905711174011230469e+00 2.261082410812377930e+00 4.778515338897705078e+00 3.969188928604125977e-01 9.192397594451904297e-01 -2.088170289993286133e+00 -1.366656780242919922e+00 -5.317079067230224609e+00
5.100176334381103516e-01 6.414831876754760742e-01 -5.081562995910644531e+00 -5.466807484626770020e-01 -2.932795524597167969e+00 1.421113252639770508e+00 5.808489918708801270e-01 -2.876481533050537109e+00 1.538658857345581055e+00 -5.972930788993835449e-01 -5.816777348518371582e-01 1.166129231452941895e+00 5.165757179260253906e+00 -4.466223239898681641e+00 2.626512289047241211e+00 9.482858180999755859e-01 1.845620274543762207e+00 8.973637223243713379e-01 2.572616577148437500e+00 -2.882551431655883789e+00 -2.377851486206054688e+00 -2.681672334671020508e+00 -4.858788967132568359e+00 -1.623008608818054199e+00 -2.417166948318481445e+00 -8.155317306518554688e-01
1.377660274505615234e+00 -1.316392302513122559e+00 1.497407406568527222e-01 -8.967428803443908691e-01 -2.107675075531005859e+00 -2.247632503509521484e+00 1.109135866165161133e+00 -2.622120976448059082e-01 -6.480093002319335938e-01 3.146265506744384766e+00 -2.373230218887329102e+00 -1.643790602684020996e+00 -1.964477300643920898e-01 4.366897583007812500e+00 -2.610491275787353516e+00 -6.937519073486328125e+00 3.880533456802368164e+00 -4.876967430114746094e+00 -1.123952865600585938e-02 -3.758375644683837891e+00 3.043209314346313477e+00 2.311382293701171875e+00 -9.004724025726318359e-01 -2.047772169113159180e+00 4.708515107631683350e-01 1.516581773757934570e+00
-4.905725270509719849e-02 -7.991784065961837769e-02 1.188377499580383301e+00 3.839574337005615234e+00 -6.439664363861083984e-01 6.411762237548828125e-01 1.364879727363586426e+00 -2.804479122161865234e+00 8.453623652458190918e-01 6.025190949440002441e-01 5.659553050994873047e+00 -5.154358386993408203e+00 4.306334018707275391e+00 1.633479356765747070e+00 -1.880379796028137207e+00 -4.556223869323730469e+00 8.599442243576049805e-02 -1.659039974212646484e+00 -4.690854072570800781e+00 -1.247955441474914551e+00 -6.295053362846374512e-01 -1.985566854476928711e+00 3.514727592468261719e+00 -2.161311626434326172e+00 -3.295679092407226562e+00 -2.388691663742065430e+00
1.000542998313903809e+00 2.510471105575561523e+00 -2.989245414733886719e+00 -3.794603347778320312e+00 -3.458288669586181641e+00 -1.928168416023254395e+00 1.875531911849975586e+00 -5.265367627143859863e-01 -3.142667561769485474e-02 -1.491365194320678711e+00 1.888293504714965820e+00 2.115466356277465820e+00 -1.591803550720214844e+00 4.177258968353271484e+00 1.590029954910278320e+00 -5.076382637023925781e+00 -7.862392067909240723e-01 1.984943628311157227e+00 -9.814481139183044434e-01 -6.402714252471923828e+00 1.835427165031433105e+00 -1.717778682708740234e+00 2.411821842193603516e+00 -2.846235036849975586e+00 2.095096856355667114e-01 7.037236690521240234e-01
-7.592123746871948242e-01 2.408085107803344727e+00 2.519350290298461914e+00 -3.306374549865722656e+00 9.081270098686218262e-01 -3.603436470031738281e+00 1.613387703895568848e+00 -1.046335935592651367e+00 3.941824674606323242e+00 -5.641710758209228516e+00 3.950156927108764648e+00 -3.287673711776733398e+00 2.270589351654052734e+00 9.953159093856811523e-01 -2.780605554580688477e-01 -2.186960220336914062e+00 7.517344951629638672e-01 -3.434592247009277344e+00 -2.162025928497314453e+00 -1.555566310882568359e+00 -4.734062552452087402e-01 -2.587241649627685547e+00 1.706522345542907715e+00 -1.799125790596008301e+00 -9.055313467979431152e-01 -2.719103917479515076e-02
2.060591459274291992e+00 6.769731044769287109e-01 -2.113922834396362305e+00 -2.645023465156555176e-01 7.288069725036621094e-01 -1.082185387611389160e+00 -6.369162797927856445e-01 -3.009729862213134766e+00 -3.326085567474365234e+00 1.665761351585388184e+00 1.754158735275268555e+00 -3.108122587203979492e+00 9.829223155975341797e-01 2.053911685943603516e+00 4.339267730712890625e+00 -8.578788638114929199e-01 2.777046203613281250e+00 -3.145702838897705078e+00 -4.676371574401855469e+00 -3.865427732467651367e+00 1.685707211494445801e+00 -4.569839000701904297e+00 5.614660382270812988e-01 -1.904912829399108887e+00 -2.366539478302001953e+00 1.597428083419799805e+00
-3.934350252151489258e+00 -1.935112237930297852e+00 -2.876492738723754883e-01 3.899861097335815430e+00 1.617035120725631714e-01 -5.006959915161132812e+00 4.481904506683349609e+00 -6.761630773544311523e-01 5.383139848709106445e-01 2.270662307739257812e+00 3.923329114913940430e+00 -4.469985067844390869e-01 3.842061519622802734e+00 2.712202310562133789e+00 7.942205071449279785e-01 -2.113458395004272461e+00 4.571440219879150391e-01 -5.661401271820068359e+00 -1.369047999382019043e+00 7.249842863529920578e-03 -3.677783310413360596e-01 -4.398883879184722900e-02 -9.937095642089843750e-01 -5.724574565887451172e+00 -5.128071308135986328e+00 -1.288386464118957520e+00
-1.479737281799316406e+00 -2.485666990280151367e+00 -1.132027029991149902e+00 -1.868203431367874146e-01 2.713693082332611084e-01 1.449898838996887207e+00 2.251576185226440430e+00 -1.967157602310180664e+00 -3.450385093688964844e+00 1.349280476570129395e+00 7.595126628875732422e-01 5.431624412536621094e+00 2.050266228616237640e-02 2.807310342788696289e+00 -1.298562049865722656e+00 -4.233003616333007812e+00 -2.424556732177734375e+00 -2.669312953948974609e+00 1.476681828498840332e+00 -4.291351795196533203e+00 3.389643192291259766e+00 -2.059628725051879883e+00 5.091417208313941956e-02 -1.924065113067626953e+00 -1.450540304183959961e+00 -1.100969076156616211e+00
-3.664191484451293945e+00 9.558040499687194824e-01 -2.322091758251190186e-01 -1.491237163543701172e+00 -5.159942150115966797e+00 2.481121867895126343e-01 -3.997825086116790771e-01 -2.242069005966186523e+00 -3.904484033584594727e+00 1.937291979789733887e+00 1.103995084762573242e+00 -1.514717340469360352e-01 -1.705958008766174316e+00 2.854589223861694336e+00 -9.014476835727691650e-02 -1.634535908699035645e+00 2.237901687622070312e+00 1.473321676254272461e+00 -4.001985073089599609e+00 -6.183596849441528320e-01 -5.348442792892456055e-01 3.006522417068481445e+00 8.966342806816101074e-01 -3.404155254364013672e+00 1.290310025215148926e+00 -8.764248490333557129e-01
-5.588323593139648438e+00 -8.047482371330261230e-01 1.514644265174865723e+00 -3.361597061157226562e+00 -1.895400881767272949e+00 2.443914413452148438e+00 9.636777639389038086e-01 5.931446075439453125e+00 4.208570420742034912e-01 -1.172586679458618164e+00 3.992376327514648438e+00 -1.168746113777160645e+00 8.195850253105163574e-02 3.069386482238769531e+00 -9.326890110969543457e-01 -3.823386907577514648e+00 1.472895622253417969e+00 -1.022758245468139648e+00 -1.910725355148315430e+00 -1.544173002243041992e+00 2.040844440460205078e+00 -4.436289310455322266e+00 -7.550947070121765137e-01 -4.654602527618408203e+00 -1.459066033363342285e+00 -5.882593989372253418e-01
-1.656168103218078613e+00 -1.010454297065734863e+00 -1.324332118034362793e+00 -4.664952754974365234e-01 1.867628216743469238e+00 5.003971233963966370e-02 -1.976956009864807129e+00 8.724961280822753906e-01 -1.629504323005676270e+00 8.340093493461608887e-01 1.470172643661499023e+00 -3.433510065078735352e+00 4.492701292037963867e-01 4.187594890594482422e+00 -1.517644047737121582e+00 -4.245736598968505859e+00 1.551374316215515137e+00 1.914164423942565918e-01 -2.559207439422607422e+00 2.451062388718128204e-02 3.056229114532470703e+00 -2.467186927795410156e+00 6.232157230377197266e+00 -3.194039344787597656e+00 -4.062242031097412109e+00 -4.700708866119384766e+00
7.046898603439331055e-01 2.261018753051757812e+00 -3.999082803726196289e+00 -5.132735252380371094e+00 -2.478197097778320312e+00 5.669276714324951172e-01 2.684058427810668945e+00 -4.643844604492187500e+00 1.403377890586853027e+00 3.191095590591430664e-01 4.215553760528564453e+00 -4.046049118041992188e-01 9.189641475677490234e-02 3.223248720169067383e+00 -2.993055582046508789e+00 -2.899844646453857422e+00 1.545986294746398926e+00 -2.695004940032958984e-01 -5.295877456665039062e-01 -1.741541266441345215e+00 -1.805451631546020508e+00 1.632984280586242676e+00 -5.288172960281372070e-01 -2.894853353500366211e+00 -3.852001905441284180e+00 1.832753419876098633e+00
-1.791244149208068848e+00 1.898970961570739746e+00 1.497555375099182129e+00 1.475608348846435547e+00 1.375287532806396484e+00 -5.422098636627197266e+00 -2.995195865631103516e+00 -6.888028383255004883e-01 -6.645120382308959961e-01 -2.414536237716674805e+00 1.522949457168579102e+00 6.962087750434875488e-01 1.215105533599853516e+00 1.364780783653259277e+00 -2.605370283126831055e+00 -1.825492024421691895e+00 2.473975658416748047e+00 -2.611894130706787109e+00 3.066605627536773682e-01 -1.178652405738830566e+00 6.142563819885253906e-01 9.750709533691406250e-01 -8.394290208816528320e-01 -2.392140150070190430e+00 1.601889729499816895e+00 -3.934026241302490234e+00
-3.820900440216064453e+00 4.170087814331054688e+00 3.249027132987976074e-01 5.659825727343559265e-02 7.158562541007995605e-01 -1.764947891235351562e+00 -5.531389713287353516e+00 7.543038129806518555e-01 5.010903477668762207e-01 -1.176000118255615234e+00 3.824856519699096680e+00 -9.036368727684020996e-01 4.323837757110595703e-01 3.518578290939331055e+00 -2.594896554946899414e+00 -2.651804387569427490e-01 3.474791049957275391e+00 -2.065392971038818359e+00 -2.236117362976074219e+00 -1.803372859954833984e+00 -1.730053663253784180e+00 3.897667229175567627e-01 1.685110688209533691e+00 -3.839417695999145508e+00 -1.787565469741821289e+00 -3.816270589828491211e+00
-2.023452043533325195e+00 1.615059614181518555e+00 -3.731112778186798096e-01 -3.361610889434814453e+00 -5.354318141937255859e+00 2.629687786102294922e+00 -1.225419640541076660e+00 -1.011051416397094727e+00 -4.405973911285400391e+00 1.054028153419494629e+00 1.610745429992675781e+00 1.751529276371002197e-01 -1.246786355972290039e+00 3.580008268356323242e+00 -1.021712779998779297e+00 -2.415693044662475586e+00 3.827349901199340820e+00 -1.221197843551635742e+00 -2.995087146759033203e+00 -5.085762590169906616e-03 -1.543155431747436523e+00 -4.361876249313354492e-01 1.838614583015441895e+00 -3.815020322799682617e+00 2.256387710571289062e+00 4.647581577301025391e-01
-4.242651462554931641e+00 4.296291470527648926e-01 2.355990171432495117e+00 3.966675281524658203e+00 -2.954575777053833008e+00 -3.162406682968139648e+00 -5.170176923274993896e-02 -1.876352071762084961e+00 3.292548060417175293e-01 -3.783975839614868164e-01 3.730117559432983398e+00 -1.529964208602905273e+00 9.181064963340759277e-01 7.523711323738098145e-01 1.664057612419128418e+00 2.401115000247955322e-02 1.966363549232482910e+00 -2.311557054519653320e+00 -2.598564147949218750e+00 -2.843073606491088867e+00 1.871224761009216309e+00 -1.174810647964477539e+00 -3.662133216857910156e+00 -6.173701286315917969e+00 3.621826887130737305e+00 -1.097921490669250488e+00
1.086149573326110840e+00 -1.456339120864868164e+00 1.386479020118713379e+00 -2.132596015930175781e+00 -4.457017898559570312e+00 -6.163941860198974609e+00 1.226301789283752441e+00 -1.520452618598937988e+00 -3.675281047821044922e+00 -1.420666813850402832e+00 1.014022827148437500e+00 2.291498422622680664e+00 4.174465239048004150e-01 2.898479700088500977e+00 2.529589176177978516e+00 -2.021943569183349609e+00 1.416047334671020508e+00 2.762959718704223633e+00 -2.522952556610107422e+00 -3.923033237457275391e+00 3.328605890274047852e+00 1.151674628257751465e+00 1.562785983085632324e+00 -2.885359287261962891e+00 3.359549641609191895e-01 -3.666632175445556641e+00
-3.818205833435058594e+00 2.304300785064697266e+00 -2.941468954086303711e+00 -1.752357006072998047e+00 5.807414054870605469e+00 -2.005593776702880859e+00 3.475637912750244141e+00 -2.019164323806762695e+00 -2.415109872817993164e+00 -4.098949432373046875e-01 1.958649158477783203e+00 2.058227777481079102e+00 -1.160704016685485840e+00 3.630403995513916016e+00 -2.070386886596679688e+00 -1.129125237464904785e+00 1.882866263389587402e+00 -1.782927751541137695e+00 -4.381155967712402344e+00 -2.764259576797485352e+00 2.538228332996368408e-01 3.403710126876831055e-01 7.641261219978332520e-01 -2.266391038894653320e+00 -1.465118765830993652e+00 -4.238583564758300781e+00
-2.291531801223754883e+00 5.045515060424804688e+00 -2.946885347366333008e+00 1.150075197219848633e+00 -1.019026413559913635e-01 2.234062850475311279e-01 1.011283397674560547e+00 -9.508306980133056641e-01 -3.023162856698036194e-02 1.868492960929870605e+00 2.953629732131958008e+00 9.764598011970520020e-01 1.326210498809814453e+00 2.731941699981689453e+00 -3.080632686614990234e+00 -2.448244094848632812e-01 2.070334672927856445e+00 -4.532056331634521484e+00 -3.182740211486816406e+00 -7.177713394165039062e+00 1.625944495201110840e+00 -2.550962269306182861e-01 -5.336809158325195312e+00 -1.804332017898559570e+00 -1.281901240348815918e+00 5.800296664237976074e-01
-1.793880701065063477e+00 2.953345060348510742e+00 -1.305931687355041504e+00 4.751946032047271729e-01 -8.946937322616577148e-01 -1.728914380073547363e+00 -3.550716042518615723e-01 1.107951521873474121e+00 -6.262954711914062500e+00 -8.169195652008056641e-01 2.710943698883056641e+00 8.359453678131103516e-01 4.903699874877929688e+00 4.536640644073486328e+00 -5.282416939735412598e-02 -4.494927883148193359e+00 -5.041998624801635742e-01 -2.755614519119262695e+00 -1.057008981704711914e+00 1.615141868591308594e+00 -1.902889013290405273e+00 -3.998989582061767578e+00 -2.849031686782836914e-01 -4.612545013427734375e+00 2.543467521667480469e+00 -1.217713132500648499e-01
2.134078502655029297e+00 4.218715190887451172e+00 9.432834386825561523e-01 2.110512018203735352e+00 -3.073066234588623047e+00 -3.240107595920562744e-01 1.908604621887207031e+00 -2.438941225409507751e-02 -1.265248417854309082e+00 -6.231824159622192383e-01 5.773764133453369141e+00 7.547481060028076172e-01 -2.173960685729980469e+00 2.039743661880493164e+00 1.098478555679321289e+00 -1.970983982086181641e+00 1.376067280769348145e+00 -2.066187143325805664e+00 2.861076891422271729e-01 -4.239703178405761719e+00 -3.282706975936889648e+00 -6.906272888183593750e+00 7.418627738952636719e-01 -2.871974945068359375e+00 -1.955899357795715332e+00 -2.394737243652343750e+00
