-1.012706831097602844e-01
-2.108472436666488647e-01
-3.859969973564147949e-02
-1.658789962530136108e-01
1.183976829051971436e-01
-2.418051101267337799e-02
3.111544065177440643e-02
-1.109680756926536560e-01
8.018966019153594971e-02
1.922095715999603271e-01
1.266042292118072510e-01
2.638132497668266296e-02
-6.050313822925090790e-03
6.182295829057693481e-02
5.143791437149047852e-02
-2.039693528786301613e-03
2.280044369399547577e-02
-1.293796747922897339e-01
-1.265349686145782471e-01
-2.210170179605484009e-01
-1.031121239066123962e-01
-1.817456483840942383e-01
1.165756136178970337e-01
-2.976678684353828430e-02
3.315304173156619072e-03
-1.925896853208541870e-01
7.877020537853240967e-02
5.615159869194030762e-02
-1.424301862716674805e-01
-1.500443220138549805e-01
-1.290019750595092773e-01
-1.215838342905044556e-01
1.276043653488159180e-01
1.949721723794937134e-01
-5.761677026748657227e-02
3.389461711049079895e-02
1.040334030985832214e-01
-1.344128996133804321e-01
-7.590738683938980103e-02
6.140316836535930634e-03
