-1.322520017623901367e+00 -5.301579833030700684e-01 -1.334731698036193848e+00 2.128754109144210815e-01 2.673796892166137695e+00 2.017022609710693359e+00 2.525092124938964844e+00 9.553328752517700195e-01 2.291635870933532715e-01 -2.659385204315185547e+00 -2.307502985000610352e+00 -6.589420437812805176e-01 -2.872566699981689453e+00 7.151834666728973389e-03 -2.354995727539062500e+00 1.612587720155715942e-01 -1.357988834381103516e+00 2.850793838500976562e+00 2.615689516067504883e+00 -1.146649122238159180e+00 1.795387625694274902e+00 2.304940700531005859e+00 4.048127233982086182e-01 2.665396034717559814e-01 -7.507302165031433105e-01 -1.181709647178649902e+00 1.559557914733886719e+00 -8.562090992927551270e-01 -1.806239008903503418e+00 1.397130608558654785e+00 -5.099554657936096191e-01 -1.339257836341857910e+00 1.781748652458190918e+00 -1.311139822006225586e+00 -1.926107048988342285e+00 -1.774755835533142090e+00 1.787492275238037109e+00 -1.027855873107910156e+00 -2.292709827423095703e+00 1.189307212829589844e+00 -1.058503866195678711e+00 2.265896201133728027e-01 3.044073104858398438e+00 6.525260210037231445e-01 2.769467353820800781e+00 -5.981174111366271973e-02 5.759534239768981934e-01 1.838693499565124512e+00 -2.285223960876464844e+00 -1.387350678443908691e+00 1.161430239677429199e+00 -1.952636957168579102e+00 1.326447963714599609e+00 1.167904376983642578e+00 -5.749218463897705078e-01 1.782277464866638184e+00 -1.028538942337036133e+00 -1.343024492263793945e+00 -1.574993729591369629e+00 -1.560120463371276855e+00 3.218597769737243652e-01 3.165387868881225586e+00 -1.953307867050170898e+00 1.489157557487487793e+00 7.128745913505554199e-01 -7.395490407943725586e-01 -1.400774478912353516e+00 -3.733063042163848877e-01 3.228024244308471680e-01 2.168182283639907837e-02 9.497131109237670898e-01 9.285674095153808594e-01 -6.146833896636962891e-01 3.243356049060821533e-01 -6.054489612579345703e-01 2.185311079025268555e+00 -2.863957881927490234e+00 1.382652997970581055e+00 -1.159947991371154785e+00 2.842858314514160156e+00 -1.464218378067016602e+00 -1.212201476097106934e+00 -4.648774564266204834e-01 2.405734211206436157e-01 4.087953865528106689e-01 -3.463421761989593506e-02 2.029144048690795898e+00 -4.887214303016662598e-01 -1.126198172569274902e-01 -1.826679944992065430e+00 -1.596387982368469238e+00 1.956605434417724609e+00 -1.080542728304862976e-01 7.499834299087524414e-01 -1.287034630775451660e+00 -2.308226823806762695e+00 -3.164986371994018555e-01 6.262554787099361420e-03 7.679868340492248535e-01 1.804833054542541504e+00
-3.102442741394042969e+00 -1.764230132102966309e+00 -1.907348871231079102e+00 3.182791471481323242e+00 -1.908241391181945801e+00 -1.379227161407470703e+00 -2.415906906127929688e+00 2.514295339584350586e+00 -7.537471652030944824e-01 1.939202427864074707e+00 2.209529161453247070e+00 -8.474946022033691406e-01 2.136600255966186523e+00 -1.638319134712219238e+00 -1.535153746604919434e+00 7.408173680305480957e-01 1.223005414009094238e+00 1.932200908660888672e+00 6.831255555152893066e-01 6.472001075744628906e-01 -1.734116196632385254e+00 1.968252420425415039e+00 3.185337066650390625e+00 4.861845821142196655e-02 1.793117642402648926e+00 1.946908235549926758e-01 -5.780212879180908203e-01 -1.723971366882324219e+00 -6.735719442367553711e-01 -2.465971469879150391e+00 -5.209024548530578613e-01 1.976949095726013184e+00 1.775837302207946777e+00 2.954375147819519043e-01 -1.096685767173767090e+00 -1.180339232087135315e-01 -4.265368357300758362e-02 -1.753009319305419922e+00 -2.690664768218994141e+00 9.068241715431213379e-01 -1.650125622749328613e+00 -1.763141512870788574e+00 2.518638610839843750e+00 -1.830457091331481934e+00 1.419577121734619141e+00 -4.538639187812805176e-01 2.606509029865264893e-01 4.241767227649688721e-01 -3.735803067684173584e-01 -1.846015006303787231e-01 -2.605918645858764648e+00 -1.046261787414550781e+00 1.413996458053588867e+00 1.525145649909973145e+00 -7.676022052764892578e-01 -2.192984223365783691e-01 -1.511158466339111328e+00 1.649277925491333008e+00 2.455594062805175781e+00 1.174612045288085938e+00 -3.706868290901184082e-01 -5.298991203308105469e-01 -1.572832226753234863e+00 -1.503189206123352051e+00 -2.162653684616088867e+00 -2.603607892990112305e+00 -1.742498397827148438e+00 -3.502803146839141846e-01 -9.050943255424499512e-01 -1.830376386642456055e+00 -4.406469166278839111e-01 -2.592604160308837891e+00 9.035972952842712402e-01 5.719717741012573242e-01 2.312815189361572266e-01 -3.669888675212860107e-01 -5.618736147880554199e-01 -6.599863171577453613e-01 -2.022401094436645508e-01 -1.463858485221862793e+00 2.376782178878784180e+00 1.927669763565063477e+00 7.794721126556396484e-01 3.095424413681030273e+00 9.839286208152770996e-01 2.704595327377319336e+00 -1.835504174232482910e+00 -3.109775781631469727e-01 -4.472844302654266357e-01 -1.384149670600891113e+00 2.226597666740417480e-01 -8.796926736831665039e-01 4.441609680652618408e-01 2.803167581558227539e+00 2.537932157516479492e+00 2.463124990463256836e+00 -1.986163496971130371e+00 1.316205143928527832e+00 2.528662681579589844e+00 7.929540276527404785e-01
-1.109704732894897461e+00 1.836501717567443848e+00 -1.759700775146484375e-01 1.824144244194030762e+00 6.232539191842079163e-02 2.251546859741210938e+00 -2.489728450775146484e+00 -3.823989331722259521e-01 1.111093640327453613e+00 -1.026732683181762695e+00 -7.077913284301757812e-01 5.044018626213073730e-01 1.796400308609008789e+00 -1.888909459114074707e+00 3.123055219650268555e+00 1.950416088104248047e+00 -9.724786877632141113e-01 4.575271308422088623e-01 -2.162099361419677734e+00 -1.703893899917602539e+00 -6.125511527061462402e-01 1.428777098655700684e+00 -1.354036211967468262e+00 2.516284704208374023e+00 6.700261831283569336e-01 2.216781616210937500e+00 2.124448299407958984e+00 -9.804164767265319824e-01 -4.931500852108001709e-01 2.554042100906372070e+00 5.553790330886840820e-01 2.373162031173706055e+00 -1.324203014373779297e+00 -1.927866578102111816e+00 -7.603814005851745605e-01 -1.705503016710281372e-01 2.451122522354125977e+00 -6.356009840965270996e-01 2.960520386695861816e-01 -1.223782077431678772e-01 -1.238831043243408203e+00 -2.920552492141723633e+00 -1.814225435256958008e+00 -1.969535052776336670e-01 -3.949307203292846680e-01 -2.663928985595703125e+00 1.492965340614318848e+00 -3.056364297866821289e+00 -1.379744172096252441e+00 1.364911198616027832e+00 3.084323406219482422e-01 -2.124276757240295410e-01 -3.130677700042724609e+00 -2.161027431488037109e+00 6.490803956985473633e-01 5.646581202745437622e-02 -3.148705244064331055e+00 -1.037895917892456055e+00 2.359972715377807617e+00 -9.750021100044250488e-01 -3.638935089111328125e-01 -1.974107027053833008e+00 -9.119396805763244629e-01 -3.490309119224548340e-01 -5.404114723205566406e-01 -5.450883507728576660e-01 3.241082191467285156e+00 -1.296505331993103027e+00 2.882905960083007812e+00 1.606905937194824219e+00 -2.674187898635864258e+00 -2.204628467559814453e+00 5.338017344474792480e-01 1.879085302352905273e+00 -6.381945013999938965e-01 2.045856952667236328e+00 5.864737033843994141e-01 1.813312649726867676e+00 6.863021254539489746e-01 2.172617912292480469e-01 1.642139434814453125e+00 -1.390974998474121094e+00 -6.513770818710327148e-01 2.063373088836669922e+00 -2.735314130783081055e+00 6.326686143875122070e-01 1.933195471763610840e+00 -2.228076219558715820e+00 1.525480747222900391e+00 -1.548458695411682129e+00 -2.141920089721679688e+00 2.791490077972412109e+00 -4.044811427593231201e-01 -1.327537447214126587e-01 8.794478178024291992e-01 8.454671502113342285e-01 -3.165189623832702637e-01 2.005264997482299805e+00 -1.876379132270812988e+00 2.419141292572021484e+00
-8.770906925201416016e-01 -7.085094451904296875e-01 -3.995158374309539795e-01 1.867448568344116211e+00 -2.073376923799514771e-01 1.000072002410888672e+00 1.727333426475524902e+00 -3.147867918014526367e-01 -9.671509265899658203e-01 7.074186801910400391e-01 -1.608941197395324707e+00 1.405666232109069824e+00 -5.087085366249084473e-01 -2.504498958587646484e-01 1.602879464626312256e-01 2.845304250717163086e+00 4.443029314279556274e-02 3.092614889144897461e+00 1.351908087730407715e+00 1.850572943687438965e+00 -5.810756236314773560e-02 -2.259533643722534180e+00 -1.207026124000549316e+00 -1.593127250671386719e+00 -1.507849335670471191e+00 -8.256632834672927856e-02 2.407204389572143555e+00 -2.223269462585449219e+00 2.078266859054565430e+00 -6.969295144081115723e-01 2.726504802703857422e+00 1.805657505989074707e+00 -1.061800718307495117e+00 1.516953483223915100e-02 5.931438803672790527e-01 2.240516662597656250e+00 -2.447638034820556641e+00 9.762840867042541504e-01 -1.033022642135620117e+00 -9.281880259513854980e-01 1.270734310150146484e+00 1.511652916669845581e-01 1.639748573303222656e+00 -2.132413625717163086e+00 6.727921962738037109e-01 -2.285333395004272461e+00 1.978049874305725098e+00 -1.830150842666625977e+00 -8.388936519622802734e-01 1.946497559547424316e+00 2.801083922386169434e-01 1.825027227401733398e+00 -2.120543718338012695e+00 2.306660890579223633e+00 1.533694744110107422e+00 -2.394149303436279297e+00 5.151489377021789551e-01 2.233713626861572266e+00 -2.838785886764526367e+00 -1.372671246528625488e+00 2.262526035308837891e+00 2.764373302459716797e+00 -2.844217777252197266e+00 -2.386031389236450195e+00 1.688047647476196289e+00 -1.588600158691406250e+00 -5.002236962318420410e-01 -2.520359277725219727e+00 1.604923009872436523e+00 1.116682648658752441e+00 -5.890844464302062988e-01 -2.427684366703033447e-01 1.133449673652648926e+00 9.703200459480285645e-01 -1.236396376043558121e-03 1.067855834960937500e+00 1.771772205829620361e-01 -2.295341968536376953e+00 1.668826341629028320e+00 -1.882778644561767578e+00 -2.172762632369995117e+00 1.572237849235534668e+00 1.755273222923278809e+00 -4.815608561038970947e-01 1.630073904991149902e+00 -1.961314558982849121e+00 -1.845313072204589844e+00 2.214705467224121094e+00 -1.005519032478332520e+00 1.138506174087524414e+00 5.735313147306442261e-02 4.647068977355957031e-01 -3.218892097473144531e+00 -1.349352836608886719e+00 -7.121025919914245605e-01 6.355026364326477051e-01 1.993384361267089844e+00 -2.260268211364746094e+00 -1.904341578483581543e+00 -1.268443703651428223e+00
6.499540209770202637e-01 -1.082782149314880371e+00 2.152228593826293945e+00 -2.363735675811767578e+00 -6.974334120750427246e-01 9.358114749193191528e-02 1.559655666351318359e-01 2.965244650840759277e-01 3.921535611152648926e-01 -1.621900200843811035e-01 -5.521401166915893555e-01 -1.976030349731445312e+00 1.648934960365295410e+00 -1.107213735580444336e+00 -2.413403272628784180e+00 -6.219182014465332031e-01 -1.173831582069396973e+00 2.235506057739257812e+00 1.933953642845153809e+00 -1.935431122779846191e+00 -1.564270406961441040e-01 2.175845861434936523e+00 -2.654081344604492188e+00 -1.522481560707092285e+00 -8.144420385360717773e-01 -1.101143360137939453e+00 5.641527771949768066e-01 -2.341105937957763672e+00 -2.567526340484619141e+00 -1.787048935890197754e+00 -1.726484656333923340e+00 -1.519541263580322266e+00 -3.530102670192718506e-01 4.983829855918884277e-01 4.787978529930114746e-01 6.281124353408813477e-01 -2.038394659757614136e-01 2.756200790405273438e+00 -2.681328773498535156e+00 -3.053240776062011719e+00 -2.575537443161010742e+00 2.619673728942871094e+00 -6.247548460960388184e-01 4.106567800045013428e-01 2.810497283935546875e+00 1.349226117134094238e+00 2.213252544403076172e+00 -4.861348271369934082e-01 -5.140339136123657227e-01 -2.040892124176025391e+00 -2.192606925964355469e+00 -1.289268136024475098e+00 1.181534290313720703e+00 1.135456562042236328e-01 3.152463912963867188e+00 -2.249067783355712891e+00 -1.637755632400512695e+00 2.461817562580108643e-01 6.078081727027893066e-01 2.860647201538085938e+00 -5.459697544574737549e-02 -2.355348616838455200e-01 2.354854345321655273e+00 3.960832953453063965e-01 1.770136594772338867e+00 2.085841417312622070e+00 2.167619019746780396e-01 -1.581492900848388672e+00 1.002291202545166016e+00 9.280123114585876465e-01 -1.498417258262634277e+00 2.271795034408569336e+00 1.767945885658264160e+00 1.220850825309753418e+00 -7.450445294380187988e-01 1.746916413307189941e+00 -1.351111173629760742e+00 1.660871058702468872e-01 1.112720370292663574e+00 1.677065528929233551e-02 3.045390129089355469e+00 1.318968415260314941e+00 3.215254068374633789e+00 2.435718536376953125e+00 -3.038388967514038086e+00 -9.641904830932617188e-01 1.561226367950439453e+00 -1.947340726852416992e+00 -1.123574495315551758e+00 1.044093966484069824e+00 1.227322936058044434e+00 -1.776952266693115234e+00 1.100974440574645996e+00 1.923060297966003418e+00 -2.202237367630004883e+00 -1.654908180236816406e+00 1.732122063636779785e+00 -7.905431836843490601e-02 1.486308455467224121e+00 -2.660187721252441406e+00
2.278539657592773438e+00 -2.851074457168579102e+00 -1.083014011383056641e+00 -4.006210267543792725e-01 -2.210721254348754883e+00 -4.639864563941955566e-01 -7.290741428732872009e-03 2.000778675079345703e+00 8.719813227653503418e-01 1.175556063652038574e+00 -7.501568794250488281e-01 -1.554151892662048340e+00 6.819918155670166016e-01 -7.141309976577758789e-01 -3.232257068157196045e-01 2.851554155349731445e+00 -1.971820592880249023e+00 4.795500636100769043e-01 2.615850687026977539e+00 -1.933323591947555542e-01 -2.834593653678894043e-01 8.202480673789978027e-01 1.443632960319519043e+00 -2.200469821691513062e-01 -2.390613079071044922e+00 -2.333780288696289062e+00 -3.120026588439941406e+00 2.795655965805053711e+00 -5.755191445350646973e-01 2.058544158935546875e-01 8.198800086975097656e-01 -2.385762214660644531e+00 6.738766431808471680e-01 2.161121070384979248e-01 -1.942677617073059082e+00 8.502392172813415527e-01 8.087453246116638184e-01 1.210022211074829102e+00 -5.468161106109619141e-01 -1.035889387130737305e+00 1.777727365493774414e+00 1.975994706153869629e+00 -1.241239160299301147e-01 -8.379210829734802246e-01 1.521470189094543457e+00 2.581575870513916016e+00 1.051921963691711426e+00 -1.968871951103210449e-01 -1.695959806442260742e+00 1.795419454574584961e+00 7.483065724372863770e-01 -1.507463455200195312e-01 7.464075088500976562e-01 7.396255135536193848e-01 7.026605606079101562e-01 5.134797692298889160e-01 2.719640493392944336e+00 -2.209407091140747070e+00 -6.429064273834228516e-01 -1.670529961585998535e+00 1.695827603340148926e+00 -1.559976458549499512e+00 2.801821708679199219e+00 7.690693140029907227e-01 -2.728712797164916992e+00 -2.023362398147583008e+00 -5.651028156280517578e-01 1.061178326606750488e+00 -3.818169534206390381e-01 3.814705908298492432e-01 -1.144866824150085449e+00 5.628933310508728027e-01 -2.258036136627197266e+00 -2.191633701324462891e+00 -1.169672966003417969e+00 2.538262307643890381e-01 -1.314825415611267090e+00 -1.627809405326843262e+00 9.355863928794860840e-01 1.850009322166442871e+00 -2.480010271072387695e+00 -1.112273573875427246e+00 1.031443119049072266e+00 -2.758679151535034180e+00 2.497884035110473633e+00 1.749484062194824219e+00 -1.768495589494705200e-01 1.143696069717407227e+00 -1.390442967414855957e+00 5.356507897377014160e-01 -1.621743559837341309e+00 -2.819967031478881836e+00 3.047915220260620117e+00 -6.267676353454589844e-01 2.244679212570190430e+00 1.320835947990417480e+00 -2.240168154239654541e-01 1.115697860717773438e+00 -2.351858854293823242e+00 2.303733825683593750e+00
-2.554652929306030273e+00 6.035563349723815918e-01 1.730945348739624023e+00 -6.743432879447937012e-01 -2.749803781509399414e+00 2.693056344985961914e+00 -2.130727618932723999e-01 -2.612368464469909668e-01 -4.841905236244201660e-01 1.157882332801818848e+00 -9.159620404243469238e-01 3.064069747924804688e+00 2.753433942794799805e+00 1.274977028369903564e-01 2.716850638389587402e-01 -1.431798785924911499e-01 -8.713720440864562988e-01 -9.080698341131210327e-02 -5.957676172256469727e-01 -2.365387678146362305e+00 -1.414339661598205566e+00 2.855906724929809570e+00 1.117812156677246094e+00 -1.173796653747558594e+00 4.539313912391662598e-01 -1.534657597541809082e+00 -1.562623500823974609e+00 -6.587226390838623047e-01 2.101448535919189453e+00 -2.020987272262573242e+00 2.505072832107543945e+00 1.858909130096435547e+00 4.389008581638336182e-01 -2.090032696723937988e-01 2.749449014663696289e+00 -9.259053468704223633e-01 -2.123086690902709961e+00 -1.962170124053955078e+00 1.120730996131896973e+00 1.122600793838500977e+00 3.352379560470581055e+00 -1.222746729850769043e+00 2.542888879776000977e+00 1.115908026695251465e+00 -2.010811567306518555e+00 8.338255882263183594e-01 -9.071715474128723145e-01 1.598821759223937988e+00 -2.122403621673583984e+00 1.188066840171813965e+00 1.234936475753784180e+00 -1.169527530670166016e+00 -5.999692082405090332e-01 -2.047550916671752930e+00 -1.531457185745239258e+00 -1.910277843475341797e+00 1.204915419220924377e-01 9.895424246788024902e-01 -1.891466230154037476e-01 2.554858684539794922e+00 -1.056964322924613953e-02 4.141544401645660400e-01 -2.710452318191528320e+00 2.002215385437011719e+00 4.378894567489624023e-01 2.950661182403564453e+00 2.382595777511596680e+00 -9.474228620529174805e-01 -1.008822083473205566e+00 1.170997545123100281e-01 -1.280204653739929199e+00 2.240841388702392578e+00 7.330915331840515137e-01 -2.566130876541137695e+00 -2.287273168563842773e+00 -5.010666251182556152e-01 -5.397233366966247559e-01 5.144116282463073730e-01 -1.582837700843811035e+00 -3.807752430438995361e-01 1.669561505317687988e+00 -6.256160140037536621e-01 -1.591224551200866699e+00 -1.657809615135192871e+00 1.716666340827941895e+00 8.540021777153015137e-01 2.849099636077880859e+00 2.093315362930297852e+00 -1.818303465843200684e+00 -1.188703700900077820e-01 -2.435927629470825195e+00 -1.626144349575042725e-01 7.972129583358764648e-01 2.545472383499145508e+00 -2.043152332305908203e+00 1.303457856178283691e+00 -1.054295539855957031e+00 -9.546480178833007812e-01 -3.199471712112426758e+00 -1.679872751235961914e+00
6.834656596183776855e-01 4.736066162586212158e-01 -1.997122287750244141e+00 -1.303575634956359863e+00 1.473622441291809082e+00 -4.608203172683715820e-01 2.125499010086059570e+00 -1.947937846183776855e+00 2.336452007293701172e+00 -1.224321246147155762e+00 -1.401755332946777344e+00 1.100121378898620605e+00 -2.489105224609375000e+00 -2.158881425857543945e+00 6.576451659202575684e-01 2.352798938751220703e+00 2.242958694696426392e-01 2.842548131942749023e+00 1.288665175437927246e+00 3.620072901248931885e-01 -5.782424211502075195e-01 -8.315162658691406250e-01 -2.640862941741943359e+00 -1.243081331253051758e+00 -1.206658959388732910e+00 1.745248287916183472e-01 -8.321241140365600586e-01 -1.862035632133483887e+00 -1.948622465133666992e+00 -2.514999732375144958e-02 2.552717924118041992e-01 -4.180342257022857666e-01 -2.171667098999023438e+00 -3.137899875640869141e+00 2.366187810897827148e+00 2.784114122390747070e+00 1.874469161033630371e+00 -6.624160408973693848e-01 1.643309950828552246e+00 -9.373143911361694336e-01 1.770982027053833008e+00 -1.466930270195007324e+00 9.194694757461547852e-01 2.915047667920589447e-02 1.007517725229263306e-01 -1.512104552239179611e-02 -1.094736337661743164e+00 1.564892053604125977e+00 4.796332716941833496e-01 1.361140727996826172e+00 1.343867301940917969e+00 1.020518779754638672e+00 3.439862489700317383e+00 -1.296876311302185059e+00 -2.132240533828735352e+00 1.764184474945068359e+00 1.844345450401306152e+00 1.338755339384078979e-01 3.726022541522979736e-01 -2.123881101608276367e+00 -1.188832163810729980e+00 6.816831827163696289e-01 6.847792863845825195e-01 -2.073404312133789062e+00 1.057182431221008301e+00 -1.991545915603637695e+00 -1.784916877746582031e+00 -8.599560260772705078e-01 -1.405948877334594727e+00 -7.094112783670425415e-02 -1.678110122680664062e+00 6.714740991592407227e-01 -1.560660123825073242e+00 2.354490995407104492e+00 2.798262596130371094e+00 -1.188727378845214844e+00 -1.970295667648315430e+00 2.259594202041625977e-01 8.603596091270446777e-01 1.172395110130310059e+00 -1.094169378280639648e+00 1.625639557838439941e+00 9.906567931175231934e-01 1.422294020652770996e+00 1.001486778259277344e+00 -6.050858497619628906e-01 2.323022365570068359e+00 7.548004984855651855e-01 -2.139243125915527344e+00 9.466128051280975342e-02 -1.814364314079284668e+00 2.066543340682983398e+00 5.045532062649726868e-02 -1.832926720380783081e-01 -1.113986849784851074e+00 1.748348474502563477e+00 -1.601752519607543945e+00 1.966940879821777344e+00 -1.471809864044189453e+00 -2.342991083860397339e-01
-8.123052120208740234e-01 -1.604799866676330566e+00 8.650363087654113770e-01 -1.100160241127014160e+00 -5.045046806335449219e-01 1.488095521926879883e+00 2.257078170776367188e+00 1.052723050117492676e+00 -2.155366897583007812e+00 5.585020184516906738e-01 1.261883735656738281e+00 3.915674686431884766e-01 2.282658338546752930e+00 1.718546867370605469e+00 -1.063604131340980530e-01 -1.048441529273986816e+00 -2.161068916320800781e+00 1.333030700683593750e+00 8.547944426536560059e-01 1.041542887687683105e+00 6.070061922073364258e-01 -1.544764041900634766e+00 3.899377956986427307e-02 1.459125876426696777e+00 6.605218052864074707e-01 -2.115120649337768555e+00 1.143592476844787598e+00 7.407367825508117676e-01 1.381374239921569824e+00 -1.182132720947265625e+00 -2.600167274475097656e+00 -1.427804708480834961e+00 -1.782591342926025391e+00 -3.047721147537231445e+00 -1.744358181953430176e+00 -2.583282947540283203e+00 -1.584625720977783203e+00 -1.428351879119873047e+00 -2.100459814071655273e+00 -3.233443498611450195e-01 4.148878157138824463e-01 -3.243587017059326172e-01 -1.754664063453674316e+00 5.743644833564758301e-01 -1.528117507696151733e-01 -3.756087720394134521e-01 2.385249137878417969e+00 -2.658873081207275391e+00 -8.069205284118652344e-01 2.045892715454101562e+00 1.246877670288085938e+00 -7.649481892585754395e-01 3.026983737945556641e+00 -9.031417369842529297e-01 -1.874577999114990234e+00 2.027956724166870117e+00 -2.475798577070236206e-01 -3.029692471027374268e-01 1.339015841484069824e+00 -7.546271085739135742e-01 1.834948301315307617e+00 3.565333187580108643e-01 -1.458880901336669922e-01 -2.144792556762695312e+00 2.418454170227050781e+00 8.572562336921691895e-01 -1.326704621315002441e+00 -1.196409612894058228e-01 -1.595145583152770996e+00 -1.538379430770874023e+00 3.091654300689697266e+00 -8.948868513107299805e-01 1.484800219535827637e+00 -5.346856266260147095e-02 2.772541046142578125e+00 1.276010036468505859e+00 -6.628034114837646484e-01 1.270602583885192871e+00 8.694181591272354126e-02 -5.833683609962463379e-01 1.296141028404235840e+00 2.214543581008911133e+00 -3.116782903671264648e+00 -1.055672951042652130e-02 -1.691892266273498535e+00 3.283500671386718750e-01 -9.208920598030090332e-01 2.534478187561035156e+00 2.515591621398925781e+00 -1.752184391021728516e+00 1.784057974815368652e+00 -2.198233127593994141e+00 6.393868923187255859e-01 -9.061887860298156738e-01 5.495923757553100586e-01 -1.834739089012145996e+00 2.410730361938476562e+00 8.088372945785522461e-01 -1.681053638458251953e+00 2.207990407943725586e+00
-8.175457119941711426e-01 2.284527063369750977e+00 5.152836441993713379e-01 -1.052373290061950684e+00 -7.115173935890197754e-01 1.421607971191406250e+00 -2.022475242614746094e+00 1.354650735855102539e+00 9.013261795043945312e-01 1.872641295194625854e-01 -1.411916971206665039e+00 -5.690318942070007324e-01 -1.051452279090881348e+00 -2.873351573944091797e+00 -4.672683477401733398e-01 -2.084398269653320312e+00 -1.844534158706665039e+00 -1.429516315460205078e+00 -8.039638400077819824e-01 -1.463437795639038086e+00 2.909970045089721680e+00 4.882577657699584961e-01 -1.409764409065246582e+00 1.275442361831665039e+00 6.636809110641479492e-01 -2.059592962265014648e+00 -1.272541999816894531e+00 1.282817125320434570e+00 -2.701833486557006836e+00 1.662468671798706055e+00 4.658517241477966309e-01 1.896358579397201538e-01 -1.021263957023620605e+00 -1.335914254188537598e+00 1.496937777847051620e-02 2.675653696060180664e+00 -1.666144013404846191e+00 -2.203868150711059570e+00 2.068413972854614258e+00 -1.933532953262329102e+00 1.933438330888748169e-01 2.249926328659057617e+00 -2.247167192399501801e-02 1.646512627601623535e+00 -1.966373562812805176e+00 1.057435631752014160e+00 2.740401506423950195e+00 5.494355559349060059e-01 -6.664049625396728516e-01 2.291401863098144531e+00 -2.568376064300537109e+00 6.776363253593444824e-01 -1.854729056358337402e+00 -1.744808554649353027e+00 1.162199974060058594e+00 1.634853482246398926e+00 -2.947613596916198730e-01 -2.653766274452209473e-01 1.052077293395996094e+00 -3.699888586997985840e-01 7.928200364112854004e-01 -1.325417399406433105e+00 -2.384659290313720703e+00 -7.047490030527114868e-02 1.207022905349731445e+00 2.513075590133666992e+00 -2.414074420928955078e+00 2.575228214263916016e+00 9.563073515892028809e-01 -1.897688627243041992e+00 1.570944905281066895e+00 -6.750169396400451660e-01 2.266067028045654297e+00 -1.886005103588104248e-01 2.181573867797851562e+00 -1.453772187232971191e+00 -4.439652264118194580e-01 -1.285741567611694336e+00 8.739342093467712402e-01 -2.037264585494995117e+00 -1.495815396308898926e+00 7.155155539512634277e-01 1.116027951240539551e+00 1.231813669204711914e+00 1.565066576004028320e+00 2.171277523040771484e+00 -9.836139678955078125e-01 1.284743309020996094e+00 -9.053971171379089355e-01 -1.156668782234191895e+00 -5.454035997390747070e-01 1.003460288047790527e+00 2.137693643569946289e+00 1.068011045455932617e+00 -1.695241451263427734e+00 7.742130756378173828e-01 2.257239580154418945e+00 -8.547974824905395508e-01 4.151493906974792480e-01 -2.619473636150360107e-01
1.945369958877563477e+00 -9.070997834205627441e-01 -1.741435229778289795e-01 -1.195985525846481323e-01 2.769198417663574219e+00 -1.600010037422180176e+00 -7.277655005455017090e-01 7.492163777351379395e-01 -9.743422865867614746e-01 2.643929004669189453e+00 -1.148435950279235840e+00 2.944479942321777344e+00 -5.726022124290466309e-01 -1.769768714904785156e+00 -2.682347059249877930e+00 9.666717052459716797e-01 1.838016629219055176e+00 9.910479784011840820e-01 1.906754970550537109e+00 6.370638012886047363e-01 2.518411159515380859e+00 -2.032315731048583984e+00 1.051930665969848633e+00 -1.770690202713012695e+00 -1.077948927879333496e+00 2.284444570541381836e+00 -2.504048943519592285e-01 1.341319322586059570e+00 -1.826370239257812500e+00 -2.496352195739746094e+00 1.402291655540466309e+00 1.800253272056579590e+00 1.461373448371887207e+00 2.165977716445922852e+00 6.547095775604248047e-01 1.510584115982055664e+00 2.361719846725463867e+00 8.972342014312744141e-01 7.590904831886291504e-01 -5.138585567474365234e-01 -3.105672359466552734e+00 -1.916161179542541504e+00 -3.003309249877929688e+00 -1.458006262779235840e+00 -1.188650488853454590e+00 -1.145078539848327637e+00 -5.596103668212890625e-01 1.119047522544860840e+00 -1.673935294151306152e+00 -1.524200320243835449e+00 2.447902679443359375e+00 6.245608925819396973e-01 6.727849245071411133e-01 -4.000436663627624512e-01 -1.667532086372375488e+00 -2.011866092681884766e+00 2.860017418861389160e-01 -1.338159203529357910e+00 -3.169159412384033203e+00 1.515444159507751465e+00 -1.453102976083755493e-01 -1.308501839637756348e+00 -1.248824834823608398e+00 -2.252615690231323242e+00 -1.992121696472167969e+00 1.186128854751586914e+00 9.660422801971435547e-01 2.361265659332275391e+00 -2.524922370910644531e+00 -1.901550769805908203e+00 -1.396411061286926270e+00 -1.621330082416534424e-01 -2.867904424667358398e+00 -2.805906832218170166e-01 -1.144981265068054199e+00 1.460201859474182129e+00 1.507832050323486328e+00 -8.084423542022705078e-01 9.340242296457290649e-02 3.572433471679687500e+00 -6.305890530347824097e-02 1.870564103126525879e+00 1.544335842132568359e+00 2.028271913528442383e+00 3.043388128280639648e+00 -4.334940314292907715e-01 3.971286118030548096e-02 -1.254826188087463379e+00 1.059259772300720215e+00 -2.754702329635620117e+00 4.407269656658172607e-01 9.298520684242248535e-01 6.438782811164855957e-01 7.514113187789916992e-01 3.995780646800994873e-01 -2.859622240066528320e+00 1.564954519271850586e+00 8.942081928253173828e-01 -6.456748843193054199e-01 4.264611899852752686e-01
-1.205832362174987793e+00 -1.029150843620300293e+00 -1.770245313644409180e+00 -4.632269740104675293e-01 2.487481355667114258e+00 -2.518319129943847656e+00 -1.683309197425842285e+00 2.318157911300659180e+00 5.114111304283142090e-01 -2.108222484588623047e+00 -1.981508255004882812e+00 -4.101313352584838867e-01 -4.781996011734008789e-01 1.319635510444641113e+00 -1.333674907684326172e+00 -1.866471171379089355e+00 1.376812219619750977e+00 2.003360271453857422e+00 -2.460602045059204102e+00 2.558203041553497314e-01 8.826351910829544067e-02 -8.874977827072143555e-01 3.363692522048950195e+00 1.227012038230895996e+00 2.658629417419433594e+00 -2.061019659042358398e+00 2.442724227905273438e+00 6.719048619270324707e-01 1.842823266983032227e+00 -1.810359120368957520e+00 2.113109827041625977e+00 -1.678259611129760742e+00 -3.349704742431640625e-01 -1.599906563758850098e+00 2.122185945510864258e+00 -2.192688226699829102e+00 1.707158207893371582e+00 2.831426143646240234e+00 5.310385823249816895e-01 7.474914789199829102e-01 2.080559968948364258e+00 1.768127828836441040e-01 8.244659900665283203e-01 1.855794429779052734e+00 -1.220816746354103088e-01 2.899531424045562744e-01 5.634126067161560059e-01 1.068264711648225784e-02 -7.268121242523193359e-01 4.541332423686981201e-01 1.987446099519729614e-02 -2.224248647689819336e+00 2.369160354137420654e-01 -8.334504365921020508e-01 2.886382341384887695e+00 1.664697527885437012e+00 -2.795790433883666992e+00 3.509034633636474609e+00 2.092328071594238281e+00 2.300151824951171875e+00 -2.101015806198120117e+00 -7.892358303070068359e-01 1.121070146560668945e+00 -6.182066351175308228e-02 5.591145157814025879e-01 3.089442662894725800e-02 1.344251632690429688e+00 2.320032358169555664e+00 2.236154794692993164e+00 -4.947939515113830566e-01 -2.925081253051757812e-01 -6.962374448776245117e-01 -3.035603046417236328e+00 -2.292025327682495117e+00 -2.921861708164215088e-01 -2.299097061157226562e+00 -4.090689122676849365e-01 -1.997297883033752441e+00 -1.261031389236450195e+00 1.630741000175476074e+00 -2.080864191055297852e+00 8.492914438247680664e-01 -2.751630544662475586e+00 2.505830861628055573e-02 -3.018715381622314453e-01 -1.179808735847473145e+00 -3.847146630287170410e-01 -2.848458766937255859e+00 1.970285296440124512e+00 -2.414238691329956055e+00 7.823616862297058105e-01 3.637267947196960449e-01 1.350528836250305176e+00 -2.206088304519653320e+00 -2.503247976303100586e+00 1.067355796694755554e-01 3.266628980636596680e-01 5.021116137504577637e-01 1.263606667518615723e+00 1.059151887893676758e+00
8.452025055885314941e-01 -7.938914299011230469e-01 1.985635757446289062e+00 1.357755899429321289e+00 5.998369455337524414e-01 -2.659104108810424805e+00 -2.590042948722839355e-01 7.391753196716308594e-01 -1.834622383117675781e+00 1.252555370330810547e+00 -1.558336734771728516e+00 1.027907967567443848e+00 -3.119424819946289062e+00 -8.268288373947143555e-01 -1.539007782936096191e+00 -8.983263373374938965e-02 2.512386322021484375e+00 1.816653728485107422e+00 2.069106578826904297e+00 -1.849713444709777832e+00 -2.277958869934082031e+00 -1.300181984901428223e+00 -6.564827561378479004e-01 1.630571246147155762e+00 2.248558521270751953e+00 1.694491863250732422e+00 -1.686597108840942383e+00 -1.132840514183044434e+00 1.392611622810363770e+00 -1.045741796493530273e+00 -3.443760633468627930e+00 6.068621873855590820e-01 1.827001214027404785e+00 1.365872502326965332e+00 -8.756042718887329102e-01 1.180243968963623047e+00 1.123730301856994629e+00 -5.573151707649230957e-01 1.711159944534301758e+00 -1.428341388702392578e+00 6.110756993293762207e-01 1.023396968841552734e+00 -1.277554154396057129e+00 -2.529228687286376953e+00 1.531646013259887695e+00 -2.164608478546142578e+00 1.148783266544342041e-01 1.330870389938354492e+00 -1.358141899108886719e+00 -3.371066808700561523e+00 1.558484911918640137e+00 -2.203602075576782227e+00 -9.722523093223571777e-01 1.419491291046142578e+00 3.248083293437957764e-01 -2.365018054842948914e-02 2.244763851165771484e+00 1.421846389770507812e+00 8.118323236703872681e-02 3.012594282627105713e-01 1.771485805511474609e+00 2.123382329940795898e+00 -1.000934243202209473e+00 1.564929008483886719e+00 -1.042335867881774902e+00 -4.805586040019989014e-01 -1.065576553344726562e+00 7.961452007293701172e-01 -5.257858633995056152e-01 5.540587306022644043e-01 1.972845911979675293e+00 -1.356597900390625000e+00 1.371951460838317871e+00 2.113883972167968750e+00 3.550996482372283936e-01 1.531658649444580078e+00 2.676811695098876953e+00 2.078080415725708008e+00 -1.441318869590759277e+00 -2.004595518112182617e+00 2.037954807281494141e+00 -1.923089504241943359e+00 -3.018330574035644531e+00 -2.881886482238769531e+00 2.358000874519348145e-01 2.395635128021240234e+00 -2.527248620986938477e+00 1.665466129779815674e-01 3.168962597846984863e-01 -1.300380706787109375e+00 6.687229871749877930e-01 -6.280620098114013672e-01 -1.331059098243713379e+00 -1.258913159370422363e+00 -2.321086883544921875e+00 -1.773045420646667480e+00 1.359100043773651123e-01 7.772101759910583496e-01 2.812582492828369141e+00 1.995003581047058105e+00
1.362031221389770508e+00 -1.777352929115295410e+00 2.785932064056396484e+00 -2.273860216140747070e+00 -6.674301028251647949e-01 -1.472873449325561523e+00 1.779130101203918457e-01 -6.752281785011291504e-01 -3.490653932094573975e-01 1.735955357551574707e+00 1.083902359008789062e+00 -1.737062692642211914e+00 -8.852474689483642578e-01 1.555116057395935059e+00 1.180828332901000977e+00 1.866456389427185059e+00 -1.088183045387268066e+00 -6.627587080001831055e-01 2.722933292388916016e+00 -8.901464343070983887e-01 -1.426796913146972656e-01 -2.322561666369438171e-02 6.541018187999725342e-02 -1.387746930122375488e+00 2.055631399154663086e+00 1.271553277969360352e+00 -1.057990550994873047e+00 -1.795668482780456543e+00 -1.563850939273834229e-01 -4.011187255382537842e-01 -5.674931406974792480e-01 2.281141042709350586e+00 -2.317004919052124023e+00 1.776081562042236328e+00 -5.801176428794860840e-01 8.558598160743713379e-01 2.719352543354034424e-01 -9.359088540077209473e-01 -2.287354230880737305e+00 2.520799875259399414e+00 -1.260841012001037598e+00 -1.469797849655151367e+00 -1.165181756019592285e+00 2.090069532394409180e+00 -1.266556382179260254e+00 1.905493617057800293e+00 -2.285794258117675781e+00 -3.217244863510131836e+00 7.060057520866394043e-01 8.869893550872802734e-01 1.300802707672119141e+00 -1.989202380180358887e+00 -1.740699052810668945e+00 -9.560213685035705566e-01 7.893387079238891602e-01 -2.436566829681396484e+00 -2.556777715682983398e+00 -2.254150390625000000e+00 7.174967527389526367e-01 9.207533597946166992e-01 -7.559444308280944824e-01 1.648220777511596680e+00 -1.077453732490539551e+00 2.924236774444580078e+00 1.839357137680053711e+00 -1.520974874496459961e+00 -1.477429628372192383e+00 -1.964527249336242676e+00 1.251469731330871582e+00 -2.120903015136718750e+00 3.529242515563964844e+00 2.966242134571075439e-01 1.075871348381042480e+00 3.400724232196807861e-01 -2.894752979278564453e+00 2.802688360214233398e+00 4.806165695190429688e-01 2.446558713912963867e+00 -1.685132145881652832e+00 -1.314879953861236572e-01 -2.250564813613891602e+00 -1.382413625717163086e+00 4.648939073085784912e-01 1.974084496498107910e+00 1.067627549171447754e+00 2.624477624893188477e+00 1.849682211875915527e+00 9.786257147789001465e-01 1.545028209686279297e+00 1.464221239089965820e+00 1.538735866546630859e+00 1.211964964866638184e+00 4.472906887531280518e-01 -7.199878692626953125e-01 6.277900934219360352e-01 2.470165342092514038e-01 -2.134681493043899536e-01 -2.426311731338500977e+00 5.029075965285301208e-02 -1.837043642997741699e+00
-2.106801033020019531e+00 8.710121512413024902e-01 1.769487380981445312e+00 2.812476396560668945e+00 -2.017144203186035156e+00 -1.462676048278808594e+00 -3.545825779438018799e-01 7.509925365447998047e-01 2.850634574890136719e+00 -2.103943824768066406e+00 1.339827299118041992e+00 -1.016731142997741699e+00 -2.343908786773681641e+00 1.347598552703857422e+00 2.306993246078491211e+00 2.232510328292846680e+00 1.607575893402099609e+00 -1.084920048713684082e+00 -4.380630329251289368e-02 -1.380351305007934570e+00 1.934072017669677734e+00 2.623420238494873047e+00 -6.933228373527526855e-01 2.270691871643066406e+00 -1.146900534629821777e+00 -8.338851928710937500e-01 1.589796304702758789e+00 -3.125944375991821289e+00 1.452443599700927734e+00 1.628222703933715820e+00 -8.293519616127014160e-01 1.383943438529968262e+00 -4.138851761817932129e-01 2.070991992950439453e+00 -2.486143708229064941e-01 -1.983838558197021484e+00 -8.393169045448303223e-01 1.243333935737609863e+00 1.713774085044860840e+00 1.508721113204956055e+00 -1.157930254936218262e+00 2.219356298446655273e+00 7.810686826705932617e-01 -4.636301398277282715e-01 2.885185956954956055e+00 -8.757054209709167480e-01 -5.325974822044372559e-01 7.812789082527160645e-01 2.631078243255615234e+00 -3.339743137359619141e+00 1.041111573576927185e-01 -4.086717367172241211e-01 2.209130287170410156e+00 -1.504304409027099609e+00 -1.097497940063476562e+00 1.188054606318473816e-01 2.001552104949951172e+00 2.952126264572143555e-01 1.136798143386840820e+00 -1.865512847900390625e+00 8.666219711303710938e-01 -2.481457710266113281e+00 -1.192823410034179688e+00 2.093177318572998047e+00 1.751643419265747070e+00 -2.616085708141326904e-01 4.221767485141754150e-01 8.950446844100952148e-01 1.682582378387451172e+00 -2.043925285339355469e+00 1.381648063659667969e+00 2.158252716064453125e+00 2.850130319595336914e+00 -2.710227251052856445e+00 3.003462851047515869e-01 -8.756021857261657715e-01 -2.235935926437377930e+00 -1.348573923110961914e+00 2.412863731384277344e+00 8.065494894981384277e-01 -3.173060655593872070e+00 -1.602287292480468750e+00 1.733535528182983398e+00 6.245760917663574219e-01 1.052157998085021973e+00 -1.539689779281616211e+00 -1.734985947608947754e+00 -2.081092357635498047e+00 -2.905066251754760742e+00 2.290921658277511597e-01 -2.047235965728759766e+00 1.165264129638671875e+00 -1.202597171068191528e-01 -2.745861709117889404e-01 -1.284602046012878418e+00 -1.291336894035339355e+00 -2.570886135101318359e+00 -3.162338256835937500e+00 -2.687612533569335938e+00 -4.210332632064819336e-01
8.367860317230224609e-01 -1.241728425025939941e+00 2.652872800827026367e+00 1.403327584266662598e+00 -1.477507829666137695e+00 1.266887784004211426e+00 1.241227149963378906e+00 2.273126602172851562e+00 2.063594579696655273e+00 2.384316205978393555e+00 -1.051370859146118164e+00 1.859761476516723633e+00 3.735715150833129883e-01 -1.134661197662353516e+00 2.273477315902709961e+00 -1.929595589637756348e+00 -1.443846821784973145e+00 -1.757858157157897949e+00 5.445130467414855957e-01 1.144453883171081543e+00 1.225821375846862793e+00 -1.712193787097930908e-01 -4.964812099933624268e-01 1.105265259742736816e+00 4.338642060756683350e-01 -1.157361268997192383e+00 1.853334307670593262e+00 1.273609876632690430e+00 9.550083875656127930e-01 -6.500284671783447266e-01 1.978088378906250000e+00 -2.174867153167724609e+00 2.477454185485839844e+00 -1.493792653083801270e+00 -3.496292531490325928e-01 5.249777436256408691e-01 4.196648895740509033e-01 -1.471027255058288574e+00 -1.212220668792724609e+00 -3.119496107101440430e+00 4.288684725761413574e-01 2.256142854690551758e+00 -1.823211193084716797e+00 -1.435767531394958496e+00 5.586490631103515625e-01 1.904553413391113281e+00 2.667567968368530273e+00 1.424494147300720215e+00 -1.456274867057800293e+00 -8.862975835800170898e-01 8.726969361305236816e-01 8.492596149444580078e-01 -1.961114406585693359e+00 -2.131001710891723633e+00 -2.508147001266479492e+00 -1.918188095092773438e+00 -1.869618177413940430e+00 -2.101990282535552979e-01 2.073369920253753662e-01 -5.720608234405517578e-01 5.633295774459838867e-01 2.734093427658081055e+00 1.543670773506164551e+00 -2.681639671325683594e+00 -2.679924011230468750e+00 2.481290817260742188e+00 1.535982370376586914e+00 -1.845939397811889648e+00 2.839478492736816406e+00 -3.036892414093017578e+00 2.783886432647705078e+00 -1.786619186401367188e+00 -5.006662383675575256e-02 2.503123581409454346e-01 -1.830807685852050781e+00 -1.075139760971069336e+00 1.085207238793373108e-01 2.089948892593383789e+00 -2.208766460418701172e+00 1.804475665092468262e+00 7.137231528759002686e-02 6.989267468452453613e-01 -3.773310482501983643e-01 -2.493428230285644531e+00 2.398136138916015625e+00 -1.294700264930725098e+00 6.679759025573730469e-01 -2.931390285491943359e+00 1.033063292503356934e+00 -6.399615406990051270e-01 -1.151519060134887695e+00 4.630416333675384521e-01 -1.707326650619506836e+00 -3.182146847248077393e-01 1.299871087074279785e+00 2.067124128341674805e+00 -5.827587246894836426e-01 -2.804909467697143555e+00 1.762497901916503906e+00 -1.888818621635437012e+00
4.528369382023811340e-02 5.992074608802795410e-01 5.731235817074775696e-02 -1.809141635894775391e-01 4.896440804004669189e-01 -1.359483122825622559e+00 2.241692304611206055e+00 2.972449541091918945e+00 -1.463739752769470215e+00 2.801663160324096680e+00 -1.834154576063156128e-01 -1.183304429054260254e+00 1.176294922828674316e+00 2.322050094604492188e+00 3.023259639739990234e+00 -8.201232552528381348e-01 -1.328310966491699219e+00 1.939165472984313965e+00 4.632708132266998291e-01 1.939853310585021973e+00 -1.333094120025634766e+00 -1.220924496650695801e+00 -1.025656342506408691e+00 -1.073717951774597168e+00 1.148167371749877930e+00 1.010112017393112183e-01 -1.160472035408020020e+00 8.491586446762084961e-01 2.375910520553588867e+00 -1.391064882278442383e+00 1.782231330871582031e+00 -1.071307063102722168e+00 -6.130858659744262695e-01 3.071773052215576172e+00 -1.165169477462768555e+00 -1.981306076049804688e+00 1.267168045043945312e+00 -2.381495475769042969e+00 -1.990546822547912598e+00 1.104206919670104980e+00 -9.319806843996047974e-02 -1.081806898117065430e+00 3.154766082763671875e+00 -1.728725910186767578e+00 3.870115578174591064e-01 8.140946626663208008e-01 -2.331881761550903320e+00 -2.143391847610473633e+00 1.886051416397094727e+00 -2.486668825149536133e+00 -1.076730608940124512e+00 4.040360748767852783e-01 -4.703642427921295166e-02 2.104918509721755981e-01 -2.997964024543762207e-01 -1.183831572532653809e+00 -2.105836153030395508e+00 -1.443293094635009766e+00 -1.566528230905532837e-01 -2.719315052032470703e+00 2.229676246643066406e+00 -2.967262983322143555e+00 1.570083498954772949e+00 1.341365337371826172e+00 -1.659497141838073730e+00 2.771986007690429688e+00 -7.737365365028381348e-01 -1.330216407775878906e+00 4.564890861511230469e-01 8.957744836807250977e-01 7.119798064231872559e-01 -1.947452545166015625e+00 2.089371204376220703e+00 9.694660305976867676e-01 -1.214470267295837402e+00 -1.722749590873718262e+00 1.979888200759887695e+00 -8.647153526544570923e-02 2.363446235656738281e+00 3.352627277374267578e+00 -2.259923219680786133e+00 -8.341091275215148926e-01 -3.283807337284088135e-01 1.494702219963073730e+00 -1.424029588699340820e+00 -2.068097352981567383e+00 -6.437898278236389160e-01 2.618629455566406250e+00 8.273908495903015137e-01 4.816000461578369141e-01 1.953001976013183594e+00 -2.302128076553344727e+00 1.759818077087402344e+00 -8.506527543067932129e-01 -1.591263175010681152e+00 -1.237943410873413086e+00 -8.502798080444335938e-01 2.596968889236450195e+00 -1.361561417579650879e+00 -1.023710489273071289e+00
-2.600486516952514648e+00 2.026854157447814941e-01 1.831273674964904785e+00 1.146462559700012207e+00 -3.332025527954101562e+00 -7.091813683509826660e-01 1.408549666404724121e+00 -1.092106699943542480e+00 -3.396937608718872070e+00 1.427475214004516602e+00 1.297547459602355957e+00 1.596065998077392578e+00 -1.290235966444015503e-01 1.078697562217712402e+00 -2.744835376739501953e+00 -1.898716986179351807e-01 2.313869953155517578e+00 -1.183114290237426758e+00 -5.258982181549072266e-01 1.173576116561889648e+00 1.018273711204528809e+00 7.269667983055114746e-01 -1.119211435317993164e+00 -3.614915311336517334e-01 -6.412586569786071777e-01 2.644250154495239258e+00 -9.875972867012023926e-01 1.909920692443847656e+00 3.848924338817596436e-01 1.252413153648376465e+00 -1.434697508811950684e+00 4.973005130887031555e-02 2.341046810150146484e+00 1.691660165786743164e+00 5.211533308029174805e-01 1.786502480506896973e+00 8.024557232856750488e-01 1.299798607826232910e+00 4.212108254432678223e-01 1.486768424510955811e-01 2.001795768737792969e-01 1.443921685218811035e+00 2.964245796203613281e+00 5.114112496376037598e-01 -1.977351546287536621e+00 -8.117723464965820312e-01 2.102923870086669922e+00 8.195738792419433594e-01 1.142907500267028809e+00 8.953397274017333984e-01 -1.139462709426879883e+00 3.083808898925781250e+00 4.090695083141326904e-01 -2.058573007583618164e+00 7.813690900802612305e-01 2.787099599838256836e+00 -1.690147519111633301e+00 -1.117910027503967285e+00 -1.107678055763244629e+00 -1.781010270118713379e+00 2.510469436645507812e+00 6.615082174539566040e-02 1.085095405578613281e+00 -2.441427856683731079e-01 -7.518643736839294434e-01 1.273382753133773804e-01 1.788046240806579590e+00 1.165532112121582031e+00 -1.718922019004821777e+00 2.749086380004882812e+00 -3.226306438446044922e+00 -6.958103179931640625e-01 -1.151510834693908691e+00 -1.904309511184692383e+00 -7.978532314300537109e-01 -1.673595011234283447e-01 -1.117363214492797852e+00 1.996772527694702148e+00 -2.337497711181640625e+00 -2.862756252288818359e+00 6.543407440185546875e-01 -6.776227951049804688e-01 5.125937461853027344e-01 3.390178680419921875e-01 -1.573391914367675781e+00 1.908912777900695801e+00 -7.033155765384435654e-03 -2.658566236495971680e+00 1.299361467361450195e+00 2.698967456817626953e+00 -2.970869541168212891e+00 -3.332284688949584961e+00 -2.423922061920166016e+00 -9.434847235679626465e-01 -7.911920547485351562e-01 2.470340728759765625e+00 -2.456650733947753906e+00 6.232379674911499023e-01 -6.145007610321044922e-01 -2.213505268096923828e+00
-2.109892845153808594e+00 -8.861759305000305176e-02 1.383010506629943848e+00 1.983155965805053711e+00 -9.600645899772644043e-01 -3.897737860679626465e-01 -1.020402312278747559e+00 2.616642236709594727e+00 1.443278551101684570e+00 -1.619368672370910645e+00 7.396341562271118164e-01 3.398771882057189941e-01 2.926118612289428711e+00 1.756826639175415039e+00 4.252546131610870361e-01 -2.151670217514038086e+00 -4.100883007049560547e-01 3.968764245510101318e-01 -1.866048455238342285e+00 -1.739184379577636719e+00 -1.979476213455200195e+00 2.087805509567260742e+00 2.126921892166137695e+00 -1.023471280932426453e-01 -7.690448164939880371e-01 7.358876466751098633e-01 -9.605824351310729980e-01 -2.125162124633789062e+00 -2.773771993815898895e-02 -1.163989067077636719e+00 2.608096122741699219e+00 -1.486939311027526855e+00 1.971392989158630371e+00 -1.410065889358520508e+00 1.691411375999450684e+00 4.484584033489227295e-01 -2.102126628160476685e-01 2.837326288223266602e+00 -8.451746106147766113e-01 3.280372023582458496e-01 -1.606527328491210938e+00 8.873665928840637207e-01 -8.330059051513671875e-01 -1.621849179267883301e+00 -3.547962903976440430e-01 2.095648765563964844e+00 1.765815734863281250e+00 7.137202620506286621e-01 1.693643331527709961e+00 8.920538425445556641e-02 2.276200056076049805e+00 -1.163038372993469238e+00 -1.126886963844299316e+00 -5.623216629028320312e-01 -1.993415594100952148e+00 1.601339817047119141e+00 7.384490370750427246e-01 1.802526712417602539e+00 6.159342527389526367e-01 -1.417152404785156250e+00 -1.856768369674682617e+00 -4.070537686347961426e-01 5.781899690628051758e-01 1.845902442932128906e+00 -2.058787345886230469e+00 -1.558254003524780273e+00 -1.629210472106933594e+00 4.918211400508880615e-01 -2.213731408119201660e-02 2.449774444103240967e-01 -1.878995537757873535e+00 -1.064327955245971680e+00 -1.085607409477233887e+00 2.115585565567016602e+00 -1.476595759391784668e+00 -1.361486166715621948e-01 1.278198480606079102e+00 -1.077472448348999023e+00 4.158933460712432861e-01 -8.522428870201110840e-01 1.828146696090698242e+00 7.333636283874511719e-01 1.978364348411560059e+00 -2.073482871055603027e-01 -1.721369028091430664e+00 2.660383880138397217e-01 -8.593569993972778320e-01 1.096281290054321289e+00 -2.079103946685791016e+00 -1.998677253723144531e+00 1.911653637886047363e+00 -1.106449246406555176e+00 -2.759179592132568359e+00 -2.605926275253295898e+00 -2.904226444661617279e-02 -3.915318846702575684e-02 1.649495959281921387e+00 2.704822063446044922e+00 -3.899389877915382385e-02 -6.315884590148925781e-01
1.340808868408203125e-01 2.641443490982055664e+00 -2.596792459487915039e+00 -1.815924763679504395e+00 -1.096433043479919434e+00 1.249706387519836426e+00 -2.667085409164428711e+00 1.229060173034667969e+00 2.072112321853637695e+00 1.922209739685058594e+00 9.474566578865051270e-01 7.861626148223876953e-01 1.545850515365600586e+00 5.010707378387451172e-01 -1.299323439598083496e+00 3.373405337333679199e-01 5.023215413093566895e-01 1.206339955329895020e+00 -1.485567092895507812e+00 2.139704227447509766e+00 3.020838975906372070e+00 2.547052621841430664e+00 -1.537640392780303955e-01 -1.755362391471862793e+00 5.501534938812255859e-01 -1.955854535102844238e+00 2.679121971130371094e+00 -1.489718675613403320e+00 -1.303232550621032715e+00 1.196389198303222656e+00 -1.014615178108215332e+00 2.824277400970458984e+00 -1.150376081466674805e+00 -1.380286067724227905e-01 2.306524515151977539e+00 -4.260062053799629211e-02 8.988932967185974121e-01 -1.570723295211791992e+00 -2.287563323974609375e+00 -1.006514787673950195e+00 -2.638253211975097656e+00 -1.373473882675170898e+00 -2.223883152008056641e+00 1.838421344757080078e+00 -2.419527530670166016e+00 -2.861279726028442383e+00 -2.480891704559326172e+00 -1.102864623069763184e+00 2.249577283859252930e+00 -1.556821227073669434e+00 -2.373193025588989258e+00 1.709706783294677734e-01 5.678890272974967957e-02 1.836308956146240234e+00 -1.668576240539550781e+00 -8.549951910972595215e-01 -1.852019429206848145e+00 -2.133005380630493164e+00 -2.014256954193115234e+00 -2.665706872940063477e+00 7.745018005371093750e-01 -6.483090519905090332e-01 1.861960291862487793e+00 2.531260251998901367e-01 1.996937513351440430e+00 -3.093790113925933838e-01 6.067834496498107910e-01 2.792636394500732422e+00 -4.873458668589591980e-02 2.371565341949462891e+00 2.139662504196166992e+00 -1.841903626918792725e-01 -2.019824743270874023e+00 -1.176133394241333008e+00 2.245423316955566406e+00 4.341656565666198730e-01 3.462530374526977539e-01 1.829214626923203468e-03 -1.962140202522277832e+00 -2.118006467819213867e+00 3.112032413482666016e-01 2.336740732192993164e+00 -6.387185454368591309e-01 4.926544129848480225e-01 -8.482161164283752441e-01 1.156622648239135742e+00 1.300287842750549316e+00 2.079391181468963623e-01 -1.189010143280029297e+00 2.695625782012939453e+00 7.874804735183715820e-01 7.030887156724929810e-02 -1.248728513717651367e+00 2.015369653701782227e+00 -3.529337048530578613e-01 1.191526055335998535e+00 -5.095857381820678711e-01 -1.271669983863830566e+00 7.898167967796325684e-01 9.660165905952453613e-01
2.722685575485229492e+00 1.483304381370544434e+00 -1.216237783432006836e+00 -1.016997933387756348e+00 -5.996342301368713379e-01 1.904388546943664551e+00 -1.661711096763610840e+00 -1.777557253837585449e+00 -1.122806787490844727e+00 -2.261269807815551758e+00 -2.615837335586547852e+00 2.297806024551391602e+00 1.168647885322570801e+00 -2.354091882705688477e+00 2.007565975189208984e+00 6.358014345169067383e-01 8.166194558143615723e-01 -1.898437857627868652e+00 4.778105318546295166e-01 2.304186105728149414e+00 2.060204505920410156e+00 9.085462093353271484e-01 2.091853380203247070e+00 -5.431384444236755371e-01 -2.024253129959106445e+00 3.919551968574523926e-01 -1.152795195579528809e+00 4.562592506408691406e-01 1.876622915267944336e+00 2.162991762161254883e+00 -3.030836284160614014e-01 2.281090497970581055e+00 1.939584970474243164e+00 2.654001712799072266e+00 -2.963771581649780273e+00 -9.133234620094299316e-01 -5.897814631462097168e-01 -1.283247828483581543e+00 -3.564144670963287354e-02 -6.263263225555419922e-01 -6.464678645133972168e-01 2.372914791107177734e+00 -2.671902418136596680e+00 1.979280829429626465e+00 8.022459149360656738e-01 1.823435276746749878e-01 -6.096543073654174805e-01 -1.748492479324340820e+00 2.188221693038940430e+00 -1.721238493919372559e+00 -7.630015909671783447e-02 1.486159682273864746e+00 -2.976093530654907227e+00 1.799701452255249023e+00 -2.993734598159790039e+00 1.154353618621826172e+00 1.268383860588073730e+00 -2.015926837921142578e+00 2.845125198364257812e-01 -8.302770256996154785e-01 6.340317130088806152e-01 -2.847070693969726562e+00 -1.375245004892349243e-01 -1.327942132949829102e+00 -1.646867394447326660e+00 -1.021317467093467712e-01 -8.092814087867736816e-01 1.624188423156738281e+00 1.967074394226074219e+00 -8.649792522192001343e-02 8.454803824424743652e-01 1.524219751358032227e+00 1.649321675300598145e+00 -1.975293993949890137e+00 5.389864444732666016e-01 1.463437795639038086e+00 1.232167482376098633e+00 5.123164653778076172e-01 -1.097260236740112305e+00 -1.541962027549743652e+00 -4.290991127490997314e-01 9.632875919342041016e-01 2.014456540346145630e-01 -2.973699331283569336e+00 -2.507295608520507812e+00 -2.511027812957763672e+00 -1.896185278892517090e+00 1.462586760520935059e+00 -9.785593748092651367e-01 -1.098222732543945312e+00 1.979717373847961426e+00 -5.690099596977233887e-01 -1.371769070625305176e+00 -4.939211606979370117e-01 1.739819169044494629e+00 -2.434683889150619507e-01 1.299847126007080078e+00 3.346201479434967041e-01 2.168117284774780273e+00 1.020756363868713379e+00
-1.112728118896484375e+00 1.618474245071411133e+00 1.160706520080566406e+00 -2.239832878112792969e+00 2.651504516601562500e+00 1.991550922393798828e+00 1.378280282020568848e+00 2.260536909103393555e+00 -2.638879776000976562e+00 -7.866212129592895508e-01 -2.459485530853271484e+00 -2.440256357192993164e+00 -1.373763918876647949e+00 1.272004127502441406e+00 9.786518663167953491e-02 -2.700090169906616211e+00 7.938327789306640625e-01 1.925764918327331543e+00 7.883399128913879395e-01 6.980908513069152832e-01 -2.678649425506591797e+00 -9.139084815979003906e-01 -7.158913612365722656e-01 -4.330421686172485352e-01 5.305076837539672852e-01 2.396404266357421875e+00 2.462985277175903320e+00 2.016406804323196411e-01 -3.633028268814086914e-01 2.338012218475341797e+00 7.224320173263549805e-01 -1.239927187561988831e-01 -6.283744573593139648e-01 2.538544416427612305e+00 8.992804884910583496e-01 7.364338040351867676e-01 -1.088796138763427734e+00 8.249448537826538086e-01 4.293337166309356689e-01 2.132389307022094727e+00 -3.152710199356079102e+00 -4.179546535015106201e-01 -6.723138689994812012e-01 2.073893070220947266e+00 -1.130269885063171387e+00 3.213520765304565430e+00 -2.608721554279327393e-01 1.414153695106506348e+00 -9.744688868522644043e-01 7.808414101600646973e-01 -2.317979097366333008e+00 -1.958175659179687500e+00 2.604002237319946289e+00 -2.605858087539672852e+00 -2.477203607559204102e+00 1.050305128097534180e+00 1.028275012969970703e+00 2.112674526870250702e-02 -2.310054063796997070e+00 1.268661141395568848e+00 -1.832725524902343750e+00 -1.118592500686645508e+00 7.486960887908935547e-01 -1.307965517044067383e+00 3.127138614654541016e-01 -7.553353309631347656e-01 -4.702697098255157471e-01 1.026717066764831543e+00 1.220225572586059570e+00 -9.105349779129028320e-01 4.139522835612297058e-02 6.289458870887756348e-01 4.392023384571075439e-01 -1.019255876541137695e+00 1.745477080345153809e+00 -2.174925088882446289e+00 2.639256477355957031e+00 -1.658193945884704590e+00 -2.068113565444946289e+00 -8.437938690185546875e-01 1.543715119361877441e+00 -1.175119280815124512e+00 1.854051351547241211e+00 -1.990282654762268066e+00 -2.958273410797119141e+00 -2.301479317247867584e-02 -8.900494873523712158e-02 -9.846267104148864746e-01 2.094872474670410156e+00 3.560138344764709473e-01 -2.264973402023315430e+00 -1.513662219047546387e+00 1.932419180870056152e+00 8.894463777542114258e-01 -2.072376906871795654e-01 1.067522317171096802e-01 2.304924488067626953e+00 -1.569139957427978516e+00 -5.144877433776855469e-01 2.214658737182617188e+00
5.913206338882446289e-01 2.815385818481445312e+00 1.226463988423347473e-01 5.532431006431579590e-01 2.181236743927001953e+00 -4.711841642856597900e-01 -9.883395433425903320e-01 2.359763681888580322e-01 1.939282894134521484e+00 3.697960674762725830e-01 2.493039965629577637e-01 -3.357539892196655273e+00 -1.168634414672851562e+00 1.863353610038757324e+00 2.003583431243896484e+00 -1.432309150695800781e-01 1.350088953971862793e+00 -2.186107397079467773e+00 9.722882509231567383e-01 2.401828050613403320e+00 1.040914654731750488e+00 -2.130992174148559570e+00 2.498556852340698242e+00 2.203715324401855469e+00 2.220477342605590820e+00 -3.283660173416137695e+00 2.068037509918212891e+00 3.031533062458038330e-01 -8.034381866455078125e-01 2.109018802642822266e+00 1.000877022743225098e+00 -9.638541936874389648e-01 -1.716433405876159668e+00 2.451016187667846680e+00 6.800580620765686035e-01 -3.086737871170043945e+00 2.549937009811401367e+00 9.631590247154235840e-01 8.362836241722106934e-01 2.462011575698852539e+00 5.977877378463745117e-01 -2.827184200286865234e+00 -3.036016821861267090e-01 -2.837993860244750977e+00 -1.740120649337768555e+00 6.213837862014770508e-01 -1.042744398117065430e+00 2.774349749088287354e-01 -6.508533954620361328e-01 -2.801206409931182861e-01 -2.347227096557617188e+00 -3.987833857536315918e-01 -8.463643193244934082e-01 -7.799446582794189453e-01 1.798572540283203125e+00 1.074151247739791870e-01 2.245501756668090820e+00 -1.175741910934448242e+00 1.013317823410034180e+00 1.210998296737670898e+00 1.507625222206115723e+00 1.069992184638977051e+00 7.279677987098693848e-01 -1.020536065101623535e+00 1.225704431533813477e+00 4.513831138610839844e-01 -1.314841270446777344e+00 -3.349672630429267883e-02 -1.420708537101745605e+00 -5.981450676918029785e-01 -4.803525507450103760e-01 -7.781053781509399414e-01 -3.114753961563110352e-01 -2.139584273099899292e-01 -2.020913064479827881e-01 -2.875273704528808594e+00 -2.719052314758300781e+00 8.293123841285705566e-01 2.356677770614624023e+00 -1.782952070236206055e+00 9.166305065155029297e-01 -1.381314754486083984e+00 -6.506446003913879395e-01 -1.071124672889709473e+00 7.215941548347473145e-01 -3.037297010421752930e+00 -1.952553033828735352e+00 3.268660008907318115e-01 -2.532314062118530273e+00 1.420051932334899902e+00 -2.184903860092163086e+00 -6.688174009323120117e-01 -1.169955730438232422e+00 3.868421316146850586e-01 2.171899080276489258e+00 1.776991963386535645e+00 -2.516738653182983398e+00 -2.024811506271362305e+00 2.350258111953735352e+00 8.294653296470642090e-01
-2.314733982086181641e+00 -1.307189702987670898e+00 -7.376193404197692871e-01 -5.353698730468750000e-01 1.697086334228515625e+00 1.163605414330959320e-02 5.365064740180969238e-01 -3.198243141174316406e+00 1.495029926300048828e+00 2.248418807983398438e+00 -3.056879341602325439e-01 -1.858549714088439941e-01 1.403862953186035156e+00 2.853320598602294922e+00 2.922404408454895020e-01 -1.754995226860046387e+00 2.379282236099243164e+00 -8.726685047149658203e-01 -9.595276415348052979e-02 1.309432744979858398e+00 1.413647174835205078e+00 1.083479046821594238e+00 -2.411544322967529297e+00 1.201966166496276855e+00 -6.616852879524230957e-01 3.409879505634307861e-01 -2.227221727371215820e+00 1.090598225593566895e+00 -1.828583121299743652e+00 1.156018853187561035e+00 -7.118841409683227539e-01 -2.433683723211288452e-01 8.955290317535400391e-01 3.909116983413696289e-01 1.857316970825195312e+00 6.919137835502624512e-01 2.757492303848266602e+00 2.303562611341476440e-01 2.363374084234237671e-01 3.582153618335723877e-01 -2.257003784179687500e+00 -6.531806290149688721e-02 2.086435556411743164e+00 7.215337157249450684e-01 -2.908415317535400391e+00 -2.797106802463531494e-01 -1.070971965789794922e+00 -1.004135727882385254e+00 -5.541211366653442383e-02 1.371202111244201660e+00 1.845685362815856934e+00 2.873539924621582031e+00 -1.393979430198669434e+00 -1.053568363189697266e+00 -4.641546308994293213e-01 -1.208003640174865723e+00 -1.337506342679262161e-02 4.326229691505432129e-01 -2.132418870925903320e+00 -7.661127448081970215e-01 2.233856439590454102e+00 2.372706383466720581e-01 -1.788594961166381836e+00 6.665459275245666504e-01 -1.658820748329162598e+00 -1.024926543235778809e+00 -2.648127079010009766e+00 -7.256419062614440918e-01 -2.747574090957641602e+00 -1.851534724235534668e+00 -6.535096168518066406e-01 2.008866548538208008e+00 2.236315965652465820e+00 1.546309351921081543e+00 -1.254477262496948242e+00 -1.734883427619934082e+00 -2.824183702468872070e+00 9.526209533214569092e-02 1.872882843017578125e+00 -3.910157978534698486e-01 -1.848283410072326660e+00 -2.321753501892089844e+00 -1.514324069023132324e+00 2.506758689880371094e+00 1.960821866989135742e+00 -4.175190329551696777e-01 1.004289269447326660e+00 7.786198854446411133e-01 3.220440626144409180e+00 -3.808007538318634033e-01 1.517985820770263672e+00 -1.713497757911682129e+00 -8.413994684815406799e-03 -2.096116542816162109e+00 -1.378817081451416016e+00 1.489330291748046875e+00 1.807430982589721680e+00 -1.083390235900878906e+00 1.697457194328308105e+00 2.647367715835571289e+00
-1.396763920783996582e+00 -1.393269002437591553e-01 -8.660356700420379639e-02 9.162587523460388184e-01 5.236124396324157715e-01 1.629537940025329590e+00 5.071431994438171387e-01 -2.958818912506103516e+00 2.894979953765869141e+00 1.828856825828552246e+00 2.757533311843872070e+00 -1.318079113960266113e+00 1.307966470718383789e+00 -3.904555141925811768e-01 -1.873833179473876953e+00 -2.282709116116166115e-03 -1.999470710754394531e+00 -1.804793119430541992e+00 -9.263012409210205078e-01 -2.656734704971313477e+00 -1.442548274993896484e+00 -2.427727729082107544e-01 -8.916126489639282227e-01 2.029875516891479492e-01 -1.273297667503356934e-01 1.932253599166870117e+00 2.368870191276073456e-02 3.368617773056030273e+00 -9.263414144515991211e-02 -2.840554416179656982e-01 -8.668063282966613770e-01 3.281365334987640381e-01 -2.343282461166381836e+00 -9.853326678276062012e-01 -2.551687002182006836e+00 -3.177408874034881592e-01 -1.797393560409545898e+00 -6.711108684539794922e-01 1.729437351226806641e+00 1.691590666770935059e+00 1.514440417289733887e+00 1.531315088272094727e+00 -2.971503734588623047e-01 -2.909283638000488281e-01 -4.646536707878112793e-01 3.047295093536376953e+00 -2.037713289260864258e+00 -6.502774953842163086e-01 1.569901823997497559e+00 -3.395248651504516602e-01 6.321504116058349609e-01 -1.358256101608276367e+00 -5.871959328651428223e-01 2.772062778472900391e+00 -2.147201538085937500e+00 7.323879003524780273e-01 -9.250704646110534668e-01 2.637707591056823730e-01 1.890568375587463379e+00 2.881502628326416016e+00 -1.667712807655334473e+00 1.305539309978485107e-01 -1.898035764694213867e+00 1.331849813461303711e+00 -1.192087173461914062e+00 -1.596343159675598145e+00 6.015626788139343262e-01 -2.059805631637573242e+00 -4.256294965744018555e-01 -1.512105464935302734e+00 1.145429611206054688e+00 -2.181196451187133789e+00 8.983961939811706543e-01 -6.997572183609008789e-01 5.694526433944702148e-01 -2.072849512100219727e+00 -2.640538215637207031e+00 -2.300860881805419922e+00 -1.313163518905639648e+00 1.080365896224975586e+00 3.287729263305664062e+00 1.989963650703430176e+00 4.873629212379455566e-01 -1.399631053209304810e-01 -1.542083144187927246e+00 -2.371051311492919922e+00 2.669802188873291016e+00 -4.954670965671539307e-01 -1.771996974945068359e+00 3.114471435546875000e+00 -1.634482145309448242e+00 1.205908656120300293e+00 -3.604723513126373291e-01 -2.709523439407348633e-01 1.046768724918365479e-01 3.376670360565185547e+00 9.931464195251464844e-01 2.038617849349975586e+00 1.773268342018127441e+00 2.059572696685791016e+00
8.693976998329162598e-01 -1.135444045066833496e+00 -6.767429709434509277e-01 1.203460618853569031e-02 1.053859233856201172e+00 1.722810387611389160e+00 1.444172739982604980e+00 -4.433019757270812988e-01 -1.668236255645751953e+00 7.934996485710144043e-01 1.152723431587219238e+00 1.629076242446899414e+00 -1.633001565933227539e+00 -4.237194657325744629e-01 2.260337322950363159e-01 1.168787479400634766e+00 7.292863130569458008e-01 -2.052136421203613281e+00 -2.236048936843872070e+00 1.685847997665405273e+00 -1.695703417062759399e-01 1.550193548202514648e+00 -1.923646807670593262e+00 -3.129174709320068359e+00 2.227733612060546875e+00 -9.597645401954650879e-01 -1.502468943595886230e+00 1.274540543556213379e+00 -2.360615253448486328e+00 2.056767195463180542e-01 9.004738330841064453e-01 -1.171460375189781189e-01 -1.796771287918090820e+00 -8.449484705924987793e-01 1.982863306999206543e+00 1.310656070709228516e+00 -1.601998090744018555e+00 -2.649975538253784180e+00 2.473469257354736328e+00 -2.504370689392089844e+00 -1.776371717453002930e+00 -3.934695124626159668e-01 -1.517607092857360840e+00 -1.115061193704605103e-01 -1.370992541313171387e+00 1.978060841560363770e+00 -1.098905682563781738e+00 9.369969367980957031e-01 -9.490152597427368164e-01 2.692252874374389648e+00 2.467749118804931641e+00 -9.911957979202270508e-01 2.393186807632446289e+00 -1.083679437637329102e+00 1.244409799575805664e+00 -1.526548624038696289e+00 6.991226673126220703e-01 2.678373813629150391e+00 1.287864446640014648e+00 -1.585713267326354980e+00 -3.001543283462524414e+00 6.957655549049377441e-01 9.786694645881652832e-01 1.295302867889404297e+00 1.939321160316467285e+00 1.684749245643615723e+00 1.868558049201965332e+00 2.492306232452392578e+00 -1.710553884506225586e+00 -4.454460740089416504e-01 -2.861324250698089600e-01 2.098425865173339844e+00 -2.815695762634277344e+00 -1.945624873042106628e-02 2.412136554718017578e+00 -7.153470516204833984e-01 2.442223548889160156e+00 5.439864993095397949e-01 1.945636272430419922e+00 -9.800648093223571777e-01 -4.180270433425903320e-02 2.561718702316284180e+00 1.036556243896484375e+00 5.716853141784667969e-01 -1.454865336418151855e+00 -1.420474410057067871e+00 -2.015348523855209351e-01 -1.300022244453430176e+00 -2.192922353744506836e+00 -7.623305320739746094e-01 2.264757305383682251e-01 -2.236137390136718750e+00 -7.630419731140136719e-02 5.305587649345397949e-01 1.825812697410583496e+00 3.641828000545501709e-01 -1.549692392349243164e+00 -5.103855729103088379e-01 -2.712108373641967773e+00 -1.767110586166381836e+00
1.234466671943664551e+00 -2.692112207412719727e+00 -3.410421609878540039e+00 2.666746377944946289e-01 1.480247139930725098e+00 1.791856050491333008e+00 -1.072999715805053711e+00 -1.115863204002380371e+00 -1.083844542503356934e+00 5.625514984130859375e-01 2.002515792846679688e+00 9.773736596107482910e-01 -8.869314193725585938e-01 4.579980969429016113e-01 1.080400586128234863e+00 -5.004823803901672363e-01 3.547650277614593506e-01 4.410627484321594238e-01 -5.829144120216369629e-01 -1.841844081878662109e+00 1.309521317481994629e+00 1.069540262222290039e+00 1.038933396339416504e+00 -1.949454426765441895e+00 2.133916139602661133e+00 -8.054517507553100586e-01 1.331782639026641846e-01 2.209282398223876953e+00 -5.032060146331787109e-01 1.707896292209625244e-01 2.535473108291625977e-01 4.550220072269439697e-01 2.913805007934570312e+00 4.060761928558349609e-01 -1.493037104606628418e+00 1.058249950408935547e+00 -8.233965039253234863e-01 1.048939943313598633e+00 1.249838113784790039e+00 6.336843371391296387e-01 6.509229540824890137e-02 1.575341939926147461e+00 8.125003427267074585e-03 2.646207809448242188e+00 2.057256460189819336e+00 2.925899028778076172e-01 -1.953659653663635254e+00 2.404585480690002441e-01 4.937603175640106201e-01 -6.276798844337463379e-01 -2.999752998352050781e+00 -1.915194272994995117e+00 -1.759755253791809082e+00 7.009715437889099121e-01 -1.501830458641052246e+00 1.127804160118103027e+00 5.959104299545288086e-01 3.201415538787841797e-01 -2.859481811523437500e+00 -1.991061270236968994e-01 -4.348641932010650635e-01 1.225628018379211426e+00 1.676036596298217773e+00 -1.456563770771026611e-01 -1.274253010749816895e+00 -1.891647458076477051e+00 5.851501822471618652e-01 -2.107072114944458008e+00 2.043223381042480469e+00 2.238265037536621094e+00 3.367079496383666992e-01 1.760567069053649902e+00 5.075171589851379395e-01 -2.053595066070556641e+00 -8.498417586088180542e-02 -1.823013067245483398e+00 4.151461422443389893e-01 -2.125321626663208008e+00 -1.564091324806213379e+00 -1.323562741279602051e+00 1.488057971000671387e+00 -1.346265435218811035e+00 1.593367815017700195e+00 -4.393633604049682617e-01 1.426913976669311523e+00 1.440771222114562988e+00 -2.440541505813598633e+00 -2.217249631881713867e+00 2.050361633300781250e+00 1.618421077728271484e+00 7.079383134841918945e-01 1.404910087585449219e+00 -6.357039809226989746e-01 1.227312803268432617e+00 -6.439591944217681885e-02 -2.281274557113647461e+00 3.671516478061676025e-01 -2.316393136978149414e+00 -3.279191970825195312e+00 1.462814331054687500e+00
1.926009893417358398e+00 -1.234876155853271484e+00 -1.471604824066162109e+00 -1.725613117218017578e+00 8.568301796913146973e-01 -2.998605251312255859e+00 1.800316810607910156e+00 -1.702751278877258301e+00 -1.984719634056091309e+00 -1.548939466476440430e+00 2.018556594848632812e-01 1.540562987327575684e+00 9.711803197860717773e-01 9.050074815750122070e-01 6.272832155227661133e-01 6.905525922775268555e-01 1.203341603279113770e+00 1.153299689292907715e+00 6.017352268099784851e-02 -4.280434846878051758e-01 -1.448352098464965820e+00 -6.148427128791809082e-01 1.389516353607177734e+00 -5.206512808799743652e-01 -3.780380785465240479e-01 8.137628436088562012e-01 -1.982978820800781250e+00 1.602855205535888672e+00 -3.391915798187255859e+00 1.180494189262390137e+00 1.351580739021301270e+00 -1.724835157394409180e+00 3.668254017829895020e-01 1.170049905776977539e+00 8.972153067588806152e-01 1.253188133239746094e+00 -1.463135242462158203e+00 2.583707332611083984e+00 2.667626380920410156e+00 1.571576952934265137e+00 2.464586257934570312e+00 -3.256727695465087891e+00 -1.236003875732421875e+00 1.374519586563110352e+00 1.073825478553771973e+00 -9.690467715263366699e-01 1.622940540313720703e+00 -1.615880727767944336e+00 -6.776058077812194824e-01 5.499892681837081909e-02 1.660097241401672363e+00 2.103825807571411133e-01 1.699076056480407715e+00 -3.419001400470733643e-01 -1.623173207044601440e-01 2.631571054458618164e+00 1.573253989219665527e+00 -7.995787262916564941e-01 2.367575883865356445e+00 3.006190299987792969e+00 5.791911482810974121e-01 -2.059533357620239258e+00 1.603481173515319824e-01 8.948190212249755859e-01 1.032269477844238281e+00 1.050528764724731445e+00 -1.125669121742248535e+00 -3.022327721118927002e-01 1.302076339721679688e+00 -1.040148973464965820e+00 1.954549908638000488e+00 -2.752918243408203125e+00 -8.994144201278686523e-01 2.112822055816650391e+00 6.250431388616561890e-02 6.055364608764648438e-01 2.724679231643676758e+00 1.428262114524841309e+00 -2.365542173385620117e+00 5.492859985679388046e-03 1.982292383909225464e-01 9.007689952850341797e-01 -2.125884056091308594e+00 -8.497295379638671875e-01 5.199170708656311035e-01 9.664742946624755859e-01 4.162125885486602783e-01 1.126952290534973145e+00 -2.130016326904296875e+00 7.945742011070251465e-01 -1.726643919944763184e+00 1.453464150428771973e+00 -2.089978933334350586e+00 -3.188012361526489258e+00 -2.871864080429077148e+00 -8.612798452377319336e-01 -2.170949220657348633e+00 -2.980910301208496094e+00 -9.485433697700500488e-01 -2.376329183578491211e+00
-7.964437007904052734e-01 1.506040334701538086e+00 -1.432102799415588379e+00 2.813588380813598633e+00 5.784614682197570801e-01 -1.586402297019958496e+00 -1.389726758003234863e+00 -3.529884815216064453e-01 -1.329037427902221680e+00 -2.944663524627685547e+00 3.195127487182617188e+00 -4.813307523727416992e-01 2.465062618255615234e+00 5.451124906539916992e-01 -2.772255539894104004e-01 2.683153152465820312e+00 -2.144493103027343750e+00 -1.778056621551513672e+00 -1.365491747856140137e+00 -9.537782669067382812e-01 5.893492102622985840e-01 1.339740514755249023e+00 -1.458398342132568359e+00 1.704796314239501953e+00 2.428179979324340820e+00 1.860953450202941895e+00 -1.128770336508750916e-01 1.300253033638000488e+00 -1.733808755874633789e+00 2.494607925415039062e+00 -1.320925951004028320e+00 1.299021959304809570e+00 1.223586082458496094e+00 -2.105732679367065430e+00 2.212914228439331055e-01 -7.715001702308654785e-01 -1.764945030212402344e+00 -1.005809545516967773e+00 4.600686132907867432e-01 1.639793068170547485e-01 9.359435439109802246e-01 -7.630575448274612427e-02 1.729384660720825195e+00 -1.959396958351135254e+00 2.015846014022827148e+00 -1.825500965118408203e+00 5.511069893836975098e-01 9.868768453598022461e-01 -6.596020460128784180e-01 -1.239849328994750977e+00 -2.856022357940673828e+00 8.538963198661804199e-01 -1.035344824194908142e-01 2.500903129577636719e+00 2.467331409454345703e+00 -1.171342507004737854e-01 -6.193818449974060059e-01 -2.322302341461181641e+00 5.251857638359069824e-01 -7.751362919807434082e-01 8.577816486358642578e-01 3.821651637554168701e-02 7.225793600082397461e-01 -2.157679080963134766e+00 1.683905601501464844e+00 -2.332895517349243164e+00 2.135259062051773071e-01 -1.660533666610717773e+00 -2.461372852325439453e+00 1.857945024967193604e-01 -2.219465255737304688e+00 -2.567150592803955078e-01 9.570134878158569336e-01 8.825165629386901855e-01 -1.461529016494750977e+00 7.204465866088867188e-01 5.428505539894104004e-01 -1.905098676681518555e+00 1.003301501274108887e+00 -9.213988482952117920e-02 3.010183274745941162e-01 8.872609585523605347e-03 1.600115299224853516e+00 2.955734252929687500e+00 6.732691526412963867e-01 7.623103857040405273e-01 -1.639394283294677734e+00 -1.423485159873962402e+00 2.081113815307617188e+00 1.560728549957275391e+00 1.039913296699523926e+00 1.099049806594848633e+00 2.719365119934082031e+00 -2.477551221847534180e+00 -1.761623620986938477e+00 -1.827788233757019043e+00 -3.683444261550903320e-01 -1.590902209281921387e+00 1.931765079498291016e+00 -5.636744499206542969e-01
-1.355782985687255859e+00 1.679236888885498047e+00 -1.059043407440185547e+00 -8.771446943283081055e-01 -1.258683562278747559e+00 1.769368767738342285e+00 2.020728826522827148e+00 1.920402288436889648e+00 1.939710497856140137e+00 -2.310717821121215820e+00 -5.519135594367980957e-01 9.249181747436523438e-01 1.999636769294738770e+00 -2.309568881988525391e+00 -1.120825052261352539e+00 -1.836001992225646973e+00 1.118868827819824219e+00 -2.027258634567260742e+00 1.154549717903137207e+00 -1.936135888099670410e+00 3.291785344481468201e-02 -2.286602020263671875e+00 7.322446703910827637e-01 3.429774045944213867e-01 3.911504149436950684e-01 2.821472167968750000e+00 -4.713098406791687012e-01 -2.252195119857788086e+00 9.249997735023498535e-01 -3.804541230201721191e-01 -2.112754106521606445e+00 -7.347216606140136719e-01 -9.415823221206665039e-01 9.689112901687622070e-01 1.906801462173461914e+00 -2.865837812423706055e+00 -1.412794470787048340e+00 -2.383018583059310913e-01 3.064636468887329102e+00 2.533869981765747070e+00 -1.992387413978576660e+00 -1.499854445457458496e+00 2.304403334856033325e-01 -1.566556572914123535e+00 5.441868305206298828e-01 5.022148489952087402e-01 -3.529047667980194092e-01 6.110526919364929199e-01 3.284265279769897461e+00 1.165506958961486816e+00 2.011697530746459961e+00 2.576146364212036133e+00 7.675612568855285645e-01 1.325693368911743164e+00 6.123746037483215332e-01 1.949786901473999023e+00 -1.178319692611694336e+00 2.236065149307250977e+00 7.006933093070983887e-01 -7.639394402503967285e-01 8.440959453582763672e-01 -2.376991748809814453e+00 2.221394062042236328e+00 7.706627249717712402e-01 1.455761313438415527e+00 -2.118399143218994141e-01 -1.154562711715698242e+00 -1.537945508956909180e+00 1.020242571830749512e+00 -1.674648523330688477e+00 -2.728564977645874023e+00 1.341788768768310547e+00 -1.100405454635620117e+00 -1.754219055175781250e+00 8.579093813896179199e-01 -8.521800041198730469e-01 1.254967570304870605e+00 -4.922239780426025391e-01 -3.835154771804809570e-01 -7.157040238380432129e-01 -3.064786791801452637e-01 -2.025511503219604492e+00 1.011857151985168457e+00 4.177831411361694336e-01 1.296217679977416992e+00 -1.758478999137878418e+00 4.637470841407775879e-01 9.591499567031860352e-01 -4.706123471260070801e-01 -1.986290574073791504e+00 -9.670244455337524414e-01 5.923001766204833984e-01 -2.266885042190551758e+00 -7.816584706306457520e-01 -2.323710203170776367e+00 8.478435873985290527e-01 1.213652372360229492e+00 1.249858498573303223e+00 -3.248437121510505676e-02 8.308200240135192871e-01
-1.227005124092102051e-01 1.743857026100158691e+00 -9.271335005760192871e-01 -1.862016558647155762e+00 -1.573981404304504395e+00 -1.928022861480712891e+00 -1.212131738662719727e+00 -3.014225006103515625e+00 1.124302268028259277e+00 9.596508741378784180e-01 1.187880635261535645e-01 -2.972389757633209229e-01 -8.155582100152969360e-02 -1.261526107788085938e+00 -1.863376617431640625e+00 -2.650244712829589844e+00 6.741369366645812988e-01 -6.181608438491821289e-01 1.802237629890441895e+00 -1.436586976051330566e+00 -2.604438066482543945e+00 2.030241936445236206e-01 -2.026204824447631836e+00 -2.268903255462646484e+00 -1.949156284332275391e+00 -2.075413227081298828e+00 2.351952940225601196e-01 -1.534623622894287109e+00 2.027639627456665039e+00 -1.238912463188171387e+00 3.890998363494873047e-01 1.428627129644155502e-02 1.907253861427307129e+00 1.264874041080474854e-01 -2.431336790323257446e-02 1.700105190277099609e+00 1.589763641357421875e+00 -1.168727159500122070e+00 7.241299152374267578e-01 6.777644157409667969e-01 2.581814765930175781e+00 -6.863061189651489258e-01 6.587091088294982910e-01 -1.230491161346435547e+00 1.754335641860961914e+00 1.026821255683898926e+00 1.228877305984497070e+00 -2.288750886917114258e+00 -7.616601139307022095e-02 -3.093912124633789062e+00 -2.458928972482681274e-01 6.213512420654296875e-01 -8.781398534774780273e-01 -2.328362941741943359e+00 1.189593076705932617e+00 2.000785827636718750e+00 2.416090965270996094e+00 1.998751640319824219e+00 2.329983472824096680e+00 -2.225427329540252686e-01 -1.902956724166870117e+00 2.117792129516601562e+00 1.686315417289733887e+00 2.266448259353637695e+00 -2.675441265106201172e+00 1.735704779624938965e+00 2.389892578125000000e+00 -2.200921773910522461e+00 6.127756834030151367e-01 2.132940530776977539e+00 1.870542526245117188e+00 -1.222605705261230469e+00 -1.642839670181274414e+00 -1.704200804233551025e-01 -5.358105301856994629e-01 -2.443377822637557983e-01 -2.935471057891845703e+00 1.539659976959228516e+00 1.492324233055114746e+00 4.146549105644226074e-01 -1.438193202018737793e+00 -1.459833979606628418e+00 2.000346899032592773e+00 -1.639398217201232910e+00 -1.354796409606933594e+00 -1.197412252426147461e+00 4.439476877450942993e-02 1.485292553901672363e+00 1.239178419113159180e+00 -1.717642188072204590e+00 2.259736299514770508e+00 -1.433120012283325195e+00 2.042910814285278320e+00 2.123559236526489258e+00 1.297015666961669922e+00 -1.226503849029541016e+00 7.744171619415283203e-01 2.537715196609497070e+00 1.294295787811279297e+00 -1.417471468448638916e-02
1.910733342170715332e+00 1.125214457511901855e+00 -2.116443395614624023e+00 2.401862144470214844e+00 -1.134482026100158691e-01 -1.080387711524963379e+00 3.621488511562347412e-01 -3.052025794982910156e+00 1.441908478736877441e+00 1.437400579452514648e-01 4.554050862789154053e-01 6.245990991592407227e-01 -2.216768980026245117e+00 -1.256259441375732422e+00 2.341055393218994141e+00 -2.328143119812011719e+00 -2.266931056976318359e+00 7.359986305236816406e-01 7.437389492988586426e-01 -3.029568910598754883e+00 -2.801829874515533447e-01 -8.188683986663818359e-01 -3.596151173114776611e-01 -2.325048685073852539e+00 -2.211081027984619141e+00 8.055523633956909180e-01 -7.124403119087219238e-01 7.413606643676757812e-01 2.879940509796142578e+00 -2.052176237106323242e+00 -1.025681734085083008e+00 -2.115117162466049194e-01 -1.533722400665283203e+00 -2.589932918548583984e+00 1.179159358143806458e-01 1.351141095161437988e+00 2.213301420211791992e+00 1.918489336967468262e+00 1.657584428787231445e+00 -2.085341453552246094e+00 -1.819141983985900879e+00 -4.209950864315032959e-01 6.135218590497970581e-02 2.277580738067626953e+00 -3.521330058574676514e-01 -7.703101038932800293e-01 -2.616747379302978516e+00 1.053189516067504883e+00 -7.744158804416656494e-02 1.727744579315185547e+00 -2.294656783342361450e-01 -1.930744290351867676e+00 -2.513571023941040039e+00 1.518373489379882812e+00 2.525801181793212891e+00 -2.603504180908203125e+00 1.736741423606872559e+00 -2.213336467742919922e+00 -1.546182751655578613e+00 2.193145990371704102e+00 2.270079851150512695e+00 -1.097443580627441406e+00 -3.173614501953125000e+00 9.614301323890686035e-01 1.811892032623291016e+00 2.084422349929809570e+00 1.992091894149780273e+00 1.514808416366577148e+00 -2.015170335769653320e+00 1.578406333923339844e+00 -1.415321707725524902e+00 5.163875818252563477e-01 2.115642786026000977e+00 1.885492563247680664e+00 2.272010326385498047e+00 1.829707026481628418e+00 4.718761518597602844e-02 -2.664252758026123047e+00 1.565081238746643066e+00 1.610599994659423828e+00 -1.283812284469604492e+00 -1.067976355552673340e+00 -2.257626056671142578e+00 6.421181559562683105e-01 -3.812766373157501221e-01 1.061551690101623535e+00 2.563944578170776367e+00 -1.546159267425537109e+00 -1.587228417396545410e+00 8.985460400581359863e-01 -1.633112788200378418e+00 1.108171105384826660e+00 8.426439166069030762e-01 -2.584975719451904297e+00 1.821323633193969727e+00 -1.178250670433044434e+00 8.945986032485961914e-01 1.374531269073486328e+00 2.160043478012084961e+00 3.330268859863281250e-01
2.477190971374511719e+00 -3.792247548699378967e-02 1.069477647542953491e-01 -2.533210754394531250e+00 1.281752943992614746e+00 1.915015429258346558e-01 7.067531943321228027e-01 -1.284073710441589355e+00 -1.738858699798583984e+00 -3.493151426315307617e+00 2.610713243484497070e+00 3.229370117187500000e-01 -1.928105592727661133e+00 6.301042437553405762e-01 1.737415075302124023e+00 -2.003221511840820312e+00 -2.525150775909423828e+00 -1.732968389987945557e-01 -1.676386475563049316e+00 5.575652122497558594e-01 -1.950065612792968750e+00 -1.508534431457519531e+00 -1.837163567543029785e+00 1.532107114791870117e+00 2.297540903091430664e+00 -3.553321957588195801e-01 2.037177324295043945e+00 -1.972031474113464355e+00 -3.479987978935241699e-01 1.260265231132507324e+00 -2.526743412017822266e+00 1.779387950897216797e+00 -1.480331569910049438e-01 1.700608491897583008e+00 -2.578778028488159180e+00 -3.277353048324584961e+00 -4.245294034481048584e-01 2.325234889984130859e+00 1.225529789924621582e+00 7.770439237356185913e-02 1.777065753936767578e+00 -1.197927951812744141e+00 -2.795371532440185547e+00 7.716751694679260254e-01 3.001780509948730469e-01 -1.618435144424438477e+00 3.161821961402893066e-01 2.401087045669555664e+00 -2.090230226516723633e+00 2.199348688125610352e+00 1.754818797111511230e+00 1.262557506561279297e+00 1.056512117385864258e+00 6.353807449340820312e-01 -1.534461975097656250e+00 -7.173892259597778320e-01 1.244934320449829102e+00 6.138464808464050293e-01 1.875528335571289062e+00 -4.823214411735534668e-01 -7.848375439643859863e-01 2.922123074531555176e-01 -6.746580600738525391e-01 1.693514227867126465e+00 1.972969651222229004e+00 -7.218232154846191406e-01 -4.092383980751037598e-01 -1.398513078689575195e+00 -1.252738475799560547e+00 4.607914686203002930e-01 -1.553665637969970703e+00 3.047485828399658203e+00 -1.853436350822448730e+00 -1.441918849945068359e+00 -3.342481613159179688e+00 2.015385389328002930e+00 -1.962782621383666992e+00 2.398025274276733398e+00 1.207778573036193848e+00 -2.342354536056518555e+00 2.439196586608886719e+00 1.342718601226806641e+00 2.391853332519531250e+00 -1.774776697158813477e+00 -1.029792666435241699e+00 -2.663259029388427734e+00 -2.731758058071136475e-01 5.862557291984558105e-01 6.993865966796875000e-01 4.589826762676239014e-01 1.980660200119018555e+00 2.090595960617065430e+00 1.109532713890075684e+00 1.988495826721191406e+00 9.233843088150024414e-01 4.523883163928985596e-01 -1.310954809188842773e+00 7.087594866752624512e-01 3.227183520793914795e-01 -2.591636657714843750e+00
2.698296070098876953e+00 2.211492538452148438e+00 -6.233876943588256836e-01 -2.946301400661468506e-01 8.086192011833190918e-01 2.465892553329467773e+00 -3.462732434272766113e-01 -3.307323455810546875e-01 -2.014996051788330078e+00 -1.041861534118652344e+00 -1.828165173530578613e+00 -1.025175809860229492e+00 2.475491315126419067e-01 -4.466896951198577881e-01 -2.032761096954345703e+00 -7.018987536430358887e-01 1.453584074974060059e+00 -3.250350952148437500e+00 -1.827932238578796387e+00 1.707315683364868164e+00 1.889005303382873535e+00 1.540025353431701660e+00 4.995920658111572266e-01 -1.031141519546508789e+00 1.230827569961547852e+00 1.430558681488037109e+00 -5.311895608901977539e-01 -1.342937111854553223e+00 1.454475760459899902e+00 2.262794733047485352e+00 2.278838872909545898e+00 -2.600881576538085938e+00 -2.111368179321289062e+00 -1.181301355361938477e+00 -5.247034877538681030e-02 2.258012533187866211e+00 -3.770354378502815962e-04 -2.732938766479492188e+00 -5.932413339614868164e-01 -3.432801723480224609e+00 1.129818201065063477e+00 -2.528831720352172852e+00 1.353249698877334595e-01 -2.606762170791625977e+00 8.406361937522888184e-01 -1.276659607887268066e+00 2.616867542266845703e+00 -3.172964572906494141e+00 -1.093700408935546875e+00 1.368648290634155273e+00 7.067520618438720703e-01 -2.809057474136352539e+00 -1.644316792488098145e+00 -1.260438203811645508e+00 -9.019373655319213867e-01 -2.347162008285522461e+00 -4.840032160282135010e-01 1.130933403968811035e+00 5.717979669570922852e-01 1.876751542091369629e+00 -3.585187673568725586e+00 -1.483391165733337402e+00 2.503718376159667969e+00 -8.718274235725402832e-01 -1.052097201347351074e+00 -3.000011742115020752e-01 2.577533721923828125e+00 -4.608082175254821777e-01 -2.105125665664672852e+00 -1.764741063117980957e+00 -5.914641618728637695e-01 5.041895508766174316e-01 1.925384521484375000e+00 -1.792115807533264160e+00 2.519414424896240234e+00 2.028409481048583984e+00 -9.722815454006195068e-02 2.848906040191650391e+00 6.440038681030273438e-01 1.937012523412704468e-01 -2.641663551330566406e-01 -1.137589216232299805e+00 1.748958587646484375e+00 1.068695425987243652e+00 1.580748438835144043e+00 1.879446625709533691e+00 -1.169379830360412598e+00 1.270170211791992188e+00 1.656779527664184570e+00 2.973157644271850586e+00 -1.875454038381576538e-01 -1.450588703155517578e+00 2.926267862319946289e+00 -1.673646688461303711e+00 1.939159631729125977e-02 -3.461237251758575439e-01 2.250054359436035156e+00 6.931276321411132812e-01 -3.711349368095397949e-01 1.482133984565734863e+00
-1.507171750068664551e+00 -1.377395272254943848e+00 2.385516643524169922e+00 -1.292938470840454102e+00 -8.709556460380554199e-01 3.657232522964477539e-01 -2.454598903656005859e+00 3.764261305332183838e-01 1.610065817832946777e+00 5.255392193794250488e-01 1.887530565261840820e+00 -1.828488230705261230e+00 6.808536648750305176e-01 1.767595529556274414e+00 -2.625938415527343750e+00 -2.215562462806701660e-01 9.792199730873107910e-01 -8.121591806411743164e-01 -2.681086301803588867e+00 3.031306266784667969e+00 -2.314839124679565430e+00 3.230149149894714355e-01 -1.209674358367919922e+00 2.140602588653564453e+00 -2.674414634704589844e+00 -1.385507464408874512e+00 -1.730614662170410156e+00 7.057381868362426758e-01 2.840065002441406250e+00 2.495891332626342773e+00 2.407644510269165039e+00 -3.109585523605346680e+00 -1.814912915229797363e+00 -4.254545271396636963e-01 1.962709665298461914e+00 -1.253902018070220947e-01 -3.334011077880859375e+00 -3.741137385368347168e-01 -5.154566764831542969e-01 -1.315245032310485840e-01 4.423473775386810303e-01 1.668806672096252441e+00 -8.147587180137634277e-01 2.430726051330566406e+00 2.055049896240234375e+00 -2.535460233688354492e+00 -1.833837032318115234e+00 2.199176788330078125e+00 7.210093736648559570e-01 1.666666269302368164e+00 1.477148890495300293e+00 1.082478284835815430e+00 2.698803246021270752e-01 1.790860295295715332e+00 5.491604655981063843e-02 -1.658571418374776840e-03 1.145176887512207031e+00 -3.696542263031005859e+00 7.667568922042846680e-01 1.376728773117065430e+00 -2.895540237426757812e+00 -1.599704623222351074e+00 -9.262616038322448730e-01 1.360592246055603027e+00 -3.218552768230438232e-01 -3.639883995056152344e+00 2.291881561279296875e+00 5.660412311553955078e-01 1.983168125152587891e+00 2.721280097961425781e+00 2.331793755292892456e-01 -1.293417930603027344e+00 5.369772911071777344e-01 1.535465359687805176e+00 1.171667814254760742e+00 2.241482257843017578e+00 -1.611612141132354736e-01 6.233115196228027344e-01 -2.517708301544189453e+00 -2.227161228656768799e-01 -3.358021378517150879e-01 -1.827412843704223633e+00 -1.422974944114685059e+00 -9.921938776969909668e-01 1.177803397178649902e+00 1.222829937934875488e+00 -1.069047376513481140e-01 -8.195903301239013672e-01 1.183575630187988281e+00 -2.156668424606323242e+00 2.274212241172790527e-01 1.603896379470825195e+00 1.598704338073730469e+00 -9.567177295684814453e-01 1.457812309265136719e+00 -2.384832859039306641e+00 -9.732996225357055664e-01 1.488700866699218750e+00 5.847334861755371094e-01 -2.463078498840332031e+00
-1.124206304550170898e+00 -2.141025781631469727e+00 1.933901548385620117e+00 -2.204832881689071655e-01 -1.810101151466369629e+00 2.777793109416961670e-01 1.934600234031677246e+00 -7.164797782897949219e-01 -1.725077629089355469e-01 4.105367660522460938e-01 1.327429652214050293e+00 3.007215738296508789e+00 -2.098236799240112305e+00 -1.874956965446472168e+00 5.886204242706298828e-01 -1.395566463470458984e+00 2.473992347717285156e+00 -1.645998597145080566e+00 -6.775045394897460938e-01 -9.531505703926086426e-01 -1.220211267471313477e+00 -1.297446250915527344e+00 -8.027038574218750000e-01 -2.566159725189208984e+00 6.689732521772384644e-02 8.105508685111999512e-01 1.481418371200561523e+00 1.335777789354324341e-01 1.325331687927246094e+00 -2.223077058792114258e+00 -2.735248565673828125e+00 1.622340559959411621e+00 8.611537814140319824e-01 -2.186561822891235352e+00 3.185928344726562500e+00 8.341684937477111816e-01 1.983939647674560547e+00 -2.696699857711791992e+00 -1.253801584243774414e+00 2.293467283248901367e+00 1.299444884061813354e-01 -2.982992231845855713e-01 -4.445897638797760010e-01 -9.273642301559448242e-01 -1.670238137245178223e+00 3.386651575565338135e-01 -1.547068119049072266e+00 1.811083316802978516e+00 -1.748594284057617188e+00 1.807240486145019531e+00 -1.242918372154235840e+00 3.268497467041015625e+00 7.414660453796386719e-01 1.770717263221740723e+00 2.073154449462890625e+00 7.648547291755676270e-01 2.492552757263183594e+00 -1.182179689407348633e+00 1.538689613342285156e+00 -2.022686451673507690e-01 1.978334546089172363e+00 2.899993419647216797e+00 -1.744946599006652832e+00 -2.003978252410888672e+00 2.328305244445800781e+00 1.945353746414184570e+00 1.599895119667053223e+00 -1.920946002006530762e+00 -1.610449671745300293e+00 2.060931444168090820e+00 9.228550195693969727e-01 2.566017150878906250e+00 -2.468029737472534180e+00 -8.319444060325622559e-01 -2.077576965093612671e-01 1.871531367301940918e+00 1.245225548744201660e+00 -2.437522411346435547e+00 2.071194648742675781e+00 -1.621800899505615234e+00 -8.589975237846374512e-01 3.022540546953678131e-02 -1.595450162887573242e+00 -1.710640430450439453e+00 -7.077166438102722168e-01 -1.134365677833557129e+00 1.879126667976379395e+00 2.141256093978881836e+00 -9.207025766372680664e-01 -1.321710109710693359e+00 8.442780971527099609e-01 -1.798696994781494141e+00 -2.955327332019805908e-01 -1.513735651969909668e+00 1.940535664558410645e+00 -1.948402523994445801e+00 -1.760580688714981079e-01 4.357499480247497559e-01 -1.171400427818298340e+00 -1.035156846046447754e+00
1.292523145675659180e+00 2.717498779296875000e+00 3.245522975921630859e+00 -1.870393991470336914e+00 -1.140584588050842285e+00 -1.316204190254211426e+00 -2.509329557418823242e+00 8.896009922027587891e-01 5.382601916790008545e-02 4.242596328258514404e-01 -1.108756303787231445e+00 -2.003867864608764648e+00 1.340645551681518555e+00 3.296173095703125000e+00 1.187447383999824524e-01 2.868613004684448242e+00 -2.328629970550537109e+00 -8.685911893844604492e-01 6.436842679977416992e-02 4.591769874095916748e-01 -1.920111417770385742e+00 -2.263110160827636719e+00 -1.330281943082809448e-01 2.976910829544067383e+00 -1.676664590835571289e+00 1.002156734466552734e+00 -1.646774262189865112e-02 1.457111954689025879e+00 -1.294336199760437012e+00 1.051141738891601562e+00 -1.354867100715637207e+00 -1.741845369338989258e+00 1.826372504234313965e+00 -1.381072282791137695e+00 9.935879111289978027e-01 2.580792903900146484e-01 -1.452656745910644531e+00 3.227842748165130615e-01 6.430922746658325195e-01 -1.369231343269348145e+00 2.100089073181152344e+00 1.229642987251281738e+00 -9.041451662778854370e-02 -2.555878400802612305e+00 -8.781144618988037109e-01 2.740548372268676758e+00 -1.229608416557312012e+00 1.015389919281005859e+00 -2.737998485565185547e+00 -2.489488840103149414e+00 1.222520232200622559e+00 -2.158902406692504883e+00 -5.424770116806030273e-01 -5.371944904327392578e-01 -1.794240593910217285e+00 -6.194325685501098633e-01 -9.391822218894958496e-01 2.149847030639648438e+00 2.103388071060180664e+00 -2.543188095092773438e+00 2.622427701950073242e+00 -1.481984138488769531e+00 2.371312618255615234e+00 -2.236299276351928711e+00 1.916400790214538574e+00 2.889029741287231445e+00 -2.623771190643310547e+00 1.504780650138854980e+00 -5.107221007347106934e-01 1.803516864776611328e+00 -1.168863415718078613e+00 -2.808489799499511719e+00 -7.802067995071411133e-01 2.302743196487426758e+00 7.918987274169921875e-01 -2.753394842147827148e+00 -5.043909549713134766e-01 -2.042557716369628906e+00 1.070189833641052246e+00 1.774992823600769043e+00 -1.364329934120178223e+00 -1.245175719261169434e+00 -2.064507722854614258e+00 -8.063876032829284668e-01 -6.322473883628845215e-01 6.070301532745361328e-01 2.530060768127441406e+00 2.267003536224365234e+00 -1.975282311439514160e+00 1.951922178268432617e+00 2.273043870925903320e+00 8.774018883705139160e-01 -7.459490895271301270e-01 1.775701522827148438e+00 3.250256299972534180e+00 -4.466712772846221924e-01 2.247863531112670898e+00 -4.085489809513092041e-01 -1.547424197196960449e+00 -1.053539752960205078e+00
2.100173950195312500e+00 7.687391638755798340e-01 1.295026540756225586e+00 -6.074578762054443359e-01 2.440120935440063477e+00 1.832452178001403809e+00 1.841736674308776855e+00 8.063395619392395020e-01 -1.287385225296020508e+00 1.911830782890319824e+00 1.220526814460754395e+00 5.669316649436950684e-01 -1.118309020996093750e+00 -2.229366302490234375e+00 -6.795254349708557129e-01 -2.252913951873779297e+00 1.623194217681884766e+00 -1.328609347343444824e+00 1.909309864044189453e+00 7.391936182975769043e-01 8.876247406005859375e-01 -1.221646904945373535e+00 -2.980718016624450684e-01 4.781685173511505127e-01 -1.591494083404541016e+00 -1.341359138488769531e+00 -1.119268298149108887e+00 -6.511534452438354492e-01 8.756710216403007507e-03 -7.503224611282348633e-01 -2.241047382354736328e+00 1.389541506767272949e+00 -1.070272207260131836e+00 -1.479067325592041016e+00 -2.341624498367309570e+00 -1.034709095954895020e+00 -7.795144915580749512e-01 -6.520084738731384277e-01 -1.366814494132995605e+00 2.400021553039550781e+00 1.759347796440124512e+00 1.935186862945556641e+00 -3.539934009313583374e-02 -9.680319428443908691e-01 -1.541928768157958984e+00 3.054819814860820770e-02 -1.659449577331542969e+00 1.165030717849731445e+00 2.653503656387329102e+00 1.242531299591064453e+00 -1.187093019485473633e+00 -1.386494874954223633e+00 -2.365185767412185669e-01 -8.740075230598449707e-01 -2.845870517194271088e-02 -1.967946410179138184e+00 -2.040471553802490234e+00 1.030491143465042114e-01 -3.029658079147338867e+00 -4.321782886981964111e-01 9.984605908393859863e-01 -7.221272587776184082e-01 -3.076454102993011475e-01 2.750656127929687500e+00 4.721305668354034424e-01 -1.056770533323287964e-01 1.086554884910583496e+00 8.875724077224731445e-01 1.379746079444885254e+00 -2.097684890031814575e-01 -1.701023459434509277e+00 -8.286541700363159180e-01 -1.427519083023071289e+00 2.459666013717651367e+00 -1.719117164611816406e+00 -1.942909479141235352e+00 2.200047969818115234e+00 1.895595788955688477e+00 -9.067099690437316895e-01 7.314440608024597168e-01 -7.601659893989562988e-01 1.252579450607299805e+00 -5.763543248176574707e-01 5.148454308509826660e-01 1.951840281486511230e+00 2.499416351318359375e+00 -2.518848657608032227e+00 -8.479170203208923340e-01 1.608241498470306396e-01 -3.026930809020996094e+00 1.928656339645385742e+00 2.350694656372070312e+00 -2.404952287673950195e+00 3.386272430419921875e+00 2.099289655685424805e+00 1.869412779808044434e+00 -2.421851634979248047e+00 2.067915678024291992e+00 -6.791433095932006836e-01 -2.259610652923583984e+00
1.646789908409118652e+00 -2.989712953567504883e-01 -2.328563213348388672e+00 6.019369363784790039e-01 -2.552991807460784912e-01 -2.663655757904052734e+00 1.553121805191040039e+00 -2.409593343734741211e+00 7.441732287406921387e-01 5.195466279983520508e-01 -2.600313901901245117e+00 -7.618686556816101074e-01 1.978858947753906250e+00 2.180132627487182617e+00 -2.543880701065063477e+00 9.989798665046691895e-01 -1.982553958892822266e+00 -5.120152831077575684e-01 -1.574092984199523926e+00 -1.042035818099975586e+00 1.097243189811706543e+00 -2.475659370422363281e+00 1.674228310585021973e+00 2.707859516143798828e+00 -2.669368982315063477e+00 -2.950180053710937500e+00 -2.922862172126770020e-01 1.949990510940551758e+00 -1.622972249984741211e+00 -2.537405729293823242e+00 1.392110228538513184e+00 1.207652330398559570e+00 -2.151639699935913086e+00 6.456379294395446777e-01 3.065670132637023926e-01 -6.569221019744873047e-01 -2.439885139465332031e+00 1.717538237571716309e+00 -2.935547590255737305e+00 9.590796828269958496e-01 7.246842980384826660e-01 4.624545276165008545e-01 4.498511254787445068e-01 2.381811380386352539e+00 -2.890060186386108398e+00 -1.355719089508056641e+00 1.278442859649658203e+00 2.415235757827758789e+00 2.601227045059204102e+00 1.284069061279296875e+00 -1.472726583480834961e+00 1.842559576034545898e+00 -5.443693399429321289e-01 2.439383745193481445e+00 1.476778507232666016e+00 -1.016087174415588379e+00 2.168079614639282227e-01 1.276312112808227539e+00 -6.645200848579406738e-01 -8.351738452911376953e-01 3.170608580112457275e-01 1.240091562271118164e+00 1.523264050483703613e+00 -3.154623031616210938e+00 -1.707417964935302734e+00 -1.949166804552078247e-01 -1.970146656036376953e+00 2.254689931869506836e+00 -8.089311122894287109e-01 -9.667567610740661621e-01 -1.675719261169433594e+00 1.601296186447143555e+00 1.258421659469604492e+00 1.680716156959533691e+00 4.432819783687591553e-03 8.545278906822204590e-01 9.263321757316589355e-01 -1.309480071067810059e+00 1.333365559577941895e+00 8.676531910896301270e-01 1.011258602142333984e+00 2.240750551223754883e+00 -2.144221305847167969e+00 -6.160873174667358398e-01 -2.965359926223754883e+00 4.198366701602935791e-01 -1.395978450775146484e+00 2.308818101882934570e+00 3.434491157531738281e-01 -1.457745432853698730e-01 2.364433526992797852e+00 1.295528650283813477e+00 -2.014393329620361328e+00 8.367422819137573242e-01 -1.805592894554138184e+00 1.489021658897399902e+00 1.418592572212219238e+00 1.979814887046813965e+00 -7.221705317497253418e-01 7.705526947975158691e-01
