-2.271275520324707031e+00 -5.378668904304504395e-01 -7.670590877532958984e-01 1.606874823570251465e+00 -2.120351076126098633e+00 1.616684436798095703e+00 1.456903338432312012e+00 -1.167656540870666504e+00 1.501120328903198242e+00 2.208725214004516602e+00 2.347706794738769531e+00 6.657692790031433105e-02 1.652513384819030762e+00 -4.490284621715545654e-01 -1.656512975692749023e+00 5.436398983001708984e-01 -1.233940005302429199e+00 1.265520691871643066e+00 3.224569559097290039e-01 6.622418165206909180e-01 2.032787084579467773e+00 2.134896278381347656e+00 -1.770424723625183105e+00 3.148255497217178345e-02 -2.041190862655639648e+00 -1.571705102920532227e+00 -1.538355827331542969e+00 -6.882925033569335938e-01 1.557591557502746582e+00 -6.810759305953979492e-01 -2.249948263168334961e+00 -9.079109132289886475e-02 -2.327435910701751709e-01 -1.889525413513183594e+00 -2.094901084899902344e+00 -3.066112399101257324e-01 -2.212182760238647461e+00 -2.382412195205688477e+00 -1.963761806488037109e+00 -1.566089391708374023e+00 7.725169062614440918e-01 2.639250516891479492e+00 1.878512859344482422e+00 -4.895446002483367920e-01 4.940992891788482666e-01 -1.129063487052917480e+00 -1.790461421012878418e+00 -6.349233984947204590e-01 2.856214523315429688e+00 -5.149856805801391602e-01 2.594824731349945068e-01 1.848919510841369629e+00 -8.506460785865783691e-01 1.396345734596252441e+00 -1.526203274726867676e+00 -1.172621130943298340e+00 4.111149162054061890e-02 -1.768768548965454102e+00 -8.449969291687011719e-01 -1.188408255577087402e+00 1.167198181152343750e+00 1.104389786720275879e+00 -1.842640638351440430e+00 2.027351617813110352e+00 -2.251092910766601562e+00 -2.104731559753417969e+00 -9.254057407379150391e-01 -7.550223469734191895e-01 -5.764193534851074219e-01 -1.167278364300727844e-01 1.402506351470947266e+00 -6.971613168716430664e-01 2.528729200363159180e+00 7.776548862457275391e-01 -5.195134878158569336e-01 1.393334120512008667e-01 -1.232194304466247559e+00 3.773448467254638672e-01 -3.249092027544975281e-02 -1.705120325088500977e+00 4.954970255494117737e-02 8.853981494903564453e-01 4.728966057300567627e-01 1.067908406257629395e+00 1.810743212699890137e+00 2.148808002471923828e+00 -2.371221035718917847e-01 1.105263352394104004e+00 -2.418865263462066650e-01 2.199409902095794678e-01 1.606527328491210938e+00 -1.245228052139282227e+00 5.127242803573608398e-01 1.000671744346618652e+00 1.126213073730468750e+00 2.576891183853149414e+00 5.369156971573829651e-02 1.539313077926635742e+00 1.796176791191101074e+00 -1.743432879447937012e-01
7.325904369354248047e-01 -1.421713471412658691e+00 -1.617257595062255859e+00 -1.015562772750854492e+00 -1.253254890441894531e+00 -1.692447215318679810e-01 -1.814333915710449219e+00 -6.045519709587097168e-01 -1.527775526046752930e+00 -1.955009460449218750e+00 -2.426163107156753540e-01 5.635353326797485352e-01 2.413298130035400391e+00 1.437905073165893555e+00 -2.216184139251708984e+00 1.618077278137207031e+00 -1.624772667884826660e+00 1.614940166473388672e+00 -2.276819229125976562e+00 8.396355062723159790e-02 -1.659278392791748047e+00 3.187470734119415283e-01 1.184235453605651855e+00 -1.629052996635437012e+00 -9.646784663200378418e-01 1.205858662724494934e-01 -1.398432970046997070e+00 9.503442645072937012e-01 6.688384711742401123e-02 -3.272732496261596680e-01 2.463602304458618164e+00 -1.122614145278930664e+00 8.584704250097274780e-02 -8.093186020851135254e-01 6.235150694847106934e-01 2.079523086547851562e+00 -2.305344343185424805e+00 2.210031509399414062e+00 -1.455884695053100586e+00 -1.075519248843193054e-01 1.265680342912673950e-01 -5.018865466117858887e-01 -1.176990509033203125e+00 1.802350878715515137e+00 1.134828209877014160e+00 -1.277220964431762695e+00 7.397289276123046875e-01 -1.465425014495849609e+00 -5.821475386619567871e-01 1.882399559020996094e+00 4.891336560249328613e-01 1.266857504844665527e+00 -8.040351867675781250e-01 2.236534595489501953e+00 8.681625723838806152e-01 1.383444219827651978e-01 1.864502549171447754e+00 -6.810854077339172363e-01 -1.057166457176208496e+00 1.283838450908660889e-01 -1.879376053810119629e+00 -1.129623293876647949e+00 1.201627016067504883e+00 4.397857189178466797e-01 -1.195734620094299316e+00 -1.466826438903808594e+00 7.388121485710144043e-01 6.090090274810791016e-01 -1.354970693588256836e+00 2.789278268814086914e+00 -1.358230352401733398e+00 7.101701498031616211e-01 -1.085127368569374084e-01 5.722625255584716797e-01 -3.179412484169006348e-01 2.806959390640258789e+00 1.677914857864379883e+00 -1.127445697784423828e+00 -8.209976553916931152e-01 -2.173628807067871094e-01 1.026244282722473145e+00 1.050894975662231445e+00 1.139162778854370117e+00 -7.554578781127929688e-01 -1.127621889114379883e+00 1.730987071990966797e+00 -9.064753651618957520e-01 2.250002384185791016e+00 -5.861377716064453125e-01 4.762465357780456543e-01 2.104152679443359375e+00 2.140355110168457031e-01 9.893134236335754395e-01 -2.289311408996582031e+00 -6.270725131034851074e-01 -9.448224902153015137e-01 2.266840696334838867e+00 2.102381944656372070e+00 -2.067600488662719727e+00 -1.019477844238281250e+00
2.447628498077392578e+00 -1.206117033958435059e+00 -1.117860555648803711e+00 2.054946720600128174e-01 1.257473826408386230e-01 -5.599097609519958496e-01 1.555061340332031250e+00 9.977973699569702148e-01 -1.215523719787597656e+00 1.453348398208618164e+00 2.019680261611938477e+00 1.689804911613464355e+00 2.956444323062896729e-01 3.096679747104644775e-01 2.292381763458251953e+00 -2.402687072753906250e-01 -1.073387026786804199e+00 -1.640641689300537109e+00 5.563492178916931152e-01 2.618904709815979004e-01 -7.738207578659057617e-01 -1.439252495765686035e+00 -5.583712458610534668e-01 -5.760591030120849609e-01 1.240520715713500977e+00 2.401148319244384766e+00 -1.889312744140625000e+00 1.307451367378234863e+00 8.525788038969039917e-02 1.054210424423217773e+00 -1.667564630508422852e+00 1.222647190093994141e+00 -4.396428465843200684e-01 1.145094156265258789e+00 -2.216116428375244141e+00 -1.217852830886840820e+00 -9.611629843711853027e-01 -1.246207118034362793e+00 2.024024963378906250e+00 -1.034447669982910156e+00 -1.138213396072387695e+00 -1.289109349250793457e+00 -1.825167417526245117e+00 -2.112962007522583008e+00 -1.834347963333129883e+00 -1.542206287384033203e+00 -1.211775183677673340e+00 1.162694811820983887e+00 8.316537737846374512e-01 -1.922397911548614502e-01 1.788916468620300293e+00 -1.839215308427810669e-01 1.307877659797668457e+00 1.135466456413269043e+00 -1.603808641433715820e+00 -5.415271520614624023e-01 1.989736676216125488e+00 -1.852234363555908203e+00 6.969660520553588867e-02 -1.184397935867309570e+00 1.054333448410034180e+00 -1.603277087211608887e+00 -5.663573741912841797e-01 -1.023655414581298828e+00 2.377063184976577759e-01 -5.972206592559814453e-01 1.839799135923385620e-01 3.078457713127136230e-01 -1.720910549163818359e+00 -1.139599606394767761e-01 6.223081350326538086e-01 -1.313699483871459961e-01 9.566027522087097168e-01 9.673288464546203613e-01 6.905984282493591309e-01 7.723991870880126953e-01 2.643781900405883789e+00 9.307702779769897461e-01 1.279561281204223633e+00 1.188093237578868866e-02 1.817016482353210449e+00 1.614061594009399414e+00 -1.782349944114685059e+00 -8.399902582168579102e-01 9.478955715894699097e-02 -7.962552458047866821e-02 -1.357959389686584473e+00 3.020518124103546143e-01 -4.326811060309410095e-02 9.336686730384826660e-01 6.313330531120300293e-01 -1.031853556632995605e+00 -7.963561415672302246e-01 -9.406583905220031738e-01 1.858550310134887695e+00 -1.369436264038085938e+00 -2.435822337865829468e-01 1.945645093917846680e+00 -5.153867006301879883e-01 -4.440132975578308105e-01
-1.579729557037353516e+00 4.330873191356658936e-01 -1.863282203674316406e+00 9.504319429397583008e-01 -5.266791582107543945e-01 -2.086009740829467773e+00 -7.446838021278381348e-01 -1.985586285591125488e+00 2.158552885055541992e+00 7.945063710212707520e-02 6.396062374114990234e-01 4.507053494453430176e-01 4.719600975513458252e-01 -9.159464389085769653e-02 -1.929184675216674805e+00 -1.093522310256958008e+00 1.802940368652343750e+00 -2.235213994979858398e+00 -2.296091794967651367e+00 -1.662006139755249023e+00 -2.002174377441406250e+00 -2.189916610717773438e+00 -1.056317090988159180e+00 1.626513957977294922e+00 -1.064061284065246582e+00 1.297255232930183411e-02 -9.490113705396652222e-03 -2.573869526386260986e-01 -8.165937066078186035e-01 -8.441512584686279297e-01 -1.763178706169128418e+00 -1.257871031761169434e+00 -9.641304612159729004e-03 -1.562824010848999023e+00 2.267411231994628906e+00 -2.214749604463577271e-01 -7.568913102149963379e-01 5.237568020820617676e-01 2.420320987701416016e+00 -1.264028251171112061e-01 1.855188235640525818e-02 -3.358318284153938293e-02 6.547487378120422363e-01 1.537642240524291992e+00 -7.604612112045288086e-01 -1.862415432929992676e+00 -3.445125818252563477e-01 1.690301895141601562e+00 8.430512547492980957e-01 -6.918264031410217285e-01 2.134374618530273438e+00 -3.341153860092163086e-01 1.192531585693359375e+00 1.961553931236267090e+00 7.986093163490295410e-01 -4.036184549331665039e-01 1.744302034378051758e+00 2.662185430526733398e+00 1.337944507598876953e+00 7.158647775650024414e-01 -2.315997838973999023e+00 1.254212498664855957e+00 -9.662365913391113281e-01 8.293840289115905762e-01 -4.404540956020355225e-01 9.883949160575866699e-01 -1.248195767402648926e+00 1.997992277145385742e+00 -1.717463612556457520e+00 -1.192631125450134277e+00 -1.871494531631469727e+00 1.347645044326782227e+00 -6.098208576440811157e-02 8.562119007110595703e-01 1.028855443000793457e+00 -5.475912094116210938e-01 3.556474149227142334e-01 -9.672650694847106934e-01 3.437449336051940918e-01 -1.396694540977478027e+00 2.253500699996948242e+00 1.843727707862854004e+00 -1.434093236923217773e+00 5.463776588439941406e-01 6.461385488510131836e-01 7.926642149686813354e-02 -4.447410106658935547e-01 1.263758897781372070e+00 -2.409390509128570557e-01 -1.063319444656372070e+00 1.932768702507019043e+00 1.238668560981750488e+00 1.435762196779251099e-01 2.740711569786071777e-01 -1.189748644828796387e+00 3.732687234878540039e-01 2.122058153152465820e+00 2.198164165019989014e-02 2.027335405349731445e+00 -1.182947993278503418e+00
8.574678301811218262e-01 4.200185835361480713e-02 -1.569174289703369141e+00 -1.449313402175903320e+00 1.644273400306701660e+00 1.089281916618347168e+00 2.449127197265625000e+00 1.008626744151115417e-01 1.350384235382080078e+00 -1.698015928268432617e+00 -5.639308094978332520e-01 -5.283756852149963379e-01 -1.414697885513305664e+00 8.152359724044799805e-01 8.312446475028991699e-01 -5.269825085997581482e-02 1.507031559944152832e+00 8.832530975341796875e-01 -4.654577374458312988e-01 1.915782094001770020e+00 -1.261037945747375488e+00 1.928820729255676270e+00 -9.731165766716003418e-01 -1.248989343643188477e+00 1.951200217008590698e-01 -2.255710124969482422e+00 2.337430477142333984e+00 -1.487877488136291504e+00 -2.011750221252441406e+00 1.813314676284790039e+00 8.953408002853393555e-01 -1.497450709342956543e+00 -2.254524469375610352e+00 -2.526261091232299805e+00 1.917007684707641602e+00 2.387753963470458984e+00 6.114751696586608887e-01 -2.086680173873901367e+00 -4.589329659938812256e-01 -4.583672583103179932e-01 1.394163727760314941e+00 -2.080831050872802734e+00 6.739171743392944336e-01 2.337336689233779907e-01 5.617254227399826050e-02 6.298202276229858398e-01 8.548486977815628052e-02 -1.833980679512023926e+00 -8.120840191841125488e-01 9.023308157920837402e-01 -3.366926014423370361e-01 -1.902313590049743652e+00 2.619222879409790039e+00 -1.982453823089599609e+00 -7.960141897201538086e-01 1.985279440879821777e+00 2.203532218933105469e+00 6.921028494834899902e-01 -7.015502452850341797e-02 1.671280741691589355e+00 -2.571901798248291016e+00 2.343267679214477539e+00 1.369433999061584473e+00 -4.210928082466125488e-01 4.905817210674285889e-01 -7.679004669189453125e-01 1.993628144264221191e+00 1.522251516580581665e-01 -1.299862623214721680e+00 -1.113509416580200195e+00 8.309175372123718262e-01 -1.146159648895263672e+00 -8.825447559356689453e-01 -3.279043138027191162e-01 2.558111429214477539e+00 -1.733758807182312012e+00 -1.435076475143432617e+00 -3.235590755939483643e-01 3.111994564533233643e-01 -1.329344987869262695e+00 -1.235912442207336426e-01 1.284712314605712891e+00 1.561441063880920410e+00 -5.537477787584066391e-03 -8.486347198486328125e-01 -1.004677176475524902e+00 2.353940457105636597e-01 1.732157945632934570e+00 -8.003616333007812500e-01 1.749713420867919922e+00 -1.313108563423156738e+00 -1.166854739189147949e+00 1.541130900382995605e+00 1.976421475410461426e-02 8.602313995361328125e-01 -1.405813217163085938e+00 -1.421134352684020996e+00 -1.539503335952758789e+00 -1.057604432106018066e+00 2.134086370468139648e+00
-2.158780813217163086e+00 -7.987463474273681641e-01 -1.495285630226135254e+00 2.807115554809570312e+00 -1.258856207132339478e-01 1.020746603608131409e-01 -1.902931332588195801e+00 1.600806236267089844e+00 8.683382868766784668e-01 9.524683952331542969e-01 -3.709093332290649414e-01 -1.379233837127685547e+00 2.105613470077514648e+00 9.506936073303222656e-01 1.753493189811706543e+00 7.380543947219848633e-01 -2.654189586639404297e+00 8.846285939216613770e-01 -1.816327095031738281e+00 -2.615321636199951172e+00 1.680464148521423340e-01 2.113243341445922852e+00 2.017334222793579102e+00 1.333717942237854004e+00 1.546396255493164062e+00 2.463835477828979492e-01 -1.178020715713500977e+00 2.103774070739746094e+00 -2.395547628402709961e+00 -1.290363788604736328e+00 2.472869873046875000e+00 -7.999027967453002930e-01 9.203990697860717773e-01 -1.940439939498901367e+00 7.827148586511611938e-02 1.675385117530822754e+00 -1.262188911437988281e+00 6.649842858314514160e-01 -8.669108152389526367e-02 -1.569958209991455078e+00 6.673142910003662109e-01 -5.883275866508483887e-01 1.042396664619445801e+00 2.471693605184555054e-01 -4.231571853160858154e-01 1.954613804817199707e+00 2.724190235137939453e+00 -4.339782297611236572e-01 -1.247381806373596191e+00 2.483014911413192749e-01 -2.071243047714233398e+00 -2.034027814865112305e+00 -1.058518648147583008e+00 -1.181573987007141113e+00 -1.061352252960205078e+00 -5.243828892707824707e-01 -2.237014055252075195e+00 1.997988939285278320e+00 1.677308201789855957e+00 1.125869393348693848e+00 7.746064662933349609e-01 -1.135856270790100098e+00 3.254305720329284668e-01 -1.945008039474487305e+00 -3.998940289020538330e-01 1.179767493158578873e-02 -1.470212578773498535e+00 1.105457901954650879e+00 5.416274666786193848e-01 -1.927927136421203613e+00 1.058576107025146484e+00 -2.880691289901733398e+00 1.651574134826660156e+00 1.305269241333007812e+00 1.656935811042785645e+00 -1.797040104866027832e+00 1.012348890304565430e+00 -2.320867538452148438e+00 3.245688229799270630e-02 6.976528763771057129e-01 1.673717975616455078e+00 1.768594861030578613e+00 -7.973573803901672363e-01 9.358317852020263672e-01 -7.134407758712768555e-01 2.311728477478027344e+00 3.956966996192932129e-01 -1.114468932151794434e+00 -2.107098579406738281e+00 1.808820843696594238e+00 -1.576383233070373535e+00 1.105781197547912598e+00 -1.028538942337036133e+00 -1.679164409637451172e+00 -9.522066712379455566e-01 1.525297641754150391e+00 1.762917041778564453e+00 -1.285323739051818848e+00 -1.610969185829162598e+00 1.930049300193786621e+00
1.727823972702026367e+00 -1.784761846065521240e-01 -2.655312776565551758e+00 -2.188950926065444946e-01 1.023672342300415039e+00 -5.033756494522094727e-01 -2.198780298233032227e+00 -1.498376607894897461e+00 9.885374903678894043e-01 -4.346534609794616699e-01 -1.096841335296630859e+00 9.488083124160766602e-01 6.964778304100036621e-01 -1.102980852127075195e+00 3.425448536872863770e-01 -6.670182347297668457e-01 1.010710954666137695e+00 -6.576404571533203125e-01 -1.799304634332656860e-01 9.394996166229248047e-01 1.767382860183715820e+00 -5.060605406761169434e-01 6.193240284919738770e-01 9.766333699226379395e-01 2.680338621139526367e-01 1.222277998924255371e+00 4.872964322566986084e-01 1.714865803718566895e+00 -6.473692059516906738e-01 1.530594825744628906e+00 -4.797568172216415405e-02 -5.952242612838745117e-01 1.623623132705688477e+00 -2.065759658813476562e+00 -8.182273507118225098e-01 1.041153907775878906e+00 2.381003856658935547e+00 1.963027954101562500e+00 6.213552951812744141e-01 -2.454730749130249023e+00 6.601880788803100586e-01 1.144065618515014648e+00 -1.855317115783691406e+00 -5.864446759223937988e-01 -3.961007595062255859e-01 -5.128276348114013672e-01 1.604673147201538086e+00 -2.341912508010864258e+00 -3.503674864768981934e-01 -3.101944625377655029e-01 -5.215702056884765625e-01 9.644026756286621094e-01 -1.289447307586669922e+00 -1.119754552841186523e+00 -8.841903805732727051e-01 2.284213542938232422e+00 -9.660098552703857422e-01 9.592911601066589355e-01 1.398370742797851562e+00 -1.090173244476318359e+00 -7.696474194526672363e-01 -1.604698538780212402e+00 2.548008203506469727e+00 -2.384845018386840820e+00 -2.311579465866088867e+00 -1.886208295822143555e+00 1.565017580986022949e+00 -4.509956538677215576e-01 1.886649012565612793e+00 3.427504003047943115e-01 -8.090555667877197266e-01 -9.322394132614135742e-01 -1.623106598854064941e+00 -1.032162785530090332e+00 1.646702647209167480e+00 -1.022509694099426270e+00 -9.763122200965881348e-01 8.171955347061157227e-01 -4.025216400623321533e-01 -1.777721792459487915e-01 -1.460455179214477539e+00 6.671223044395446777e-02 -5.282278656959533691e-01 -1.535751670598983765e-01 4.084652960300445557e-01 -4.968883991241455078e-01 -6.919328570365905762e-01 -2.051355838775634766e+00 2.141023874282836914e+00 -1.613923460245132446e-01 1.097490549087524414e+00 -3.114560842514038086e-01 7.879067063331604004e-01 -1.728381991386413574e+00 1.511233210563659668e+00 2.585800588130950928e-01 1.977680683135986328e+00 9.665191769599914551e-01 1.545861721038818359e+00 2.385560750961303711e+00
9.070322513580322266e-01 -7.051046490669250488e-01 4.821980893611907959e-01 -3.165891647338867188e+00 2.574185371398925781e+00 -6.875028610229492188e-01 1.193636178970336914e+00 -9.099341034889221191e-01 -1.159533023834228516e+00 9.541039168834686279e-02 -1.972864717245101929e-01 -9.686872959136962891e-01 -9.050790071487426758e-01 1.438032388687133789e+00 -2.559560060501098633e+00 -2.517010450363159180e+00 1.121340617537498474e-01 -1.201113462448120117e+00 -6.364481151103973389e-02 4.445059970021247864e-02 -2.052473306655883789e+00 -2.635263204574584961e+00 -3.250226378440856934e-01 4.557329714298248291e-01 8.259438872337341309e-01 8.955964446067810059e-01 -2.521801471710205078e+00 1.876628398895263672e+00 -2.538461685180664062e+00 -1.431315422058105469e+00 4.045680463314056396e-01 -1.792841434478759766e+00 -2.099123001098632812e+00 1.396163821220397949e+00 5.804385542869567871e-01 3.541951179504394531e-01 -1.481308698654174805e+00 5.007881522178649902e-01 8.896366953849792480e-01 1.701027750968933105e+00 1.375701546669006348e+00 -1.122319936752319336e+00 3.858085870742797852e-01 1.173348128795623779e-01 -1.957773804664611816e+00 1.853616833686828613e+00 -1.252974271774291992e+00 2.153525590896606445e+00 1.186412572860717773e+00 1.488354563713073730e+00 5.635274052619934082e-01 6.169072389602661133e-01 1.771725893020629883e+00 -3.258659318089485168e-02 7.064391374588012695e-01 1.523369550704956055e-01 -6.531100869178771973e-01 1.014140605926513672e+00 1.258966922760009766e+00 1.048194646835327148e+00 -1.748711109161376953e+00 -8.757730126380920410e-01 1.392312645912170410e+00 1.266720533370971680e+00 1.369318246841430664e+00 -4.264831840991973877e-01 -1.366905689239501953e+00 -4.946210682392120361e-01 -4.568881988525390625e-01 -9.379242658615112305e-01 -1.335379928350448608e-01 7.603283971548080444e-02 -1.592573761940002441e+00 1.926907062530517578e+00 1.604191511869430542e-01 1.013637706637382507e-02 1.029276609420776367e+00 2.188320636749267578e+00 -1.563621520996093750e+00 9.337505698204040527e-01 9.367873668670654297e-01 -5.895531922578811646e-02 4.140030741691589355e-01 -1.790487021207809448e-01 -1.174852013587951660e+00 1.398471593856811523e+00 1.477570652961730957e+00 6.501976847648620605e-01 5.498235821723937988e-01 -8.158041834831237793e-01 8.173945546150207520e-01 1.066294908523559570e+00 -8.112521171569824219e-01 1.843418180942535400e-01 -1.944237709045410156e+00 -2.293039411306381226e-01 6.083975434303283691e-01 2.143986463546752930e+00 2.669220566749572754e-01 -1.799551010131835938e+00
1.105019569396972656e+00 2.094310760498046875e+00 -1.305347323417663574e+00 1.149686574935913086e+00 1.560615181922912598e+00 4.569281637668609619e-01 9.071218371391296387e-01 -1.486783266067504883e+00 -9.769460558891296387e-01 -1.213267683982849121e+00 -6.973516345024108887e-01 -5.956044793128967285e-01 -5.041396617889404297e-01 -1.700539112091064453e+00 -9.327792525291442871e-01 6.751486063003540039e-01 9.387198090553283691e-01 1.887047290802001953e+00 -5.311102867126464844e-01 1.007737755775451660e+00 1.274729847908020020e+00 -1.050956249237060547e-01 -1.546706795692443848e+00 -1.583840250968933105e+00 1.816228389739990234e+00 2.486564636230468750e+00 1.538450717926025391e+00 -7.171477079391479492e-01 -3.227169215679168701e-01 1.405721664428710938e+00 1.450578570365905762e-01 -2.013555765151977539e+00 -7.731614112854003906e-01 1.666492462158203125e+00 -1.727463364601135254e+00 5.383909940719604492e-01 6.277894973754882812e-01 -9.036142230033874512e-01 9.630894660949707031e-01 -2.222738027572631836e+00 -1.404166340827941895e+00 -2.166767597198486328e+00 4.038929343223571777e-01 -1.856974005699157715e+00 1.181316375732421875e+00 -1.867145538330078125e+00 2.222664356231689453e+00 -1.717628002166748047e+00 -1.161163210868835449e+00 -1.570675015449523926e+00 5.422398447990417480e-01 1.019946038722991943e-01 4.220804274082183838e-01 2.260043621063232422e+00 -1.228749275207519531e+00 2.293082028627395630e-01 -1.329270958900451660e+00 -5.070405602455139160e-01 -3.939129710197448730e-01 -5.223234370350837708e-02 -3.439920544624328613e-01 -3.801926970481872559e-01 5.447850823402404785e-01 -1.568099260330200195e+00 1.587836146354675293e-01 1.447379946708679199e+00 -1.587236762046813965e+00 -1.888042211532592773e+00 -1.590395927429199219e+00 -8.522164821624755859e-01 -2.312415838241577148e+00 -1.823766112327575684e+00 1.730960249900817871e+00 1.486189365386962891e+00 5.409053564071655273e-01 1.345378160476684570e+00 -4.570098519325256348e-01 2.366326332092285156e+00 -2.201465219259262085e-01 1.585611343383789062e+00 1.864650487899780273e+00 7.843981385231018066e-01 1.030964374542236328e+00 2.697157382965087891e+00 8.101060986518859863e-01 -1.460165143013000488e+00 1.083893254399299622e-01 2.142377942800521851e-02 8.020190000534057617e-01 1.867084383964538574e+00 -1.051085352897644043e+00 2.598439753055572510e-01 -7.498199585825204849e-03 -1.518428444862365723e+00 -1.987787604331970215e+00 1.646868467330932617e+00 -1.428820341825485229e-01 -1.509723961353302002e-01 1.252297997474670410e+00 1.686279922723770142e-01
2.971651852130889893e-01 -4.601752460002899170e-01 2.201565980911254883e+00 2.824974954128265381e-01 -4.991272389888763428e-01 2.198491811752319336e+00 -6.963921785354614258e-01 1.825632095336914062e+00 -1.765154957771301270e+00 2.596183776855468750e+00 5.391999483108520508e-01 9.519010782241821289e-01 -7.899836301803588867e-01 -2.671567797660827637e-01 -7.885144352912902832e-01 8.565360307693481445e-01 1.816611886024475098e+00 -1.918435573577880859e+00 -2.056090354919433594e+00 2.777430295944213867e+00 5.329111218452453613e-01 1.076412677764892578e+00 -1.493352204561233521e-01 1.288803100585937500e+00 -8.358094692230224609e-01 -1.307220816612243652e+00 -1.056951642036437988e+00 1.881665229797363281e+00 2.293616771697998047e+00 2.325042724609375000e+00 2.343239784240722656e+00 -1.538418412208557129e+00 -7.132733464241027832e-01 -1.208710193634033203e+00 1.063956856727600098e+00 1.368283033370971680e+00 -7.696198225021362305e-01 -1.897506594657897949e+00 -1.244381427764892578e+00 -1.077302336692810059e+00 -1.852341294288635254e-01 1.087171673774719238e+00 -1.731597334146499634e-01 1.250135660171508789e+00 -2.071278333663940430e+00 -2.868415713310241699e-01 6.471741795539855957e-01 -7.952186465263366699e-01 -1.487707734107971191e+00 2.568620443344116211e+00 1.303710818290710449e+00 -7.479464411735534668e-01 -1.853911519050598145e+00 -1.752227544784545898e+00 -1.630550622940063477e+00 -1.573785901069641113e+00 -1.771810531616210938e+00 -1.521511435508728027e+00 -2.082566976547241211e+00 2.209678292274475098e-01 -1.562398433685302734e+00 -1.201813966035842896e-01 -6.769592761993408203e-01 1.352125287055969238e+00 -2.722613513469696045e-01 -4.249050915241241455e-01 2.543100833892822266e+00 1.824231386184692383e+00 -4.950506091117858887e-01 -1.704976111650466919e-01 -1.281772017478942871e+00 2.267260551452636719e-01 -1.235078722238540649e-01 3.046674728393554688e-01 -1.074334327131509781e-02 -7.615832686424255371e-01 -1.388755321502685547e+00 1.169959425926208496e+00 -2.109562635421752930e+00 1.878442287445068359e+00 -1.090594887733459473e+00 1.054493933916091919e-01 -1.653844118118286133e+00 2.114515155553817749e-01 2.372064590454101562e+00 2.119605064392089844e+00 2.923041582107543945e-01 -2.100049495697021484e+00 1.005589008331298828e+00 9.097772091627120972e-02 -7.267277836799621582e-01 5.065549015998840332e-01 1.138528585433959961e+00 5.459366440773010254e-01 2.394655227661132812e+00 1.305615186691284180e+00 -1.418968200683593750e+00 -5.136671662330627441e-01 -2.294683218002319336e+00 -2.067112445831298828e+00
8.110826015472412109e-01 2.234754323959350586e+00 -6.261225938796997070e-01 1.734709620475769043e+00 2.473993748426437378e-01 5.872389674186706543e-01 -1.863011360168457031e+00 1.868891596794128418e+00 1.244912624359130859e+00 -2.179144918918609619e-01 -1.845239758491516113e+00 -1.937610149383544922e+00 -1.359869956970214844e+00 -2.745899677276611328e+00 -1.834748387336730957e-01 7.463074326515197754e-01 2.008937835693359375e+00 -2.447599649429321289e+00 -1.829368025064468384e-01 -1.596058607101440430e+00 2.274786233901977539e+00 1.076281428337097168e+00 1.852990984916687012e+00 5.701420307159423828e-01 1.710348010063171387e+00 1.309435844421386719e+00 -4.447035193443298340e-01 -3.987967669963836670e-01 7.223523259162902832e-01 1.367867708206176758e+00 -1.130848288536071777e+00 1.253562808036804199e+00 -1.084823369979858398e+00 8.982759714126586914e-01 -1.614444136619567871e+00 -4.952573776245117188e-01 6.104390025138854980e-01 -8.795651197433471680e-01 1.304841518402099609e+00 1.083481550216674805e+00 2.228182107210159302e-01 -8.014071583747863770e-01 5.802658200263977051e-01 1.670310258865356445e+00 1.535610407590866089e-01 -2.027325153350830078e+00 -1.449135065078735352e+00 -5.439520254731178284e-02 1.537879586219787598e+00 -1.453766524791717529e-01 -1.991943120956420898e+00 -1.782176017761230469e+00 -2.547338008880615234e+00 1.348437190055847168e+00 1.627205610275268555e+00 1.519191116094589233e-01 -9.420949816703796387e-01 -2.097074031829833984e+00 -1.740486264228820801e+00 2.388573884963989258e+00 -1.588088989257812500e+00 -6.191524267196655273e-01 -1.388476848602294922e+00 1.463885903358459473e+00 5.556706786155700684e-01 -1.636601686477661133e+00 1.341310143470764160e+00 8.336269259452819824e-01 1.748106241226196289e+00 -1.137570500373840332e+00 7.373510003089904785e-01 -5.667226314544677734e-01 6.266243457794189453e-01 -1.124408721923828125e+00 -2.518788576126098633e-01 7.547859549522399902e-01 1.017632722854614258e+00 1.650952935218811035e+00 -2.044979810714721680e+00 -1.340157270431518555e+00 4.797759056091308594e-01 -2.250306129455566406e+00 -8.345493078231811523e-01 6.980732679367065430e-01 1.020056486129760742e+00 1.159020662307739258e+00 -1.534707903861999512e+00 -1.429353833198547363e+00 -1.489657163619995117e+00 9.519945383071899414e-01 -2.382727384567260742e+00 2.396972179412841797e+00 -2.641027271747589111e-01 7.637229561805725098e-01 -2.038522243499755859e+00 1.371908068656921387e+00 -5.967106819152832031e-01 1.598896980285644531e-01 2.125202178955078125e+00 1.558013558387756348e+00
-8.289005756378173828e-01 1.912294149398803711e+00 -5.474016666412353516e-01 1.065517663955688477e+00 -8.812752962112426758e-01 -5.173501968383789062e-01 1.134242057800292969e+00 1.999885290861129761e-01 -2.258286774158477783e-01 9.357280731201171875e-01 -8.119506239891052246e-01 1.306387782096862793e+00 9.103166311979293823e-02 -2.805171906948089600e-01 1.924663931131362915e-01 -1.216333150863647461e+00 -2.819257676601409912e-01 -7.526133656501770020e-01 -1.142687648534774780e-01 -1.932540655136108398e+00 -6.745881438255310059e-01 -1.244583606719970703e+00 1.135469913482666016e+00 -1.394715309143066406e+00 -3.615523874759674072e-01 -4.384075999259948730e-01 -1.289888143539428711e+00 1.197883486747741699e+00 2.359277009963989258e+00 -1.980150938034057617e+00 1.788987278938293457e+00 -1.552039742469787598e+00 1.568569540977478027e+00 -1.739137887954711914e+00 -6.316632032394409180e-01 -1.386292576789855957e+00 2.191732645034790039e+00 -2.501629590988159180e-01 2.197318077087402344e+00 7.871881127357482910e-01 1.874907732009887695e+00 -6.611682772636413574e-01 7.966224551200866699e-01 -2.073026448488235474e-01 9.126058816909790039e-01 2.042379379272460938e+00 -1.874642670154571533e-01 3.415637612342834473e-01 -7.172977924346923828e-01 -1.407541632652282715e-01 1.089664578437805176e+00 -1.413285136222839355e+00 1.044645309448242188e+00 -1.109441757202148438e+00 -1.820710182189941406e+00 2.092798233032226562e+00 8.047857880592346191e-01 1.745789885520935059e+00 -1.088415265083312988e+00 -9.830079674720764160e-01 -2.651394307613372803e-01 6.441316008567810059e-01 -3.771780431270599365e-01 1.558425068855285645e+00 -7.066890597343444824e-01 2.550350427627563477e+00 1.958548188209533691e+00 1.997935652732849121e+00 -3.058586120605468750e-01 8.935370445251464844e-01 -3.347898423671722412e-01 -6.364823579788208008e-01 -1.140229821205139160e+00 -2.075711250305175781e+00 1.128143072128295898e+00 1.735601723194122314e-01 -8.301505446434020996e-01 -2.669535577297210693e-01 8.099321126937866211e-01 2.988748550415039062e+00 -1.276024818420410156e+00 -4.273901134729385376e-02 -2.302655220031738281e+00 -5.039738416671752930e-01 -1.740025401115417480e+00 -1.317952156066894531e+00 3.984086215496063232e-01 -1.189893007278442383e+00 -8.205777034163475037e-03 -1.596650600433349609e+00 -1.120724081993103027e+00 -1.828141212463378906e+00 3.898513317108154297e-01 -1.650188267230987549e-01 -8.193712830543518066e-01 1.114384293556213379e+00 5.540026426315307617e-01 2.840037584304809570e+00 -2.409024000167846680e+00 8.996253609657287598e-01
-2.512360095977783203e+00 -1.645732522010803223e+00 -1.902324080467224121e+00 1.013995885848999023e+00 -7.561612725257873535e-01 -6.998810768127441406e-01 1.497164130210876465e+00 1.831551790237426758e+00 -1.984499573707580566e+00 -2.052741765975952148e+00 2.199068069458007812e-01 -1.712019324302673340e+00 -6.750255823135375977e-01 -8.023777604103088379e-01 -1.671041011810302734e+00 1.485157489776611328e+00 -2.357543468475341797e+00 1.438323855400085449e+00 1.633730292320251465e+00 -3.741296827793121338e-01 3.154182434082031250e-01 -3.381969928741455078e-01 2.741537988185882568e-01 1.037637472152709961e+00 1.899588465690612793e+00 -4.077453911304473877e-02 -1.173250079154968262e+00 1.194611310958862305e+00 -2.171070098876953125e+00 4.753556847572326660e-01 -5.999625921249389648e-01 -1.226051211357116699e+00 5.523160696029663086e-01 -1.286693453788757324e+00 -1.005289435386657715e+00 -9.942664504051208496e-01 7.960422039031982422e-01 8.987416625022888184e-01 -2.616300582885742188e-01 -1.100425958633422852e+00 1.252535462379455566e+00 6.520012617111206055e-01 2.330333709716796875e+00 -1.725747063755989075e-02 -3.656622767448425293e-02 -8.803092837333679199e-01 1.934271931648254395e+00 1.415035247802734375e+00 -1.723173856735229492e+00 1.438727617263793945e+00 -3.105098307132720947e-01 -4.338443279266357422e-02 2.187974691390991211e+00 -3.543848171830177307e-02 2.609498739242553711e+00 1.396435856819152832e+00 -7.005959153175354004e-01 8.031466603279113770e-01 1.638519883155822754e+00 4.849306866526603699e-02 1.487153530120849609e+00 2.076996326446533203e+00 -1.282123565673828125e+00 -1.106535315513610840e+00 1.316933035850524902e+00 -1.596151947975158691e+00 -1.377390384674072266e+00 5.586975812911987305e-01 -2.245891809463500977e+00 -6.542339324951171875e-01 -1.900647521018981934e+00 1.454149842262268066e+00 5.832055211067199707e-01 6.111011505126953125e-01 -1.547994256019592285e+00 2.805622220039367676e-01 -1.923226952552795410e+00 1.984748393297195435e-01 1.372615933418273926e+00 -2.231354117393493652e-01 1.972216606140136719e+00 -1.849996447563171387e-01 3.840953111648559570e-01 2.140314579010009766e+00 1.935608685016632080e-01 8.798612952232360840e-01 -7.298678755760192871e-01 -1.128756284713745117e+00 2.434225827455520630e-01 -1.985236048698425293e+00 -1.292167186737060547e+00 -1.301956892013549805e+00 2.647831916809082031e+00 1.107575416564941406e+00 -9.437730908393859863e-01 -1.727410197257995605e+00 -5.453950762748718262e-01 1.226367712020874023e+00 1.222779631614685059e+00 4.752510786056518555e-01
1.720584869384765625e+00 1.646656513214111328e+00 -1.022294759750366211e+00 -3.858803510665893555e-01 1.507032394409179688e+00 1.831966757774353027e+00 -1.946055293083190918e-01 1.150980517268180847e-01 -3.507317602634429932e-01 -2.960855662822723389e-01 1.717693686485290527e+00 9.249818921089172363e-01 -3.704058229923248291e-01 1.582949608564376831e-01 2.245296955108642578e+00 8.798715472221374512e-01 6.928743720054626465e-01 -2.341261625289916992e+00 -2.100468873977661133e+00 1.234004974365234375e+00 1.586435079574584961e+00 7.979504019021987915e-02 -2.986778318881988525e-01 5.677511915564537048e-02 2.030764102935791016e+00 -1.545607447624206543e+00 2.297516822814941406e+00 -1.357114315032958984e+00 -8.222157955169677734e-01 1.987786173820495605e+00 9.642078727483749390e-02 8.289198875427246094e-01 2.069113850593566895e-01 1.508732438087463379e+00 -1.336795091629028320e-01 -2.156869173049926758e+00 -5.377008914947509766e-01 5.516372323036193848e-01 1.524104118347167969e+00 -4.397107064723968506e-01 -1.178176760673522949e+00 -1.942640781402587891e+00 -2.353255033493041992e+00 6.320679783821105957e-01 -1.443776369094848633e+00 -2.060277223587036133e+00 -7.871033549308776855e-01 -3.125775977969169617e-02 -1.104308128356933594e+00 7.989757061004638672e-01 7.019954919815063477e-01 9.554159045219421387e-01 -1.898861378431320190e-01 -1.928389668464660645e+00 -3.912631869316101074e-01 -2.099120020866394043e-01 1.746669769287109375e+00 1.877179265022277832e+00 -9.929494559764862061e-02 -9.289405345916748047e-01 -8.998245000839233398e-01 1.168472170829772949e+00 7.387820482254028320e-01 1.482093095779418945e+00 1.698301076889038086e+00 1.454822905361652374e-02 2.130665034055709839e-01 7.130914330482482910e-01 -1.083122968673706055e+00 -6.470698118209838867e-01 2.622593045234680176e-01 2.556897163391113281e+00 -1.779250621795654297e+00 -1.619692087173461914e+00 7.492317818105220795e-03 -1.550205469131469727e+00 5.842777490615844727e-01 1.994420289993286133e+00 1.711226463317871094e+00 -2.108239173889160156e+00 1.611322045326232910e+00 8.022966384887695312e-01 1.070849537849426270e+00 -1.301361322402954102e+00 8.027478456497192383e-01 -2.020092248916625977e+00 -2.503097772598266602e+00 -1.751993060111999512e+00 -8.504068106412887573e-02 3.248483240604400635e-01 -4.097944125533103943e-03 -2.411152422428131104e-01 -1.402343034744262695e+00 1.213730573654174805e+00 1.009911179542541504e+00 -9.939347505569458008e-01 -1.093416690826416016e+00 -2.110096454620361328e+00 -5.553491711616516113e-01 -3.729352653026580811e-01
-3.086498677730560303e-01 -1.506794691085815430e+00 7.067139744758605957e-01 -2.478378295898437500e+00 1.120823860168457031e+00 1.305109739303588867e+00 1.937716126441955566e+00 1.844418168067932129e+00 1.172202467918395996e+00 1.448874592781066895e+00 -1.568001031875610352e+00 1.988284111022949219e+00 5.559813380241394043e-01 -3.641267120838165283e-01 -1.819565415382385254e+00 -2.193611860275268555e+00 5.188160538673400879e-01 1.416209101676940918e+00 1.739659786224365234e+00 -4.609512388706207275e-01 5.977269411087036133e-01 -5.278467535972595215e-01 1.720359206199645996e+00 -1.352030396461486816e+00 3.532915189862251282e-02 1.550551950931549072e-01 5.110300779342651367e-01 1.882804870605468750e+00 -1.314432859420776367e+00 -1.742284655570983887e+00 -9.983270168304443359e-01 -5.223366022109985352e-01 1.239848613739013672e+00 8.068817257881164551e-01 7.889326810836791992e-01 1.117096900939941406e+00 2.006587266921997070e+00 6.150492429733276367e-01 7.463327050209045410e-01 1.275686383247375488e+00 -1.775090336799621582e+00 1.059253573417663574e+00 -2.028413772583007812e+00 -1.188387036323547363e+00 -2.720514774322509766e+00 2.491538047790527344e+00 -1.592502474784851074e+00 8.225768208503723145e-01 3.548827022314071655e-02 1.435791611671447754e+00 3.780862987041473389e-01 1.994361281394958496e+00 8.499187231063842773e-01 -1.096411824226379395e+00 -1.457935571670532227e+00 9.252336621284484863e-01 -3.475617766380310059e-01 -2.327186465263366699e-01 -1.528662443161010742e+00 1.262554764747619629e+00 1.366120576858520508e+00 5.764967799186706543e-01 1.673009872436523438e+00 -1.030596137046813965e+00 -2.286503791809082031e+00 1.928408861160278320e+00 -8.376568555831909180e-01 8.201963305473327637e-01 -8.136107325553894043e-01 -1.544371247291564941e+00 -1.933011054992675781e+00 9.760748594999313354e-02 -2.488131046295166016e+00 -1.343278527259826660e+00 -8.576269745826721191e-01 -2.299550771713256836e+00 5.560187697410583496e-01 -1.987706422805786133e+00 -2.159053325653076172e+00 1.283944129943847656e+00 8.806399703025817871e-01 -3.008337914943695068e-01 -1.167035698890686035e+00 -2.601117610931396484e+00 1.434340238571166992e+00 9.062846302986145020e-01 2.137808322906494141e+00 -7.731191515922546387e-01 -1.031439065933227539e+00 -2.390856742858886719e+00 -1.743865847587585449e+00 -1.720682740211486816e+00 2.690390348434448242e-01 8.919810056686401367e-01 1.135188221931457520e+00 1.203395724296569824e+00 8.282914757728576660e-01 1.796066761016845703e+00 4.835816621780395508e-01 2.111732959747314453e+00
1.336247682571411133e+00 2.042351484298706055e+00 1.013102531433105469e+00 8.112071752548217773e-01 1.370612621307373047e+00 3.911643028259277344e-01 8.170433044433593750e-01 4.270943999290466309e-01 -4.312471672892570496e-02 -1.161894321441650391e+00 -2.514304220676422119e-01 -1.720753312110900879e-01 1.495894670486450195e+00 1.048693180084228516e+00 1.965973973274230957e+00 9.344258904457092285e-01 -1.696746468544006348e+00 4.168579578399658203e-01 -2.164703130722045898e+00 1.055600404739379883e+00 3.660862445831298828e-01 -1.374201297760009766e+00 2.153544902801513672e+00 2.121290206909179688e+00 -5.129128694534301758e-01 -1.339206814765930176e+00 1.513172149658203125e+00 1.220307469367980957e+00 1.074628472328186035e+00 5.502408742904663086e-01 -1.187037706375122070e+00 1.349720120429992676e+00 -2.610513925552368164e+00 -1.332613348960876465e+00 -1.115419030189514160e+00 -2.532947778701782227e+00 -1.077719688415527344e+00 -9.023057222366333008e-01 -7.590724825859069824e-01 1.077287912368774414e+00 -9.980796575546264648e-01 -1.315450549125671387e+00 -2.003141403198242188e+00 -6.137490272521972656e-01 -1.772608280181884766e+00 5.412354469299316406e-01 -1.340977430343627930e+00 -7.037229537963867188e-01 6.840684413909912109e-01 1.324263691902160645e+00 5.955291986465454102e-01 -1.592099428176879883e+00 2.759135328233242035e-02 7.437615990638732910e-01 -1.848479032516479492e+00 -7.719824314117431641e-01 -1.793670654296875000e+00 1.493264734745025635e-01 2.314120769500732422e+00 9.283207058906555176e-01 -4.832772165536880493e-02 -1.697033286094665527e+00 -1.279167890548706055e+00 -1.823125600814819336e+00 1.345649003982543945e+00 1.026914119720458984e+00 -1.202219486236572266e+00 2.262391805648803711e+00 -1.179461479187011719e+00 -1.757804512977600098e+00 -6.185890436172485352e-01 -2.453728437423706055e+00 -3.469439446926116943e-01 -4.561898410320281982e-01 1.687943458557128906e+00 -8.733122348785400391e-01 9.560440182685852051e-01 -1.364037752151489258e+00 3.321123123168945312e-01 -8.160915970802307129e-02 4.032679498195648193e-01 2.710517168045043945e+00 -1.477728962898254395e+00 5.883220955729484558e-02 -1.983940243721008301e+00 -1.128802299499511719e+00 3.472318947315216064e-01 9.903901815414428711e-01 -1.390250682830810547e+00 3.498422801494598389e-01 3.051947057247161865e-01 1.258697032928466797e+00 -3.836100399494171143e-01 1.104456067085266113e+00 2.460422992706298828e+00 1.832198262214660645e+00 -9.044727683067321777e-01 3.830475807189941406e-01 1.387524724006652832e+00 1.595338463783264160e+00
1.923694759607315063e-01 -4.833677709102630615e-01 -2.259103775024414062e+00 1.047960162162780762e+00 4.793826043605804443e-01 -4.043379127979278564e-01 1.532775044441223145e+00 -1.042705774307250977e+00 -1.678241610527038574e+00 6.846776604652404785e-02 -6.063748598098754883e-01 1.196126818656921387e+00 -1.129646539688110352e+00 -5.481382608413696289e-01 1.207107186317443848e+00 -3.961463570594787598e-01 1.749324917793273926e+00 2.248434782028198242e+00 1.070698976516723633e+00 -1.507965922355651855e+00 -1.749094367027282715e+00 -1.127625703811645508e+00 1.200068473815917969e+00 -2.118149042129516602e+00 -1.279530525207519531e+00 8.074502348899841309e-01 -9.143559336662292480e-01 -1.580668330192565918e+00 2.324108839035034180e+00 -2.004562139511108398e+00 -8.638620376586914062e-01 1.996558308601379395e+00 -2.116646021604537964e-01 6.754146218299865723e-01 -1.668938100337982178e-01 6.299417018890380859e-01 -5.068748593330383301e-01 -4.327955245971679688e-01 -6.214390397071838379e-01 2.748153686523437500e+00 -7.584838271141052246e-01 -1.670482516288757324e+00 8.756743073463439941e-01 2.290653228759765625e+00 -1.048552989959716797e+00 5.722711607813835144e-02 -2.105506181716918945e+00 -1.080107450485229492e+00 2.324829578399658203e+00 1.404492020606994629e+00 -2.474145174026489258e+00 4.677487611770629883e-01 5.772323608398437500e-01 2.178789854049682617e+00 3.154285550117492676e-01 1.826573967933654785e+00 1.727401614189147949e+00 4.749238193035125732e-01 -1.552361249923706055e+00 -6.834399104118347168e-01 9.217436313629150391e-01 1.213824391365051270e+00 -1.986599445343017578e+00 1.888021528720855713e-01 2.077730417251586914e+00 -8.537952303886413574e-01 -1.013829827308654785e+00 -4.091865420341491699e-01 1.160193800926208496e+00 2.326612710952758789e+00 5.869534984230995178e-02 4.256944060325622559e-01 2.443430870771408081e-01 1.088944315910339355e+00 1.534700393676757812e+00 3.760059773921966553e-01 2.449102878570556641e+00 -2.388795137405395508e+00 5.543186664581298828e-01 -1.339469313621520996e+00 -1.457992196083068848e+00 3.228537440299987793e-01 -2.306834697723388672e+00 4.378746747970581055e-01 -2.228834152221679688e+00 7.250822335481643677e-02 -5.041549801826477051e-01 9.785115122795104980e-01 -3.473484218120574951e-01 -2.170997709035873413e-01 1.167141079902648926e+00 -3.906688094139099121e-01 -2.515047788619995117e+00 -4.394712448120117188e-01 -3.091160953044891357e-01 4.502599835395812988e-01 -6.853715777397155762e-01 9.047127962112426758e-01 -1.002124071121215820e+00 1.686196684837341309e+00
-9.261865168809890747e-02 -4.421604797244071960e-02 1.703935861587524414e-01 -8.492413163185119629e-01 -2.033117055892944336e+00 1.220887422561645508e+00 -3.267680704593658447e-01 -2.735040664672851562e+00 1.573228955268859863e+00 -2.266414403915405273e+00 1.101422071456909180e+00 -3.448513746261596680e-01 4.060816764831542969e-01 1.925491571426391602e+00 2.193865537643432617e+00 -5.286301374435424805e-01 -1.523378133773803711e+00 -2.232778787612915039e+00 -1.968648791313171387e+00 -1.790178179740905762e+00 -1.784258931875228882e-01 1.631526112556457520e+00 -1.469591140747070312e+00 3.922116160392761230e-01 -3.692083954811096191e-01 -1.594924181699752808e-01 9.192975163459777832e-01 9.549079835414886475e-02 -1.833334565162658691e-01 1.327565193176269531e+00 -4.513248056173324585e-02 -2.953904271125793457e-01 -4.413217604160308838e-01 4.543883502483367920e-01 -1.187823414802551270e-01 -6.828095912933349609e-01 -1.907557249069213867e+00 1.930210471153259277e+00 1.714596867561340332e+00 -7.376894950866699219e-01 1.903291583061218262e+00 1.447730660438537598e+00 -1.951116800308227539e+00 2.127153873443603516e+00 -3.488617241382598877e-01 1.620009422302246094e+00 -1.131972193717956543e+00 1.263818383216857910e+00 3.125832378864288330e-01 -6.586489081382751465e-01 -1.571774244308471680e+00 7.150565981864929199e-01 9.970150142908096313e-02 7.312480211257934570e-01 7.988414168357849121e-01 -1.621710211038589478e-01 1.929325699806213379e+00 -1.107736587524414062e+00 3.826236426830291748e-01 1.879340887069702148e+00 7.400690317153930664e-01 4.918000698089599609e-01 -3.974125981330871582e-01 7.124141454696655273e-01 1.001039981842041016e+00 1.367400646209716797e+00 1.306984901428222656e+00 -5.304302573204040527e-01 1.387141227722167969e+00 2.132806777954101562e+00 2.933024764060974121e-01 1.884659409523010254e+00 1.621983051300048828e+00 -1.950025320053100586e+00 -1.361433386802673340e+00 9.226518869400024414e-01 -1.388517975807189941e+00 -1.036795258522033691e+00 -8.579220175743103027e-01 -1.481494307518005371e+00 1.315066218376159668e+00 -1.736878395080566406e+00 -8.445177078247070312e-01 -1.875701427459716797e+00 -2.233139753341674805e+00 -8.594337701797485352e-01 1.552452564239501953e+00 -1.000824809074401855e+00 -8.202112913131713867e-01 2.309631109237670898e+00 -2.133621454238891602e+00 8.561738133430480957e-01 -4.776849746704101562e-01 1.929139494895935059e-01 7.346462458372116089e-02 1.968656897544860840e+00 -1.114535093307495117e+00 -1.973248004913330078e+00 1.283295303583145142e-01 -1.814050436019897461e+00
1.071920633316040039e+00 -1.162684917449951172e+00 -4.246026277542114258e-01 1.655320763587951660e+00 -1.084483146667480469e+00 -1.150202512741088867e+00 1.437295794486999512e+00 -1.049725174903869629e+00 -3.246037364006042480e-01 5.251318812370300293e-01 -2.305642366409301758e-01 9.623259902000427246e-01 -2.060646533966064453e+00 -1.233618974685668945e+00 -1.672592759132385254e+00 2.262183666229248047e+00 1.027610540390014648e+00 -2.121310710906982422e+00 1.607737302780151367e+00 -1.201558947563171387e+00 2.883009426295757294e-02 -7.282611131668090820e-01 3.429392874240875244e-01 -1.091803669929504395e+00 -1.672795057296752930e+00 -1.132838845252990723e+00 -2.048876285552978516e+00 1.912982940673828125e+00 1.917575448751449585e-01 -3.103502094745635986e-01 1.881717801094055176e+00 8.950019478797912598e-01 -1.211590409278869629e+00 7.909548878669738770e-01 1.220194935798645020e+00 2.218948125839233398e+00 -2.096912384033203125e+00 -2.624864578247070312e-01 2.315321922302246094e+00 2.478884458541870117e-01 1.412528395652770996e+00 1.480913639068603516e+00 2.065511941909790039e+00 4.353512078523635864e-02 3.445376828312873840e-02 1.363879561424255371e+00 1.762131810188293457e+00 1.345449805259704590e+00 1.098255276679992676e+00 1.357045531272888184e+00 7.426131963729858398e-01 -1.826663166284561157e-01 8.095086812973022461e-01 7.774922251701354980e-01 1.606459736824035645e+00 -3.502111732959747314e-01 1.956979751586914062e+00 8.199877738952636719e-01 -1.339126378297805786e-01 5.633034706115722656e-01 -4.532472491264343262e-01 -1.287509083747863770e+00 1.463006615638732910e+00 -2.178995847702026367e+00 -1.150877356529235840e+00 -1.681373715400695801e+00 7.054784297943115234e-01 6.056919693946838379e-01 -2.077898263931274414e+00 -1.594562292098999023e+00 -1.178857088088989258e+00 1.839605689048767090e+00 -1.201698303222656250e+00 -2.433195114135742188e+00 8.322238922119140625e-01 6.504335254430770874e-02 3.460423648357391357e-01 -1.255295991897583008e+00 1.343308210372924805e+00 -4.073976576328277588e-01 -2.426241636276245117e+00 1.155260682106018066e+00 2.325913429260253906e+00 -9.472770690917968750e-01 2.277626991271972656e+00 8.550258874893188477e-01 -1.532863974571228027e+00 3.944571316242218018e-01 -1.230546236038208008e+00 1.821460723876953125e+00 -1.410497069358825684e+00 -1.502987027168273926e+00 1.530081152915954590e+00 -8.711805343627929688e-01 -7.103859186172485352e-01 3.251927495002746582e-01 -1.353871226310729980e+00 -1.672511458396911621e+00 -2.717089414596557617e+00 -1.074527740478515625e+00
2.469434589147567749e-02 -2.571368217468261719e+00 -3.596467077732086182e-01 -8.412280678749084473e-02 1.086205601692199707e+00 -9.375065565109252930e-02 2.084092497825622559e-01 -1.289524316787719727e+00 -3.635078296065330505e-02 -1.712776660919189453e+00 7.005819678306579590e-01 2.030216217041015625e+00 5.714889764785766602e-01 -1.503949522972106934e+00 -1.912352293729782104e-01 -1.324967145919799805e+00 5.913612842559814453e-01 1.330621600151062012e+00 1.714781165122985840e+00 -1.234498620033264160e+00 -1.736273765563964844e+00 2.024958133697509766e+00 4.897350668907165527e-01 -1.695770174264907837e-01 -1.172778010368347168e+00 -1.458455920219421387e+00 -1.453065991401672363e+00 1.235347590409219265e-03 1.706720829010009766e+00 -6.087102890014648438e-01 -1.463357917964458466e-02 -1.456588983535766602e+00 1.817780971527099609e+00 -9.694287776947021484e-01 -3.682062327861785889e-01 -1.363146424293518066e+00 1.286721944808959961e+00 1.730386495590209961e+00 5.944892168045043945e-01 -4.162653088569641113e-01 1.708624601364135742e+00 -4.796583354473114014e-01 -8.478335142135620117e-01 -5.839522480964660645e-01 2.520791769027709961e+00 -1.131040215492248535e+00 6.402255892753601074e-01 1.186045050621032715e+00 -1.867374897003173828e+00 -6.088317930698394775e-02 2.061403989791870117e+00 -1.367595076560974121e+00 -4.731913208961486816e-01 5.028529167175292969e-01 4.468678832054138184e-01 -1.159380793571472168e+00 1.774007439613342285e+00 -9.317070990800857544e-02 1.153593301773071289e+00 2.712513685226440430e+00 5.544779896736145020e-01 -2.289182692766189575e-01 -1.537589550018310547e+00 9.486113786697387695e-01 -2.206573724746704102e+00 -1.053247809410095215e+00 1.458057403564453125e+00 -2.146112203598022461e+00 2.263039536774158478e-02 -4.141471982002258301e-01 -2.100864052772521973e-02 4.261050224304199219e-01 2.837826907634735107e-01 1.311164975166320801e+00 -2.266462087631225586e+00 1.333348870277404785e+00 6.804719567298889160e-01 1.250566363334655762e+00 -2.021073400974273682e-01 1.457396864891052246e+00 1.027971386909484863e+00 -1.093717694282531738e+00 -1.342279076576232910e+00 -1.457603335380554199e+00 1.225791454315185547e+00 -4.188474640250205994e-02 -3.515753448009490967e-01 -1.307564228773117065e-01 2.075226306915283203e+00 -2.576430320739746094e+00 -7.141511440277099609e-01 3.313441574573516846e-01 1.918248891830444336e+00 -1.064440965652465820e+00 -8.522996306419372559e-02 -1.906012892723083496e+00 -1.498844861984252930e+00 6.819642782211303711e-01 1.971739411354064941e+00 -2.531757950782775879e-02
-9.415490627288818359e-01 3.648762106895446777e-01 1.238361716270446777e+00 6.190834045410156250e-01 7.298330664634704590e-01 -2.563456773757934570e+00 -2.261017799377441406e+00 6.420388221740722656e-01 1.782435536384582520e+00 8.265696167945861816e-01 2.277495861053466797e+00 -1.220568299293518066e+00 -1.526418209075927734e+00 7.441606521606445312e-01 6.221747994422912598e-01 -4.453532695770263672e-01 1.185701251029968262e+00 7.823756337165832520e-01 -4.104790687561035156e-01 -1.347416825592517853e-02 -1.660145521163940430e+00 6.038880348205566406e-01 -7.644071578979492188e-01 -7.821787595748901367e-01 2.284925460815429688e+00 -1.472498774528503418e+00 -6.297966837882995605e-01 -1.216280102729797363e+00 3.911728262901306152e-01 -1.272308588027954102e+00 -4.597495496273040771e-01 1.020646095275878906e+00 -1.458241462707519531e+00 -8.320034146308898926e-01 1.986031055450439453e+00 -3.292427863925695419e-03 2.471307039260864258e+00 -2.285156965255737305e+00 -5.028933286666870117e-01 2.288196235895156860e-01 6.873233318328857422e-01 -2.240060329437255859e+00 1.232851028442382812e+00 -7.870327830314636230e-01 7.591429948806762695e-01 -9.639440178871154785e-01 -2.451815605163574219e+00 9.537384510040283203e-01 -8.553839325904846191e-01 -1.712049245834350586e+00 -4.721202850341796875e-01 -1.880966067314147949e+00 3.582428097724914551e-01 -1.424737572669982910e+00 1.917572021484375000e+00 -1.753152608871459961e+00 -1.475162506103515625e+00 -1.342377185821533203e+00 2.205835580825805664e+00 -1.525488376617431641e+00 -1.155570864677429199e+00 -6.444880962371826172e-01 1.805005431175231934e+00 2.095104932785034180e+00 5.047606825828552246e-01 6.920115649700164795e-02 2.527989149093627930e+00 7.320103645324707031e-01 1.954593881964683533e-02 1.646833062171936035e+00 1.956881284713745117e-01 -1.927047491073608398e+00 -1.700654983520507812e+00 1.876599550247192383e+00 -2.628382444381713867e-01 4.916456639766693115e-01 2.885439097881317139e-01 1.853446006774902344e+00 8.149585127830505371e-01 2.194463014602661133e+00 -1.739029526710510254e+00 -1.467913746833801270e+00 -1.159799337387084961e+00 2.511659860610961914e+00 9.405001997947692871e-01 2.521423101425170898e+00 2.403226852416992188e+00 -1.505707859992980957e+00 -4.471211433410644531e-01 -7.542224526405334473e-01 6.654112935066223145e-01 1.563930273056030273e+00 1.518825054168701172e+00 7.464563846588134766e-01 1.564079165458679199e+00 -1.659888029098510742e+00 -2.632647514343261719e+00 9.403797984123229980e-01 -6.649280339479446411e-02 -1.750237584114074707e+00
2.668429613113403320e+00 1.241035103797912598e+00 2.443855047225952148e+00 8.007918000221252441e-01 -1.723867416381835938e+00 -1.914929747581481934e-01 -2.577209472656250000e-01 1.278498411178588867e+00 -1.686213463544845581e-01 1.094050049781799316e+00 -1.802600264549255371e+00 -1.633799552917480469e+00 6.281775236129760742e-01 1.520887374877929688e+00 1.235611438751220703e+00 4.793249368667602539e-01 -2.078484058380126953e+00 -1.198412299156188965e+00 7.280443906784057617e-01 -1.118655323982238770e+00 -1.382550239562988281e+00 -2.232143640518188477e+00 -1.628931641578674316e+00 2.674420595169067383e+00 -1.149722576141357422e+00 -1.393566966056823730e+00 1.106055259704589844e+00 -5.970084071159362793e-01 1.020590901374816895e+00 -1.487286329269409180e+00 -1.500587344169616699e+00 -1.955690026283264160e+00 -1.434855908155441284e-01 -1.960738301277160645e+00 -9.814662933349609375e-01 -3.411429226398468018e-01 3.293253183364868164e-01 -1.548423886299133301e+00 -1.670806050300598145e+00 -1.202546954154968262e+00 1.588474988937377930e+00 2.028346776962280273e+00 9.607514142990112305e-01 -2.548680305480957031e+00 -1.215668320655822754e+00 -1.441015005111694336e-01 2.080048799514770508e+00 -9.586524963378906250e-02 -9.630233049392700195e-01 -8.053646236658096313e-02 8.962151408195495605e-02 -1.295244455337524414e+00 -2.098216295242309570e+00 -2.607723474502563477e-01 2.206203699111938477e+00 -1.692285060882568359e+00 -3.550973832607269287e-01 2.051573038101196289e+00 -5.565554499626159668e-01 -2.570855617523193359e+00 1.779962301254272461e+00 2.558939456939697266e+00 1.451386332511901855e+00 -1.211158156394958496e+00 3.254228234291076660e-01 2.294281244277954102e+00 -1.070333600044250488e+00 -1.120400905609130859e+00 -1.264754772186279297e+00 3.924823924899101257e-02 3.512335121631622314e-01 -1.645346283912658691e-01 2.152992010116577148e+00 2.728518247604370117e+00 2.512404322624206543e-01 -3.646370470523834229e-01 -8.604023456573486328e-01 3.278352618217468262e-01 2.787453651428222656e+00 -8.092373609542846680e-02 -1.199225306510925293e+00 -1.342370152473449707e+00 -1.276811361312866211e+00 -1.229101061820983887e+00 -1.337554454803466797e+00 3.348130583763122559e-01 -2.016579389572143555e+00 2.051152944564819336e+00 2.355201005935668945e+00 -4.639026895165443420e-02 2.735243558883666992e+00 -8.955922126770019531e-01 -6.181818246841430664e-01 5.944876074790954590e-01 1.619342446327209473e+00 -1.179026722908020020e+00 2.278751850128173828e+00 1.657690167427062988e+00 2.575468122959136963e-01 1.297713875770568848e+00
-1.024126768112182617e+00 7.031162381172180176e-01 -3.564839065074920654e-01 -9.675934910774230957e-02 2.625496685504913330e-01 -1.847518563270568848e+00 -1.881731986999511719e+00 1.155082106590270996e+00 -1.984745502471923828e+00 -6.596558690071105957e-01 1.982538819313049316e+00 -1.508576750755310059e+00 -1.034467101097106934e+00 2.205360174179077148e+00 -1.545087933540344238e+00 2.516450174152851105e-02 -7.740097641944885254e-01 1.950585126876831055e+00 -3.270259797573089600e-01 -1.052096486091613770e+00 -1.725832581520080566e+00 1.335324496030807495e-01 1.389276504516601562e+00 2.040302515029907227e+00 9.863565564155578613e-01 -1.944356262683868408e-01 2.081623554229736328e+00 -8.294624090194702148e-02 -1.137706398963928223e+00 1.687884092330932617e+00 -1.341542482376098633e+00 6.658251881599426270e-01 2.418680191040039062e+00 1.510982275009155273e+00 -1.394131660461425781e+00 -9.118272364139556885e-02 3.352545797824859619e-01 2.298637390136718750e+00 4.230277538299560547e-01 1.717925906181335449e+00 2.042606025934219360e-01 1.034607052803039551e+00 2.477344989776611328e+00 -1.196453928947448730e+00 2.010366439819335938e+00 9.221631288528442383e-02 -3.847833871841430664e-01 6.509301662445068359e-01 -1.479242324829101562e+00 -1.943162679672241211e+00 -9.951188564300537109e-01 -1.499275922775268555e+00 4.425032734870910645e-01 -9.387049823999404907e-03 -6.332824826240539551e-01 2.426161289215087891e+00 -3.005940020084381104e-01 1.776938199996948242e+00 2.666160464286804199e-01 -9.636093378067016602e-01 5.958176255226135254e-01 5.394362807273864746e-01 -6.336244344711303711e-01 2.243968725204467773e+00 -3.941255509853363037e-01 -1.073686361312866211e+00 5.679150111973285675e-03 1.440245807170867920e-01 4.315161406993865967e-01 2.533391475677490234e+00 -1.900037884712219238e+00 -1.581502676010131836e+00 -1.780622720718383789e+00 -6.489863246679306030e-02 -1.945184707641601562e+00 -1.943374991416931152e+00 -1.981227397918701172e+00 -1.125386238098144531e+00 -1.649471044540405273e+00 -2.026130437850952148e+00 3.580626547336578369e-01 -1.404745340347290039e+00 2.088765621185302734e+00 -9.106622338294982910e-01 1.021509289741516113e+00 1.138844132423400879e+00 -9.999021291732788086e-01 -9.914326071739196777e-01 -5.365344882011413574e-01 2.243748188018798828e+00 -1.614705771207809448e-01 7.693150043487548828e-01 3.375677764415740967e-01 2.260435342788696289e+00 7.800606489181518555e-01 2.777993977069854736e-01 -1.027291059494018555e+00 4.130578935146331787e-01 -1.039334416389465332e+00 -9.620068967342376709e-02
4.451471865177154541e-01 -2.264703750610351562e+00 1.301259994506835938e+00 7.083414793014526367e-01 1.235916256904602051e+00 1.025708436965942383e+00 1.563040137290954590e+00 1.538286328315734863e+00 -7.209352850914001465e-01 -2.088320970535278320e+00 1.528764963150024414e+00 2.228138208389282227e+00 -1.801840186119079590e+00 -1.408646821975708008e+00 1.533890008926391602e+00 -1.076254725456237793e+00 -1.582949906587600708e-01 1.149764657020568848e+00 6.502113938331604004e-01 -2.013490915298461914e+00 2.183799296617507935e-01 1.112478137016296387e+00 -5.006102919578552246e-01 8.981729298830032349e-02 1.946651339530944824e+00 2.479543685913085938e+00 9.488355517387390137e-01 -2.008186101913452148e+00 3.552543818950653076e-01 -7.840685844421386719e-01 -1.524347066879272461e+00 2.058098793029785156e+00 -1.001613378524780273e+00 -1.884742975234985352e+00 -8.558680415153503418e-01 1.234378740191459656e-01 1.605249881744384766e+00 1.495252966880798340e+00 -3.560055792331695557e-02 6.885010004043579102e-01 -9.495602250099182129e-01 1.262954831123352051e+00 -2.346524953842163086e+00 1.644726514816284180e+00 1.225239753723144531e+00 -5.440163612365722656e-01 -1.825513243675231934e-01 -4.734631776809692383e-01 8.226065039634704590e-01 5.656362771987915039e-01 1.776302695274353027e+00 -5.398670434951782227e-01 -4.522298872470855713e-01 -5.303871631622314453e-01 -1.185281515121459961e+00 -6.473539471626281738e-01 -2.513676643371582031e+00 8.135771155357360840e-01 -7.621182799339294434e-01 2.063749730587005615e-01 -2.005447447299957275e-02 1.065481066703796387e+00 -3.106628358364105225e-01 1.744372844696044922e+00 6.604103744029998779e-02 -1.255311369895935059e+00 1.548610925674438477e+00 -9.562070369720458984e-01 2.227202653884887695e+00 -1.273241758346557617e+00 -1.165678024291992188e+00 1.483238458633422852e+00 -1.142669677734375000e+00 1.713376045227050781e+00 -2.600103378295898438e+00 1.794724345207214355e+00 1.754921913146972656e+00 8.549633622169494629e-01 -1.958854317665100098e+00 -3.928097784519195557e-01 -4.200109839439392090e-01 6.638928055763244629e-01 7.101718336343765259e-02 1.218668594956398010e-01 -6.271750330924987793e-01 7.524062395095825195e-01 1.326460719108581543e+00 -2.915347814559936523e+00 1.136475086212158203e+00 -1.930442929267883301e+00 2.671872377395629883e-01 2.624867200851440430e+00 -2.054913043975830078e+00 -1.801564335823059082e+00 -2.379263877868652344e+00 2.278371751308441162e-01 -1.071055531501770020e+00 -1.627992689609527588e-01 -9.036882519721984863e-01 -1.234290719032287598e+00
1.924005508422851562e+00 4.495592713356018066e-01 1.013605952262878418e+00 -2.543878555297851562e+00 1.955074548721313477e+00 4.236500561237335205e-01 -5.907554030418395996e-01 2.028589248657226562e+00 -1.802748918533325195e+00 -2.003039121627807617e+00 -2.435451507568359375e+00 -3.824666738510131836e-01 -4.529901444911956787e-01 1.857355952262878418e+00 -2.510131120681762695e+00 -1.132388710975646973e+00 2.139370590448379517e-01 1.110732078552246094e+00 4.643538594245910645e-01 -4.099832773208618164e-01 1.177765607833862305e+00 1.256561398506164551e+00 1.088583230972290039e+00 1.435527205467224121e+00 -1.144916415214538574e+00 7.820318341255187988e-01 -6.834523677825927734e-01 -1.078141093254089355e+00 6.791526079177856445e-01 9.412293434143066406e-01 -1.216197729110717773e+00 -1.197040915489196777e+00 -5.665284767746925354e-02 1.372900366783142090e+00 -5.623329877853393555e-01 -8.078035116195678711e-01 -2.050159454345703125e+00 6.847959160804748535e-01 -1.595123529434204102e+00 -1.192045569419860840e+00 -2.841913700103759766e+00 2.587303519248962402e-01 -1.628215909004211426e+00 2.028267621994018555e+00 1.533876538276672363e+00 1.012404710054397583e-01 1.082561731338500977e+00 -2.269695699214935303e-01 1.079131245613098145e+00 -2.052409887313842773e+00 8.453134298324584961e-01 -2.366174221038818359e+00 1.178635954856872559e+00 -1.852159023284912109e+00 -1.907575011253356934e+00 -1.925433427095413208e-01 2.007695287466049194e-01 5.697319656610488892e-02 3.362462520599365234e-01 1.826080441474914551e+00 -1.950543045997619629e+00 -2.048606634140014648e+00 2.115215063095092773e+00 -4.990978538990020752e-01 -8.219792246818542480e-01 5.340841412544250488e-01 -1.172856569290161133e+00 2.507087230682373047e+00 1.552358150482177734e+00 -1.359566450119018555e+00 2.906554937362670898e+00 6.287268400192260742e-01 2.101136922836303711e+00 -2.319244861602783203e+00 1.336803078651428223e+00 1.491912126541137695e+00 5.493590831756591797e-01 -1.601941138505935669e-01 -1.422455430030822754e+00 1.479343414306640625e+00 -1.037825465202331543e+00 -1.121774315834045410e+00 -1.980039328336715698e-01 2.542574517428874969e-02 -4.459452927112579346e-01 2.411094188690185547e+00 -1.056489795446395874e-01 -1.124535202980041504e+00 2.579537868499755859e+00 -1.009648323059082031e+00 1.607341766357421875e+00 -6.140426993370056152e-01 2.278985738754272461e+00 1.032051086425781250e+00 -1.254150509834289551e+00 -2.883699893951416016e+00 1.934613823890686035e+00 -1.713550686836242676e+00 4.460554420948028564e-01 2.140821933746337891e+00
-1.708242416381835938e+00 2.507547855377197266e+00 2.435373783111572266e+00 -1.809401392936706543e+00 -1.773225069046020508e+00 2.415785789489746094e+00 -5.414617061614990234e-01 -1.193664789199829102e+00 1.345411777496337891e+00 -1.660496354103088379e+00 2.123738050460815430e+00 -2.195363044738769531e+00 4.653266966342926025e-01 -1.222008466720581055e+00 -2.152314931154251099e-01 -1.461470961570739746e+00 -2.225661516189575195e+00 -1.998761892318725586e+00 -6.088467836380004883e-01 -1.664150953292846680e+00 -1.934334516525268555e+00 1.153854802250862122e-01 -2.142722606658935547e+00 7.302263975143432617e-01 1.763536334037780762e-01 -5.475136637687683105e-01 5.697088316082954407e-02 -7.496830821037292480e-01 -9.108120203018188477e-02 1.848281979560852051e+00 -8.263541013002395630e-02 1.265108138322830200e-01 -1.894263148307800293e+00 -6.038695573806762695e-02 -1.772766590118408203e+00 -2.643391132354736328e+00 -1.744060516357421875e+00 -1.955900073051452637e+00 1.193341970443725586e+00 1.523117661476135254e+00 -2.806527614593505859e-01 1.629634499549865723e+00 -2.000662535429000854e-01 8.862527459859848022e-02 1.894259929656982422e+00 2.658406496047973633e+00 1.130982041358947754e+00 -6.173354014754295349e-02 2.118289709091186523e+00 7.400824129581451416e-02 -5.460681766271591187e-02 2.714454233646392822e-01 7.784441113471984863e-01 -4.662232846021652222e-02 -2.362620830535888672e+00 2.008997201919555664e+00 -7.762049883604049683e-02 -2.987540960311889648e-01 2.167779922485351562e+00 -1.143339276313781738e+00 -1.873711347579956055e+00 -1.853557348251342773e+00 1.774624824523925781e+00 1.685908555984497070e+00 -7.957220077514648438e-01 -1.817650914192199707e+00 -5.002310872077941895e-01 -2.014403343200683594e+00 1.494244217872619629e+00 -8.673056364059448242e-01 1.941704452037811279e-01 8.340338468551635742e-01 1.874765276908874512e+00 -1.961634635925292969e+00 3.943106830120086670e-01 1.194422960281372070e+00 -2.309751272201538086e+00 2.012987852096557617e+00 9.755711555480957031e-01 7.036669850349426270e-01 2.156553268432617188e+00 6.395409256219863892e-02 2.668697118759155273e+00 -8.480538129806518555e-01 -2.808112382888793945e+00 -1.656651139259338379e+00 7.839418053627014160e-01 1.030220150947570801e+00 -1.226186037063598633e+00 1.176791787147521973e+00 1.186330690979957581e-01 -1.506407628767192364e-03 1.572345733642578125e+00 2.049450874328613281e+00 2.227949649095535278e-01 2.470734357833862305e+00 1.293235898017883301e+00 7.384627461433410645e-01 -5.063617825508117676e-01 -3.550469577312469482e-01
2.200473308563232422e+00 -8.562440276145935059e-01 -1.788984656333923340e+00 -3.088936209678649902e-01 1.753966689109802246e+00 1.024467468261718750e+00 -2.075669288635253906e+00 4.310722649097442627e-01 -7.203727960586547852e-01 1.090358257293701172e+00 1.321822524070739746e+00 2.035932838916778564e-01 -2.241935878992080688e-01 -2.267220497131347656e+00 1.577696442604064941e+00 4.061250090599060059e-01 4.372505471110343933e-03 -1.206655859947204590e+00 2.112167119979858398e+00 -4.002071321010589600e-01 1.134870290756225586e+00 5.078822970390319824e-01 -5.859581828117370605e-01 -6.886817216873168945e-01 1.302142024040222168e+00 -2.633746862411499023e-01 -1.202773094177246094e+00 5.714016556739807129e-01 -1.692269563674926758e+00 -2.531827092170715332e-01 -1.012728214263916016e+00 1.361511468887329102e+00 1.622252702713012695e+00 5.472546815872192383e-01 -1.504236936569213867e+00 -8.911071419715881348e-01 1.056699156761169434e+00 -2.011109590530395508e+00 6.989027261734008789e-01 1.540704727172851562e+00 -4.728868007659912109e-01 -1.842385828495025635e-01 -6.076802015304565430e-01 4.430904686450958252e-01 2.279330253601074219e+00 1.573166370391845703e+00 -2.007725715637207031e+00 -1.966236829757690430e+00 7.977099418640136719e-01 -1.048062443733215332e-01 -2.411741018295288086e+00 4.506891071796417236e-01 -8.839095830917358398e-01 4.368559122085571289e-01 -3.137629330158233643e-01 7.055141031742095947e-03 4.905046224594116211e-01 -1.726696252822875977e+00 -6.343159675598144531e-01 -1.087060809135437012e+00 -6.672266721725463867e-01 -1.433503985404968262e+00 -1.591489166021347046e-01 -4.711124897003173828e-01 -1.061635851860046387e+00 9.758020639419555664e-01 -1.205830812454223633e+00 -1.571012377738952637e+00 2.832260169088840485e-02 -1.291627049446105957e+00 -5.024564266204833984e-01 1.141784548759460449e+00 4.511080682277679443e-01 7.182536274194717407e-02 -5.704734325408935547e-01 -1.177003741264343262e+00 -8.087111711502075195e-01 -1.951967000961303711e+00 1.254042148590087891e+00 1.783273458480834961e+00 -1.417215824127197266e+00 -6.385612487792968750e-01 1.797031521797180176e+00 1.944705247879028320e+00 2.028827667236328125e+00 -9.515368938446044922e-01 -4.993447363376617432e-01 3.463747799396514893e-01 2.324536889791488647e-01 -2.261588811874389648e+00 2.532913923263549805e+00 2.145431995391845703e+00 2.001250028610229492e+00 2.052685976028442383e+00 2.262537956237792969e+00 -1.392241477966308594e+00 9.116021394729614258e-01 -5.914708971977233887e-01 -1.926815867424011230e+00 1.942774653434753418e+00
2.102016925811767578e+00 5.620122551918029785e-01 1.733348727226257324e+00 -3.160706460475921631e-01 1.184683561325073242e+00 -1.892670631408691406e+00 -1.719326257705688477e+00 1.502035409212112427e-01 -1.409115314483642578e+00 -2.823492288589477539e-01 -1.413866519927978516e+00 -1.247323632240295410e+00 -1.574911594390869141e+00 5.330102443695068359e-01 2.058479338884353638e-01 2.258896350860595703e+00 2.903244495391845703e-01 5.383470058441162109e-01 2.436692714691162109e+00 1.020943403244018555e+00 -1.944668054580688477e+00 -1.195026755332946777e+00 2.133813142776489258e+00 5.119710788130760193e-02 8.736566305160522461e-01 -2.740559577941894531e-01 2.933275401592254639e-01 -2.358905673027038574e-01 1.925008654594421387e+00 1.039514064788818359e+00 2.109139680862426758e+00 -8.224000334739685059e-01 3.020617961883544922e-01 1.689229607582092285e+00 -1.999204158782958984e+00 1.224248886108398438e+00 -1.928995996713638306e-01 8.897553682327270508e-01 1.094468593597412109e+00 -6.387990117073059082e-01 1.707488536834716797e+00 8.615177273750305176e-01 -1.553712606430053711e+00 -2.796687602996826172e+00 2.365375280380249023e+00 2.142343521118164062e+00 -4.986687004566192627e-01 -1.984330892562866211e+00 -2.073438405990600586e+00 -2.560801267623901367e+00 1.922926783561706543e+00 -2.457995414733886719e+00 -1.728518724441528320e+00 1.366227149963378906e+00 -1.374025344848632812e+00 -1.300821542739868164e+00 1.097033858299255371e+00 1.058960437774658203e+00 4.141573309898376465e-01 1.232589960098266602e+00 5.344125628471374512e-01 2.398122102022171021e-01 -9.990635514259338379e-01 1.330841302871704102e+00 -1.423694491386413574e+00 8.533326387405395508e-01 -1.054948329925537109e+00 2.472411841154098511e-01 5.065898299217224121e-01 -2.156009525060653687e-01 2.516235113143920898e+00 -1.797491669654846191e+00 4.910508394241333008e-01 8.406782746315002441e-01 -1.471991062164306641e+00 -1.662609577178955078e-01 -4.880814552307128906e-01 3.744865655899047852e-01 -3.703362941741943359e-01 1.362564682960510254e+00 -1.163148283958435059e+00 -1.409402370452880859e+00 4.542166590690612793e-01 -2.395246982574462891e+00 2.018172442913055420e-01 -9.684048891067504883e-01 -1.953148365020751953e+00 1.617486596107482910e+00 -2.023001194000244141e+00 3.430467247962951660e-01 -2.168204784393310547e-01 2.648261487483978271e-01 -7.508982419967651367e-01 -1.162113189697265625e+00 1.529470682144165039e+00 -7.540516853332519531e-01 3.678980767726898193e-01 -3.943370878696441650e-01 2.184455871582031250e+00 -9.368901848793029785e-01
-2.175449609756469727e+00 5.622381567955017090e-01 1.502481460571289062e+00 1.782061219215393066e+00 -1.667850852012634277e+00 -1.233588814735412598e+00 -1.540905952453613281e+00 -5.495320558547973633e-01 -1.733730554580688477e+00 -6.679295301437377930e-01 2.834937810897827148e+00 2.185204744338989258e+00 2.554365396499633789e+00 1.740237593650817871e+00 -3.458026349544525146e-01 5.325020849704742432e-02 2.186541557312011719e+00 -2.193567276000976562e+00 -2.168146371841430664e+00 3.996200263500213623e-01 -8.796665072441101074e-01 -5.499191880226135254e-01 2.209560155868530273e+00 2.413004159927368164e+00 8.296712636947631836e-01 1.994361996650695801e+00 -4.133651852607727051e-01 -4.785000383853912354e-01 1.663386583328247070e+00 1.015302419662475586e+00 -1.581993699073791504e+00 2.389221429824829102e+00 1.333325386047363281e+00 5.233219265937805176e-01 1.946986079216003418e+00 -1.403707623481750488e+00 -6.046368479728698730e-01 -1.462171792984008789e+00 -6.763041615486145020e-01 2.485535860061645508e+00 1.475427746772766113e+00 -1.488055586814880371e+00 1.562777519226074219e+00 -2.071842193603515625e+00 -3.403779864311218262e-01 -2.103095293045043945e+00 1.828550577163696289e+00 -2.307112216949462891e+00 1.872854351997375488e+00 2.158653438091278076e-01 -1.889605998992919922e+00 2.659716606140136719e+00 -3.875805735588073730e-01 5.082583427429199219e-01 4.981515109539031982e-01 1.863555431365966797e+00 -1.568466901779174805e+00 -5.770851373672485352e-01 1.851343750953674316e+00 2.412097454071044922e+00 1.344420552253723145e+00 -1.194228291511535645e+00 6.284814476966857910e-01 -1.765279531478881836e+00 9.564329385757446289e-01 -5.644472241401672363e-01 1.861918449401855469e+00 -2.262770414352416992e+00 -1.847199916839599609e+00 5.701258182525634766e-01 -2.046276807785034180e+00 -1.519050955772399902e+00 -2.872808873653411865e-01 -2.286855459213256836e+00 -1.396146535873413086e+00 -1.014601349830627441e+00 -1.729635715484619141e+00 -1.289716720581054688e+00 -4.584961235523223877e-01 -1.670549631118774414e+00 6.569990515708923340e-01 -8.747549653053283691e-01 -9.017364978790283203e-01 7.901423573493957520e-01 -1.025351285934448242e+00 -3.592973649501800537e-01 -9.975560903549194336e-01 -2.841155230998992920e-01 1.865502476692199707e+00 1.952100872993469238e+00 1.326977759599685669e-01 -1.172209143638610840e+00 -6.724599599838256836e-01 -2.129489898681640625e+00 -3.726788163185119629e-01 -1.108396649360656738e-01 -1.302565336227416992e+00 1.422569900751113892e-01 1.808702468872070312e+00 1.701739311218261719e+00
-7.523698806762695312e-01 -8.093035221099853516e-02 -4.853546991944313049e-02 -1.516871213912963867e+00 -1.691486835479736328e+00 2.651949167251586914e+00 1.213681101799011230e+00 2.537343978881835938e+00 -1.243282437324523926e+00 -6.898912787437438965e-01 -2.133203983306884766e+00 1.943598389625549316e+00 1.452986478805541992e+00 -5.604540705680847168e-01 1.673875570297241211e+00 2.179800987243652344e+00 3.935752511024475098e-01 1.145777225494384766e+00 9.149305820465087891e-01 1.096334934234619141e+00 -8.516110181808471680e-01 1.385860443115234375e+00 -7.054719924926757812e-01 -6.471148133277893066e-01 -1.241328492760658264e-01 1.776973605155944824e+00 4.404635727405548096e-01 -2.520569324493408203e+00 -1.902288675308227539e+00 1.114925980567932129e+00 9.322991371154785156e-01 1.625185847282409668e+00 1.287148952484130859e+00 -2.084836810827255249e-01 2.231072187423706055e+00 -4.856253266334533691e-01 -7.475002408027648926e-01 -7.275791764259338379e-01 7.214909791946411133e-01 -2.862234413623809814e-01 1.713454365730285645e+00 -1.097330570220947266e+00 1.467406004667282104e-01 -1.805135965347290039e+00 -7.106696069240570068e-02 2.254795283079147339e-01 -4.980924725532531738e-02 2.101898640394210815e-01 -1.158980846405029297e+00 5.899513959884643555e-01 1.763883829116821289e+00 -2.076218277215957642e-01 1.766492247581481934e+00 -1.373592257499694824e+00 -2.314085245132446289e+00 -8.441501855850219727e-01 -9.053753614425659180e-01 1.891193628311157227e+00 -1.123418927192687988e+00 -2.433343410491943359e+00 1.016994476318359375e+00 -6.657413840293884277e-01 2.254721224308013916e-01 5.786795616149902344e-01 2.328085660934448242e+00 2.159453868865966797e+00 -1.322164773941040039e+00 -1.387510776519775391e+00 1.777228355407714844e+00 -3.672318160533905029e-01 -1.217410564422607422e+00 1.512938141822814941e+00 -1.290303230285644531e+00 3.135599195957183838e-02 -2.871566116809844971e-01 -1.042388439178466797e+00 1.594655513763427734e+00 -7.189390063285827637e-01 -1.416213393211364746e+00 4.408033099025487900e-03 -8.383240699768066406e-01 8.819777965545654297e-01 5.112044215202331543e-01 -1.794872730970382690e-01 1.036442518234252930e+00 -1.337128877639770508e+00 1.808888316154479980e+00 2.134835958480834961e+00 -1.761673212051391602e+00 -6.716564893722534180e-01 -5.128669142723083496e-01 1.202770709991455078e+00 -2.253032445907592773e+00 1.766943693161010742e+00 -1.526821970939636230e+00 1.306357681751251221e-01 -5.846443176269531250e-01 -1.544989705085754395e+00 -3.099753379821777344e+00 -2.025591135025024414e+00
-2.428762435913085938e+00 -2.060179114341735840e-01 1.964729666709899902e+00 3.129127621650695801e-01 9.222270250320434570e-01 1.654749989509582520e+00 1.701788544654846191e+00 -1.189979195594787598e+00 -7.414605021476745605e-01 9.997304528951644897e-02 -5.697158575057983398e-01 -5.685060024261474609e-01 -1.172314047813415527e+00 1.238300800323486328e-01 1.089950919151306152e+00 -2.465108394622802734e+00 2.980100512504577637e-01 3.636844754219055176e-01 4.277595877647399902e-01 1.352089405059814453e+00 -1.724127888679504395e+00 -1.910153865814208984e+00 -1.445811390876770020e+00 -5.514495968818664551e-01 1.959589481353759766e+00 4.798991680145263672e-01 1.501187562942504883e+00 1.737663388252258301e+00 2.236755132675170898e+00 4.244967699050903320e-01 6.981587409973144531e-02 -2.200677394866943359e+00 1.310901165008544922e+00 -9.168092012405395508e-01 1.395358890295028687e-01 -3.743048310279846191e-01 -1.592092752456665039e+00 -1.243085026741027832e+00 2.262519836425781250e+00 1.334583640098571777e+00 1.067377328872680664e+00 -5.584334731101989746e-01 1.414719820022583008e+00 1.396701216697692871e+00 6.290822625160217285e-01 -3.668907582759857178e-01 1.468619823455810547e+00 8.588494658470153809e-01 -1.739414334297180176e+00 2.036435127258300781e+00 1.435781836509704590e+00 7.473937869071960449e-01 -9.350125789642333984e-01 -1.632709503173828125e+00 7.596760392189025879e-01 1.773818850517272949e+00 1.128790855407714844e+00 -9.109615683555603027e-01 1.593101978302001953e+00 8.789466619491577148e-01 2.979172766208648682e-01 1.154714465141296387e+00 -2.581369638442993164e+00 5.237346887588500977e-01 1.336068868637084961e+00 4.413355290889739990e-01 4.640577435493469238e-01 -2.139927625656127930e+00 1.959979057312011719e+00 6.772063374519348145e-01 2.474811077117919922e+00 -2.567659616470336914e+00 5.192826986312866211e-01 -1.508568525314331055e+00 1.629568696022033691e+00 -1.042618751525878906e+00 2.358249425888061523e-01 1.044960141181945801e+00 -1.789260149002075195e+00 -2.086114883422851562e+00 2.541742324829101562e-01 -2.060640573501586914e+00 -2.020501375198364258e+00 -1.998641729354858398e+00 1.869094848632812500e+00 -7.836018204689025879e-01 4.916383028030395508e-01 1.535767316818237305e+00 1.095300793647766113e+00 -1.507252454757690430e+00 -1.743909001350402832e+00 -1.769533753395080566e+00 -1.014308691024780273e+00 -1.783899307250976562e+00 1.002137422561645508e+00 -1.561893075704574585e-01 1.181182146072387695e+00 -2.383791923522949219e+00 -1.675729751586914062e+00 -1.473223209381103516e+00
4.353417828679084778e-02 -2.294608831405639648e+00 8.184070140123367310e-02 1.832631826400756836e+00 -2.131091505289077759e-01 -1.642259836196899414e+00 7.338393330574035645e-01 7.925436496734619141e-01 -6.678091883659362793e-01 3.048167526721954346e-01 2.117332071065902710e-01 9.497926831245422363e-01 -2.165706306695938110e-01 3.771817684173583984e-01 2.887246571481227875e-02 3.538573682308197021e-01 1.475787997245788574e+00 -3.669029176235198975e-01 9.329699873924255371e-01 2.447653770446777344e+00 1.806688070297241211e+00 -1.064349412918090820e+00 2.046260595321655273e+00 1.909576416015625000e+00 -3.048880100250244141e-01 -1.874095082283020020e+00 3.540817499160766602e-01 4.150532186031341553e-01 -2.381659269332885742e+00 -6.020435094833374023e-01 1.368038892745971680e+00 1.320612549781799316e+00 1.976433634757995605e+00 1.633974790573120117e+00 -2.631912231445312500e-01 1.379500627517700195e-01 5.894113779067993164e-01 -7.879566401243209839e-02 -2.244992017745971680e+00 1.296531558036804199e+00 -6.266019493341445923e-02 1.083023071289062500e+00 6.442148983478546143e-02 8.931277990341186523e-01 -2.535998821258544922e-01 -1.305752873420715332e+00 1.799132823944091797e+00 2.478610515594482422e+00 -1.305474191904067993e-01 -7.024489045143127441e-01 -1.147953033447265625e+00 2.141529321670532227e+00 2.328445762395858765e-01 1.001066327095031738e+00 -5.330693721771240234e-01 1.416282773017883301e+00 -3.504441082477569580e-01 -2.321527481079101562e+00 -1.852314233779907227e+00 -1.546308040618896484e+00 1.543310523033142090e+00 1.540801167488098145e+00 1.934446245431900024e-01 -1.505715608596801758e+00 -1.447469353675842285e+00 -2.250107765197753906e+00 -2.173773288726806641e+00 1.062248229980468750e+00 1.144049286842346191e+00 -1.620313048362731934e+00 2.198855161666870117e+00 -8.529351949691772461e-01 5.938286185264587402e-01 -3.015139102935791016e-01 -4.476722776889801025e-01 1.157415509223937988e+00 1.655221819877624512e+00 1.812797665596008301e+00 -1.541762590408325195e+00 -1.114769101142883301e+00 -3.678057193756103516e-01 9.861528277397155762e-01 -1.975420951843261719e+00 -1.079116940498352051e+00 1.661255955696105957e+00 1.962904453277587891e+00 -2.222946882247924805e+00 -7.728177309036254883e-01 1.205614686012268066e+00 -1.792689919471740723e+00 2.157743088901042938e-02 5.088372826576232910e-01 -2.247147321701049805e+00 -1.202527761459350586e+00 -1.765689253807067871e+00 -5.062718987464904785e-01 -1.268119931221008301e+00 -2.430443048477172852e+00 7.211891412734985352e-01 -4.110603332519531250e-01
-7.970099449157714844e-01 1.974282503128051758e+00 2.674440443515777588e-01 3.374681472778320312e-01 3.717671632766723633e-01 2.104255676269531250e+00 -1.228546500205993652e+00 6.820292472839355469e-01 -5.177140831947326660e-01 -1.104693338274955750e-01 -1.575981736183166504e+00 -1.188729166984558105e+00 1.193969130516052246e+00 -1.509526848793029785e+00 -6.666268110275268555e-01 -5.749778747558593750e-01 1.119977235794067383e+00 -3.993590921163558960e-02 -6.867294311523437500e-01 2.055937290191650391e+00 6.119961664080619812e-02 -9.929645061492919922e-02 4.993538558483123779e-01 -5.312568545341491699e-01 2.437546551227569580e-01 1.953496932983398438e-01 -1.512796044349670410e+00 -1.651463150978088379e+00 1.064281761646270752e-01 1.439483880996704102e+00 7.510673999786376953e-01 5.430763959884643555e-01 -2.137428224086761475e-01 4.482223391532897949e-01 9.950586557388305664e-01 7.880427837371826172e-01 1.400829672813415527e+00 -9.232431650161743164e-01 -1.987517833709716797e+00 -7.967732548713684082e-01 -1.926171779632568359e+00 -2.107104957103729248e-01 -4.277658462524414062e-01 -1.660718202590942383e+00 2.028736174106597900e-01 1.250618934631347656e+00 7.963286638259887695e-01 2.684434354305267334e-01 7.791473269462585449e-01 1.779797792434692383e+00 -1.141124486923217773e+00 1.303801834583282471e-01 -1.857781648635864258e+00 2.730476483702659607e-02 7.559237480163574219e-01 -1.436394929885864258e+00 -1.689530014991760254e+00 2.082627296447753906e+00 -7.846481800079345703e-01 -1.916276454925537109e+00 -1.433516144752502441e+00 -2.439414411783218384e-01 1.948664426803588867e+00 -1.441990375518798828e+00 -1.270324110984802246e+00 -1.998872041702270508e+00 5.075961351394653320e-01 1.172359824180603027e+00 8.247830867767333984e-01 1.525106668472290039e+00 -2.143574237823486328e+00 -1.036555409431457520e+00 -2.420116186141967773e+00 2.072924852371215820e+00 9.611535072326660156e-01 5.077435374259948730e-01 2.011295557022094727e+00 8.809416890144348145e-01 3.161762058734893799e-01 -1.725825905799865723e+00 1.223707795143127441e+00 2.223123908042907715e-01 1.834143280982971191e+00 1.154753565788269043e+00 -1.701897978782653809e+00 -1.301819384098052979e-01 -1.046569705009460449e+00 -5.007579326629638672e-01 6.761114597320556641e-01 -1.999392151832580566e+00 8.819741606712341309e-01 -1.280813217163085938e+00 -2.171135902404785156e+00 -4.743027687072753906e-01 1.695526719093322754e+00 1.609723687171936035e+00 4.992979466915130615e-01 2.580202341079711914e+00 1.414161443710327148e+00 3.813077509403228760e-01
3.385650515556335449e-01 -1.725746631622314453e+00 2.379847764968872070e+00 2.465903908014297485e-01 -1.473179459571838379e+00 -2.227731943130493164e+00 1.414660930633544922e+00 -2.008726358413696289e+00 5.832059383392333984e-01 1.811858415603637695e+00 -1.711249470710754395e+00 9.426660537719726562e-01 -1.595523834228515625e+00 2.585909068584442139e-01 7.019666433334350586e-01 1.819958329200744629e+00 1.644149541854858398e+00 -7.646744251251220703e-01 2.629785299301147461e+00 -3.166095614433288574e-01 -9.965113401412963867e-01 -3.747621178627014160e-01 -6.557138562202453613e-01 -1.152291536331176758e+00 4.312075376510620117e-01 1.155416250228881836e+00 -4.106191098690032959e-01 1.246441602706909180e+00 -1.168260455131530762e+00 -1.828571200370788574e+00 -1.954404950141906738e+00 1.892418622970581055e+00 1.077363371849060059e+00 2.344141960144042969e+00 -5.378457307815551758e-01 1.979495286941528320e+00 2.369675159454345703e+00 -1.633451104164123535e+00 -9.888814687728881836e-01 9.503011703491210938e-01 -2.107783108949661255e-01 -1.179130449891090393e-01 1.499360203742980957e+00 -1.536091685295104980e+00 -1.828321218490600586e-01 1.784254550933837891e+00 -6.519529223442077637e-01 -2.255436658859252930e+00 -8.657810091972351074e-01 -1.602690696716308594e+00 1.869565129280090332e+00 2.183422803878784180e+00 -1.316225767135620117e+00 7.911924123764038086e-01 -2.689506411552429199e-01 -4.904983937740325928e-01 3.956415951251983643e-01 4.696389138698577881e-01 2.344290733337402344e+00 -1.801313519477844238e+00 1.051602482795715332e+00 2.503802061080932617e+00 -1.545346379280090332e+00 6.004383563995361328e-01 -1.804094433784484863e+00 1.108311176300048828e+00 -9.573135972023010254e-01 -9.496081471443176270e-01 -1.348593354225158691e+00 -1.457986593246459961e+00 1.605443954467773438e+00 4.501954615116119385e-01 -8.219297528266906738e-01 -2.764626406133174896e-02 -2.029092788696289062e+00 1.858543157577514648e+00 -9.659457206726074219e-01 1.268449306488037109e+00 1.864073514938354492e+00 -3.595321178436279297e-01 -1.372965574264526367e+00 -1.161233663558959961e+00 -5.008962154388427734e-01 -1.769804000854492188e+00 -5.525672435760498047e-01 -1.224400043487548828e+00 1.785461068153381348e+00 2.051141262054443359e+00 -1.488649368286132812e+00 6.246820688247680664e-01 1.736248493194580078e+00 -1.461777925491333008e+00 -2.679085135459899902e-01 -7.393278479576110840e-01 4.519628584384918213e-01 4.273979067802429199e-01 -5.196089148521423340e-01 -1.487636208534240723e+00 6.636219024658203125e-01 -4.095290005207061768e-01
-2.657311260700225830e-01 4.438668489456176758e-01 1.085149765014648438e+00 5.576544404029846191e-01 1.227165102958679199e+00 -2.032440900802612305e+00 -1.321098566055297852e+00 5.973420739173889160e-01 2.151411294937133789e+00 4.647624790668487549e-01 3.231197223067283630e-02 -5.673872828483581543e-01 -1.456579566001892090e+00 2.150628566741943359e+00 -2.929601371288299561e-01 2.628515958786010742e+00 7.015201449394226074e-01 2.174802780151367188e+00 2.860558032989501953e-01 1.761376619338989258e+00 6.962607502937316895e-01 -2.000873088836669922e+00 -1.038766503334045410e+00 2.111299753189086914e+00 -2.438877344131469727e+00 -1.891150236129760742e+00 3.951855897903442383e-01 1.264867901802062988e+00 -1.111569166183471680e+00 2.016822814941406250e+00 -2.001106739044189453e+00 -6.900804638862609863e-01 4.134330153465270996e-02 1.558121442794799805e+00 7.899058461189270020e-01 -2.513944149017333984e+00 -5.617551207542419434e-01 2.103671073913574219e+00 -3.489442765712738037e-01 1.477258086204528809e+00 -7.073593139648437500e-01 2.472573518753051758e+00 9.878305792808532715e-01 9.192307591438293457e-01 1.707945704460144043e+00 -1.318292737007141113e+00 -1.427569508552551270e+00 2.356808662414550781e+00 1.479422211647033691e+00 -2.066244125366210938e+00 -7.802883982658386230e-01 1.060493215918540955e-01 2.803489446640014648e+00 2.468755722045898438e+00 -1.284489184617996216e-01 2.172782659530639648e+00 1.295090675354003906e+00 -1.877120494842529297e+00 -8.330175280570983887e-01 -2.728045463562011719e+00 1.903983354568481445e+00 -1.684423685073852539e+00 2.919425070285797119e-02 -7.103874087333679199e-01 2.172716617584228516e+00 -9.848114252090454102e-01 -2.476314544677734375e+00 2.033756971359252930e+00 2.652075290679931641e-01 1.417623519897460938e+00 1.098187640309333801e-01 -9.827039390802383423e-02 -8.408998250961303711e-01 1.648047447204589844e+00 1.847343325614929199e+00 -1.897249579429626465e+00 -1.601237773895263672e+00 -2.193881273269653320e+00 -2.848826907575130463e-02 1.565128922462463379e+00 -2.069165706634521484e+00 5.648828148841857910e-01 -1.511578202247619629e+00 -4.418405890464782715e-01 -6.031036972999572754e-01 -1.795662641525268555e+00 -1.690070033073425293e+00 -8.453144431114196777e-01 -1.566932320594787598e+00 -4.840763509273529053e-01 -2.597362697124481201e-01 1.413377881050109863e+00 -1.845246911048889160e+00 -9.333980679512023926e-01 -9.579374790191650391e-01 -4.189985096454620361e-01 -1.481693863868713379e+00 -1.424627184867858887e+00 -3.427695333957672119e-01 7.035843133926391602e-01
9.191006422042846680e-01 5.357284545898437500e-01 6.592191457748413086e-01 -1.079196929931640625e+00 -2.803445100784301758e+00 -3.924494981765747070e-01 1.302811741828918457e+00 -1.495880037546157837e-01 -7.990018725395202637e-01 -8.502914905548095703e-01 -1.571532130241394043e+00 1.129156947135925293e+00 -1.635745763778686523e+00 -2.018194913864135742e+00 -1.323699831962585449e+00 -1.028572559356689453e+00 -1.463236808776855469e-01 5.172415375709533691e-01 4.272531270980834961e-01 2.794594764709472656e-01 2.461404561996459961e+00 8.591951727867126465e-01 1.075603246688842773e+00 -8.061766624450683594e-01 -2.122972488403320312e+00 -2.144483566284179688e+00 -5.043897628784179688e-01 -1.839757919311523438e+00 1.214354634284973145e+00 -2.352180242538452148e+00 -1.084661602973937988e+00 1.210020422935485840e+00 2.898657880723476410e-02 5.184676051139831543e-01 -1.066648513078689575e-01 -3.894339501857757568e-01 -7.643496990203857422e-01 4.052079319953918457e-01 -1.452562808990478516e+00 -2.190867185592651367e+00 2.051844835281372070e+00 1.300664663314819336e+00 -8.675579726696014404e-02 3.086962550878524780e-02 7.155066728591918945e-01 -1.213814467191696167e-01 1.262054085731506348e+00 9.680876731872558594e-01 9.923836588859558105e-01 -7.391151785850524902e-01 -1.012143135070800781e+00 1.235129117965698242e+00 -1.320238858461380005e-01 8.537514805793762207e-01 1.444916486740112305e+00 4.235672056674957275e-01 -5.086252093315124512e-01 7.241070270538330078e-02 1.617970824241638184e+00 -8.917299509048461914e-01 1.529349565505981445e+00 8.750428259372711182e-02 7.365260124206542969e-01 -1.314322471618652344e+00 1.218302965164184570e+00 1.911197066307067871e+00 1.431403279304504395e+00 2.089838504791259766e+00 8.032532334327697754e-01 1.963345170021057129e+00 -5.659632682800292969e-01 6.102437973022460938e-01 -1.599809408187866211e+00 -2.087140560150146484e+00 -2.477046698331832886e-01 1.642718076705932617e+00 -1.776823103427886963e-01 1.373652458190917969e+00 1.173237800598144531e+00 -1.173578023910522461e+00 -2.263041436672210693e-01 2.216658115386962891e+00 1.465924739837646484e+00 -7.594963312149047852e-01 -1.538279414176940918e+00 -6.481069326400756836e-01 2.405487746000289917e-02 2.603111267089843750e-01 -2.674829483032226562e+00 3.155978024005889893e-01 1.025559902191162109e-01 -1.010768890380859375e+00 -1.685909748077392578e+00 2.283790349960327148e+00 6.747585535049438477e-01 2.223693847656250000e+00 -1.925563097000122070e+00 1.363499760627746582e+00 -1.018169403076171875e+00 -2.572905778884887695e+00
2.001114845275878906e+00 1.625044047832489014e-01 -9.389356970787048340e-01 -2.659112215042114258e+00 1.254076838493347168e+00 4.098890125751495361e-01 -7.776347398757934570e-01 -1.842851281166076660e+00 -6.145494580268859863e-01 1.241101264953613281e+00 9.117610007524490356e-02 1.388273954391479492e+00 -7.439770102500915527e-01 -1.304791808128356934e+00 -1.420760273933410645e+00 -8.366968035697937012e-01 -2.102304220199584961e+00 5.791786313056945801e-01 -3.265779316425323486e-01 4.025889337062835693e-01 1.841786742210388184e+00 -2.475048303604125977e+00 -3.957345783710479736e-01 -1.361379742622375488e+00 1.193543076515197754e+00 -2.467663764953613281e+00 2.451546907424926758e+00 1.790973782539367676e+00 -4.338176548480987549e-01 -1.179540276527404785e+00 5.759994983673095703e-01 1.669854879379272461e+00 -1.731108188629150391e+00 -2.302953004837036133e+00 9.033976197242736816e-01 5.423907637596130371e-01 5.468274652957916260e-02 -1.024660110473632812e+00 -1.502650022506713867e+00 -1.562751650810241699e+00 1.503802776336669922e+00 -6.388515233993530273e-02 -2.249100923538208008e+00 2.355668544769287109e+00 -1.910862445831298828e+00 -1.736810326576232910e+00 -2.827406227588653564e-01 5.086205601692199707e-01 -2.493139505386352539e+00 1.679731011390686035e+00 -1.116135120391845703e+00 4.967238903045654297e-01 -1.801127433776855469e+00 1.384538292884826660e+00 7.915127873420715332e-01 -1.823971748352050781e+00 -3.416256606578826904e-01 -1.439636826515197754e+00 -1.910832405090332031e+00 5.190985798835754395e-01 1.211707592010498047e+00 2.162769079208374023e+00 -1.225386500358581543e+00 -2.105432033538818359e+00 2.062060117721557617e+00 1.358854413032531738e+00 9.835885167121887207e-01 -6.693807244300842285e-01 2.529329955577850342e-01 9.927859306335449219e-01 2.136533021926879883e+00 1.079771399497985840e+00 -1.542557120323181152e+00 -1.729667633771896362e-01 -1.650755405426025391e-01 1.735670328140258789e+00 -8.736257553100585938e-01 5.889355540275573730e-01 2.355818599462509155e-01 -3.079418279230594635e-02 2.983019948005676270e-01 2.118536949157714844e+00 -1.122331380844116211e+00 -2.829675674438476562e-01 1.420241296291351318e-01 -7.119173407554626465e-01 1.666790485382080078e+00 1.790203571319580078e+00 1.273346424102783203e+00 1.066040992736816406e+00 2.037999629974365234e+00 1.590074062347412109e+00 1.647212505340576172e+00 7.906273603439331055e-01 -4.469433426856994629e-01 -1.452654361724853516e+00 2.069951534271240234e+00 -6.507598757743835449e-01 2.659775614738464355e-01 -8.710277080535888672e-01
8.948389440774917603e-02 4.884578660130500793e-02 1.034256577491760254e+00 -7.088448405265808105e-01 -8.914174437522888184e-01 -7.768292427062988281e-01 -1.543569415807723999e-01 -1.148042082786560059e+00 -1.288969367742538452e-01 1.894200205802917480e+00 5.463140606880187988e-01 4.727039933204650879e-01 2.540265560150146484e+00 9.579356014728546143e-02 2.767304778099060059e-01 2.549984455108642578e+00 1.858362793922424316e+00 -1.028405595570802689e-02 7.271382212638854980e-01 -1.795552670955657959e-01 1.259337186813354492e+00 2.110006809234619141e+00 -1.734832167625427246e+00 -1.032849311828613281e+00 -1.094518065452575684e+00 1.349306702613830566e+00 -2.199957609176635742e+00 -2.616720795631408691e-01 -2.235257625579833984e+00 1.037986278533935547e+00 -1.188706517219543457e+00 -1.518990993499755859e+00 -1.577996373176574707e+00 -7.715886831283569336e-01 1.490742206573486328e+00 1.904785394668579102e+00 1.854591965675354004e+00 1.466107368469238281e+00 3.507075607776641846e-01 -5.019834041595458984e-01 -1.844770431518554688e+00 -2.271263360977172852e+00 -2.561393082141876221e-01 -9.968341588973999023e-01 4.224394857883453369e-01 1.399857550859451294e-01 -1.287864327430725098e+00 -2.690457344055175781e+00 5.270634889602661133e-01 1.817545533180236816e+00 -1.120419144630432129e+00 2.642348527908325195e+00 7.694373130798339844e-01 -1.219456553459167480e+00 2.580684661865234375e+00 -4.112705588340759277e-01 6.070203781127929688e-01 -2.926104366779327393e-01 -2.958130538463592529e-01 -1.874624565243721008e-02 5.948172211647033691e-01 -1.003347277641296387e+00 -1.238926291465759277e+00 2.897071242332458496e-01 1.825150251388549805e+00 1.351614236831665039e+00 -8.620011806488037109e-01 -2.554159760475158691e-01 -2.107280015945434570e+00 7.907108068466186523e-01 -6.779282689094543457e-01 5.544222593307495117e-01 -1.809900104999542236e-01 8.847930431365966797e-01 1.753511428833007812e+00 2.243887662887573242e+00 3.194543123245239258e-01 -4.689780175685882568e-01 2.042728900909423828e+00 -7.061088681221008301e-01 -2.370390176773071289e+00 -1.925323963165283203e+00 -6.215149164199829102e-01 1.919246912002563477e+00 -9.563703536987304688e-01 1.270493865013122559e+00 2.291602373123168945e+00 -1.254362583160400391e+00 -3.635119199752807617e-01 1.509671211242675781e+00 -2.205647945404052734e+00 -2.053015232086181641e+00 1.917790889739990234e+00 -2.881785392761230469e+00 -1.146134495735168457e+00 6.018423661589622498e-02 3.722973167896270752e-01 -9.326578974723815918e-01 -7.704106569290161133e-01 -4.582740664482116699e-01
-1.073287963867187500e+00 1.858141303062438965e+00 -9.617317318916320801e-01 1.347725987434387207e+00 2.095386505126953125e+00 8.975070714950561523e-01 7.907688617706298828e-01 -1.457397699356079102e+00 2.866202354431152344e+00 -2.603876829147338867e+00 -1.351276397705078125e+00 -2.770966589450836182e-01 -1.276503443717956543e+00 1.310627255588769913e-02 1.694913506507873535e+00 -8.262824416160583496e-01 -2.068939685821533203e+00 4.254124164581298828e-01 4.363580942153930664e-01 -2.322656869888305664e+00 1.849170088768005371e+00 -3.794146776199340820e-01 -5.581759810447692871e-01 2.012608289718627930e+00 -2.586878538131713867e+00 -8.794699311256408691e-01 1.780481576919555664e+00 -2.347459316253662109e+00 1.082086443901062012e+00 3.169846236705780029e-01 1.710875511169433594e+00 8.561292886734008789e-01 -2.046475648880004883e+00 -9.355535507202148438e-01 1.822153329849243164e+00 -4.708870947360992432e-01 8.692372441291809082e-01 1.973239779472351074e+00 1.018193721771240234e+00 2.575078308582305908e-01 -1.908495783805847168e+00 -9.492114186286926270e-01 5.180631279945373535e-01 -6.197174191474914551e-01 -2.787403464317321777e-01 -1.199880599975585938e+00 1.163048624992370605e+00 4.406641721725463867e-01 -7.033100128173828125e-01 1.603856682777404785e+00 2.561031818389892578e+00 7.699856162071228027e-01 -1.300653338432312012e+00 -1.120695710182189941e+00 6.702283024787902832e-01 -1.827292323112487793e+00 6.367992758750915527e-01 -7.989584803581237793e-01 -4.234959371387958527e-03 -2.019705437123775482e-02 1.906366944313049316e+00 -1.591428875923156738e+00 -2.524058580398559570e+00 4.157260954380035400e-01 1.433689951896667480e+00 -9.418807625770568848e-01 1.531382799148559570e-01 1.205721870064735413e-01 -1.185646653175354004e+00 -1.488557696342468262e+00 -1.672653079032897949e+00 2.241467952728271484e+00 1.481873393058776855e+00 7.360110878944396973e-01 -2.822765409946441650e-01 2.766847908496856689e-01 -2.511798381805419922e+00 -9.816475510597229004e-01 3.012160301208496094e+00 1.828609108924865723e+00 -2.421988725662231445e+00 -1.540045619010925293e+00 1.104757189750671387e+00 9.681692123413085938e-01 2.158497810363769531e+00 -1.881589174270629883e+00 1.777145385742187500e+00 1.548190474510192871e+00 -1.660504698753356934e+00 -7.751222848892211914e-01 -1.604625940322875977e+00 1.809376716613769531e+00 -4.139251708984375000e-01 -1.892694115638732910e+00 -8.692894577980041504e-01 -2.194954872131347656e+00 1.290512919425964355e+00 6.791954636573791504e-01 2.777556777000427246e-01 9.650396704673767090e-01
