1.137105584144592285e+00 3.387696743011474609e-01 6.906317472457885742e-01 8.517878502607345581e-02 -1.246290802955627441e+00 -2.519649267196655273e+00 -1.167412102222442627e-01 2.209569931030273438e+00 4.428508281707763672e-01 -2.363934278488159180e+00 7.201129794120788574e-01 -1.977531164884567261e-01 -1.888142347335815430e+00 -6.545511484146118164e-01 -2.273378610610961914e+00 -1.326673179864883423e-01 -9.784125089645385742e-01 -3.473998010158538818e-01 7.771915197372436523e-01 2.331382751464843750e+00 -6.833871603012084961e-01 -4.384889125823974609e+00 -2.543846368789672852e+00 -1.025398373603820801e+00 1.381274342536926270e+00 -7.295677065849304199e-02 -1.496981859207153320e+00 -2.505216121673583984e+00 -1.982463836669921875e+00 1.376218914985656738e+00 3.753491401672363281e+00 4.059496149420738220e-02 3.163570642471313477e+00 -4.068298041820526123e-01 -3.254212617874145508e+00 1.787615865468978882e-01 -1.438127279281616211e+00 1.057082653045654297e+00 -4.855189919471740723e-01 1.088063120841979980e+00
1.858403682708740234e-01 -4.258867740631103516e+00 1.325241208076477051e+00 -7.973755002021789551e-01 3.879803895950317383e+00 1.129674434661865234e+00 9.297938942909240723e-01 1.435993552207946777e+00 -2.109937429428100586e+00 -3.246311545372009277e-01 2.245947122573852539e+00 -2.170376062393188477e+00 -2.199338436126708984e+00 1.710913658142089844e+00 2.918246984481811523e+00 6.465117633342742920e-02 3.766924619674682617e+00 1.139099478721618652e+00 -2.344559907913208008e+00 -3.683638334274291992e+00 -6.908286809921264648e-01 -3.644919157028198242e+00 -2.114685058593750000e+00 -1.517305374145507812e+00 -4.501475691795349121e-01 1.366343140602111816e+00 4.913586378097534180e-01 -2.393602371215820312e+00 -9.851694703102111816e-01 -6.228162646293640137e-01 3.015171051025390625e+00 -5.272666811943054199e-01 1.918636560440063477e+00 -2.417372941970825195e+00 -1.049399852752685547e+00 -4.915318787097930908e-01 -1.402147710323333740e-01 -5.867167711257934570e-01 -8.806487917900085449e-01 -1.425041079521179199e+00
-1.071483254432678223e+00 1.456840515136718750e+00 -1.300740003585815430e+00 -3.533386707305908203e+00 6.903005242347717285e-01 1.380968213081359863e+00 -1.143038868904113770e+00 1.747998237609863281e+00 1.988274604082107544e-01 -1.278548955917358398e+00 -4.064127445220947266e+00 3.046833992004394531e+00 3.789674758911132812e+00 -1.846304178237915039e+00 9.783456325531005859e-01 -8.846327066421508789e-01 2.265056610107421875e+00 -4.790891110897064209e-01 -2.348042964935302734e+00 -7.080389857292175293e-01 1.126289129257202148e+00 5.663239955902099609e-01 9.730410575866699219e-01 3.345987319946289062e+00 4.166364669799804688e-01 3.599643707275390625e+00 -1.919047236442565918e+00 8.943917751312255859e-01 -6.680451035499572754e-01 -3.808017015457153320e+00 -1.558367371559143066e+00 -1.211638569831848145e+00 -5.888792276382446289e-01 6.236945390701293945e-01 -3.917250633239746094e+00 1.683354616165161133e+00 -4.345546722412109375e+00 3.193854093551635742e-01 8.557207137346267700e-02 -2.486347675323486328e+00
1.774079203605651855e+00 1.833856940269470215e+00 -1.308794617652893066e+00 -4.568401575088500977e-01 2.654432296752929688e+00 -3.885816931724548340e-01 -1.659458160400390625e+00 3.294276893138885498e-01 -3.452575445175170898e+00 1.654211997985839844e+00 2.036726236343383789e+00 2.614216566085815430e+00 1.283429622650146484e+00 -1.265369176864624023e+00 -3.078427553176879883e+00 -3.226869106292724609e-01 5.415937304496765137e-01 8.246465325355529785e-01 -2.055075407028198242e+00 2.569969296455383301e-01 -1.033177495002746582e+00 -1.459285974502563477e+00 -2.487214326858520508e+00 4.042799949645996094e+00 -3.513959407806396484e+00 9.436351656913757324e-01 -3.691881895065307617e+00 -3.912833929061889648e+00 -2.438916683197021484e+00 -7.224402427673339844e-01 -1.473321557044982910e+00 9.364260435104370117e-01 -2.419098615646362305e-01 -9.029974937438964844e-01 3.472963869571685791e-01 2.611605167388916016e+00 9.082413911819458008e-01 -1.742586970329284668e+00 2.468425035476684570e+00 -4.528768956661224365e-01
-1.430655837059020996e+00 3.325611948966979980e-01 -1.071516752243041992e+00 6.321576833724975586e-01 -3.245382785797119141e+00 5.792522430419921875e-01 -1.519335508346557617e-01 -1.087254524230957031e+00 -2.044043064117431641e+00 1.552482724189758301e+00 -2.302634954452514648e+00 7.776457816362380981e-02 -3.567996978759765625e+00 4.180712223052978516e+00 -1.000761508941650391e+00 1.401898503303527832e+00 -9.409692287445068359e-01 2.149049997329711914e+00 -1.069396734237670898e+00 5.261734127998352051e-01 -2.811888456344604492e-01 2.807037830352783203e+00 1.259950160980224609e+00 -3.555292606353759766e+00 6.461052298545837402e-01 -3.296478390693664551e-01 -3.181447029113769531e+00 4.673604667186737061e-01 1.432164907455444336e+00 1.758756160736083984e+00 -4.063088595867156982e-01 7.736170291900634766e-02 5.437679886817932129e-01 2.599209785461425781e+00 -1.841014027595520020e+00 1.592610120773315430e+00 -3.926820278167724609e+00 -1.498772501945495605e+00 -8.852174878120422363e-01 -1.389620542526245117e+00
-1.144735589623451233e-01 -4.967217445373535156e+00 -3.153522968292236328e+00 1.539667487144470215e+00 -1.212612628936767578e+00 1.452730178833007812e+00 3.542600870132446289e-01 -1.349307894706726074e+00 -1.788882017135620117e-01 -1.485046982765197754e+00 -2.222774624824523926e-01 5.574034452438354492e-01 1.082220748066902161e-01 -1.206749916076660156e+00 1.286894321441650391e+00 -1.153658509254455566e+00 1.377216935157775879e+00 1.821522116661071777e+00 -3.800320863723754883e+00 2.329799890518188477e+00 -1.695490598678588867e+00 3.463426828384399414e+00 -6.965348720550537109e-01 -7.611107230186462402e-01 1.362024068832397461e+00 -3.563841342926025391e+00 9.983249306678771973e-01 -2.448601722717285156e+00 -1.599031090736389160e-01 -1.977256238460540771e-01 3.504913330078125000e+00 -1.434472918510437012e+00 -3.543439209461212158e-01 1.245057106018066406e+00 1.013795137405395508e+00 7.112978696823120117e-01 1.930412292480468750e+00 -4.743278622627258301e-01 -2.054204940795898438e+00 -3.256064414978027344e+00
2.732943058013916016e+00 3.938567638397216797e-01 -9.010936617851257324e-01 2.097928524017333984e+00 -1.132424473762512207e+00 3.119094371795654297e-01 5.062639713287353516e-01 -7.988562583923339844e-01 -1.344217777252197266e+00 1.038394570350646973e+00 8.856824636459350586e-01 -3.619627714157104492e+00 1.764328598976135254e+00 2.435200691223144531e+00 8.965731263160705566e-01 4.578758478164672852e-01 2.125957489013671875e+00 -7.672506570816040039e-02 -2.174286127090454102e+00 9.934198856353759766e-01 8.778014779090881348e-01 -3.271244049072265625e+00 3.207705974578857422e+00 1.648825109004974365e-01 -2.275002479553222656e+00 1.116942763328552246e+00 -6.074335575103759766e-01 -3.603026866912841797e+00 9.014579653739929199e-01 -1.658269524574279785e+00 -4.943401813507080078e+00 8.133165240287780762e-01 8.524288535118103027e-01 -5.912287235260009766e-01 -2.696615934371948242e+00 7.614939808845520020e-01 -9.945226907730102539e-01 -1.317269563674926758e+00 -2.120394229888916016e+00 -1.912191748619079590e+00
2.360308915376663208e-01 -5.205512523651123047e+00 -1.433842658996582031e+00 -5.389492511749267578e-01 -1.000898361206054688e+00 -7.426988482475280762e-01 3.835992515087127686e-01 4.371073246002197266e-01 -1.588907241821289062e+00 -2.183367013931274414e+00 1.548992037773132324e+00 -1.700048327445983887e+00 3.008500576019287109e+00 -1.019167065620422363e+00 1.560062408447265625e+00 1.564854830503463745e-01 -1.840296268463134766e+00 -4.704777151346206665e-02 -7.454649806022644043e-01 3.534550368785858154e-01 -1.861644387245178223e+00 -1.891802668571472168e+00 -3.227031946182250977e+00 -1.425363421440124512e+00 3.741831779479980469e-01 2.003086328506469727e+00 -1.277697682380676270e+00 1.227064967155456543e+00 -1.605634838342666626e-01 -2.071852684020996094e+00 3.760837078094482422e+00 3.909044563770294189e-01 1.265284180641174316e+00 -3.881171464920043945e+00 3.412442207336425781e+00 -6.733565926551818848e-01 -9.580220095813274384e-03 2.136600255966186523e+00 3.188552856445312500e-01 2.254533022642135620e-02
3.714539706707000732e-01 -9.401312470436096191e-01 -4.374138355255126953e+00 -2.353487730026245117e+00 -2.021684169769287109e+00 -1.542835116386413574e+00 8.466805815696716309e-01 -6.834071278572082520e-01 2.130391120910644531e+00 -1.562710046768188477e+00 1.580737829208374023e+00 -1.282508492469787598e+00 4.711995720863342285e-01 1.907951712608337402e+00 6.469131112098693848e-01 -1.510392189025878906e+00 -4.349337518215179443e-01 -2.435672283172607422e+00 -3.318370342254638672e+00 -6.051872968673706055e-01 2.879583358764648438e+00 1.138014912605285645e+00 5.998958349227905273e-01 7.708607316017150879e-01 2.191908121109008789e+00 1.761602014303207397e-01 -3.164208829402923584e-01 -1.650591731071472168e+00 1.467769861221313477e+00 1.228379487991333008e+00 2.686442375183105469e+00 -7.279551029205322266e-02 1.847167611122131348e-01 -1.861334443092346191e+00 -1.420012950897216797e+00 -3.753345608711242676e-01 -1.715173125267028809e+00 1.674478292465209961e+00 -9.496133923530578613e-01 -2.529947519302368164e+00
-1.217674136161804199e+00 2.673926115036010742e+00 -2.335223197937011719e+00 1.339198648929595947e-01 -3.758278131484985352e+00 1.227810263633728027e+00 1.060398936271667480e+00 -1.961781382560729980e+00 -1.540194749832153320e+00 -1.876136183738708496e+00 -3.334438085556030273e+00 -3.441936075687408447e-01 -2.632299661636352539e+00 -7.635703086853027344e-01 1.382131218910217285e+00 1.693013906478881836e+00 -1.322383046150207520e+00 8.909289538860321045e-02 1.325349569320678711e+00 2.562706708908081055e+00 -7.954275608062744141e-01 9.193779826164245605e-01 -1.131577968597412109e+00 2.986644268035888672e+00 -3.816565990447998047e+00 -3.006279230117797852e+00 -1.597886532545089722e-01 5.307076573371887207e-01 1.921685457229614258e+00 -2.856445789337158203e+00 1.910774588584899902e+00 1.435009121894836426e+00 -1.168854475021362305e+00 -4.590496122837066650e-01 2.080910444259643555e+00 -5.595062375068664551e-01 2.143414020538330078e+00 -1.044925332069396973e+00 8.477299213409423828e-01 -1.631398558616638184e+00
8.020274639129638672e-01 9.837631583213806152e-01 5.400544404983520508e-01 2.021574735641479492e+00 -7.315251827239990234e-01 -4.440281093120574951e-01 8.193951845169067383e-02 -1.944903850555419922e+00 -1.335455775260925293e+00 -2.030866384506225586e+00 -1.465407848358154297e+00 8.428119122982025146e-02 -1.191291213035583496e+00 -8.649498820304870605e-01 2.771463155746459961e+00 1.336352705955505371e+00 -4.114427566528320312e-01 3.044250011444091797e-01 2.320805549621582031e+00 -5.176723599433898926e-01 2.294580459594726562e+00 -1.691655516624450684e+00 1.321686863899230957e+00 -3.762872695922851562e+00 3.148534297943115234e-01 1.483683824539184570e+00 -1.526101350784301758e+00 -2.273813724517822266e+00 2.895671606063842773e+00 1.171376943588256836e+00 -2.405982732772827148e+00 9.709093570709228516e-01 -4.639374732971191406e+00 -1.876007437705993652e+00 -2.166173696517944336e+00 8.149878382682800293e-01 -1.304495930671691895e+00 -2.331792831420898438e+00 5.430348515510559082e-01 3.957433700561523438e-01
-6.784079074859619141e-01 -5.459623932838439941e-01 -9.647771716117858887e-01 7.962963581085205078e-01 1.030712842941284180e+00 -4.214238166809082031e+00 -2.498588323593139648e+00 -2.329318046569824219e+00 3.383977651596069336e+00 -7.191060781478881836e-01 -3.055813312530517578e+00 2.754081487655639648e-01 2.685535907745361328e+00 1.076872199773788452e-01 -4.141772270202636719e+00 -2.498650074005126953e+00 1.323987960815429688e+00 -1.437166333198547363e+00 -2.948697328567504883e+00 1.106277585029602051e+00 -2.294272661209106445e+00 1.895450115203857422e+00 2.477399349212646484e+00 -3.421445786952972412e-01 -1.274665474891662598e+00 3.728330135345458984e+00 -6.090016365051269531e-01 1.489428162574768066e+00 2.184916019439697266e+00 1.303131461143493652e+00 -8.117202669382095337e-03 -2.136364936828613281e+00 -2.359826803207397461e+00 3.064935207366943359e-01 1.326163113117218018e-02 2.726386547088623047e+00 -8.975185155868530273e-01 -2.602202415466308594e+00 2.680231571197509766e+00 -1.110569119453430176e+00
-1.437247514724731445e+00 -2.140155434608459473e-01 3.093365430831909180e+00 -2.034853935241699219e+00 1.315010905265808105e+00 4.127970933914184570e-01 1.830088138580322266e+00 -1.758353948593139648e+00 5.459176898002624512e-01 -1.531234383583068848e+00 1.200144410133361816e+00 1.893163084983825684e+00 -7.049458026885986328e-01 1.979365468025207520e+00 -3.374335169792175293e-01 -3.556702375411987305e+00 -1.813470840454101562e+00 4.546135067939758301e-01 2.853681802749633789e+00 1.636753797531127930e+00 -4.089823365211486816e-01 1.008906245231628418e+00 -7.727267146110534668e-01 -1.542319059371948242e+00 2.038241863250732422e+00 3.017837762832641602e+00 -4.589301109313964844e+00 1.771382689476013184e+00 8.277848362922668457e-01 -1.876535654067993164e+00 -7.608956694602966309e-01 -3.289516210556030273e+00 -2.987364768981933594e+00 -1.647024393081665039e+00 -5.616949200630187988e-01 -1.548969030380249023e+00 2.434110164642333984e+00 -4.221714019775390625e+00 -1.257090568542480469e+00 -4.477059245109558105e-01
-1.783393025398254395e-01 2.263827323913574219e+00 -3.074047327041625977e+00 3.936836421489715576e-01 9.936008453369140625e-01 3.174458503723144531e+00 -1.467352509498596191e+00 -1.690548896789550781e+00 5.322287082672119141e-01 -1.037673950195312500e+00 -2.796855270862579346e-01 -3.882725238800048828e-01 -1.137043118476867676e+00 -5.686078071594238281e-01 2.313099384307861328e+00 1.405272126197814941e+00 1.763298392295837402e+00 3.124763071537017822e-02 1.400422900915145874e-01 4.338894188404083252e-01 1.858378201723098755e-01 5.911566615104675293e-01 -1.241852939128875732e-01 -2.517660381272435188e-03 -1.673397898674011230e+00 -1.340658068656921387e-01 9.488191455602645874e-02 -2.859188795089721680e+00 -4.135406494140625000e+00 2.349824428558349609e+00 1.828022718429565430e+00 -4.005402326583862305e-01 -1.327079296112060547e+00 -1.211862683296203613e+00 -4.693360328674316406e-01 -2.430602312088012695e+00 -3.853189468383789062e+00 2.935459613800048828e+00 -3.042909145355224609e+00 -1.839595079421997070e+00
2.950090408325195312e+00 -1.497833847999572754e+00 -2.537179231643676758e+00 2.638741493225097656e+00 1.695730924606323242e+00 4.620390832424163818e-01 -3.359746694564819336e+00 -1.343102216720581055e+00 2.104967832565307617e+00 -1.372753530740737915e-01 -1.505785346031188965e+00 3.914436101913452148e-01 -8.393998146057128906e-01 1.360467076301574707e+00 3.615147113800048828e+00 7.471016049385070801e-01 -9.207484722137451172e-01 4.801747202873229980e-01 -1.724670648574829102e+00 -3.485371470451354980e-01 -4.145852565765380859e+00 5.842626094818115234e-01 -1.485310077667236328e+00 2.431369721889495850e-01 1.205809473991394043e+00 -7.605474591255187988e-01 -2.436510324478149414e+00 3.431563079357147217e-01 1.110181808471679688e+00 -2.077684879302978516e+00 -3.132914066314697266e+00 1.343259811401367188e-01 2.041634321212768555e-01 5.115977525711059570e-01 2.107225179672241211e+00 -1.998232603073120117e+00 -2.426345348358154297e+00 -7.425790429115295410e-01 1.577699661254882812e+00 -2.070680379867553711e+00
-3.706225633621215820e+00 4.399768829345703125e+00 -1.424489140510559082e+00 -1.823901295661926270e+00 -1.586451053619384766e+00 7.055975198745727539e-01 -2.205227851867675781e+00 6.868187785148620605e-01 2.194089412689208984e+00 -1.310688853263854980e+00 -1.587208867073059082e+00 -4.650544166564941406e+00 -1.502625107765197754e+00 1.298993825912475586e+00 7.358651757240295410e-01 2.120522856712341309e-01 -9.775636792182922363e-01 1.820630073547363281e+00 -1.101125836372375488e+00 1.951817035675048828e+00 -6.034235358238220215e-01 1.300781846046447754e+00 7.521535754203796387e-01 3.041596710681915283e-01 9.122338294982910156e-01 -9.773021936416625977e-01 -9.050875902175903320e-01 1.382265806198120117e+00 7.155226916074752808e-02 -1.606317520141601562e+00 1.542784929275512695e+00 -1.355490207672119141e+00 1.445758938789367676e+00 -3.375987529754638672e+00 1.324176669120788574e+00 -3.513589501380920410e-01 -8.241920471191406250e-01 -1.387140393257141113e+00 -5.970071554183959961e-01 2.030465006828308105e-01
-1.938650488853454590e+00 -1.814787268638610840e+00 -5.646963119506835938e-01 -2.603197395801544189e-01 9.357220530509948730e-01 1.564027786254882812e+00 -1.403627276420593262e+00 1.027651071548461914e+00 -4.571044921875000000e+00 2.817480564117431641e+00 6.682034134864807129e-01 1.384721755981445312e+00 -2.076833248138427734e+00 1.111801981925964355e+00 -2.079444885253906250e+00 1.522991418838500977e+00 6.884371638298034668e-01 -3.539147377014160156e+00 6.032848954200744629e-01 -1.648132324218750000e+00 -4.535539150238037109e+00 1.528661489486694336e+00 -9.220086932182312012e-01 -9.190949201583862305e-01 3.039068937301635742e+00 -1.512243151664733887e+00 5.018491148948669434e-01 1.365697264671325684e+00 2.340712308883666992e+00 -2.784339427947998047e+00 2.239236116409301758e+00 2.462632656097412109e+00 7.163957357406616211e-01 -3.229667901992797852e+00 -2.564271688461303711e+00 -7.151392102241516113e-01 1.433398723602294922e+00 2.367719888687133789e+00 -9.531008601188659668e-01 -2.755616426467895508e+00
-2.081143140792846680e+00 7.060268521308898926e-01 2.380183219909667969e+00 -8.554344773292541504e-01 1.150284290313720703e+00 -9.970138072967529297e-01 2.241379737854003906e+00 -3.045161008834838867e+00 -5.208273530006408691e-01 5.401734709739685059e-01 1.621052771806716919e-01 -1.229431390762329102e+00 -1.804134130477905273e+00 2.255832910537719727e+00 -1.113632678985595703e+00 -9.179585576057434082e-01 1.862767696380615234e+00 6.986807584762573242e-01 -1.303025186061859131e-01 -2.811891555786132812e+00 -2.199057579040527344e+00 -2.822954893112182617e+00 8.171428442001342773e-01 -2.254037708044052124e-01 -5.735165476799011230e-01 -4.999317526817321777e-01 -1.072096347808837891e+00 1.753310918807983398e+00 -3.933573365211486816e-01 -7.435557842254638672e-01 -7.245301604270935059e-01 -1.726915597915649414e+00 1.282727718353271484e+00 -1.542783617973327637e+00 -2.451708465814590454e-01 3.921334028244018555e+00 -2.140206813812255859e+00 -1.795993149280548096e-01 1.239929676055908203e+00 -2.430131584405899048e-01
-1.714871406555175781e+00 2.351845741271972656e+00 -6.073541641235351562e-01 2.857113122940063477e+00 -2.129448890686035156e+00 -1.495740056037902832e+00 -2.807844877243041992e+00 -6.600159406661987305e-02 -1.598185539245605469e+00 1.242417335510253906e+00 -9.518135786056518555e-01 1.121410369873046875e+00 -2.720998287200927734e+00 -3.353140950202941895e-01 2.237670898437500000e+00 -9.177699685096740723e-01 1.761806845664978027e+00 -5.328282713890075684e-01 8.484173417091369629e-01 2.346730709075927734e+00 -1.188277244567871094e+00 -1.908359378576278687e-01 -1.209962248802185059e+00 3.539773225784301758e+00 -1.489246487617492676e-01 7.952523827552795410e-01 -4.209448397159576416e-02 5.420631170272827148e-02 2.121223449707031250e+00 -3.456083536148071289e+00 -1.666551470756530762e+00 -9.008840322494506836e-01 1.719284772872924805e+00 -1.178584933280944824e+00 -2.307260990142822266e+00 -5.026065826416015625e+00 2.398580610752105713e-01 1.601373314857482910e+00 -4.064229428768157959e-01 -2.652769088745117188e+00
2.263563573360443115e-01 4.505455195903778076e-01 1.897443890571594238e+00 -1.055142521858215332e+00 2.779474258422851562e-01 -1.875697851181030273e+00 5.055273771286010742e-01 -4.902532696723937988e-01 1.798298478126525879e+00 -1.063465833663940430e+00 -2.001841068267822266e+00 2.469896823167800903e-01 -2.396410942077636719e+00 1.344812512397766113e+00 -3.188510179519653320e+00 -3.137295484542846680e+00 2.321721315383911133e+00 3.325661659240722656e+00 -2.280950732529163361e-02 2.495293855667114258e+00 1.124400377273559570e+00 -5.043340682983398438e+00 4.912786185741424561e-01 -2.792355060577392578e+00 -3.022586703300476074e-01 -4.997648298740386963e-01 -1.880248904228210449e+00 1.876233816146850586e+00 2.490689754486083984e+00 2.453400939702987671e-02 -1.484876513481140137e+00 -8.445791006088256836e-01 3.671139180660247803e-01 2.627669572830200195e+00 -4.063954353332519531e+00 -2.292818784713745117e+00 8.694176077842712402e-01 -3.972287774085998535e-01 -1.389428377151489258e+00 8.241918683052062988e-02
-5.633444786071777344e-01 -2.644721269607543945e+00 -3.295016527175903320e+00 -4.135523796081542969e+00 -1.792485952377319336e+00 -2.108285903930664062e+00 5.015252232551574707e-01 -8.635921478271484375e-01 1.910071492195129395e+00 -2.253767728805541992e+00 1.056657195091247559e+00 6.335725188255310059e-01 7.261438369750976562e-01 1.038270592689514160e+00 -1.988357678055763245e-02 1.373422861099243164e+00 2.861494302749633789e+00 -1.250608801841735840e+00 -1.566522568464279175e-01 -3.504106044769287109e+00 -1.912050843238830566e+00 1.604074358940124512e+00 -4.390173405408859253e-02 -1.188594937324523926e+00 3.112278223037719727e+00 1.541148424148559570e+00 -1.212712168693542480e+00 -4.176057815551757812e+00 -1.776424884796142578e+00 -6.356561779975891113e-01 -1.312681436538696289e+00 3.086236953735351562e+00 1.841568708419799805e+00 -4.184772968292236328e-01 1.957399964332580566e+00 1.584965467453002930e+00 -2.521255970001220703e+00 -1.183737754821777344e+00 9.389693140983581543e-01 2.625067472457885742e+00
-1.545640587806701660e+00 -1.294736742973327637e+00 1.697096586227416992e+00 -2.374964714050292969e+00 -8.415120244026184082e-01 -1.254909634590148926e+00 -3.063984155654907227e+00 -9.664270281791687012e-01 -1.322038173675537109e+00 3.910943269729614258e+00 4.169877171516418457e-01 -9.935082495212554932e-02 -1.012845277786254883e+00 3.113332509994506836e+00 -2.211292028427124023e+00 2.090480566024780273e+00 8.530870079994201660e-02 1.310792684555053711e+00 -2.404515266418457031e+00 5.436990261077880859e-01 5.101174712181091309e-01 -1.759043455123901367e+00 -1.176236748695373535e+00 1.293061494827270508e+00 9.389371871948242188e-01 -2.602981328964233398e+00 -3.771601617336273193e-01 -2.119865179061889648e+00 -2.625153064727783203e+00 3.493309974670410156e+00 -5.311410903930664062e+00 -2.265807390213012695e+00 1.439787596464157104e-01 3.968504190444946289e+00 1.134840011596679688e+00 -9.117170572280883789e-01 4.788244366645812988e-01 1.554375171661376953e+00 9.615792632102966309e-01 -3.156487941741943359e-01
1.510158479213714600e-01 2.444989919662475586e+00 9.496914744377136230e-01 -7.567962408065795898e-01 2.828510701656341553e-01 1.269506931304931641e+00 2.691900491714477539e+00 -8.861916661262512207e-01 5.823432803153991699e-01 7.483919858932495117e-01 -6.154153347015380859e-01 -1.806141257286071777e+00 -3.283082485198974609e+00 -1.781365752220153809e+00 1.452456593513488770e+00 3.583801269531250000e+00 -1.234910562634468079e-01 -2.322113752365112305e+00 -8.079488277435302734e-01 1.329627871513366699e+00 -1.035763263702392578e+00 -4.186928749084472656e+00 3.318431675434112549e-01 -9.357445240020751953e-01 -4.735175371170043945e-01 -1.775145173072814941e+00 2.841324090957641602e+00 -2.338093757629394531e+00 -2.349644422531127930e+00 1.766516804695129395e+00 1.796005845069885254e+00 2.695744991302490234e+00 -3.874043941497802734e+00 1.519120335578918457e-01 7.030963301658630371e-01 -4.614589214324951172e+00 2.444797009229660034e-01 -2.942123651504516602e+00 -1.966024637222290039e+00 2.122136592864990234e+00
-4.105188369750976562e+00 -1.128229945898056030e-01 1.152210235595703125e+00 -2.476013004779815674e-01 1.935289382934570312e+00 1.485959768295288086e+00 -3.637936353683471680e+00 -9.274905323982238770e-01 2.120967626571655273e+00 -2.645162820816040039e+00 -2.513650655746459961e+00 -1.636629343032836914e+00 -1.764871597290039062e+00 3.091525733470916748e-01 2.155644260346889496e-02 -9.194869995117187500e-01 -3.099575996398925781e+00 1.036982536315917969e+00 1.723022103309631348e+00 -6.686643362045288086e-01 3.604768991470336914e+00 -8.444958925247192383e-01 1.466762781143188477e+00 -2.617812156677246094e+00 6.085007190704345703e-01 2.408576756715774536e-01 -1.308464556932449341e-01 6.071336865425109863e-01 -3.087265014648437500e+00 9.458282589912414551e-01 -9.861782789230346680e-01 -1.310329675674438477e+00 9.903785586357116699e-01 2.302340507507324219e+00 3.192298650741577148e+00 -8.762798905372619629e-01 1.672245979309082031e+00 -3.271037101745605469e+00 -2.789830684661865234e+00 8.922211527824401855e-01
-2.552430629730224609e-01 2.730675458908081055e+00 -1.203098446130752563e-01 -3.005010366439819336e+00 -2.574887037277221680e+00 2.218440294265747070e+00 -7.354799509048461914e-01 -6.448072195053100586e-01 7.886009290814399719e-03 -1.151908516883850098e+00 -1.324612259864807129e+00 -8.703020811080932617e-01 3.223994016647338867e+00 3.118102788925170898e+00 -1.971389412879943848e+00 -1.660500049591064453e+00 4.724699854850769043e-01 -3.718981742858886719e-01 -3.628262758255004883e+00 -1.222453862428665161e-01 3.648282885551452637e-01 3.167825698852539062e+00 1.713599681854248047e+00 -1.105412006378173828e+00 -7.432150244712829590e-01 -2.969941198825836182e-01 1.560804605484008789e+00 3.038607597351074219e+00 -5.882824659347534180e-01 9.049069881439208984e-01 -4.280385375022888184e-01 -4.498432159423828125e+00 -1.712680935859680176e+00 -1.111748337745666504e+00 8.206839561462402344e-01 -2.099815368652343750e+00 1.567977368831634521e-01 -7.735248208045959473e-01 -2.507983922958374023e+00 -4.942671358585357666e-01
-7.839902639389038086e-01 5.163131952285766602e-01 5.342201590538024902e-01 2.050623416900634766e+00 -1.746622085571289062e+00 -3.975524306297302246e-01 -1.818519085645675659e-01 1.751017451286315918e+00 -1.155436515808105469e+00 -1.105608344078063965e+00 -1.077236056327819824e+00 -2.673973441123962402e-01 2.450374603271484375e+00 -1.278932213783264160e+00 -3.571895837783813477e+00 -2.887516260147094727e+00 9.211341738700866699e-01 -8.322562575340270996e-01 -4.789229631423950195e-01 -8.890401124954223633e-01 -6.814960837364196777e-01 -1.746308565139770508e+00 2.743013381958007812e+00 -5.073734760284423828e+00 -1.310439944267272949e+00 -9.628266692161560059e-01 1.551789641380310059e-01 2.815252065658569336e+00 -3.464079618453979492e+00 1.108080614358186722e-02 -9.521870017051696777e-01 -7.793566584587097168e-01 -4.690558612346649170e-01 1.783974528312683105e+00 -7.741051912307739258e-01 -1.814884901046752930e+00 4.077030658721923828e+00 2.287455648183822632e-02 3.173926830291748047e+00 2.918996382504701614e-03
-1.277092099189758301e-01 7.344921231269836426e-01 -3.302192687988281250e+00 -3.911571979522705078e+00 2.393325328826904297e+00 -1.313533902168273926e+00 -2.753879785537719727e+00 3.987071990966796875e+00 1.857867360115051270e+00 5.887685418128967285e-01 -1.416310906410217285e+00 2.788884878158569336e+00 -1.457911282777786255e-01 1.291719317436218262e+00 -3.407902419567108154e-01 -8.437910079956054688e-01 -1.598780274391174316e+00 5.897857546806335449e-01 8.466832637786865234e-01 -1.197036743164062500e+00 -4.213291168212890625e+00 -1.685167312622070312e+00 -4.787307977676391602e-01 8.978947997093200684e-02 1.219957023859024048e-01 6.695778369903564453e-01 -2.113731384277343750e+00 2.919259071350097656e+00 -4.164569377899169922e+00 5.828110575675964355e-01 -3.733083486557006836e+00 -5.453088879585266113e-01 2.825917243957519531e+00 -3.642160296440124512e-01 1.497296929359436035e+00 -2.398310184478759766e+00 -8.476577401161193848e-01 1.140269875526428223e+00 6.255608201026916504e-01 1.415125250816345215e+00
3.232208013534545898e+00 1.296267271041870117e+00 3.833528235554695129e-02 1.733801960945129395e+00 6.325317025184631348e-01 -2.779238939285278320e+00 1.666374921798706055e+00 -2.519214868545532227e+00 -1.540250331163406372e-01 -1.680586218833923340e+00 -2.201395034790039062e+00 -5.918117165565490723e-01 -2.712779283523559570e+00 -5.305706858634948730e-01 3.038369417190551758e+00 2.631227485835552216e-02 -1.030353307723999023e+00 8.605467081069946289e-01 -1.105485439300537109e+00 2.649765491485595703e+00 -4.517779350280761719e+00 -1.493687033653259277e+00 -1.855847835540771484e+00 -2.487067937850952148e+00 -3.664547443389892578e+00 3.361482381820678711e+00 2.599730491638183594e+00 -3.891894817352294922e-01 -3.368437886238098145e-01 -6.322190761566162109e-01 2.811860084533691406e+00 -2.323805809020996094e+00 6.446262001991271973e-01 -3.019405603408813477e+00 -6.657112240791320801e-01 2.042899578809738159e-01 8.521739840507507324e-01 -7.186416983604431152e-01 1.557478070259094238e+00 -6.120856404304504395e-01
4.857721030712127686e-01 -2.367128133773803711e+00 1.437291741371154785e+00 -4.527966678142547607e-01 -2.647984504699707031e+00 -1.231511950492858887e+00 -2.033904075622558594e+00 3.113150596618652344e-01 8.154742121696472168e-01 -3.592077732086181641e+00 -2.753446251153945923e-02 8.794795274734497070e-01 -3.016686916351318359e+00 3.811490833759307861e-01 -5.046017646789550781e+00 2.361869364976882935e-01 2.013242244720458984e+00 2.866342067718505859e+00 -5.506291985511779785e-01 -2.665314823389053345e-02 4.021692276000976562e+00 8.589599728584289551e-01 1.130641818046569824e+00 -1.935604214668273926e+00 -1.438422799110412598e+00 7.316828966140747070e-01 1.309766650199890137e+00 -7.172453999519348145e-01 8.642393350601196289e-02 -9.530365467071533203e-01 3.325312376022338867e+00 -1.725577592849731445e+00 2.634142637252807617e+00 -2.245797663927078247e-01 2.913787961006164551e-01 -3.249330759048461914e+00 -1.407550334930419922e+00 1.155322343111038208e-01 9.205658435821533203e-01 -3.324734210968017578e+00
-1.903231620788574219e+00 -1.912489414215087891e+00 3.090375900268554688e+00 -2.117394804954528809e-01 -1.947029232978820801e+00 5.745130181312561035e-01 6.839144825935363770e-01 2.167285203933715820e+00 2.793780565261840820e+00 -3.315021991729736328e+00 -1.214878678321838379e+00 -2.244748830795288086e+00 -1.452570676803588867e+00 3.308979034423828125e+00 1.484793543815612793e+00 -1.008345484733581543e+00 -1.625260233879089355e+00 -5.691971182823181152e-01 -1.473716020584106445e+00 -1.754803776741027832e+00 -1.728528887033462524e-01 3.877550363540649414e-01 -1.214345097541809082e+00 -3.279845237731933594e+00 1.324378609657287598e+00 2.719633102416992188e+00 2.075275659561157227e+00 -7.351146340370178223e-01 -1.473995089530944824e+00 -2.512486219406127930e+00 -1.689630389213562012e+00 7.661736011505126953e-01 3.357783555984497070e+00 1.895852327346801758e+00 -5.772753953933715820e-01 1.142858743667602539e+00 9.964008927345275879e-01 -5.178442001342773438e-01 -1.234769344329833984e+00 -4.271599292755126953e+00
-8.187162280082702637e-01 3.507190644741058350e-01 4.339084327220916748e-01 1.156753778457641602e+00 -2.294727563858032227e+00 -7.778294086456298828e-01 1.187103033065795898e+00 -2.742918133735656738e-01 -1.047327756881713867e+00 -5.564500689506530762e-01 3.609704673290252686e-01 6.048842668533325195e-01 1.680534601211547852e+00 3.801809549331665039e-01 -3.431072473526000977e+00 1.164705872535705566e+00 -1.027148604393005371e+00 -8.645368218421936035e-01 -1.004504337906837463e-01 6.917189359664916992e-01 2.130021333694458008e+00 -1.768602013587951660e+00 -4.505235195159912109e+00 1.584826469421386719e+00 6.040667295455932617e-01 -2.239684581756591797e+00 1.369996070861816406e-01 -7.520046234130859375e-01 -6.763491630554199219e-01 -4.366789340972900391e+00 1.273314058780670166e-01 -3.428955554962158203e+00 1.105535507202148438e+00 9.447450190782546997e-02 2.766254425048828125e+00 8.178150057792663574e-01 4.055664837360382080e-01 -3.331481218338012695e-01 2.976031228899955750e-02 2.538919150829315186e-01
3.795794486999511719e+00 -1.513513088226318359e+00 -4.932214319705963135e-01 6.859366893768310547e-01 -7.490582466125488281e-01 -2.690677165985107422e+00 -1.183824896812438965e+00 -2.926261186599731445e+00 2.441590070724487305e+00 1.116214036941528320e+00 4.816924035549163818e-01 2.874861478805541992e+00 -2.728731393814086914e+00 9.240014553070068359e-01 3.630801439285278320e-01 -2.135508060455322266e+00 7.833589315414428711e-01 -2.996112108230590820e+00 -5.691219568252563477e-01 -1.021760925650596619e-01 3.161967992782592773e+00 -1.701504826545715332e+00 5.968078374862670898e-01 1.146653652191162109e+00 -4.700318276882171631e-01 -3.081766128540039062e+00 -3.180139064788818359e+00 -1.402430772781372070e+00 8.170085549354553223e-01 -2.632490992546081543e-01 1.098171710968017578e+00 -1.877592325210571289e+00 -2.523079872131347656e+00 -7.809574007987976074e-01 -1.011539578437805176e+00 9.884738326072692871e-01 2.092334926128387451e-01 4.256567001342773438e+00 -2.228623390197753906e+00 -1.055416226387023926e+00
3.024116039276123047e+00 -1.322237849235534668e+00 9.196043014526367188e-01 -4.094718933105468750e+00 1.591645121574401855e+00 -1.482476472854614258e+00 -4.773952364921569824e-01 -1.056175112724304199e+00 -9.619066715240478516e-01 3.957211971282958984e-01 9.805789217352867126e-03 -1.773883588612079620e-03 -2.115883976221084595e-01 -3.344284892082214355e-01 -2.181198835372924805e+00 -8.153421282768249512e-01 9.292225837707519531e-01 8.136038184165954590e-01 -1.303485631942749023e+00 1.025904893875122070e+00 -1.783438086509704590e+00 2.523675680160522461e+00 1.929110169410705566e+00 -4.604723930358886719e+00 -1.288684606552124023e+00 8.108092546463012695e-01 2.585493803024291992e+00 -1.589556485414505005e-01 -2.039513349533081055e+00 5.072461366653442383e-01 5.259928107261657715e-01 -4.531706571578979492e-01 -2.922050952911376953e+00 -9.644525647163391113e-01 2.221616744995117188e+00 9.512159228324890137e-01 -1.940926074981689453e+00 -1.161232776939868927e-02 3.012012243270874023e-01 -1.998960971832275391e+00
-2.524338722229003906e+00 2.196659564971923828e+00 -3.890563488006591797e+00 2.840735435485839844e+00 -2.080419063568115234e+00 2.095118165016174316e-01 1.318940997123718262e+00 2.857573628425598145e-01 -3.342837333679199219e+00 1.210130572319030762e+00 2.099832773208618164e+00 -3.849866628646850586e+00 4.332630157470703125e+00 -1.722700953483581543e+00 -1.626902222633361816e+00 -2.817103564739227295e-01 -1.087885856628417969e+00 -2.566870689392089844e+00 -4.671574115753173828e+00 1.777204275131225586e+00 -1.675030112266540527e+00 5.604575872421264648e-01 -4.557661116123199463e-01 1.299738287925720215e-01 -9.444380402565002441e-01 -2.784982621669769287e-01 3.877642393112182617e+00 -1.789031386375427246e+00 -1.910768270492553711e+00 -8.046189695596694946e-02 -7.790608406066894531e-01 2.454341411590576172e+00 -1.066539406776428223e+00 4.583276510238647461e-01 -8.227943778038024902e-01 -1.582543134689331055e+00 1.024103641510009766e+00 5.333903431892395020e-01 1.729444980621337891e+00 1.573394298553466797e+00
1.001900076866149902e+00 -7.517988979816436768e-02 -5.279958844184875488e-01 -9.360541701316833496e-01 1.521361112594604492e+00 -2.641411781311035156e+00 -1.043660521507263184e+00 -1.719405531883239746e+00 1.120046377182006836e+00 3.840387821197509766e+00 -5.859050154685974121e-01 -2.187425613403320312e+00 4.720150828361511230e-01 -1.085246682167053223e+00 -3.770962715148925781e+00 -9.631869196891784668e-01 4.210676193237304688e+00 -1.069173932075500488e+00 5.665170550346374512e-01 -1.047492325305938721e-01 8.934380412101745605e-01 -9.160580635070800781e-01 -4.954784393310546875e+00 -1.826210379600524902e+00 2.099881470203399658e-01 3.917848765850067139e-01 -1.742921352386474609e+00 -6.355164051055908203e-01 -3.588517606258392334e-01 1.827029466629028320e+00 -4.610863626003265381e-01 2.672537803649902344e+00 -1.138359427452087402e+00 1.314351797103881836e+00 -8.178431391716003418e-01 2.784308433532714844e+00 1.143403053283691406e+00 -3.741070032119750977e-01 -4.813889026641845703e+00 1.303923726081848145e+00
5.516436100006103516e-01 -6.668242812156677246e-01 -5.034320354461669922e-01 -2.644261121749877930e+00 -4.172542095184326172e-01 -1.400553703308105469e+00 -1.063603520393371582e+00 -1.254503846168518066e+00 -3.146723270416259766e+00 1.432445287704467773e+00 1.782270669937133789e+00 -9.437246918678283691e-01 -1.157198309898376465e+00 -1.455713152885437012e+00 9.070512652397155762e-02 3.442854166030883789e+00 -7.106894254684448242e-02 -4.787005901336669922e+00 -8.771606683731079102e-01 -5.066969394683837891e-01 -3.862109482288360596e-01 -1.120680212974548340e+00 -1.019008994102478027e+00 2.515794992446899414e+00 -2.305556774139404297e+00 5.862538814544677734e-01 2.111313104629516602e+00 8.999609202146530151e-02 2.721266508102416992e+00 -2.151734828948974609e+00 -7.956784963607788086e-02 -2.581500053405761719e+00 2.380607604980468750e+00 -2.113990634679794312e-01 -7.848056964576244354e-03 -1.388058066368103027e-01 -1.563269972801208496e+00 -1.596153497695922852e+00 1.220210909843444824e+00 3.093144893646240234e+00
-3.957246780395507812e+00 -3.016451597213745117e-01 2.689970970153808594e+00 4.840263128280639648e-01 -1.136500686407089233e-01 6.235257387161254883e-01 2.369573116302490234e+00 3.124886155128479004e-01 -1.874888777732849121e+00 1.147085070610046387e+00 8.942326307296752930e-01 1.604599475860595703e+00 -1.282220244407653809e+00 -1.697891235351562500e+00 -2.920294284820556641e+00 1.581537485122680664e+00 -2.613580703735351562e+00 4.472871720790863037e-01 -1.908399462699890137e+00 6.149890422821044922e-01 5.395552888512611389e-02 -1.964888453483581543e+00 9.339087605476379395e-01 -9.069891571998596191e-01 -4.136736869812011719e+00 -1.926295608282089233e-01 -5.546998977661132812e-01 -9.974586963653564453e-01 9.349589347839355469e-01 4.142253398895263672e+00 3.353947162628173828e+00 -3.084115028381347656e+00 -1.264609813690185547e+00 -2.100666522979736328e+00 -2.088765144348144531e+00 -1.381433963775634766e+00 -1.163601160049438477e+00 -2.346594810485839844e+00 1.112516283988952637e+00 3.143069982528686523e+00
-5.271717905998229980e-01 -2.673865258693695068e-01 7.740502953529357910e-01 3.822386741638183594e+00 -1.783091306686401367e+00 -1.909493446350097656e+00 -2.396887063980102539e+00 -7.089673280715942383e-01 5.601538419723510742e-01 3.486677706241607666e-01 2.167274951934814453e+00 -8.635039925575256348e-01 -1.780969500541687012e+00 -3.655994176864624023e+00 -1.514847397804260254e+00 2.885831356048583984e+00 6.416001915931701660e-02 -2.308110237121582031e+00 -2.188959121704101562e+00 -2.534009933471679688e+00 -2.753250360488891602e+00 2.972314953804016113e-01 2.701614379882812500e+00 -7.790293693542480469e-01 2.158287048339843750e+00 -1.298387527465820312e+00 -2.921272754669189453e+00 -1.785815000534057617e+00 2.981114387512207031e-01 -1.798869371414184570e+00 -2.500111579895019531e+00 8.906251788139343262e-01 2.045205116271972656e+00 3.561721563339233398e+00 -1.419211864471435547e+00 -2.921984791755676270e-01 9.676673412322998047e-01 1.974966049194335938e+00 9.373977780342102051e-01 6.071924567222595215e-01
-4.038050770759582520e-01 1.072895154356956482e-02 -1.154061108827590942e-01 1.886332631111145020e+00 -8.898856639862060547e-01 -2.499470472335815430e+00 -2.650228977203369141e+00 -1.363382339477539062e+00 -1.000709414482116699e+00 -1.517285704612731934e+00 -7.785158157348632812e-01 2.104898214340209961e+00 4.308737218379974365e-01 4.921111166477203369e-01 6.801899075508117676e-01 2.508335411548614502e-01 -3.497224330902099609e+00 1.862235426902770996e+00 -1.651242852210998535e+00 8.347523212432861328e-01 -1.876323819160461426e+00 -2.125089645385742188e+00 -6.873115897178649902e-01 1.505551576614379883e+00 1.942258358001708984e+00 -1.179025530815124512e+00 -1.387382507324218750e+00 -1.349683403968811035e+00 5.071195363998413086e-01 2.673449993133544922e+00 1.216999173164367676e+00 -2.659456253051757812e+00 2.946434020996093750e+00 -3.990650177001953125e+00 -2.712378740310668945e+00 1.848340749740600586e+00 -1.516708493232727051e+00 -2.461678385734558105e-01 6.704595685005187988e-01 1.188833117485046387e+00
-2.321581244468688965e-01 -3.468692779541015625e+00 1.088196873664855957e+00 -5.548217296600341797e-01 1.688619613647460938e+00 -1.673070311546325684e+00 1.858807682991027832e+00 -2.279720067977905273e+00 2.185868918895721436e-01 1.468997746706008911e-01 -2.874000549316406250e+00 5.652065873146057129e-01 -1.496090888977050781e-01 -2.148788928985595703e+00 -1.485478043556213379e+00 -2.622083663940429688e+00 -2.339802980422973633e+00 -6.600735783576965332e-01 -2.297767877578735352e+00 5.968375205993652344e-01 2.370604038238525391e+00 -2.866036415100097656e+00 -1.987111330032348633e+00 1.852322936058044434e+00 4.148786067962646484e+00 5.266349315643310547e-01 1.974543333053588867e+00 -1.022145271301269531e+00 1.252508163452148438e+00 6.402964890003204346e-02 1.989784598350524902e+00 -8.283629417419433594e-01 2.713685035705566406e+00 3.260810375213623047e+00 1.719412684440612793e+00 7.396129965782165527e-01 -2.479370594024658203e+00 -3.179580450057983398e+00 4.965487122535705566e-01 -4.382184982299804688e+00
-8.958168625831604004e-01 2.721476554870605469e+00 -8.035197854042053223e-01 1.880721569061279297e+00 -2.790724515914916992e+00 -2.740629673004150391e+00 4.294868469238281250e+00 4.435141682624816895e-01 -1.249358177185058594e+00 -7.114973664283752441e-01 3.656111061573028564e-01 3.281041860580444336e+00 -2.581518411636352539e+00 4.116184234619140625e+00 -2.913619577884674072e-01 -6.749719977378845215e-01 -3.459930419921875000e+00 6.254926919937133789e-01 1.201784610748291016e+00 -1.510075688362121582e+00 2.060124158859252930e+00 2.833201646804809570e+00 5.748429298400878906e-01 -3.985855579376220703e-01 -1.851967096328735352e+00 -1.631855726242065430e+00 1.026210308074951172e+00 -1.874106287956237793e+00 1.551458120346069336e+00 1.849700927734375000e+00 -2.444459199905395508e+00 9.373024106025695801e-01 -2.894830942153930664e+00 -1.364038139581680298e-01 -2.023112535476684570e+00 6.167020797729492188e-01 -2.732611656188964844e+00 -3.037540674209594727e+00 -3.382149457931518555e+00 -9.444572925567626953e-01
4.901884123682975769e-02 -1.239238858222961426e+00 -2.666036367416381836e+00 1.671800315380096436e-01 1.216181993484497070e+00 5.295484662055969238e-01 4.500247538089752197e-01 -2.775632381439208984e+00 -1.502838611602783203e+00 2.793067455291748047e+00 9.933064579963684082e-01 -1.626328349113464355e+00 -7.938101887702941895e-01 9.584200382232666016e-01 1.758163094520568848e+00 -5.365493774414062500e+00 1.107017636299133301e+00 -3.818673849105834961e+00 1.881718277931213379e+00 -1.494091153144836426e+00 1.086416319012641907e-01 1.212896227836608887e+00 1.534489989280700684e+00 2.666097640991210938e+00 -6.775309443473815918e-01 -5.393259048461914062e+00 -3.533902466297149658e-01 2.326930522918701172e+00 3.359382390975952148e+00 -3.600184321403503418e-01 -1.208795547485351562e+00 -3.203412532806396484e+00 -2.024330854415893555e+00 3.919224262237548828e+00 4.503476247191429138e-02 -2.379161268472671509e-01 -7.364030182361602783e-02 -1.329768300056457520e+00 -7.938331365585327148e-01 7.775392532348632812e-01
2.782737731933593750e+00 1.872771620750427246e+00 -1.892679929733276367e+00 -4.305776059627532959e-01 -2.809230566024780273e+00 5.537497401237487793e-01 -8.206278681755065918e-01 -2.316384792327880859e+00 -2.229005813598632812e+00 -1.998161315917968750e+00 -1.593712210655212402e+00 2.675427198410034180e+00 1.950673341751098633e+00 7.618249058723449707e-01 -8.191025257110595703e-02 4.911067187786102295e-01 2.920337677001953125e+00 -1.975337505340576172e+00 3.475051164627075195e+00 -2.024215698242187500e+00 -2.374773263931274414e+00 -5.621402058750391006e-03 2.073761940002441406e+00 -1.601464033126831055e+00 -1.639083266258239746e+00 -8.830231428146362305e-01 -2.329709768295288086e+00 -1.020269513130187988e+00 -2.554265499114990234e+00 -1.186482071876525879e+00 -1.508049845695495605e+00 -2.177240133285522461e+00 2.800393700599670410e-01 1.626823395490646362e-01 2.285033464431762695e+00 -1.644657254219055176e+00 -1.203992009162902832e+00 4.508860588073730469e+00 3.332541942596435547e+00 -2.781440973281860352e+00
1.645655512809753418e+00 -2.619081974029541016e+00 -1.433666467666625977e+00 -2.288931369781494141e+00 1.274658679962158203e+00 9.996683001518249512e-01 -5.151302218437194824e-01 -1.872891068458557129e+00 2.338856458663940430e+00 2.544997453689575195e+00 -3.124552071094512939e-01 3.233486890792846680e+00 3.151959896087646484e+00 -1.539810061454772949e+00 -1.352518796920776367e+00 2.070379734039306641e+00 1.391934514045715332e+00 -1.278181195259094238e+00 -3.282040119171142578e+00 -4.995804131031036377e-01 2.832180261611938477e+00 -2.504906654357910156e+00 8.165634274482727051e-01 -1.327530503273010254e+00 -2.351318836212158203e+00 -2.764884233474731445e+00 9.246801733970642090e-01 -2.138619899749755859e+00 2.043599128723144531e+00 -4.081822931766510010e-01 -1.739161729812622070e+00 -1.947658538818359375e+00 -1.927263855934143066e+00 -1.806128859519958496e+00 -4.576344013214111328e+00 1.360711455345153809e+00 1.391635179519653320e+00 7.129979729652404785e-01 5.988420248031616211e-01 -3.491753935813903809e-01
-9.685242176055908203e-01 -3.054752588272094727e+00 -2.711863756179809570e+00 1.549644470214843750e+00 1.482894420623779297e+00 2.403715610504150391e+00 4.122577607631683350e-01 6.517623662948608398e-01 3.864187896251678467e-01 1.512405395507812500e+00 1.279699444770812988e+00 -5.915494263172149658e-02 -3.020594358444213867e+00 -1.417518377304077148e+00 -2.272369384765625000e+00 -2.294523000717163086e+00 -1.044894814491271973e+00 -1.033324599266052246e-01 6.785155534744262695e-01 5.601654648780822754e-01 8.648826926946640015e-02 3.376663327217102051e-01 4.042687714099884033e-01 -3.320678174495697021e-01 -4.159040749073028564e-01 -4.980017662048339844e+00 2.382478713989257812e+00 -1.702088475227355957e+00 -1.246315479278564453e+00 3.454333305358886719e+00 -1.025860905647277832e+00 1.424542903900146484e+00 -4.090307354927062988e-01 -2.859164237976074219e+00 -1.744085788726806641e+00 -1.063585400581359863e+00 -1.631882309913635254e+00 6.191682219505310059e-01 3.127230882644653320e+00 1.214912056922912598e+00
-1.646359086036682129e+00 7.690817713737487793e-01 -1.425694108009338379e+00 1.653578281402587891e+00 -2.079226732254028320e+00 -2.107090234756469727e+00 -2.580760717391967773e+00 -2.764286518096923828e+00 -1.662387847900390625e+00 -1.479843378067016602e+00 -2.584456682205200195e+00 -5.404656529426574707e-01 1.976085424423217773e+00 -1.304339289665222168e+00 1.243049860000610352e+00 -2.200305312871932983e-01 1.557258605957031250e+00 4.723405361175537109e+00 -1.427286148071289062e+00 -8.668147921562194824e-01 1.802337765693664551e+00 7.006274461746215820e-01 -3.754858732223510742e+00 -1.137256860733032227e+00 -9.904220104217529297e-01 -4.684867262840270996e-01 1.008924126625061035e+00 3.039992570877075195e+00 3.054295063018798828e+00 -9.646790623664855957e-01 -2.152832269668579102e+00 -1.510408520698547363e+00 1.020193025469779968e-01 1.879467010498046875e+00 -9.608042836189270020e-01 -3.565459549427032471e-01 3.278552532196044922e+00 -1.204456925392150879e+00 3.702275827527046204e-02 -1.400696873664855957e+00
-1.817769646644592285e+00 -1.246188044548034668e+00 1.108301281929016113e+00 1.829120397567749023e+00 1.471473217010498047e+00 -9.232593774795532227e-01 -1.077477812767028809e+00 6.749058365821838379e-01 2.028417348861694336e+00 2.404359340667724609e+00 -2.368330359458923340e-01 -2.872539758682250977e+00 -1.579385995864868164e-01 -4.347360134124755859e+00 1.429405450820922852e+00 1.626679114997386932e-02 7.614461779594421387e-01 6.953092217445373535e-01 7.425510287284851074e-01 1.917363286018371582e+00 1.338181644678115845e-01 -3.279080629348754883e+00 2.035670518875122070e+00 -1.877685666084289551e+00 2.376760244369506836e+00 -2.042779684066772461e+00 -2.727876424789428711e+00 -3.400868177413940430e-01 4.714721679687500000e+00 -3.715778589248657227e+00 -1.697852730751037598e+00 5.262202024459838867e-01 1.218833446502685547e+00 -2.267062187194824219e+00 -2.160011529922485352e+00 -1.601273655891418457e+00 1.982387065887451172e+00 -1.587991356849670410e+00 -4.534704983234405518e-01 -1.656727075576782227e+00
-6.655257940292358398e-01 2.837244570255279541e-01 -1.819475054740905762e+00 2.209178805351257324e-01 -7.721275091171264648e-01 5.088665962219238281e+00 -5.992118120193481445e-01 5.060666427016258240e-02 -2.000729799270629883e+00 -1.298481225967407227e+00 -5.217257738113403320e-01 -1.075152277946472168e+00 -8.205656409263610840e-01 -5.215404033660888672e-01 -3.904882073402404785e-01 3.296919345855712891e+00 1.511697918176651001e-01 1.997041821479797363e+00 -2.455794095993041992e+00 -9.358363747596740723e-01 -4.458229064941406250e+00 -4.714847207069396973e-01 2.536498069763183594e+00 -1.797857046127319336e+00 -6.154691576957702637e-01 -3.032942056655883789e+00 -2.627774477005004883e+00 4.352996647357940674e-01 1.790195941925048828e+00 1.957342147827148438e+00 -5.747416615486145020e-01 -1.163551092147827148e+00 -3.680056929588317871e-01 4.845435619354248047e+00 -2.712444365024566650e-01 -3.341524600982666016e+00 2.010118007659912109e+00 1.473783254623413086e+00 -8.131819963455200195e-01 -1.734822988510131836e+00
-2.953175902366638184e-01 -2.759644508361816406e+00 -9.781606197357177734e-01 -1.507065176963806152e+00 1.590689539909362793e+00 2.909109592437744141e+00 -2.880940735340118408e-01 -2.302691221237182617e+00 -7.894495725631713867e-01 1.442119240760803223e+00 7.516468167304992676e-01 6.177508831024169922e-01 -1.124630868434906006e-01 -1.592774868011474609e+00 -3.981458246707916260e-01 1.907629728317260742e+00 -1.580893397331237793e+00 -1.834104537963867188e+00 -2.819653987884521484e+00 3.048876523971557617e+00 -1.361362814903259277e+00 3.429590225219726562e+00 -9.419885873794555664e-01 1.769045472145080566e+00 -6.134075298905372620e-02 5.747067332267761230e-01 -4.765128791332244873e-01 2.426100224256515503e-01 2.917282581329345703e+00 -1.114333271980285645e+00 -3.079974889755249023e+00 3.256893157958984375e+00 -4.914644241333007812e+00 -2.397720336914062500e+00 -1.886463642120361328e+00 6.417236924171447754e-01 -2.218857288360595703e+00 -4.275206029415130615e-01 1.178602337837219238e+00 -1.068120837211608887e+00
1.691117167472839355e+00 -9.985671639442443848e-01 2.700635045766830444e-02 -1.429734706878662109e+00 -4.829949736595153809e-01 -2.560298204421997070e+00 -1.182320237159729004e+00 1.894072532653808594e+00 -1.306783437728881836e+00 -1.561468958854675293e+00 3.075083971023559570e+00 8.168572932481765747e-02 -4.183214187622070312e+00 1.556902050971984863e+00 1.162881731986999512e+00 -1.044692039489746094e+00 -8.649321198463439941e-01 -6.583728641271591187e-02 1.219834923744201660e+00 -2.821069717407226562e+00 3.364054262638092041e-01 1.234116435050964355e+00 -2.326776504516601562e+00 5.162029266357421875e-01 -2.543670177459716797e+00 -1.316074967384338379e+00 5.351765155792236328e-01 -6.370259523391723633e-01 -4.035207331180572510e-01 -2.752076089382171631e-01 -8.259167075157165527e-01 -1.684971004724502563e-01 2.858976125717163086e+00 4.088613390922546387e-01 -2.966174364089965820e+00 9.110606312751770020e-01 2.306328535079956055e+00 -8.979342579841613770e-01 -1.550096154212951660e+00 4.257859289646148682e-01
-1.438319087028503418e+00 -7.439573407173156738e-01 1.599297285079956055e+00 -2.245636135339736938e-01 3.415889739990234375e+00 -2.197279453277587891e+00 -2.182853937149047852e+00 5.462349578738212585e-02 -1.811737179756164551e+00 1.032242059707641602e+00 1.260085701942443848e+00 -1.064062565565109253e-01 -7.168344259262084961e-01 -8.771875500679016113e-01 -3.382801771163940430e+00 1.812217086553573608e-01 3.473082557320594788e-03 3.215141534805297852e+00 -1.610618352890014648e+00 -2.457564353942871094e+00 5.144324302673339844e-01 1.175061345100402832e+00 -4.427334785461425781e+00 -9.063438773155212402e-01 -2.369111776351928711e+00 1.321668744087219238e+00 -1.798978567123413086e+00 1.606928467750549316e+00 -3.850876569747924805e+00 6.420831084251403809e-01 2.432034909725189209e-01 -1.572971791028976440e-01 1.575109958648681641e+00 3.900554403662681580e-02 1.538113594055175781e+00 5.552783608436584473e-01 5.804516673088073730e-01 -5.463711023330688477e-01 1.587748289108276367e+00 -1.450637102127075195e+00
-3.547059059143066406e+00 6.720268726348876953e-01 3.257934749126434326e-02 6.835411190986633301e-01 -1.283544898033142090e+00 -8.573449254035949707e-01 1.169518604874610901e-01 2.878135681152343750e+00 1.251196384429931641e+00 -1.135749340057373047e+00 -1.442209482192993164e+00 -2.603373527526855469e+00 -2.492960691452026367e+00 -1.850085139274597168e+00 -4.842163622379302979e-01 -8.145831227302551270e-01 2.851446531713008881e-02 1.591578483581542969e+00 1.881591081619262695e+00 5.119829773902893066e-01 1.582964062690734863e+00 -1.163981199264526367e+00 2.019719362258911133e+00 2.618834018707275391e+00 -1.606658339500427246e+00 -1.360286831855773926e+00 -1.140506625175476074e+00 2.770206704735755920e-02 -5.982432961463928223e-01 1.167490556836128235e-01 -2.590240836143493652e-01 1.020534634590148926e-01 2.532370388507843018e-01 -2.836352825164794922e+00 7.646917700767517090e-01 -4.723743498325347900e-01 -1.241230726242065430e+00 1.188004016876220703e+00 9.108729660511016846e-02 9.600850343704223633e-01
-1.819914221763610840e+00 -2.581838846206665039e+00 -1.257760643959045410e+00 -2.918744981288909912e-01 -7.398450970649719238e-01 1.957185387611389160e+00 1.352751731872558594e+00 -2.971227169036865234e-01 -1.152083754539489746e+00 1.266212940216064453e+00 -6.945221424102783203e-01 2.374204248189926147e-01 -1.998175024986267090e+00 -3.991442322731018066e-01 -9.202374815940856934e-01 -8.879140019416809082e-01 -2.279392480850219727e-01 -2.215959429740905762e-01 9.989830255508422852e-01 -1.784361362457275391e+00 -2.059674024581909180e+00 -1.969663143157958984e+00 1.135741114616394043e+00 1.745965361595153809e+00 -1.370978116989135742e+00 -3.439424753189086914e+00 2.101533859968185425e-01 1.554418563842773438e+00 1.168859153985977173e-01 9.544993638992309570e-01 2.574678957462310791e-01 -2.448846846818923950e-01 5.745653510093688965e-01 -1.090064764022827148e+00 1.290282249450683594e+00 -1.015348553657531738e+00 -3.620576560497283936e-01 -1.634963035583496094e+00 9.618259072303771973e-01 1.212972402572631836e+00
-1.997394561767578125e+00 -1.896472930908203125e+00 1.447867035865783691e+00 3.805705904960632324e-01 -8.326517343521118164e-01 -1.625532269477844238e+00 -3.199300765991210938e+00 -6.793134212493896484e-01 1.332256317138671875e+00 8.758862018585205078e-01 2.310332775115966797e+00 1.505083888769149780e-01 -1.662024736404418945e+00 -3.672701716423034668e-01 -1.736807636916637421e-02 2.998857498168945312e+00 7.358467578887939453e-02 -1.627379536628723145e+00 2.905432939529418945e+00 4.434116184711456299e-01 1.974678039550781250e+00 -2.657452583312988281e+00 3.013854503631591797e+00 -2.829127550125122070e+00 -9.208680391311645508e-01 -6.481245160102844238e-01 8.708384633064270020e-01 -2.791753292083740234e+00 2.323445081710815430e+00 2.316648721694946289e+00 3.442577600479125977e+00 -2.457455396652221680e+00 -9.695140123367309570e-01 -2.346370697021484375e+00 -3.845656514167785645e-01 3.343662977218627930e+00 -1.356561303138732910e+00 -3.161530017852783203e+00 -1.669717550277709961e+00 -3.719434738159179688e+00
-2.939132452011108398e+00 -3.969735145568847656e+00 6.090986132621765137e-01 -3.628841400146484375e+00 4.088565826416015625e+00 1.851409524679183960e-01 -1.955799698829650879e+00 -5.854908227920532227e-01 1.588840842247009277e+00 1.033154726028442383e+00 3.860016822814941406e+00 -2.871131181716918945e+00 1.155262827873229980e+00 -1.323912143707275391e+00 1.455530643463134766e+00 -4.989983737468719482e-01 -9.775887727737426758e-01 -1.070311307907104492e+00 -2.145225524902343750e+00 3.055356740951538086e-01 -2.455061912536621094e+00 8.451934158802032471e-02 2.290971809998154640e-03 1.819874793291091919e-01 1.078841447830200195e+00 1.689356684684753418e+00 1.684271216392517090e+00 1.620639920234680176e+00 -2.449248552322387695e+00 3.393620014190673828e+00 1.875114560127258301e+00 -1.519674181938171387e+00 -1.536390900611877441e+00 -1.530910134315490723e+00 2.992546796798706055e+00 -2.952412605285644531e+00 -2.017948627471923828e-01 -2.024994850158691406e+00 -1.561838537454605103e-01 -2.410187482833862305e+00
8.458274602890014648e-01 3.679716825485229492e+00 -3.629388332366943359e+00 -3.440700054168701172e+00 5.902145504951477051e-01 2.227999210357666016e+00 1.307364702224731445e+00 -8.087053894996643066e-01 8.709107041358947754e-01 -1.023133039474487305e+00 -2.377620220184326172e+00 1.186898350715637207e+00 6.283796429634094238e-01 -3.433423757553100586e+00 -3.101184844970703125e+00 -2.312101840972900391e+00 -1.963064819574356079e-02 -2.034241914749145508e+00 4.113038480281829834e-01 -5.227365493774414062e-01 7.394688129425048828e-01 -4.288195967674255371e-01 -9.784935712814331055e-01 4.734754860401153564e-01 -1.162418127059936523e+00 2.331885337829589844e+00 -6.489273309707641602e-01 -2.491177082061767578e+00 -2.944401502609252930e+00 3.418338298797607422e-01 -5.556226372718811035e-01 3.527001619338989258e+00 -7.670612335205078125e-01 -2.612868845462799072e-01 4.269479274749755859e+00 8.276348114013671875e-01 2.125269174575805664e+00 -8.124979734420776367e-01 -1.679369807243347168e+00 -2.541168689727783203e+00
1.117753148078918457e+00 -1.250411391258239746e+00 8.257079124450683594e-01 2.150234937667846680e+00 -1.219647049903869629e+00 -1.371163249015808105e+00 1.084018826484680176e+00 -2.513825893402099609e+00 5.810792446136474609e-01 -3.153851032257080078e+00 1.135955572128295898e+00 -9.155004620552062988e-01 -1.932855486869812012e+00 -3.909477472305297852e+00 1.733829021453857422e+00 -8.613008856773376465e-01 -5.669536590576171875e-01 -1.684149861335754395e+00 8.800511956214904785e-01 4.217947125434875488e-01 8.378595113754272461e-01 3.155759572982788086e+00 3.399253487586975098e-01 2.176749229431152344e+00 3.269003152847290039e+00 -6.187533736228942871e-01 -3.986396312713623047e+00 9.785795211791992188e-01 -4.277027130126953125e+00 1.618889808654785156e+00 -5.841341018676757812e-01 1.027140259742736816e+00 -3.179947137832641602e+00 4.779393672943115234e+00 -4.096736907958984375e-01 -2.763884782791137695e+00 -2.766105890274047852e+00 4.019241929054260254e-01 -2.011884450912475586e-01 1.778133660554885864e-01
1.619482517242431641e+00 9.605733752250671387e-01 -1.165515303611755371e+00 -4.472126662731170654e-01 1.803569436073303223e+00 -9.382163882255554199e-01 9.406172037124633789e-01 1.840683460235595703e+00 -7.681947946548461914e-01 8.683033585548400879e-01 1.064535498619079590e+00 -4.539553523063659668e-01 1.706632494926452637e+00 -1.501389503479003906e+00 -2.380828142166137695e+00 3.896284103393554688e+00 -2.040891408920288086e+00 -2.342255592346191406e+00 6.324563622474670410e-01 -4.603822827339172363e-01 -9.280570745468139648e-01 -2.714692115783691406e+00 -7.831515073776245117e-01 1.088174819946289062e+00 4.690147936344146729e-01 -4.109408378601074219e+00 -2.595222473144531250e+00 -2.721731960773468018e-01 -9.131597280502319336e-01 -1.270167469978332520e+00 -4.127978682518005371e-01 -3.565982818603515625e+00 1.593580245971679688e+00 1.020329952239990234e+00 -5.152617692947387695e-01 -4.356664121150970459e-01 -2.221493959426879883e+00 2.572222948074340820e+00 3.419726490974426270e-01 -6.973318010568618774e-02
-3.346283361315727234e-02 -2.538349866867065430e+00 -1.422800064086914062e+00 1.872871637344360352e+00 6.687136888504028320e-01 -1.939193129539489746e+00 -4.570749029517173767e-02 -1.240138262510299683e-01 -8.658527731895446777e-01 1.747120618820190430e+00 -3.770644664764404297e-01 -7.739289402961730957e-01 -1.694941997528076172e+00 -2.303606510162353516e+00 8.901746869087219238e-01 1.223690152168273926e+00 5.078299045562744141e-01 -2.588275671005249023e-01 2.986701011657714844e+00 -3.198728561401367188e+00 3.048769235610961914e-01 1.754335522651672363e+00 -9.558148980140686035e-01 4.487833082675933838e-01 -1.790200829505920410e+00 -2.989754199981689453e+00 -1.650558948516845703e+00 -7.801061123609542847e-02 -3.107711076736450195e+00 -5.555731058120727539e-01 2.820907354354858398e+00 1.246971726417541504e+00 1.665223985910415649e-01 -5.532537460327148438e+00 4.084875106811523438e+00 1.198492646217346191e+00 -6.073013544082641602e-01 2.730757474899291992e+00 -3.154993295669555664e+00 1.276391983032226562e+00
6.960958242416381836e-01 -1.680147647857666016e+00 8.064905405044555664e-01 -6.167019009590148926e-01 -1.527773261070251465e+00 6.639764308929443359e-01 -2.958550691604614258e+00 8.064495921134948730e-01 4.411185979843139648e-01 1.445629954338073730e+00 -2.307324409484863281e+00 -9.729839563369750977e-01 9.629687666893005371e-01 -3.501623392105102539e+00 -1.671531915664672852e+00 8.669152855873107910e-01 -2.643358707427978516e+00 3.638926446437835693e-01 2.755790948867797852e+00 -3.262724280357360840e-01 3.678903341293334961e+00 5.260135233402252197e-02 -6.597974896430969238e-01 -1.669196128845214844e+00 -2.244298458099365234e+00 -1.635406613349914551e+00 3.117339611053466797e-01 1.933532834053039551e+00 -6.318626403808593750e-01 2.948981821537017822e-01 2.829239845275878906e+00 -2.644903182983398438e+00 -3.656820952892303467e-01 2.910451889038085938e+00 2.864778995513916016e+00 -2.521705150604248047e+00 -6.969860792160034180e-01 -6.755608916282653809e-01 8.131132274866104126e-02 -4.610626697540283203e+00
-2.881917357444763184e-01 -1.481093406677246094e+00 2.129955768585205078e+00 -7.648568153381347656e-01 -5.429411411285400391e+00 3.903674483299255371e-01 -1.884526968002319336e+00 -3.528502225875854492e+00 -1.467372536659240723e+00 -1.145861744880676270e+00 1.337995052337646484e+00 2.386744976043701172e+00 -1.341735363006591797e+00 -1.373236775398254395e+00 2.539142608642578125e+00 2.914643049240112305e+00 2.869347333908081055e+00 8.945966362953186035e-01 1.386010646820068359e+00 -1.386257052421569824e+00 9.092804789543151855e-01 2.043503046035766602e+00 4.344070851802825928e-01 2.839541435241699219e+00 -3.761834859848022461e+00 -2.320830106735229492e+00 -1.985474228858947754e+00 7.669521570205688477e-01 1.318799734115600586e+00 5.772591829299926758e-01 -3.188018798828125000e+00 -4.752630591392517090e-01 -3.156684935092926025e-01 -1.476821184158325195e+00 -2.096841096878051758e+00 -1.659722089767456055e+00 -9.442296028137207031e-01 -1.169664382934570312e+00 2.098337650299072266e+00 2.525776624679565430e-01
-6.532068848609924316e-01 -1.897336483001708984e+00 3.113995119929313660e-02 -2.953079715371131897e-02 -3.897590637207031250e+00 1.459880024194717407e-01 5.683740973472595215e-01 2.917058944702148438e+00 -1.712977141141891479e-01 -2.309361696243286133e+00 -4.310912132263183594e+00 2.994709491729736328e+00 8.363883495330810547e-01 1.480421304702758789e+00 -1.644561052322387695e+00 -3.572338819503784180e+00 -7.973660230636596680e-01 -2.531793117523193359e+00 -4.381130635738372803e-01 -3.516049146652221680e+00 -6.245721578598022461e-01 -3.402347564697265625e+00 8.637015819549560547e-01 1.434006571769714355e+00 -3.002400398254394531e-01 -1.786973595619201660e+00 3.491210937500000000e+00 -2.750778675079345703e+00 -3.236444890499114990e-01 1.732655763626098633e-01 1.795465946197509766e-01 -8.161008954048156738e-01 -4.946161508560180664e-01 -1.673226505517959595e-01 4.083272457122802734e+00 2.399485349655151367e+00 7.797282338142395020e-01 2.498004198074340820e+00 9.164765477180480957e-01 5.718190073966979980e-01
1.469417929649353027e+00 2.380985021591186523e-01 3.392382621765136719e+00 -5.096370697021484375e+00 -2.709714889526367188e+00 -1.688453078269958496e+00 2.377609014511108398e+00 3.835156261920928955e-01 -1.430324077606201172e+00 -7.813276648521423340e-01 1.266079664230346680e+00 -1.878556609153747559e+00 -3.179494142532348633e+00 -1.645866513252258301e+00 -9.003411531448364258e-01 -2.388277798891067505e-01 -4.601778388023376465e-01 9.698452949523925781e-01 -3.317641615867614746e-01 -2.029897451400756836e+00 5.282142758369445801e-01 -2.244736433029174805e+00 3.160242319107055664e+00 -1.912287473678588867e+00 -2.530789136886596680e+00 -1.199219226837158203e+00 1.007190823554992676e+00 2.047389268875122070e+00 1.447889447212219238e+00 -1.168346881866455078e+00 9.086306095123291016e-01 -1.428326129913330078e+00 9.676939845085144043e-01 3.731097280979156494e-01 3.568344593048095703e+00 -3.865923643112182617e+00 8.529266715049743652e-02 7.339998483657836914e-01 -1.843226671218872070e+00 2.831708908081054688e+00
-9.710376858711242676e-01 7.976352572441101074e-01 -4.527549743652343750e+00 -1.179674267768859863e+00 -1.676480770111083984e+00 -2.459456682205200195e+00 1.735669255256652832e+00 4.552107334136962891e+00 -6.782552599906921387e-02 -8.578175306320190430e-02 1.665499687194824219e+00 -1.967998623847961426e+00 -6.924812793731689453e-01 2.294977903366088867e+00 -2.316653490066528320e+00 -1.561356782913208008e+00 -2.296184897422790527e-01 2.062063217163085938e-01 2.834576606750488281e+00 -3.151272535324096680e-01 -1.125208616256713867e+00 1.749013811349868774e-01 -1.062943458557128906e+00 -5.065742135047912598e-01 1.459673523902893066e+00 -2.466523170471191406e+00 6.181401014328002930e-01 -2.983402252197265625e+00 -4.184371948242187500e+00 6.200911998748779297e-01 -1.856735348701477051e+00 2.060647726058959961e+00 3.201183557510375977e+00 -1.156298756599426270e+00 9.837737679481506348e-01 5.648307204246520996e-01 1.555188179016113281e+00 -2.739993095397949219e+00 -2.434967756271362305e+00 2.571930408477783203e+00
1.310010313987731934e+00 2.620612144470214844e+00 2.303861618041992188e+00 1.201843500137329102e+00 -3.012419223785400391e+00 -1.492818951606750488e+00 3.610546290874481201e-01 -2.735417604446411133e+00 -3.254587411880493164e+00 4.803284257650375366e-02 -3.376163244247436523e+00 -2.131836175918579102e+00 1.601163148880004883e+00 -8.863872885704040527e-01 -5.063401460647583008e-01 2.395825862884521484e+00 -1.350543379783630371e+00 -5.716305971145629883e-01 -5.669648647308349609e-01 7.364653348922729492e-01 2.935000061988830566e-01 -1.502947807312011719e+00 6.571675539016723633e-01 1.214326977729797363e+00 1.409976482391357422e+00 1.291831970214843750e+00 6.869056224822998047e-01 -2.186413556337356567e-01 1.393072843551635742e+00 -3.426764249801635742e+00 -7.441571354866027832e-01 -1.972423672676086426e+00 -1.665157079696655273e+00 -1.301958560943603516e+00 6.202538013458251953e-01 -8.275515586137771606e-02 -1.740679860115051270e+00 -1.923247724771499634e-01 8.627824783325195312e-01 -2.971029840409755707e-02
-7.675322294235229492e-01 -1.995019555091857910e+00 1.864224553108215332e+00 1.972784042358398438e+00 -1.074393987655639648e+00 2.843749523162841797e-01 -2.856145381927490234e+00 -2.495372056961059570e+00 2.307116985321044922e+00 1.147237420082092285e+00 2.627512931823730469e+00 -2.848956346511840820e+00 -5.264760255813598633e-01 -8.032848834991455078e-01 2.597921609878540039e+00 -3.721490859985351562e+00 2.283042907714843750e+00 -2.628004074096679688e+00 -5.273391008377075195e-01 -2.142827272415161133e+00 -1.968231797218322754e+00 1.606797814369201660e+00 -1.295521855354309082e+00 -2.400258332490921021e-01 -3.642133951187133789e+00 8.233866840600967407e-02 -7.324745655059814453e-01 9.853773117065429688e-01 -1.513072729110717773e+00 -1.079207539558410645e+00 -2.156664848327636719e+00 -1.191174507141113281e+00 -4.200980067253112793e-01 9.419894218444824219e-01 2.599491357803344727e+00 1.862068057060241699e+00 3.042800664901733398e+00 3.683004379272460938e-01 9.626018404960632324e-01 -6.872909665107727051e-01
3.692657053470611572e-01 2.246728897094726562e+00 -6.266148090362548828e-01 1.332114577293395996e+00 1.877621769905090332e+00 3.733462095260620117e-01 2.712496995925903320e+00 -2.995887517929077148e+00 -2.912228345870971680e+00 1.204443693161010742e+00 2.289863109588623047e+00 -1.150715589523315430e+00 -9.832571148872375488e-01 -1.512850821018218994e-01 6.114755272865295410e-01 8.222618103027343750e-01 -4.033670902252197266e+00 3.633193969726562500e+00 -2.728672504425048828e+00 -2.438619613647460938e+00 -7.079592347145080566e-01 6.966682076454162598e-01 3.514809608459472656e-01 2.940077304840087891e+00 8.133678883314132690e-02 -1.898924112319946289e+00 -2.593544244766235352e+00 9.047453999519348145e-01 -1.109592914581298828e+00 -3.045311689376831055e+00 -1.212442159652709961e+00 -1.396962046623229980e+00 8.771941661834716797e-01 -2.572730541229248047e+00 -5.127279460430145264e-02 7.529768943786621094e-01 3.150797128677368164e+00 -3.832818269729614258e+00 -3.121766090393066406e+00 2.948865413665771484e+00
1.949292659759521484e+00 8.778719604015350342e-02 -1.810584783554077148e+00 -3.020560264587402344e+00 1.456298470497131348e+00 -6.794366240501403809e-01 -2.373872756958007812e+00 -2.071333169937133789e+00 -7.487153410911560059e-01 2.825719118118286133e+00 1.461590647697448730e+00 -1.653109073638916016e+00 -1.317368268966674805e+00 -1.771135807037353516e+00 3.066637516021728516e-01 -1.758979916572570801e+00 -1.847542285919189453e+00 -1.974287152290344238e+00 2.324652910232543945e+00 -3.081106185913085938e+00 2.964162349700927734e+00 4.391898632049560547e+00 -3.608043491840362549e-01 -3.798213958740234375e+00 2.685842514038085938e+00 5.311293601989746094e-01 1.716588258743286133e+00 -3.422083854675292969e-01 1.258197188377380371e+00 -3.473972320556640625e+00 3.506779968738555908e-01 -1.814712435007095337e-01 -1.083929300308227539e+00 2.536865174770355225e-01 1.530783772468566895e+00 1.657240033149719238e+00 -1.952471017837524414e+00 -2.642529487609863281e+00 -1.028343439102172852e+00 5.755912065505981445e-01
2.387707233428955078e-01 2.159523487091064453e+00 1.213963866233825684e+00 -2.929993271827697754e-01 -2.454774379730224609e+00 -7.544072270393371582e-01 1.319771528244018555e+00 -1.781787395477294922e+00 -2.996422052383422852e+00 -4.669013991951942444e-02 1.109248638153076172e+00 2.569617927074432373e-01 1.692816734313964844e+00 -2.494126319885253906e+00 -2.381127119064331055e+00 -5.958368182182312012e-01 2.244923830032348633e+00 -2.676347017288208008e+00 2.953966557979583740e-01 -1.138105750083923340e+00 9.166889786720275879e-01 -1.358096122741699219e+00 3.605787038803100586e+00 -9.807154536247253418e-01 -1.241563782095909119e-01 2.181660652160644531e+00 3.243520736694335938e+00 3.541996479034423828e-01 -3.111004352569580078e+00 -2.162787914276123047e-01 2.619773447513580322e-01 -1.847605705261230469e+00 -2.659917116165161133e+00 1.510490775108337402e+00 4.385945945978164673e-02 9.082537144422531128e-02 -2.739709615707397461e+00 -3.871017932891845703e+00 -3.488380461931228638e-02 -8.748602271080017090e-01
-1.765786051750183105e+00 -7.027617096900939941e-01 -3.238536834716796875e+00 1.726397275924682617e+00 -1.356479339301586151e-02 -1.517401456832885742e+00 -1.787301659584045410e+00 -1.869482636451721191e+00 -3.435766220092773438e+00 1.081273674964904785e+00 -1.601148843765258789e+00 1.075747728347778320e+00 4.054394721984863281e+00 1.198623895645141602e+00 1.185868978500366211e+00 -3.180873632431030273e+00 1.268380403518676758e+00 9.722739458084106445e-01 1.115920305252075195e+00 1.236403346061706543e+00 -3.582877397537231445e+00 -2.453571796417236328e+00 1.726856112480163574e+00 -1.330603241920471191e+00 4.371799945831298828e+00 9.284710884094238281e-01 1.073617219924926758e+00 -3.028256177902221680e+00 -7.971614003181457520e-01 1.177493214607238770e+00 1.271354407072067261e-01 -1.343760490417480469e+00 -3.344705104827880859e+00 3.339579403400421143e-01 -2.642791509628295898e+00 -2.132140636444091797e+00 2.774398565292358398e+00 3.425314426422119141e+00 -3.421519279479980469e+00 3.166312694549560547e+00
3.210551738739013672e-01 -6.708186268806457520e-01 -1.940796256065368652e+00 -2.221352905035018921e-01 7.076185345649719238e-01 -1.286401748657226562e+00 -5.088003873825073242e-01 1.871495842933654785e-01 -2.085920274257659912e-01 -2.134252071380615234e+00 3.440261363983154297e+00 1.970423340797424316e+00 2.282790422439575195e+00 -4.388214051723480225e-01 -1.946185231208801270e+00 -1.295344352722167969e+00 1.252794265747070312e+00 -1.335889220237731934e+00 1.042947292327880859e+00 6.571764945983886719e-01 2.272372245788574219e+00 -9.881641268730163574e-01 -3.004999399185180664e+00 3.377318978309631348e-01 6.723937392234802246e-01 1.289894461631774902e+00 7.881345748901367188e-01 5.834192037582397461e-01 -2.453992366790771484e+00 -4.066873550415039062e+00 -1.615040190517902374e-02 -3.691959857940673828e+00 3.515132963657379150e-01 -1.354031682014465332e+00 2.913077771663665771e-01 -3.248699426651000977e+00 -1.081505298614501953e+00 4.236813485622406006e-01 -1.287874460220336914e+00 3.038823127746582031e+00
-2.684151232242584229e-01 4.078142642974853516e+00 1.358639478683471680e+00 -6.260499358177185059e-01 2.007091045379638672e+00 -2.155553579330444336e+00 -3.303022623062133789e+00 -3.043567895889282227e+00 5.081948041915893555e-01 -2.363489151000976562e+00 -1.451183795928955078e+00 -5.895034968852996826e-02 -1.742697834968566895e+00 -2.723966598510742188e+00 -2.629768371582031250e+00 -3.754724502563476562e+00 -8.424836397171020508e-01 -3.810107231140136719e+00 3.059696197509765625e+00 1.476211994886398315e-01 2.415941238403320312e+00 3.905381560325622559e-01 1.661370754241943359e+00 1.477791517972946167e-01 2.898883223533630371e-01 -1.918881982564926147e-01 1.775153279304504395e-01 4.962707757949829102e-01 -3.248078525066375732e-01 -1.293877243995666504e+00 -1.890307068824768066e+00 5.398932099342346191e-01 -1.381972551345825195e+00 -2.203526496887207031e+00 -2.444948405027389526e-01 2.025758743286132812e+00 -1.375520467758178711e+00 5.666848421096801758e-01 3.792781114578247070e+00 3.094722747802734375e+00
2.335800647735595703e+00 8.264613337814807892e-03 -1.629546284675598145e+00 2.985225319862365723e-01 -2.801970541477203369e-01 -1.265408039093017578e+00 4.741713404655456543e-01 9.834362864494323730e-01 -1.094606161117553711e+00 -7.311551570892333984e-01 -2.423726797103881836e+00 -1.800001144409179688e+00 9.541775584220886230e-01 -2.056939840316772461e+00 8.200858235359191895e-01 1.338476181030273438e+00 -1.616499304771423340e+00 1.904190897941589355e+00 2.731159210205078125e+00 -1.904883384704589844e+00 5.560910105705261230e-01 1.855923771858215332e+00 1.720476984977722168e+00 -6.667250990867614746e-01 2.259127855300903320e+00 -8.421080708503723145e-01 -3.063351631164550781e+00 -1.230751633644104004e+00 -2.933934211730957031e+00 -3.977475643157958984e+00 -9.043000936508178711e-01 -2.938776314258575439e-01 2.508533895015716553e-01 2.422022819519042969e-01 -2.557032406330108643e-01 1.859322309494018555e+00 -1.817873001098632812e+00 -1.346621632575988770e+00 -1.241357803344726562e+00 5.405123829841613770e-01
8.276007175445556641e-01 1.014456629753112793e+00 -1.594366669654846191e+00 -1.661600828170776367e+00 -1.520830869674682617e+00 -1.342097043991088867e+00 -1.639100432395935059e+00 -1.867853045463562012e+00 -2.612648248672485352e+00 1.845460653305053711e+00 5.774742364883422852e-01 -9.170871376991271973e-01 1.034358590841293335e-01 6.089707463979721069e-02 1.217374682426452637e+00 -3.000203371047973633e+00 -1.024754405021667480e+00 2.831876277923583984e-01 8.039292097091674805e-01 3.500164985656738281e+00 -1.892098426818847656e+00 5.216611623764038086e-01 -2.749198198318481445e+00 7.493660449981689453e-01 -3.092704772949218750e+00 2.646535873413085938e+00 3.136435449123382568e-01 -1.012399196624755859e+00 9.167151451110839844e-01 2.148736953735351562e+00 -1.806587338447570801e+00 -1.843146562576293945e+00 -4.457724690437316895e-01 1.427057027816772461e+00 -1.162654519081115723e+00 -2.321822881698608398e+00 -2.023555994033813477e+00 1.142801403999328613e+00 9.669635891914367676e-01 4.117771148681640625e+00
-3.307498693466186523e+00 -4.407917261123657227e-01 -7.045475244522094727e-01 -1.629007339477539062e+00 1.078943252563476562e+00 -7.900014519691467285e-02 3.148624181747436523e+00 1.833792924880981445e+00 2.979464232921600342e-01 1.608228683471679688e-02 -2.202295303344726562e+00 4.249764978885650635e-01 -1.430939316749572754e+00 -1.510780692100524902e+00 -1.827516794204711914e+00 1.538247942924499512e+00 1.415787935256958008e+00 5.444987416267395020e-01 5.901908278465270996e-01 -4.059596538543701172e+00 -2.492848396301269531e+00 -2.839985132217407227e+00 2.063361167907714844e+00 -1.394420027732849121e+00 -2.781413078308105469e+00 2.122083425521850586e+00 -4.052463531494140625e+00 1.659637093544006348e-01 1.982195496559143066e+00 6.401820182800292969e-01 -3.721659898757934570e+00 1.765139579772949219e+00 -8.739409446716308594e-01 -1.205025911331176758e+00 -1.434647798538208008e+00 1.488536000251770020e+00 -9.204617142677307129e-01 3.851837158203125000e+00 1.320996642112731934e+00 2.022534370422363281e+00
-2.060687780380249023e+00 -4.377562105655670166e-01 1.405211687088012695e+00 2.589862108230590820e+00 1.818625092506408691e+00 3.877622127532958984e+00 2.540212869644165039e-01 1.638284444808959961e+00 1.096704244613647461e+00 -2.905326187610626221e-01 1.446307897567749023e+00 -8.202161192893981934e-01 -4.313795268535614014e-01 -5.675815343856811523e-01 -1.983193993568420410e+00 -4.247767329216003418e-01 5.942324995994567871e-01 -3.566145420074462891e+00 6.161948442459106445e-01 1.489891886711120605e+00 -4.834727346897125244e-01 2.824076414108276367e-01 -2.823911905288696289e+00 6.515496373176574707e-01 1.976734161376953125e+00 -4.579782009124755859e+00 -1.271160244941711426e+00 1.015629172325134277e+00 -1.121920824050903320e+00 -1.652911663055419922e+00 2.652091979980468750e+00 -3.930862665176391602e+00 1.210780516266822815e-01 -7.712641358375549316e-02 -2.257131576538085938e+00 7.945500016212463379e-01 -1.560186743736267090e+00 8.971624970436096191e-01 -4.800590038299560547e+00 5.107183381915092468e-02
-4.920090138912200928e-01 -2.550674915313720703e+00 1.717553377151489258e+00 6.692364215850830078e-01 2.674940824508666992e-01 5.070046186447143555e-01 -1.116098642349243164e+00 2.337943553924560547e+00 -2.365940332412719727e+00 1.525064349174499512e+00 -8.509679436683654785e-01 -2.322643518447875977e+00 1.392445802688598633e+00 -2.404613792896270752e-01 -4.443943873047828674e-02 1.281562745571136475e-01 2.158982753753662109e+00 -1.526229023933410645e+00 -3.469043016433715820e+00 -2.546842098236083984e+00 4.251217842102050781e-01 3.764606952667236328e+00 1.567395925521850586e+00 -1.563866376876831055e+00 -2.454267978668212891e+00 -1.269412279129028320e+00 7.465425729751586914e-01 9.280448555946350098e-01 -2.276161432266235352e+00 4.356711208820343018e-01 -4.323090910911560059e-01 1.981832981109619141e+00 -3.616911411285400391e+00 -1.197323799133300781e+00 -2.371752977371215820e+00 1.409925341606140137e+00 -2.591512680053710938e+00 1.335468530654907227e+00 2.590396404266357422e-01 6.171046495437622070e-01
-7.012484073638916016e-01 1.066221833229064941e+00 2.001608610153198242e+00 -2.514981985092163086e+00 2.869509458541870117e+00 2.491870403289794922e+00 -1.909545540809631348e+00 3.851337671279907227e+00 1.627815604209899902e+00 2.198928117752075195e+00 -2.265235662460327148e+00 -1.987662196159362793e+00 1.091506123542785645e+00 8.387055397033691406e-01 -1.382979631423950195e+00 -1.223168849945068359e+00 2.314266711473464966e-01 -8.579680323600769043e-01 5.958793163299560547e-01 4.858754575252532959e-02 1.859030008316040039e+00 -2.478725194931030273e+00 -1.764191865921020508e+00 2.652408123016357422e+00 -2.359272480010986328e+00 -4.694371223449707031e-01 -1.828852057456970215e+00 1.354341268539428711e+00 -1.415490388870239258e+00 -1.276855587959289551e+00 -2.344212770462036133e+00 -1.288366317749023438e+00 -1.087653756141662598e+00 4.151956439018249512e-01 -2.099091053009033203e+00 3.911005556583404541e-01 -4.863648414611816406e-01 -2.626403093338012695e+00 -1.650720715522766113e+00 -7.907358407974243164e-01
4.074108600616455078e+00 -6.891552805900573730e-01 1.351654648780822754e+00 5.578197538852691650e-02 -2.500255823135375977e+00 -1.554797053337097168e+00 -5.527334809303283691e-01 -1.325106620788574219e+00 1.132159352302551270e+00 -4.373954772949218750e+00 2.588276937603950500e-02 1.154205918312072754e+00 -1.267742276191711426e+00 1.092846155166625977e+00 3.119445778429508209e-02 9.309465289115905762e-01 -3.067291498184204102e+00 -6.137133240699768066e-01 -4.629374444484710693e-01 -2.365493178367614746e-01 -2.075174570083618164e+00 -2.238694190979003906e+00 -2.127444744110107422e+00 -3.746098756790161133e+00 -7.621847391128540039e-01 1.664051771163940430e+00 -3.183515548706054688e+00 -2.699605941772460938e+00 -1.078100204467773438e+00 2.691596031188964844e+00 1.457640171051025391e+00 5.038359642028808594e+00 -2.211362123489379883e+00 2.033527851104736328e+00 -1.890278935432434082e+00 2.074237585067749023e+00 2.883783578872680664e+00 2.411288499832153320e+00 1.221091970801353455e-01 -2.161744683980941772e-01
4.513334929943084717e-01 2.861356973648071289e+00 -2.167566269636154175e-01 8.414304256439208984e-01 -2.327923029661178589e-01 -3.616774559020996094e+00 -2.400654554367065430e+00 -1.684091210365295410e+00 -1.867541819810867310e-01 -1.356131196022033691e+00 -1.112860202789306641e+00 -2.297894716262817383e+00 -2.455370187759399414e+00 1.972743630409240723e+00 -2.644169032573699951e-01 2.526938438415527344e+00 -2.352201700210571289e+00 -1.134050726890563965e+00 5.635735392570495605e-01 -2.820265293121337891e+00 1.820601105690002441e+00 -1.039638042449951172e+00 -1.151487708091735840e+00 1.223665714263916016e+00 -1.797659039497375488e+00 -4.329888820648193359e-01 3.030204296112060547e+00 2.289647579193115234e+00 1.936510324478149414e+00 3.570403158664703369e-01 -7.468655705451965332e-01 6.910662055015563965e-01 -6.915258616209030151e-02 1.000043034553527832e+00 -1.356566429138183594e+00 6.209132075309753418e-01 -1.981047987937927246e-01 -2.370106220245361328e+00 -3.810463845729827881e-01 -2.468949794769287109e+00
2.344504594802856445e+00 6.026115417480468750e-01 -1.092899680137634277e+00 -8.482000231742858887e-01 1.762324929237365723e+00 -3.213708162307739258e+00 -1.327828764915466309e+00 1.019570350646972656e+00 -3.304503440856933594e+00 3.066313028335571289e+00 -3.763268470764160156e+00 -2.107276678085327148e+00 -1.623409800231456757e-02 -2.279570817947387695e+00 1.399874210357666016e+00 3.705559253692626953e+00 -3.953330755233764648e+00 1.822711348533630371e+00 9.873615503311157227e-01 -3.698149204254150391e+00 1.225740432739257812e+00 1.849213689565658569e-01 -1.545806765556335449e+00 -1.111243605613708496e+00 -1.429268121719360352e+00 8.014945983886718750e-01 -9.565597176551818848e-01 7.935630679130554199e-01 -1.276970952749252319e-01 -5.123035907745361328e-01 1.104765415191650391e+00 3.712166309356689453e+00 -3.805108785629272461e+00 1.103506833314895630e-01 1.205077886581420898e+00 -1.888436198234558105e+00 -3.126779198646545410e-01 4.046297073364257812e+00 -2.094393223524093628e-01 -1.574257612228393555e+00
-1.937179416418075562e-01 -3.875170469284057617e+00 2.501789331436157227e-01 -3.499030172824859619e-01 -2.843604564666748047e+00 2.155334949493408203e+00 -2.143373012542724609e+00 1.061145544052124023e+00 -6.532924175262451172e-01 -2.535555601119995117e+00 -2.201378345489501953e+00 1.223956823348999023e+00 2.009057760238647461e+00 -1.704462409019470215e+00 -1.111556768417358398e+00 2.136214077472686768e-01 -3.663691520690917969e+00 1.539437890052795410e+00 2.756132185459136963e-01 2.625354290008544922e+00 1.089721798896789551e+00 3.333561718463897705e-01 -4.088565826416015625e+00 -1.832268945872783661e-02 9.555795788764953613e-01 -4.501365184783935547e+00 1.298153638839721680e+00 2.211745738983154297e+00 1.516048789024353027e+00 3.205061197280883789e+00 2.202790975570678711e+00 8.094787597656250000e-01 -3.713132381439208984e+00 -2.310577154159545898e+00 -6.395893692970275879e-01 4.418677985668182373e-01 -1.678536772727966309e+00 1.503625273704528809e+00 -1.321546792984008789e+00 3.963339567184448242e+00
-2.663293600082397461e+00 8.455377817153930664e-01 -5.389407277107238770e-01 1.173349261283874512e+00 -1.936683535575866699e+00 1.296566009521484375e+00 -4.952009767293930054e-02 4.736735343933105469e+00 3.054724931716918945e+00 1.036638915538787842e-01 -2.541940927505493164e+00 -3.198341846466064453e+00 -1.006267428398132324e+00 2.147050142288208008e+00 -2.802322387695312500e+00 -1.608331084251403809e+00 -8.905101418495178223e-01 -3.245579242706298828e+00 1.207278594374656677e-01 5.463286042213439941e-01 -9.526702761650085449e-01 4.172542691230773926e-01 -1.259582400321960449e+00 8.599544763565063477e-01 -2.445119619369506836e+00 -7.199563384056091309e-01 6.936715841293334961e-01 1.347935438156127930e+00 8.717684149742126465e-01 7.560113072395324707e-01 -2.344038009643554688e+00 4.074770450592041016e+00 -1.338690400123596191e+00 1.611595898866653442e-01 -9.317630529403686523e-01 -2.037023782730102539e+00 2.193735599517822266e+00 -1.284611940383911133e+00 -2.815854310989379883e+00 1.440322548151016235e-01
1.105618834495544434e+00 -7.696334719657897949e-01 2.396672487258911133e+00 -1.411845684051513672e-01 -9.179228544235229492e-01 -7.405943274497985840e-01 -1.135705411434173584e-01 3.677105903625488281e+00 -1.162676572799682617e+00 -4.096136614680290222e-02 3.091653585433959961e-01 7.473911345005035400e-02 1.632587611675262451e-01 7.671769857406616211e-01 2.040764093399047852e+00 -9.973382353782653809e-01 -2.734571933746337891e+00 1.390226483345031738e+00 -4.389167428016662598e-01 -1.614640355110168457e+00 2.351128816604614258e+00 -7.420964241027832031e-01 -2.204018086194992065e-01 1.702454209327697754e+00 -1.305817604064941406e+00 1.619412750005722046e-02 4.557295739650726318e-01 -5.036451220512390137e-01 -1.629213094711303711e+00 -1.997301220893859863e+00 -1.005377769470214844e+00 -3.485122680664062500e+00 1.187156200408935547e+00 1.224464654922485352e+00 -4.626567840576171875e+00 1.824897408485412598e+00 -7.880851626396179199e-01 2.076074331998825073e-01 -3.978228330612182617e+00 -1.970609188079833984e+00
-1.987770915031433105e+00 1.306667447090148926e+00 6.574562788009643555e-01 -5.901455879211425781e-01 -6.997134685516357422e-01 1.932481676340103149e-01 -2.594690322875976562e+00 -2.030367851257324219e+00 1.962400794029235840e+00 -9.617440700531005859e-01 -6.391048431396484375e-01 1.333284854888916016e+00 2.424469292163848877e-01 2.486242532730102539e+00 1.545920968055725098e-01 -2.752278089523315430e+00 2.550993561744689941e-01 -4.774219691753387451e-01 -6.440802663564682007e-02 -7.074320912361145020e-01 -2.291834592819213867e+00 3.549002170562744141e+00 -1.902486920356750488e+00 -1.959576755762100220e-01 -5.659402012825012207e-01 1.696985125541687012e+00 -1.731935739517211914e+00 -1.114778637886047363e+00 3.261378526687622070e+00 7.432826757431030273e-01 -1.746239781379699707e+00 7.347966432571411133e-01 -2.052455186843872070e+00 2.363387346267700195e-01 -1.658663392066955566e+00 -1.660497307777404785e+00 5.426087379455566406e-01 -8.027783036231994629e-01 -5.394818782806396484e-01 -1.683272838592529297e+00
2.024077177047729492e+00 -1.493047475814819336e-01 1.937574744224548340e-01 -8.352285027503967285e-01 5.848090648651123047e-01 1.709578037261962891e+00 -3.135409116744995117e+00 -1.473753213882446289e+00 2.699302673339843750e+00 -1.231279730796813965e+00 -1.116421818733215332e+00 -9.562029242515563965e-01 -4.191840589046478271e-01 -2.739242553710937500e+00 4.226562976837158203e+00 -1.805415034294128418e+00 -2.437396526336669922e+00 -2.796608209609985352e+00 -1.348717331886291504e+00 -7.187842130661010742e-01 4.669168293476104736e-01 -1.582864999771118164e+00 -3.189619541168212891e+00 -6.510865688323974609e-01 -8.701142668724060059e-02 1.678318262100219727e+00 2.365887880325317383e+00 -6.808031201362609863e-01 -6.542927026748657227e-01 -2.455338716506958008e+00 -4.993791282176971436e-01 -5.199994444847106934e-01 1.231691956520080566e+00 2.568042755126953125e+00 -1.074457645416259766e+00 5.620747804641723633e-01 -1.124457735568284988e-02 1.350947380065917969e+00 -2.092514753341674805e+00 1.092610597610473633e+00
-7.533320188522338867e-01 -1.875925183296203613e+00 2.796237170696258545e-01 -4.461162909865379333e-02 -5.100576877593994141e-01 1.677012324333190918e+00 -1.871431231498718262e+00 2.252657890319824219e+00 -3.545074701309204102e+00 1.158306241035461426e+00 2.482556104660034180e-01 8.180843293666839600e-02 -3.466213941574096680e-01 -2.121889293193817139e-01 3.886800527572631836e+00 7.599720954895019531e-01 1.742488980293273926e+00 -2.417275667190551758e+00 -2.780120372772216797e-01 -1.119418665766716003e-01 -1.831666350364685059e+00 1.418478012084960938e+00 -1.070650935173034668e+00 8.569344878196716309e-01 -2.165139913558959961e+00 -2.179080009460449219e+00 -9.555249810218811035e-01 1.428899526596069336e+00 -2.829452037811279297e+00 -1.061869502067565918e+00 -7.184535861015319824e-01 -2.796800136566162109e+00 1.422800064086914062e+00 -6.612740159034729004e-01 -1.684854865074157715e+00 -1.012632131576538086e+00 5.779142975807189941e-01 2.897660732269287109e+00 2.568484067916870117e+00 -4.669425010681152344e+00
-2.205704689025878906e+00 5.822259187698364258e-01 -6.903635263442993164e-01 -2.419952861964702606e-02 2.532166481018066406e+00 -2.864379882812500000e+00 1.277355700731277466e-01 1.803876876831054688e+00 5.801705718040466309e-01 -9.979736208915710449e-01 -1.305787861347198486e-01 1.187872290611267090e+00 1.896293282508850098e+00 -9.595264196395874023e-01 -2.059690952301025391e+00 -1.994114160537719727e+00 -1.818744897842407227e+00 -2.193253278732299805e+00 1.944402337074279785e+00 1.775546908378601074e+00 -3.712470054626464844e+00 1.025001764297485352e+00 5.513550043106079102e-01 -2.958394289016723633e+00 5.362316608428955078e+00 2.333383083343505859e+00 -1.505762577056884766e+00 1.109562039375305176e+00 -3.524068832397460938e+00 -6.231752038002014160e-01 6.608298420906066895e-01 6.050779223442077637e-01 8.818461298942565918e-01 -3.723592996597290039e+00 -1.084876298904418945e+00 3.384050130844116211e-01 1.111378192901611328e+00 -1.919781804084777832e+00 3.182759135961532593e-02 -2.090012311935424805e+00
-1.051383376121520996e+00 -1.228700041770935059e+00 1.124027013778686523e+00 2.273161649703979492e+00 1.937325716018676758e+00 3.727408170700073242e+00 -5.408048033714294434e-01 -8.168926835060119629e-01 2.196577191352844238e-01 1.890124917030334473e+00 -3.418848752975463867e+00 3.233366906642913818e-01 1.050071477890014648e+00 1.579275727272033691e+00 1.229159757494926453e-01 1.073973536491394043e+00 -1.671459317207336426e+00 -1.172271370887756348e+00 -2.650738716125488281e+00 -8.491786718368530273e-01 -1.231469869613647461e+00 -7.658160924911499023e-01 6.004871726036071777e-01 -1.319205522537231445e+00 -5.641054734587669373e-02 2.634230613708496094e+00 1.485960245132446289e+00 1.137963175773620605e+00 1.058868527412414551e+00 -5.055230259895324707e-01 -1.268215626478195190e-01 -2.038131237030029297e+00 -3.577844381332397461e+00 -1.851852655410766602e+00 -6.205448508262634277e-01 -2.716337680816650391e+00 -9.975339174270629883e-01 -1.375983119010925293e+00 -2.810555696487426758e+00 -1.718791604042053223e+00
-3.437456369400024414e+00 4.489668905735015869e-01 -9.812372922897338867e-01 -4.369108676910400391e+00 -8.057502508163452148e-01 -1.001908659934997559e+00 3.508482575416564941e-01 -3.584051132202148438e+00 6.127039194107055664e-01 -2.174715042114257812e+00 2.546668529510498047e+00 -1.771558642387390137e+00 2.701321601867675781e+00 -1.466636896133422852e+00 -1.400274336338043213e-01 -9.439312815666198730e-01 1.173433303833007812e+00 3.589906215667724609e+00 -4.115052700042724609e+00 -1.359568715095520020e+00 7.845355868339538574e-01 -1.609190344810485840e+00 -1.994548439979553223e+00 3.492078930139541626e-02 -5.061431527137756348e-01 1.130653858184814453e+00 4.056781232357025146e-01 -1.786360740661621094e+00 3.760819435119628906e+00 5.373157858848571777e-01 1.868334174156188965e+00 -9.718179106712341309e-01 -3.821598887443542480e-01 -1.733640313148498535e+00 4.221819043159484863e-01 -1.085098147392272949e+00 8.179415464401245117e-01 -7.592607140541076660e-01 3.095887601375579834e-01 4.940817832946777344e+00
-2.003389358520507812e+00 -3.646068811416625977e+00 2.582111060619354248e-01 2.424910306930541992e+00 -1.721394896507263184e+00 -2.936061322689056396e-01 8.128268122673034668e-01 -2.169694185256958008e+00 7.625823616981506348e-01 -2.416086792945861816e-01 4.872520864009857178e-01 3.343781948089599609e+00 1.192826852202415466e-01 -1.272108435630798340e+00 1.284030675888061523e+00 -1.068438172340393066e+00 3.239579498767852783e-01 -1.537296891212463379e+00 3.453412055969238281e+00 1.107532858848571777e+00 2.720654010772705078e-01 7.860553860664367676e-01 -7.698799371719360352e-01 -3.707440793514251709e-01 -4.059932231903076172e-01 -2.029512524604797363e-01 4.589231014251708984e+00 -4.117084145545959473e-01 -1.554839730262756348e+00 -3.997731208801269531e-01 -1.307085037231445312e+00 -3.837015628814697266e+00 -3.496165037155151367e+00 -2.033785820007324219e+00 9.806501269340515137e-01 4.031923413276672363e-01 -1.327365785837173462e-01 -2.017573118209838867e+00 -1.435402989387512207e+00 -1.054404735565185547e+00
2.304493904113769531e+00 -3.514738082885742188e-01 -1.936778068542480469e+00 -7.032921910285949707e-01 -1.449791431427001953e+00 5.460656881332397461e-01 8.409965634346008301e-01 1.911236763000488281e+00 -3.326226949691772461e+00 2.146622419357299805e+00 -2.682871103286743164e+00 -7.662685513496398926e-01 1.118200421333312988e+00 1.710228681564331055e+00 6.395912766456604004e-01 -3.083587646484375000e+00 -3.014780521392822266e+00 1.687648296356201172e+00 2.640873491764068604e-01 3.265422582626342773e+00 -2.678275108337402344e+00 1.455755949020385742e+00 9.579412341117858887e-01 -1.687435150146484375e+00 -5.720918178558349609e-01 -3.611873865127563477e+00 5.940473079681396484e-01 -1.664001196622848511e-01 -2.428662061691284180e+00 -1.704235672950744629e+00 -4.592802524566650391e-01 1.491663813591003418e+00 2.898500204086303711e+00 2.703146040439605713e-01 -5.495422706007957458e-02 5.381117463111877441e-01 -2.348783969879150391e+00 -2.789669513702392578e+00 5.169470310211181641e+00 -2.849472522735595703e+00
-2.073900461196899414e+00 -1.323275119066238403e-01 2.267997503280639648e+00 -1.820142388343811035e+00 1.475677490234375000e-01 3.895901441574096680e-01 3.022109985351562500e+00 -1.558530688285827637e+00 -1.085373520851135254e+00 -1.704148769378662109e+00 -8.974664211273193359e-01 -6.085997223854064941e-01 -2.596397399902343750e+00 -9.761540293693542480e-01 -7.863447070121765137e-01 1.861086845397949219e+00 -1.124178886413574219e+00 -1.093035101890563965e+00 -3.562083482742309570e+00 5.779460072517395020e-01 3.697660923004150391e+00 -3.225892305374145508e+00 -4.968564510345458984e-01 1.627391099929809570e+00 1.449059844017028809e-01 2.041928529739379883e+00 -8.476520180702209473e-01 -5.435243248939514160e-01 1.548952013254165649e-01 -5.099190473556518555e-01 -4.007800579071044922e+00 4.686960220336914062e+00 1.744968414306640625e+00 8.666985034942626953e-01 -2.514626681804656982e-01 -2.131397724151611328e+00 -4.255775451660156250e+00 -6.839880943298339844e-01 1.023049473762512207e+00 1.749719142913818359e+00
-5.145803689956665039e-01 2.005930185317993164e+00 -1.483760118484497070e+00 3.988555371761322021e-01 -1.376895904541015625e+00 1.677359938621520996e+00 1.153375029563903809e+00 -1.620787978172302246e+00 -8.712127804756164551e-01 -1.651934981346130371e+00 -1.002053499221801758e+00 -2.266898155212402344e+00 -2.560101985931396484e+00 1.597111701965332031e+00 -1.571731328964233398e+00 -5.354254841804504395e-01 1.600115656852722168e+00 2.473223209381103516e+00 1.730682134628295898e+00 -9.153393507003784180e-01 -4.284881114959716797e+00 -2.806227445602416992e+00 -3.172592163085937500e+00 -2.137972116470336914e+00 1.380229949951171875e+00 1.568115353584289551e+00 -1.794651627540588379e+00 7.446809411048889160e-01 -4.729362010955810547e+00 -1.216619849205017090e+00 2.891733884811401367e+00 1.000158905982971191e+00 2.355900526046752930e+00 1.339056968688964844e+00 1.810013294219970703e+00 1.706322431564331055e-01 -2.272466182708740234e+00 -2.051162719726562500e+00 3.684306144714355469e+00 -1.835190951824188232e-01
-1.980700969696044922e+00 2.349249124526977539e+00 2.141238562762737274e-02 1.456585407257080078e+00 1.032596349716186523e+00 2.470520883798599243e-01 -4.029914438724517822e-01 -1.448836922645568848e-01 -1.440228104591369629e+00 -2.636979103088378906e+00 1.350252032279968262e+00 -9.575494527816772461e-01 -4.950833916664123535e-01 2.059467881917953491e-01 2.228741645812988281e+00 -1.508637666702270508e+00 1.223472952842712402e+00 -1.903185129165649414e+00 1.782954573631286621e+00 2.854786157608032227e+00 -1.156849980354309082e+00 3.805253505706787109e-01 -6.247150897979736328e-01 1.570783138275146484e+00 -3.002966165542602539e+00 -1.069404840469360352e+00 -3.163595438003540039e+00 -1.175599575042724609e+00 -2.217066437005996704e-01 9.571692943572998047e-01 1.683159351348876953e+00 -2.182495832443237305e+00 -2.042832851409912109e+00 -2.028077125549316406e+00 -2.098387956619262695e+00 -8.994526267051696777e-01 1.899861693382263184e+00 -1.334275960922241211e+00 1.713221788406372070e+00 -2.097658872604370117e+00
3.653431653976440430e+00 5.634727478027343750e-01 1.462461799383163452e-01 3.755619823932647705e-01 1.543430209159851074e+00 2.006298303604125977e+00 3.069082498550415039e+00 -1.959114432334899902e+00 3.013216733932495117e+00 -2.493929713964462280e-01 -4.999560117721557617e-01 -2.521247386932373047e+00 7.376227378845214844e-01 -2.444016218185424805e+00 -2.112371921539306641e+00 -3.606592416763305664e+00 -4.928765594959259033e-01 3.129121661186218262e-01 -2.032868862152099609e+00 8.436536192893981934e-01 2.165330499410629272e-01 5.533022284507751465e-01 -8.724262714385986328e-01 -3.154391765594482422e+00 -7.927495241165161133e-01 -1.879181027412414551e+00 -3.085649728775024414e+00 -9.424350261688232422e-01 -1.807505011558532715e+00 7.399340271949768066e-01 -1.082016706466674805e+00 2.982897043228149414e+00 1.497850060462951660e+00 8.215981125831604004e-01 7.910922765731811523e-01 -2.551034092903137207e-01 1.712520122528076172e+00 -3.216762542724609375e-01 -1.847641944885253906e+00 -3.828558921813964844e+00
2.794352471828460693e-01 2.810801506042480469e+00 -1.218991518020629883e+00 -1.184928297996520996e+00 -4.781106859445571899e-02 -5.032887458801269531e-01 -1.251002192497253418e+00 -1.449575066566467285e+00 -1.806488484144210815e-01 -3.030401229858398438e+00 1.937316775321960449e+00 -1.271413087844848633e+00 -1.934734821319580078e+00 -8.093583583831787109e-02 4.001827239990234375e+00 -2.405147552490234375e+00 9.192219376564025879e-01 2.760629355907440186e-01 -2.458218112587928772e-02 -1.269615530967712402e+00 -6.694350838661193848e-01 -3.468965768814086914e+00 -2.060262858867645264e-02 2.767752647399902344e+00 2.132361412048339844e+00 -2.522010803222656250e-01 -1.448243975639343262e+00 1.909144878387451172e+00 2.374467551708221436e-01 -2.957842051982879639e-01 -3.044579625129699707e-01 -3.641280412673950195e+00 1.901431679725646973e+00 3.541634976863861084e-01 -6.110337972640991211e-01 -3.191740274429321289e+00 -2.843122005462646484e+00 1.930154681205749512e+00 -1.614583015441894531e+00 1.463432669639587402e+00
